svm_type nu_svr
kernel_type rbf
gamma 1
nr_class 2
total_sv 13
rho -0.3
SV
-1 1:190 
1 1:140 
-0.5833333749999998 1:185 
0.1496988522949219 1:101 
-0.583333375 1:52 
0.4838049477539062 1:265 
-0.2500003750000001 1:220 
0.4833981738281251 1:255 
1 1:190 
-0.7500003750000001 1:155 
0.3167321738281251 1:80 
0.3163658522949219 1:275 
-0.5833325 1:140 
