svm_type nu_svr
kernel_type rbf
gamma 0
nr_class 2
total_sv 28
rho 0
SV
-1 0:0.000589 
0.25 0:0.000457 
-1 0:0.000713 
1 0:0.000791 
-1 0:0.001009 
1 0:0.000403 
-1 0:0.000277 
1 0:0.000478 
1 0:0.000538 
-1 0:0.000933 
1 0:0.000449 
-0.25 0:0.000343 
-1 0:0.000771 
-1 0:0.000154 
-1 0:0.000518 
1 0:0.000634 
-1 0:0.000434 
1 0:0.000658 
-1 0:0.000511 
1 0:0.000535 
1 0:0.000672 
-1 0:0.000513 
1 0:0.000593 
1 0:0.000403 
-1 0:0.000326 
-1 0:0.000383 
1 0:0.000505 
1 0:0.000707 
