svm_type nu_svr
kernel_type rbf
gamma 0
nr_class 2
total_sv 28
rho 0
SV
-1 0:564.58441 
0.25 0:725.46198 
-1 0:714.8045 
1 0:669.13043 
-1 0:787.40277 
1 0:633.92914 
-1 0:447.74573 
1 0:1005.8044 
1 0:512.27393 
-1 0:232.14264 
1 0:866.62476 
-0.25 0:305.73157 
-1 0:394.25983 
-1 0:644.00458 
-1 0:451.15335 
1 0:525.13648 
-1 0:406.57483 
1 0:525.77222 
-1 0:472.09235 
1 0:622.1748 
1 0:595.60547 
-1 0:398.70984 
1 0:510.10651 
1 0:633.92914 
-1 0:235.69646 
-1 0:314.22421 
1 0:754.89471 
1 0:660.87097 
