svm_type nu_svr
kernel_type rbf
gamma 1
nr_class 2
total_sv 105
rho 0.0320085
SV
0.03138251534353487 1:1015 
0.03197682851032957 1:745 
0.03197505125001654 1:1304 
0.0321430021027187 1:777 
0.03180754272964048 1:1114 
0.02351473532300097 1:798 
0.03188854839235733 1:960 
0.03196865922377112 1:841 
0.03138293553726368 1:856 
0.02368757580899705 1:905 
0.03218128031315526 1:1102 
0.02339216950313938 1:1033 
0.07364944185131461 1:1034 
0.03201693342013245 1:1229 
0.03196756701463188 1:677 
1 1:1154 
-0.9677072108726912 1:272 
0.09404374369994861 1:1284 
0.03128675745956011 1:1006 
0.03227355775330487 1:1234 
0.03195122560530739 1:1140 
0.03197403000629512 1:1049 
0.03203212908611242 1:814 
0.02332107755213608 1:1260 
0.03214459269284464 1:956 
0.02281412001075206 1:1187 
0.03184083955058559 1:1091 
1 1:762 
0.02328511178512904 1:933 
0.03156148127447758 1:742 
-0.9672726591809309 1:616 
0.03208558410029585 1:901 
0.03198904162617792 1:657 
-0.9673395201028187 1:1170 
-0.3363977973268856 1:1153 
0.0319618145080994 1:964 
1 1:1053 
0.03206773148606068 1:1307 
0.03197159456597216 1:868 
-1 1:1070 
-0.9685272988562624 1:1322 
0.03165859701316934 1:982 
0.0319618145405413 1:920 
0.04361583953924711 1:1320 
0.02378421564280921 1:1082 
0.03162963246069805 1:1003 
0.0318713015226606 1:830 
0.02322133321896412 1:1098 
0.02306400335377016 1:1186 
0.03214459620956839 1:733 
0.02356772912724317 1:932 
0.0233085795811561 1:799 
0.03212132098702247 1:1215 
0.03198071988969717 1:773 
0.4000187403239194 1:1069 
0.03195977269109434 1:833 
0.02359078936071255 1:997 
0.03196865570916328 1:989 
0.03184204307731273 1:1128 
0.03113322298836538 1:1219 
0.03160026599535357 1:924 
0.03163348713173224 1:1221 
0.0318857726836408 1:1086 
0.03201693342058986 1:582 
0.0321124064117435 1:1073 
0.03104217651437167 1:1017 
0.03091645402779344 1:854 
-0.05007382555984403 1:1034 
0.02323415591637205 1:1099 
0.02319336998805668 1:998 
0.03192202022312008 1:909 
0.03203212655506356 1:937 
0.03184835443812165 1:809 
0.03177139456386341 1:1177 
0.03192699174826447 1:1164 
0.03199579847269958 1:1039 
0.03818931695436352 1:1151 
0.03124999999305585 1:1058 
0.03179138762839457 1:1196 
0.03194634119696672 1:1183 
0.03219372493540293 1:1137 
0.02322960580963131 1:906 
0.0225279039569251 1:1083 
0.03162391565809278 1:1299 
0.04959238857251401 1:1042 
-0.06209602603162911 1:1284 
0.03165417414497245 1:974 
0.02317954123010992 1:1261 
0.03147863908583703 1:912 
0.03170676868350925 1:1008 
0.03084430790467047 1:926 
0.03128675745892143 1:836 
0.03087590459257741 1:1056 
0.03197414252802461 1:1203 
0.03214459620956852 1:949 
0.02324593150075707 1:792 
0.03123031092050833 1:1189 
0.03176870534724628 1:861 
0.02364606541516675 1:791 
-0.9682051072888173 1:1044 
0.03186698901456085 1:985 
0.03156796313913028 1:898 
0.03162391565812881 1:740 
0.01624363035299842 1:1319 
0.03182268291287943 1:1066 
