svm_type nu_svr
kernel_type rbf
gamma 0.5
nr_class 2
total_sv 101
rho 0.0457211
SV
0.2109797998161728 1:122.42004 2:0.000534 
-1 1:211.1675 2:0.000403 
0.03697924436617106 1:184.08177 2:0.000689 
0.003141062487306723 1:194.78667 2:0.000513 
-0.8342347382917683 1:187.60159 2:0.000424 
0.03311832646603685 1:174.87781 2:0.000298 
0.0458946897884015 1:179.7747 2:0.00064 
0.03048353293018746 1:245.15866 2:0.000562 
0.02947464022244251 1:111.76267 2:0.00042 
0.045691232495506 1:258.78903 2:0.000672 
0.03922591740175918 1:243.40955 2:0.000538 
0.002254390841439191 1:108.40743 2:0.000511 
0.07109233181381205 1:154.93671 2:0.00026 
0.5396729188138857 1:134.63148 2:0.000658 
-0.4665827383760144 1:211.1675 2:0.000403 
0.0443144170201768 1:125.32471 2:0.000706 
0.04552564795935155 1:317.07281 2:0.000716 
1 1:187.0966 2:0.000593 
-0.9957267928108168 1:152.31142 2:0.000154 
0.01338093137951901 1:156.18234 2:0.000582 
0.8433617755646309 1:137.77418 2:0.000857 
0.04677640320916676 1:169.74104 2:0.000672 
0.007562663493801969 1:110.60689 2:0.000505 
0.03659389416523795 1:117.79584 2:0.000343 
0.0226142882575382 1:93.960075 2:0.000411 
0.03963389519902227 1:62.218277 2:0.000383 
0.03857531513756274 1:194.78667 2:0.000513 
0.04570109627493879 1:272.56207 2:0.000429 
0.04538778590313527 1:233.00282 2:0.000451 
1 1:212.32161 2:0.000707 
0.04545075995041611 1:219.63496 2:0.000586 
-0.03055814091275317 1:168.61116 2:0.00039 
-1 1:122.04619 2:0.00024 
0.04549238899497646 1:251.46826 2:0.000452 
-0.9612340464129345 1:40.574505 2:0.000326 
0.04139659533067547 1:196.95021 2:0.000589 
0.04545801159203245 1:290.93979 2:0.000531 
-0.8761601239855921 1:137.8206 2:0.000613 
0.03248482711359652 1:173.51231 2:0.000602 
1 1:131.64836 2:0.000505 
0.04518475594280839 1:164.6559 2:0.000853 
0.008755019521502779 1:118.39919 2:0.000581 
-0.9515742715017999 1:44.069962 2:0.000933 
-0.9540047773068122 1:572.40143 2:0.001009 
0.05961325233616464 1:168.07809 2:0.000819 
1 1:211.117 2:0.000853 
0.004556286279648627 1:92.28968 2:0.000697 
-0.001640133705895358 1:91.326851 2:0.000637 
0.03707420827742935 1:114.43704 2:0.000818 
0.1148446808843611 1:148.28641 2:0.000876 
0.09296120208335018 1:138.30226 2:0.000771 
-0.4073588744317938 1:134.92932 2:0.00073 
0.007713716166117034 1:73.443481 2:0.000549 
0.01464650982089026 1:75.059196 2:0.00056 
0.03665830252420475 1:72.823708 2:0.000775 
0.2758654641077854 1:150.36011 2:0.000551 
0.03482411492667215 1:120.21809 2:0.000658 
0.04932818831947262 1:84.585358 2:0.000589 
0.03104438843795056 1:101.42107 2:0.000664 
0.04308374353191222 1:105.6449 2:0.000865 
0.03242191599123091 1:64.040039 2:0.001064 
0.03851057078888271 1:68.875267 2:0.000683 
-0.1688119529829711 1:149.2966 2:0.000748 
0.03695763239558529 1:90.997894 2:0.000758 
0.04001572170711594 1:247.03374 2:0.001417 
0.01781713375735233 1:113.12672 2:0.000766 
0.857159271706895 1:121.96153 2:0.000767 
0.01599273588065525 1:95.614876 2:0.000626 
0.009769772696053476 1:88.994751 2:0.000814 
-0.2645483168175396 1:97.601379 2:0.000724 
-0.6875249146154119 1:99.353554 2:0.000723 
0.9871265414385608 1:129.24826 2:0.001007 
-0.03278805815099801 1:78.399452 2:0.001106 
-0.01804194392338251 1:121.17292 2:0.000473 
-0.01183476881266399 1:84.184044 2:0.000575 
0.02822327414423748 1:109.8411 2:0.00131 
0.006156998049814136 1:66.906998 2:0.000441 
0.03027042017924972 1:65.945 2:0.000494 
0.04632984232438941 1:47.813747 2:0.00046 
0.03556024739843978 1:107.93533 2:0.000599 
0.04406007592157172 1:77.674416 2:0.000571 
0.0450758572388246 1:57.090328 2:0.00047 
1 1:97.889984 2:0.000464 
-0.001210017567602105 1:81.708939 2:0.000686 
1 1:99.147339 2:0.000559 
0.1215182658639709 1:38.322647 2:0.000513 
0.03274951415957194 1:82.794144 2:0.000634 
0.05015394148842202 1:78.912949 2:0.00043 
0.009395870110627022 1:67.299492 2:0.000588 
0.02236532150355782 1:92.750999 2:0.000756 
0.03456433131373418 1:81.077324 2:0.000754 
0.01796592219837929 1:95.077652 2:0.000546 
-0.4233817391037686 1:133.02512 2:0.000748 
-1 1:129.31689 2:0.000409 
-1 1:98.256821 2:0.000787 
0.0328774666247522 1:100.68175 2:0.000827 
0.03508978908630657 1:88.509705 2:0.000584 
0.02604719593085829 1:75.457474 2:0.000661 
0.04531311765849242 1:53.817097 2:0.000468 
0.006822848321037221 1:67.587502 2:0.00086 
-0.002967863317220851 1:94.29567 2:0.00088 
