svm_type nu_svr
kernel_type rbf
gamma 1
nr_class 2
total_sv 53
rho -0.111718
SV
-0.1110998652061134 0:1015 1:0.000534 
1 0:1034 1:0.000403 
0.2212914542676351 0:745 1:0.000689 
0.5546244455325425 0:956 1:0.000513 
0.3877452219258486 0:1304 1:0.000424 
-0.4447677759037221 0:777 1:0.000298 
0.7209955733632077 0:1114 1:0.00064 
-0.111434775903722 0:798 1:0.000562 
0.2210466508515236 0:960 1:0.00042 
0.7213688382265899 0:841 1:0.000672 
0.7211657897580571 0:856 1:0.000538 
-0.4469133951258257 0:905 1:0.000511 
0.5545132437680003 0:1102 1:0.00026 
0.4046738316249898 0:1033 1:0.000658 
-0.5931967587751655 0:1034 1:0.000403 
0.3878454972036795 0:1229 1:0.000706 
0.05459965272543682 0:677 1:0.000716 
0.861972629886805 0:1154 1:0.000593 
-1 0:272 1:0.000154 
0.05451765403931285 0:1284 1:0.000582 
0.387907727109091 0:1006 1:0.000857 
0.3879389003213536 0:1234 1:0.000672 
-0.1113706982672706 0:1140 1:0.000505 
-0.6114328816574931 0:1049 1:0.000343 
-0.6114125875236653 0:814 1:0.000411 
-1 0:1260 1:0.000383 
-1 0:956 1:0.000513 
0.4252064734734398 0:1187 1:0.000429 
0.05425307806383128 0:1091 1:0.000451 
0.8879672070002638 0:762 1:0.000707 
0.5546990533459309 0:933 1:0.000586 
-0.278085712244839 0:742 1:0.00039 
-1 0:616 1:0.00024 
-0.2781359939598856 0:901 1:0.000452 
-0.611417061866334 0:657 1:0.000518 
-1 0:1170 1:0.000326 
-0.4467280451695955 0:906 1:0.000589 
0.0707288529511097 0:1153 1:0.000531 
-0.2781167159240006 0:964 1:0.000613 
1 0:1260 1:0.000602 
0.8879364621429386 0:1053 1:0.000505 
0.5543766233819675 0:1307 1:0.000853 
0.2211710892036545 0:868 1:0.000581 
-1 0:1070 1:0.000933 
-1 0:1322 1:0.001009 
0.3880190883606879 0:982 1:0.000334 
0.3878956408121171 0:920 1:0.000819 
-0.4264543346161266 0:1320 1:0.000853 
0.05449450064587106 0:1082 1:0.001194 
-0.111510142116332 0:1003 1:0.000697 
-0.2777768530852246 0:830 1:0.000637 
-0.2780968267478894 0:1098 1:0.000818 
-0.1010047558926802 0:1186 1:0.000876 
