svm_type nu_svr
kernel_type rbf
gamma 0.5
nr_class 2
total_sv 110
rho 0.0271611
SV
0.02458413996506637 1:1015 2:122.42004 
0.02709325178166944 1:745 2:184.08177 
0.02709325178166944 1:1304 2:187.60159 
0.02709325178166944 1:777 2:174.87781 
0.02704604366934515 1:1114 2:179.7747 
0.02723968787394426 1:798 2:245.15866 
0.02709325178166944 1:960 2:111.76267 
0.02699431529811791 1:841 2:258.78903 
0.02693938730076961 1:856 2:243.40955 
0.02693938730076961 1:905 2:108.40743 
0.02746306751381389 1:1102 2:154.93671 
0.02747750748697564 1:1033 2:134.63148 
0.02701661987614401 1:1034 2:211.1675 
0.02703365533640067 1:1229 2:125.32471 
0.02705967887753735 1:677 2:317.07281 
1 1:1154 2:187.0966 
-0.9723824631091686 1:272 2:152.31142 
0.02705865046179501 1:1284 2:156.18234 
0.02734624204518432 1:1006 2:137.77418 
0.02734601671075398 1:1234 2:169.74104 
0.02703223669930555 1:1140 2:110.60689 
0.02734601671075398 1:1049 2:117.79584 
0.02734524544339811 1:814 2:93.960075 
0.02734524544339811 1:1260 2:62.218277 
0.02699899087026925 1:956 2:194.78667 
0.02705865046179505 1:1187 2:272.56207 
0.02734479123718114 1:1091 2:233.00282 
1 1:762 2:212.32161 
0.02734474704709555 1:933 2:219.63496 
0.02734437478006043 1:742 2:168.61116 
-0.9723845199406533 1:616 2:122.04619 
0.02734437478006043 1:901 2:251.46826 
0.02734416653484573 1:657 2:100.71413 
-0.9724685811119556 1:1170 2:40.574505 
0.02734375000031335 1:906 2:196.95021 
0.02734375000021452 1:1153 2:290.93979 
0.02734375000018801 1:964 2:137.8206 
0.02734375000018801 1:1260 2:173.51231 
1 1:1053 2:131.64836 
0.02734375000012872 1:1307 2:164.6559 
0.02662288702432159 1:868 2:118.39919 
-0.9725369324861861 1:1070 2:44.069962 
-0.9725224925130245 1:1322 2:572.40143 
0.02686793797149907 1:982 2:111.65286 
0.02734375000012871 1:920 2:168.07809 
0.02734375000012534 1:1320 2:211.117 
0.02734375000008581 1:1082 2:246.04076 
0.02686436550503556 1:1003 2:92.28968 
0.02734374999943597 1:830 2:91.326851 
0.02699431529811795 1:1098 2:114.43704 
0.02693938730076963 1:1186 2:148.28641 
0.0268822278373532 1:733 2:138.30226 
0.02686793797149907 1:932 2:134.92932 
0.02686436550503556 1:799 2:73.443481 
0.0268822278373532 1:1215 2:75.059196 
0.02662288702432159 1:1183 2:72.823708 
0.02662288702432159 1:773 2:150.36011 
0.02734187565981872 1:1069 2:91.247353 
0.02662288702432159 1:833 2:120.21809 
0.02686436550503556 1:997 2:84.585358 
0.02733926366980553 1:989 2:101.42107 
0.027016619876144 1:1128 2:105.6449 
0.02662288702432159 1:1219 2:64.040039 
0.02676163837380191 1:924 2:68.875267 
0.02705967887753739 1:1221 2:149.2966 
0.02709325178166942 1:1086 2:90.997894 
0.02703365533640072 1:582 2:247.03374 
0.02662288702432159 1:1073 2:113.12672 
0.02405090950532352 1:1017 2:121.96153 
0.02667013575694349 1:854 2:95.614876 
0.02693938730076963 1:1034 2:88.994751 
0.02675881100218677 1:1099 2:97.601379 
0.02678156447124378 1:998 2:99.353554 
0.02704079887302868 1:909 2:129.24826 
0.0266958730829947 1:937 2:78.399452 
0.02699899087026925 1:809 2:121.17292 
0.02723400980174231 1:1177 2:84.184044 
0.02662288702432159 1:1229 2:82.125359 
0.02662288702432159 1:1164 2:109.8411 
0.02662288702432159 1:1039 2:66.906998 
0.02674166292378294 1:1151 2:111.23468 
0.02662288702432157 1:1058 2:92.010223 
0.02662288702432159 1:1196 2:65.945 
0.02709325178166942 1:1183 2:47.813747 
0.02733694986773811 1:1137 2:107.93533 
0.02686436550503556 1:906 2:77.674416 
0.02709325178166942 1:1083 2:111.05724 
0.02709325178166942 1:1299 2:57.090328 
0.1522957937802993 1:1042 2:97.889984 
0.02662288702432159 1:1284 2:81.708939 
0.02686391894672766 1:974 2:99.147339 
0.02723968787394426 1:1261 2:38.322647 
0.02685565527797981 1:912 2:100.42133 
0.02674978448406368 1:1008 2:82.794144 
0.02678156447124378 1:926 2:78.912949 
0.02734374999943597 1:836 2:94.83757 
0.02734374999961386 1:1056 2:67.299492 
0.02734601671075396 1:1203 2:92.750999 
0.02734524544339816 1:949 2:81.077324 
0.02734474704709555 1:792 2:95.077652 
0.02734437478006043 1:1189 2:133.02512 
0.02734416653484573 1:861 2:129.31689 
0.02734375000018801 1:791 2:125.35245 
-0.9917043254994381 1:1044 2:98.256821 
0.02733926386062457 1:985 2:100.68175 
0.02734375000012871 1:898 2:88.509705 
0.02734375000012534 1:740 2:75.457474 
0.02734375000008581 1:1319 2:53.817097 
0.02734374999961386 1:1049 2:67.587502 
0.0273418756931274 1:1066 2:94.29567 
