svm_type nu_svr
kernel_type rbf
gamma 0.5
nr_class 2
total_sv 110
rho 0.0283529
SV
0.0283203125002478 1:1015 2:190 
0.0283203125002478 1:745 2:170 
0.0283203125002478 1:1304 2:101 
0.02799464587975764 1:777 2:52 
0.02799464587975764 1:1114 2:265 
0.02864074707108322 1:798 2:220 
0.02864456176559582 1:960 2:73 
0.0279941775333663 1:841 2:255 
0.02856409211909916 1:856 2:190 
0.02862547061271747 1:905 2:155 
0.02864074707031383 1:1102 2:80 
0.02864074707031383 1:1033 2:275 
0.05965204138472557 1:1034 2:140 
0.02862548828125511 1:1229 2:125 
0.02862548828125511 1:677 2:175 
1 1:1154 2:160 
-0.9713542406812914 1:272 2:59 
0.02856445312502065 1:1284 2:160 
0.02799476781849508 1:1006 2:148 
0.02856445312502065 1:1234 2:170 
0.0283203125000826 1:1140 2:175 
0.0283203125000826 1:1049 2:135 
0.02856447651150873 1:814 2:70 
0.0283203125000826 1:1260 2:45 
0.02823888675638841 1:956 2:185 
0.02832031249628267 1:1187 2:200 
0.02832031250008261 1:1091 2:170 
1 1:762 2:290 
0.02832031250008261 1:933 2:220 
0.02832031250008261 1:742 2:120 
-0.9713592529289168 1:616 2:45 
0.02799407214872542 1:901 2:150 
0.02815747261034973 1:657 2:115 
-0.9713744940502071 1:1170 2:45 
0.02799400850617449 1:906 2:150 
0.02815747261034973 1:1153 2:230 
0.02799417408471587 1:964 2:140 
0.02799465091561763 1:1260 2:160 
1 1:1053 2:250 
0.02799464587975761 1:1307 2:280 
0.02799464587975761 1:868 2:165 
-0.9714355234882742 1:1070 2:100 
-0.9713554382396913 1:1322 2:129 
0.02799476284670687 1:982 2:174 
0.02799476284670688 1:920 2:126 
0.02807611955348817 1:1320 2:165 
0.02832031250024784 1:1082 2:128 
0.02832031250024784 1:1003 2:190 
0.02832026017248774 1:830 2:120 
0.02832031249289022 1:1098 2:110 
0.02856445312502065 1:1186 2:150 
0.02832031249432222 1:733 2:190 
0.02799407096558659 1:932 2:80 
0.02832031249628267 1:799 2:100 
0.02832031249628256 1:1215 2:240 
0.02832031249628251 1:1183 2:140 
0.02832031249628247 1:773 2:75 
0.02832031250024784 1:1069 2:115 
0.02832031249628256 1:833 2:170 
0.02815747261034973 1:997 2:120 
0.02862548828125516 1:989 2:125 
0.02832031249432222 1:1128 2:180 
0.02832031250024784 1:1219 2:160 
0.02832031250024784 1:924 2:165 
0.02799476284670688 1:1221 2:180 
0.02807611955348817 1:1086 2:160 
0.02832031976983505 1:582 2:185 
0.02832031249432222 1:1073 2:130 
0.02864074707031379 1:1017 2:200 
0.02832031249628247 1:854 2:90 
-0.03157591819787961 1:1034 2:140 
0.02832031249432222 1:1099 2:180 
0.02832031249628256 1:998 2:130 
0.02799465091561763 1:909 2:100 
0.02799454901516863 1:937 2:80 
0.02832031249392552 1:809 2:75 
0.02799417408471587 1:1177 2:170 
0.02864074707031379 1:1229 2:90 
0.02862548828125516 1:1164 2:180 
0.02856445312502065 1:1039 2:180 
0.02832031250008261 1:1151 2:95 
0.02832031249628252 1:1058 2:135 
0.02832031249628251 1:1196 2:210 
0.02832031250008261 1:1183 2:80 
0.02832031249628256 1:1137 2:140 
0.02832031249628214 1:906 2:120 
0.02832031250008261 1:1083 2:100 
0.02832031249628249 1:1299 2:170 
0.02832031250008261 1:1042 2:245 
0.02832031250008261 1:1284 2:120 
0.02799465091559729 1:974 2:140 
0.02832031249628247 1:1261 2:120 
0.02832031249430009 1:912 2:200 
0.02832031249628247 1:1008 2:170 
0.02832031249429853 1:926 2:85 
0.02815747261034973 1:836 2:156 
0.02799476781849511 1:1056 2:170 
0.02807612318684594 1:1203 2:180 
0.02823888675638841 1:949 2:150 
0.02832031976983505 1:792 2:115 
0.02832031249432222 1:1189 2:240 
0.02832031250024784 1:861 2:85 
0.02832031250024784 1:791 2:160 
-0.971435907880901 1:1044 2:120 
0.02832031250024784 1:985 2:145 
0.02832031249628215 1:898 2:120 
0.02832031250024784 1:740 2:80 
0.02832031265723364 1:1319 2:135 
0.02799417408471587 1:1049 2:145 
0.02799463272111254 1:1066 2:220 
