svm_type nu_svr
kernel_type rbf
gamma 0.5
nr_class 2
total_sv 15
rho -0.321418
SV
-0.3208997557860681 1:1328.2211 2:1015 
1 1:1017.2359 2:1034 
0.01166036060987391 1:1216.2747 2:745 
-0.6543018309966987 1:1001.5763 2:956 
0.1782171179568289 1:284.74152 2:1304 
-0.6542039776514553 1:1040.3964 2:777 
0.511424777443213 1:256.99347 2:1114 
-0.3208443559444175 1:353.39954 2:798 
0.01160129161161186 1:724.33752 2:960 
0.511660360609874 1:276.96069 2:841 
0.5116130113380848 1:358.11847 2:856 
-0.8209270572251284 1:676.60901 2:905 
0.3443987912968572 1:338.77457 2:1102 
0.344867174507839 1:283.00702 2:1033 
-0.6542659077704145 1:1017.2359 2:1034 
