svm_type nu_svr
kernel_type rbf
gamma 0.5
nr_class 2
total_sv 110
rho 0.0280794
SV
0.02802244099326789 1:1328.2211 2:516.24097 
0.02802244099326789 1:1216.2747 2:514.25031 
0.02800170405493685 1:284.74152 2:540.31665 
0.02800170405493685 1:1040.3964 2:558.74066 
0.02802244114425412 1:256.99347 2:615.01532 
0.0281053888975783 1:353.39954 2:457.76593 
0.027996519820354 1:724.33752 2:508.71634 
0.0249932805497618 1:276.96069 2:595.60547 
0.027996519820354 1:358.11847 2:512.27393 
0.02799522361072226 1:676.60901 2:472.09235 
0.02799522361072226 1:338.77457 2:485.67459 
0.02781121873758174 1:283.00702 2:525.77222 
0.02780920635806317 1:1017.2359 2:633.92914 
0.02780920635806317 1:280.64706 2:348.40878 
0.02789046491769076 1:561.47235 2:452.17032 
1 1:753.75763 2:510.10651 
-0.9721874855057447 1:3468.8306 2:644.00458 
0.02506927901479794 1:276.49921 2:593.62805 
0.02811857127707884 1:260.56043 2:513.64008 
0.02780920635806317 1:391.67111 2:599.19843 
0.02780920635806317 1:521.31824 2:519.73486 
0.02817700481265673 1:345.1481 2:305.73157 
0.02838004164126562 1:5365.5361 2:469.89963 
0.02789078881911267 1:252.03314 2:314.22421 
0.02832160814343387 1:1001.5763 2:398.70984 
0.02832031068816549 1:478.60736 2:660.32135 
0.02810538889757825 1:626.1297 2:541.71991 
1 1:897.86102 2:660.87097 
0.02746061722214199 1:390.26743 2:526.19269 
0.02811857127707879 1:1598.9414 2:417.44363 
-0.9718229951873434 1:1057.3951 2:455.86713 
0.02832031068816548 1:238.24316 2:599.3794 
0.02789046491769084 1:3760.4128 2:451.15335 
-0.9712988678624781 1:256.2449 2:235.69646 
0.02789078881911268 1:535.77716 2:564.58441 
0.02799522361072222 1:373.483 2:497.3168 
0.02780920635806317 1:1151.014 2:662.53265 
0.02799522361072224 1:590.18298 2:635.51575 
1 1:398.63901 2:754.89471 
0.02799651982035404 1:228.86702 2:598.44568 
0.0280017040549368 1:1196.2836 2:489.45871 
-0.9718165643935188 1:4583.7803 2:232.14264 
-0.9715621725127609 1:568.21381 2:787.40277 
0.02802244099326784 1:881.04571 2:530.43671 
0.02810538693475747 1:3948.0073 2:705.53766 
0.02781121873758171 1:442.5748 2:568.73761 
0.02832031068816548 1:248.66318 2:520.5058 
0.02826108159587536 1:800.05133 2:470.82245 
0.02832030985774131 1:3012.1274 2:433.52792 
0.02832030985774131 1:870.72296 2:434.06674 
0.02832031068816548 1:596.24262 2:456.8219 
0.02810538693475747 1:552.27222 2:394.25983 
0.02799522361072222 1:871.32562 2:479.24417 
0.02799522361072224 1:694.47742 2:393.99454 
0.02799522361072224 1:200.09001 2:306.28265 
0.02799651982035401 1:529.72784 2:398.27478 
0.02799651982035401 1:2012.1512 2:490.4653 
0.02799651982035404 1:850.95929 2:510.93781 
0.02799651982035404 1:768.0473 2:295.81384 
0.0280017040549368 1:459.62476 2:372.37299 
0.0280017040549368 1:682.61542 2:385.08719 
0.0280017040549368 1:767.72119 2:416.68872 
0.02832031068816546 1:567.7085 2:457.70758 
0.0280017040549368 1:1923.7953 2:300.74512 
0.02816277347422307 1:2342.4438 2:619.66821 
0.02816277347422308 1:601.82971 2:409.6506 
0.02826108159587536 1:6078.5239 2:489.89142 
0.02826108159587536 1:1655.2334 2:411.80115 
0.02832030921610009 1:797.86145 2:529.01337 
0.02832030921610009 1:2360.9907 2:472.04217 
0.02832038425604615 1:667.60211 2:415.63882 
0.0283203097822482 1:610.76752 2:381.51263 
0.0283203097822482 1:475.0296 2:413.94989 
0.02832160814343393 1:2689.7979 2:416.67041 
0.02789111264504138 1:3298.5713 2:374.42261 
0.02816277347422308 1:3204.7935 2:418.05795 
0.02826108159587536 1:506.10291 2:357.68951 
0.02832030921610009 1:2666.9524 2:435.76679 
0.02832030985774131 1:354.80908 2:443.70615 
0.02832030985774131 1:330.05197 2:265.21146 
0.02810538693475747 1:635.41363 2:497.15573 
0.02802244099326784 1:479.36807 2:369.80402 
0.0280017040549368 1:147.18599 2:258.46668 
0.02799651982035404 1:888.4707 2:196.42186 
0.02799522361072224 1:1079.5116 2:432.35168 
0.02780920635806317 1:2167.0908 2:424.5589 
0.02780920635806317 1:1636.6272 2:447.59552 
0.02746061722214199 1:319.84677 2:286.40317 
0.02802244099326784 1:402.14963 2:351.97165 
0.02802244099326784 1:444.22903 2:367.56323 
0.02802244099326785 1:568.70892 2:410.55814 
0.02780920635806317 1:371.97244 2:335.32657 
0.02832030985774131 1:6455.0381 2:446.13959 
0.02810538693475747 1:626.05267 2:397.17868 
0.02802244099326785 1:502.02637 2:231.2446 
0.02802244114425407 1:905.76196 2:472.57263 
0.02810538693475747 1:728.33258 2:325.24512 
0.02810538693475747 1:290.28839 2:461.4581 
0.02810538693475747 1:689.09216 2:490.23093 
0.02810538693475747 1:2369.6111 2:386.00528 
0.02832030985774131 1:1131.85 2:466.98206 
0.02832030985774131 1:2690.9695 2:463.5795 
0.02832030985774131 1:3133.0188 2:384.93063 
-0.9716199605480399 1:671.90271 2:411.86313 
0.02832031068816549 1:1074.9319 2:401.09644 
0.0283203097822482 1:1693.8639 2:395.96884 
0.0283203097822482 1:537.10272 2:454.82169 
0.02832031068816548 1:515.8432 2:279.95862 
0.02832031068816548 1:1533.7312 2:434.78683 
0.02789111264504138 1:736.91437 2:436.28659 
