svm_type nu_svr
kernel_type rbf
gamma 0.5
nr_class 2
total_sv 108
rho 0.012052
SV
0.01215397136202656 1:1328.2211 2:0.000534 
0.01215595338311726 1:1216.2747 2:0.000689 
0.01045282560900029 1:284.74152 2:0.000424 
0.01239421211144953 1:1040.3964 2:0.000298 
0.7677962471620863 1:256.99347 2:0.00064 
0.008592918292067986 1:353.39954 2:0.000562 
0.01215198932562167 1:724.33752 2:0.00042 
0.006194552083192195 1:276.96069 2:0.000672 
0.01225492820566176 1:358.11847 2:0.000538 
0.01216931788424528 1:676.60901 2:0.000511 
0.01219826648835876 1:338.77457 2:0.00026 
0.009003631149145708 1:283.00702 2:0.000658 
0.01206238416036598 1:1017.2359 2:0.000403 
0.01177433723732546 1:280.64706 2:0.000706 
0.01224677515822015 1:561.47235 2:0.000716 
1 1:753.75763 2:0.000593 
-0.9880995672029733 1:3468.8306 2:0.000154 
0.006303664667047237 1:276.49921 2:0.000582 
0.01066047250693625 1:260.56043 2:0.000857 
0.008766899544670026 1:391.67111 2:0.000672 
0.01159588183909155 1:521.31824 2:0.000505 
0.01159264420133677 1:345.1481 2:0.000343 
0.01232013147002431 1:5365.5361 2:0.000411 
0.01171006224977772 1:252.03314 2:0.000383 
0.01215397135887886 1:1001.5763 2:0.000513 
0.007156962692936308 1:478.60736 2:0.000429 
1 1:897.86102 2:0.000707 
0.008866515560712931 1:390.26743 2:0.000586 
0.01228166436720219 1:1598.9414 2:0.00039 
-0.9880995672029733 1:1057.3951 2:0.00024 
0.01210763693716038 1:238.24316 2:0.000452 
0.01224669009924645 1:3760.4128 2:0.000518 
-1 1:256.2449 2:0.000326 
0.00907498070573824 1:535.77716 2:0.000589 
0.009157579613731899 1:373.483 2:0.000531 
0.01215403086229928 1:1151.014 2:0.000613 
0.01216311361847386 1:590.18298 2:0.000602 
1 1:398.63901 2:0.000505 
0.01215400637971926 1:228.86702 2:0.000853 
0.01219819716428999 1:1196.2836 2:0.000581 
-0.9880987798866889 1:4583.7803 2:0.000933 
-1 1:568.21381 2:0.001009 
0.01255427651173297 1:881.04571 2:0.000334 
0.01219823183646513 1:3948.0073 2:0.000819 
0.00978392900983582 1:442.5748 2:0.000853 
0.01155349722442509 1:248.66318 2:0.001194 
0.01104399800060909 1:800.05133 2:0.000697 
0.01219826650871658 1:3012.1274 2:0.000637 
0.00600852219803614 1:870.72296 2:0.000818 
0.01211324745951716 1:596.24262 2:0.000876 
0.01229120364696554 1:552.27222 2:0.000771 
0.007405391637924444 1:871.32562 2:0.00073 
0.01159963849411387 1:694.47742 2:0.000549 
0.01190532079154951 1:200.09001 2:0.00056 
0.01215539800199227 1:529.72784 2:0.000775 
0.01159314616298092 1:2012.1512 2:0.000551 
0.01159071132499109 1:850.95929 2:0.000774 
0.01228790497834429 1:768.0473 2:0.000658 
0.0115907113249911 1:459.62476 2:0.000589 
0.01215397121720627 1:682.61542 2:0.000664 
0.5511125529411086 1:567.7085 2:0.001064 
0.01159034523601164 1:1923.7953 2:0.000683 
0.01159034523601164 1:2342.4438 2:0.000748 
0.01159028219579898 1:601.82971 2:0.000758 
0.01158951217611037 1:6078.5239 2:0.001417 
0.01158945949015332 1:1655.2334 2:0.000766 
0.01120106136942556 1:797.86145 2:0.000767 
0.01215403086229928 1:2360.9907 2:0.000626 
0.011688401933391 1:667.60211 2:0.000814 
0.01211324847286517 1:610.76752 2:0.000724 
0.01209520654610582 1:475.0296 2:0.000723 
0.007680174478862666 1:2689.7979 2:0.001007 
0.01159964433679157 1:3298.5713 2:0.001106 
0.01159314616298092 1:3204.7935 2:0.000473 
0.01158658427344437 1:506.10291 2:0.000575 
0.01159034523601164 1:2666.9524 2:0.000696 
0.009343610849725299 1:354.80908 2:0.00131 
0.01241610407569317 1:330.05197 2:0.000441 
0.01242453568821014 1:635.41363 2:0.000727 
0.00661110285970945 1:479.36807 2:0.000435 
0.01158951217611037 1:147.18599 2:0.000494 
0.01219826650585057 1:888.4707 2:0.00046 
0.01158913614626832 1:1079.5116 2:0.000599 
0.01219823183646513 1:2167.0908 2:0.000571 
0.01219823183646422 1:1636.6272 2:0.000662 
0.01219826650871658 1:319.84677 2:0.00047 
0.01000569374104366 1:402.14963 2:0.000464 
0.009635768310725804 1:444.22903 2:0.000686 
0.562538954050492 1:568.70892 2:0.000559 
0.009231381115165622 1:371.97244 2:0.000513 
0.0123201314876712 1:6455.0381 2:0.000876 
0.01215397136202653 1:626.05267 2:0.000634 
0.01215254464040757 1:502.02637 2:0.00043 
0.01219819716426215 1:905.76196 2:0.000421 
0.01158548600650594 1:728.33258 2:0.000588 
0.01158956980444099 1:290.28839 2:0.000756 
0.01159018933704425 1:689.09216 2:0.000754 
0.01219823183646422 1:2369.6111 2:0.000546 
0.01211324847286517 1:1131.85 2:0.000748 
0.008273627892217531 1:2690.9695 2:0.000409 
0.01201245087408869 1:3133.0188 2:0.000342 
-0.9878056443664216 1:671.90271 2:0.000787 
0.01158935347033541 1:1074.9319 2:0.000827 
0.0115902847544215 1:1693.8639 2:0.000584 
0.008387944958727529 1:537.10272 2:0.000661 
0.01159956537299506 1:515.8432 2:0.000468 
0.0115907113249911 1:1533.7312 2:0.00086 
0.01232013147002432 1:736.91437 2:0.00088 
