svm_type nu_svr
kernel_type rbf
gamma 1
nr_class 2
total_sv 53
rho -0.108598
SV
-0.1083474602926613 0:1328.2211 1:190 
1 0:1017.2359 1:140 
0.2245816013086218 0:1216.2747 1:170 
0.5578790473489074 0:1001.5763 1:185 
0.3908415991848928 0:284.74152 1:101 
-0.4415838164611802 0:1040.3964 1:52 
0.7245352522716357 0:256.99347 1:265 
-0.1078700480335766 0:353.39954 1:220 
0.2243673964819664 0:724.33752 1:73 
0.724423367503244 0:276.96069 1:255 
0.7241640219397742 0:358.11847 1:190 
-0.6082453759272566 0:676.60901 1:155 
0.5574504589793953 0:338.77457 1:80 
0.5575093724703444 0:283.00702 1:275 
-0.4415902524884533 0:1017.2359 1:140 
0.3908006521404048 0:280.64706 1:125 
0.05789676181759667 0:561.47235 1:175 
0.8908125450330672 0:753.75763 1:160 
-1 0:3468.8306 1:59 
0.05742066530791295 0:276.49921 1:160 
0.3907936046628458 0:260.56043 1:148 
0.3907945332585553 0:391.67111 1:170 
-0.1077841639113307 0:521.31824 1:175 
-0.6082569757489705 0:345.1481 1:135 
-0.6082082555964227 0:5365.5361 1:70 
-0.7750144405194773 0:252.03314 1:45 
-1 0:1001.5763 1:185 
0.3907977025078012 0:478.60736 1:200 
0.05745785054190762 0:626.1297 1:170 
0.8911654871297343 0:897.86102 1:290 
0.5574957764944189 0:390.26743 1:220 
-0.2749125001244705 0:1598.9414 1:120 
-1 0:1057.3951 1:45 
-0.2749372187534447 0:238.24316 1:150 
-0.6082169975267322 0:3760.4128 1:115 
-1 0:256.2449 1:45 
-0.6082758976205913 0:535.77716 1:150 
0.3908306573272188 0:373.483 1:230 
-0.2744796449557667 0:1151.014 1:140 
0.2245249637675787 0:590.18298 1:160 
0.8909960006062345 0:398.63901 1:250 
0.5574787292942107 0:228.86702 1:280 
0.2245816013086218 0:1196.2836 1:165 
-1 0:4583.7803 1:100 
-1 0:568.21381 1:129 
0.3908749824670539 0:881.04571 1:174 
0.3908041635007095 0:3948.0073 1:126 
-0.4416209906993112 0:442.5748 1:165 
0.05751358308418705 0:248.66318 1:128 
-0.107953976315223 0:800.05133 1:190 
-0.274485587884538 0:3012.1274 1:120 
-0.2744780943968184 0:870.72296 1:110 
0.05746931951738294 0:596.24262 1:150 
