svm_type nu_svr
kernel_type rbf
gamma 1
nr_class 2
total_sv 53
rho -0.076517
SV
-0.5538915711074639 0:535.77716 1:564.58441 
-0.05434089122323113 0:800.05133 1:470.82245 
0.4011442220943315 0:428.13965 1:725.46198 
-0.5540753091320991 0:1324.5002 1:714.8045 
0.7344518930719406 0:562.80328 1:669.13043 
-1 0:568.21381 1:787.40277 
1 0:1017.2359 1:633.92914 
-1 0:1977.5859 1:447.74573 
0.4011188930719407 0:391.67111 1:599.19843 
0.9006264009308095 0:961.8056 1:1005.8044 
0.7344727796976411 0:358.11847 1:512.27393 
-1 0:4583.7803 1:232.14264 
0.5677699260982205 0:379.2099 1:866.62476 
0.05635866978201554 0:276.49921 1:593.62805 
-0.3876162257696024 0:1040.3964 1:558.74066 
0.0678067796976411 0:561.47235 1:452.17032 
0.4014876453340125 0:373.483 1:497.3168 
-0.5541051050734064 0:345.1481 1:305.73157 
-0.8874083091320991 0:552.27222 1:394.25983 
-1 0:3468.8306 1:644.00458 
0.2348206453340125 0:1216.2747 1:514.25031 
-0.3874102888393877 0:442.5748 1:568.73761 
-0.221079369981388 0:1598.9414 1:417.44363 
-0.5538915711074639 0:3760.4128 1:451.15335 
0.5681027834862378 0:266.99597 1:525.13648 
-0.7207689746403013 0:977.36426 1:406.57483 
0.5674344940163878 0:283.00702 1:525.77222 
-0.0542863323918286 0:1328.2211 1:516.24097 
0.2348956831052313 0:1196.2836 1:489.45871 
0.4006264009308095 0:881.04571 1:530.43671 
0.4011173394141878 0:284.74152 1:540.31665 
0.4011742079921649 0:260.56043 1:513.64008 
-0.5540924318412914 0:676.60901 1:472.09235 
-0.05407728883938769 0:983.75049 1:742.38281 
0.06775683355056268 0:663.73047 1:482.72513 
0.5681027834862378 0:531.49121 1:622.1748 
0.5677568335505627 0:1001.5763 1:398.70984 
0.7330741773505994 0:276.96069 1:595.60547 
0.06776992609822055 0:596.24262 1:456.8219 
0.2345072079921649 0:590.18298 1:635.51575 
0.2344772220943315 0:1610.8887 1:731.3606 
-0.2207689746403014 0:870.72296 1:434.06674 
-0.2207721050734064 0:1151.014 1:662.53265 
-1 0:1001.5763 1:398.70984 
-0.05409243184129142 0:353.39954 1:457.76593 
0.901014456202774 0:753.75763 1:510.10651 
-0.387745369981388 0:1017.2359 1:633.92914 
-1 0:256.2449 1:235.69646 
-0.05428322576960246 0:521.31824 1:519.73486 
-0.7210078912232312 0:252.03314 1:314.22421 
0.9011173394141878 0:398.63901 1:754.89471 
0.901014456202774 0:897.86102 1:660.87097 
-0.0542863323918286 0:2688.2241 1:530.69006 
