svm_type nu_svr
kernel_type rbf
gamma 1
nr_class 2
total_sv 53
rho -0.1086
SV
-0.1083402001577168 0:0 1:1015 
1 0:0 1:1034 
0.2240753229682088 0:0 1:745 
0.5578319844691981 0:0 1:956 
0.391197194792572 0:7 1:1304 
-0.4412464143733124 0:7 1:777 
0.7243522748972471 0:3 1:1114 
-0.1088096754162559 0:12 1:798 
0.2244422482579828 0:7 1:960 
0.7242362258150938 0:0 1:841 
0.724147244858293 0:8 1:856 
-0.6082869505358164 0:7 1:905 
0.5576627853088822 0:0 1:1102 
0.5578004943024248 0:7 1:1033 
-0.4416310954525711 0:0 1:1034 
0.3909926918993483 0:0 1:1229 
0.0573644834241918 0:2 1:677 
0.8910534033324636 0:0 1:1154 
-1 0:2 1:272 
0.05738565867417175 0:5 1:1284 
0.3911371581073118 0:5 1:1006 
0.3911903245837441 0:5 1:1234 
-0.108009381950209 0:8 1:1140 
-0.6080163375782514 0:0 1:1049 
-0.6080322035246664 0:0 1:814 
-0.7747928082801101 0:11 1:1260 
-1 0:0 1:956 
0.3907136841298384 0:2 1:1187 
0.05747175376834716 0:2 1:1091 
0.8911738079586446 0:10 1:762 
0.5577734638143378 0:10 1:933 
-0.2749825854439041 0:0 1:742 
-1 0:10 1:616 
-0.274954463350919 0:12 1:901 
-0.6082945784154623 0:0 1:657 
-1 0:10 1:1170 
-0.6079021103103689 0:4 1:906 
0.3907975713801379 0:4 1:1153 
-0.2749639407410229 0:2 1:964 
0.2242214806298823 0:2 1:1260 
0.8908668654556287 0:2 1:1053 
0.5578120089500631 0:5 1:1307 
0.2243549462668097 0:5 1:868 
-1 0:4 1:1070 
-1 0:0 1:1322 
0.3907587296843904 0:9 1:982 
0.391216600003725 0:2 1:920 
-0.4413786189194843 0:12 1:1320 
0.05746468989477817 0:0 1:1082 
-0.1079731911292637 0:7 1:1003 
-0.2748967848380954 0:7 1:830 
-0.2746428233100088 0:3 1:1098 
0.05765906609972181 0:5 1:1186 
