svm_type nu_svr
kernel_type rbf
gamma 1
nr_class 2
total_sv 53
rho -0.0839593
SV
-0.5444612469260358 0:4 1:196.95021 
-0.04479922490526009 0:7 1:92.28968 
0.3851124764440211 0:5 1:140.46902 
-0.5444612474024592 0:12 1:126.06876 
0.7101176334111913 0:12 1:228.85782 
-1 0:0 1:572.40143 
1 0:0 1:211.1675 
-1 0:0 1:239.30429 
0.3766707251774824 0:5 1:169.74104 
0.8767376365715296 0:2 1:446.46307 
0.7100957107169478 0:8 1:243.40955 
-1 0:4 1:44.069962 
0.5433432463763243 0:7 1:211.8461 
0.04365247203829947 0:5 1:156.18234 
-0.3780071683408363 0:7 1:174.87781 
0.04332955065716314 0:2 1:317.07281 
0.3766719514694426 0:4 1:290.93979 
-0.5446260333118217 0:0 1:117.79584 
-1 0:5 1:138.30226 
-1 0:2 1:152.31142 
0.2062025099362309 0:0 1:184.08177 
-0.382341584302943 0:12 1:211.117 
-0.2115790027684524 0:0 1:168.61116 
-0.5445462772721014 0:0 1:100.71413 
0.5383590554076204 0:3 1:171.88068 
-0.7114662249052167 0:7 1:201.55022 
0.5439710013410791 0:7 1:134.63148 
-0.04509720670409701 0:0 1:122.42004 
0.2101292077319016 0:5 1:118.39919 
0.3883392673296631 0:9 1:111.65286 
0.3767162527031709 0:7 1:187.60159 
1 0:5 1:137.77418 
-0.5444974618936393 0:7 1:108.40743 
-0.06094958293508909 0:0 1:131.70177 
0.04340451703747974 0:5 1:165.8728 
0.5436943989360494 0:0 1:136.17122 
0.5433832532703486 0:0 1:194.78667 
0.7102732237980403 0:0 1:258.78903 
0.04360722380940277 0:5 1:148.28641 
0.1963065390719702 0:2 1:173.51231 
0.2066038720780243 0:2 1:184.23686 
-0.2113411680750447 0:3 1:114.43704 
-0.2118930209815031 0:2 1:137.8206 
-1 0:0 1:194.78667 
-0.04476223063890634 0:12 1:245.15866 
0.8767718691763431 0:0 1:187.0966 
-0.3784302069784141 0:0 1:211.1675 
-1 0:10 1:40.574505 
-0.09087375236136899 0:8 1:110.60689 
-0.7112671796483999 0:11 1:62.218277 
0.878123211346592 0:2 1:131.64836 
0.8783831941636822 0:10 1:212.32161 
-0.04460017964841075 0:5 1:126.8499 
