svm_type nu_svr
kernel_type rbf
gamma 1
nr_class 2
total_sv 31
rho 0.0198904
SV
-1 0:0 1:1 
1 0:0 1:1 
1 0:7 1:1 
-1 0:7 1:1 
1 0:3 1:1 
1 0:0 1:1 
1 0:8 1:1 
-1 0:7 1:1 
1 0:0 1:1 
1 0:7 1:1 
0.6125036558046034 0:0 1:1 
1 0:0 1:1 
-1 0:2 1:1 
-0.6564738086969557 0:8 1:1 
-1 0:0 1:1 
-1 0:0 1:1 
-0.5102604027511408 0:11 1:1 
-0.7711117224493776 0:0 1:0 
1 0:10 1:1 
0.865421317504422 0:10 1:1 
0.06574797993016292 0:0 1:0 
-1 0:10 1:1 
-0.898764035066148 0:10 1:0 
-0.9465922536945459 0:4 1:0 
1 0:4 1:0 
1 0:2 1:1 
0.7044189891617784 0:5 1:1 
-1 0:4 1:1 
-1 0:0 1:1 
0.001908057599033232 0:2 1:1 
-0.4667977773418318 0:3 1:1 
