svm_type nu_svr
kernel_type rbf
gamma 0.5
nr_class 2
total_sv 11
rho -0.349364
SV
-1 1:0 2:1 
1 1:0 2:1 
-0.7236633709587487 1:0 2:0 
0.5725255546341046 1:7 2:1 
-1 1:7 2:1 
0.1587990067749397 1:3 2:1 
-0.02633662904125136 1:12 2:0 
0.5984994808272291 1:0 2:1 
0.4201759577637263 1:8 2:1 
-1 1:7 2:1 
1 1:7 2:1 
