svm_type nu_svr
kernel_type rbf
gamma 0.333333
nr_class 2
total_sv 15
rho -0.31816
SV
-0.3077077917409829 1:0 2:516.24097 3:0.000534 
1 1:0 2:633.92914 3:0.000403 
-0.04688496441991308 1:0 2:514.25031 3:0.000689 
-0.6510114776407407 1:0 2:398.70984 3:0.000513 
0.1815845618557725 1:0 2:540.31665 3:0.000424 
-0.6510519551422341 1:0 2:558.74066 3:0.000298 
0.5146240226112558 1:0 2:615.01532 3:0.00064 
-0.3177799128198441 1:0 2:457.76593 3:0.000562 
0.006772073188078755 1:0 2:508.71634 3:0.00042 
0.5146469793000077 1:0 2:595.60547 3:0.000672 
0.5291811549943141 1:0 2:512.27393 3:0.000538 
-0.8175006894164365 1:0 2:472.09235 3:0.000511 
0.347928202246451 1:0 2:485.67459 3:0.00026 
0.3481790111347564 1:0 2:525.77222 3:0.000658 
-0.6509792141504849 1:0 2:633.92914 3:0.000403 
