svm_type nu_svr
kernel_type rbf
gamma 0.5
nr_class 2
total_sv 53
rho -0.108596
SV
-0.1087510871518342 0:0 1:0 2:1784.5159 
1 0:0 1:0 2:1899.0386 
0.2249883869076386 0:0 1:0 2:1928.4839 
0.5578814734661989 0:0 1:0 2:1464.4348 
0.3909301178881746 0:0 1:7 2:1455.2574 
-0.4415828592027086 0:0 1:7 2:2185.0735 
0.7245643609832429 0:0 1:3 2:1418.5193 
-0.1078701118822798 0:0 1:12 2:1387.7516 
0.2243735471159733 0:0 1:7 2:1663.5341 
0.7241379797330083 0:0 1:0 2:1489.085 
0.7243915056492043 0:0 1:8 2:1459.4364 
-0.6082418436528567 0:0 1:7 2:1825.4937 
0.5574540000789149 0:0 1:0 2:1481.2729 
0.5575114962008183 0:0 1:7 2:1362.0447 
-0.4415888223143691 0:0 1:0 2:1899.0386 
0.3907933782058831 0:0 1:0 2:1219.8586 
0.05746929566677158 0:0 1:2 2:1472.0798 
0.8908136119427965 0:0 1:0 2:1658.2784 
-1 0:0 1:2 2:6199.2202 
0.05783733625011806 0:0 1:5 2:1440.207 
0.3908445378894488 0:0 1:5 2:1309.333 
0.3907975546897561 0:0 1:5 2:1445.6055 
-0.1077837648174574 0:0 1:8 2:1545.4904 
-0.6082541964902443 0:0 1:0 2:1192.4337 
-0.6082052244696959 0:0 1:0 2:4007.5034 
-0.7750116130923614 0:0 1:11 2:1273.736 
-1 0:0 1:0 2:1464.4348 
0.3908783864537586 0:0 1:2 2:1639.1249 
0.05742140580438362 0:0 1:2 2:1672.0845 
0.8912081248782606 0:0 1:10 2:1768.0786 
0.5574804241807967 0:0 1:10 2:1430.9865 
-0.2749083054024677 0:0 1:0 2:2025.5453 
-1 0:0 1:10 2:2617.1016 
-0.2744778715186356 0:0 1:12 2:1348.2349 
-0.6082124407386438 0:0 1:0 2:3196.9268 
-1 0:0 1:10 2:1194.8899 
-0.6082741282200563 0:0 1:4 2:1591.6799 
0.3908023470106216 0:0 1:4 2:1368.2917 
-0.2749324276709456 0:0 1:2 2:2055.8557 
0.2245298781941687 0:0 1:2 2:1633.4545 
0.8907947672805305 0:0 1:2 2:1692.3934 
0.5574974904340786 0:0 1:5 2:1345.3405 
0.2245819128481658 0:0 1:5 2:1887.9951 
-1 0:0 1:4 2:3143.0408 
-1 0:0 1:0 2:1609.4563 
0.3908350519662668 0:0 1:9 2:1932.5494 
0.3908314185122169 0:0 1:2 2:2951.2705 
-0.4416173515052748 0:0 1:12 2:1469.601 
0.05745968023189996 0:0 1:0 2:1324.3845 
-0.1079511993332274 0:1 1:7 2:1558.2727 
-0.274478809472864 0:1 1:7 2:2358.7581 
-0.2744832139715147 0:1 1:3 2:1624.9089 
0.05751580044434104 0:1 1:5 2:1510.9131 
