svm_type nu_svr
kernel_type rbf
gamma 0.333333
nr_class 2
total_sv 59
rho 0.00179009
SV
0.4751935064980437 1:0 2:0.000424 3:101 
0.001971842901370868 1:0 2:0.000298 3:52 
0.001620653738503064 1:0 2:0.00064 3:265 
0.001420513194769102 1:0 2:0.000562 3:220 
0.001319812415092936 1:0 2:0.00042 3:73 
0.001180143727704364 1:0 2:0.000672 3:255 
0.002096184411634616 1:0 2:0.000538 3:190 
0.001739524387769364 1:0 2:0.000511 3:155 
0.001395882428463446 1:0 2:0.00026 3:80 
0.002094391242330018 1:0 2:0.000658 3:275 
0.002045748151719873 1:0 2:0.000403 3:140 
0.1372041554889325 1:0 2:0.000706 3:125 
-0.001599945655230806 1:0 2:0.000716 3:175 
1 1:0 2:0.000593 3:160 
-0.9979051955751458 1:0 2:0.000154 3:59 
-0.004224285508093395 1:0 2:0.000582 3:160 
0.0017198631336518 1:0 2:0.000857 3:148 
0.0020635978196617 1:0 2:0.000672 3:170 
0.003199549316658556 1:0 2:0.000505 3:175 
0.001435304807049051 1:0 2:0.000343 3:135 
0.001563385786667482 1:0 2:0.000411 3:70 
1 1:0 2:0.000383 3:45 
0.001494538732238038 1:0 2:0.000513 3:185 
0.001585131380822724 1:0 2:0.000429 3:200 
1 1:0 2:0.000707 3:290 
-0.9974572282241603 1:0 2:0.00024 3:45 
0.001599945655230762 1:0 2:0.000518 3:115 
-1 1:0 2:0.000326 3:45 
0.001563055772373439 1:0 2:0.000531 3:230 
-0.9941593983522894 1:0 2:0.000602 3:160 
1 1:0 2:0.000505 3:250 
0.001719609103643305 1:0 2:0.000853 3:280 
-1 1:0 2:0.000933 3:100 
-1 1:0 2:0.001009 3:129 
-0.2328719951508409 1:0 2:0.000819 3:126 
0.7000586630186152 1:0 2:0.001194 3:128 
0.001954469672228692 1:1 2:0.000818 3:110 
0.001138170334829945 1:1 2:0.000664 3:125 
0.001630171956560371 1:1 2:0.000683 3:165 
0.0005389180111547347 1:1 2:0.001417 3:185 
0.3835382405232957 1:1 2:0.000723 3:130 
0.4739623047743987 1:1 2:0.001007 3:100 
0.0006197665945539566 1:1 2:0.001106 3:80 
0.001146589631350477 1:1 2:0.000473 3:75 
0.001380662709549013 1:1 2:0.000696 3:90 
0.001694799550123529 1:1 2:0.00131 3:180 
0.001459493142269773 1:1 2:0.000727 3:95 
0.001610481556529988 1:1 2:0.000494 3:210 
0.001231324220018319 1:1 2:0.000464 3:245 
0.3703315364929565 1:1 2:0.000686 3:120 
0.006275368960135106 1:1 2:0.000513 3:120 
0.0006846632174905241 1:1 2:0.000421 3:156 
0.001046177995953596 1:1 2:0.000754 3:150 
0.002046284087751223 1:1 2:0.000748 3:240 
0.001739865101198288 1:1 2:0.000409 3:85 
-1 1:1 2:0.000787 3:120 
0.6250020358222113 1:1 2:0.000584 3:120 
0.001335942280923371 1:1 2:0.00086 3:145 
0.0005657787173317906 1:1 2:0.00088 3:220 
