svm_type nu_svr
kernel_type rbf
gamma 0.5
nr_class 2
total_sv 53
rho -0.0816419
SV
-0.5632436137391542 0:0 1:1591.6799 2:0.000589 
-0.0627323712925154 0:1 1:1558.2727 2:0.000697 
0.3996716048150545 0:0 1:1728.682 2:0.000457 
-0.563246117006826 0:0 1:2234.8701 2:0.000713 
0.7330045987542037 0:0 1:1652.1434 2:0.000791 
-1 0:0 1:1609.4563 2:0.001009 
1 0:0 1:1899.0386 2:0.000403 
-1 0:0 1:2853.9756 2:0.000277 
0.4002181047433413 0:0 1:1445.6055 2:0.000672 
0.8997576358150405 0:0 1:2036.9913 2:0.000478 
0.7332818026928228 0:0 1:1459.4364 2:0.000538 
-1 0:0 1:3143.0408 2:0.000933 
0.5661165574047874 0:0 1:1772.2177 2:0.000449 
0.06654070067043866 0:0 1:1440.207 2:0.000582 
-0.3966395851969684 0:0 1:2185.0735 2:0.000298 
0.08112052940994945 0:0 1:1472.0798 2:0.000716 
0.3998738854534551 0:0 1:1368.2917 2:0.000531 
-0.5143295007390941 0:0 1:1192.4337 2:0.000343 
-0.8965766137391541 0:1 1:1378.2238 2:0.000771 
-1 0:0 1:6199.2202 2:0.000154 
0.2335218080176515 0:0 1:1928.4839 2:0.000689 
-0.3085129849265947 0:0 1:1469.601 2:0.000853 
-0.2299682978161811 0:0 1:2025.5453 2:0.00039 
-0.5633065851969684 0:0 1:3196.9268 2:0.000518 
0.5667202359716947 0:0 1:1344.2603 2:0.000634 
-0.6857666612342249 0:0 1:1467.5948 2:0.000434 
0.5666786582648482 0:0 1:1362.0447 2:0.000658 
-0.06330129781618106 0:0 1:1784.5159 2:0.000534 
0.2330906358150405 0:0 1:1887.9951 2:0.000581 
0.3998344644597062 0:0 1:1932.5494 2:0.000334 
0.3995037018185194 0:0 1:1455.2574 2:0.000424 
0.3998677025903881 0:0 1:1309.333 2:0.000857 
-0.5632734926987366 0:0 1:1825.4937 2:0.000511 
-0.06327349269873658 0:0 1:2098.7412 2:0.000415 
0.06647325824835697 0:0 1:1603.5798 2:0.000501 
0.5667346662424965 0:0 1:1665.1149 2:0.000535 
0.5714979575830519 0:0 1:1464.4348 2:0.000513 
0.7332309508072303 0:0 1:1489.085 2:0.000672 
0.06656160463975866 0:1 1:1510.9131 2:0.000876 
0.2334838106889668 0:0 1:1633.4545 2:0.000602 
0.2334006663064108 0:0 1:2297.9304 2:0.000475 
-0.2299970542376429 0:1 1:1624.9089 2:0.000818 
-0.2299404926987366 0:0 1:2055.8557 2:0.000613 
-1 0:0 1:1464.4348 2:0.000513 
-0.06330658519696841 0:0 1:1387.7516 2:0.000562 
0.9002181310239427 0:0 1:1658.2784 2:0.000593 
-0.3966064926987366 0:0 1:1899.0386 2:0.000403 
-1 0:0 1:1194.8899 2:0.000326 
-0.06333005423764287 0:0 1:1545.4904 2:0.000505 
-0.7299163355364217 0:0 1:1273.736 2:0.000383 
0.8998979508072305 0:0 1:1692.3934 2:0.000505 
0.8996983769556132 0:0 1:1768.0786 2:0.000707 
-0.0627323712925154 0:0 1:2643.8999 2:0.000435 
