svm_type nu_svr
kernel_type rbf
gamma 0.333333
nr_class 2
total_sv 110
rho 0.0302945
SV
0.0304525695921869 1:0 2:1784.5159 3:0.000534 
0.03039026762883323 1:0 2:1928.4839 3:0.000689 
0.0239975404050109 1:0 2:1455.2574 3:0.000424 
0.03010206195568488 1:0 2:2185.0735 3:0.000298 
0.02993362266264454 1:0 2:1418.5193 3:0.00064 
0.03050990923676256 1:0 2:1387.7516 3:0.000562 
0.03008961712195429 1:0 2:1663.5341 3:0.00042 
0.03004421781955613 1:0 2:1489.085 3:0.000672 
0.02827130775346576 1:0 2:1459.4364 3:0.000538 
0.03068343687297947 1:0 2:1825.4937 3:0.000511 
0.03080806473428064 1:0 2:1481.2729 3:0.00026 
0.03002444052959474 1:0 2:1362.0447 3:0.000658 
0.03029918916560548 1:0 2:1899.0386 3:0.000403 
0.03038965364134127 1:0 2:1219.8586 3:0.000706 
0.02780023114063457 1:0 2:1472.0798 3:0.000716 
1 1:0 2:1658.2784 3:0.000593 
-0.9693165631270205 1:0 2:6199.2202 3:0.000154 
0.03025524577562566 1:0 2:1440.207 3:0.000582 
0.03015519887746099 1:0 2:1309.333 3:0.000857 
0.01994989084167587 1:0 2:1445.6055 3:0.000672 
0.02996754010582947 1:0 2:1545.4904 3:0.000505 
0.1643904272086018 1:0 2:1192.4337 3:0.000343 
0.03045037074094914 1:0 2:4007.5034 3:0.000411 
0.03002717034675861 1:0 2:1273.736 3:0.000383 
0.02942965135031739 1:0 2:1464.4348 3:0.000513 
0.03017962400820284 1:0 2:1639.1249 3:0.000429 
0.01708558394747348 1:0 2:1672.0845 3:0.000451 
1 1:0 2:1768.0786 3:0.000707 
0.02552983890279312 1:0 2:1430.9865 3:0.000586 
0.03020419157865296 1:0 2:2025.5453 3:0.00039 
-0.9694559349123678 1:0 2:2617.1016 3:0.00024 
0.01576608770278509 1:0 2:1348.2349 3:0.000452 
0.03017581221385126 1:0 2:3196.9268 3:0.000518 
-0.9914403045341356 1:0 2:1194.8899 3:0.000326 
0.03007539067417071 1:0 2:1591.6799 3:0.000589 
0.03002443818049356 1:0 2:1368.2917 3:0.000531 
0.01998492089961195 1:0 2:2055.8557 3:0.000613 
0.02995322150094982 1:0 2:1633.4545 3:0.000602 
1 1:0 2:1692.3934 3:0.000505 
0.02909747125176682 1:0 2:1345.3405 3:0.000853 
0.03080806480290427 1:0 2:1887.9951 3:0.000581 
-0.9697008108343945 1:0 2:3143.0408 3:0.000933 
-1 1:0 2:1609.4563 3:0.001009 
0.0303085497288951 1:0 2:1932.5494 3:0.000334 
0.03045400940579664 1:0 2:2951.2705 3:0.000819 
0.02114569315173301 1:0 2:1469.601 3:0.000853 
0.05512834077647867 1:0 2:1324.3845 3:0.001194 
0.01737998170746343 1:1 2:1558.2727 3:0.000697 
0.03045328993494412 1:1 2:2358.7581 3:0.000637 
0.03018993498647846 1:1 2:1624.9089 3:0.000818 
0.0302041917860348 1:1 2:1510.9131 3:0.000876 
0.0285187123574971 1:1 2:1378.2238 3:0.000771 
0.02990790661718961 1:1 2:1710.5525 3:0.00073 
0.01873133135077894 1:1 2:1671.8125 3:0.000549 
0.02455482143037485 1:1 2:1168.4712 3:0.00056 
0.02411471011904314 1:1 2:1532.8699 3:0.000775 
0.03080806478002971 1:1 2:2309.8469 3:0.000551 
0.03020419179811634 1:1 2:1750.1954 3:0.000774 
0.03018993496131672 1:1 2:1296.8911 3:0.000658 
0.02044470154798919 1:1 2:1348.8986 3:0.000589 
0.01988464042064326 1:1 2:1444.5995 3:0.000664 
0.02545201157817828 1:1 2:1433.3026 3:0.000865 
0.03020312606861088 1:1 2:1404.7344 3:0.001064 
0.01457919192035335 1:1 2:1848.2263 3:0.000683 
0.03038829095523155 1:1 2:2108.9033 3:0.000748 
0.03020419169912904 1:1 2:1397.0787 3:0.000758 
0.0302031261641689 1:1 2:5855.2632 3:0.001417 
0.03080806478002906 1:1 2:1794.0947 3:0.000766 
0.7428577747990854 1:1 2:1609.3247 3:0.000767 
0.03055556817940693 1:1 2:2492.2273 3:0.000626 
0.02411471011904313 1:1 2:1534.9164 3:0.000814 
0.003188711105800688 1:1 2:1431.9677 3:0.000724 
0.02504172030484053 1:1 2:1467.7281 3:0.000723 
0.01578497401073365 1:1 2:1991.5887 3:0.001007 
0.03023330739686788 1:1 2:2252.6785 3:0.001106 
0.03038829095523155 1:1 2:2573.2761 3:0.000473 
0.02992158976890338 1:1 2:1354.5868 3:0.000575 
0.01998492089961195 1:1 2:2056.8992 3:0.000696 
0.03042069623903719 1:1 2:1278.163 3:0.00131 
0.0308080647800297 1:1 2:1209.1361 3:0.000441 
0.03030853768391445 1:1 2:1837.3319 3:0.000727 
0.02894792312511593 1:1 2:1375.2025 3:0.000435 
0.0304504839506916 1:1 2:1076.4918 3:0.000494 
0.03024189847008971 1:1 2:1250.2844 3:0.00046 
0.02209756536678079 1:1 2:1496.0945 3:0.000599 
0.03045400940579664 1:1 2:2084.5735 3:0.000571 
0.03019359806268434 1:1 2:1919.8759 3:0.000662 
0.02494156050379322 1:1 2:1166.3569 3:0.00047 
0.03021188094358244 1:1 2:1304.9731 3:0.000464 
0.03043946447798029 1:1 2:1316.2446 3:0.000686 
0.03007939682193406 1:1 2:1520.1614 3:0.000559 
0.02985335331215597 1:1 2:1289.1174 3:0.000513 
0.03019354261276135 1:1 2:5618.0537 3:0.000876 
0.02077739311708825 1:1 2:1494.4624 3:0.000634 
0.03020419206995218 1:1 2:1183.6102 3:0.00043 
0.01880216090653358 1:1 2:1990.678 3:0.000421 
0.03041481308557731 1:1 2:1383.3499 3:0.000588 
0.03007138203353068 1:1 2:1284.7441 3:0.000756 
0.01593092143156424 1:1 2:1848.5742 3:0.000754 
0.0308080647800297 1:1 2:2132.7498 3:0.000546 
0.02075990935534906 1:1 2:1456.9016 3:0.000748 
0.03080806480290427 1:1 2:2338.5618 3:0.000409 
0.03019755629303798 1:1 2:2298.9255 3:0.000342 
-0.9710476870585953 1:1 2:1321.229 3:0.000787 
0.03020419358612055 1:1 2:1617.012 3:0.000827 
-0.3972934322515108 1:1 2:1766.9111 3:0.000584 
-0.2782056292684384 1:1 2:1769.5518 3:0.000661 
-0.00497271809364511 1:1 2:1190.5663 3:0.000468 
0.03018993502520453 1:1 2:2009.7479 3:0.00086 
0.01878366909942811 1:1 2:1557.2062 3:0.00088 
