svm_type nu_svr
kernel_type rbf
gamma 0.333333
nr_class 2
total_sv 110
rho 0.0305242
SV
0.03017002463719931 1:0 2:1 3:1784.5159 
0.03010808830741185 1:0 2:1 3:1928.4839 
0.02433134501806056 1:0 2:1 3:1455.2574 
0.03090306558469191 1:0 2:1 3:2185.0735 
0.03022032031880773 1:0 2:1 3:1418.5193 
0.03076160896959901 1:0 2:0 3:1387.7516 
0.03007408431446665 1:0 2:1 3:1663.5341 
0.03009455871351638 1:0 2:1 3:1489.085 
0.02851861169776382 1:0 2:1 3:1459.4364 
0.03057272282223766 1:0 2:1 3:1825.4937 
0.03048638952085536 1:0 2:1 3:1481.2729 
0.03103791563408886 1:0 2:1 3:1362.0447 
0.03101741989401907 1:0 2:1 3:1899.0386 
0.03015550767275066 1:0 2:1 3:1219.8586 
0.02762141633316006 1:0 2:1 3:1472.0798 
1 1:0 2:1 3:1658.2784 
-0.9689643633396334 1:0 2:1 3:6199.2202 
0.0310126485420168 1:0 2:1 3:1440.207 
0.03024234128926029 1:0 2:1 3:1309.333 
0.020538444915012 1:0 2:1 3:1445.6055 
0.03019038351682157 1:0 2:1 3:1545.4904 
0.1239054708104059 1:0 2:1 3:1192.4337 
0.03053626385668662 1:0 2:1 3:4007.5034 
0.03099278270042205 1:0 2:1 3:1273.736 
0.02983861284025735 1:0 2:0 3:1464.4348 
0.03041348232481345 1:0 2:1 3:1639.1249 
0.01725946076710569 1:0 2:1 3:1672.0845 
1 1:0 2:1 3:1768.0786 
0.02534364164009759 1:0 2:1 3:1430.9865 
0.03047044123498616 1:0 2:0 3:2025.5453 
-0.9689825801059809 1:0 2:1 3:2617.1016 
0.01717108668944659 1:0 2:0 3:1348.2349 
0.03038263817185988 1:0 2:0 3:3196.9268 
-0.9809031093264322 1:0 2:0 3:1194.8899 
0.03026270792654096 1:0 2:0 3:1591.6799 
0.03015545419553906 1:0 2:0 3:1368.2917 
0.02029247685346279 1:0 2:1 3:2055.8557 
0.03026461503295414 1:0 2:0 3:1633.4545 
1 1:0 2:1 3:1692.3934 
0.02923315307076155 1:0 2:1 3:1345.3405 
0.03024234538764328 1:0 2:1 3:1887.9951 
-0.9689757968349959 1:0 2:1 3:3143.0408 
-1 1:0 2:1 3:1609.4563 
0.02994341322494915 1:0 2:1 3:1932.5494 
0.03017185726523127 1:0 2:1 3:2951.2705 
0.02243687367505203 1:0 2:1 3:1469.601 
0.05532532140365273 1:0 2:1 3:1324.3845 
0.01774980317551433 1:1 2:1 3:1558.2727 
0.03017045277191847 1:1 2:1 3:2358.7581 
0.03048638952094495 1:1 2:1 3:1624.9089 
0.03050064561300173 1:1 2:1 3:1510.9131 
0.02915262306076139 1:1 2:1 3:1378.2238 
0.03017218190100147 1:1 2:1 3:1710.5525 
0.01888301422600883 1:1 2:1 3:1671.8125 
0.0248160513410931 1:1 2:1 3:1168.4712 
0.0246460084553903 1:1 2:1 3:1532.8699 
0.03024234674648269 1:1 2:0 3:2309.8469 
0.03046020267354656 1:1 2:1 3:1750.1954 
0.03050064556735951 1:1 2:1 3:1296.8911 
0.01928007746108524 1:1 2:0 3:1348.8986 
0.01980387951432494 1:1 2:1 3:1444.5995 
0.02500417328388928 1:1 2:1 3:1433.3026 
0.03050064556103584 1:1 2:0 3:1404.7344 
0.01711674289315273 1:1 2:0 3:1848.2263 
0.03018478115101761 1:1 2:0 3:2108.9033 
0.03022032024542184 1:1 2:1 3:1397.0787 
0.03007605685043215 1:1 2:1 3:5855.2632 
0.03050064562975039 1:1 2:1 3:1794.0947 
0.7430335418681104 1:1 2:1 3:1609.3247 
0.03014978449084058 1:1 2:0 3:2492.2273 
0.02416112295915989 1:1 2:1 3:1534.9164 
0.003760752278636099 1:1 2:1 3:1431.9677 
0.02591532631323871 1:1 2:0 3:1467.7281 
0.01710984355475221 1:1 2:1 3:1991.5887 
0.03017440220789262 1:1 2:1 3:2252.6785 
0.0307840825342669 1:1 2:1 3:2573.2761 
0.03013876112657373 1:1 2:1 3:1354.5868 
0.02057531278710407 1:1 2:1 3:2056.8992 
0.03013899187718165 1:1 2:1 3:1278.163 
0.03024234402860821 1:1 2:0 3:1209.1361 
0.03055994324045703 1:1 2:0 3:1837.3319 
0.02890212123892662 1:1 2:1 3:1375.2025 
0.03013997033730149 1:1 2:1 3:1076.4918 
0.03017045277191847 1:1 2:1 3:1250.2844 
0.02204903002953934 1:1 2:1 3:1496.0945 
0.03017218190100147 1:1 2:1 3:2084.5735 
0.03048794665792246 1:1 2:1 3:1919.8759 
0.02476224509188904 1:1 2:1 3:1166.3569 
0.03013347751273053 1:1 2:1 3:1304.9731 
0.03073364617650006 1:1 2:1 3:1316.2446 
0.03017643577265556 1:1 2:1 3:1520.1614 
0.0302900879220064 1:1 2:1 3:1289.1174 
0.03048638956491177 1:1 2:1 3:5618.0537 
0.0212220707388224 1:1 2:1 3:1494.4624 
0.0304863880654299 1:1 2:1 3:1183.6102 
0.0171098435547522 1:1 2:1 3:1990.678 
0.03020005545717555 1:1 2:1 3:1383.3499 
0.030690572571015 1:1 2:1 3:1284.7441 
0.01925031267774042 1:1 2:1 3:1848.5742 
0.03024234538764328 1:1 2:0 3:2132.7498 
0.0209898947582026 1:1 2:1 3:1456.9016 
0.0304863883874084 1:1 2:1 3:2338.5618 
0.03048638954996771 1:1 2:1 3:2298.9255 
-0.9703882111544205 1:1 2:1 3:1321.229 
0.03050064741204186 1:1 2:1 3:1617.012 
-0.3966660605916957 1:1 2:1 3:1766.9111 
-0.2778769054178077 1:1 2:1 3:1769.5518 
0.003765249030526309 1:1 2:1 3:1190.5663 
0.03050064562975151 1:1 2:1 3:2009.7479 
0.01841134488962261 1:1 2:1 3:1557.2062 
