svm_type nu_svr
kernel_type rbf
gamma 0.5
nr_class 2
total_sv 53
rho -0.110932
SV
-0.110628362118339 0:0 1:1015 2:0.000534 
1 0:0 1:1034 2:0.000403 
0.2250284758033236 0:0 1:745 2:0.000689 
0.5553625863871228 0:0 1:956 2:0.000513 
0.3824853870109135 0:0 1:1304 2:0.000424 
-0.4439426913354282 0:0 1:777 2:0.000298 
0.7221273710590492 0:0 1:1114 2:0.00064 
-0.1107065034856234 0:0 1:798 2:0.000562 
0.22219342816079 0:0 1:960 2:0.00042 
0.7221432996141498 0:0 1:841 2:0.000672 
0.7218977538944714 0:0 1:856 2:0.000538 
-0.3802751084541551 0:0 1:905 2:0.000511 
0.555540888552419 0:0 1:1102 2:0.00026 
0.3444047189468179 0:0 1:1033 2:0.000658 
-0.6527524593746569 0:0 1:1034 2:0.000403 
0.3885804539162999 0:0 1:1229 2:0.000706 
0.0554200020128669 0:0 1:677 2:0.000716 
1 0:0 1:1154 2:0.000593 
-1 0:0 1:272 2:0.000154 
0.05547814733706865 0:0 1:1284 2:0.000582 
0.3894051281243056 0:0 1:1006 2:0.000857 
0.3886163003873745 0:0 1:1234 2:0.000672 
-0.1106334615427812 0:0 1:1140 2:0.000505 
-0.6109753077306189 0:0 1:1049 2:0.000343 
-0.6104563869378574 0:0 1:814 2:0.000411 
-1 0:0 1:1260 2:0.000383 
-1 0:0 1:956 2:0.000513 
0.4256158538954379 0:0 1:1187 2:0.000429 
0.0554288296036 0:0 1:1091 2:0.000451 
0.8887245706400673 0:0 1:762 2:0.000707 
0.5552141476788259 0:0 1:933 2:0.000586 
-0.2798138589657641 0:0 1:742 2:0.00039 
-1 0:0 1:616 2:0.00024 
-0.2771726940461657 0:0 1:901 2:0.000452 
-0.6106046861308367 0:0 1:657 2:0.000518 
-1 0:0 1:1170 2:0.000326 
-0.3797260787609256 0:0 1:906 2:0.000589 
-0.216861330628327 0:0 1:1153 2:0.000531 
-0.2774264006432708 0:0 1:964 2:0.000613 
1 0:0 1:1260 2:0.000602 
0.8887932465282933 0:0 1:1053 2:0.000505 
0.5511370341114257 0:0 1:1307 2:0.000853 
0.2221479074670206 0:0 1:868 2:0.000581 
-1 0:0 1:1070 2:0.000933 
-1 0:0 1:1322 2:0.001009 
0.3886183477018214 0:0 1:982 2:0.000334 
0.3885657520296691 0:0 1:920 2:0.000819 
-0.3084935655907421 0:0 1:1320 2:0.000853 
0.05538081501732871 0:0 1:1082 2:0.001194 
-0.1132263471301499 0:1 1:1003 2:0.000697 
-0.2769778123855589 0:1 1:830 2:0.000637 
-0.2770454884936069 0:1 1:1098 2:0.000818 
-0.1005919021256548 0:1 1:1186 2:0.000876 
