svm_type nu_svr
kernel_type rbf
gamma 0.5
nr_class 2
total_sv 45
rho -0.0797829
SV
-0.545037997866291 0:0 1:0.000589 2:150 
0.4565602759786526 0:1 1:0.000697 2:190 
-0.3755345641270681 0:0 1:0.000713 2:67 
0.5195689370400262 0:0 1:0.000791 2:138 
-0.8850146916285193 0:0 1:0.001009 2:129 
1 0:0 1:0.000403 2:140 
-0.8808121932276645 0:0 1:0.000277 2:70 
0.2254924169773326 0:0 1:0.000672 2:170 
0.7257390711950358 0:0 1:0.000478 2:200 
1 0:0 1:0.000538 2:190 
-1 0:0 1:0.000933 2:100 
0.3925872830126612 0:0 1:0.000449 2:225 
-0.7185588953771181 0:0 1:0.000582 2:160 
-0.2185815043614475 0:0 1:0.000298 2:52 
0.2253023061215729 0:0 1:0.000531 2:230 
-0.3908396005296653 0:0 1:0.000343 2:135 
-1 0:1 1:0.000771 2:190 
-0.8852981856698117 0:0 1:0.000154 2:59 
-1 0:0 1:0.000853 2:165 
-0.05196374455943789 0:0 1:0.00039 2:120 
-0.3853662664135131 0:0 1:0.000518 2:115 
0.3918746882735676 0:0 1:0.000634 2:240 
-1 0:0 1:0.000434 2:145 
0.3925545766663596 0:0 1:0.000658 2:275 
-0.5560854894475409 0:0 1:0.000534 2:190 
1 0:0 1:0.000581 2:165 
0.246501404234491 0:0 1:0.000334 2:174 
0.4600135177640911 0:0 1:0.000424 2:101 
0.2829705678895602 0:0 1:0.000857 2:148 
-0.3851246797799595 0:0 1:0.000511 2:155 
0.613858089892523 0:0 1:0.000501 2:100 
0.3924048289739233 0:0 1:0.000535 2:205 
0.392769056296733 0:0 1:0.000513 2:185 
0.5591243039235566 0:0 1:0.000672 2:255 
0.1997526942626861 0:1 1:0.000876 2:150 
1 0:0 1:0.000475 2:145 
-0.05203270662078462 0:1 1:0.000818 2:110 
-1 0:0 1:0.000613 2:140 
-1 0:0 1:0.000513 2:185 
1 0:0 1:0.000593 2:160 
0.3219263681876836 0:0 1:0.000403 2:140 
-0.8852539741134375 0:0 1:0.000326 2:45 
-0.03449550627774108 0:0 1:0.000505 2:175 
0.7257919250359762 0:0 1:0.000505 2:250 
0.7252076882735676 0:0 1:0.000707 2:290 
