svm_type nu_svr
kernel_type rbf
gamma 0.5
nr_class 2
total_sv 28
rho -0.0833331
SV
1 0:0 1:1 2:0.000403 
-1 0:0 1:1 2:0.000298 
1 0:0 1:1 2:0.00064 
1 0:0 1:1 2:0.000672 
1 0:0 1:1 2:0.000538 
-1 0:0 1:1 2:0.000511 
1 0:0 1:1 2:0.00026 
1 0:0 1:1 2:0.000658 
1 0:0 1:1 2:0.000403 
1 0:0 1:1 2:0.000593 
-1 0:0 1:1 2:0.000154 
-1 0:0 1:1 2:0.000343 
-1 0:0 1:1 2:0.000411 
-1 0:0 1:1 2:0.000383 
-1 0:0 1:0 2:0.000513 
1 0:0 1:1 2:0.000707 
1 0:0 1:1 2:0.000586 
-1 0:0 1:1 2:0.00024 
-1 0:0 1:0 2:0.000326 
-0.25 0:0 1:0 2:0.000589 
1 0:0 1:0 2:0.000531 
-1 0:0 1:1 2:0.000613 
0.8264170258263491 0:0 1:0 2:0.000602 
1 0:0 1:1 2:0.000505 
0.4235829741736509 0:0 1:1 2:0.000853 
-1 0:0 1:1 2:0.000933 
-1 0:0 1:1 2:0.001009 
-1 0:0 1:1 2:0.000853 
