svm_type nu_svr
kernel_type rbf
gamma 0.5
nr_class 2
total_sv 45
rho -0.0797917
SV
-0.5450728004582052 0:0 1:0.01951 2:150 
0.4563471647974842 0:1 1:0.021834 2:190 
-0.3759385707948852 0:0 1:0.01502 2:67 
0.519703897257855 0:0 1:0.024701 2:138 
-0.8853253597053924 0:0 1:0.038783 2:129 
1 0:0 1:0.012251 2:140 
-0.8810529482882273 0:0 1:0.005931 2:70 
0.2260758951844518 0:0 1:0.025695 2:170 
0.7257909332304833 0:0 1:0.014913 2:200 
1 0:0 1:0.018424 2:190 
-1 0:0 1:0.023328 2:100 
0.3924584353939147 0:0 1:0.016127 2:225 
-0.7186598334518784 0:0 1:0.02349 2:160 
-0.2185102572641384 0:0 1:0.007606 2:52 
0.22570042158704 0:0 1:0.021692 2:230 
-0.3906483145807781 0:0 1:0.019303 2:135 
-1 0:1 1:0.025702 2:190 
-0.8853447798881287 0:0 1:0.002271 2:59 
-1 0:0 1:0.031653 2:165 
-0.05184282288810094 0:0 1:0.011465 2:120 
-0.3849075461518079 0:0 1:0.010741 2:115 
0.3923688841208491 0:0 1:0.029261 2:240 
-1 0:0 1:0.018771 2:145 
0.3924141886014595 0:0 1:0.025003 2:275 
-0.5555109881446015 0:0 1:0.01777 2:190 
1 0:0 1:0.015249 2:165 
0.2461849331398166 0:0 1:0.009767 2:174 
0.4600196432495572 0:0 1:0.016676 2:101 
0.2832188691364532 0:0 1:0.033737 2:148 
-0.3853442532714303 0:0 1:0.012156 2:155 
0.6135232975585967 0:0 1:0.016049 2:100 
0.3922901369982821 0:0 1:0.016488 2:205 
0.3922229061976982 0:0 1:0.017125 2:185 
0.5588853249635717 0:0 1:0.023468 2:255 
0.1996487018745272 0:1 1:0.023255 2:150 
1 0:0 1:0.012129 2:145 
-0.05201092100479538 0:1 1:0.021694 2:110 
-1 0:0 1:0.014866 2:140 
-1 0:0 1:0.017125 2:185 
1 0:0 1:0.017748 2:160 
0.3216634021438221 0:0 1:0.012251 2:140 
-0.8852769557529632 0:0 1:0.013789 2:45 
-0.03455364835466708 0:0 1:0.017725 2:175 
0.7256209265583227 0:0 1:0.017739 2:250 
0.7258620380058147 0:0 1:0.021499 2:290 
