svm_type nu_svr
kernel_type rbf
gamma 0.333333
nr_class 2
total_sv 15
rho -0.299724
SV
-0.2994478717829904 1:0 2:1015 3:0.000534 
1 1:0 2:1034 3:0.000403 
0.03383665746659625 1:0 2:745 3:0.000689 
-0.6327801474955758 1:0 2:956 3:0.000513 
0.1999284766221308 1:0 2:1304 3:0.000424 
-0.6328434094164874 1:0 2:777 3:0.000298 
0.5330273632682194 1:0 2:1114 3:0.00064 
-0.2991509591722167 1:0 2:798 3:0.000562 
0.03630365495517168 1:0 2:960 3:0.00042 
0.5332887892490333 1:0 2:841 3:0.000672 
0.5332445136077536 1:0 2:856 3:0.000538 
-0.7992428179128264 1:0 2:905 3:0.000511 
0.366547760024297 1:0 2:1102 3:0.00026 
0.2120774822035149 1:0 2:1033 3:0.000658 
-0.7847894916166207 1:0 2:1034 3:0.000403 
