svm_type nu_svr
kernel_type rbf
gamma 0.333333
nr_class 2
total_sv 15
rho -0.321418
SV
-0.3208997570318523 1:0 2:1784.5159 3:190 
1 1:0 2:1899.0386 3:140 
0.0116603618993269 1:0 2:1928.4839 3:170 
-0.6543018603063724 1:0 2:1464.4348 3:185 
0.1782171169324973 1:0 2:1455.2574 3:101 
-0.6542039784568693 1:0 2:2185.0735 3:52 
0.5114247758328102 1:0 2:1418.5193 3:265 
-0.320844356932211 1:0 2:1387.7516 3:220 
0.01160129089014275 1:0 2:1663.5341 3:73 
0.511660361899327 1:0 2:1489.085 3:255 
0.5116130477127429 1:0 2:1459.4364 3:190 
-0.8209270586071129 1:0 2:1825.4937 3:155 
0.3443987921138117 1:0 2:1481.2729 3:80 
0.3448671723787337 1:0 2:1362.0447 3:275 
-0.6542659083249744 1:0 2:1899.0386 3:140 
