svm_type nu_svr
kernel_type rbf
gamma 0.5
nr_class 2
total_sv 49
rho -0.0333739
SV
-0.4720218984732399 0:564.58441 1:0.000589 2:0.01951 
0.1450206960170635 0:470.82245 1:0.000697 2:0.021834 
0.4050128299718628 0:725.46198 1:0.000457 2:0.015085 
-0.4720779888032303 0:714.8045 1:0.000713 2:0.01502 
0.7383377880491863 0:669.13043 1:0.000791 2:0.024701 
-0.9718924648599039 0:787.40277 1:0.001009 2:0.038783 
1 0:633.92914 1:0.000403 2:0.012251 
-0.9694528086882442 0:447.74573 1:0.000277 2:0.005931 
0.4042258871580518 0:599.19843 1:0.000672 2:0.025695 
0.9053091096709953 0:1005.8044 1:0.000478 2:0.014913 
0.5996697450429066 0:512.27393 1:0.000538 2:0.018424 
-0.9701852489288035 0:232.14264 1:0.000933 2:0.023328 
0.5721673218160839 0:866.62476 1:0.000449 2:0.016127 
-0.305054041728635 0:558.74066 1:0.000298 2:0.007606 
0.5449397869034536 0:452.17032 1:0.000716 2:0.021674 
0.4050128366409443 0:497.3168 1:0.000531 2:0.021692 
-0.4718488504782867 0:305.73157 1:0.000343 2:0.019303 
-0.805160404992915 0:394.25983 1:0.000771 2:0.025702 
-0.9725522752221273 0:644.00458 1:0.000154 2:0.002271 
0.04394819417286071 0:514.25031 1:0.000689 2:0.016227 
-0.30527671395536 0:568.73761 1:0.000853 2:0.031653 
-0.1384310464663659 0:417.44363 1:0.00039 2:0.011465 
-0.7939182904311548 0:451.15335 1:0.000518 2:0.010741 
0.3154383674363764 0:525.13648 1:0.000634 2:0.029261 
-0.6387449888032144 0:406.57483 1:0.000434 2:0.018771 
0.3143705095000658 0:525.77222 1:0.000658 2:0.025003 
0.2383578079065691 0:489.45871 1:0.000581 2:0.015249 
1 0:530.43671 1:0.000334 2:0.009767 
0.405376602715079 0:540.31665 1:0.000424 2:0.016676 
0.1318752151265415 0:513.64008 1:0.000857 2:0.033737 
-0.5373007663687462 0:472.09235 1:0.000511 2:0.012156 
0.07167178787766373 0:482.72513 1:0.000501 2:0.016049 
0.5721673218160839 0:622.1748 1:0.000535 2:0.016488 
0.5720103233171938 0:398.70984 1:0.000513 2:0.017125 
0.737598289211851 0:595.60547 1:0.000672 2:0.023468 
0.09120807422293545 0:456.8219 1:0.000876 2:0.023255 
0.04451476897478995 0:635.51575 1:0.000602 2:0.01878 
0.2387691976916809 0:731.3606 1:0.000475 2:0.012129 
-0.1387020226133388 0:434.06674 1:0.000818 2:0.021694 
-0.3899000854798339 0:662.53265 1:0.000613 2:0.014866 
-1 0:398.70984 1:0.000513 2:0.017125 
-0.03048982194975518 0:457.76593 1:0.000562 2:0.019292 
0.8476357352534095 0:510.10651 1:0.000593 2:0.017748 
-0.3179513923957581 0:633.92914 1:0.000403 2:0.012251 
-0.9701211358323717 0:235.69646 1:0.000326 2:0.013789 
-0.6384660044020106 0:314.22421 1:0.000383 2:0.015145 
0.9053618035063512 0:754.89471 1:0.000505 2:0.017739 
1 0:660.87097 1:0.000707 2:0.021499 
-0.9404517491267046 0:530.69006 1:0.000435 2:0.009627 
