svm_type nu_svr
kernel_type rbf
gamma 0.333333
nr_class 2
total_sv 110
rho 0.0285136
SV
0.02880906154568352 1:122.42004 2:0.01777 3:190 
0.02865608529022445 1:184.08177 2:0.016227 3:170 
0.0284355235023257 1:187.60159 2:0.016676 3:101 
0.02819763505827111 1:174.87781 2:0.007606 3:52 
0.02816818654034614 1:179.7747 2:0.024521 3:265 
0.02803739516224768 1:245.15866 2:0.019292 3:220 
0.02880818077396996 1:111.76267 2:0.01536 3:73 
0.02849327316278794 1:258.78903 2:0.023468 3:255 
0.0284890140362265 1:243.40955 2:0.018424 3:190 
0.02851522809148999 1:108.40743 2:0.012156 3:155 
0.02847992374710662 1:154.93671 2:0.011828 3:80 
0.02803600453413879 1:134.63148 2:0.025003 3:275 
0.02845484464796089 1:211.1675 2:0.012251 3:140 
0.02880804717222363 1:125.32471 2:0.024241 3:125 
0.0285464396465509 1:317.07281 2:0.021674 3:175 
1 1:187.0966 2:0.017748 3:160 
-0.9714535603534491 1:152.31142 2:0.002271 3:59 
0.02854920477906686 1:156.18234 2:0.02349 3:160 
0.02848858281743649 1:137.77418 2:0.033737 3:148 
0.02854466058308347 1:169.74104 2:0.025695 3:170 
0.01944644196438994 1:110.60689 2:0.017725 3:175 
0.02843551884177953 1:117.79584 2:0.019303 3:135 
0.02849609702334799 1:93.960075 2:0.009613 3:70 
0.02849765182423514 1:62.218277 2:0.015145 3:45 
0.02855451342522031 1:194.78667 2:0.017125 3:185 
0.02878404041053773 1:272.56207 2:0.015838 3:200 
0.02848909993055301 1:233.00282 2:0.014183 3:170 
1 1:212.32161 2:0.021499 3:290 
0.02849327316278791 1:219.63496 2:0.024319 3:220 
0.02850954075379482 1:168.61116 2:0.011465 3:120 
-0.971503902976652 1:122.04619 2:0.004951 3:45 
0.02850991340611107 1:251.46826 2:0.026871 3:150 
0.02854056895031729 1:100.71413 2:0.010741 3:115 
-0.9714553394169165 1:40.574505 2:0.013789 3:45 
0.02851012852105493 1:196.95021 2:0.01951 3:150 
0.0284811902962834 1:290.93979 2:0.021692 3:230 
0.02880906152980348 1:137.8206 2:0.014866 3:140 
0.02848092168510577 1:173.51231 2:0.01878 3:160 
1 1:131.64836 2:0.017739 3:250 
0.02848626979151488 1:164.6559 2:0.03949 3:280 
0.02848631667181339 1:118.39919 2:0.015249 3:165 
-0.9714454865747797 1:44.069962 2:0.023328 3:100 
-0.9715023481757649 1:572.40143 2:0.038783 3:129 
0.01870449877638778 1:111.65286 2:0.009767 3:174 
0.02850954075379483 1:168.07809 2:0.022925 3:126 
0.02842983444414456 1:211.117 2:0.031653 3:165 
0.02840512190687777 1:246.04076 2:0.043385 3:128 
0.02868636473172141 1:92.28968 2:0.021834 3:190 
0.02610060911589267 1:91.326851 2:0.017196 3:120 
0.02865618705744625 1:114.43704 2:0.021694 3:110 
0.02840401739445476 1:148.28641 2:0.023255 3:150 
0.02843552376278676 1:138.30226 2:0.025702 3:190 
0.028480921495195 1:134.92932 2:0.019139 3:80 
0.02838034404953229 1:73.443481 2:0.014563 3:100 
0.02840435212006811 1:75.059196 2:0.022936 3:240 
0.02850990884760436 1:72.823708 2:0.01907 3:140 
0.02841088079328978 1:150.36011 2:0.013489 3:75 
0.02819767834591464 1:91.247353 2:0.020216 3:115 
0.02840305073014537 1:120.21809 2:0.02633 3:170 
0.02670525147839075 1:84.585358 2:0.018689 3:120 
0.02848656295724001 1:101.42107 2:0.022125 3:125 
0.02843064363016687 1:105.6449 2:0.029818 3:180 
0.02851476394603818 1:64.040039 2:0.029027 3:160 
0.02850661256999747 1:68.875267 2:0.022152 3:165 
0.02848095991614472 1:149.2966 2:0.022825 3:180 
0.02840986331818189 1:90.997894 2:0.029616 3:160 
0.02848110207149044 1:247.03374 2:0.03027 3:185 
0.02848626501878103 1:113.12672 2:0.019101 3:130 
0.0288081807740253 1:121.96153 2:0.022342 3:200 
0.02880818077402538 1:95.614876 2:0.012635 3:90 
0.02850957918943694 1:88.994751 2:0.020593 3:140 
0.02818657334095366 1:97.601379 2:0.02256 3:180 
0.02865458337466628 1:99.353554 2:0.020635 3:130 
0.02842983444414456 1:129.24826 2:0.029963 3:100 
0.02703518845997542 1:78.399452 2:0.032625 3:80 
0.02853710738716757 1:121.17292 2:0.011023 3:75 
0.01836011760863782 1:84.184044 2:0.023571 3:170 
0.02850968755820124 1:82.125359 2:0.019401 3:90 
0.02795330130409887 1:109.8411 2:0.039756 3:180 
0.02880809738152357 1:66.906998 2:0.01902 3:180 
0.02842898642927194 1:111.23468 2:0.014989 3:95 
0.02880772994486264 1:92.010223 2:0.015786 3:135 
0.02840401739445476 1:65.945 2:0.036205 3:210 
0.02840526255855025 1:47.813747 2:0.01757 3:80 
0.02851010472024821 1:107.93533 2:0.022006 3:140 
0.02833281283554329 1:77.674416 2:0.014357 3:120 
0.02839759000290179 1:111.05724 2:0.016317 3:100 
0.02877832448916248 1:57.090328 2:0.023703 3:170 
0.02880946382681737 1:97.889984 2:0.017483 3:245 
0.02618566035953587 1:81.708939 2:0.025977 3:120 
0.02877532136697859 1:99.147339 2:0.016222 3:140 
0.02880818077397122 1:38.322647 2:0.021718 3:120 
0.02868643137318623 1:100.42133 2:0.019284 3:200 
0.01880505177315744 1:82.794144 2:0.019318 3:170 
0.02880332555047911 1:78.912949 2:0.017647 3:85 
0.02868545735842458 1:94.83757 2:0.010755 3:156 
0.02840782266985214 1:67.299492 2:0.023067 3:170 
0.02815831282349294 1:92.750999 2:0.034394 3:180 
0.02848095991614472 1:81.077324 2:0.017136 3:150 
0.02827400270670393 1:95.077652 2:0.013531 3:115 
0.02847872641523327 1:133.02512 2:0.032965 3:240 
0.02868636452484548 1:129.31689 2:0.010502 3:85 
0.02880809738085585 1:125.35245 2:0.01127 3:160 
-0.9714521919153488 1:98.256821 2:0.024424 3:120 
0.02840196655731053 1:100.68175 2:0.025715 3:145 
0.02603078995461194 1:88.509705 2:0.017622 3:120 
0.02702724255317799 1:75.457474 2:0.01313 3:80 
0.02851012852105493 1:53.817097 2:0.01913 3:135 
0.02865608448380888 1:67.587502 2:0.017524 3:145 
0.02851948003993731 1:94.29567 2:0.025899 3:220 
