svm_type nu_svr
kernel_type rbf
gamma 0.5
nr_class 2
total_sv 53
rho -0.0767628
SV
-0.5540797008312827 0:196.95021 1:564.58441 2:0.01951 
-0.05432964414088575 0:92.28968 1:470.82245 2:0.021834 
0.4002228089584693 0:140.46902 1:725.46198 2:0.015085 
-0.5541853389952821 0:126.06876 1:714.8045 2:0.01502 
0.7344358065314758 0:228.85782 1:669.13043 2:0.024701 
-1 0:572.40143 1:787.40277 2:0.038783 
1 0:211.1675 1:633.92914 2:0.012251 
-1 0:239.30429 1:447.74573 2:0.005931 
0.4006662477395009 0:169.74104 1:599.19843 2:0.025695 
0.9009117630920527 0:446.46307 1:1005.8044 2:0.014913 
0.733561083359936 0:243.40955 1:512.27393 2:0.018424 
-1 0:44.069962 1:232.14264 2:0.023328 
0.566834573362444 0:211.8461 1:866.62476 2:0.016127 
0.06765711783896082 0:156.18234 1:593.62805 2:0.02349 
-0.3874929152891193 0:174.87781 1:558.74066 2:0.007606 
0.06776980653147575 0:317.07281 1:452.17032 2:0.021674 
0.4007339533244166 0:290.93979 1:497.3168 2:0.021692 
-0.5540053881800314 0:117.79584 1:305.73157 2:0.019303 
-0.8873383881800314 0:138.30226 1:394.25983 2:0.025702 
-1 0:152.31142 1:644.00458 2:0.002271 
0.2340651431562626 0:184.08177 1:514.25031 2:0.016227 
-0.3875145969028724 0:211.117 1:568.73761 2:0.031653 
-0.2208269152891193 0:168.61116 1:417.44363 2:0.011465 
-0.5540108673437423 0:100.71413 1:451.15335 2:0.010741 
0.5675787630920526 0:171.88068 1:525.13648 2:0.029261 
-0.7208199557796175 0:201.55022 1:406.57483 2:0.018771 
0.5672578015564544 0:134.63148 1:525.77222 2:0.025003 
-0.05407970083128268 0:122.42004 1:516.24097 2:0.01777 
0.2339992477395008 0:118.39919 1:489.45871 2:0.015249 
0.4002280833599359 0:111.65286 1:530.43671 2:0.009767 
0.4002228089584693 0:187.60159 1:540.31665 2:0.016676 
0.4005908015564544 0:137.77418 1:513.64008 2:0.033737 
-0.5541853389952821 0:108.40743 1:472.09235 2:0.012156 
-0.05418533899528208 0:131.70177 1:742.38281 2:0.01158 
0.06765711783896081 0:165.8728 1:482.72513 2:0.016049 
0.5676571178389608 0:136.17122 1:622.1748 2:0.016488 
0.5675787630920527 0:194.78667 1:398.70984 2:0.017125 
0.7339756011703708 0:258.78903 1:595.60547 2:0.023468 
0.06683457336244404 0:148.28641 1:456.8219 2:0.023255 
0.2335084994711239 0:173.51231 1:635.51575 2:0.01878 
0.2343231178389608 0:184.23686 1:731.3606 2:0.012129 
-0.2208199557796176 0:114.43704 1:434.06674 2:0.021694 
-0.2208485969028725 0:137.8206 1:662.53265 2:0.014866 
-1 0:194.78667 1:398.70984 2:0.017125 
-0.05418533899528208 0:245.15866 1:457.76593 2:0.019292 
0.9006421366660879 0:187.0966 1:510.10651 2:0.017748 
-0.3877087535418844 0:211.1675 1:633.92914 2:0.012251 
-1 0:40.574505 1:235.69646 2:0.013789 
-0.05401086734374225 0:110.60689 1:519.73486 2:0.017725 
-0.7210427535418844 0:62.218277 1:314.22421 2:0.015145 
0.9009117630920527 0:131.64836 1:754.89471 2:0.017739 
0.9001754994711239 0:212.32161 1:660.87097 2:0.021499 
-0.05432964414088575 0:126.8499 1:530.69006 2:0.009627 
