svm_type nu_svr
kernel_type rbf
gamma 0.5
nr_class 2
total_sv 53
rho -0.0767628
SV
-0.554362103515625 0:906 1:196.95021 2:150 
-0.05459235687692952 0:1003 1:92.28968 2:190 
0.4002197297172546 0:1017 1:140.46902 2:225 
-0.5540757895231242 0:848 1:126.06876 2:67 
0.7335527297172546 0:1102 1:228.85782 2:138 
-1 0:1322 1:572.40143 2:129 
1 0:1034 1:211.1675 2:140 
-1 0:443 1:239.30429 2:70 
0.4008540455970764 0:1234 1:169.74104 2:170 
0.9009253495396278 0:1079 1:446.46307 2:200 
0.7341870455970764 0:856 1:243.40955 2:190 
-1 0:1070 1:44.069962 2:100 
0.5672886340140652 0:1064 1:211.8461 2:225 
0.06706857257103921 0:1284 1:156.18234 2:160 
-0.3875802209461926 0:777 1:174.87781 2:52 
0.06749419487381356 0:677 1:317.07281 2:175 
0.4008540455970764 0:1153 1:290.93979 2:230 
-0.5539559949407568 0:1049 1:117.79584 2:135 
-0.8873165807887712 0:733 1:138.30226 2:190 
-1 0:272 1:152.31142 2:59 
0.2339546340140651 0:745 1:184.08177 2:170 
-0.3875447765502333 0:1320 1:211.117 2:165 
-0.2206505807887712 0:742 1:168.61116 2:120 
-0.5539559949407568 0:657 1:100.71413 2:115 
0.5672886340140652 0:988 1:171.88068 2:240 
-0.7212344202837865 0:857 1:201.55022 2:145 
0.5672544674663544 0:1033 1:134.63148 2:275 
-0.05398359641377112 0:1015 1:122.42004 2:190 
0.2339204674663544 0:868 1:118.39919 2:165 
0.4004015725710392 0:982 1:111.65286 2:174 
0.4005874674663544 0:1304 1:187.60159 2:101 
0.4008271948738136 0:1006 1:137.77418 2:148 
-0.5539835964137712 0:905 1:108.40743 2:155 
-0.05456742028378646 0:899 1:131.70177 2:90 
0.06746437255859378 0:969 1:165.8728 2:100 
0.5671847432923396 0:1102 1:136.17122 2:205 
0.5672886340140652 0:956 1:194.78667 2:185 
0.7338507432923396 0:841 1:258.78903 2:255 
0.06746437255859378 0:1186 1:148.28641 2:150 
0.2338507432923396 0:1260 1:173.51231 2:160 
0.2339204674663544 0:1065 1:184.23686 2:145 
-0.2211304374389648 0:1098 1:114.43704 2:110 
-0.2209142209461926 0:964 1:137.8206 2:140 
-1 0:956 1:194.78667 2:185 
-0.05390223532978675 0:798 1:245.15866 2:220 
0.9009253495396278 0:1154 1:187.0966 2:160 
-0.3874688245829344 0:1034 1:211.1675 2:140 
-1 0:1170 1:40.574505 2:45 
-0.05390223532978675 0:1140 1:110.60689 2:175 
-0.7207427895231242 0:1260 1:62.218277 2:45 
0.9005177432923397 0:1053 1:131.64836 2:250 
0.9008540455970764 0:762 1:212.32161 2:290 
-0.05413582458293437 0:634 1:126.8499 2:105 
