svm_type nu_svr
kernel_type rbf
gamma 0.333333
nr_class 2
total_sv 110
rho 0.0284333
SV
0.02832031249999445 1:1015 2:516.24097 3:0.01777 
0.0283203125 1:745 2:514.25031 3:0.016227 
0.0283203125 1:1304 2:540.31665 3:0.016676 
0.02829944730646172 1:777 2:558.74066 3:0.007606 
0.02836211638689057 1:1114 2:615.01532 3:0.024521 
0.02818720212651582 1:798 2:457.76593 3:0.019292 
0.02873408398040156 1:960 2:508.71634 3:0.01536 
0.02873580473109938 1:841 2:595.60547 3:0.023468 
0.0286865234375 1:856 2:512.27393 3:0.018424 
0.0286865234375 1:905 2:472.09235 3:0.012156 
0.02867487389871681 1:1102 2:485.67459 3:0.011828 
0.028656005859375 1:1033 2:525.77222 3:0.025003 
0.028656005859375 1:1034 2:633.92914 3:0.012251 
0.02864837646484375 1:1229 2:348.40878 3:0.024241 
0.02864837646484375 1:677 2:452.17032 3:0.021674 
1 1:1154 2:510.10651 3:0.017748 
-0.9709180666599188 1:272 2:644.00458 3:0.002271 
0.02864646911621094 1:1284 2:593.62805 3:0.02349 
0.02821284167003513 1:1006 2:513.64008 3:0.033737 
0.02864646911621094 1:1234 2:599.19843 3:0.025695 
0.02862174512119986 1:1140 2:519.73486 3:0.017725 
0.02819269324055851 1:1049 2:305.73157 3:0.019303 
0.02874306910621638 1:814 2:469.89963 3:0.009613 
0.02874349327767833 1:1260 2:314.22421 3:0.015145 
0.02868465423270095 1:956 2:398.70984 3:0.017125 
0.028114446136215 1:1187 2:660.32135 3:0.015838 
0.02868652343750002 1:1091 2:541.71991 3:0.014183 
1 1:762 2:660.87097 3:0.021499 
0.02807617187525632 1:933 2:526.19269 3:0.024319 
0.02832031250000028 1:742 2:417.44363 3:0.011465 
-0.9712641952689007 1:616 2:455.86713 3:0.004951 
0.0283203125 1:901 2:599.3794 3:0.026871 
0.02778098043063439 1:657 2:451.15335 3:0.010741 
-0.9712565067223216 1:1170 2:235.69646 3:0.013789 
0.0277804158631625 1:906 2:564.58441 3:0.01951 
0.02221637493710189 1:1153 2:497.3168 3:0.021692 
0.02777921422386954 1:964 2:662.53265 3:0.014866 
0.02774764001515002 1:1260 2:635.51575 3:0.01878 
1 1:1053 2:754.89471 3:0.017739 
0.02813066483676143 1:1307 2:598.44568 3:0.03949 
0.02807617187523844 1:868 2:489.45871 3:0.015249 
-0.9712659160195984 1:1070 2:232.14264 3:0.023328 
-0.9712569308937836 1:1322 2:787.40277 3:0.038783 
0.02807617187514309 1:982 2:530.43671 3:0.009767 
0.02810565543865166 1:920 2:705.53766 3:0.022925 
0.02811356303292754 1:1320 2:568.73761 3:0.031653 
0.02864837646484376 1:1082 2:520.5058 3:0.043385 
0.02811416385247905 1:1003 2:470.82245 3:0.021834 
0.02811416385247905 1:830 2:433.52792 3:0.017196 
0.028114446136215 1:1098 2:434.06674 3:0.021694 
0.0283203125 1:1186 2:456.8219 3:0.023255 
0.028114446136215 1:733 2:394.25983 3:0.025702 
0.02832031250000028 1:932 2:479.24417 3:0.019139 
0.0283203125 1:799 2:393.99454 3:0.014563 
0.0283203125 1:1215 2:306.28265 3:0.022936 
0.0283203125 1:1183 2:398.27478 3:0.01907 
0.0283203125 1:773 2:490.4653 3:0.013489 
0.0283203125 1:1069 2:510.93781 3:0.020216 
0.0283203125 1:833 2:295.81384 3:0.02633 
0.02836211638689057 1:997 2:372.37299 3:0.018689 
0.02818720212651582 1:989 2:385.08719 3:0.022125 
0.02836959379352777 1:1128 2:416.68872 3:0.029818 
0.02836787304278232 1:1219 2:457.70758 3:0.029027 
0.02835858676121461 1:924 2:300.74512 3:0.022152 
0.0283203125 1:1221 2:619.66821 3:0.022825 
0.0283203125 1:1086 2:409.6506 3:0.029616 
0.0283203125 1:582 2:489.89142 3:0.03027 
0.0283203125 1:1073 2:411.80115 3:0.019101 
0.0283203125 1:1017 2:529.01337 3:0.022342 
0.02813066483676143 1:854 2:472.04217 3:0.012635 
0.02832031250000003 1:1034 2:415.63882 3:0.020593 
0.02810565543865169 1:1099 2:381.51263 3:0.02256 
0.02811356303292754 1:998 2:413.94989 3:0.020635 
0.02807617187388557 1:909 2:416.67041 3:0.029963 
0.02807617187523843 1:937 2:374.42261 3:0.032625 
0.02868652343750002 1:809 2:418.05795 3:0.011023 
0.02867487389871681 1:1177 2:357.68951 3:0.023571 
0.02865600585937501 1:1229 2:435.76679 3:0.019401 
0.02864837646484376 1:1164 2:443.70615 3:0.039756 
0.02864646911621094 1:1039 2:265.21146 3:0.01902 
0.02234170223536897 1:1151 2:497.15573 3:0.014989 
0.02862174512119984 1:1058 2:369.80402 3:0.015786 
0.02785414736717939 1:1196 2:258.46668 3:0.036205 
0.02785414736717939 1:1183 2:196.42186 3:0.01757 
0.02810565543865169 1:1137 2:432.35168 3:0.022006 
0.02807617187390345 1:906 2:424.5589 3:0.014357 
0.02811356303292754 1:1083 2:447.59552 3:0.016317 
0.02821284167004075 1:1299 2:286.40317 3:0.023703 
0.02822540265053118 1:1042 2:351.97165 3:0.017483 
0.02829944730646177 1:1284 2:367.56323 3:0.025977 
0.02811416385247905 1:974 2:410.55814 3:0.016222 
0.028114446136215 1:1261 2:335.32657 3:0.021718 
0.02832031250000028 1:912 2:446.13959 3:0.019284 
0.0283203125 1:1008 2:397.17868 3:0.019318 
0.0283203125 1:926 2:231.2446 3:0.017647 
0.0283203125 1:836 2:472.57263 3:0.010755 
0.0283203125 1:1056 2:325.24512 3:0.023067 
0.02864646911621094 1:1203 2:461.4581 3:0.034394 
0.0283203125 1:949 2:490.23093 3:0.017136 
0.01894913762758869 1:792 2:386.00528 3:0.013531 
0.0283203125 1:1189 2:466.98206 3:0.032965 
0.02785414736717939 1:861 2:463.5795 3:0.010502 
0.01895781655253093 1:791 2:384.93063 3:0.01127 
-0.9713153457672992 1:1044 2:411.86313 3:0.024424 
0.02777921422386954 1:985 2:401.09644 3:0.025715 
0.02778098043063439 1:898 2:395.96884 3:0.017622 
0.0277804158631625 1:740 2:454.82169 3:0.01313 
0.02774764001515002 1:1319 2:279.95862 3:0.01913 
0.02865600585937501 1:1049 2:434.78683 3:0.017524 
0.02814736202476652 1:1066 2:436.28659 3:0.025899 
