svm_type nu_svr
kernel_type rbf
gamma 0.5
nr_class 2
total_sv 53
rho -0.0767629
SV
-0.5543614438122499 0:906 1:0.01951 2:150 
-0.05390236254570155 0:1003 1:0.021834 2:190 
0.4002197674180465 0:1017 1:0.015085 2:225 
-0.5539837385059272 0:848 1:0.01502 2:67 
0.7335527674180465 0:1102 1:0.024701 2:138 
-1 0:1322 1:0.038783 2:129 
1 0:1034 1:0.012251 2:140 
-1 0:443 1:0.005931 2:70 
0.4008540038670276 0:1234 1:0.025695 2:170 
0.9009254845654364 0:1079 1:0.014913 2:200 
0.7341870038670276 0:856 1:0.018424 2:190 
-1 0:1070 1:0.023328 2:100 
0.5675924845654363 0:1064 1:0.016127 2:225 
0.06706852781992308 0:1284 1:0.02349 2:160 
-0.3872353625457016 0:777 1:0.007606 2:52 
0.06749416585441859 0:677 1:0.021674 2:175 
0.4008540038670276 0:1153 1:0.021692 2:230 
-0.5539561892090408 0:1049 1:0.019303 2:135 
-0.8873167385059271 0:733 1:0.025702 2:190 
-1 0:272 1:0.002271 2:59 
0.2339546915735405 0:745 1:0.016227 2:170 
-0.3875448203717606 0:1320 1:0.031653 2:165 
-0.2206507385059271 0:742 1:0.011465 2:120 
-0.5539837385059272 0:657 1:0.010741 2:115 
0.5672886915735404 0:988 1:0.029261 2:240 
-0.7212345035414919 0:857 1:0.018771 2:145 
0.5672544861019182 0:1033 1:0.025003 2:275 
-0.05459263530551628 0:1015 1:0.01777 2:190 
0.2339204861019181 0:868 1:0.015249 2:165 
0.4005874861019182 0:982 1:0.009767 2:174 
0.4004015278199231 0:1304 1:0.016676 2:101 
0.4008271658544186 0:1006 1:0.033737 2:148 
-0.5540745890780605 0:905 1:0.012156 2:155 
-0.05456750354149183 0:899 1:0.01158 2:90 
0.0674643134215467 0:969 1:0.016049 2:100 
0.5671846889178281 0:1102 1:0.016488 2:205 
0.5672886915735404 0:956 1:0.017125 2:185 
0.7338506889178281 0:841 1:0.023468 2:255 
0.0674643134215467 0:1186 1:0.023255 2:150 
0.2338506889178281 0:1260 1:0.01878 2:160 
0.2339204861019181 0:1065 1:0.012129 2:145 
-0.2211304820159521 0:1098 1:0.021694 2:110 
-0.2209142301449374 0:964 1:0.014866 2:140 
-1 0:956 1:0.017125 2:185 
-0.05424723014493742 0:798 1:0.019292 2:220 
0.9006216915735404 0:1154 1:0.017748 2:160 
-0.387468831213382 0:1034 1:0.012251 2:140 
-1 0:1170 1:0.013789 2:45 
-0.05395618920904074 0:1140 1:0.017725 2:175 
-0.7207428420836448 0:1260 1:0.015145 2:45 
0.9005176889178281 0:1053 1:0.017739 2:250 
0.9008540038670276 0:762 1:0.021499 2:290 
-0.05413583121338202 0:634 1:0.009627 2:105 
