svm_type nu_svr
kernel_type rbf
gamma 0.5
nr_class 2
total_sv 53
rho -0.0767628
SV
-0.55403677734375 0:1591.6799 1:564.58441 2:0.000589 
-0.05432065541864187 0:1558.2727 1:470.82245 2:0.000697 
0.4007157927074432 0:1728.682 1:725.46198 2:0.000457 
-0.5541775969585332 0:2234.8701 1:714.8045 2:0.000713 
0.7339822377644777 0:1652.1434 1:669.13043 2:0.000791 
-1 0:1609.4563 1:787.40277 2:0.001009 
1 0:1899.0386 1:633.92914 2:0.000403 
-1 0:2853.9756 1:447.74573 2:0.000277 
0.4007724788212733 0:1445.6055 1:599.19843 2:0.000672 
0.9007157927074432 0:2036.9913 1:1005.8044 2:0.000478 
0.73389554560721 0:1459.4364 1:512.27393 2:0.000538 
-1 0:3143.0408 1:232.14264 2:0.000933 
0.5671554363961279 0:1772.2177 1:866.62476 2:0.000449 
0.06689704704630772 0:1440.207 1:593.62805 2:0.000582 
-0.387470658709608 0:2185.0735 1:558.74066 2:0.000298 
0.06743947882127906 0:1472.0798 1:452.17032 2:0.000716 
0.400772478821279 0:1368.2917 1:497.3168 2:0.000531 
-0.5544067062555178 0:1192.4337 1:305.73157 2:0.000343 
-0.8874499986576887 0:1378.2238 1:394.25983 2:0.000771 
-1 0:6199.2202 1:644.00458 2:0.000154 
0.2339479639263303 0:1928.4839 1:514.25031 2:0.000689 
-0.3874542681004326 0:1469.601 1:568.73761 2:0.000853 
-0.2210737062555178 0:2025.5453 1:417.44363 2:0.00039 
-0.554137658709608 0:3196.9268 1:451.15335 2:0.000518 
0.5673162377644777 0:1344.2603 1:525.13648 2:0.000634 
-0.7206667550711593 0:1467.5948 1:406.57483 2:0.000434 
0.5673162377644777 0:1362.0447 1:525.77222 2:0.000658 
-0.05412126810043261 0:1784.5159 1:516.24097 2:0.000534 
0.2338214363961278 0:1887.9951 1:489.45871 2:0.000581 
0.4006149639263303 0:1932.5494 1:530.43671 2:0.000334 
0.4006368010178214 0:1455.2574 1:540.31665 2:0.000424 
0.4002300470463425 0:1309.333 1:513.64008 2:0.000857 
-0.553827836229566 0:1825.4937 1:472.09235 2:0.000511 
-0.05429458729768528 0:2098.7412 1:742.38281 2:0.000415 
0.06738279270744323 0:1603.5798 1:482.72513 2:0.000501 
0.5677202494315068 0:1665.1149 1:622.1748 2:0.000535 
0.5673162377644779 0:1464.4348 1:398.70984 2:0.000513 
0.7339698010178214 0:1489.085 1:595.60547 2:0.000672 
0.06713893798828124 0:1510.9131 1:456.8219 2:0.000876 
0.2343862494315067 0:1633.4545 1:635.51575 2:0.000602 
0.2338049379882812 0:2297.9304 1:731.3606 2:0.000475 
-0.2204948362295659 0:1624.9089 1:434.06674 2:0.000818 
-0.220911926164872 0:2055.8557 1:662.53265 2:0.000613 
-1 0:1464.4348 1:398.70984 2:0.000513 
-0.05411699865768871 0:1387.7516 1:457.76593 2:0.000562 
0.9007157927074432 0:1658.2784 1:510.10651 2:0.000593 
-0.3875105969585332 0:1899.0386 1:633.92914 2:0.000403 
-1 0:1194.8899 1:235.69646 2:0.000326 
-0.05424492616487196 0:1545.4904 1:519.73486 2:0.000505 
-0.7209876554186418 0:1273.736 1:314.22421 2:0.000383 
0.9005625456072102 0:1692.3934 1:754.89471 2:0.000505 
0.9007724788212791 0:1768.0786 1:660.87097 2:0.000707 
-0.05429458729768528 0:2643.8999 1:530.69006 2:0.000435 
