svm_type nu_svr
kernel_type rbf
gamma 0.5
nr_class 2
total_sv 53
rho -0.0767628
SV
-0.5541795932775918 0:1591.6799 1:0.000589 2:150 
-0.05430029814552877 0:1558.2727 1:0.000697 2:190 
0.4006248609602699 0:1728.682 1:0.000457 2:225 
-0.5543002981455287 0:2234.8701 1:0.000713 2:67 
0.7338878132959346 0:1652.1434 1:0.000791 2:138 
-1 0:1609.4563 1:0.001009 2:129 
1 0:1899.0386 1:0.000403 2:140 
-1 0:2853.9756 1:0.000277 2:70 
0.4008988159927455 0:1445.6055 1:0.000672 2:170 
0.9004766342231677 0:2036.9913 1:0.000478 2:200 
0.7338096342292328 0:1459.4364 1:0.000538 2:190 
-1 0:3143.0408 1:0.000933 2:100 
0.5672976044827784 0:1772.2177 1:0.000449 2:225 
0.06729589496117241 0:1440.207 1:0.000582 2:160 
-0.387329609384798 0:2185.0735 1:0.000298 2:52 
0.06756581599274547 0:1472.0798 1:0.000716 2:175 
0.4006248609602699 0:1368.2917 1:0.000531 2:230 
-0.5541367393482979 0:1192.4337 1:0.000343 2:135 
-0.8874347789241688 0:1378.2238 1:0.000771 2:190 
-1 0:6199.2202 1:0.000154 2:59 
0.2339578259857395 0:1928.4839 1:0.000689 2:170 
-0.3872139810214486 0:1469.601 1:0.000853 2:165 
-0.2208465932775918 0:2025.5453 1:0.00039 2:120 
-0.5538809810214487 0:3196.9268 1:0.000518 2:115 
0.56718322544466 0:1344.2603 1:0.000634 2:240 
-0.720742464336896 0:1467.5948 1:0.000434 2:145 
0.5675144172592548 0:1362.0447 1:0.000658 2:275 
-0.05399660938479797 0:1784.5159 1:0.000534 2:190 
0.2338492254446601 0:1887.9951 1:0.000581 2:165 
0.400630584295552 0:1932.5494 1:0.000334 2:174 
0.4008678481448805 0:1455.2574 1:0.000424 2:101 
0.4008678481448805 0:1309.333 1:0.000857 2:148 
-0.554243604014195 0:1825.4937 1:0.000511 2:155 
-0.0541367393482979 0:2098.7412 1:0.000415 2:90 
0.06729589496117241 0:1603.5798 1:0.000501 2:100 
0.5675144172592548 0:1665.1149 1:0.000535 2:205 
0.567297604497733 0:1464.4348 1:0.000513 2:185 
0.7338096342231677 0:1489.085 1:0.000672 2:255 
0.06714363422316767 0:1510.9131 1:0.000876 2:150 
0.2338878132959346 0:1633.4545 1:0.000602 2:160 
0.2338878132959346 0:2297.9304 1:0.000475 2:145 
-0.2209375620686264 0:1624.9089 1:0.000818 2:110 
-0.2209106040141951 0:2055.8557 1:0.000613 2:140 
-1 0:1464.4348 1:0.000513 2:185 
-0.05448086947844866 0:1387.7516 1:0.000562 2:220 
0.9006306044827784 0:1658.2784 1:0.000593 2:160 
-0.387408464336896 0:1899.0386 1:0.000403 2:140 
-1 0:1194.8899 1:0.000326 2:45 
-0.05410177892416881 0:1545.4904 1:0.000505 2:175 
-0.7209375620686264 0:1273.736 1:0.000383 2:45 
0.9006248606469778 0:1692.3934 1:0.000505 2:250 
0.9005548132959346 0:1768.0786 1:0.000707 2:290 
-0.05448086947844866 0:2643.8999 1:0.000435 2:105 
