svm_type nu_svr
kernel_type rbf
gamma 0.333333
nr_class 2
total_sv 109
rho 0.0119232
SV
0.01176443010543671 1:1328.2211 2:0.000534 3:0.01777 
0.01186672044483961 1:1216.2747 2:0.000689 3:0.016227 
0.009454876700988435 1:284.74152 2:0.000424 3:0.016676 
0.01165015758554044 1:1040.3964 2:0.000298 3:0.007606 
0.841330012417861 1:256.99347 2:0.00064 3:0.024521 
0.008649505775600863 1:353.39954 2:0.000562 3:0.019292 
0.01176453918217668 1:724.33752 2:0.00042 3:0.01536 
0.004692344574950713 1:276.96069 2:0.000672 3:0.023468 
0.01164000841310819 1:358.11847 2:0.000538 3:0.018424 
0.01246151127916982 1:676.60901 2:0.000511 3:0.012156 
0.01186670050354277 1:338.77457 2:0.00026 3:0.011828 
0.006839104285205067 1:283.00702 2:0.000658 3:0.025003 
0.01176443255720894 1:1017.2359 2:0.000403 3:0.012251 
0.01086442129567167 1:280.64706 2:0.000706 3:0.024241 
0.01250351067958561 1:561.47235 2:0.000716 3:0.021674 
1 1:753.75763 2:0.000593 3:0.017748 
-0.9879538097536233 1:3468.8306 2:0.000154 3:0.002271 
0.007786220202645189 1:276.49921 2:0.000582 3:0.02349 
0.001880776490742919 1:260.56043 2:0.000857 3:0.033737 
0.007559118843572299 1:391.67111 2:0.000672 3:0.025695 
0.01158721443646649 1:521.31824 2:0.000505 3:0.017725 
0.01198864290598556 1:345.1481 2:0.000343 3:0.019303 
0.01204087759466477 1:5365.5361 2:0.000411 3:0.009613 
0.01386017876567219 1:252.03314 2:0.000383 3:0.015145 
0.01186671802504735 1:1001.5763 2:0.000513 3:0.017125 
0.006448597616341645 1:478.60736 2:0.000429 3:0.015838 
1 1:897.86102 2:0.000707 3:0.021499 
0.008129741713945534 1:390.26743 2:0.000586 3:0.024319 
0.01186671802504733 1:1598.9414 2:0.00039 3:0.011465 
-0.9879448827323402 1:1057.3951 2:0.00024 3:0.004951 
0.0118667180250449 1:238.24316 2:0.000452 3:0.026871 
0.01186672044483961 1:3760.4128 2:0.000518 3:0.010741 
-1 1:256.2449 2:0.000326 3:0.013789 
0.007556270064091894 1:535.77716 2:0.000589 3:0.01951 
0.008133710082943257 1:373.483 2:0.000531 3:0.021692 
0.0117644325572089 1:1151.014 2:0.000613 3:0.014866 
0.0118524337088235 1:590.18298 2:0.000602 3:0.01878 
1 1:398.63901 2:0.000505 3:0.017739 
0.01186645466996266 1:228.86702 2:0.000853 3:0.03949 
0.01183107288394471 1:1196.2836 2:0.000581 3:0.015249 
-0.9883498424144594 1:4583.7803 2:0.000933 3:0.023328 
-1 1:568.21381 2:0.001009 3:0.038783 
0.01186599760059236 1:881.04571 2:0.000334 3:0.009767 
0.01205511726765982 1:3948.0073 2:0.000819 3:0.022925 
0.008260696189883612 1:442.5748 2:0.000853 3:0.031653 
0.01127325741061756 1:248.66318 2:0.001194 3:0.043385 
0.01044413926190333 1:800.05133 2:0.000697 3:0.021834 
0.01206217287383283 1:3012.1274 2:0.000637 3:0.017196 
0.006106096528932822 1:870.72296 2:0.000818 3:0.021694 
0.01186604714735928 1:596.24262 2:0.000876 3:0.023255 
0.01186671717431205 1:552.27222 2:0.000771 3:0.025702 
0.006653380498110911 1:871.32562 2:0.00073 3:0.019139 
0.01154443691085817 1:694.47742 2:0.000549 3:0.014563 
0.01206321410415938 1:200.09001 2:0.00056 3:0.022936 
0.01186595953716728 1:529.72784 2:0.000775 3:0.01907 
0.01158905407751319 1:2012.1512 2:0.000551 3:0.013489 
0.01154714014253559 1:850.95929 2:0.000774 3:0.020216 
0.009625932623136813 1:768.0473 2:0.000658 3:0.02633 
0.01183107288394471 1:459.62476 2:0.000589 3:0.018689 
0.01176435395085203 1:682.61542 2:0.000664 3:0.022125 
0.002329859442745734 1:767.72119 2:0.000865 3:0.029818 
0.5371331774194227 1:567.7085 2:0.001064 3:0.029027 
0.01172845836436111 1:1923.7953 2:0.000683 3:0.022152 
0.0117275176353717 1:2342.4438 2:0.000748 3:0.022825 
0.01172813621285792 1:601.82971 2:0.000758 3:0.029616 
0.01171869739799839 1:6078.5239 2:0.001417 3:0.03027 
0.01204928796000637 1:1655.2334 2:0.000766 3:0.019101 
0.009740746081493303 1:797.86145 2:0.000767 3:0.022342 
0.01176443255696424 1:2360.9907 2:0.000626 3:0.012635 
0.0139230976369761 1:667.60211 2:0.000814 3:0.020593 
0.01240923766216486 1:610.76752 2:0.000724 3:0.02256 
0.01147086878275071 1:475.0296 2:0.000723 3:0.020635 
0.007624926361933016 1:2689.7979 2:0.001007 3:0.029963 
0.01154714014253559 1:3298.5713 2:0.001106 3:0.032625 
0.01176443010543666 1:3204.7935 2:0.000473 3:0.011023 
0.01148579222557735 1:506.10291 2:0.000575 3:0.023571 
0.01177932810843758 1:2666.9524 2:0.000696 3:0.019401 
0.007213952037676248 1:354.80908 2:0.00131 3:0.039756 
0.0120122381088021 1:330.05197 2:0.000441 3:0.01902 
0.01186671802504468 1:635.41363 2:0.000727 3:0.014989 
0.006593375876068825 1:479.36807 2:0.000435 3:0.015786 
0.01187463742797328 1:147.18599 2:0.000494 3:0.036205 
0.01176442999188245 1:888.4707 2:0.00046 3:0.01757 
0.01170971856267928 1:1079.5116 2:0.000599 3:0.022006 
0.01235315630841343 1:2167.0908 2:0.000571 3:0.014357 
0.01186645466996489 1:1636.6272 2:0.000662 3:0.016317 
0.01186671717432559 1:319.84677 2:0.00047 3:0.023703 
-0.004616487869034659 1:402.14963 2:0.000464 3:0.017483 
0.009091332388837144 1:444.22903 2:0.000686 3:0.025977 
0.5489900812657427 1:568.70892 2:0.000559 3:0.016222 
0.008359585545829379 1:371.97244 2:0.000513 3:0.021718 
0.01186645466997107 1:6455.0381 2:0.000876 3:0.019284 
0.01186599766218308 1:626.05267 2:0.000634 3:0.019318 
0.01176909803411455 1:502.02637 2:0.00043 3:0.017647 
0.01186671625585906 1:905.76196 2:0.000421 3:0.010755 
0.01167536647768792 1:728.33258 2:0.000588 3:0.023067 
0.01250291186092295 1:290.28839 2:0.000756 3:0.034394 
0.01172654270099704 1:689.09216 2:0.000754 3:0.017136 
0.0117644301052408 1:2369.6111 2:0.000546 3:0.013531 
0.0125031854809375 1:1131.85 2:0.000748 3:0.032965 
0.007624926361933015 1:2690.9695 2:0.000409 3:0.010502 
0.01231953709979394 1:3133.0188 2:0.000342 3:0.01127 
-0.9875387668424466 1:671.90271 2:0.000787 3:0.024424 
0.01171151300797623 1:1074.9319 2:0.000827 3:0.025715 
0.01172049184329533 1:1693.8639 2:0.000584 3:0.017622 
0.007556390781565409 1:537.10272 2:0.000661 3:0.01313 
0.01155844450115954 1:515.8432 2:0.000468 3:0.01913 
0.01186857458481417 1:1533.7312 2:0.00086 3:0.017524 
0.01186599766193098 1:736.91437 2:0.00088 3:0.025899 
