svm_type nu_svr
kernel_type rbf
gamma 0.333333
nr_class 2
total_sv 110
rho 0.0281656
SV
0.0283203125 1:1328.2211 2:1015 3:122.42004 
0.0283203125 1:1216.2747 2:745 3:184.08177 
0.0283203125 1:284.74152 2:1304 3:187.60159 
0.0283203125 1:1040.3964 2:777 3:174.87781 
0.0283203125 1:256.99347 2:1114 3:179.7747 
0.0283203125 1:353.39954 2:798 3:245.15866 
0.0283203125 1:724.33752 2:960 3:111.76267 
0.02829521894454956 1:276.96069 2:841 3:258.78903 
0.0283203125 1:358.11847 2:856 3:243.40955 
0.0283203125 1:676.60901 2:905 3:108.40743 
0.0283203125 1:338.77457 2:1102 3:154.93671 
0.0283203125 1:283.00702 2:1033 3:134.63148 
0.0283203125 1:1017.2359 2:1034 3:211.1675 
0.0283203125 1:280.64706 2:1229 3:125.32471 
0.0283203125 1:561.47235 2:677 3:317.07281 
1 1:753.75763 2:1154 3:187.0966 
-0.971623249235563 1:3468.8306 2:272 3:152.31142 
0.02786025038221851 1:276.49921 2:1284 3:156.18234 
0.02796806135575025 1:260.56043 2:1006 3:137.77418 
0.02809892955701798 1:391.67111 2:1234 3:169.74104 
0.02827362879179418 1:521.31824 2:1140 3:110.60689 
0.02827589213848114 1:345.1481 2:1049 3:117.79584 
0.02829521894454956 1:5365.5361 2:814 3:93.960075 
0.02829627692699432 1:252.03314 2:1260 3:62.218277 
0.02790426262072287 1:1001.5763 2:956 3:194.78667 
0.02777862548828125 1:478.60736 2:1187 3:272.56207 
0.02734375 1:626.1297 2:1091 3:233.00282 
1 1:897.86102 2:762 3:212.32161 
0.02734375 1:390.26743 2:933 3:219.63496 
0.02734375 1:1598.9414 2:742 3:168.61116 
-0.9713622230628971 1:1057.3951 2:616 3:122.04619 
0.02734375 1:238.24316 2:901 3:251.46826 
0.02734375 1:3760.4128 2:657 3:100.71413 
-0.9713812743211747 1:256.2449 2:1170 3:40.574505 
0.02734375 1:535.77716 2:906 3:196.95021 
0.02734375 1:373.483 2:1153 3:290.93979 
0.02734375 1:1151.014 2:964 3:137.8206 
0.02734375 1:590.18298 2:1260 3:173.51231 
1 1:398.63901 2:1053 3:131.64836 
0.02734375 1:228.86702 2:1307 3:164.6559 
0.02815818786621094 1:1196.2836 2:868 3:118.39919 
-0.9712902499595657 1:4583.7803 2:1070 3:44.069962 
-0.9714076272884995 1:568.21381 2:1322 3:572.40143 
0.02816295623779297 1:881.04571 2:982 3:111.65286 
0.02791476249694824 1:3948.0073 2:920 3:168.07809 
0.02789849042892456 1:442.5748 2:1320 3:211.117 
0.02813474833965302 1:248.66318 2:1082 3:246.04076 
0.02734375 1:800.05133 2:1003 3:92.28968 
0.02734375 1:3012.1274 2:830 3:91.326851 
0.02734375 1:870.72296 2:1098 3:114.43704 
0.02734375 1:596.24262 2:1186 3:148.28641 
0.02734375 1:552.27222 2:733 3:138.30226 
0.02734375 1:871.32562 2:932 3:134.92932 
0.02734375 1:694.47742 2:799 3:73.443481 
0.02734375 1:200.09001 2:1215 3:75.059196 
0.02734375 1:529.72784 2:1183 3:72.823708 
0.02734375 1:2012.1512 2:773 3:150.36011 
0.02786025038221851 1:850.95929 2:1069 3:91.247353 
0.02785241603851318 1:768.0473 2:833 3:120.21809 
0.02785241603851318 1:459.62476 2:997 3:84.585358 
0.02790426262072287 1:682.61542 2:989 3:101.42107 
0.02790426262072287 1:767.72119 2:1128 3:105.6449 
0.02791336306836456 1:567.7085 2:1219 3:64.040039 
0.02796806135575025 1:1923.7953 2:924 3:68.875267 
0.02798123783941264 1:2342.4438 2:1221 3:149.2966 
0.02799076346855145 1:601.82971 2:1086 3:90.997894 
0.02802675002021715 1:6078.5239 2:582 3:247.03374 
0.02803962491452694 1:1655.2334 2:1073 3:113.12672 
0.02804108592681587 1:797.86145 2:1017 3:121.96153 
0.02804108592681587 1:2360.9907 2:854 3:95.614876 
0.02809892955701798 1:667.60211 2:1034 3:88.994751 
0.02812241774518043 1:610.76752 2:1099 3:97.601379 
0.02815818786621094 1:475.0296 2:998 3:99.353554 
0.02817996870726347 1:2689.7979 2:909 3:129.24826 
0.02817996870726347 1:3298.5713 2:937 3:78.399452 
0.02827362879179418 1:3204.7935 2:809 3:121.17292 
0.02827392145991325 1:506.10291 2:1177 3:84.184044 
0.02827392145991325 1:2666.9524 2:1229 3:82.125359 
0.02742528915405273 1:354.80908 2:1164 3:109.8411 
0.02827589213848114 1:330.05197 2:1039 3:66.906998 
0.02827589213848114 1:635.41363 2:1151 3:111.23468 
0.02829521894454956 1:479.36807 2:1058 3:92.010223 
0.02829521894454956 1:147.18599 2:1196 3:65.945 
0.02829521894454956 1:888.4707 2:1183 3:47.813747 
0.02829627692699432 1:1079.5116 2:1137 3:107.93533 
0.0283203125 1:2167.0908 2:906 3:77.674416 
0.0283203125 1:1636.6272 2:1083 3:111.05724 
0.0283203125 1:319.84677 2:1299 3:57.090328 
0.0283203125 1:402.14963 2:1042 3:97.889984 
0.0283203125 1:444.22903 2:1284 3:81.708939 
0.0283203125 1:568.70892 2:974 3:99.147339 
0.0283203125 1:371.97244 2:1261 3:38.322647 
0.0283203125 1:6455.0381 2:912 3:100.42133 
0.0283203125 1:626.05267 2:1008 3:82.794144 
0.0283203125 1:502.02637 2:926 3:78.912949 
0.0283203125 1:905.76196 2:836 3:94.83757 
0.0283203125 1:728.33258 2:1056 3:67.299492 
0.0283203125 1:290.28839 2:1203 3:92.750999 
0.0283203125 1:689.09216 2:949 3:81.077324 
0.02785241603851318 1:2369.6111 2:792 3:95.077652 
0.02790426262072287 1:1131.85 2:1189 3:133.02512 
0.02791336306836456 1:2690.9695 2:861 3:129.31689 
0.02804108592681587 1:3133.0188 2:791 3:125.35245 
-0.971145890885964 1:671.90271 2:1044 3:98.256821 
0.02817996870726347 1:1074.9319 2:985 3:100.68175 
0.02827392145991325 1:1693.8639 2:898 3:88.509705 
0.02827589213848114 1:537.10272 2:740 3:75.457474 
0.02829521894454956 1:515.8432 2:1319 3:53.817097 
0.02817996870726347 1:1533.7312 2:1049 3:67.587502 
0.02803962491452694 1:736.91437 2:1066 3:94.29567 
