svm_type nu_svr
kernel_type rbf
gamma 0.333333
nr_class 2
total_sv 15
rho -0.299671
SV
-0.2990831738242339 1:1 2:1015 3:0.01777 
1 1:1 2:1034 3:0.012251 
0.03339537794543257 1:1 2:745 3:0.016227 
-0.6326959835429273 1:0 2:956 3:0.017125 
0.1997034709143365 1:1 2:1304 3:0.016676 
-0.6327140597095129 1:1 2:777 3:0.007606 
0.5332388089119704 1:1 2:1114 3:0.024521 
-0.2990150027687942 1:0 2:798 3:0.019292 
0.03536978415900185 1:1 2:960 3:0.01536 
0.5333707146319177 1:1 2:841 3:0.023468 
0.5333978922219548 1:1 2:856 3:0.018424 
-0.7993827197273524 1:1 2:905 3:0.012156 
0.3665498611237553 1:1 2:1102 3:0.011828 
0.2122247163413992 1:1 2:1033 3:0.025003 
-0.7843596866769476 1:1 2:1034 3:0.012251 
