svm_type nu_svr
kernel_type rbf
gamma 0.5
nr_class 2
total_sv 53
rho -0.109556
SV
-0.1093553750550841 0:1 1:1784.5159 2:0.01777 
1 0:1 1:1899.0386 2:0.012251 
0.2232092438899182 0:1 1:1928.4839 2:0.016227 
0.5567560942528994 0:0 1:1464.4348 2:0.017125 
0.3896196302595158 0:1 1:1455.2574 2:0.016676 
-0.4427115094034243 0:1 1:2185.0735 2:0.007606 
0.7232992482289908 0:1 1:1418.5193 2:0.024521 
-0.1093569128619625 0:0 1:1387.7516 2:0.019292 
0.2235702808339093 0:1 1:1663.5341 2:0.01536 
0.7235342824912135 0:1 1:1489.085 2:0.023468 
0.7231050619456372 0:1 1:1459.4364 2:0.018424 
-0.6089823912312209 0:1 1:1825.4937 2:0.012156 
0.556798567559991 0:1 1:1481.2729 2:0.011828 
0.5568034809468643 0:1 1:1362.0447 2:0.025003 
-0.4426564771970194 0:1 1:1899.0386 2:0.012251 
0.3898757881281777 0:1 1:1219.8586 2:0.024241 
0.07747144298017875 0:1 1:1472.0798 2:0.021674 
0.889802456679199 0:1 1:1658.2784 2:0.017748 
-1 0:1 1:6199.2202 2:0.002271 
0.05652040566030216 0:1 1:1440.207 2:0.02349 
0.3900415714092986 0:1 1:1309.333 2:0.033737 
0.389988610060979 0:1 1:1445.6055 2:0.025695 
-0.1088845811721865 0:1 1:1545.4904 2:0.017725 
-0.579650805543144 0:1 1:1192.4337 2:0.019303 
-0.6088670732041872 0:1 1:4007.5034 2:0.009613 
-0.7760380590766585 0:1 1:1273.736 2:0.015145 
-1 0:0 1:1464.4348 2:0.017125 
0.3898744390602529 0:1 1:1639.1249 2:0.015838 
0.05690517488007766 0:1 1:1672.0845 2:0.014183 
0.8901129107509815 0:1 1:1768.0786 2:0.021499 
0.5563903013891128 0:1 1:1430.9865 2:0.024319 
-0.2755953852338722 0:0 1:2025.5453 2:0.011465 
-1 0:1 1:2617.1016 2:0.004951 
-0.2811649902939812 0:0 1:1348.2349 2:0.026871 
-0.6088506176586379 0:0 1:3196.9268 2:0.010741 
-1 0:0 1:1194.8899 2:0.013789 
-0.6089016631267119 0:0 1:1591.6799 2:0.01951 
0.3897827467375299 0:0 1:1368.2917 2:0.021692 
-0.275544946097166 0:1 1:2055.8557 2:0.014866 
0.2233870397541934 0:0 1:1633.4545 2:0.01878 
0.889822269452232 0:1 1:1692.3934 2:0.017739 
0.5591641527936811 0:1 1:1345.3405 2:0.03949 
0.2234562492212965 0:1 1:1887.9951 2:0.015249 
-1 0:1 1:3143.0408 2:0.023328 
-1 0:1 1:1609.4563 2:0.038783 
0.3901729988470932 0:1 1:1932.5494 2:0.009767 
0.3898805820050271 0:1 1:2951.2705 2:0.022925 
-0.4459544469722891 0:1 1:1469.601 2:0.031653 
0.05667444202355418 0:1 1:1324.3845 2:0.043385 
-0.1088534984500223 0:1 1:1558.2727 2:0.021834 
-0.2756816559303835 0:1 1:2358.7581 2:0.017196 
-0.2756553902065976 0:1 1:1624.9089 2:0.021694 
0.05668630647244203 0:1 1:1510.9131 2:0.023255 
