svm_type nu_svr
kernel_type rbf
gamma 0.333333
nr_class 2
total_sv 15
rho -0.321247
SV
-0.3210063795980649 1:1 2:1784.5159 3:0.01777 
1 1:1 2:1899.0386 3:0.012251 
0.01228500835636026 1:1 2:1928.4839 3:0.016227 
-0.6544899117832843 1:0 2:1464.4348 3:0.017125 
0.1769196678232605 1:1 2:1455.2574 3:0.016676 
-0.6543809916436397 1:1 2:2185.0735 3:0.007606 
0.51168424537778 1:1 2:1418.5193 3:0.024521 
-0.3205179344095787 1:0 2:1387.7516 3:0.019292 
0.01170166772314857 1:1 2:1663.5341 3:0.01536 
0.5115357310911371 1:1 2:1489.085 3:0.023468 
0.5112912944009894 1:1 2:1459.4364 3:0.018424 
-0.8209530388478982 1:1 2:1825.4937 3:0.012156 
0.3450102041696325 1:1 2:1481.2729 3:0.011828 
0.3450654778106157 1:1 2:1362.0447 3:0.025003 
-0.654145040470458 1:1 2:1899.0386 3:0.012251 
