svm_type nu_svr
kernel_type rbf
gamma 0.5
nr_class 2
total_sv 53
rho -0.0493721
SV
-0.3741317534299732 0:0 1:906 2:0.000589 
-0.01647322105259945 0:1 1:1003 2:0.000697 
0.4221203395050009 0:1 1:1017 2:0.000457 
-0.5115927935817663 0:1 1:848 2:0.000713 
1 0:1 1:1102 2:0.000791 
-0.9832619801046821 0:1 1:1322 2:0.001009 
1 0:1 1:1034 2:0.000403 
-1 0:0 1:443 2:0.000277 
0.4129510138420353 0:1 1:1234 2:0.000672 
0.9128988768291276 0:1 1:1079 2:0.000478 
1 0:1 1:856 2:0.000538 
-1 0:1 1:1070 2:0.000933 
0.6090242549507573 0:1 1:1064 2:0.000449 
0.07988237739641643 0:1 1:1284 2:0.000582 
-0.3451327477734379 0:1 1:777 2:0.000298 
0.07987954078291504 0:1 1:677 2:0.000716 
0.08958635160756258 0:0 1:1153 2:0.000531 
-0.5121067935814999 0:1 1:1049 2:0.000343 
-0.8449257935646514 0:1 1:733 2:0.000771 
-1 0:1 1:272 2:0.000154 
0.247514143279234 0:1 1:745 2:0.000689 
-0.2115966824630773 0:1 1:1320 2:0.000853 
-0.180228142047852 0:0 1:742 2:0.00039 
-0.5118002247435959 0:0 1:657 2:0.000518 
0.579879534472222 0:1 1:988 2:0.000634 
-1 0:0 1:857 2:0.000434 
0.2878438800167007 0:1 1:1033 2:0.000658 
-0.06889828774311839 0:1 1:1015 2:0.000534 
0.2465483773964164 0:1 1:868 2:0.000581 
0.4129510050104822 0:1 1:982 2:0.000334 
0.4129667756944337 0:1 1:1304 2:0.000424 
0.4126071524196178 0:1 1:1006 2:0.000857 
-0.3741317532136884 0:1 1:905 2:0.000511 
-0.01165167242024543 0:1 1:899 2:0.000415 
0.07992195878841324 0:1 1:969 2:0.000501 
-0.3447779847829152 0:1 1:1102 2:0.000535 
0.5794629703390202 0:0 1:956 2:0.000513 
0.7460773566255678 0:1 1:841 2:0.000672 
0.07946248840916482 0:1 1:1186 2:0.000876 
0.8527967608320209 0:0 1:1260 2:0.000602 
-0.047950388404164 0:1 1:1065 2:0.000475 
-0.1787852791851066 0:1 1:1098 2:0.000818 
-0.1784670456148563 0:1 1:964 2:0.000613 
-1 0:0 1:956 2:0.000513 
-0.01150880630322444 0:0 1:798 2:0.000562 
0.879787378828182 0:1 1:1154 2:0.000593 
-0.5190317439885983 0:1 1:1034 2:0.000403 
-1 0:0 1:1170 2:0.000326 
-0.0118952278774875 0:1 1:1140 2:0.000505 
-1 0:1 1:1260 2:0.000383 
0.9129672810980139 0:1 1:1053 2:0.000505 
0.912870181876695 0:1 1:762 2:0.000707 
-0.01165167812346012 0:1 1:634 2:0.000435 
