svm_type nu_svr
kernel_type rbf
gamma 0.5
nr_class 2
total_sv 50
rho -0.0502915
SV
-0.0196201815881813 0:1 1:516.24097 2:0.01777 
1 0:1 1:633.92914 2:0.012251 
0.05641886930351905 0:1 1:514.25031 2:0.016227 
0.5736930580302975 0:0 1:398.70984 2:0.017125 
0.4069524261213059 0:1 1:540.31665 2:0.016676 
-0.3411284360084782 0:1 1:558.74066 2:0.007606 
0.7405419649798992 0:1 1:615.01532 2:0.024521 
-0.2147577197614052 0:0 1:457.76593 2:0.019292 
0.7310428521284588 0:1 1:595.60547 2:0.023468 
0.603148575336516 0:1 1:512.27393 2:0.018424 
-0.8337384057281216 0:1 1:472.09235 2:0.012156 
0.5736330611990033 0:1 1:485.67459 2:0.011828 
0.29961726329269 0:1 1:525.77222 2:0.025003 
-0.3635909747832313 0:1 1:633.92914 2:0.012251 
0.4070480038900336 0:1 1:348.40878 2:0.024241 
0.2971530891693211 0:1 1:452.17032 2:0.021674 
0.8493437789015745 0:1 1:510.10651 2:0.017748 
-1 0:1 1:644.00458 2:0.002271 
0.12203246477123 0:1 1:513.64008 2:0.033737 
0.3809167203674464 0:1 1:599.19843 2:0.025695 
-0.1383164783079585 0:1 1:519.73486 2:0.017725 
-0.5077451685849866 0:1 1:305.73157 2:0.019303 
-1 0:1 1:469.89963 2:0.009613 
-0.6745841058675639 0:1 1:314.22421 2:0.015145 
-1 0:0 1:398.70984 2:0.017125 
-0.3330078927488124 0:1 1:660.32135 2:0.015838 
1 0:1 1:660.87097 2:0.021499 
0.299119677297667 0:1 1:526.19269 2:0.024319 
-0.1744121685849868 0:0 1:417.44363 2:0.011465 
-1 0:1 1:455.86713 2:0.004951 
-0.6018714253110957 0:0 1:599.3794 2:0.026871 
-0.6145892119536995 0:0 1:451.15335 2:0.010741 
-1 0:0 1:235.69646 2:0.013789 
-0.5077582845666537 0:0 1:564.58441 2:0.01951 
0.4072089649798936 0:0 1:497.3168 2:0.021692 
-0.3967652563673801 0:1 1:662.53265 2:0.014866 
0.1306316332111125 0:0 1:635.51575 2:0.01878 
0.9070733025645723 0:1 1:754.89471 2:0.017739 
0.5097705072415274 0:1 1:598.44568 2:0.03949 
0.2397749004244121 0:1 1:489.45871 2:0.015249 
-1 0:1 1:232.14264 2:0.023328 
-1 0:1 1:787.40277 2:0.038783 
0.4069026219680215 0:1 1:530.43671 2:0.009767 
0.4076799001764896 0:1 1:705.53766 2:0.022925 
-0.34102382070934 0:1 1:568.73761 2:0.031653 
0.1765452037746684 0:1 1:520.5058 2:0.043385 
0.932758220192318 0:1 1:470.82245 2:0.021834 
-0.09354523456405253 0:1 1:433.52792 2:0.017196 
-0.09354523456405259 0:1 1:434.06674 2:0.021694 
0.7909929406780221 0:1 1:456.8219 2:0.023255 
