svm_type nu_svr
kernel_type rbf
gamma 0.5
nr_class 2
total_sv 53
rho -0.0493733
SV
-0.3741365425966514 0:0 1:906 2:0.01951 
-0.01647325153150906 0:1 1:1003 2:0.021834 
0.4221196427996101 0:1 1:1017 2:0.015085 
-0.511592169655166 0:1 1:848 2:0.01502 
1 0:1 1:1102 2:0.024701 
-0.9832633845060357 0:1 1:1322 2:0.038783 
1 0:1 1:1034 2:0.012251 
-1 0:0 1:443 2:0.005931 
0.4129460720562861 0:1 1:1234 2:0.025695 
0.9132152403652182 0:1 1:1079 2:0.014913 
1 0:1 1:856 2:0.018424 
-1 0:1 1:1070 2:0.023328 
0.6090241832322533 0:1 1:1064 2:0.016127 
0.0798822403652182 0:1 1:1284 2:0.02349 
-0.3451346163551215 0:1 1:777 2:0.007606 
0.07987742336452265 0:1 1:677 2:0.021674 
0.08879940601732042 0:0 1:1153 2:0.021692 
-0.512108661781705 0:1 1:1049 2:0.019303 
-0.8449251696380515 0:1 1:733 2:0.025702 
-1 0:1 1:272 2:0.002271 
0.2475126668344021 0:1 1:745 2:0.016227 
-0.2115970963465776 0:1 1:1320 2:0.031653 
-0.1802284898362457 0:0 1:742 2:0.011465 
-0.511802093325308 0:0 1:657 2:0.010741 
0.579877417055179 0:1 1:988 2:0.029261 
-1 0:0 1:857 2:0.018771 
0.2878717701607438 0:1 1:1033 2:0.025003 
-0.06889806184164257 0:1 1:1015 2:0.01777 
0.2462321370592456 0:1 1:868 2:0.015249 
0.4129460632264432 0:1 1:982 2:0.009767 
0.4129653105860674 0:1 1:1304 2:0.016676 
0.4126053898485619 0:1 1:1006 2:0.033737 
-0.3741365423803141 0:1 1:905 2:0.012156 
-0.01165266369463675 0:1 1:899 2:0.01158 
0.07991984132134511 0:1 1:969 2:0.016049 
-0.3447504426766039 0:1 1:1102 2:0.016488 
0.5794628199351545 0:0 1:956 2:0.017125 
0.7460750689427986 0:1 1:841 2:0.023468 
0.07946281993515311 0:1 1:1186 2:0.023255 
0.8527928874565343 0:0 1:1260 2:0.01878 
-0.04794777643115587 0:1 1:1065 2:0.012129 
-0.1787860205378796 0:1 1:1098 2:0.021694 
-0.1784689141884489 0:1 1:964 2:0.014866 
-1 0:0 1:956 2:0.017125 
-0.01151162373696881 0:0 1:798 2:0.019292 
0.8805742804447246 0:1 1:1154 2:0.017748 
-0.51903821001711 0:1 1:1034 2:0.012251 
-1 0:0 1:1170 2:0.013789 
-0.01189559952494424 0:1 1:1140 2:0.017725 
-1 0:1 1:1260 2:0.015145 
0.9129671311927849 0:1 1:1053 2:0.017739 
0.9128701878004332 0:1 1:762 2:0.021499 
-0.01165266939792362 0:1 1:634 2:0.009627 
