svm_type nu_svr
kernel_type rbf
gamma 0.5
nr_class 2
total_sv 49
rho -0.00468741
SV
-0.3269349425119116 0:0 1:196.95021 2:0.01951 
0.4356633273839056 0:1 1:140.46902 2:0.015085 
-0.5828053935530245 0:1 1:126.06876 2:0.01502 
0.6935717146233698 0:1 1:228.85782 2:0.024701 
-0.8692517671150691 0:1 1:572.40143 2:0.038783 
1 0:1 1:211.1675 2:0.012251 
-0.8693827686051653 0:0 1:239.30429 2:0.005931 
0.3620518266235921 0:1 1:169.74104 2:0.025695 
0.8598351005145388 0:1 1:446.46307 2:0.014913 
0.6930787164211656 0:1 1:243.40955 2:0.018424 
-0.8677239992552984 0:1 1:44.069962 2:0.023328 
-0.3194995772640247 0:1 1:211.8461 2:0.016127 
0.02677757340764719 0:1 1:156.18234 2:0.02349 
-0.2506844491815298 0:1 1:174.87781 2:0.007606 
0.02633053199359689 0:1 1:317.07281 2:0.021674 
0.3596594398191542 0:0 1:290.93979 2:0.021692 
-1 0:1 1:117.79584 2:0.019303 
-1 0:1 1:138.30226 2:0.025702 
-0.8694572557139841 0:1 1:152.31142 2:0.002271 
0.1830492728103033 0:1 1:184.08177 2:0.016227 
-1 0:1 1:211.117 2:0.031653 
-0.1538203530148016 0:0 1:168.61116 2:0.011465 
-0.3693661341628781 0:0 1:100.71413 2:0.010741 
0.464649311821685 0:1 1:171.88068 2:0.029261 
-0.5361195282326382 0:0 1:201.55022 2:0.018771 
0.437331726207386 0:1 1:134.63148 2:0.025003 
1 0:1 1:118.39919 2:0.015249 
0.4031826926311036 0:1 1:111.65286 2:0.009767 
-0.2501038457253286 0:1 1:187.60159 2:0.016676 
1 0:1 1:137.77418 2:0.033737 
-0.3648299902266349 0:1 1:108.40743 2:0.012156 
-0.8738123582831659 0:1 1:131.70177 2:0.01158 
0.02890560861666328 0:1 1:165.8728 2:0.016049 
0.2787426787176252 0:1 1:136.17122 2:0.016488 
0.5577845174640155 0:0 1:194.78667 2:0.017125 
0.6930135140180375 0:1 1:258.78903 2:0.023468 
0.02676413766237429 0:1 1:148.28641 2:0.023255 
0.1786630906093553 0:0 1:173.51231 2:0.01878 
-0.04090631211021869 0:1 1:114.43704 2:0.021694 
-0.2312279241994911 0:1 1:137.8206 2:0.014866 
-1 0:0 1:194.78667 2:0.017125 
1 0:1 1:187.0966 2:0.017748 
0.2794729752071635 0:1 1:211.1675 2:0.012251 
-0.8680373391942698 0:0 1:40.574505 2:0.013789 
-0.07025129918378296 0:1 1:110.60689 2:0.017725 
-0.5357847624667829 0:1 1:62.218277 2:0.015145 
1 0:1 1:131.64836 2:0.017739 
0.971699708718666 0:1 1:212.32161 2:0.021499 
0.2897725347286513 0:1 1:126.8499 2:0.009627 
