svm_type nu_svr
kernel_type rbf
gamma 0.333333
nr_class 2
total_sv 15
rho -0.32576
SV
-0.3530220864243402 1:0 2:516.24097 3:0.01777 
1 1:0 2:633.92914 3:0.012251 
0.1016624137633912 1:0 2:514.25031 3:0.016227 
-0.6585510978266159 1:0 2:398.70984 3:0.017125 
0.1738230854512119 1:7 2:540.31665 3:0.016676 
-0.6585685885829193 1:7 2:558.74066 3:0.007606 
0.5071720917956319 1:3 2:615.01532 3:0.024521 
-0.3250722409335147 1:12 2:457.76593 3:0.019292 
0.001960990184567969 1:7 2:508.71634 3:0.01536 
0.506929106556027 1:0 2:595.60547 3:0.023468 
0.5069208169157068 1:8 2:512.27393 3:0.018424 
-0.8253472713568624 1:7 2:472.09235 3:0.012156 
0.3402059010085129 1:0 2:485.67459 3:0.011828 
0.3405844823370786 1:7 2:525.77222 3:0.025003 
-0.6586976028878757 1:0 2:633.92914 3:0.012251 
