svm_type nu_svr
kernel_type rbf
gamma 0.5
nr_class 2
total_sv 53
rho -0.104811
SV
-0.1049554718625901 0:0 1:1 2:1328.2211 
1 0:0 1:1 2:1017.2359 
0.228707850617214 0:0 1:1 2:1216.2747 
0.5615311547573412 0:0 1:0 2:1001.5763 
0.2838084555742349 0:7 1:1 2:284.74152 
-0.4379296294653764 0:7 1:1 2:1040.3964 
0.728056502634398 0:3 1:1 2:256.99347 
-0.1042886806399198 0:12 1:0 2:353.39954 
0.2283385037423568 0:7 1:1 2:724.33752 
0.7273415588651033 0:0 1:1 2:276.96069 
0.7281741066113171 0:8 1:1 2:358.11847 
-0.6041284195145614 0:7 1:1 2:676.60901 
0.5617176039694211 0:0 1:1 2:338.77457 
0.4982005628871783 0:7 1:1 2:283.00702 
-0.4376685043378399 0:0 1:1 2:1017.2359 
0.3941550014610198 0:0 1:1 2:280.64706 
0.06161618578476664 0:2 1:1 2:561.47235 
0.8948764178045178 0:0 1:1 2:753.75763 
-1 0:2 1:1 2:3468.8306 
0.06170909107123462 0:5 1:1 2:276.49921 
0.3946979175696416 0:5 1:1 2:260.56043 
0.3950422565578116 0:5 1:1 2:391.67111 
-0.1045800614414967 0:8 1:1 2:521.31824 
-0.6041225692703265 0:0 1:1 2:345.1481 
-0.6046151337459545 0:0 1:1 2:5365.5361 
-0.7712404192231741 0:11 1:1 2:252.03314 
-1 0:0 1:0 2:1001.5763 
0.3945382347570046 0:2 1:1 2:478.60736 
0.0614832375421023 0:2 1:1 2:626.1297 
0.8950092001481804 0:10 1:1 2:897.86102 
0.5615094738806212 0:10 1:1 2:390.26743 
-0.2712635967218634 0:0 1:0 2:1598.9414 
-1 0:10 1:1 2:1057.3951 
-0.2709725344874684 0:12 1:0 2:238.24316 
-0.6046163005218612 0:0 1:0 2:3760.4128 
-1 0:10 1:0 2:256.2449 
-0.6043223172314087 0:4 1:0 2:535.77716 
0.3944162780804757 0:4 1:0 2:373.483 
-0.2711581830381683 0:2 1:1 2:1151.014 
0.2283358766711522 0:2 1:0 2:590.18298 
0.8948537414488138 0:2 1:1 2:398.63901 
0.5611182022542544 0:5 1:1 2:228.86702 
0.2281984563317982 0:5 1:1 2:1196.2836 
-1 0:4 1:1 2:4583.7803 
-1 0:0 1:1 2:568.21381 
0.3948609740207042 0:9 1:1 2:881.04571 
0.3945060618609474 0:2 1:1 2:3948.0073 
-0.4378697117880195 0:12 1:1 2:442.5748 
0.06165899264030678 0:0 1:1 2:248.66318 
-0.1045961815979685 0:7 1:1 2:800.05133 
-0.2709489874455352 0:7 1:1 2:3012.1274 
-0.2708920517954117 0:3 1:1 2:870.72296 
0.06170685458502661 0:5 1:1 2:596.24262 
