svm_type nu_svr
kernel_type rbf
gamma 0.333333
nr_class 2
total_sv 15
rho -0.321418
SV
-0.3208997557860681 1:0 2:1015 3:190 
1 1:0 2:1034 3:140 
0.01166036060987391 1:0 2:745 3:170 
-0.6543018309966987 1:0 2:956 3:185 
0.1782171179568289 1:7 2:1304 3:101 
-0.6542039776514553 1:7 2:777 3:52 
0.511424777443213 1:3 2:1114 3:265 
-0.3208443559444175 1:12 2:798 3:220 
0.01160129161161186 1:7 2:960 3:73 
0.511660360609874 1:0 2:841 3:255 
0.5116130113380848 1:8 2:856 3:190 
-0.8209270572251284 1:7 2:905 3:155 
0.3443987912968572 1:0 2:1102 3:80 
0.344867174507839 1:7 2:1033 3:275 
-0.6542659077704145 1:0 2:1034 3:140 
