svm_type nu_svr
kernel_type rbf
gamma 0.5
nr_class 2
total_sv 53
rho -0.108591
SV
-0.1078703152762664 0:0 1:1015 2:190 
1 0:0 1:1034 2:140 
0.2240043994667318 0:0 1:745 2:170 
0.5576594635890135 0:0 1:956 2:185 
0.3907129027905586 0:7 1:1304 2:101 
-0.4416139185791959 0:7 1:777 2:52 
0.7243722675420452 0:3 1:1114 2:265 
-0.1088185815193946 0:12 1:798 2:220 
0.2249564201405925 0:7 1:960 2:73 
0.7240383335645875 0:0 1:841 2:255 
0.7242262182895914 0:8 1:856 2:190 
-0.607846175844618 0:7 1:905 2:155 
0.5578085659789014 0:0 1:1102 2:80 
0.5573149391255194 0:7 1:1033 2:275 
-0.4416690878999629 0:0 1:1034 2:140 
0.3910555636747703 0:0 1:1229 2:125 
0.05766124097764467 0:2 1:677 2:175 
0.8906530853479462 0:0 1:1154 2:160 
-1 0:2 1:272 2:59 
0.05762712583412023 0:5 1:1284 2:160 
0.3906962050489081 0:5 1:1006 2:148 
0.3909909422328966 0:5 1:1234 2:170 
-0.1083881660700477 0:8 1:1140 2:175 
-0.6081245076498655 0:0 1:1049 2:135 
-0.6078741818960762 0:0 1:814 2:70 
-0.7750607286541131 0:11 1:1260 2:45 
-1 0:0 1:956 2:185 
0.3910105938211629 0:2 1:1187 2:200 
0.05765857839798626 0:2 1:1091 2:170 
0.8910924752696527 0:10 1:762 2:290 
0.5576716973181487 0:10 1:933 2:220 
-0.2745601051164141 0:0 1:742 2:120 
-1 0:10 1:616 2:45 
-0.274616663686815 0:12 1:901 2:150 
-0.6079829507526457 0:0 1:657 2:115 
-1 0:10 1:1170 2:45 
-0.6079360626916918 0:4 1:906 2:150 
0.3911136293345414 0:4 1:1153 2:230 
-0.2745733659200482 0:2 1:964 2:140 
0.2242924505222592 0:2 1:1260 2:160 
0.8906691096495423 0:2 1:1053 2:250 
0.557364611835237 0:5 1:1307 2:280 
0.2245144184806054 0:5 1:868 2:165 
-1 0:4 1:1070 2:100 
-1 0:0 1:1322 2:129 
0.3909323351661702 0:9 1:982 2:174 
0.3906598896419182 0:2 1:920 2:126 
-0.4417095798594075 0:12 1:1320 2:165 
0.05748049782360466 0:0 1:1082 2:128 
-0.1078976498930027 0:7 1:1003 2:190 
-0.2745989722974614 0:7 1:830 2:120 
-0.274580503184179 0:3 1:1098 2:110 
0.05748355592654898 0:5 1:1186 2:150 
