svm_type nu_svr
kernel_type rbf
gamma 0.5
nr_class 2
total_sv 53
rho -0.0767628
SV
-0.5537718588104247 0:4 1:1591.6799 2:906 
-0.05423803976444714 0:7 1:1558.2727 2:1003 
0.4007403404340184 0:5 1:1728.682 2:1017 
-0.5542092475433349 0:12 1:2234.8701 2:848 
0.733440551558762 0:12 1:1652.1434 2:1102 
-1 0:0 1:1609.4563 2:1322 
1 0:0 1:1899.0386 2:1034 
-1 0:0 1:2853.9756 2:443 
0.400620282645836 0:5 1:1445.6055 2:1234 
0.9004873379211425 0:2 1:2036.9913 2:1079 
0.7338884549307553 0:8 1:1459.4364 2:856 
-1 0:4 1:3143.0408 2:1070 
0.5672405665283202 0:7 1:1772.2177 2:1064 
0.06746672218233349 0:5 1:1440.207 2:1284 
-0.3873462910700597 0:7 1:2185.0735 2:777 
0.06716135185944336 0:2 1:1472.0798 2:677 
0.4007997221823335 0:4 1:1368.2917 2:1153 
-0.5540132910700597 0:0 1:1192.4337 2:1049 
-0.8873518504514956 0:5 1:1378.2238 2:733 
-1 0:2 1:6199.2202 2:272 
0.2337638358702958 0:0 1:1928.4839 2:745 
-0.3878459666511044 0:12 1:1469.601 2:1320 
-0.2204388588104247 0:0 1:2025.5453 2:742 
-0.5540840456082716 0:0 1:3196.9268 2:657 
0.5672405665283202 0:3 1:1344.2603 2:988 
-0.7207510456082726 0:7 1:1467.5948 2:857 
0.5674667221823335 0:7 1:1362.0447 2:1033 
-0.05401885045149553 0:0 1:1784.5159 2:1015 
0.2338884549307543 0:5 1:1887.9951 2:868 
0.4004943518594434 0:9 1:1932.5494 2:982 
0.4004873379211425 0:7 1:1455.2574 2:1304 
0.4004308358702958 0:5 1:1309.333 2:1006 
-0.5542511489552613 0:7 1:1825.4937 2:905 
-0.05405223243431558 0:0 1:2098.7412 2:899 
0.06770850000000009 0:5 1:1603.5798 2:969 
0.5674073404340184 0:0 1:1665.1149 2:1102 
0.5674073404340184 0:0 1:1464.4348 2:956 
0.7339704860289974 0:0 1:1489.085 2:841 
0.06754603320312513 0:5 1:1510.9131 2:1186 
0.2342120332031251 0:2 1:1633.4545 2:1260 
0.2340733404340184 0:2 1:2297.9304 2:1065 
-0.2211799666511044 0:3 1:1624.9089 2:1098 
-0.2208762475433348 0:2 1:2055.8557 2:964 
-1 0:0 1:1464.4348 2:956 
-0.05425114895526133 0:12 1:1387.7516 2:798 
0.9007997221823335 0:0 1:1658.2784 2:1154 
-0.3877681013512892 0:0 1:1899.0386 2:1034 
-1 0:10 1:1194.8899 2:1170 
-0.05423803976444714 0:8 1:1545.4904 2:1140 
-0.7212615360712797 0:11 1:1273.736 2:1260 
0.900620282645836 0:2 1:1692.3934 2:1053 
0.9006374860289974 0:10 1:1768.0786 2:762 
-0.05405223243431558 0:5 1:2643.8999 2:634 
