svm_type nu_svr
kernel_type rbf
gamma 0.333333
nr_class 2
total_sv 110
rho 0.0312581
SV
0.0317248387127862 1:0 2:122.42004 3:0.01777 
-0.01724408491095003 1:0 2:184.08177 3:0.016227 
0.03126996146429784 1:7 2:187.60159 3:0.016676 
0.03155410278411697 1:7 2:174.87781 3:0.007606 
0.03108911986686402 1:3 2:179.7747 3:0.024521 
0.03123650777912645 1:12 2:245.15866 3:0.019292 
0.03012503222437946 1:7 2:111.76267 3:0.01536 
0.03124793706585605 1:0 2:258.78903 3:0.023468 
0.03103298367861229 1:8 2:243.40955 3:0.018424 
0.02054759608387102 1:7 2:108.40743 3:0.012156 
0.05750282922607602 1:0 2:154.93671 3:0.011828 
0.01729591651002016 1:7 2:134.63148 3:0.025003 
0.0311618734596163 1:0 2:211.1675 3:0.012251 
0.02982724119846381 1:0 2:125.32471 3:0.024241 
0.03108752648118529 1:2 2:317.07281 3:0.021674 
1 1:0 2:187.0966 3:0.017748 
-1 1:2 2:152.31142 3:0.002271 
0.03189772271920971 1:5 2:156.18234 3:0.02349 
0.009138437651874165 1:5 2:137.77418 3:0.033737 
0.03058431759102431 1:5 2:169.74104 3:0.025695 
0.05246099350349565 1:8 2:110.60689 3:0.017725 
0.02779636172775279 1:0 2:117.79584 3:0.019303 
0.02582551426263408 1:0 2:93.960075 3:0.009613 
0.03151330192809765 1:11 2:62.218277 3:0.015145 
0.03105579757502763 1:0 2:194.78667 3:0.017125 
0.03126330234856411 1:2 2:272.56207 3:0.015838 
0.03123513913523413 1:2 2:233.00282 3:0.014183 
1 1:10 2:212.32161 3:0.021499 
0.03081050332003945 1:10 2:219.63496 3:0.024319 
0.02510422903867802 1:0 2:168.61116 3:0.011465 
-0.9683589344328326 1:10 2:122.04619 3:0.004951 
0.03108293311985683 1:12 2:251.46826 3:0.026871 
0.8465492693658444 1:0 2:100.71413 3:0.010741 
-0.9686800899759026 1:10 2:40.574505 3:0.013789 
0.0312300762338582 1:4 2:196.95021 3:0.01951 
0.03126343459647246 1:4 2:290.93979 3:0.021692 
0.02995717267981641 1:2 2:137.8206 3:0.014866 
0.03122994398594981 1:2 2:173.51231 3:0.01878 
1 1:2 2:131.64836 3:0.017739 
0.03124166074601462 1:5 2:164.6559 3:0.03949 
0.02911222071261529 1:5 2:118.39919 3:0.015249 
-0.9684861413783434 1:4 2:44.069962 3:0.023328 
-0.9682862934778137 1:0 2:572.40143 3:0.038783 
0.03424773350638487 1:9 2:111.65286 3:0.009767 
0.02416822904668323 1:2 2:168.07809 3:0.022925 
-0.1308023335668751 1:12 2:211.117 3:0.031653 
0.01764919648650391 1:0 2:246.04076 3:0.043385 
0.01632256260357915 1:7 2:92.28968 3:0.021834 
0.01017161962723883 1:7 2:91.326851 3:0.017196 
0.02655726382406884 1:3 2:114.43704 3:0.021694 
0.02743880343330485 1:5 2:148.28641 3:0.023255 
0.02054832502779413 1:5 2:138.30226 3:0.025702 
0.02371792671622032 1:5 2:134.92932 3:0.019139 
0.02710939555225778 1:0 2:73.443481 3:0.014563 
-0.01038162967032627 1:0 2:75.059196 3:0.022936 
0.03078615695474146 1:8 2:72.823708 3:0.01907 
0.3140085697812238 1:2 2:150.36011 3:0.013489 
0.02060329175452433 1:10 2:91.247353 3:0.020216 
0.02340585024540119 1:0 2:120.21809 3:0.02633 
0.02686166112297966 1:0 2:84.585358 3:0.018689 
-0.02184792726694691 1:3 2:101.42107 3:0.022125 
0.03109355156041067 1:0 2:105.6449 3:0.029818 
0.02914224266170468 1:7 2:64.040039 3:0.029027 
0.02703934401342279 1:5 2:68.875267 3:0.022152 
-0.01269447931627041 1:0 2:149.2966 3:0.022825 
0.01002131567751919 1:5 2:90.997894 3:0.029616 
0.01867878598767669 1:0 2:247.03374 3:0.03027 
0.02285937294659603 1:5 2:113.12672 3:0.019101 
-0.007289369255862953 1:0 2:121.96153 3:0.022342 
0.1005888730931399 1:2 2:95.614876 3:0.012635 
0.03113195296229168 1:0 2:88.994751 3:0.020593 
0.0241551746884757 1:8 2:97.601379 3:0.02256 
0.5226607611220672 1:2 2:99.353554 3:0.020635 
-0.006867701510975751 1:0 2:129.24826 3:0.029963 
0.02890814841154537 1:0 2:78.399452 3:0.032625 
0.02864261727182196 1:5 2:121.17292 3:0.011023 
0.02811828926819323 1:3 2:84.184044 3:0.023571 
0.01544142154855719 1:0 2:82.125359 3:0.019401 
0.02785694872732492 1:0 2:109.8411 3:0.039756 
0.01742202381024795 1:0 2:66.906998 3:0.01902 
0.0260059866047598 1:2 2:111.23468 3:0.014989 
0.01723782214944918 1:5 2:92.010223 3:0.015786 
0.02417653850997201 1:5 2:65.945 3:0.036205 
0.0316707450627855 1:1 2:47.813747 3:0.01757 
0.02577813077355772 1:5 2:107.93533 3:0.022006 
0.02036277073245519 1:7 2:77.674416 3:0.014357 
-0.05912775418689603 1:8 2:111.05724 3:0.016317 
0.03090135860246892 1:2 2:57.090328 3:0.023703 
0.01488008191019797 1:10 2:97.889984 3:0.017483 
0.01701817763022933 1:1 2:81.708939 3:0.025977 
0.01557030058964743 1:10 2:99.147339 3:0.016222 
0.0312676065153844 1:0 2:38.322647 3:0.021718 
0.02635887723390609 1:8 2:100.42133 3:0.019284 
0.03144239518673699 1:10 2:82.794144 3:0.019318 
0.01853898972239586 1:7 2:78.912949 3:0.017647 
-0.01373757517646017 1:3 2:94.83757 3:0.010755 
0.005920890213231091 1:5 2:67.299492 3:0.023067 
0.02000399201313206 1:10 2:92.750999 3:0.034394 
0.029130249115816 1:4 2:81.077324 3:0.017136 
-0.007682272674249641 1:0 2:95.077652 3:0.013531 
0.02517332491396149 1:8 2:133.02512 3:0.032965 
0.02265389741752721 1:5 2:129.31689 3:0.010502 
0.03220953158004942 1:7 2:125.35245 3:0.01127 
-1 1:3 2:98.256821 3:0.024424 
-0.8830821517162157 1:0 2:100.68175 3:0.025715 
0.02943593051912782 1:5 2:88.509705 3:0.017622 
0.03183592142049557 1:0 2:75.457474 3:0.01313 
0.03045048746366875 1:3 2:53.817097 3:0.01913 
0.01583889569527992 1:0 2:67.587502 3:0.017524 
0.006292628729452587 1:3 2:94.29567 3:0.025899 
