svm_type nu_svr
kernel_type rbf
gamma 0.5
nr_class 2
total_sv 53
rho -0.108948
SV
-0.1142594047336443 0:0 1:1 2:122.42004 
1 0:0 1:1 2:211.1675 
0.2143670928830899 0:0 1:1 2:184.08177 
0.5573027614830534 0:0 1:0 2:194.78667 
0.3908630635575486 0:7 1:1 2:187.60159 
-0.4420185599296417 0:7 1:1 2:174.87781 
0.7239859801367299 0:3 1:1 2:179.7747 
-0.1086580612116397 0:12 1:0 2:245.15866 
0.2634349503559966 0:7 1:1 2:111.76267 
0.7240351428784614 0:0 1:1 2:258.78903 
0.7240042447238272 0:8 1:1 2:243.40955 
-0.5924620223806925 0:7 1:1 2:108.40743 
0.5617088834177596 0:0 1:1 2:154.93671 
0.5569292452032161 0:7 1:1 2:134.63148 
-0.4419523781185292 0:0 1:1 2:211.1675 
0.3920810791549993 0:0 1:1 2:125.32471 
0.05716299738915131 0:2 1:1 2:317.07281 
0.8883955791861761 0:0 1:1 2:187.0966 
-1 0:2 1:1 2:152.31142 
0.05750725602362659 0:5 1:1 2:156.18234 
0.3934080610360609 0:5 1:1 2:137.77418 
0.3896972930481821 0:5 1:1 2:169.74104 
-0.3229496358380648 0:8 1:1 2:110.60689 
-0.608606679385198 0:0 1:1 2:117.79584 
-0.6086900321667058 0:0 1:1 2:93.960075 
-0.7752859198581707 0:11 1:1 2:62.218277 
-1 0:0 1:0 2:194.78667 
0.3907065276848628 0:2 1:1 2:272.56207 
0.05711400159125399 0:2 1:1 2:233.00282 
0.9237326194131554 0:10 1:1 2:212.32161 
0.5572492941334392 0:10 1:1 2:219.63496 
-0.304596035289862 0:0 1:0 2:168.61116 
-1 0:10 1:1 2:122.04619 
-0.2752850846892549 0:12 1:0 2:251.46826 
-0.6086225700613822 0:0 1:0 2:100.71413 
-1 0:10 1:0 2:40.574505 
-0.6085973890180334 0:4 1:0 2:196.95021 
0.3908368287543338 0:4 1:0 2:290.93979 
-0.2797032750330904 0:2 1:1 2:137.8206 
0.2237630501594956 0:2 1:0 2:173.51231 
0.8908307226553523 0:2 1:1 2:131.64836 
0.5570702276965249 0:5 1:1 2:164.6559 
0.2239546920088925 0:5 1:1 2:118.39919 
-1 0:4 1:1 2:44.069962 
-1 0:0 1:1 2:572.40143 
0.4689382273364873 0:9 1:1 2:111.65286 
0.4112405732862529 0:2 1:1 2:168.07809 
-0.5023478995181693 0:12 1:1 2:211.117 
0.05727548772745756 0:0 1:1 2:246.04076 
0.1054369188160067 0:7 1:1 2:92.28968 
-0.3411644101200703 0:7 1:1 2:91.326851 
-0.2753471155533353 0:3 1:1 2:114.43704 
0.05751367116409012 0:5 1:1 2:148.28641 
