svm_type nu_svr
kernel_type rbf
gamma 0.333333
nr_class 2
total_sv 111
rho 0.0196037
SV
0.01956740676286894 1:0 2:1784.5159 3:0.01777 
0.01953125000730893 1:0 2:1928.4839 3:0.016227 
0.01787558408278345 1:0 2:1464.4348 3:0.017125 
0.01584151950219659 1:7 2:1455.2574 3:0.016676 
0.01954143126703667 1:7 2:2185.0735 3:0.007606 
0.01952957141466649 1:3 2:1418.5193 3:0.024521 
0.0196707828038688 1:12 2:1387.7516 3:0.019292 
0.01954143125894747 1:7 2:1663.5341 3:0.01536 
0.0195312499827075 1:0 2:1489.085 3:0.023468 
0.01806565199161581 1:8 2:1459.4364 3:0.018424 
0.0195312815327221 1:7 2:1825.4937 3:0.012156 
0.01953124998299471 1:0 2:1481.2729 3:0.011828 
0.01953124891585167 1:7 2:1362.0447 3:0.025003 
0.01971403543604744 1:0 2:1899.0386 3:0.012251 
0.01963530595611029 1:0 2:1219.8586 3:0.024241 
0.01951501702352976 1:2 2:1472.0798 3:0.021674 
1 1:0 2:1658.2784 3:0.017748 
-0.9803424954885168 1:2 2:6199.2202 3:0.002271 
0.01958151311636502 1:5 2:1440.207 3:0.02349 
0.01992940355846562 1:5 2:1309.333 3:0.033737 
0.01644986364644074 1:5 2:1445.6055 3:0.025695 
0.01953125330206629 1:8 2:1545.4904 3:0.017725 
0.01935568819731176 1:0 2:1192.4337 3:0.019303 
0.0195950960451865 1:0 2:4007.5034 3:0.009613 
0.01955479392431703 1:11 2:1273.736 3:0.015145 
0.001608907611563017 1:0 2:1464.4348 3:0.017125 
0.01953107681800847 1:2 2:1639.1249 3:0.015838 
0.01557109196233276 1:2 2:1672.0845 3:0.014183 
1 1:10 2:1768.0786 3:0.021499 
0.01644923307962004 1:10 2:1430.9865 3:0.024319 
0.01954202960076854 1:0 2:2025.5453 3:0.011465 
-0.9804687489044165 1:10 2:2617.1016 3:0.004951 
0.01953124982046792 1:12 2:1348.2349 3:0.026871 
0.01953124993508024 1:0 2:3196.9268 3:0.010741 
-0.980393282168475 1:10 2:1194.8899 3:0.013789 
0.01953125035273451 1:4 2:1591.6799 3:0.01951 
0.01953124724430426 1:4 2:1368.2917 3:0.021692 
0.01647557215377491 1:2 2:2055.8557 3:0.014866 
0.01952923539809661 1:2 2:1633.4545 3:0.01878 
1 1:2 2:1692.3934 3:0.017739 
0.01952950232518012 1:5 2:1345.3405 3:0.03949 
0.01958079571568578 1:5 2:1887.9951 3:0.015249 
-0.9804687466979337 1:4 2:3143.0408 3:0.023328 
-1 1:0 2:1609.4563 3:0.038783 
0.01953126975433599 1:9 2:1932.5494 3:0.009767 
0.0195312579690748 1:2 2:2951.2705 3:0.022925 
0.01953142284956012 1:12 2:1469.601 3:0.031653 
0.02161715879925963 1:0 2:1324.3845 3:0.043385 
0.01957741483385391 1:7 2:1558.2727 3:0.021834 
0.0195312815327221 1:7 2:2358.7581 3:0.017196 
0.01953124993501384 1:3 2:1624.9089 3:0.021694 
0.01952963460633556 1:5 2:1510.9131 3:0.023255 
0.0190150492655267 1:5 2:1378.2238 3:0.025702 
0.01958079571568578 1:5 2:1710.5525 3:0.019139 
0.01562500000123918 1:0 2:1671.8125 3:0.014563 
0.01878581765802177 1:0 2:1168.4712 3:0.022936 
0.01983522782633206 1:8 2:1532.8699 3:0.01907 
0.01943727815109837 1:2 2:2309.8469 3:0.013489 
0.02019122874349661 1:10 2:1750.1954 3:0.020216 
0.01953124997940545 1:0 2:1296.8911 3:0.02633 
0.01953116684763818 1:0 2:1348.8986 3:0.018689 
0.01644080196520792 1:3 2:1444.5995 3:0.022125 
0.01953124995024557 1:0 2:1433.3026 3:0.029818 
0.01952963620814196 1:7 2:1404.7344 3:0.029027 
0.01166245763529889 1:5 2:1848.2263 3:0.022152 
0.01971403543656544 1:0 2:2108.9033 3:0.022825 
0.01960671781772882 1:5 2:1397.0787 3:0.029616 
0.01964173516576259 1:0 2:5855.2632 3:0.03027 
0.01956745267795625 1:5 2:1794.0947 3:0.019101 
1 1:0 2:1609.3247 3:0.022342 
0.01953125103520111 1:2 2:2492.2273 3:0.012635 
0.01971403543342786 1:0 2:1534.9164 3:0.020593 
0.01636361613952087 1:8 2:1431.9677 3:0.02256 
0.0194386985956613 1:2 2:1467.7281 3:0.020635 
0.01904537457233452 1:0 2:1991.5887 3:0.029963 
0.01953124995544835 1:0 2:2252.6785 3:0.032625 
0.01953124992623229 1:5 2:2573.2761 3:0.011023 
0.01953124186463276 1:3 2:1354.5868 3:0.023571 
0.01647557215377491 1:0 2:2056.8992 3:0.019401 
0.01955479392431697 1:0 2:1278.163 3:0.039756 
0.01953039079558045 1:0 2:1209.1361 3:0.01902 
0.01953124993050618 1:2 2:1837.3319 3:0.014989 
0.01910166432664655 1:5 2:1375.2025 3:0.015786 
0.01950928336892817 1:5 2:1076.4918 3:0.036205 
0.02019122874349661 1:1 2:1250.2844 3:0.01757 
0.01952801892931454 1:5 2:1496.0945 3:0.022006 
0.02003295385329157 1:7 2:2084.5735 3:0.014357 
0.01952963622829147 1:8 2:1919.8759 3:0.016317 
0.01891696473814848 1:2 2:1166.3569 3:0.023703 
0.0195312416505412 1:10 2:1304.9731 3:0.017483 
0.01959526074171956 1:1 2:1316.2446 3:0.025977 
0.01953125157970217 1:10 2:1520.1614 3:0.016222 
0.01953124990020063 1:0 2:1289.1174 3:0.021718 
0.01953013012297255 1:8 2:5618.0537 3:0.019284 
0.01952819847247605 1:10 2:1494.4624 3:0.019318 
0.01953124992304358 1:7 2:1183.6102 3:0.017647 
0.01911615812177773 1:3 2:1990.678 3:0.010755 
0.01952793778804008 1:5 2:1383.3499 3:0.023067 
0.01952956450575987 1:10 2:1284.7441 3:0.034394 
0.01166245763529888 1:4 2:1848.5742 3:0.017136 
0.02019122874349661 1:0 2:2132.7498 3:0.013531 
0.0130282095799016 1:8 2:1456.9016 3:0.032965 
0.01956740676286894 1:5 2:2338.5618 3:0.010502 
0.01954331156192948 1:7 2:2298.9255 3:0.01127 
-0.9804178834757243 1:3 2:1321.229 3:0.024424 
0.01953125257764277 1:0 2:1617.012 3:0.025715 
0.01941439095636469 1:5 2:1766.9111 3:0.017622 
0.01952926889821039 1:0 2:1769.5518 3:0.01313 
0.01938495889797389 1:3 2:1190.5663 3:0.01913 
0.01953125103520111 1:0 2:2009.7479 3:0.017524 
0.01946503971065637 1:3 2:1557.2062 3:0.025899 
