svm_type nu_svr
kernel_type rbf
gamma 0.333333
nr_class 2
total_sv 52
rho 0.0352809
SV
-0.02932489649534686 1:7 2:1 3:0.016676 
0.4600773170935671 1:7 2:1 3:0.007606 
0.9240964681500711 1:3 2:1 3:0.024521 
0.6042987665492376 1:12 2:0 3:0.019292 
1 1:0 2:1 3:0.023468 
0.002912052949692656 1:8 2:1 3:0.018424 
-0.6649865989647026 1:7 2:1 3:0.012156 
0.003915923564387858 1:0 2:1 3:0.011828 
0.2032800840293091 1:7 2:1 3:0.025003 
0.6609505968580405 1:0 2:1 3:0.024241 
1 1:0 2:1 3:0.017748 
-1 1:2 2:1 3:0.002271 
-0.4358939216276239 1:5 2:1 3:0.02349 
0.8108771963498408 1:5 2:1 3:0.033737 
0.4737836985474648 1:5 2:1 3:0.025695 
0.1175250639652183 1:8 2:1 3:0.017725 
0.9961968495011692 1:0 2:1 3:0.009613 
-0.00491265514539907 1:11 2:1 3:0.015145 
0.4749785152791095 1:2 2:1 3:0.014183 
1 1:10 2:1 3:0.021499 
-1 1:10 2:1 3:0.004951 
-0.319859389786009 1:12 2:0 3:0.026871 
-0.01399628929220269 1:0 2:0 3:0.010741 
-1 1:10 2:0 3:0.013789 
-0.005070500866245969 1:4 2:0 3:0.01951 
0.03709512892643113 1:4 2:0 3:0.021692 
1 1:2 2:1 3:0.017739 
0.00208927714825698 1:5 2:1 3:0.03949 
-1 1:4 2:1 3:0.023328 
-1 1:0 2:1 3:0.038783 
0.01518685610945394 1:9 2:1 3:0.009767 
-0.1704480606466159 1:12 2:1 3:0.031653 
0.3390494031419595 1:0 2:1 3:0.043385 
-1 1:0 2:1 3:0.014563 
-0.9579124558942427 1:8 2:1 3:0.01907 
0.07500048875764381 1:7 2:0 3:0.029027 
-0.02221817583943845 1:5 2:0 3:0.022152 
0.03275571102785531 1:0 2:0 3:0.022825 
-0.8108771963498408 1:5 2:1 3:0.029616 
0.008136578125035113 1:2 2:0 3:0.012635 
1 1:8 2:1 3:0.016317 
-0.4679074298898204 1:2 2:1 3:0.023703 
-0.001889150348819961 1:1 2:1 3:0.025977 
0.7338396591526182 1:10 2:1 3:0.016222 
0.1103488582523707 1:3 2:1 3:0.010755 
0.9771574904845232 1:4 2:1 3:0.017136 
-0.1601749567310938 1:8 2:1 3:0.032965 
-0.0009831684584928309 1:5 2:1 3:0.010502 
-1 1:3 2:1 3:0.024424 
-0.9816987059253104 1:0 2:1 3:0.01313 
-1 1:0 2:1 3:0.017524 
-0.01539843170205121 1:3 2:1 3:0.025899 
