svm_type nu_svr
kernel_type rbf
gamma 0.333333
nr_class 2
total_sv 109
rho 0.0270435
SV
0.02242600811900175 1:0 2:516.24097 3:0.000534 
0.01755953738397559 1:0 2:514.25031 3:0.000689 
0.02737108705587132 1:7 2:540.31665 3:0.000424 
0.02735240362636349 1:7 2:558.74066 3:0.000298 
0.02706240148611405 1:3 2:615.01532 3:0.00064 
0.1045804390594028 1:12 2:457.76593 3:0.000562 
0.02692327590035171 1:7 2:508.71634 3:0.00042 
0.02730308052900343 1:0 2:595.60547 3:0.000672 
0.02225393385002905 1:8 2:512.27393 3:0.000538 
0.01631538730330584 1:7 2:472.09235 3:0.000511 
0.02724493625585966 1:0 2:485.67459 3:0.00026 
0.02548139023160445 1:7 2:525.77222 3:0.000658 
0.02466774149402579 1:0 2:633.92914 3:0.000403 
0.0268846841040965 1:0 2:348.40878 3:0.000706 
0.02238028976478845 1:2 2:452.17032 3:0.000716 
1 1:0 2:510.10651 3:0.000593 
-0.9727859913342344 1:2 2:644.00458 3:0.000154 
0.02680893825720387 1:5 2:593.62805 3:0.000582 
0.02635444202184689 1:5 2:513.64008 3:0.000857 
0.013655962926996 1:5 2:599.19843 3:0.000672 
0.02656154634085672 1:8 2:519.73486 3:0.000505 
0.0152311152204061 1:0 2:305.73157 3:0.000343 
0.02650991790031809 1:0 2:469.89963 3:0.000411 
0.02730582363224066 1:11 2:314.22421 3:0.000383 
0.02353563460189956 1:0 2:398.70984 3:0.000513 
0.0224085627953462 1:2 2:660.32135 3:0.000429 
0.02741706159194354 1:2 2:541.71991 3:0.000451 
1 1:10 2:660.87097 3:0.000707 
0.02609272460512525 1:10 2:526.19269 3:0.000586 
0.01945506068134309 1:0 2:417.44363 3:0.00039 
-0.9818054230727156 1:10 2:455.86713 3:0.00024 
0.02684400847542337 1:12 2:599.3794 3:0.000452 
0.02278402270712129 1:0 2:451.15335 3:0.000518 
-0.9726983423196093 1:10 2:235.69646 3:0.000326 
0.02701147296662582 1:4 2:564.58441 3:0.000589 
0.02162919807733664 1:4 2:497.3168 3:0.000531 
0.02234534035949744 1:2 2:662.53265 3:0.000613 
0.02416974301404418 1:2 2:635.51575 3:0.000602 
1 1:2 2:754.89471 3:0.000505 
0.0159876103813314 1:5 2:598.44568 3:0.000853 
0.02039799647995667 1:5 2:489.45871 3:0.000581 
-0.9753698444198132 1:4 2:232.14264 3:0.000933 
-0.9729606713580708 1:0 2:787.40277 3:0.001009 
0.02705287760964059 1:9 2:530.43671 3:0.000334 
0.02685530686324791 1:2 2:705.53766 3:0.000819 
0.0273139460665792 1:12 2:568.73761 3:0.000853 
0.02679699184348692 1:0 2:520.5058 3:0.001194 
0.01765281187549098 1:7 2:470.82245 3:0.000697 
0.02325893794881423 1:7 2:433.52792 3:0.000637 
0.01943001510924406 1:3 2:434.06674 3:0.000818 
0.01914025695660465 1:5 2:456.8219 3:0.000876 
0.01965614188963492 1:5 2:394.25983 3:0.000771 
0.02664977323268156 1:5 2:479.24417 3:0.00073 
0.02734602351567762 1:0 2:393.99454 3:0.000549 
0.01338462827093253 1:0 2:306.28265 3:0.00056 
0.02257623708933761 1:8 2:398.27478 3:0.000775 
0.01821133999423144 1:2 2:490.4653 3:0.000551 
0.02320412395923889 1:10 2:510.93781 3:0.000774 
0.02644618112716605 1:0 2:295.81384 3:0.000658 
0.02151704368560753 1:0 2:372.37299 3:0.000589 
0.02563695302516505 1:3 2:385.08719 3:0.000664 
0.03873343652015364 1:7 2:457.70758 3:0.001064 
0.02677379515230419 1:5 2:300.74512 3:0.000683 
0.02705931646067672 1:0 2:619.66821 3:0.000748 
0.0174597450826172 1:5 2:409.6506 3:0.000758 
0.02266033318774435 1:0 2:489.89142 3:0.001417 
0.2846604918584066 1:5 2:411.80115 3:0.000766 
0.02671568637227513 1:0 2:529.01337 3:0.000767 
0.0137686186074054 1:2 2:472.04217 3:0.000626 
-0.005682394777575922 1:0 2:415.63882 3:0.000814 
0.02644072518487831 1:8 2:381.51263 3:0.000724 
0.1915292996815163 1:2 2:413.94989 3:0.000723 
0.01065990764450285 1:0 2:416.67041 3:0.001007 
0.02177625279646071 1:0 2:374.42261 3:0.001106 
0.02726598115939235 1:5 2:418.05795 3:0.000473 
0.02688468410405464 1:3 2:357.68951 3:0.000575 
0.01523112244091571 1:0 2:435.76679 3:0.000696 
0.0268553066229207 1:0 2:443.70615 3:0.00131 
0.02701316061335628 1:0 2:265.21146 3:0.000441 
0.02169154142970564 1:2 2:497.15573 3:0.000727 
0.02728317406345074 1:5 2:369.80402 3:0.000435 
0.02690099755979469 1:5 2:258.46668 3:0.000494 
0.02673200085242151 1:1 2:196.42186 3:0.00046 
0.02145854999540513 1:5 2:432.35168 3:0.000599 
0.02703572445213871 1:7 2:424.5589 3:0.000571 
0.01791005797891657 1:8 2:447.59552 3:0.000662 
0.02673601966505375 1:2 2:286.40317 3:0.00047 
0.02702160236463124 1:10 2:351.97165 3:0.000464 
0.02699023908929565 1:1 2:367.56323 3:0.000686 
0.02726387455274844 1:10 2:410.55814 3:0.000559 
0.02736269801040965 1:0 2:335.32657 3:0.000513 
0.01818731837981109 1:8 2:446.13959 3:0.000876 
0.02277475091765118 1:10 2:397.17868 3:0.000634 
0.06420218875074304 1:7 2:231.2446 3:0.00043 
0.01749046829912395 1:3 2:472.57263 3:0.000421 
0.02736120891522118 1:5 2:325.24512 3:0.000588 
0.02658882478696602 1:10 2:461.4581 3:0.000756 
0.009994410639806691 1:4 2:490.23093 3:0.000754 
0.02568602883540473 1:0 2:386.00528 3:0.000546 
0.02722913078965893 1:8 2:466.98206 3:0.000748 
0.02681848479246679 1:5 2:463.5795 3:0.000409 
0.02653085031191837 1:7 2:384.93063 3:0.000342 
-1 1:3 2:411.86313 3:0.000787 
0.02333368441322322 1:0 2:401.09644 3:0.000827 
0.01913166174996592 1:5 2:395.96884 3:0.000584 
0.02602635557234282 1:0 2:454.82169 3:0.000661 
0.02735240032059916 1:3 2:279.95862 3:0.000468 
0.01431660597289802 1:0 2:434.78683 3:0.00086 
0.02196158106722702 1:3 2:436.28659 3:0.00088 
