svm_type nu_svr
kernel_type rbf
gamma 0.5
nr_class 2
total_sv 53
rho -0.0748873
SV
-0.536161024279551 0:4 1:906 2:0.000589 
-0.03986098778006035 0:7 1:1003 2:0.000697 
0.3901632565251208 0:5 1:1017 2:0.000457 
-0.539768067297604 0:12 1:848 2:0.000713 
0.7229741668531035 0:12 1:1102 2:0.000791 
-1 0:0 1:1322 2:0.001009 
1 0:0 1:1034 2:0.000403 
-1 0:0 1:443 2:0.000277 
0.3899577228379061 0:5 1:1234 2:0.000672 
0.8897783112387477 0:2 1:1079 2:0.000478 
1 0:8 1:856 2:0.000538 
-1 0:4 1:1070 2:0.000933 
0.5564983631775843 0:7 1:1064 2:0.000449 
0.05658936211942752 0:5 1:1284 2:0.000582 
-0.373101067297604 0:7 1:777 2:0.000298 
0.05656830033878191 0:2 1:677 2:0.000716 
0.3899823737695722 0:4 1:1153 2:0.000531 
-0.5393101964952518 0:0 1:1049 2:0.000343 
-0.8730568469384812 0:5 1:733 2:0.000771 
-1 0:2 1:272 2:0.000154 
0.2256944361160773 0:0 1:745 2:0.000689 
-0.3732938132689572 0:12 1:1320 2:0.000853 
-0.2088511402465726 0:0 1:742 2:0.00039 
-0.539772976218548 0:0 1:657 2:0.000518 
0.556813446483202 0:3 1:988 2:0.000634 
-1 0:7 1:857 2:0.000434 
0.5563081668443867 0:7 1:1033 2:0.000658 
-0.03971661839962065 0:0 1:1015 2:0.000534 
0.2225822274162239 0:5 1:868 2:0.000581 
0.3897531541352983 0:9 1:982 2:0.000334 
0.3900028336652234 0:7 1:1304 2:0.000424 
0.3898382398085124 0:5 1:1006 2:0.000857 
-0.53606119785343 0:7 1:905 2:0.000511 
-0.03971642162168812 0:0 1:899 2:0.000415 
0.0568302453582232 0:5 1:969 2:0.000501 
0.556709079599947 0:0 1:1102 2:0.000535 
0.5566247228379064 0:0 1:956 2:0.000513 
0.7230861541352984 0:0 1:841 2:0.000672 
0.05681344648320207 0:5 1:1186 2:0.000876 
0.2231648681818307 0:2 1:1260 2:0.000602 
0.2234954903836804 0:2 1:1065 2:0.000475 
-0.2066298797293147 0:3 1:1098 2:0.000818 
-0.2064769106517496 0:2 1:964 2:0.000613 
-1 0:0 1:956 2:0.000513 
-0.03972384693848122 0:12 1:798 2:0.000562 
0.8898219512604011 0:0 1:1154 2:0.000593 
-0.3731429083067395 0:0 1:1034 2:0.000403 
-1 0:10 1:1170 2:0.000326 
-0.03971442163658409 0:8 1:1140 2:0.000505 
-0.7063814216365841 0:11 1:1260 2:0.000383 
0.8899468467651189 0:2 1:1053 2:0.000505 
0.8900028336652235 0:10 1:762 2:0.000707 
-0.03926025340317785 0:5 1:634 2:0.000435 
