svm_type nu_svr
kernel_type rbf
gamma 0.5
nr_class 2
total_sv 53
rho -0.10422
SV
-0.1381178409312025 0:0 1:516.24097 2:0.01777 
1 0:0 1:633.92914 2:0.012251 
0.2476693617371359 0:0 1:514.25031 2:0.016227 
0.562216130779978 0:0 1:398.70984 2:0.017125 
0.395524339833074 0:7 1:540.31665 2:0.016676 
-0.4372073930048797 0:7 1:558.74066 2:0.007606 
0.7287564038919619 0:3 1:615.01532 2:0.024521 
-0.08210228342816078 0:12 1:457.76593 2:0.019292 
0.2280461289618986 0:7 1:508.71634 2:0.01536 
0.7288981292296247 0:0 1:595.60547 2:0.023468 
0.7268009132889168 0:8 1:512.27393 2:0.018424 
-0.6954777270470729 0:7 1:472.09235 2:0.012156 
0.5622571895920367 0:0 1:485.67459 2:0.011828 
0.5565268207621669 0:7 1:525.77222 2:0.025003 
-0.4452528317988347 0:0 1:633.92914 2:0.012251 
0.3953254799443101 0:0 1:348.40878 2:0.024241 
0.1111838991971168 0:2 1:452.17032 2:0.021674 
0.8955296922607722 0:0 1:510.10651 2:0.017748 
-1 0:2 1:644.00458 2:0.002271 
0.0622402576947683 0:5 1:593.62805 2:0.02349 
0.3923301323850432 0:5 1:513.64008 2:0.033737 
-0.06235697523758336 0:5 1:599.19843 2:0.025695 
-0.1039514933320984 0:8 1:519.73486 2:0.017725 
-0.6039566392422194 0:0 1:305.73157 2:0.019303 
-0.6036820888685717 0:0 1:469.89963 2:0.009613 
-0.7706883809567703 0:11 1:314.22421 2:0.015145 
-1 0:0 1:398.70984 2:0.017125 
0.4218691700566608 0:2 1:660.32135 2:0.015838 
0.06220191383558559 0:2 1:541.71991 2:0.014183 
0.8953488913634905 0:10 1:660.87097 2:0.021499 
0.5565132953687755 0:10 1:526.19269 2:0.024319 
-0.270627764157046 0:0 1:417.44363 2:0.011465 
-1 0:10 1:455.86713 2:0.004951 
-0.2706104503759141 0:12 1:599.3794 2:0.026871 
-0.6129100367252771 0:0 1:451.15335 2:0.010741 
-1 0:10 1:235.69646 2:0.013789 
-0.6039264681162588 0:4 1:564.58441 2:0.01951 
0.395444816612207 0:4 1:497.3168 2:0.021692 
-0.3072244429724278 0:2 1:662.53265 2:0.014866 
0.2074862731259605 0:2 1:635.51575 2:0.01878 
0.8955295211819699 0:2 1:754.89471 2:0.017739 
0.6091574483934757 0:5 1:598.44568 2:0.03949 
0.2286718598555234 0:5 1:489.45871 2:0.015249 
-1 0:4 1:232.14264 2:0.023328 
-1 0:0 1:787.40277 2:0.038783 
0.3954356250608914 0:9 1:530.43671 2:0.009767 
0.3955657920988622 0:2 1:705.53766 2:0.022925 
-0.4372100829945946 0:12 1:568.73761 2:0.031653 
0.06201517705605987 0:0 1:520.5058 2:0.043385 
0.2057446493125626 0:7 1:470.82245 2:0.021834 
-0.270550587570396 0:7 1:433.52792 2:0.017196 
-0.2705283898686212 0:3 1:434.06674 2:0.021694 
0.06209256374709967 0:5 1:456.8219 2:0.023255 
