svm_type nu_svr
kernel_type rbf
gamma 0.25
nr_class 2
total_sv 15
rho -0.321418
SV
-0.3208997557860681 1:0 2:1015 3:516.24097 4:0.01777 
1 1:0 2:1034 3:633.92914 4:0.012251 
0.01166036060987391 1:0 2:745 3:514.25031 4:0.016227 
-0.6543018309966987 1:0 2:956 3:398.70984 4:0.017125 
0.1782171179568289 1:0 2:1304 3:540.31665 4:0.016676 
-0.6542039776514553 1:0 2:777 3:558.74066 4:0.007606 
0.511424777443213 1:0 2:1114 3:615.01532 4:0.024521 
-0.3208443559444175 1:0 2:798 3:457.76593 4:0.019292 
0.01160129161161186 1:0 2:960 3:508.71634 4:0.01536 
0.511660360609874 1:0 2:841 3:595.60547 4:0.023468 
0.5116130113380848 1:0 2:856 3:512.27393 4:0.018424 
-0.8209270572251284 1:0 2:905 3:472.09235 4:0.012156 
0.3443987912968572 1:0 2:1102 3:485.67459 4:0.011828 
0.344867174507839 1:0 2:1033 3:525.77222 4:0.025003 
-0.6542659077704145 1:0 2:1034 3:633.92914 4:0.012251 
