svm_type nu_svr
kernel_type rbf
gamma 0.25
nr_class 2
total_sv 108
rho 0.0336682
SV
0.01944771527527167 1:0 2:0 3:122.42004 4:0.01777 
-0.06916811998828731 1:0 2:0 3:184.08177 4:0.016227 
0.03393942380780623 1:0 2:7 3:187.60159 4:0.016676 
0.03337624534940253 1:0 2:7 3:174.87781 4:0.007606 
0.03400423740952951 1:0 2:3 3:179.7747 4:0.024521 
0.03311873495771134 1:0 2:12 3:245.15866 4:0.019292 
0.01518228193922599 1:0 2:7 3:111.76267 4:0.01536 
0.03395800187725895 1:0 2:0 3:258.78903 4:0.023468 
0.03305110135734735 1:0 2:8 3:243.40955 4:0.018424 
0.02467379387232416 1:0 2:7 3:108.40743 4:0.012156 
0.09861623205063505 1:0 2:0 3:154.93671 4:0.011828 
0.01919496060765069 1:0 2:7 3:134.63148 4:0.025003 
0.03383948445234597 1:0 2:0 3:211.1675 4:0.012251 
0.03126530970888697 1:0 2:0 3:125.32471 4:0.024241 
0.03392520728769999 1:0 2:2 3:317.07281 4:0.021674 
1 1:0 2:0 3:187.0966 4:0.017748 
-1 1:0 2:2 3:152.31142 4:0.002271 
0.03626976859839326 1:0 2:5 3:156.18234 4:0.02349 
0.01353528827052652 1:0 2:5 3:137.77418 4:0.033737 
0.03250558842194584 1:0 2:5 3:169.74104 4:0.025695 
-0.002884055191853307 1:0 2:8 3:110.60689 4:0.017725 
0.03001018439092595 1:0 2:0 3:117.79584 4:0.019303 
0.03193294691479354 1:0 2:0 3:93.960075 4:0.009613 
0.0332289052507807 1:0 2:11 3:62.218277 4:0.015145 
0.03342884847714522 1:0 2:0 3:194.78667 4:0.017125 
0.03393729680017765 1:0 2:2 3:272.56207 4:0.015838 
0.033873278984457 1:0 2:2 3:233.00282 4:0.014183 
1 1:0 2:10 3:212.32161 4:0.021499 
0.03333465252565 1:0 2:10 3:219.63496 4:0.024319 
0.02513172525610114 1:0 2:0 3:168.61116 4:0.011465 
-0.9662282299571925 1:0 2:10 3:122.04619 4:0.004951 
0.03342618570670267 1:0 2:12 3:251.46826 4:0.026871 
0.02124070902782689 1:0 2:0 3:100.71413 4:0.010741 
-0.9659660344733403 1:0 2:10 3:40.574505 4:0.013789 
0.03296715386121289 1:0 2:4 3:196.95021 4:0.01951 
0.0334535805611665 1:0 2:4 3:290.93979 4:0.021692 
0.0305527431983809 1:0 2:2 3:137.8206 4:0.014866 
0.033017725810934 1:0 2:2 3:173.51231 4:0.01878 
1 1:0 2:2 3:131.64836 4:0.017739 
0.03312019911848442 1:0 2:5 3:164.6559 4:0.03949 
0.02942040551976064 1:0 2:5 3:118.39919 4:0.015249 
-0.966110991092627 1:0 2:4 3:44.069962 4:0.023328 
-0.965686100054749 1:0 2:0 3:572.40143 4:0.038783 
0.02255467903310981 1:0 2:9 3:111.65286 4:0.009767 
0.02317304682098508 1:0 2:2 3:168.07809 4:0.022925 
-0.2219323589923942 1:0 2:12 3:211.117 4:0.031653 
0.02099725806798727 1:0 2:0 3:246.04076 4:0.043385 
0.01149141094340883 1:1 2:7 3:92.28968 4:0.021834 
0.01034349627160622 1:1 2:7 3:91.326851 4:0.017196 
0.02658473473098488 1:1 2:3 3:114.43704 4:0.021694 
0.02236324631110295 1:1 2:5 3:148.28641 4:0.023255 
0.02019792067362844 1:1 2:5 3:138.30226 4:0.025702 
0.01845302805663507 1:1 2:5 3:134.92932 4:0.019139 
0.02797681768079716 1:1 2:0 3:73.443481 4:0.014563 
-0.01020543431566985 1:1 2:0 3:75.059196 4:0.022936 
0.03319371062141771 1:1 2:8 3:72.823708 4:0.01907 
0.3417139008814076 1:1 2:2 3:150.36011 4:0.013489 
0.01982032057296212 1:1 2:10 3:91.247353 4:0.020216 
0.01961952873695089 1:1 2:0 3:120.21809 4:0.02633 
0.02553093427290511 1:1 2:0 3:84.585358 4:0.018689 
-0.04688491861064884 1:1 2:3 3:101.42107 4:0.022125 
0.03323765225329474 1:1 2:0 3:105.6449 4:0.029818 
0.02951044708279802 1:1 2:7 3:64.040039 4:0.029027 
0.03032715714792796 1:1 2:5 3:68.875267 4:0.022152 
-0.03101263293578265 1:1 2:0 3:149.2966 4:0.022825 
0.02036547392141838 1:1 2:0 3:247.03374 4:0.03027 
0.02245009270061112 1:1 2:5 3:113.12672 4:0.019101 
0.00792134439292954 1:1 2:0 3:121.96153 4:0.022342 
0.172796756550512 1:1 2:2 3:95.614876 4:0.012635 
0.03277205542398706 1:1 2:0 3:88.994751 4:0.020593 
0.02429347888408082 1:1 2:8 3:97.601379 4:0.02256 
0.6381397826120807 1:1 2:2 3:99.353554 4:0.020635 
-0.03444946502576168 1:1 2:0 3:129.24826 4:0.029963 
0.02959719604951846 1:1 2:0 3:78.399452 4:0.032625 
0.0314350361343415 1:1 2:5 3:121.17292 4:0.011023 
0.0267490943726167 1:1 2:3 3:84.184044 4:0.023571 
0.01580024238507144 1:1 2:0 3:82.125359 4:0.019401 
0.02702965565375713 1:1 2:0 3:109.8411 4:0.039756 
0.0179604150132551 1:1 2:0 3:66.906998 4:0.01902 
0.02444718262158633 1:1 2:2 3:111.23468 4:0.014989 
0.02751713959260619 1:1 2:5 3:92.010223 4:0.015786 
0.02504100402847323 1:1 2:5 3:65.945 4:0.036205 
0.03572080095501486 1:1 2:1 3:47.813747 4:0.01757 
0.02635998693405443 1:1 2:5 3:107.93533 4:0.022006 
0.02050366587947917 1:1 2:7 3:77.674416 4:0.014357 
0.01145730577810282 1:1 2:8 3:111.05724 4:0.016317 
0.03140041601341687 1:1 2:2 3:57.090328 4:0.023703 
0.01376802192205221 1:1 2:10 3:97.889984 4:0.017483 
0.01244900437228653 1:1 2:1 3:81.708939 4:0.025977 
0.01253781605955103 1:1 2:10 3:99.147339 4:0.016222 
0.0331530871331603 1:1 2:0 3:38.322647 4:0.021718 
0.02681669156118783 1:1 2:8 3:100.42133 4:0.019284 
0.03351919345125803 1:1 2:10 3:82.794144 4:0.019318 
0.01854904024186709 1:1 2:7 3:78.912949 4:0.017647 
0.01389770429080604 1:1 2:3 3:94.83757 4:0.010755 
0.02014287962455008 1:1 2:10 3:92.750999 4:0.034394 
0.02977404801735086 1:1 2:4 3:81.077324 4:0.017136 
-0.03400663197291991 1:1 2:0 3:95.077652 4:0.013531 
0.02666116360325638 1:1 2:8 3:133.02512 4:0.032965 
0.01172026954871993 1:1 2:5 3:129.31689 4:0.010502 
0.03811012597612707 1:1 2:7 3:125.35245 4:0.01127 
-1 1:1 2:3 3:98.256821 4:0.024424 
-0.1052601185906684 1:1 2:0 3:100.68175 4:0.025715 
0.0312414090938661 1:1 2:5 3:88.509705 4:0.017622 
0.02922802747016658 1:1 2:0 3:75.457474 4:0.01313 
0.03161887180947789 1:1 2:3 3:53.817097 4:0.01913 
0.01719378427065095 1:1 2:0 3:67.587502 4:0.017524 
-0.04941337994972603 1:1 2:3 3:94.29567 4:0.025899 
