svm_type nu_svr
kernel_type rbf
gamma 0.25
nr_class 2
total_sv 110
rho 0.0279875
SV
0.02747783951053862 1:0 2:0 3:1784.5159 4:190 
0.02831814933515109 1:0 2:0 3:1928.4839 4:170 
0.02734519598653684 1:0 2:7 3:1455.2574 4:101 
0.02734519584576145 1:0 2:7 3:2185.0735 4:52 
0.02799627850051034 1:0 2:3 3:1418.5193 4:265 
0.02734519542343672 1:0 2:12 3:1387.7516 4:220 
0.02734519542343672 1:0 2:7 3:1663.5341 4:73 
0.02734519542343672 1:0 2:0 3:1489.085 4:255 
0.02831382258782132 1:0 2:8 3:1459.4364 4:190 
0.02799534403322235 1:0 2:7 3:1825.4937 4:155 
0.02799534403322235 1:0 2:0 3:1481.2729 4:80 
0.02799534403322246 1:0 2:7 3:1362.0447 4:275 
0.02799534403322246 1:0 2:0 3:1899.0386 4:140 
0.02801716964076761 1:0 2:0 3:1219.8586 4:125 
0.02807635389147278 1:0 2:2 3:1472.0798 4:175 
1 1:0 2:0 3:1658.2784 4:160 
-0.9720047672312575 1:0 2:2 3:6199.2202 4:59 
0.02799534405417925 1:0 2:5 3:1440.207 4:160 
0.02831706988871496 1:0 2:5 3:1309.333 4:148 
0.02801716964076728 1:0 2:5 3:1445.6055 4:170 
0.02831887197496852 1:0 2:8 3:1545.4904 4:175 
0.02675058517877305 1:0 2:0 3:1192.4337 4:135 
0.02831634724890808 1:0 2:0 3:4007.5034 4:70 
0.02800056697107367 1:0 2:11 3:1273.736 4:45 
0.02807635389146024 1:0 2:0 3:1464.4348 4:185 
0.02799534403322235 1:0 2:2 3:1639.1249 4:200 
0.0279953440541796 1:0 2:2 3:1672.0845 4:170 
1 1:0 2:10 3:1768.0786 4:290 
0.02829435004212258 1:0 2:10 3:1430.9865 4:220 
0.02829507194853754 1:0 2:0 3:2025.5453 4:120 
-0.9719828303592324 1:0 2:10 3:2617.1016 4:45 
0.0283030061453934 1:0 2:12 3:1348.2349 4:150 
0.0283030061047499 1:0 2:0 3:3196.9268 4:115 
-0.9719236461085272 1:0 2:10 3:1194.8899 4:45 
0.0280763537266914 1:0 2:4 3:1591.6799 4:150 
0.02801572419637428 1:0 2:4 3:1368.2917 4:230 
0.02800056693250271 1:0 2:2 3:2055.8557 4:140 
0.0279953440332224 1:0 2:2 3:1633.4545 4:160 
1 1:0 2:2 3:1692.3934 4:250 
0.0279953440332224 1:0 2:5 3:1345.3405 4:280 
0.0279953440541796 1:0 2:5 3:1887.9951 4:165 
-0.9716811280250315 1:0 2:4 3:3143.0408 4:100 
-0.971682930111285 1:0 2:0 3:1609.4563 4:129 
0.02829507194852394 1:0 2:9 3:1932.5494 4:174 
0.02766873580014971 1:0 2:2 3:2951.2705 4:126 
0.02801572419637428 1:0 2:12 3:1469.601 4:165 
0.02807635446467285 1:0 2:0 3:1324.3845 4:128 
0.02830084292204909 1:1 2:7 3:1558.2727 4:190 
0.02754258282621285 1:1 2:7 3:2358.7581 4:120 
0.02800056699023096 1:1 2:3 3:1624.9089 4:110 
0.02801572419637428 1:1 2:5 3:1510.9131 4:150 
0.02801572419637428 1:1 2:5 3:1378.2238 4:190 
0.02801716964076761 1:1 2:5 3:1710.5525 4:80 
0.02807635372021402 1:1 2:0 3:1671.8125 4:100 
0.02807635372021402 1:1 2:0 3:1168.4712 4:240 
0.028313821507248 1:1 2:8 3:1532.8699 4:140 
0.02828883108025705 1:1 2:2 3:2309.8469 4:75 
0.02801572419637428 1:1 2:10 3:1750.1954 4:115 
0.02807635372021402 1:1 2:0 3:1296.8911 4:170 
0.02828883108025705 1:1 2:0 3:1348.8986 4:120 
0.02829435001635935 1:1 2:3 3:1444.5995 4:125 
0.02830300417443268 1:1 2:0 3:1433.3026 4:180 
0.02829434568508468 1:1 2:7 3:1404.7344 4:160 
0.02799627850051033 1:1 2:5 3:1848.2263 4:165 
0.02829434973090568 1:1 2:0 3:2108.9033 4:180 
0.0282943455835858 1:1 2:5 3:1397.0787 4:160 
0.02830084292204909 1:1 2:0 3:5855.2632 4:185 
0.0283030061047499 1:1 2:5 3:1794.0947 4:130 
0.02830300600467004 1:1 2:0 3:1609.3247 4:200 
0.0283138225878334 1:1 2:2 3:2492.2273 4:90 
0.02800056587192962 1:1 2:0 3:1534.9164 4:140 
0.02734519401568033 1:1 2:8 3:1431.9677 4:180 
0.02831634724890803 1:1 2:2 3:1467.7281 4:130 
0.02828883108025705 1:1 2:0 3:1991.5887 4:100 
0.0283030061047499 1:1 2:0 3:2252.6785 4:80 
0.02830300600467004 1:1 2:5 3:2573.2761 4:75 
0.02831382263906177 1:1 2:3 3:1354.5868 4:170 
0.0280763537266914 1:1 2:0 3:2056.8992 4:90 
0.0282950719485373 1:1 2:0 3:1278.163 4:180 
0.02801572419637428 1:1 2:0 3:1209.1361 4:180 
0.02800056693250271 1:1 2:2 3:1837.3319 4:95 
0.0279953440541796 1:1 2:5 3:1375.2025 4:135 
0.0279953440541796 1:1 2:5 3:1076.4918 4:210 
0.02754258282621285 1:1 2:1 3:1250.2844 4:80 
0.02747783951053862 1:1 2:5 3:1496.0945 4:140 
0.02734519584576142 1:1 2:7 3:2084.5735 4:120 
0.0279953440541796 1:1 2:8 3:1919.8759 4:100 
0.0280763537266914 1:1 2:2 3:1166.3569 4:170 
0.02800056693250271 1:1 2:10 3:1304.9731 4:245 
0.0290061141468617 1:1 2:1 3:1316.2446 4:120 
0.0279953440541796 1:1 2:10 3:1520.1614 4:140 
0.02829435009209502 1:1 2:0 3:1289.1174 4:120 
0.02830084292204909 1:1 2:8 3:5618.0537 4:200 
0.02801572419637428 1:1 2:10 3:1494.4624 4:170 
0.0279953440332224 1:1 2:7 3:1183.6102 4:85 
0.02754258282621285 1:1 2:3 3:1990.678 4:156 
0.0279953440541796 1:1 2:5 3:1383.3499 4:170 
0.02829435001635934 1:1 2:10 3:1284.7441 4:180 
0.02800056693250271 1:1 2:4 3:1848.5742 4:150 
0.02800056697107366 1:1 2:0 3:2132.7498 4:115 
0.02801572419637428 1:1 2:8 3:1456.9016 4:240 
0.0280763537266914 1:1 2:5 3:2338.5618 4:85 
0.0280763538914721 1:1 2:7 3:2298.9255 4:160 
-0.9720261859323832 1:1 2:3 3:1321.229 4:120 
0.02829507194853754 1:1 2:0 3:1617.012 4:145 
0.02830084292204909 1:1 2:5 3:1766.9111 4:120 
0.0283030061047499 1:1 2:0 3:1769.5518 4:80 
0.02674725152136144 1:1 2:3 3:1190.5663 4:135 
0.02831814933516488 1:1 2:0 3:2009.7479 4:145 
0.02829434973090568 1:1 2:3 3:1557.2062 4:220 
