svm_type nu_svr
kernel_type rbf
gamma 0.25
nr_class 2
total_sv 106
rho 0.0394821
SV
0.07139665726904432 1:0 2:1 3:516.24097 4:0.01777 
-0.2754471122465628 1:0 2:1 3:514.25031 4:0.016227 
0.02460360479412815 1:0 2:1 3:540.31665 4:0.016676 
0.03968925023271841 1:0 2:1 3:558.74066 4:0.007606 
0.03914138677101497 1:0 2:1 3:615.01532 4:0.024521 
0.3358499588984695 1:0 2:0 3:457.76593 4:0.019292 
-0.4654661492036472 1:0 2:1 3:508.71634 4:0.01536 
0.02574813366957296 1:0 2:1 3:595.60547 4:0.023468 
-0.1637722599743883 1:0 2:1 3:512.27393 4:0.018424 
0.008793472431144922 1:0 2:1 3:472.09235 4:0.012156 
0.03891324634228788 1:0 2:1 3:485.67459 4:0.011828 
0.03779028779313298 1:0 2:1 3:525.77222 4:0.025003 
0.02783648647108072 1:0 2:1 3:633.92914 4:0.012251 
0.03836086232197289 1:0 2:1 3:348.40878 4:0.024241 
-0.01172432340624119 1:0 2:1 3:452.17032 4:0.021674 
1 1:0 2:1 3:510.10651 4:0.017748 
-0.9602064799098375 1:0 2:1 3:644.00458 4:0.002271 
0.02996005620853603 1:0 2:1 3:593.62805 4:0.02349 
0.3952514423482973 1:0 2:1 3:513.64008 4:0.033737 
0.008540110847744864 1:0 2:1 3:599.19843 4:0.025695 
0.01155987498401356 1:0 2:1 3:519.73486 4:0.017725 
0.02365767771276028 1:0 2:1 3:305.73157 4:0.019303 
0.0281299925492724 1:0 2:1 3:469.89963 4:0.009613 
0.0396919232573324 1:0 2:1 3:314.22421 4:0.015145 
0.02527856806976925 1:0 2:0 3:398.70984 4:0.017125 
-0.8227074795235968 1:0 2:1 3:660.32135 4:0.015838 
0.02400498553548993 1:0 2:1 3:541.71991 4:0.014183 
1 1:0 2:1 3:660.87097 4:0.021499 
0.02106977809093906 1:0 2:0 3:417.44363 4:0.011465 
-1 1:0 2:1 3:455.86713 4:0.004951 
0.02392301996360639 1:0 2:0 3:599.3794 4:0.026871 
0.03929237771658448 1:0 2:0 3:451.15335 4:0.010741 
-0.9303479020982575 1:0 2:0 3:235.69646 4:0.013789 
0.03923415294863294 1:0 2:0 3:564.58441 4:0.01951 
0.02150579917982106 1:0 2:0 3:497.3168 4:0.021692 
-0.2193203267428494 1:0 2:1 3:662.53265 4:0.014866 
0.02748165530536922 1:0 2:0 3:635.51575 4:0.01878 
1 1:0 2:1 3:754.89471 4:0.017739 
0.0133762105761597 1:0 2:1 3:598.44568 4:0.03949 
0.02391760372579698 1:0 2:1 3:489.45871 4:0.015249 
-1 1:0 2:1 3:232.14264 4:0.023328 
-0.9601783213309349 1:0 2:1 3:787.40277 4:0.038783 
0.02766129462245639 1:0 2:1 3:530.43671 4:0.009767 
0.03916437285163128 1:0 2:1 3:705.53766 4:0.022925 
0.0391710538135996 1:0 2:1 3:568.73761 4:0.031653 
0.02884487953570962 1:0 2:1 3:520.5058 4:0.043385 
-0.008033480714662259 1:1 2:1 3:433.52792 4:0.017196 
0.01464236613851226 1:1 2:1 3:434.06674 4:0.021694 
0.5743605039846259 1:1 2:1 3:456.8219 4:0.023255 
-0.02385970646537607 1:1 2:1 3:394.25983 4:0.025702 
0.03924148537781136 1:1 2:1 3:479.24417 4:0.019139 
0.05493298665492503 1:1 2:1 3:393.99454 4:0.014563 
0.02211593817406564 1:1 2:1 3:306.28265 4:0.022936 
0.005463836906662904 1:1 2:1 3:398.27478 4:0.01907 
0.02573931186745346 1:1 2:0 3:490.4653 4:0.013489 
-0.4642614390487925 1:1 2:1 3:510.93781 4:0.020216 
0.03957914666297938 1:1 2:1 3:295.81384 4:0.02633 
0.02643271241026747 1:1 2:0 3:372.37299 4:0.018689 
-0.003022221233233497 1:1 2:1 3:385.08719 4:0.022125 
-0.003477981398234485 1:1 2:1 3:416.68872 4:0.029818 
-0.3722786763431919 1:1 2:0 3:457.70758 4:0.029027 
0.03955499515539632 1:1 2:0 3:300.74512 4:0.022152 
0.03931428828183095 1:1 2:0 3:619.66821 4:0.022825 
0.02685181998168889 1:1 2:1 3:409.6506 4:0.029616 
1 1:1 2:1 3:411.80115 4:0.019101 
0.02395825894541375 1:1 2:1 3:529.01337 4:0.022342 
0.01553948492456645 1:1 2:0 3:472.04217 4:0.012635 
0.01393543090859568 1:1 2:1 3:415.63882 4:0.020593 
0.03789190722165062 1:1 2:1 3:381.51263 4:0.02256 
0.05013367758060382 1:1 2:0 3:413.94989 4:0.020635 
0.03235277604990835 1:1 2:1 3:374.42261 4:0.032625 
0.0259886378654947 1:1 2:1 3:418.05795 4:0.011023 
0.03913309774130796 1:1 2:1 3:357.68951 4:0.023571 
-0.02056964503483928 1:1 2:1 3:435.76679 4:0.019401 
0.03549613617569742 1:1 2:1 3:443.70615 4:0.039756 
0.03902749265373373 1:1 2:0 3:265.21146 4:0.01902 
0.02282262392423229 1:1 2:0 3:497.15573 4:0.014989 
0.02639341368348836 1:1 2:1 3:369.80402 4:0.015786 
0.03927935612306221 1:1 2:1 3:258.46668 4:0.036205 
0.03964283990498436 1:1 2:1 3:196.42186 4:0.01757 
0.03507763969745536 1:1 2:1 3:432.35168 4:0.022006 
0.03916680953955063 1:1 2:1 3:424.5589 4:0.014357 
0.02976069354064402 1:1 2:1 3:447.59552 4:0.016317 
0.03924778492904422 1:1 2:1 3:286.40317 4:0.023703 
0.03779741659790582 1:1 2:1 3:351.97165 4:0.017483 
0.03166822180422191 1:1 2:1 3:367.56323 4:0.025977 
-0.01037296808194493 1:1 2:1 3:410.55814 4:0.016222 
0.03934589600265209 1:1 2:1 3:335.32657 4:0.021718 
0.0131547113902522 1:1 2:1 3:446.13959 4:0.019284 
0.01268730273592418 1:1 2:1 3:397.17868 4:0.019318 
0.6797764464418343 1:1 2:1 3:231.2446 4:0.017647 
0.01762689960615569 1:1 2:1 3:472.57263 4:0.010755 
0.03931641906418967 1:1 2:1 3:325.24512 4:0.023067 
0.02978286031499897 1:1 2:1 3:461.4581 4:0.034394 
0.002832015508450629 1:1 2:1 3:490.23093 4:0.017136 
0.02600555719407707 1:1 2:0 3:386.00528 4:0.013531 
0.03493721350785345 1:1 2:1 3:466.98206 4:0.032965 
0.02753815396924178 1:1 2:1 3:463.5795 4:0.010502 
0.02496676889505046 1:1 2:1 3:384.93063 4:0.01127 
-1 1:1 2:1 3:411.86313 4:0.024424 
0.03479249273455068 1:1 2:1 3:401.09644 4:0.025715 
0.01737248237365988 1:1 2:1 3:395.96884 4:0.017622 
0.4343417310002886 1:1 2:1 3:454.82169 4:0.01313 
0.03946925742870855 1:1 2:1 3:279.95862 4:0.01913 
0.01274120960866592 1:1 2:1 3:434.78683 4:0.017524 
0.04697578673416494 1:1 2:1 3:436.28659 4:0.025899 
