svm_type nu_svr
kernel_type rbf
gamma 0.25
nr_class 2
total_sv 53
rho 0.0218217
SV
-1 1:0 2:0 3:0 4:0.000513 
-0.2621716233854325 1:0 2:7 3:1 4:0.000424 
0.8323628508363243 1:0 2:3 3:1 4:0.00064 
0.2104660584324007 1:0 2:12 3:0 4:0.000562 
0.4932338255743648 1:0 2:8 3:1 4:0.000538 
-0.01474765432687897 1:0 2:0 3:1 4:0.00026 
0.1284373884356864 1:0 2:0 3:1 4:0.000706 
1 1:0 2:0 3:1 4:0.000593 
-1 1:0 2:2 3:1 4:0.000154 
0.5902734659002133 1:0 2:5 3:1 4:0.000582 
-1 1:0 2:5 3:1 4:0.000857 
1 1:0 2:5 3:1 4:0.000672 
-0.229109681955035 1:0 2:8 3:1 4:0.000505 
-0.04138829470335081 1:0 2:0 3:1 4:0.000343 
-0.06917687836608674 1:0 2:11 3:1 4:0.000383 
-0.9545038035269763 1:0 2:0 3:0 4:0.000513 
0.6968530576479366 1:0 2:2 3:1 4:0.000429 
1 1:0 2:10 3:1 4:0.000707 
0.8784740777211573 1:0 2:10 3:1 4:0.000586 
1 1:0 2:0 3:0 4:0.00039 
-1 1:0 2:10 3:1 4:0.00024 
0.1701651013360457 1:0 2:12 3:0 4:0.000452 
0.9656081353200424 1:0 2:0 3:0 4:0.000518 
-1 1:0 2:10 3:0 4:0.000326 
0.0829549931124229 1:0 2:4 3:0 4:0.000589 
-1 1:0 2:2 3:1 4:0.000613 
-0.02187402693245782 1:0 2:2 3:0 4:0.000602 
1 1:0 2:2 3:1 4:0.000505 
-1 1:0 2:5 3:1 4:0.000853 
0.9551985351498971 1:0 2:5 3:1 4:0.000581 
-1 1:0 2:4 3:1 4:0.000933 
-1 1:0 2:0 3:1 4:0.001009 
-0.1543978624379566 1:0 2:9 3:1 4:0.000334 
-0.05955400959888957 1:0 2:2 3:1 4:0.000819 
-0.2536599680912372 1:0 2:12 3:1 4:0.000853 
0.1154980046901471 1:1 2:7 3:0 4:0.001064 
-0.07725047971003696 1:1 2:5 3:0 4:0.000683 
0.009447911198179545 1:1 2:0 3:0 4:0.000748 
0.01013842891949926 1:1 2:0 3:1 4:0.00131 
-0.003315874621922814 1:1 2:0 3:0 4:0.000441 
0.007079382599840625 1:1 2:2 3:0 4:0.000727 
-0.0416780700417433 1:1 2:1 3:1 4:0.00046 
0.07991269338918267 1:1 2:7 3:1 4:0.000571 
0.3443172009548399 1:1 2:2 3:1 4:0.00047 
0.0009731241276078164 1:1 2:1 3:1 4:0.000686 
0.03235154500832604 1:1 2:10 3:1 4:0.000559 
-0.04231023868666031 1:1 2:0 3:1 4:0.000513 
-0.1009623091112908 1:1 2:8 3:1 4:0.000876 
0.74088795903074 1:1 2:4 3:1 4:0.000754 
-0.351979439633588 1:1 2:5 3:1 4:0.000409 
-1 1:1 2:3 3:1 4:0.000787 
0.00720700190110066 1:1 2:5 3:1 4:0.000584 
0.3262394738435876 1:1 2:3 3:1 4:0.00088 
