svm_type nu_svr
kernel_type rbf
gamma 0.333333
nr_class 2
total_sv 53
rho -0.0672267
SV
-0.5146287718419192 0:0 1:4 2:196.95021 3:0.01951 
-0.01562965231334938 0:1 1:7 2:92.28968 3:0.021834 
0.4432868367462052 0:0 1:5 2:140.46902 3:0.015085 
-0.5153216377765741 0:0 1:12 2:126.06876 3:0.01502 
0.7138795842867444 0:0 1:12 2:228.85782 3:0.024701 
-1 0:0 1:0 2:572.40143 3:0.038783 
1 0:0 1:0 2:211.1675 3:0.012251 
-1 0:0 1:0 2:239.30429 3:0.005931 
0.3516143815457228 0:0 1:5 2:169.74104 3:0.025695 
0.8805193369011434 0:0 1:2 2:446.46307 3:0.014913 
0.7141603978411301 0:0 1:8 2:243.40955 3:0.018424 
-1 0:0 1:4 2:44.069962 3:0.023328 
0.5040038604830619 0:0 1:7 2:211.8461 3:0.016127 
0.04752361411503313 0:0 1:5 2:156.18234 3:0.02349 
-0.349069201163618 0:0 1:7 2:174.87781 3:0.007606 
0.047771834488687 0:0 1:2 2:317.07281 3:0.021674 
0.3803408271680511 0:0 1:4 2:290.93979 3:0.021692 
-0.5147799567029463 0:0 1:0 2:117.79584 3:0.019303 
-1 0:1 1:5 2:138.30226 3:0.025702 
-1 0:0 1:2 2:152.31142 3:0.002271 
0.128459488900126 0:0 1:0 2:184.08177 3:0.016227 
-0.5013357631706433 0:0 1:12 2:211.117 3:0.031653 
-0.18281135827961 0:0 1:0 2:168.61116 3:0.011465 
-0.515590240205948 0:0 1:0 2:100.71413 3:0.010741 
0.5087700199053586 0:0 1:3 2:171.88068 3:0.029261 
-0.6815065228553895 0:0 1:7 2:201.55022 3:0.018771 
0.539493077920468 0:0 1:7 2:134.63148 3:0.025003 
-0.01433368136653851 0:0 1:0 2:122.42004 3:0.01777 
0.214352200995967 0:0 1:5 2:118.39919 3:0.015249 
0.4742433236244598 0:0 1:9 2:111.65286 3:0.009767 
0.3807181217785522 0:0 1:7 2:187.60159 3:0.016676 
1 0:0 1:5 2:137.77418 3:0.033737 
-0.493159616655887 0:0 1:7 2:108.40743 3:0.012156 
-0.2663554488999322 0:0 1:0 2:131.70177 3:0.01158 
0.04487012627843481 0:0 1:5 2:165.8728 3:0.016049 
0.575422051555794 0:0 1:0 2:136.17122 3:0.016488 
0.5482949429384385 0:0 1:0 2:194.78667 3:0.017125 
0.7144459006705031 0:0 1:0 2:258.78903 3:0.023468 
0.04734747832875162 0:1 1:5 2:148.28641 3:0.023255 
0.06402963398139278 0:0 1:2 2:173.51231 3:0.01878 
0.1654499677646228 0:0 1:2 2:184.23686 3:0.012129 
-0.1813239837393298 0:1 1:3 2:114.43704 3:0.021694 
-0.2620673056341097 0:0 1:2 2:137.8206 3:0.014866 
-1 0:0 1:0 2:194.78667 3:0.017125 
-0.01626835889015022 0:0 1:12 2:245.15866 3:0.019292 
0.8715636885773623 0:0 1:0 2:187.0966 3:0.017748 
-0.3486546754322867 0:0 1:0 2:211.1675 3:0.012251 
-1 0:0 1:10 2:40.574505 3:0.013789 
-0.180345698183526 0:0 1:8 2:110.60689 3:0.017725 
-0.6816799965220003 0:0 1:11 2:62.218277 3:0.015145 
0.9502884136333846 0:0 1:2 2:131.64836 3:0.017739 
0.939150889570605 0:0 1:10 2:212.32161 3:0.021499 
-0.01513813036624182 0:0 1:5 2:126.8499 3:0.009627 
