svm_type nu_svr
kernel_type rbf
gamma 0.25
nr_class 2
total_sv 110
rho 0.0281572
SV
0.02799838763533447 1:0 2:1 3:1784.5159 4:516.24097 
0.02799071892942695 1:0 2:1 3:1928.4839 4:514.25031 
0.02800555261444082 1:0 2:1 3:1455.2574 4:540.31665 
0.02816644844291605 1:0 2:1 3:2185.0735 4:558.74066 
0.02818604239323341 1:0 2:1 3:1418.5193 4:615.01532 
0.02799838763533447 1:0 2:0 3:1387.7516 4:457.76593 
0.02736473793869754 1:0 2:1 3:1663.5341 4:508.71634 
0.02799830561606242 1:0 2:1 3:1489.085 4:595.60547 
0.02799830561606242 1:0 2:1 3:1459.4364 4:512.27393 
0.02799314811436204 1:0 2:1 3:1825.4937 4:472.09235 
0.02799314811436204 1:0 2:1 3:1481.2729 4:485.67459 
0.02856505694614953 1:0 2:1 3:1362.0447 4:525.77222 
0.02856505694614953 1:0 2:1 3:1899.0386 4:633.92914 
0.02856505694614953 1:0 2:1 3:1219.8586 4:348.40878 
0.02856505694614953 1:0 2:1 3:1472.0798 4:452.17032 
1 1:0 2:1 3:1658.2784 4:510.10651 
-0.9715064868593147 1:0 2:1 3:6199.2202 4:644.00458 
0.02810239337372122 1:0 2:1 3:1440.207 4:593.62805 
0.02808622339865019 1:0 2:1 3:1309.333 4:513.64008 
0.0279983994975268 1:0 2:1 3:1445.6055 4:599.19843 
0.02856505694614953 1:0 2:1 3:1545.4904 4:519.73486 
0.02856505694614953 1:0 2:1 3:1192.4337 4:305.73157 
0.0283227277845981 1:0 2:1 3:4007.5034 4:469.89963 
0.0283227277845981 1:0 2:1 3:1273.736 4:314.22421 
0.0283227277845981 1:0 2:0 3:1464.4348 4:398.70984 
0.02826574062043336 1:0 2:1 3:1639.1249 4:660.32135 
0.02799830561606242 1:0 2:1 3:1672.0845 4:541.71991 
1 1:0 2:1 3:1768.0786 4:660.87097 
0.02799314811436204 1:0 2:1 3:1430.9865 4:526.19269 
0.02795923404227096 1:0 2:0 3:2025.5453 4:417.44363 
-0.9711785490564939 1:0 2:1 3:2617.1016 4:455.86713 
0.02602292815326144 1:0 2:0 3:1348.2349 4:599.3794 
0.02795923404227096 1:0 2:0 3:3196.9268 4:451.15335 
-0.9718139576067666 1:0 2:0 3:1194.8899 4:235.69646 
0.02826574062043335 1:0 2:0 3:1591.6799 4:564.58441 
0.02832272778459776 1:0 2:0 3:1368.2917 4:497.3168 
0.02799840785400615 1:0 2:1 3:2055.8557 4:662.53265 
0.0283227277845981 1:0 2:0 3:1633.4545 4:635.51575 
1 1:0 2:1 3:1692.3934 4:754.89471 
0.02603900978039621 1:0 2:1 3:1345.3405 4:598.44568 
0.02827992093662939 1:0 2:1 3:1887.9951 4:489.45871 
-0.9719944473855592 1:0 2:1 3:3143.0408 4:232.14264 
-0.971833551557084 1:0 2:1 3:1609.4563 4:787.40277 
0.02795923404227096 1:0 2:1 3:1932.5494 4:530.43671 
0.02827992093662939 1:0 2:1 3:2951.2705 4:705.53766 
0.02804596892627285 1:0 2:1 3:1469.601 4:568.73761 
0.02810240176733146 1:0 2:1 3:1324.3845 4:520.5058 
0.02797580436972508 1:1 2:1 3:1558.2727 4:470.82245 
0.02797580436972508 1:1 2:1 3:2358.7581 4:433.52792 
0.02778402394891286 1:1 2:1 3:1624.9089 4:434.06674 
0.02778402394891285 1:1 2:1 3:1510.9131 4:456.8219 
0.02776368855431763 1:1 2:1 3:1378.2238 4:394.25983 
0.02849351314068529 1:1 2:1 3:1710.5525 4:479.24417 
0.027753891579159 1:1 2:1 3:1671.8125 4:393.99454 
0.02799838763533449 1:1 2:1 3:1168.4712 4:306.28265 
0.02827992093662939 1:1 2:1 3:1532.8699 4:398.27478 
0.02767344366492136 1:1 2:0 3:2309.8469 4:490.4653 
0.02764501064666547 1:1 2:1 3:1750.1954 4:510.93781 
0.02795923404227096 1:1 2:1 3:1296.8911 4:295.81384 
0.02799840785400615 1:1 2:0 3:1348.8986 4:372.37299 
0.02799071892942695 1:1 2:1 3:1444.5995 4:385.08719 
0.02795923404227096 1:1 2:1 3:1433.3026 4:416.68872 
0.02797580436972508 1:1 2:0 3:1404.7344 4:457.70758 
0.02795923404227096 1:1 2:0 3:1848.2263 4:300.74512 
0.02795923404227096 1:1 2:0 3:2108.9033 4:619.66821 
0.02799314811436204 1:1 2:1 3:1397.0787 4:409.6506 
0.02799314811436204 1:1 2:1 3:5855.2632 4:489.89142 
0.02799314811436204 1:1 2:1 3:1794.0947 4:411.80115 
0.02799314811436204 1:1 2:1 3:1609.3247 4:529.01337 
0.02799830561606242 1:1 2:0 3:2492.2273 4:472.04217 
0.02799830561606242 1:1 2:1 3:1534.9164 4:415.63882 
0.02799830561606242 1:1 2:1 3:1431.9677 4:381.51263 
0.02799830561606242 1:1 2:0 3:1467.7281 4:413.94989 
0.0282847526504095 1:1 2:1 3:1991.5887 4:416.67041 
0.02799838763533447 1:1 2:1 3:2252.6785 4:374.42261 
0.02799838763533447 1:1 2:1 3:2573.2761 4:418.05795 
0.02808622339865019 1:1 2:1 3:1354.5868 4:357.68951 
0.02810240176733148 1:1 2:1 3:2056.8992 4:435.76679 
0.0283227277845981 1:1 2:1 3:1278.163 4:443.70615 
0.0282847526504095 1:1 2:0 3:1209.1361 4:265.21146 
0.02799838763533449 1:1 2:0 3:1837.3319 4:497.15573 
0.02798305079581134 1:1 2:1 3:1375.2025 4:369.80402 
0.02799838763533449 1:1 2:1 3:1076.4918 4:258.46668 
0.02799840751495969 1:1 2:1 3:1250.2844 4:196.42186 
0.02799840773190828 1:1 2:1 3:1496.0945 4:432.35168 
0.02776368855431763 1:1 2:1 3:2084.5735 4:424.5589 
0.027753891579159 1:1 2:1 3:1919.8759 4:447.59552 
0.02767344366492136 1:1 2:1 3:1166.3569 4:286.40317 
0.02799840751495969 1:1 2:1 3:1304.9731 4:351.97165 
0.02799840785400615 1:1 2:1 3:1316.2446 4:367.56323 
0.02795923404227096 1:1 2:1 3:1520.1614 4:410.55814 
0.0283227277845981 1:1 2:1 3:1289.1174 4:335.32657 
0.02795923404227096 1:1 2:1 3:5618.0537 4:446.13959 
0.02799840785400615 1:1 2:1 3:1494.4624 4:397.17868 
0.02810240176733152 1:1 2:1 3:1183.6102 4:231.2446 
0.02799838763533449 1:1 2:1 3:1990.678 4:472.57263 
0.02799830561606242 1:1 2:1 3:1383.3499 4:325.24512 
0.02799314811436204 1:1 2:1 3:1284.7441 4:461.4581 
0.02795923404227096 1:1 2:1 3:1848.5742 4:490.23093 
0.02795923404227096 1:1 2:0 3:2132.7498 4:386.00528 
0.02795923404227096 1:1 2:1 3:1456.9016 4:466.98206 
0.0283227277845981 1:1 2:1 3:2338.5618 4:463.5795 
0.0283227277845981 1:1 2:1 3:2298.9255 4:384.93063 
-0.9713695579949404 1:1 2:1 3:1321.229 4:411.86313 
0.02827992093662939 1:1 2:1 3:1617.012 4:401.09644 
0.02797580436972508 1:1 2:1 3:1766.9111 4:395.96884 
0.02778402394891285 1:1 2:1 3:1769.5518 4:454.82169 
0.02764501064666547 1:1 2:1 3:1190.5663 4:279.95862 
0.02798305079581134 1:1 2:1 3:2009.7479 4:434.78683 
0.02798305079581134 1:1 2:1 3:1557.2062 4:436.28659 
