svm_type nu_svr
kernel_type rbf
gamma 0.333333
nr_class 2
total_sv 53
rho -0.0774069
SV
-0.5482410399558314 0:0 1:4 2:564.58441 3:0.01951 
0.149719614750681 0:1 1:7 2:470.82245 3:0.021834 
0.3940891936091381 0:0 1:5 2:725.46198 3:0.015085 
-0.548691471407275 0:0 1:12 2:714.8045 3:0.01502 
0.7271363928721518 0:0 1:12 2:669.13043 3:0.024701 
-1 0:0 1:0 2:787.40277 3:0.038783 
1 0:0 1:0 2:633.92914 3:0.012251 
-1 0:0 1:0 2:447.74573 3:0.005931 
0.3940850789446051 0:0 1:5 2:599.19843 3:0.025695 
0.8938033044394493 0:0 1:2 2:1005.8044 3:0.014913 
0.7166038634642452 0:0 1:8 2:512.27393 3:0.018424 
-1 0:0 1:4 2:232.14264 3:0.023328 
0.5604416377156733 0:0 1:7 2:866.62476 3:0.016127 
0.05985240481750873 0:0 1:5 2:593.62805 3:0.02349 
-0.3818196193976192 0:0 1:7 2:558.74066 3:0.007606 
0.1650755794812718 0:0 1:2 2:452.17032 3:0.021674 
0.394170028137129 0:0 1:4 2:497.3168 3:0.021692 
-0.5485857443250051 0:0 1:0 2:305.73157 3:0.019303 
-0.881859099614534 0:1 1:5 2:394.25983 3:0.025702 
-1 0:0 1:2 2:644.00458 3:0.002271 
0.2555250042730289 0:0 1:0 2:514.25031 3:0.016227 
-0.3820244714063293 0:0 1:12 2:568.73761 3:0.031653 
-0.2153137781103907 0:0 1:0 2:417.44363 3:0.011465 
-0.5584277895586246 0:0 1:0 2:451.15335 3:0.010741 
0.5575559543349258 0:0 1:3 2:525.13648 3:0.029261 
-0.7153137781103907 0:0 1:7 2:406.57483 3:0.018771 
0.5580733401266654 0:0 1:7 2:525.77222 3:0.025003 
-0.1168324785407861 0:0 1:0 2:516.24097 3:0.01777 
0.2271076209339351 0:0 1:5 2:489.45871 3:0.015249 
0.3936881477406065 0:0 1:9 2:530.43671 3:0.009767 
0.394170028319988 0:0 1:7 2:540.31665 3:0.016676 
0.3744859841781333 0:0 1:5 2:513.64008 3:0.033737 
-0.61167425164154 0:0 1:7 2:472.09235 3:0.012156 
-0.04801462724432712 0:0 1:0 2:742.38281 3:0.01158 
0.06027636480257702 0:0 1:5 2:482.72513 3:0.016049 
0.5604094675923262 0:0 1:0 2:622.1748 3:0.016488 
0.5604705112818933 0:0 1:0 2:398.70984 3:0.017125 
0.7271312040509413 0:0 1:0 2:595.60547 3:0.023468 
0.06049065138095094 0:1 1:5 2:456.8219 3:0.023255 
0.1584866650704538 0:0 1:2 2:635.51575 3:0.01878 
0.2268849005195217 0:0 1:2 2:731.3606 3:0.012129 
-0.2156252329746673 0:1 1:3 2:434.06674 3:0.021694 
-0.2151932026976736 0:0 1:2 2:662.53265 3:0.014866 
-1 0:0 1:0 2:398.70984 3:0.017125 
-0.04824125895963465 0:0 1:12 2:457.76593 3:0.019292 
0.8927734929870041 0:0 1:0 2:510.10651 3:0.017748 
-0.399398851935737 0:0 1:0 2:633.92914 3:0.012251 
-1 0:0 1:10 2:235.69646 3:0.013789 
-0.04862460217760213 0:0 1:8 2:519.73486 3:0.017725 
-0.715252744325005 0:0 1:11 2:314.22421 3:0.015145 
0.8937510965618144 0:0 1:2 2:754.89471 3:0.017739 
0.8937424676133804 0:0 1:10 2:660.87097 3:0.021499 
-0.05086595761702725 0:0 1:5 2:530.69006 3:0.009627 
