svm_type nu_svr
kernel_type rbf
gamma 0.333333
nr_class 2
total_sv 53
rho -0.076672
SV
-0.5540251114909416 0:0 1:0 2:564.58441 3:150 
-0.05401483222378525 0:1 1:1 2:470.82245 3:190 
0.4007363768909089 0:0 1:1 2:725.46198 3:225 
-0.5538141299708479 0:0 1:1 2:714.8045 3:67 
0.7335103349533236 0:0 1:1 2:669.13043 3:138 
-1 0:0 1:1 2:787.40277 3:129 
1 0:0 1:1 2:633.92914 3:140 
-1 0:0 1:0 2:447.74573 3:70 
0.4007363768909089 0:0 1:1 2:599.19843 3:170 
0.9003303993921699 0:0 1:1 2:1005.8044 3:200 
0.7338812708241242 0:0 1:1 2:512.27393 3:190 
-1 0:0 1:1 2:232.14264 3:100 
0.5677186737740131 0:0 1:1 2:866.62476 3:225 
0.0675636993519583 0:0 1:1 2:593.62805 3:160 
-0.3872726197245925 0:0 1:1 2:558.74066 3:52 
0.06744853285328933 0:0 1:1 2:452.17032 3:175 
0.4008081210745625 0:0 1:0 2:497.3168 3:230 
-0.5540251114909416 0:0 1:1 2:305.73157 3:135 
-0.887332216064866 0:1 1:1 2:394.25983 3:190 
-1 0:0 1:1 2:644.00458 3:59 
0.2343846743636389 0:0 1:1 2:514.25031 3:170 
-0.3873535350640338 0:0 1:1 2:568.73761 3:165 
-0.2206921114909416 0:0 1:0 2:417.44363 3:120 
-0.5540205350640338 0:0 1:0 2:451.15335 3:115 
0.5669165190266289 0:0 1:1 2:525.13648 3:240 
-0.7206297636182876 0:0 1:0 2:406.57483 3:145 
0.5668443057407869 0:0 1:1 2:525.77222 3:275 
-0.05768746602447977 0:0 1:1 2:516.24097 3:190 
0.2337635062631556 0:0 1:1 2:489.45871 3:165 
0.4004305062631556 0:0 1:1 2:530.43671 3:174 
0.4010026109994765 0:0 1:1 2:540.31665 3:101 
0.4008966993519583 0:0 1:1 2:513.64008 3:148 
-0.5540251114909416 0:0 1:1 2:472.09235 3:155 
-0.05401483222378525 0:0 1:1 2:742.38281 3:90 
0.06766961099947652 0:0 1:1 2:482.72513 3:100 
0.5669165190266289 0:0 1:1 2:622.1748 3:205 
0.5677485432535444 0:0 1:0 2:398.70984 3:185 
0.7344143940387012 0:0 1:1 2:595.60547 3:255 
0.06705749459505264 0:1 1:1 2:456.8219 3:150 
0.2341411210745626 0:0 1:0 2:635.51575 3:160 
0.2337234945950526 0:0 1:1 2:731.3606 3:145 
-0.2205852494049302 0:1 1:1 2:434.06674 3:110 
-0.2206067162488223 0:0 1:1 2:662.53265 3:140 
-1 0:0 1:0 2:398.70984 3:185 
-0.05391824940493014 0:0 1:0 2:457.76593 3:220 
0.9007815328532893 0:0 1:1 2:510.10651 3:160 
-0.3873431771604918 0:0 1:1 2:633.92914 3:140 
-1 0:0 1:0 2:235.69646 3:45 
-0.05401017965065628 0:0 1:1 2:519.73486 3:175 
-0.7206662885694037 0:0 1:1 2:314.22421 3:45 
0.9002442821574621 0:0 1:1 2:754.89471 3:250 
0.9003303993921699 0:0 1:1 2:660.87097 3:290 
-0.0539627636182876 0:0 1:1 2:530.69006 3:105 
