svm_type nu_svr
kernel_type rbf
gamma 0.333333
nr_class 2
total_sv 53
rho -0.108598
SV
-0.1083474596826413 0:0 1:1 2:1328.2211 3:1015 
1 0:0 1:1 2:1017.2359 3:1034 
0.2245816020132773 0:0 1:1 2:1216.2747 3:745 
0.5578790469727741 0:0 1:0 2:1001.5763 3:956 
0.3908415999680828 0:0 1:1 2:284.74152 3:1304 
-0.4415838159723646 0:0 1:1 2:1040.3964 3:777 
0.7245352526445519 0:0 1:1 2:256.99347 3:1114 
-0.1078700479767545 0:0 1:0 2:353.39954 3:798 
0.2243673964347803 0:0 1:1 2:724.33752 3:960 
0.7244233681157398 0:0 1:1 2:276.96069 3:841 
0.7241640228528071 0:0 1:1 2:358.11847 3:856 
-0.6082453757790778 0:0 1:1 2:676.60901 3:905 
0.5574504594444687 0:0 1:1 2:338.77457 3:1102 
0.557509373033986 0:0 1:1 2:283.00702 3:1033 
-0.4415902523295498 0:0 1:1 2:1017.2359 3:1034 
0.3908006526369195 0:0 1:1 2:280.64706 3:1229 
0.05789676222635592 0:0 1:1 2:561.47235 3:677 
0.8908125457757761 0:0 1:1 2:753.75763 3:1154 
-1 0:0 1:1 2:3468.8306 3:272 
0.05742066579112537 0:0 1:1 2:276.49921 3:1284 
0.3907936053029856 0:0 1:1 2:260.56043 3:1006 
0.3907945336946091 0:0 1:1 2:391.67111 3:1234 
-0.1077841634744955 0:0 1:1 2:521.31824 3:1140 
-0.6082569751569146 0:0 1:1 2:345.1481 3:1049 
-0.608208255521512 0:0 1:1 2:5365.5361 3:814 
-0.7750144596826413 0:0 1:1 2:252.03314 3:1260 
-1 0:0 1:0 2:1001.5763 3:956 
0.390797703376782 0:0 1:1 2:478.60736 3:1187 
0.05745785092334616 0:0 1:1 2:626.1297 3:1091 
0.8911654877036888 0:0 1:1 2:897.86102 3:762 
0.5574957771609318 0:0 1:1 2:390.26743 3:933 
-0.2749124995818915 0:0 1:0 2:1598.9414 3:742 
-1 0:0 1:1 2:1057.3951 3:616 
-0.2749372184407238 0:0 1:0 2:238.24316 3:901 
-0.6082169969389615 0:0 1:0 2:3760.4128 3:657 
-1 0:0 1:0 2:256.2449 3:1170 
-0.6082758971097151 0:0 1:0 2:535.77716 3:906 
0.3908306577330083 0:0 1:0 2:373.483 3:1153 
-0.2744796443559124 0:0 1:1 2:1151.014 3:964 
0.2245249634412562 0:0 1:0 2:590.18298 3:1260 
0.8909960009428417 0:0 1:1 2:398.63901 3:1053 
0.557478729830823 0:0 1:1 2:228.86702 3:1307 
0.2245816020132773 0:0 1:1 2:1196.2836 3:868 
-1 0:0 1:1 2:4583.7803 3:1070 
-1 0:0 1:1 2:568.21381 3:1322 
0.3908749827692433 0:0 1:1 2:881.04571 3:982 
0.3908041637064357 0:0 1:1 2:3948.0073 3:920 
-0.4416209902451064 0:0 1:1 2:442.5748 3:1320 
0.05751358319043676 0:0 1:1 2:248.66318 3:1082 
-0.1079539763199373 0:1 1:1 2:800.05133 3:1003 
-0.2744855871945953 0:1 1:1 2:3012.1274 3:830 
-0.2744780939715318 0:1 1:1 2:870.72296 3:1098 
0.05746932003401516 0:1 1:1 2:596.24262 3:1186 
