svm_type nu_svr
kernel_type rbf
gamma 0.333333
nr_class 2
total_sv 53
rho -0.108601
SV
-0.1082674440851292 0:0 1:1784.5159 2:0.000534 3:190 
1 0:0 1:1899.0386 2:0.000403 3:140 
0.2245003892598385 0:0 1:1928.4839 2:0.000689 3:170 
0.5575890584104042 0:0 1:1464.4348 2:0.000513 3:185 
0.3910908472642325 0:0 1:1455.2574 2:0.000424 3:101 
-0.4416214480418279 0:0 1:2185.0735 2:0.000298 3:52 
0.7244570517981 0:0 1:1418.5193 2:0.00064 3:265 
-0.1083058449661108 0:0 1:1387.7516 2:0.000562 3:220 
0.2244180566264398 0:0 1:1663.5341 2:0.00042 3:73 
0.7242167347142793 0:0 1:1489.085 2:0.000672 3:255 
0.7242739406476595 0:0 1:1459.4364 2:0.000538 3:190 
-0.60832697651287 0:0 1:1825.4937 2:0.000511 3:155 
0.5578081834741113 0:0 1:1481.2729 2:0.00026 3:80 
0.5577409755187192 0:0 1:1362.0447 2:0.000658 3:275 
-0.4416004440851292 0:0 1:1899.0386 2:0.000403 3:140 
0.3908856911334092 0:0 1:1219.8586 2:0.000706 3:125 
0.05784259783651877 0:0 1:1472.0798 2:0.000716 3:175 
0.890862629665693 0:0 1:1658.2784 2:0.000593 3:160 
-1 0:0 1:6199.2202 2:0.000154 3:59 
0.05787662334107163 0:0 1:1440.207 2:0.000582 3:160 
0.3909556035498917 0:0 1:1309.333 2:0.000857 3:148 
0.3907685321935175 0:0 1:1445.6055 2:0.000672 3:170 
-0.1077654129819162 0:0 1:1545.4904 2:0.000505 3:175 
-0.6077575738547382 0:0 1:1192.4337 2:0.000343 3:135 
-0.6082636989614624 0:0 1:4007.5034 2:0.000411 3:70 
-0.7749642168760279 0:0 1:1273.736 2:0.000383 3:45 
-1 0:0 1:1464.4348 2:0.000513 3:185 
0.3908675254426611 0:0 1:1639.1249 2:0.000429 3:200 
0.05784219513443859 0:0 1:1672.0845 2:0.000451 3:170 
0.8907836355118199 0:0 1:1768.0786 2:0.000707 3:290 
0.5574745237035057 0:0 1:1430.9865 2:0.000586 3:220 
-0.2749375346933882 0:0 1:2025.5453 2:0.00039 3:120 
-1 0:0 1:2617.1016 2:0.00024 3:45 
-0.2749659522835251 0:0 1:1348.2349 2:0.000452 3:150 
-0.6081668633700019 0:0 1:3196.9268 2:0.000518 3:115 
-1 0:0 1:1194.8899 2:0.000326 3:45 
-0.6083311569793153 0:0 1:1591.6799 2:0.000589 3:150 
0.3908521164062022 0:0 1:1368.2917 2:0.000531 3:230 
-0.2749790057710424 0:0 1:2055.8557 2:0.000613 3:140 
0.2243514556810556 0:0 1:1633.4545 2:0.000602 3:160 
0.8910417092714846 0:0 1:1692.3934 2:0.000505 3:250 
0.5576582659653335 0:0 1:1345.3405 2:0.000853 3:280 
0.2245327683599893 0:0 1:1887.9951 2:0.000581 3:165 
-1 0:0 1:3143.0408 2:0.000933 3:100 
-1 0:0 1:1609.4563 2:0.001009 3:129 
0.3910582794050771 0:0 1:1932.5494 2:0.000334 3:174 
0.3911817916572158 0:0 1:2951.2705 2:0.000819 3:126 
-0.4416356444133147 0:0 1:1469.601 2:0.000853 3:165 
0.05752194219432254 0:0 1:1324.3845 2:0.001194 3:128 
-0.108368195300617 0:1 1:1558.2727 2:0.000697 3:190 
-0.274975116060246 0:1 1:2358.7581 2:0.000637 3:120 
-0.2749803583156278 0:1 1:1624.9089 2:0.000818 3:110 
0.05775976338529824 0:1 1:1510.9131 2:0.000876 3:150 
