svm_type nu_svr
kernel_type rbf
gamma 0.333333
nr_class 2
total_sv 46
rho -0.0820906
SV
0.6959128810812781 0:0 1:122.42004 2:0.000534 3:0.01777 
1 0:0 1:211.1675 2:0.000403 3:0.012251 
0.04969632685917336 0:0 1:184.08177 2:0.000689 3:0.016227 
0.4940998679564649 0:0 1:194.78667 2:0.000513 3:0.017125 
-0.344025427081073 0:0 1:187.60159 2:0.000424 3:0.016676 
-0.4310967624961977 0:0 1:174.87781 2:0.000298 3:0.007606 
0.5934420672322268 0:0 1:179.7747 2:0.00064 3:0.024521 
-0.1595657560763112 0:0 1:245.15866 2:0.000562 3:0.019292 
0.5934372511447604 0:0 1:258.78903 2:0.000672 3:0.023468 
0.651121803698572 0:0 1:243.40955 2:0.000538 3:0.018424 
-0.4219677538518607 0:0 1:108.40743 2:0.000511 3:0.012156 
0.5866124968095503 0:0 1:154.93671 2:0.00026 3:0.011828 
0.3859344474108712 0:0 1:134.63148 2:0.000658 3:0.025003 
0.246439319562837 0:0 1:125.32471 2:0.000706 3:0.024241 
1 0:0 1:187.0966 2:0.000593 3:0.017748 
-0.9825256156932211 0:0 1:152.31142 2:0.000154 3:0.002271 
-0.1011210032743636 0:0 1:156.18234 2:0.000582 3:0.02349 
1 0:0 1:137.77418 2:0.000857 3:0.033737 
0.5333881699844198 0:0 1:169.74104 2:0.000672 3:0.025695 
-0.06328171039927397 0:0 1:110.60689 2:0.000505 3:0.017725 
-1 0:0 1:117.79584 2:0.000343 3:0.019303 
-0.4203558887760415 0:0 1:93.960075 2:0.000411 3:0.009613 
-0.5914954420839954 0:0 1:62.218277 2:0.000383 3:0.015145 
-1 0:0 1:194.78667 2:0.000513 3:0.017125 
0.2605619298071043 0:0 1:272.56207 2:0.000429 3:0.015838 
0.7358945478954199 0:0 1:212.32161 2:0.000707 3:0.021499 
0.4271987791532544 0:0 1:219.63496 2:0.000586 3:0.024319 
-1 0:0 1:168.61116 2:0.00039 3:0.011465 
-1 0:0 1:122.04619 2:0.00024 3:0.004951 
-0.09144860535740848 0:0 1:251.46826 2:0.000452 3:0.026871 
-0.4247019206007877 0:0 1:100.71413 2:0.000518 3:0.010741 
-0.9092341849378114 0:0 1:40.574505 2:0.000326 3:0.013789 
-0.3185816034433845 0:0 1:196.95021 2:0.000589 3:0.01951 
0.2603354115650838 0:0 1:290.93979 2:0.000531 3:0.021692 
-1 0:0 1:137.8206 2:0.000613 3:0.014866 
0.3214583895202668 0:0 1:173.51231 2:0.000602 3:0.01878 
0.7405647534880552 0:0 1:131.64836 2:0.000505 3:0.017739 
0.4133446300192213 0:0 1:164.6559 2:0.000853 3:0.03949 
0.9889898735870434 0:0 1:118.39919 2:0.000581 3:0.015249 
-0.9092366764755599 0:0 1:44.069962 2:0.000933 3:0.023328 
-0.9242157428199589 0:0 1:572.40143 2:0.001009 3:0.038783 
0.3221659104316172 0:0 1:111.65286 2:0.000334 3:0.009767 
0.9494011427927802 0:0 1:168.07809 2:0.000819 3:0.022925 
-1 0:0 1:211.117 2:0.000853 3:0.031653 
-0.06155148679099836 0:1 1:91.326851 2:0.000637 3:0.017196 
-0.09559441984175247 0:1 1:114.43704 2:0.000818 3:0.021694 
