svm_type nu_svr
kernel_type rbf
gamma 0.333333
nr_class 2
total_sv 53
rho -0.108327
SV
-0.1081422822210479 0:0 1:1784.5159 2:516.24097 3:0.01777 
1 0:0 1:1899.0386 2:633.92914 3:0.012251 
0.2247568138943449 0:0 1:1928.4839 2:514.25031 3:0.016227 
0.5579624420956688 0:0 1:1464.4348 2:398.70984 3:0.017125 
0.3908823024527178 0:0 1:1455.2574 2:540.31665 3:0.016676 
-0.4410371641558004 0:0 1:2185.0735 2:558.74066 3:0.007606 
0.725031481751389 0:0 1:1418.5193 2:615.01532 3:0.024521 
-0.1077375969440411 0:0 1:1387.7516 2:457.76593 3:0.019292 
0.2246415505798823 0:0 1:1663.5341 2:508.71634 3:0.01536 
0.7242196152716367 0:0 1:1489.085 2:595.60547 3:0.023468 
0.7246778054978884 0:0 1:1459.4364 2:512.27393 3:0.018424 
-0.6076441493838003 0:0 1:1825.4937 2:472.09235 3:0.012156 
0.5577901994257148 0:0 1:1481.2729 2:485.67459 3:0.011828 
0.5577430484961441 0:0 1:1362.0447 2:525.77222 3:0.025003 
-0.441434658452604 0:0 1:1899.0386 2:633.92914 3:0.012251 
0.3911917746334551 0:0 1:1219.8586 2:348.40878 3:0.024241 
0.05778974782150507 0:0 1:1472.0798 2:452.17032 3:0.021674 
0.891419436325368 0:0 1:1658.2784 2:510.10651 3:0.017748 
-1 0:0 1:6199.2202 2:644.00458 3:0.002271 
0.05806423768642131 0:0 1:1440.207 2:593.62805 3:0.02349 
0.3913320686383006 0:0 1:1309.333 2:513.64008 3:0.033737 
0.3913861796936396 0:0 1:1445.6055 2:599.19843 3:0.025695 
-0.1079064043904401 0:0 1:1545.4904 2:519.73486 3:0.017725 
-0.607663140439896 0:0 1:1192.4337 2:305.73157 3:0.019303 
-0.6079787910290695 0:0 1:4007.5034 2:469.89963 3:0.009613 
-0.7745805719534968 0:0 1:1273.736 2:314.22421 3:0.015145 
-1 0:0 1:1464.4348 2:398.70984 3:0.017125 
0.3911535275031568 0:0 1:1639.1249 2:660.32135 3:0.015838 
0.05787690803877164 0:0 1:1672.0845 2:541.71991 3:0.014183 
0.8914968849917498 0:0 1:1768.0786 2:660.87097 3:0.021499 
0.5583761344602498 0:0 1:1430.9865 2:526.19269 3:0.024319 
-0.2745872598683693 0:0 1:2025.5453 2:417.44363 3:0.011465 
-1 0:0 1:2617.1016 2:455.86713 3:0.004951 
-0.3008901573819835 0:0 1:1348.2349 2:599.3794 3:0.026871 
-0.6077715857722628 0:0 1:3196.9268 2:451.15335 3:0.010741 
-1 0:0 1:1194.8899 2:235.69646 3:0.013789 
-0.6079049257986725 0:0 1:1591.6799 2:564.58441 3:0.01951 
0.3908819407823252 0:0 1:1368.2917 2:497.3168 3:0.021692 
-0.2748058363305077 0:0 1:2055.8557 2:662.53265 3:0.014866 
0.2246894037308572 0:0 1:1633.4545 2:635.51575 3:0.01878 
0.8909009485464952 0:0 1:1692.3934 2:754.89471 3:0.017739 
0.5718660301350502 0:0 1:1345.3405 2:598.44568 3:0.03949 
0.2248993714439184 0:0 1:1887.9951 2:489.45871 3:0.015249 
-1 0:0 1:3143.0408 2:232.14264 3:0.023328 
-1 0:0 1:1609.4563 2:787.40277 3:0.038783 
0.390998768001202 0:0 1:1932.5494 2:530.43671 3:0.009767 
0.3913547976251742 0:0 1:2951.2705 2:705.53766 3:0.022925 
-0.4414752822210479 0:0 1:1469.601 2:568.73761 3:0.031653 
0.05784019953043344 0:0 1:1324.3845 2:520.5058 3:0.043385 
-0.1079435094206532 0:1 1:1558.2727 2:470.82245 3:0.021834 
-0.2746914494782241 0:1 1:2358.7581 2:433.52792 3:0.017196 
-0.2748084083675947 0:1 1:1624.9089 2:434.06674 3:0.021694 
0.05777955455605145 0:1 1:1510.9131 2:456.8219 3:0.023255 
