svm_type nu_svr
kernel_type rbf
gamma 0.333333
nr_class 2
total_sv 48
rho -0.116639
SV
-0.9504684488374654 0:0 1:1 2:0.01777 3:190 
1 0:0 1:1 2:0.012251 3:140 
0.3837010395115678 0:0 1:0 2:0.017125 3:185 
0.9335804995706973 0:0 1:1 2:0.016676 3:101 
-0.2837813513183512 0:0 1:1 2:0.007606 3:52 
0.5502021079092582 0:0 1:1 2:0.024521 3:265 
-0.46317584012721 0:0 1:0 2:0.019292 3:220 
0.07296615680907126 0:0 1:1 2:0.01536 3:73 
0.5502431306116149 0:0 1:1 2:0.023468 3:255 
1 0:0 1:1 2:0.018424 3:190 
-0.4501693257488102 0:0 1:1 2:0.012156 3:155 
0.3836473884052526 0:0 1:1 2:0.011828 3:80 
0.3834432750984635 0:0 1:1 2:0.025003 3:275 
0.3839552170045784 0:0 1:1 2:0.012251 3:140 
0.1927876497832077 0:0 1:1 2:0.024241 3:125 
1 0:0 1:1 2:0.017748 3:160 
-0.9503056938608748 0:0 1:1 2:0.002271 3:59 
-0.7835710917936102 0:0 1:1 2:0.02349 3:160 
0.3021966462554458 0:0 1:1 2:0.033737 3:148 
1 0:0 1:1 2:0.025695 3:170 
-0.2157080275956036 0:0 1:1 2:0.017725 3:175 
-0.4507236141655008 0:0 1:1 2:0.019303 3:135 
-0.4537496838893878 0:0 1:1 2:0.009613 3:70 
0.05570877185099776 0:0 1:1 2:0.015145 3:45 
-1 0:0 1:0 2:0.017125 3:185 
0.2170675812252456 0:0 1:1 2:0.015838 3:200 
-0.7852664636621906 0:0 1:1 2:0.014183 3:170 
0.7170597728897831 0:0 1:1 2:0.021499 3:290 
0.7159390426057967 0:0 1:1 2:0.024319 3:220 
-0.07725008892978481 0:0 1:0 2:0.011465 3:120 
-0.6093667249398818 0:0 1:1 2:0.004951 3:45 
0.0106915551593074 0:0 1:0 2:0.026871 3:150 
-0.4503911022643782 0:0 1:0 2:0.010741 3:115 
-0.5534131352390058 0:0 1:0 2:0.013789 3:45 
-0.5783625335963251 0:0 1:0 2:0.01951 3:150 
0.2172104529373577 0:0 1:0 2:0.021692 3:230 
-1 0:0 1:1 2:0.014866 3:140 
0.7170780556263053 0:0 1:1 2:0.017739 3:250 
0.383902053744922 0:0 1:1 2:0.03949 3:280 
1 0:0 1:1 2:0.015249 3:165 
-1 0:0 1:1 2:0.023328 3:100 
-1 0:0 1:1 2:0.038783 3:129 
0.3703046983933093 0:0 1:1 2:0.009767 3:174 
-1 0:0 1:1 2:0.031653 3:165 
0.5901321240122079 0:0 1:1 2:0.043385 3:128 
-0.07735835209688356 0:1 1:1 2:0.017196 3:120 
-0.1169385219347363 0:1 1:1 2:0.021694 3:110 
0.1181827805956101 0:1 1:1 2:0.023255 3:150 
