svm_type nu_svr
kernel_type rbf
gamma 0.25
nr_class 2
total_sv 15
rho -0.326434
SV
-0.3818634054324184 1:0 2:0 3:1 4:516.24097 
1 1:0 2:0 3:1 4:633.92914 
0.1488995611587958 1:0 2:0 3:1 4:514.25031 
-0.6590834787705506 1:0 2:0 3:0 4:398.70984 
0.1731500215631064 1:0 2:7 3:1 4:540.31665 
-0.6590346588923339 1:0 2:7 3:1 4:558.74066 
0.5063716546562911 1:0 2:3 3:1 4:615.01532 
-0.3262619738242331 1:0 2:12 3:0 4:457.76593 
-0.009464590972749026 1:0 2:7 3:1 4:508.71634 
0.5065537680390941 1:0 2:0 3:1 4:595.60547 
0.5068594245890383 1:0 2:8 3:1 4:512.27393 
-0.8262279648482396 1:0 2:7 3:1 4:472.09235 
0.3396769189653405 1:0 2:0 3:1 4:485.67459 
0.3394436175868262 1:0 2:7 3:1 4:525.77222 
-0.6590188938179679 1:0 2:0 3:1 4:633.92914 
