svm_type nu_svr
kernel_type rbf
gamma 0.25
nr_class 2
total_sv 15
rho -0.320104
SV
-0.3197783224935592 1:0 2:1 3:122.42004 4:0.000534 
1 1:0 2:1 3:211.1675 4:0.000403 
-7.611211279809349e-05 1:0 2:1 3:184.08177 4:0.000689 
-0.6526712474873096 1:0 2:0 3:194.78667 4:0.000513 
0.1795452724843369 1:0 2:1 3:187.60159 4:0.000424 
-0.6543117037840327 1:0 2:1 3:174.87781 4:0.000298 
0.5146468236277214 1:0 2:1 3:179.7747 4:0.00064 
-0.582101603278435 1:0 2:0 3:245.15866 4:0.000562 
0.06234873427537074 1:0 2:1 3:111.76267 4:0.00042 
0.512817762415091 1:0 2:1 3:258.78903 4:0.000672 
0.723721663013956 1:0 2:1 3:243.40955 4:0.000538 
-0.8235840737008224 1:0 2:1 3:108.40743 4:0.000511 
0.3462188249212083 1:0 2:1 3:154.93671 4:0.00026 
0.3463511474000477 1:0 2:1 3:134.63148 4:0.000658 
-0.6531271652807749 1:0 2:1 3:211.1675 4:0.000403 
