svm_type nu_svr
kernel_type rbf
gamma 0.333333
nr_class 2
total_sv 53
rho -0.0740072
SV
-0.5453318615235259 0:0 1:4 2:196.95021 3:150 
-0.04585859337894094 0:1 1:7 2:92.28968 3:190 
0.3976340919766119 0:0 1:5 2:140.46902 3:225 
-0.5458585933789409 0:0 1:12 2:126.06876 3:67 
0.7308143604236738 0:0 1:12 2:228.85782 3:138 
-1 0:0 1:0 2:572.40143 3:129 
1 0:0 1:0 2:211.1675 3:140 
-1 0:0 1:0 2:239.30429 3:70 
0.3980293644187457 0:0 1:5 2:169.74104 3:170 
0.8978399793368447 0:0 1:2 2:446.46307 3:200 
0.7310997745439946 0:0 1:8 2:243.40955 3:190 
-1 0:0 1:4 2:44.069962 3:100 
0.5643010919766119 0:0 1:7 2:211.8461 3:225 
0.06435884161879582 0:0 1:5 2:156.18234 3:160 
-0.3795438230631566 0:0 1:7 2:174.87781 3:52 
0.06404009270764179 0:0 1:2 2:317.07281 3:175 
0.3976918416187958 0:0 1:4 2:290.93979 3:230 
-0.5453318688905789 0:0 1:0 2:117.79584 3:135 
-0.87923076762637 0:1 1:5 2:138.30226 3:190 
-1 0:0 1:2 2:152.31142 3:59 
0.2307836840223404 0:0 1:0 2:184.08177 3:170 
-0.3791915933789409 0:0 1:12 2:211.117 3:165 
-0.2118972409376289 0:0 1:0 2:168.61116 3:120 
-0.5456839707152751 0:0 1:0 2:100.71413 3:115 
0.5641483604236738 0:0 1:3 2:171.88068 3:240 
-0.7120814117444823 0:0 1:7 2:201.55022 3:145 
0.5645609918144017 0:0 1:7 2:134.63148 3:275 
-0.04585859337894094 0:0 1:0 2:122.42004 3:190 
0.2312269918144017 0:0 1:5 2:118.39919 3:165 
0.4745290198325444 0:0 1:9 2:111.65286 3:174 
0.3973730927076418 0:0 1:7 2:187.60159 3:101 
0.3977667745497345 0:0 1:5 2:137.77418 3:148 
-0.54589776762637 0:0 1:7 2:108.40743 3:155 
-0.04621082306315669 0:0 1:0 2:131.70177 3:90 
0.06415159071119597 0:0 1:5 2:165.8728 3:100 
0.5643805045715108 0:0 1:0 2:136.17122 3:205 
0.5644337745438627 0:0 1:0 2:194.78667 3:185 
0.7313623644187457 0:0 1:0 2:258.78903 3:255 
0.06415159071119597 0:1 1:5 2:148.28641 3:150 
0.2310997745438627 0:0 1:2 2:173.51231 3:160 
0.2307836840223406 0:0 1:2 2:184.23686 3:145 
-0.2121235143479472 0:1 1:3 2:114.43704 3:110 
-0.2123509707260006 0:0 1:2 2:137.8206 3:140 
-1 0:0 1:0 2:194.78667 3:185 
-0.0454144173561761 0:0 1:12 2:245.15866 3:220 
0.8978399793368447 0:0 1:0 2:187.0966 3:160 
-0.3795438230631566 0:0 1:0 2:211.1675 3:140 
-1 0:0 1:10 2:40.574505 3:45 
-0.2149752306516645 0:0 1:8 2:110.60689 3:175 
-0.7121235143479472 0:0 1:11 2:62.218277 3:45 
0.8978848787824757 0:0 1:2 2:131.64836 3:250 
0.8977135045715108 0:0 1:10 2:212.32161 3:290 
-0.0454916208007996 0:0 1:5 2:126.8499 3:105 
