svm_type nu_svr
kernel_type rbf
gamma 0.333333
nr_class 2
total_sv 53
rho -0.102659
SV
-0.1028895100862274 0:0 1:0 2:1328.2211 3:0.000534 
1 0:0 1:0 2:1017.2359 3:0.000403 
0.2301925461713087 0:0 1:0 2:1216.2747 3:0.000689 
0.5637079759614365 0:0 1:0 2:1001.5763 3:0.000513 
0.2200964451164921 0:0 1:7 2:284.74152 3:0.000424 
-0.4353331004536526 0:0 1:7 2:1040.3964 3:0.000298 
0.728775876661819 0:0 1:3 2:256.99347 3:0.00064 
-0.1024673268618089 0:0 1:12 2:353.39954 3:0.000562 
0.230137602571703 0:0 1:7 2:724.33752 3:0.00042 
0.7256764617866827 0:0 1:0 2:276.96069 3:0.000672 
0.7302515856683617 0:0 1:8 2:358.11847 3:0.000538 
-0.6021851956664518 0:0 1:7 2:676.60901 3:0.000511 
0.5636726775871619 0:0 1:0 2:338.77457 3:0.00026 
0.4830370621645063 0:0 1:7 2:283.00702 3:0.000658 
-0.435699810541721 0:0 1:0 2:1017.2359 3:0.000403 
0.3890843153129885 0:0 1:0 2:280.64706 3:0.000706 
0.06367521671164741 0:0 1:2 2:561.47235 3:0.000716 
0.8965777386873722 0:0 1:0 2:753.75763 3:0.000593 
-1 0:0 1:2 2:3468.8306 3:0.000154 
0.06359613588538561 0:0 1:5 2:276.49921 3:0.000582 
0.3942370481206404 0:0 1:5 2:260.56043 3:0.000857 
0.3968385086810646 0:0 1:5 2:391.67111 3:0.000672 
-0.1020829282115319 0:0 1:8 2:521.31824 3:0.000505 
-0.6024470942623612 0:0 1:0 2:345.1481 3:0.000343 
-0.6021853512074992 0:0 1:0 2:5365.5361 3:0.000411 
-0.7669071882668431 0:0 1:11 2:252.03314 3:0.000383 
-1 0:0 1:0 2:1001.5763 3:0.000513 
0.3969770624393327 0:0 1:2 2:478.60736 3:0.000429 
0.06320598371178499 0:0 1:2 2:626.1297 3:0.000451 
0.8969212781342008 0:0 1:10 2:897.86102 3:0.000707 
0.5632999734630393 0:0 1:10 2:390.26743 3:0.000586 
-0.2688276049426057 0:0 1:0 2:1598.9414 3:0.00039 
-1 0:0 1:10 2:1057.3951 3:0.00024 
-0.2691322203470297 0:0 1:12 2:238.24316 3:0.000452 
-0.6021845385450804 0:0 1:0 2:3760.4128 3:0.000518 
-1 0:0 1:10 2:256.2449 3:0.000326 
-0.6019869173671337 0:0 1:4 2:535.77716 3:0.000589 
0.396905097538093 0:0 1:4 2:373.483 3:0.000531 
-0.2688510000457117 0:0 1:2 2:1151.014 3:0.000613 
0.2302879721891554 0:0 1:2 2:590.18298 3:0.000602 
0.8968831477887492 0:0 1:2 2:398.63901 3:0.000505 
0.5632312861073334 0:0 1:5 2:228.86702 3:0.000853 
0.2303044157861264 0:0 1:5 2:1196.2836 3:0.000581 
-1 0:0 1:4 2:4583.7803 3:0.000933 
-1 0:0 1:0 2:568.21381 3:0.001009 
0.3969121943635512 0:0 1:9 2:881.04571 3:0.000334 
0.3968595461713088 0:0 1:2 2:3948.0073 3:0.000819 
-0.4353769047621872 0:0 1:12 2:442.5748 3:0.000853 
0.06323121510263578 0:0 1:0 2:248.66318 3:0.001194 
-0.1021983135035399 0:1 1:7 2:800.05133 3:0.000697 
-0.2688255474160073 0:1 1:7 2:3012.1274 3:0.000637 
-0.2686614666802732 0:1 1:3 2:870.72296 3:0.000818 
0.06366564928378401 0:1 1:5 2:596.24262 3:0.000876 
