svm_type nu_svr
kernel_type rbf
gamma 0.25
nr_class 2
total_sv 10
rho -0.297564
SV
-1 1:0 2:0 3:1 4:0.01777 
0.9128629664881421 1:0 2:0 3:1 4:0.012251 
-0.7827003463606692 1:0 2:0 3:0 4:0.017125 
0.1819083902071623 1:0 2:7 3:1 4:0.016676 
-0.9672996536393308 1:0 2:7 3:1 4:0.007606 
0.1210114790272815 1:0 2:3 3:1 4:0.024521 
0.803769593798851 1:0 2:0 3:1 4:0.023468 
0.7304475704785628 1:0 2:8 3:1 4:0.018424 
-1 1:0 2:7 3:1 4:0.012156 
1 1:0 2:7 3:1 4:0.025003 
