svm_type nu_svr
kernel_type rbf
gamma 0.333333
nr_class 2
total_sv 53
rho -0.076672
SV
-0.5540251186152358 0:564.58441 1:0.000589 2:0.01951 3:150 
-0.05381413079070249 0:470.82245 1:0.000697 2:0.021834 3:190 
0.4007363447732359 0:725.46198 1:0.000457 2:0.015085 3:225 
-0.5539627632413175 0:714.8045 1:0.000713 2:0.01502 3:67 
0.7336634159213646 0:669.13043 1:0.000791 2:0.024701 3:138 
-1 0:787.40277 1:0.001009 2:0.038783 3:129 
1 0:633.92914 1:0.000403 2:0.012251 3:140 
-1 0:447.74573 1:0.000277 2:0.005931 3:70 
0.400736344773236 0:599.19843 1:0.000672 2:0.025695 3:170 
0.9003303868921817 0:1005.8044 1:0.000478 2:0.014913 3:200 
0.7338812692527795 0:512.27393 1:0.000538 2:0.018424 3:190 
-1 0:232.14264 1:0.000933 2:0.023328 3:100 
0.5676696094050073 0:866.62476 1:0.000449 2:0.016127 3:225 
0.06756369776256962 0:593.62805 1:0.000582 2:0.02349 3:160 
-0.3873322982676533 0:558.74066 1:0.000298 2:0.007606 3:52 
0.06744853142102269 0:452.17032 1:0.000716 2:0.021674 3:175 
0.4008081233448106 0:497.3168 1:0.000531 2:0.021692 3:230 
-0.5540251186152358 0:305.73157 1:0.000343 2:0.019303 3:135 
-0.8873430443805237 0:394.25983 1:0.000771 2:0.025702 3:190 
-1 0:644.00458 1:0.000154 2:0.002271 3:59 
0.2343846679815502 0:514.25031 1:0.000689 2:0.016227 3:170 
-0.387353538999787 0:568.73761 1:0.000853 2:0.031653 3:165 
-0.2206921186152359 0:417.44363 1:0.00039 2:0.011465 3:120 
-0.554020538999787 0:451.15335 1:0.000518 2:0.010741 3:115 
0.5669165174810282 0:525.13648 1:0.000634 2:0.029261 3:240 
-0.7206297632413177 0:406.57483 1:0.000434 2:0.018771 3:145 
0.5668443057406765 0:525.77222 1:0.000658 2:0.025003 3:275 
-0.05768746648562421 0:516.24097 1:0.000534 2:0.01777 3:190 
0.2337635058115135 0:489.45871 1:0.000581 2:0.015249 3:165 
0.4004305058115135 0:530.43671 1:0.000334 2:0.009767 3:174 
0.4010516673919247 0:540.31665 1:0.000424 2:0.016676 3:101 
0.4008966977625696 0:513.64008 1:0.000857 2:0.033737 3:148 
-0.5540251186152358 0:472.09235 1:0.000511 2:0.012156 3:155 
-0.05401483231345724 0:742.38281 1:0.000415 2:0.01158 3:90 
0.06766960940500735 0:482.72513 1:0.000501 2:0.016049 3:100 
0.5669165174810282 0:622.1748 1:0.000535 2:0.016488 3:205 
0.5677486730215863 0:398.70984 1:0.000513 2:0.017125 3:185 
0.7344143823979061 0:595.60547 1:0.000672 2:0.023468 3:255 
0.06705749252521367 0:456.8219 1:0.000876 2:0.023255 3:150 
0.2341411233448107 0:635.51575 1:0.000602 2:0.01878 3:160 
0.2337234925252137 0:731.3606 1:0.000475 2:0.012129 3:145 
-0.2205852482576917 0:434.06674 1:0.000818 2:0.021694 3:110 
-0.220606715153994 0:662.53265 1:0.000613 2:0.014866 3:140 
-1 0:398.70984 1:0.000513 2:0.017125 3:185 
-0.05391824825769173 0:457.76593 1:0.000562 2:0.019292 3:220 
0.9007815314210227 0:510.10651 1:0.000593 2:0.017748 3:160 
-0.3873322982676533 0:633.92914 1:0.000403 2:0.012251 3:140 
-1 0:235.69646 1:0.000326 2:0.013789 3:45 
-0.0540101880867358 0:519.73486 1:0.000505 2:0.017725 3:175 
-0.7206818323134573 0:314.22421 1:0.000383 2:0.015145 3:45 
0.9002442806105502 0:754.89471 1:0.000505 2:0.017739 3:250 
0.9001773057406766 0:660.87097 1:0.000707 2:0.021499 3:290 
-0.05393961848166297 0:530.69006 1:0.000435 2:0.009627 3:105 
