svm_type nu_svr
kernel_type rbf
gamma 0.333333
nr_class 2
total_sv 53
rho -0.072916
SV
-0.5403928892132962 0:196.95021 1:0.000589 2:0.01951 3:150 
-0.040608968884275 0:92.28968 1:0.000697 2:0.021834 3:190 
0.3945471146733499 0:140.46902 1:0.000457 2:0.015085 3:225 
-0.5406308604351218 0:126.06876 1:0.000713 2:0.01502 3:67 
0.7279119785998398 0:228.85782 1:0.000791 2:0.024701 3:138 
-1 0:572.40143 1:0.001009 2:0.038783 3:129 
1 0:211.1675 1:0.000403 2:0.012251 3:140 
-1 0:239.30429 1:0.000277 2:0.005931 3:70 
0.3945217539074354 0:169.74104 1:0.000672 2:0.025695 3:170 
0.8944729805998711 0:446.46307 1:0.000478 2:0.014913 3:200 
0.7278492531999676 0:243.40955 1:0.000538 2:0.018424 3:190 
-1 0:44.069962 1:0.000933 2:0.023328 3:100 
0.5611091004039959 0:211.8461 1:0.000449 2:0.016127 3:225 
0.06134015202035187 0:156.18234 1:0.000582 2:0.02349 3:160 
-0.3737713174785247 0:174.87781 1:0.000298 2:0.007606 3:52 
0.06118851904495598 0:317.07281 1:0.000716 2:0.021674 3:175 
0.3945724819311154 0:290.93979 1:0.000531 2:0.021692 3:230 
-0.5406808220179713 0:117.79584 1:0.000343 2:0.019303 3:135 
-0.8737713174785247 0:138.30226 1:0.000771 2:0.025702 3:190 
-1 0:152.31142 1:0.000154 2:0.002271 3:59 
0.2278801146733497 0:184.08177 1:0.000689 2:0.016227 3:170 
-0.3739419688842749 0:211.117 1:0.000853 2:0.031653 3:165 
-0.2067896622290121 0:168.61116 1:0.00039 2:0.011465 3:120 
-0.5401226622290121 0:100.71413 1:0.000518 2:0.010741 3:115 
0.5611787501247495 0:171.88068 1:0.000634 2:0.029261 3:240 
-0.7073477099186565 0:201.55022 1:0.000434 2:0.018771 3:145 
0.5611832531999676 0:134.63148 1:0.000658 2:0.025003 3:275 
-0.04060896888427497 0:122.42004 1:0.000534 2:0.01777 3:190 
0.2279054819311154 0:118.39919 1:0.000581 2:0.015249 3:165 
0.5508734311415927 0:111.65286 1:0.000334 2:0.009767 3:174 
0.394521519044956 0:187.60159 1:0.000424 2:0.016676 3:101 
0.3953405248738638 0:137.77418 1:0.000857 2:0.033737 3:148 
-0.5403848631376112 0:108.40743 1:0.000511 2:0.012156 3:155 
-0.0401444653391226 0:131.70177 1:0.000415 2:0.01158 3:90 
0.06125487543497397 0:165.8728 1:0.000501 2:0.016049 3:100 
0.5613401520203519 0:136.17122 1:0.000535 2:0.016488 3:205 
0.5612459785998398 0:194.78667 1:0.000513 2:0.017125 3:185 
0.7280061520203519 0:258.78903 1:0.000672 2:0.023468 3:255 
0.06180433804873617 0:148.28641 1:0.000876 2:0.023255 3:150 
0.2280061520203518 0:173.51231 1:0.000602 2:0.01878 3:160 
0.2278447501247495 0:184.23686 1:0.000475 2:0.012129 3:145 
-0.2070600362008133 0:114.43704 1:0.000818 2:0.021694 3:110 
-0.2074613889406587 0:137.8206 1:0.000613 2:0.014866 3:140 
-1 0:194.78667 1:0.000513 2:0.017125 3:185 
-0.04063086043512175 0:245.15866 1:0.000562 2:0.019292 3:220 
0.8944421004039959 0:187.0966 1:0.000593 2:0.017748 3:160 
-0.3734774653391226 0:211.1675 1:0.000403 2:0.012251 3:140 
-1 0:40.574505 1:0.000326 2:0.013789 3:45 
-0.3141034153442862 0:110.60689 1:0.000505 2:0.017725 3:175 
-0.707275968884275 0:62.218277 1:0.000383 2:0.015145 3:45 
0.8951373380487362 0:131.64836 1:0.000505 2:0.017739 3:250 
0.8945217539074354 0:212.32161 1:0.000707 2:0.021499 3:290 
-0.04079438872604422 0:126.8499 1:0.000435 2:0.009627 3:105 
