svm_type nu_svr
kernel_type rbf
gamma 0.25
nr_class 2
total_sv 109
rho 0.0282989
SV
0.02865599851670919 1:1015 2:0.000534 3:0.01777 4:190 
0.02818692407564583 1:745 2:0.000689 3:0.016227 4:170 
0.02818690185032402 1:1304 2:0.000424 3:0.016676 4:101 
0.028300166097048 1:777 2:0.000298 3:0.007606 4:52 
0.02830016609704789 1:1114 2:0.00064 3:0.024521 4:265 
0.02778697654871742 1:798 2:0.000562 3:0.019292 4:220 
0.02818690185032402 1:960 2:0.00042 3:0.01536 4:73 
0.02832361047937837 1:841 2:0.000672 3:0.023468 4:255 
0.02826254322730071 1:856 2:0.000538 3:0.018424 4:190 
0.02824862442154519 1:905 2:0.000511 3:0.012156 4:155 
0.02825129216379252 1:1102 2:0.00026 3:0.011828 4:80 
0.02827534873680571 1:1033 2:0.000658 3:0.025003 4:275 
0.028266395963223 1:1034 2:0.000403 3:0.012251 4:140 
0.02868649406694934 1:1229 2:0.000706 3:0.024241 4:125 
0.02868649406694745 1:677 2:0.000716 3:0.021674 4:175 
1 1:1154 2:0.000593 3:0.017748 4:160 
-0.9716998339029521 1:272 2:0.000154 3:0.002271 4:59 
0.02865599851686251 1:1284 2:0.000582 3:0.02349 4:160 
0.02789458662422561 1:1006 2:0.000857 3:0.033737 4:148 
0.02808949580795495 1:1234 2:0.000672 3:0.025695 4:170 
0.02865599851685074 1:1140 2:0.000505 3:0.017725 4:175 
0.02833153425019468 1:1049 2:0.000343 3:0.019303 4:135 
0.02832341042226283 1:814 2:0.000411 3:0.009613 4:70 
0.02843463290674786 1:1260 2:0.000383 3:0.015145 4:45 
0.02820162837124718 1:956 2:0.000513 3:0.017125 4:185 
0.02843463290637116 1:1187 2:0.000429 3:0.015838 4:200 
0.02818690185032329 1:1091 2:0.000451 3:0.014183 4:170 
1 1:762 2:0.000707 3:0.021499 4:290 
0.02827534873680573 1:933 2:0.000586 3:0.024319 4:220 
0.02825129216348273 1:742 2:0.00039 3:0.011465 4:120 
-0.9716998339029521 1:616 2:0.00024 3:0.004951 4:45 
0.02827685449733596 1:901 2:0.000452 3:0.026871 4:150 
0.02826644041359484 1:657 2:0.000518 3:0.010741 4:115 
-0.9721054133757744 1:1170 2:0.000326 3:0.013789 4:45 
0.0282320599305914 1:906 2:0.000589 3:0.01951 4:150 
0.02826641010561343 1:1153 2:0.000531 3:0.021692 4:230 
0.02843463290600583 1:964 2:0.000613 3:0.014866 4:140 
0.02826639596322303 1:1260 2:0.000602 3:0.01878 4:160 
1 1:1053 2:0.000505 3:0.017739 4:250 
0.02826254322625996 1:1307 2:0.000853 3:0.03949 4:280 
0.02818690185032405 1:868 2:0.000581 3:0.015249 4:165 
-0.9717983716287528 1:1070 2:0.000933 3:0.023328 4:100 
-0.9722133383475927 1:1322 2:0.001009 3:0.038783 4:129 
0.0281869240756458 1:982 2:0.000334 3:0.009767 4:174 
0.02833153429187073 1:920 2:0.000819 3:0.022925 4:126 
0.02833153429186937 1:1320 2:0.000853 3:0.031653 4:165 
0.02826641008908717 1:1082 2:0.001194 3:0.043385 4:128 
0.02832361047937833 1:1003 2:0.000697 3:0.021834 4:190 
0.0282913242593803 1:830 2:0.000637 3:0.017196 4:120 
0.02833004515004032 1:1098 2:0.000818 3:0.021694 4:110 
0.02868649406690738 1:1186 2:0.000876 3:0.023255 4:150 
0.02832816737404135 1:733 2:0.000771 3:0.025702 4:190 
0.02827594256900321 1:932 2:0.00073 3:0.019139 4:80 
0.02832022451990034 1:799 2:0.000549 3:0.014563 4:100 
0.02832773360357556 1:1215 2:0.00056 3:0.022936 4:240 
0.02868649406690926 1:1183 2:0.000775 3:0.01907 4:140 
0.02832397896306914 1:773 2:0.000551 3:0.013489 4:75 
0.02832351414216521 1:1069 2:0.000774 3:0.020216 4:115 
0.02832397896306914 1:833 2:0.000658 3:0.02633 4:170 
0.02843463290044297 1:997 2:0.000589 3:0.018689 4:120 
0.02825129215752652 1:989 2:0.000664 3:0.022125 4:125 
0.02832816737404135 1:1128 2:0.000865 3:0.029818 4:180 
0.02832022451990034 1:1219 2:0.001064 3:0.029027 4:160 
0.02832361047937833 1:924 2:0.000683 3:0.022152 4:165 
0.02832022451990033 1:1221 2:0.000748 3:0.022825 4:180 
0.02827534873680497 1:1086 2:0.000758 3:0.029616 4:160 
0.02832022451990034 1:582 2:0.001417 3:0.03027 4:185 
0.02826254321093102 1:1073 2:0.000766 3:0.019101 4:130 
0.02826644041345506 1:1017 2:0.000767 3:0.022342 4:200 
0.02832397876675046 1:854 2:0.000626 3:0.012635 4:90 
0.02832022451990033 1:1099 2:0.000724 3:0.02256 4:180 
0.02865599851646901 1:998 2:0.000723 3:0.020635 4:130 
0.02832021746107909 1:909 2:0.001007 3:0.029963 4:100 
0.0282935310427376 1:937 2:0.001106 3:0.032625 4:80 
0.02832012259396014 1:809 2:0.000473 3:0.011023 4:75 
0.0282664101057746 1:1177 2:0.000575 3:0.023571 4:170 
0.0282913242593803 1:1229 2:0.000696 3:0.019401 4:90 
0.02832361047937833 1:1164 2:0.00131 3:0.039756 4:180 
0.02832864061757638 1:1039 2:0.000441 3:0.01902 4:180 
0.02832022451990034 1:1151 2:0.000727 3:0.014989 4:95 
0.02818692403084397 1:1058 2:0.000435 3:0.015786 4:135 
0.02832816737590049 1:1196 2:0.000494 3:0.036205 4:210 
0.02832021746107909 1:1183 2:0.00046 3:0.01757 4:80 
0.02832773360357556 1:1137 2:0.000599 3:0.022006 4:140 
0.02834648167605255 1:906 2:0.000571 3:0.014357 4:120 
0.02833238578966535 1:1083 2:0.000662 3:0.016317 4:100 
0.02833153429186937 1:1299 2:0.00047 3:0.023703 4:170 
0.02826644041360132 1:1042 2:0.000464 3:0.017483 4:245 
0.02827534873680573 1:1284 2:0.000686 3:0.025977 4:120 
0.02825129216308782 1:974 2:0.000559 3:0.016222 4:140 
0.02829206877879489 1:1261 2:0.000513 3:0.021718 4:120 
0.02826641010561343 1:912 2:0.000876 3:0.019284 4:200 
0.0283202245198054 1:1008 2:0.000634 3:0.019318 4:170 
0.02832350942618548 1:926 2:0.00043 3:0.017647 4:85 
0.02833004515004032 1:836 2:0.000421 3:0.010755 4:156 
0.02833153429187073 1:1056 2:0.000588 3:0.023067 4:170 
0.02826644041359484 1:1203 2:0.000756 3:0.034394 4:180 
0.02832351414216521 1:949 2:0.000754 3:0.017136 4:150 
0.02832021746107909 1:792 2:0.000546 3:0.013531 4:115 
0.02832021746107909 1:1189 2:0.000748 3:0.032965 4:240 
0.02832816711425945 1:861 2:0.000409 3:0.010502 4:85 
0.02833153429483663 1:791 2:0.000342 3:0.01127 4:160 
-0.9719105041920451 1:1044 2:0.000787 3:0.024424 4:120 
0.02826639596322303 1:985 2:0.000827 3:0.025715 4:145 
0.0283239758295183 1:898 2:0.000584 3:0.017622 4:120 
0.0281869240763224 1:740 2:0.000661 3:0.01313 4:80 
0.0282790406094875 1:1319 2:0.000468 3:0.01913 4:135 
0.02833056619431534 1:1049 2:0.00086 3:0.017524 4:145 
0.02826254322625996 1:1066 2:0.00088 3:0.025899 4:220 
