svm_type nu_svr
kernel_type rbf
gamma 0.25
nr_class 2
total_sv 110
rho 0.0281628
SV
0.0283203125 1:1784.5159 2:1015 3:0.000534 4:0.01777 
0.0283203125 1:1928.4839 2:745 3:0.000689 4:0.016227 
0.0283203125 1:1455.2574 2:1304 3:0.000424 4:0.016676 
0.0283203125 1:2185.0735 2:777 3:0.000298 4:0.007606 
0.0283203125 1:1418.5193 2:1114 3:0.00064 4:0.024521 
0.0283203125 1:1387.7516 2:798 3:0.000562 4:0.019292 
0.0283203125 1:1663.5341 2:960 3:0.00042 4:0.01536 
0.02817996876302264 1:1489.085 2:841 3:0.000672 4:0.023468 
0.02827392149336883 1:1459.4364 2:856 3:0.000538 4:0.018424 
0.02827589217193671 1:1825.4937 2:905 3:0.000511 4:0.012156 
0.02829521896685327 1:1481.2729 2:1102 3:0.00026 4:0.011828 
0.0283203125 1:1362.0447 2:1033 3:0.000658 4:0.025003 
0.0283203125 1:1899.0386 2:1034 3:0.000403 4:0.012251 
0.0283203125 1:1219.8586 2:1229 3:0.000706 4:0.024241 
0.0283203125 1:1472.0798 2:677 3:0.000716 4:0.021674 
1 1:1658.2784 2:1154 3:0.000593 4:0.017748 
-0.9714122324025869 1:6199.2202 2:272 3:0.000154 4:0.002271 
0.02785241603851318 1:1440.207 2:1284 3:0.000582 4:0.02349 
0.02791736158118796 1:1309.333 2:1006 3:0.000857 4:0.033737 
0.02817996870726347 1:1445.6055 2:1234 3:0.000672 4:0.025695 
0.02827392145991325 1:1545.4904 2:1140 3:0.000505 4:0.017725 
0.02827589213848114 1:1192.4337 2:1049 3:0.000343 4:0.019303 
0.02829521894454956 1:4007.5034 2:814 3:0.000411 4:0.009613 
0.02806147071532905 1:1273.736 2:1260 3:0.000383 4:0.015145 
0.02817996870726347 1:1464.4348 2:956 3:0.000513 4:0.017125 
0.02777862548828125 1:1639.1249 2:1187 3:0.000429 4:0.015838 
0.02734375 1:1672.0845 2:1091 3:0.000451 4:0.014183 
1 1:1768.0786 2:762 3:0.000707 4:0.021499 
0.02734375 1:1430.9865 2:933 3:0.000586 4:0.024319 
0.02734375 1:2025.5453 2:742 3:0.00039 4:0.011465 
-0.9714008655838229 1:2617.1016 2:616 3:0.00024 4:0.004951 
0.02734375 1:1348.2349 2:901 3:0.000452 4:0.026871 
0.02734375 1:3196.9268 2:657 3:0.000518 4:0.010741 
-0.9713632810230381 1:1194.8899 2:1170 3:0.000326 4:0.013789 
0.02734375 1:1591.6799 2:906 3:0.000589 4:0.01951 
0.02815818786621094 1:1368.2917 2:1153 3:0.000531 4:0.021692 
0.02816295623779297 1:2055.8557 2:964 3:0.000613 4:0.014866 
0.02791476249694824 1:1633.4545 2:1260 3:0.000602 4:0.01878 
1 1:1692.3934 2:1053 3:0.000505 4:0.017739 
0.02789849042892456 1:1345.3405 2:1307 3:0.000853 4:0.03949 
0.02813474833965302 1:1887.9951 2:868 3:0.000581 4:0.015249 
-0.9712902499595657 1:3143.0408 2:1070 3:0.000933 4:0.023328 
-0.9712208085693419 1:1609.4563 2:1322 3:0.001009 4:0.038783 
0.02734375 1:1932.5494 2:982 3:0.000334 4:0.009767 
0.02734375 1:2951.2705 2:920 3:0.000819 4:0.022925 
0.02734375 1:1469.601 2:1320 3:0.000853 4:0.031653 
0.02734375 1:1324.3845 2:1082 3:0.001194 4:0.043385 
0.02734375 1:1558.2727 2:1003 3:0.000697 4:0.021834 
0.02734375 1:2358.7581 2:830 3:0.000637 4:0.017196 
0.02734375 1:1624.9089 2:1098 3:0.000818 4:0.021694 
0.02734375 1:1510.9131 2:1186 3:0.000876 4:0.023255 
0.02734375 1:1378.2238 2:733 3:0.000771 4:0.025702 
0.02734375 1:1710.5525 2:932 3:0.00073 4:0.019139 
0.02734375 1:1671.8125 2:799 3:0.000549 4:0.014563 
0.02734375 1:1168.4712 2:1215 3:0.00056 4:0.022936 
0.02785241603851318 1:1532.8699 2:1183 3:0.000775 4:0.01907 
0.02785241603851318 1:2309.8469 2:773 3:0.000551 4:0.013489 
0.02791736158118802 1:1750.1954 2:1069 3:0.000774 4:0.020216 
0.02796575879870655 1:1296.8911 2:833 3:0.000658 4:0.02633 
0.02797144220808861 1:1348.8986 2:997 3:0.000589 4:0.018689 
0.02799023448848093 1:1444.5995 2:989 3:0.000664 4:0.022125 
0.02802675002021715 1:1433.3026 2:1128 3:0.000865 4:0.029818 
0.02803962491452694 1:1404.7344 2:1219 3:0.001064 4:0.029027 
0.02804108592681587 1:1848.2263 2:924 3:0.000683 4:0.022152 
0.02804108592681587 1:2108.9033 2:1221 3:0.000748 4:0.022825 
0.02806147071532905 1:1397.0787 2:1086 3:0.000758 4:0.029616 
0.02815818786621094 1:5855.2632 2:582 3:0.001417 4:0.03027 
0.02817996870726347 1:1794.0947 2:1073 3:0.000766 4:0.019101 
0.02817996870726347 1:1609.3247 2:1017 3:0.000767 4:0.022342 
0.0281799687630227 1:2492.2273 2:854 3:0.000626 4:0.012635 
0.02827392145991325 1:1534.9164 2:1034 3:0.000814 4:0.020593 
0.02827392145991325 1:1431.9677 2:1099 3:0.000724 4:0.02256 
0.02827392149336883 1:1467.7281 2:998 3:0.000723 4:0.020635 
0.02734375013382223 1:1991.5887 2:909 3:0.001007 4:0.029963 
0.02734375008921482 1:2252.6785 2:937 3:0.001106 4:0.032625 
0.02827589213848114 1:2573.2761 2:809 3:0.000473 4:0.011023 
0.02742528915405273 1:1354.5868 2:1177 3:0.000575 4:0.023571 
0.02827589213848114 1:2056.8992 2:1229 3:0.000696 4:0.019401 
0.02827589217193671 1:1278.163 2:1164 3:0.00131 4:0.039756 
0.02829521894454956 1:1209.1361 2:1039 3:0.000441 4:0.01902 
0.02829521894454956 1:1837.3319 2:1151 3:0.000727 4:0.014989 
0.0273437495985333 1:1375.2025 2:1058 3:0.000435 4:0.015786 
0.02829521896685327 1:1076.4918 2:1196 3:0.000494 4:0.036205 
0.0283203125 1:1250.2844 2:1183 3:0.00046 4:0.01757 
0.0283203125 1:1496.0945 2:1137 3:0.000599 4:0.022006 
0.0283203125 1:2084.5735 2:906 3:0.000571 4:0.014357 
0.0283203125 1:1919.8759 2:1083 3:0.000662 4:0.016317 
0.0283203125 1:1166.3569 2:1299 3:0.00047 4:0.023703 
0.0283203125 1:1304.9731 2:1042 3:0.000464 4:0.017483 
0.0283203125 1:1316.2446 2:1284 3:0.000686 4:0.025977 
0.0283203125 1:1520.1614 2:974 3:0.000559 4:0.016222 
0.0283203125 1:1289.1174 2:1261 3:0.000513 4:0.021718 
0.0283203125 1:5618.0537 2:912 3:0.000876 4:0.019284 
0.0283203125 1:1494.4624 2:1008 3:0.000634 4:0.019318 
0.0283203125 1:1183.6102 2:926 3:0.00043 4:0.017647 
0.0283203125 1:1990.678 2:836 3:0.000421 4:0.010755 
0.0273437495985333 1:1383.3499 2:1056 3:0.000588 4:0.023067 
0.0283203125 1:1284.7441 2:1203 3:0.000756 4:0.034394 
0.02785241603851318 1:1848.5742 2:949 3:0.000754 4:0.017136 
0.02804108592681587 1:2132.7498 2:792 3:0.000546 4:0.013531 
0.02817996870726347 1:1456.9016 2:1189 3:0.000748 4:0.032965 
0.02827392145991325 1:2338.5618 2:861 3:0.000409 4:0.010502 
0.02827589213848114 1:2298.9255 2:791 3:0.000342 4:0.01127 
-0.971509026837624 1:1321.229 2:1044 3:0.000787 4:0.024424 
0.02829521894454956 1:1617.012 2:985 3:0.000827 4:0.025715 
0.0283203125 1:1766.9111 2:898 3:0.000584 4:0.017622 
0.0283203125 1:1769.5518 2:740 3:0.000661 4:0.01313 
0.0283203125 1:1190.5663 2:1319 3:0.000468 4:0.01913 
0.02817996870726347 1:2009.7479 2:1049 3:0.00086 4:0.017524 
0.02803962491452694 1:1557.2062 2:1066 3:0.00088 4:0.025899 
