svm_type nu_svr
kernel_type rbf
gamma 0.333333
nr_class 2
total_sv 53
rho -0.108598
SV
-0.1083474596826413 0:1328.2211 1:122.42004 2:0.01777 3:190 
1 0:1017.2359 1:211.1675 2:0.012251 3:140 
0.2245816020132773 0:1216.2747 1:184.08177 2:0.016227 3:170 
0.5578790469727741 0:1001.5763 1:194.78667 2:0.017125 3:185 
0.3908415999680828 0:284.74152 1:187.60159 2:0.016676 3:101 
-0.4415838159723646 0:1040.3964 1:174.87781 2:0.007606 3:52 
0.7245352526445519 0:256.99347 1:179.7747 2:0.024521 3:265 
-0.1078700479767545 0:353.39954 1:245.15866 2:0.019292 3:220 
0.2243673964347803 0:724.33752 1:111.76267 2:0.01536 3:73 
0.7244233681157398 0:276.96069 1:258.78903 2:0.023468 3:255 
0.7241640228528071 0:358.11847 1:243.40955 2:0.018424 3:190 
-0.6082453757790778 0:676.60901 1:108.40743 2:0.012156 3:155 
0.5574504594444687 0:338.77457 1:154.93671 2:0.011828 3:80 
0.557509373033986 0:283.00702 1:134.63148 2:0.025003 3:275 
-0.4415902523295498 0:1017.2359 1:211.1675 2:0.012251 3:140 
0.3908006526369195 0:280.64706 1:125.32471 2:0.024241 3:125 
0.05789676222635592 0:561.47235 1:317.07281 2:0.021674 3:175 
0.8908125457757761 0:753.75763 1:187.0966 2:0.017748 3:160 
-1 0:3468.8306 1:152.31142 2:0.002271 3:59 
0.05742066579112537 0:276.49921 1:156.18234 2:0.02349 3:160 
0.3907936053029856 0:260.56043 1:137.77418 2:0.033737 3:148 
0.3907945336946091 0:391.67111 1:169.74104 2:0.025695 3:170 
-0.1077841634744955 0:521.31824 1:110.60689 2:0.017725 3:175 
-0.6082569751569146 0:345.1481 1:117.79584 2:0.019303 3:135 
-0.608208255521512 0:5365.5361 1:93.960075 2:0.009613 3:70 
-0.7750144596826413 0:252.03314 1:62.218277 2:0.015145 3:45 
-1 0:1001.5763 1:194.78667 2:0.017125 3:185 
0.390797703376782 0:478.60736 1:272.56207 2:0.015838 3:200 
0.05745785092334616 0:626.1297 1:233.00282 2:0.014183 3:170 
0.8911654877036888 0:897.86102 1:212.32161 2:0.021499 3:290 
0.5574957771609318 0:390.26743 1:219.63496 2:0.024319 3:220 
-0.2749124995818915 0:1598.9414 1:168.61116 2:0.011465 3:120 
-1 0:1057.3951 1:122.04619 2:0.004951 3:45 
-0.2749372184407238 0:238.24316 1:251.46826 2:0.026871 3:150 
-0.6082169969389615 0:3760.4128 1:100.71413 2:0.010741 3:115 
-1 0:256.2449 1:40.574505 2:0.013789 3:45 
-0.6082758971097151 0:535.77716 1:196.95021 2:0.01951 3:150 
0.3908306577330083 0:373.483 1:290.93979 2:0.021692 3:230 
-0.2744796443559124 0:1151.014 1:137.8206 2:0.014866 3:140 
0.2245249634412562 0:590.18298 1:173.51231 2:0.01878 3:160 
0.8909960009428417 0:398.63901 1:131.64836 2:0.017739 3:250 
0.557478729830823 0:228.86702 1:164.6559 2:0.03949 3:280 
0.2245816020132773 0:1196.2836 1:118.39919 2:0.015249 3:165 
-1 0:4583.7803 1:44.069962 2:0.023328 3:100 
-1 0:568.21381 1:572.40143 2:0.038783 3:129 
0.3908749827692433 0:881.04571 1:111.65286 2:0.009767 3:174 
0.3908041637064357 0:3948.0073 1:168.07809 2:0.022925 3:126 
-0.4416209902451064 0:442.5748 1:211.117 2:0.031653 3:165 
0.05751358319043676 0:248.66318 1:246.04076 2:0.043385 3:128 
-0.1079539763199373 0:800.05133 1:92.28968 2:0.021834 3:190 
-0.2744855871945953 0:3012.1274 1:91.326851 2:0.017196 3:120 
-0.2744780939715318 0:870.72296 1:114.43704 2:0.021694 3:110 
0.05746932003401516 0:596.24262 1:148.28641 2:0.023255 3:150 
