svm_type nu_svr
kernel_type rbf
gamma 0.333333
nr_class 2
total_sv 53
rho -0.0846487
SV
-0.5679631369641563 0:0 1:1591.6799 2:0.000589 3:0.01951 
-0.06775871555428911 0:1 1:1558.2727 2:0.000697 3:0.021834 
0.3988381438415789 0:1 1:1728.682 2:0.000457 3:0.015085 
-0.5682565170290844 0:1 1:2234.8701 2:0.000713 3:0.01502 
0.7316113278111739 0:1 1:1652.1434 2:0.000791 3:0.024701 
-1 0:1 1:1609.4563 2:0.001009 3:0.038783 
1 0:1 1:1899.0386 2:0.000403 3:0.012251 
-1 0:0 1:2853.9756 2:0.000277 3:0.005931 
0.3989249707844609 0:1 1:1445.6055 2:0.000672 3:0.025695 
0.8984144657493071 0:1 1:2036.9913 2:0.000478 3:0.014913 
0.7306428839944122 0:1 1:1459.4364 2:0.000538 3:0.018424 
-1 0:1 1:3143.0408 2:0.000933 3:0.023328 
0.5625305801086246 0:1 1:1772.2177 2:0.000449 3:0.016127 
0.0658082654127686 0:1 1:1440.207 2:0.000582 3:0.02349 
-0.4011179347404535 0:1 1:2185.0735 2:0.000298 3:0.007606 
0.1033461196099003 0:1 1:1472.0798 2:0.000716 3:0.021674 
0.3987306294342058 0:0 1:1368.2917 2:0.000531 3:0.021692 
-0.4723401489618199 0:1 1:1192.4337 2:0.000343 3:0.019303 
-0.9016849054343453 0:1 1:1378.2238 2:0.000771 3:0.025702 
-1 0:1 1:6199.2202 2:0.000154 3:0.002271 
0.2305597921129114 0:1 1:1928.4839 2:0.000689 3:0.016227 
-0.2894897047849186 0:1 1:1469.601 2:0.000853 3:0.031653 
-0.2346301369641564 0:0 1:2025.5453 2:0.00039 3:0.011465 
-0.5679631369641563 0:0 1:3196.9268 2:0.000518 3:0.010741 
0.5650846063978421 0:1 1:1344.2603 2:0.000634 3:0.029261 
-0.6656144074817125 0:0 1:1467.5948 2:0.000434 3:0.018771 
0.5649310373606663 0:1 1:1362.0447 2:0.000658 3:0.025003 
-0.06775871555428911 0:1 1:1784.5159 2:0.000534 3:0.01777 
0.2317506063978421 0:1 1:1887.9951 2:0.000581 3:0.015249 
0.3980810632159759 0:1 1:1932.5494 2:0.000334 3:0.009767 
0.3966231802142857 0:1 1:1455.2574 2:0.000424 3:0.016676 
0.3982848277968326 0:1 1:1309.333 2:0.000857 3:0.033737 
-0.5677748960219443 0:1 1:1825.4937 2:0.000511 3:0.012156 
-0.06775871555428911 0:1 1:2098.7412 2:0.000415 3:0.01158 
0.06540855460892556 0:1 1:1603.5798 2:0.000501 3:0.016049 
0.5654512012931259 0:1 1:1665.1149 2:0.000535 3:0.016488 
0.5886911583895167 0:0 1:1464.4348 2:0.000513 3:0.017125 
0.7316178277968326 0:1 1:1489.085 2:0.000672 3:0.023468 
0.06549510675364044 0:1 1:1510.9131 2:0.000876 3:0.023255 
0.2324984916250336 0:0 1:1633.4545 2:0.000602 3:0.01878 
0.2320978566258154 0:1 1:2297.9304 2:0.000475 3:0.012129 
-0.2344418960264116 0:1 1:1624.9089 2:0.000818 3:0.021694 
-0.235099609897936 0:1 1:2055.8557 2:0.000613 3:0.014866 
-1 0:0 1:1464.4348 2:0.000513 3:0.017125 
-0.06784105421530874 0:0 1:1387.7516 2:0.000562 3:0.019292 
0.898926242377298 0:1 1:1658.2784 2:0.000593 3:0.017748 
-0.4016849054343472 0:1 1:1899.0386 2:0.000403 3:0.012251 
-1 0:0 1:1194.8899 2:0.000326 3:0.013789 
-0.06796313696415633 0:1 1:1545.4904 2:0.000505 3:0.017725 
-0.7350996098979361 0:1 1:1273.736 2:0.000383 3:0.015145 
0.8992319794345039 0:1 1:1692.3934 2:0.000505 3:0.017739 
0.8964190808525198 0:1 1:1768.0786 2:0.000707 3:0.021499 
-0.06775871555428911 0:1 1:2643.8999 2:0.000435 3:0.009627 
