svm_type nu_svr
kernel_type rbf
gamma 0.25
nr_class 2
total_sv 110
rho 0.0280924
SV
0.02804946899401761 1:1 2:1015 3:122.42004 4:190 
0.0283203125 1:1 2:745 3:184.08177 4:170 
0.0283203125 1:1 2:1304 3:187.60159 4:101 
0.02825927734375488 1:1 2:777 3:174.87781 4:52 
0.028076171875 1:1 2:1114 3:179.7747 4:265 
0.028076171875 1:0 2:798 3:245.15866 4:220 
0.02801513671875 1:1 2:960 3:111.76267 4:73 
0.02801513671875 1:1 2:841 3:258.78903 4:255 
0.0279998779296875 1:1 2:856 3:243.40955 4:190 
0.0279998779296875 1:1 2:905 3:108.40743 4:155 
0.02799606323242188 1:1 2:1102 3:154.93671 4:80 
0.02799606323242188 1:1 2:1033 3:134.63148 4:275 
0.02799510955810547 1:1 2:1034 3:211.1675 4:140 
0.02787789213471614 1:1 2:1229 3:125.32471 4:125 
0.02815437316894687 1:1 2:677 3:317.07281 4:175 
1 1:1 2:1154 3:187.0966 4:160 
-0.9715625420212726 1:1 2:272 3:152.31142 4:59 
0.0281581878662116 1:1 2:1284 3:156.18234 4:160 
0.02815628051757924 1:1 2:1006 3:137.77418 4:148 
0.02814102172852095 1:1 2:1234 3:169.74104 4:170 
0.02832031250002043 1:1 2:1140 3:110.60689 4:175 
0.02801513671875488 1:1 2:1049 3:117.79584 4:135 
0.02804565429687644 1:1 2:814 3:93.960075 4:70 
0.02804946899414162 1:1 2:1260 3:62.218277 4:45 
0.02804946899414129 1:0 2:956 3:194.78667 4:185 
0.02777862548828125 1:1 2:1187 3:272.56207 4:200 
0.02790610492229623 1:1 2:1091 3:233.00282 4:170 
1 1:1 2:762 3:212.32161 4:290 
0.02796429395676159 1:1 2:933 3:219.63496 4:220 
0.02799510955810547 1:0 2:742 3:168.61116 4:120 
-0.9715315401554077 1:1 2:616 3:122.04619 4:45 
0.02799606323242188 1:0 2:901 3:251.46826 4:150 
0.0279998779296875 1:0 2:657 3:100.71413 4:115 
-0.9715721998363713 1:0 2:1170 3:40.574505 4:45 
0.02801513671875 1:0 2:906 3:196.95021 4:150 
0.028076171875 1:0 2:1153 3:290.93979 4:230 
0.02799487113953658 1:1 2:964 3:137.8206 4:140 
0.02734375000000486 1:0 2:1260 3:173.51231 4:160 
1 1:1 2:1053 3:131.64836 4:250 
0.02787789213471609 1:1 2:1307 3:164.6559 4:280 
0.02799510955810547 1:1 2:868 3:118.39919 4:165 
-0.9714151620864768 1:1 2:1070 3:44.069962 4:100 
-0.971587965730571 1:1 2:1322 3:572.40143 4:129 
0.02799510955810547 1:1 2:982 3:111.65286 4:174 
0.02799510955810547 1:1 2:920 3:168.07809 4:126 
0.02799510955810547 1:1 2:1320 3:211.117 4:165 
0.02799606323242188 1:1 2:1082 3:246.04076 4:128 
0.02799606323242188 1:1 2:1003 3:92.28968 4:190 
0.02799606323242188 1:1 2:830 3:91.326851 4:120 
0.02799606323242188 1:1 2:1098 3:114.43704 4:110 
0.0279998779296875 1:1 2:1186 3:148.28641 4:150 
0.0279998779296875 1:1 2:733 3:138.30226 4:190 
0.0279998779296875 1:1 2:932 3:134.92932 4:80 
0.0279998779296875 1:1 2:799 3:73.443481 4:100 
0.02801513671875 1:1 2:1215 3:75.059196 4:240 
0.02801513671875 1:1 2:1183 3:72.823708 4:140 
0.02801513671875 1:0 2:773 3:150.36011 4:75 
0.02801513671875 1:1 2:1069 3:91.247353 4:115 
0.02801513671875486 1:1 2:833 3:120.21809 4:170 
0.02801513671875488 1:0 2:997 3:84.585358 4:120 
0.02734374999998543 1:1 2:989 3:101.42107 4:125 
0.02804565429687644 1:1 2:1128 3:105.6449 4:180 
0.02804565429687647 1:0 2:1219 3:64.040039 4:160 
0.02804946899414129 1:0 2:924 3:68.875267 4:165 
0.02804946899414129 1:0 2:1221 3:149.2966 4:180 
0.02804946899414162 1:1 2:1086 3:90.997894 4:160 
0.02804946899414165 1:1 2:582 3:247.03374 4:185 
0.02804946899415009 1:1 2:1073 3:113.12672 4:130 
0.02734374999989743 1:1 2:1017 3:121.96153 4:200 
0.02804946899415011 1:0 2:854 3:95.614876 4:90 
0.028076171875 1:1 2:1034 3:88.994751 4:140 
0.028076171875 1:1 2:1099 3:97.601379 4:180 
0.02734374999998543 1:0 2:998 3:99.353554 4:130 
0.028076171875 1:1 2:909 3:129.24826 4:100 
0.02789060398936372 1:1 2:937 3:78.399452 4:80 
0.028076171875 1:1 2:809 3:121.17292 4:75 
0.028076171875 1:1 2:1177 3:84.184044 4:170 
0.02801513671875 1:1 2:1229 3:82.125359 4:90 
0.0279998779296875 1:1 2:1164 3:109.8411 4:180 
0.02814102172852095 1:0 2:1039 3:66.906998 4:180 
0.02799606323242188 1:0 2:1151 3:111.23468 4:95 
0.02799510955810547 1:1 2:1058 3:92.010223 4:135 
0.02734375000002946 1:1 2:1196 3:65.945 4:210 
0.02734375000000486 1:1 2:1183 3:47.813747 4:80 
0.02788577508181595 1:1 2:1137 3:107.93533 4:140 
0.02815437316894681 1:1 2:906 3:77.674416 4:120 
0.02815628051757929 1:1 2:1083 3:111.05724 4:100 
0.0281581878662116 1:1 2:1299 3:57.090328 4:170 
0.02825927734375488 1:1 2:1042 3:97.889984 4:245 
0.0283203125 1:1 2:1284 3:81.708939 4:120 
0.0283203125 1:1 2:974 3:99.147339 4:140 
0.0283203125 1:1 2:1261 3:38.322647 4:120 
0.0283203125 1:1 2:912 3:100.42133 4:200 
0.0283203125 1:1 2:1008 3:82.794144 4:170 
0.0283203125 1:1 2:926 3:78.912949 4:85 
0.02832031250002037 1:1 2:836 3:94.83757 4:156 
0.02801513671875486 1:1 2:1056 3:67.299492 4:170 
0.02804565429687647 1:1 2:1203 3:92.750999 4:180 
0.02804946899414129 1:1 2:949 3:81.077324 4:150 
0.02804946899414165 1:0 2:792 3:95.077652 4:115 
0.02804946899415009 1:1 2:1189 3:133.02512 4:240 
0.0283203125 1:1 2:861 3:129.31689 4:85 
0.0283203125 1:1 2:791 3:125.35245 4:160 
-0.9713540077209268 1:1 2:1044 3:98.256821 4:120 
0.0283203125 1:1 2:985 3:100.68175 4:145 
0.02777862548828128 1:1 2:898 3:88.509705 4:120 
0.0277786254882814 1:1 2:740 3:75.457474 4:80 
0.02777099609375059 1:1 2:1319 3:53.817097 4:135 
0.02770996093750237 1:1 2:1049 3:67.587502 4:145 
0.02734375000000947 1:1 2:1066 3:94.29567 4:220 
