svm_type nu_svr
kernel_type rbf
gamma 0.25
nr_class 2
total_sv 105
rho 0.0270338
SV
0.0197393998976958 1:1 2:1015 3:0.000534 4:0.01777 
0.02569461829708641 1:1 2:745 3:0.000689 4:0.016227 
0.02424614469620812 1:1 2:1304 3:0.000424 4:0.016676 
0.02658259468549562 1:1 2:777 3:0.000298 4:0.007606 
0.02682175067554066 1:1 2:1114 3:0.00064 4:0.024521 
0.01736789697451557 1:0 2:798 3:0.000562 4:0.019292 
0.02652832253103632 1:1 2:960 3:0.00042 4:0.01536 
0.02690454072345272 1:1 2:841 3:0.000672 4:0.023468 
0.02089743446192993 1:1 2:856 3:0.000538 4:0.018424 
0.01727549728629141 1:1 2:905 3:0.000511 4:0.012156 
0.02606642819768068 1:1 2:1102 3:0.00026 4:0.011828 
0.01601684146749383 1:1 2:1033 3:0.000658 4:0.025003 
0.01436935793453209 1:1 2:1034 3:0.000403 4:0.012251 
0.02676371985949344 1:1 2:1229 3:0.000706 4:0.024241 
0.02713303343993489 1:1 2:677 3:0.000716 4:0.021674 
1 1:1 2:1154 3:0.000593 4:0.017748 
-0.9727030181691884 1:1 2:272 3:0.000154 4:0.002271 
0.02687810133676782 1:1 2:1284 3:0.000582 4:0.02349 
0.01681639172320482 1:1 2:1006 3:0.000857 4:0.033737 
0.02676773944317812 1:1 2:1234 3:0.000672 4:0.025695 
0.02454321419156846 1:1 2:1140 3:0.000505 4:0.017725 
0.01090608179666405 1:1 2:1049 3:0.000343 4:0.019303 
0.02687022156301833 1:1 2:814 3:0.000411 4:0.009613 
0.004052306084686763 1:1 2:1260 3:0.000383 4:0.015145 
0.02673645102824607 1:0 2:956 3:0.000513 4:0.017125 
0.002996606213089503 1:1 2:1187 3:0.000429 4:0.015838 
0.02679029264822802 1:1 2:1091 3:0.000451 4:0.014183 
1 1:1 2:762 3:0.000707 4:0.021499 
0.01356316700976612 1:1 2:933 3:0.000586 4:0.024319 
0.0185573656697017 1:0 2:742 3:0.00039 4:0.011465 
-0.9721887812154125 1:1 2:616 3:0.00024 4:0.004951 
0.0249058833648642 1:0 2:901 3:0.000452 4:0.026871 
0.02713303343993485 1:0 2:657 3:0.000518 4:0.010741 
-0.9725683146079069 1:0 2:1170 3:0.000326 4:0.013789 
0.01450753380353068 1:0 2:906 3:0.000589 4:0.01951 
-0.6460653619057837 1:0 2:1153 3:0.000531 4:0.021692 
0.02626938476920843 1:1 2:964 3:0.000613 4:0.014866 
0.01489156291460814 1:0 2:1260 3:0.000602 4:0.01878 
1 1:1 2:1053 3:0.000505 4:0.017739 
0.02423410525278323 1:1 2:1307 3:0.000853 4:0.03949 
0.02727506451157652 1:1 2:868 3:0.000581 4:0.015249 
-1 1:1 2:1070 3:0.000933 4:0.023328 
-1 1:1 2:1322 3:0.001009 4:0.038783 
0.0247366095327182 1:1 2:982 3:0.000334 4:0.009767 
0.02655818525854389 1:1 2:920 3:0.000819 4:0.022925 
0.739578416582736 1:1 2:1320 3:0.000853 4:0.031653 
0.01998976700936742 1:1 2:1082 3:0.001194 4:0.043385 
0.02522539084528721 1:1 2:1003 3:0.000697 4:0.021834 
0.02481493441044721 1:1 2:830 3:0.000637 4:0.017196 
0.02067789515374564 1:1 2:1098 3:0.000818 4:0.021694 
0.01919580367178749 1:1 2:1186 3:0.000876 4:0.023255 
0.02712654331574277 1:1 2:733 3:0.000771 4:0.025702 
0.0164319927892572 1:1 2:932 3:0.00073 4:0.019139 
0.01625014389701702 1:1 2:799 3:0.000549 4:0.014563 
0.02640912977651368 1:1 2:1215 3:0.00056 4:0.022936 
0.01864328662038304 1:1 2:1183 3:0.000775 4:0.01907 
0.02684695213179085 1:0 2:773 3:0.000551 4:0.013489 
0.8076232813512833 1:1 2:1069 3:0.000774 4:0.020216 
0.02178144624615459 1:1 2:833 3:0.000658 4:0.02633 
0.01417370238759111 1:0 2:997 3:0.000589 4:0.018689 
0.02607922480109744 1:1 2:989 3:0.000664 4:0.022125 
0.02669187053336385 1:1 2:1128 3:0.000865 4:0.029818 
0.01919053115153795 1:0 2:1219 3:0.001064 4:0.029027 
0.0203730486173682 1:0 2:924 3:0.000683 4:0.022152 
0.01977260929187759 1:0 2:1221 3:0.000748 4:0.022825 
0.02518777210076922 1:1 2:1086 3:0.000758 4:0.029616 
0.02683585596845761 1:1 2:582 3:0.001417 4:0.03027 
0.1176593622877918 1:1 2:1073 3:0.000766 4:0.019101 
0.01925226787888384 1:1 2:1017 3:0.000767 4:0.022342 
0.02053893888807974 1:0 2:854 3:0.000626 4:0.012635 
0.007729059617021519 1:1 2:1099 3:0.000724 4:0.02256 
0.01618967716960659 1:0 2:998 3:0.000723 4:0.020635 
0.0224403690602002 1:1 2:909 3:0.001007 4:0.029963 
0.02667580516231289 1:1 2:937 3:0.001106 4:0.032625 
0.02665828827075814 1:1 2:809 3:0.000473 4:0.011023 
0.02681768218610971 1:1 2:1177 3:0.000575 4:0.023571 
0.02662289383676744 1:1 2:1164 3:0.00131 4:0.039756 
-0.003395151948724438 1:0 2:1039 3:0.000441 4:0.01902 
0.1821312068852043 1:0 2:1151 3:0.000727 4:0.014989 
0.06168676700943617 1:1 2:1058 3:0.000435 4:0.015786 
0.02666223312922852 1:1 2:1196 3:0.000494 4:0.036205 
0.006091942187796996 1:1 2:1183 3:0.00046 4:0.01757 
0.02454321414887603 1:1 2:1137 3:0.000599 4:0.022006 
0.008216611579507149 1:1 2:1083 3:0.000662 4:0.016317 
0.02658903816286784 1:1 2:1299 3:0.00047 4:0.023703 
0.3952813138015228 1:1 2:1042 3:0.000464 4:0.017483 
0.0269264536295442 1:1 2:974 3:0.000559 4:0.016222 
0.0149554018467882 1:1 2:1261 3:0.000513 4:0.021718 
0.024725999870825 1:1 2:912 3:0.000876 4:0.019284 
0.02058687661076777 1:1 2:1008 3:0.000634 4:0.019318 
0.02108817442087701 1:1 2:926 3:0.00043 4:0.017647 
0.02446879906366802 1:1 2:836 3:0.000421 4:0.010755 
-0.1006505848379207 1:1 2:1056 3:0.000588 4:0.023067 
0.0269263288318174 1:1 2:1203 3:0.000756 4:0.034394 
0.02681701321377176 1:1 2:949 3:0.000754 4:0.017136 
0.01711191990312091 1:0 2:792 3:0.000546 4:0.013531 
0.02365971008027083 1:1 2:1189 3:0.000748 4:0.032965 
0.02677251388440341 1:1 2:861 3:0.000409 4:0.010502 
0.01636556480944175 1:1 2:791 3:0.000342 4:0.01127 
-1 1:1 2:1044 3:0.000787 4:0.024424 
0.02393941211942389 1:1 2:985 3:0.000827 4:0.025715 
0.02477306797912357 1:1 2:898 3:0.000584 4:0.017622 
0.0214662237007073 1:1 2:740 3:0.000661 4:0.01313 
-0.4427821457321734 1:1 2:1319 3:0.000468 4:0.01913 
-0.03931325414726426 1:1 2:1066 3:0.00088 4:0.025899 
