svm_type nu_svr
kernel_type rbf
gamma 0.25
nr_class 2
total_sv 15
rho -0.308843
SV
-0.3082136878671743 1:0 2:1 3:1328.2211 4:0.000534 
1 1:0 2:1 3:1017.2359 4:0.000403 
0.02470289643541212 1:0 2:1 3:1216.2747 4:0.000689 
-0.6419495453862691 1:0 2:0 3:1001.5763 4:0.000513 
0.02875850620491754 1:7 2:1 3:284.74152 4:0.000424 
-0.6419631035645879 1:7 2:1 3:1040.3964 4:0.000298 
0.5237090659332662 1:3 2:1 3:256.99347 4:0.00064 
-0.308661027572074 1:12 2:0 3:353.39954 4:0.000562 
0.02415554975814813 1:7 2:1 3:724.33752 4:0.00042 
0.5241591252942253 1:0 2:1 3:276.96069 4:0.000672 
0.5242542323448099 1:8 2:1 3:358.11847 4:0.000538 
-0.8084155025185282 1:7 2:1 3:676.60901 4:0.000511 
0.3574999031225921 1:0 2:1 3:338.77457 4:0.00026 
0.3439268189152156 1:7 2:1 3:283.00702 4:0.000658 
-0.6419632310999535 1:0 2:1 3:1017.2359 4:0.000403 
