svm_type nu_svr
kernel_type rbf
gamma 0.333333
nr_class 2
total_sv 53
rho -0.0740073
SV
-0.5454145024772064 0:4 1:196.95021 2:0.01951 3:150 
-0.04585906234761983 0:7 1:92.28968 2:0.021834 3:190 
0.3978402450824359 0:5 1:140.46902 2:0.015085 3:225 
-0.5458590623476198 0:12 1:126.06876 2:0.01502 3:67 
0.7308143604236739 0:12 1:228.85782 2:0.024701 3:138 
-1 0:0 1:572.40143 2:0.038783 3:129 
1 0:0 1:211.1675 2:0.012251 3:140 
-1 0:0 1:239.30429 2:0.005931 3:70 
0.3980293156981068 0:5 1:169.74104 2:0.025695 3:170 
0.8978402450824359 0:2 1:446.46307 2:0.014913 3:200 
0.7311002240413521 0:8 1:243.40955 2:0.018424 3:190 
-1 0:4 1:44.069962 2:0.023328 3:100 
0.5643014395246042 0:7 1:211.8461 2:0.016127 3:225 
0.06456094640408558 0:5 1:156.18234 2:0.02349 3:160 
-0.3795441400684246 0:7 1:174.87781 2:0.007606 3:52 
0.06403980170098825 0:2 1:317.07281 2:0.021674 3:175 
0.3976916285721139 0:4 1:290.93979 2:0.021692 3:230 
-0.5453319838180405 0:0 1:117.79584 2:0.019303 3:135 
-0.8792305842348345 0:5 1:138.30226 2:0.025702 3:190 
-1 0:2 1:152.31142 2:0.002271 3:59 
0.2308175735762141 0:0 1:184.08177 2:0.016227 3:170 
-0.3791920623476198 0:12 1:211.117 2:0.031653 3:165 
-0.2118975315636525 0:0 1:168.61116 2:0.011465 3:120 
-0.545684010088568 0:0 1:100.71413 2:0.010741 3:115 
0.5641483604236739 0:3 1:171.88068 2:0.029261 3:240 
-0.7119989781752912 0:7 1:201.55022 2:0.018771 3:145 
0.5643586285721139 0:7 1:134.63148 2:0.025003 3:275 
-0.04585906234761986 0:0 1:122.42004 2:0.01777 3:190 
0.2312269464040856 0:5 1:118.39919 2:0.015249 3:165 
0.4745263596708726 0:9 1:111.65286 2:0.009767 3:174 
0.3978852803790686 0:7 1:187.60159 2:0.016676 3:101 
0.3977672240471056 0:5 1:137.77418 2:0.033737 3:148 
-0.5458975842348344 0:7 1:108.40743 2:0.012156 3:155 
-0.04568401008856808 0:0 1:131.70177 2:0.01158 3:90 
0.06415157357621429 0:5 1:165.8728 2:0.016049 3:100 
0.5643807429750896 0:0 1:136.17122 2:0.016488 3:205 
0.5644342240412275 0:0 1:194.78667 2:0.017125 3:185 
0.7313623156981068 0:0 1:258.78903 2:0.023468 3:255 
0.06411767793226075 0:5 1:148.28641 2:0.023255 3:150 
0.2311002240412274 0:2 1:173.51231 2:0.01878 3:160 
0.2307836779322607 0:2 1:184.23686 2:0.012129 3:145 
-0.2121239129461681 0:3 1:114.43704 2:0.021694 3:110 
-0.2128781400791488 0:2 1:137.8206 2:0.014866 3:140 
-1 0:0 1:194.78667 2:0.017125 3:185 
-0.04541450981320452 0:12 1:245.15866 2:0.019292 3:220 
0.8976344395246042 0:0 1:187.0966 2:0.017748 3:160 
-0.3795441400684246 0:0 1:211.1675 2:0.012251 3:140 
-1 0:10 1:40.574505 2:0.013789 3:45 
-0.2149711892061867 0:8 1:110.60689 2:0.017725 3:175 
-0.7121239129461682 0:11 1:62.218277 2:0.015145 3:45 
0.8973728017009882 0:2 1:131.64836 2:0.017739 3:250 
0.8977137429750895 0:10 1:212.32161 2:0.021499 3:290 
-0.04549162080079959 0:5 1:126.8499 2:0.009627 3:105 
