svm_type nu_svr
kernel_type rbf
gamma 0.333333
nr_class 2
total_sv 53
rho -0.108601
SV
-0.1082676271072722 0:0 1:1784.5159 2:516.24097 3:0.000534 
1 0:0 1:1899.0386 2:633.92914 3:0.000403 
0.2245062757475321 0:0 1:1928.4839 2:514.25031 3:0.000689 
0.557588491385359 0:0 1:1464.4348 2:398.70984 3:0.000513 
0.3910848952814089 0:7 1:1455.2574 2:540.31665 3:0.000424 
-0.4416216923364404 0:7 1:2185.0735 2:558.74066 3:0.000298 
0.7244566902233824 0:3 1:1418.5193 2:615.01532 3:0.00064 
-0.1083058677578391 0:12 1:1387.7516 2:457.76593 3:0.000562 
0.2244236243136343 0:7 1:1663.5341 2:508.71634 3:0.00042 
0.7242738725166462 0:0 1:1489.085 2:595.60547 3:0.000672 
0.7242005047684291 0:8 1:1459.4364 2:512.27393 3:0.000538 
-0.6083270159608682 0:7 1:1825.4937 2:472.09235 3:0.000511 
0.5578080303584806 0:0 1:1481.2729 2:485.67459 3:0.00026 
0.5576224631363234 0:7 1:1362.0447 2:525.77222 3:0.000658 
-0.4416006271072722 0:0 1:1899.0386 2:633.92914 3:0.000403 
0.3910623907347241 0:0 1:1219.8586 2:348.40878 3:0.000706 
0.05784200754042928 0:2 1:1472.0798 2:452.17032 3:0.000716 
0.8908624685078512 0:0 1:1658.2784 2:510.10651 3:0.000593 
-1 0:2 1:6199.2202 2:644.00458 3:0.000154 
0.05787640408799926 0:5 1:1440.207 2:593.62805 3:0.000582 
0.3908854612479831 0:5 1:1309.333 2:513.64008 3:0.000857 
0.3910738207506052 0:5 1:1445.6055 2:599.19843 3:0.000672 
-0.1077656457940842 0:8 1:1545.4904 2:519.73486 3:0.000505 
-0.60826395990881 0:0 1:1192.4337 2:305.73157 3:0.000343 
-0.6077580669680572 0:0 1:4007.5034 2:469.89963 3:0.000411 
-0.7749644008561315 0:11 1:1273.736 2:314.22421 3:0.000383 
-1 0:0 1:1464.4348 2:398.70984 3:0.000513 
0.3907684234301587 0:2 1:1639.1249 2:660.32135 3:0.000429 
0.05752171693337543 0:2 1:1672.0845 2:541.71991 3:0.000451 
0.8910183226783196 0:10 1:1768.0786 2:660.87097 3:0.000707 
0.5576581978620273 0:10 1:1430.9865 2:526.19269 3:0.000586 
-0.274937724510268 0:0 1:2025.5453 2:417.44363 3:0.00039 
-1 0:10 1:2617.1016 2:455.86713 3:0.00024 
-0.2749804809064846 0:12 1:1348.2349 2:599.3794 3:0.000452 
-0.6081671950321426 0:0 1:3196.9268 2:451.15335 3:0.000518 
-1 0:10 1:1194.8899 2:235.69646 3:0.000326 
-0.6083313962818252 0:4 1:1591.6799 2:564.58441 3:0.000589 
0.3908521664703086 0:4 1:1368.2917 2:497.3168 3:0.000531 
-0.2749661471400955 0:2 1:2055.8557 2:662.53265 3:0.000613 
0.2241161261467074 0:2 1:1633.4545 2:635.51575 3:0.000602 
0.8910415758097315 0:2 1:1692.3934 2:754.89471 3:0.000505 
0.5574741677923212 0:5 1:1345.3405 2:598.44568 3:0.000853 
0.2245325898712501 0:5 1:1887.9951 2:489.45871 3:0.000581 
-1 0:4 1:3143.0408 2:232.14264 3:0.000933 
-1 0:0 1:1609.4563 2:787.40277 3:0.001009 
0.3911815946870339 0:9 1:1932.5494 2:530.43671 3:0.000334 
0.3908836051394652 0:2 1:2951.2705 2:705.53766 3:0.000819 
-0.4416357956783071 0:12 1:1469.601 2:568.73761 3:0.000853 
0.05775975474315288 0:0 1:1324.3845 2:520.5058 3:0.001194 
-0.1083683751966481 0:7 1:1558.2727 2:470.82245 3:0.000697 
-0.2749793794358987 0:7 1:2358.7581 2:433.52792 3:0.000637 
-0.2749752921239201 0:3 1:1624.9089 2:434.06674 3:0.000818 
0.05784104793772536 0:5 1:1510.9131 2:456.8219 3:0.000876 
