svm_type nu_svr
kernel_type rbf
gamma 0.333333
nr_class 2
total_sv 53
rho -0.108626
SV
-0.1083269200519541 0:0 1:1328.2211 2:0.01777 3:190 
1 0:0 1:1017.2359 2:0.012251 3:140 
0.2241335968716923 0:0 1:1216.2747 2:0.016227 3:170 
0.5576715467881358 0:0 1:1001.5763 2:0.017125 3:185 
0.3910188502456613 0:7 1:284.74152 2:0.016676 3:101 
-0.4416679882291319 0:7 1:1040.3964 2:0.007606 3:52 
0.7242371664212084 0:3 1:256.99347 2:0.024521 3:265 
-0.1083437863483682 0:12 1:353.39954 2:0.019292 3:220 
0.2242657638024201 0:7 1:724.33752 2:0.01536 3:73 
0.7244763151017295 0:0 1:276.96069 2:0.023468 3:255 
0.7244789978045127 0:8 1:358.11847 2:0.018424 3:190 
-0.6081520467056442 0:7 1:676.60901 2:0.012156 3:155 
0.5574028370810785 0:0 1:338.77457 2:0.011828 3:80 
0.5575570416294476 0:7 1:283.00702 2:0.025003 3:275 
-0.4416767863483682 0:0 1:1017.2359 2:0.012251 3:140 
0.3909357360240281 0:0 1:280.64706 2:0.024241 3:125 
0.05765719414961585 0:2 1:561.47235 2:0.021674 3:175 
0.8907440837949852 0:0 1:753.75763 2:0.017748 3:160 
-1 0:2 1:3468.8306 2:0.002271 3:59 
0.05740583709463604 0:5 1:276.49921 2:0.02349 3:160 
0.3909939874438648 0:5 1:260.56043 2:0.033737 3:148 
0.3907324204474339 0:5 1:391.67111 2:0.025695 3:170 
-0.1078321387011159 0:8 1:521.31824 2:0.017725 3:175 
-0.6078566618605934 0:0 1:345.1481 2:0.019303 3:135 
-0.6080899891312241 0:0 1:5365.5361 2:0.009613 3:70 
-0.7730549018292686 0:11 1:252.03314 2:0.015145 3:45 
-1 0:0 1:1001.5763 2:0.017125 3:185 
0.3906637749525157 0:2 1:478.60736 2:0.015838 3:200 
0.05741089966446389 0:2 1:626.1297 2:0.014183 3:170 
0.8909926383221679 0:10 1:897.86102 2:0.021499 3:290 
0.5574324728581515 0:10 1:390.26743 2:0.024319 3:220 
-0.2750305553849096 0:0 1:1598.9414 2:0.011465 3:120 
-1 0:10 1:1057.3951 2:0.004951 3:45 
-0.2749123354707211 0:12 1:238.24316 2:0.026871 3:150 
-0.6083350252280989 0:0 1:3760.4128 2:0.010741 3:115 
-1 0:10 1:256.2449 2:0.013789 3:45 
-0.6080504831060145 0:4 1:535.77716 2:0.01951 3:150 
0.390816528525754 0:4 1:373.483 2:0.021692 3:230 
-0.2750039930374867 0:2 1:1151.014 2:0.014866 3:140 
0.2240395538922937 0:2 1:590.18298 2:0.01878 3:160 
0.890995155753563 0:2 1:398.63901 2:0.017739 3:250 
0.5577941716199295 0:5 1:228.86702 2:0.03949 3:280 
0.2243842301140754 0:5 1:1196.2836 2:0.015249 3:165 
-1 0:4 1:4583.7803 2:0.023328 3:100 
-1 0:0 1:568.21381 2:0.038783 3:129 
0.3908360241464215 0:9 1:881.04571 2:0.009767 3:174 
0.3911427994036877 0:2 1:3948.0073 2:0.022925 3:126 
-0.4411936839185392 0:12 1:442.5748 2:0.031653 3:165 
0.05748276438276607 0:0 1:248.66318 2:0.043385 3:128 
-0.1083135080057797 0:7 1:800.05133 2:0.021834 3:190 
-0.2750101288038529 0:7 1:3012.1274 2:0.017196 3:120 
-0.27451186787802 0:3 1:870.72296 2:0.021694 3:110 
0.05766041170285031 0:5 1:596.24262 2:0.023255 3:150 
