svm_type nu_svr
kernel_type rbf
gamma 0.25
nr_class 2
total_sv 110
rho 0.0283433
SV
0.02846313576612525 1:0 2:122.42004 3:0.000534 4:190 
0.02836667052335984 1:0 2:184.08177 3:0.000689 4:170 
0.02832240085494453 1:7 2:187.60159 3:0.000424 4:101 
0.02846313576650283 1:7 2:174.87781 3:0.000298 4:52 
0.02832615247114345 1:3 2:179.7747 3:0.00064 4:265 
0.02868509296797661 1:12 2:245.15866 3:0.000562 4:220 
0.02822008140330501 1:7 2:111.76267 3:0.00042 4:73 
0.02829978032594915 1:0 2:258.78903 3:0.000672 4:255 
0.02844342666578292 1:8 2:243.40955 3:0.000538 4:190 
0.02845903646764292 1:7 2:108.40743 3:0.000511 4:155 
0.02836605169215356 1:0 2:154.93671 3:0.00026 4:80 
0.0283770909992509 1:7 2:134.63148 3:0.000658 4:275 
0.02836750438489122 1:0 2:211.1675 3:0.000403 4:140 
0.02836750438489122 1:0 2:125.32471 3:0.000706 4:125 
0.02835374302383509 1:2 2:317.07281 3:0.000716 4:175 
1 1:0 2:187.0966 3:0.000593 4:160 
-0.9716756953401775 1:2 2:152.31142 3:0.000154 4:59 
0.02798975804927006 1:5 2:156.18234 3:0.000582 4:160 
0.02832162268479288 1:5 2:137.77418 3:0.000857 4:148 
0.0284590364676417 1:5 2:169.74104 3:0.000672 4:170 
0.01986340642867301 1:8 2:110.60689 3:0.000505 4:175 
0.02832154626620886 1:0 2:117.79584 3:0.000343 4:135 
0.02835376294691483 1:0 2:93.960075 3:0.000411 4:70 
0.02834194511788846 1:11 2:62.218277 3:0.000383 4:45 
0.02832664738081148 1:0 2:194.78667 3:0.000513 4:185 
0.02832618931555275 1:2 2:272.56207 3:0.000429 4:200 
0.02832332612922761 1:2 2:233.00282 3:0.000451 4:170 
1 1:10 2:212.32161 3:0.000707 4:290 
0.02880703818239189 1:10 2:219.63496 3:0.000586 4:220 
0.02836635981120216 1:0 2:168.61116 3:0.00039 4:120 
-0.9715565733339835 1:10 2:122.04619 3:0.00024 4:45 
0.0286850872031808 1:12 2:251.46826 3:0.000452 4:150 
0.02835696844130368 1:0 2:100.71413 3:0.000518 4:115 
-0.9716333294752086 1:10 2:40.574505 3:0.000326 4:45 
0.02832336629136156 1:4 2:196.95021 3:0.000589 4:150 
0.02865460697354771 1:4 2:290.93979 3:0.000531 4:230 
0.02832380122443421 1:2 2:137.8206 3:0.000613 4:140 
0.02790041058405838 1:2 2:173.51231 3:0.000602 4:160 
1 1:2 2:131.64836 3:0.000505 4:250 
0.02790041058405952 1:5 2:164.6559 3:0.000853 4:280 
0.02826652323415066 1:5 2:118.39919 3:0.000581 4:165 
-0.9716756953401775 1:4 2:44.069962 3:0.000933 4:100 
-0.9716783769563997 1:0 2:572.40143 3:0.001009 4:129 
0.01885371301041045 1:9 2:111.65286 3:0.000334 4:174 
0.02832214853980208 1:2 2:168.07809 3:0.000819 4:126 
0.02832615247114345 1:12 2:211.117 3:0.000853 4:165 
0.02832376623365332 1:0 2:246.04076 3:0.001194 4:128 
0.02829977873093378 1:7 2:92.28968 3:0.000697 4:190 
0.02692199072181335 1:7 2:91.326851 3:0.000637 4:120 
0.0283826997446475 1:3 2:114.43704 3:0.000818 4:110 
0.02832184612568708 1:5 2:148.28641 3:0.000876 4:150 
0.02832234516919759 1:5 2:138.30226 3:0.000771 4:190 
0.02832131460064047 1:5 2:134.92932 3:0.00073 4:80 
0.02832230931593467 1:0 2:73.443481 3:0.000549 4:100 
0.02832154673512744 1:0 2:75.059196 3:0.00056 4:240 
0.02839686750230703 1:8 2:72.823708 3:0.000775 4:140 
0.02865449738780947 1:2 2:150.36011 3:0.000551 4:75 
0.0283163014314876 1:10 2:91.247353 3:0.000774 4:115 
0.02837683008018117 1:0 2:120.21809 3:0.000658 4:170 
0.0256684204282584 1:0 2:84.585358 3:0.000589 4:120 
0.02846055421249619 1:3 2:101.42107 3:0.000664 4:125 
0.02804447837751932 1:0 2:105.6449 3:0.000865 4:180 
0.02798970187425137 1:7 2:64.040039 3:0.001064 4:160 
0.02829498810308699 1:5 2:68.875267 3:0.000683 4:165 
0.0283527210761686 1:0 2:149.2966 3:0.000748 4:180 
0.028318703727147 1:5 2:90.997894 3:0.000758 4:160 
0.02868508720295498 1:0 2:247.03374 3:0.001417 4:185 
0.02832672796025276 1:5 2:113.12672 3:0.000766 4:130 
0.02865460697318358 1:0 2:121.96153 3:0.000767 4:200 
0.02832133538729141 1:2 2:95.614876 3:0.000626 4:90 
0.02832183488465121 1:0 2:88.994751 3:0.000814 4:140 
0.02829471950961367 1:8 2:97.601379 3:0.000724 4:180 
0.02830742795037722 1:2 2:99.353554 3:0.000723 4:130 
0.02832364189335908 1:0 2:129.24826 3:0.001007 4:100 
0.02543441582061942 1:0 2:78.399452 3:0.001106 4:80 
0.02832162304267249 1:5 2:121.17292 3:0.000473 4:75 
0.02868501224121726 1:3 2:84.184044 3:0.000575 4:170 
0.02835376292637455 1:0 2:82.125359 3:0.000696 4:90 
0.02803908854890155 1:0 2:109.8411 3:0.00131 4:180 
0.0279911281808069 1:0 2:66.906998 3:0.000441 4:180 
0.0280184765733448 1:2 2:111.23468 3:0.000727 4:95 
0.02837708012231588 1:5 2:92.010223 3:0.000435 4:135 
0.02832234516919759 1:5 2:65.945 3:0.000494 4:210 
0.02832230931593467 1:1 2:47.813747 3:0.00046 4:80 
0.02865460697312002 1:5 2:107.93533 3:0.000599 4:140 
0.02832659319483505 1:7 2:77.674416 3:0.000571 4:120 
0.0283537364011309 1:8 2:111.05724 3:0.000662 4:100 
0.02839686750229913 1:2 2:57.090328 3:0.00047 4:170 
0.02836615994872278 1:10 2:97.889984 3:0.000464 4:245 
0.02569356982167308 1:1 2:81.708939 3:0.000686 4:120 
0.02836755745852339 1:10 2:99.147339 3:0.000559 4:140 
0.02790048501865252 1:0 2:38.322647 3:0.000513 4:120 
0.02832336629136156 1:8 2:100.42133 3:0.000876 4:200 
0.02832331614614942 1:10 2:82.794144 3:0.000634 4:170 
0.02835376269456681 1:7 2:78.912949 3:0.00043 4:85 
0.02832194334785516 1:3 2:94.83757 3:0.000421 4:156 
0.02829444038503792 1:5 2:67.299492 3:0.000588 4:170 
0.02829533581351092 1:10 2:92.750999 3:0.000756 4:180 
0.02832618931555275 1:4 2:81.077324 3:0.000754 4:150 
0.02834766728723098 1:0 2:95.077652 3:0.000546 4:115 
0.02829977873097224 1:8 2:133.02512 3:0.000748 4:240 
0.02832180133831937 1:5 2:129.31689 3:0.000409 4:85 
0.02834194332403049 1:7 2:125.35245 3:0.000342 4:160 
-0.9716836960542298 1:3 2:98.256821 3:0.000787 4:120 
0.02829978032574168 1:0 2:100.68175 3:0.000827 4:145 
0.02646842631964591 1:5 2:88.509705 3:0.000584 4:120 
0.02540158764012335 1:0 2:75.457474 3:0.000661 4:80 
0.02834194511788849 1:3 2:53.817097 3:0.000468 4:135 
0.02832182283911778 1:0 2:67.587502 3:0.00086 4:145 
0.02835376294691487 1:3 2:94.29567 3:0.00088 4:220 
