svm_type nu_svr
kernel_type rbf
gamma 0.333333
nr_class 2
total_sv 53
rho -0.104018
SV
-0.1151996130158102 0:0 1:122.42004 2:0.000534 3:0.01777 
1 0:0 1:211.1675 2:0.000403 3:0.012251 
0.1748896381657216 0:0 1:184.08177 2:0.000689 3:0.016227 
0.5508540206429769 0:0 1:194.78667 2:0.000513 3:0.017125 
0.3837917279956283 0:7 1:187.60159 2:0.000424 3:0.016676 
-0.425386045942159 0:7 1:174.87781 2:0.000298 3:0.007606 
0.7170839734174751 0:3 1:179.7747 2:0.00064 3:0.024521 
-0.09330879095356534 0:12 1:245.15866 2:0.000562 3:0.019292 
0.2771440104442333 0:7 1:111.76267 2:0.00042 3:0.01536 
0.717787535826927 0:0 1:258.78903 2:0.000672 3:0.023468 
0.7174317010788102 0:8 1:243.40955 2:0.000538 3:0.018424 
-0.545849299565819 0:7 1:108.40743 2:0.000511 3:0.012156 
0.576940005879844 0:0 1:154.93671 2:0.00026 3:0.011828 
0.5467513577138956 0:7 1:134.63148 2:0.000658 3:0.025003 
-0.4250920179273198 0:0 1:211.1675 2:0.000403 3:0.012251 
0.390752755587277 0:0 1:125.32471 2:0.000706 3:0.024241 
0.05044506709967819 0:2 1:317.07281 2:0.000716 3:0.021674 
0.8753794589827234 0:0 1:187.0966 2:0.000593 3:0.017748 
-1 0:2 1:152.31142 2:0.000154 3:0.002271 
0.05143588329114249 0:5 1:156.18234 2:0.000582 3:0.02349 
0.3922031716707115 0:5 1:137.77418 2:0.000857 3:0.033737 
0.3744567016126173 0:5 1:169.74104 2:0.000672 3:0.025695 
-0.3958374593276505 0:8 1:110.60689 2:0.000505 3:0.017725 
-0.5919239210772079 0:0 1:117.79584 2:0.000343 3:0.019303 
-0.5920105622831193 0:0 1:93.960075 2:0.000411 3:0.009613 
-0.7583929379332931 0:11 1:62.218277 2:0.000383 3:0.015145 
-1 0:0 1:194.78667 2:0.000513 3:0.017125 
0.3837839736429283 0:2 1:272.56207 2:0.000429 3:0.015838 
0.05044506709967819 0:2 1:233.00282 2:0.000451 3:0.014183 
0.978711924426953 0:10 1:212.32161 2:0.000707 3:0.021499 
0.5503941681441155 0:10 1:219.63496 2:0.000586 3:0.024319 
-0.3698108787798327 0:0 1:168.61116 2:0.00039 3:0.011465 
-1 0:10 1:122.04619 2:0.00024 3:0.004951 
-0.2586775466583682 0:12 1:251.46826 2:0.000452 3:0.026871 
-0.5918212388890273 0:0 1:100.71413 2:0.000518 3:0.010741 
-1 0:10 1:40.574505 2:0.000326 3:0.013789 
-0.5915534340135368 0:4 1:196.95021 2:0.000589 3:0.01951 
0.3837685098754152 0:4 1:290.93979 2:0.000531 3:0.021692 
-0.2781145994828562 0:2 1:137.8206 2:0.000613 3:0.014866 
0.2168881195950796 0:2 1:173.51231 2:0.000602 3:0.01878 
0.884017353706734 0:2 1:131.64836 2:0.000505 3:0.017739 
0.5499254504273117 0:5 1:164.6559 2:0.000853 3:0.03949 
0.2182748937702904 0:5 1:118.39919 2:0.000581 3:0.015249 
-1 0:4 1:44.069962 2:0.000933 3:0.023328 
-1 0:0 1:572.40143 2:0.001009 3:0.038783 
0.5121722002685566 0:9 1:111.65286 2:0.000334 3:0.009767 
0.4644308920772438 0:2 1:168.07809 2:0.000819 3:0.022925 
-0.5842269785358071 0:12 1:211.117 2:0.000853 3:0.031653 
0.05032219946029962 0:0 1:246.04076 2:0.001194 3:0.043385 
0.1587922879626011 0:7 1:92.28968 2:0.000697 3:0.021834 
-0.3745594717992591 0:7 1:91.326851 2:0.000637 3:0.017196 
-0.2582352038153688 0:3 1:114.43704 2:0.000818 3:0.021694 
0.05072595013313142 0:5 1:148.28641 2:0.000876 3:0.023255 
