svm_type nu_svr
kernel_type rbf
gamma 0.25
nr_class 2
total_sv 110
rho 0.0286562
SV
0.02869017387282868 1:0 2:1 3:1328.2211 4:0.01777 
0.02860336355711313 1:0 2:1 3:1216.2747 4:0.016227 
0.01932353136964216 1:7 2:1 3:284.74152 4:0.016676 
0.02842136564089981 1:7 2:1 3:1040.3964 4:0.007606 
0.0287322721463259 1:3 2:1 3:256.99347 4:0.024521 
0.02898979178150574 1:12 2:0 3:353.39954 4:0.019292 
0.02819900884474058 1:7 2:1 3:724.33752 4:0.01536 
0.02821861561096328 1:0 2:1 3:276.96069 4:0.023468 
0.02841190754656098 1:8 2:1 3:358.11847 4:0.018424 
0.02855597718020735 1:7 2:1 3:676.60901 4:0.012156 
0.02868843265720189 1:0 2:1 3:338.77457 4:0.011828 
0.01932572900292018 1:7 2:1 3:283.00702 4:0.025003 
0.02916363949148437 1:0 2:1 3:1017.2359 4:0.012251 
0.02745145840035179 1:0 2:1 3:280.64706 4:0.024241 
0.02848130502010704 1:2 2:1 3:561.47235 4:0.021674 
1 1:0 2:1 3:753.75763 4:0.017748 
-0.9713124964825725 1:2 2:1 3:3468.8306 4:0.002271 
0.02834393883255093 1:5 2:1 3:276.49921 4:0.02349 
0.02820871004986669 1:5 2:1 3:260.56043 4:0.033737 
0.02835649798666884 1:5 2:1 3:391.67111 4:0.025695 
0.02868747154720452 1:8 2:1 3:521.31824 4:0.017725 
0.02838832994422213 1:0 2:1 3:345.1481 4:0.019303 
0.02839617463426169 1:0 2:1 3:5365.5361 4:0.009613 
0.03597940658134657 1:11 2:1 3:252.03314 4:0.015145 
0.02868750352507154 1:0 2:0 3:1001.5763 4:0.017125 
0.02517261821747607 1:2 2:1 3:478.60736 4:0.015838 
0.02857897255327171 1:2 2:1 3:626.1297 4:0.014183 
1 1:10 2:1 3:897.86102 4:0.021499 
0.02835751832765851 1:10 2:1 3:390.26743 4:0.024319 
0.02847672163401338 1:0 2:0 3:1598.9414 4:0.011465 
-0.9715139620290166 1:10 2:1 3:1057.3951 4:0.004951 
0.02865360235430889 1:12 2:0 3:238.24316 4:0.026871 
0.02839715055121208 1:0 2:0 3:3760.4128 4:0.010741 
-0.9716012985638923 1:10 2:0 3:256.2449 4:0.013789 
0.02816154309702237 1:4 2:0 3:535.77716 4:0.01951 
0.02817127128594352 1:4 2:0 3:373.483 4:0.021692 
0.02853521706498714 1:2 2:1 3:1151.014 4:0.014866 
0.02853497508099977 1:2 2:0 3:590.18298 4:0.01878 
1 1:2 2:1 3:398.63901 4:0.017739 
0.02842018026972613 1:5 2:1 3:228.86702 4:0.03949 
0.02903653937253721 1:5 2:1 3:1196.2836 4:0.015249 
-0.9708399833029818 1:4 2:1 3:4583.7803 4:0.023328 
-0.9713894589709453 1:0 2:1 3:568.21381 4:0.038783 
0.02839086303563096 1:9 2:1 3:881.04571 4:0.009767 
0.02868964280441161 1:2 2:1 3:3948.0073 4:0.022925 
0.0286107515800823 1:12 2:1 3:442.5748 4:0.031653 
0.02858306204924693 1:0 2:1 3:248.66318 4:0.043385 
0.02916047721686568 1:7 2:1 3:800.05133 4:0.021834 
0.02865360235430892 1:7 2:1 3:3012.1274 4:0.017196 
0.02081441524461409 1:3 2:1 3:870.72296 4:0.021694 
0.02859268606250275 1:5 2:1 3:596.24262 4:0.023255 
0.02842151932503214 1:5 2:1 3:552.27222 4:0.025702 
0.02204400011284587 1:5 2:1 3:871.32562 4:0.019139 
0.02920835418478125 1:0 2:1 3:694.47742 4:0.014563 
0.02839715055121208 1:0 2:1 3:200.09001 4:0.022936 
0.02844806246001563 1:8 2:1 3:529.72784 4:0.01907 
0.02839485286309152 1:2 2:0 3:2012.1512 4:0.013489 
0.02866358527320434 1:10 2:1 3:850.95929 4:0.020216 
0.0137755636529322 1:0 2:1 3:768.0473 4:0.02633 
0.02839965079376764 1:0 2:0 3:459.62476 4:0.018689 
0.02915959503790659 1:3 2:1 3:682.61542 4:0.022125 
0.01574954322306523 1:0 2:1 3:767.72119 4:0.029818 
0.02690290682672338 1:7 2:0 3:567.7085 4:0.029027 
0.02841348805648318 1:5 2:0 3:1923.7953 4:0.022152 
0.02842171431126709 1:0 2:0 3:2342.4438 4:0.022825 
0.02919694450185967 1:5 2:1 3:601.82971 4:0.029616 
0.02910503698176622 1:0 2:1 3:6078.5239 4:0.03027 
0.02910838027697669 1:5 2:1 3:1655.2334 4:0.019101 
0.02915997218911121 1:0 2:1 3:797.86145 4:0.022342 
0.02903653928848555 1:2 2:0 3:2360.9907 4:0.012635 
0.02948151651974994 1:0 2:1 3:667.60211 4:0.020593 
0.0291656637448348 1:8 2:1 3:610.76752 4:0.02256 
0.02762990551638479 1:2 2:0 3:475.0296 4:0.020635 
0.02835214117086991 1:0 2:1 3:2689.7979 4:0.029963 
0.02920861405880274 1:0 2:1 3:3298.5713 4:0.032625 
0.02858306213772532 1:5 2:1 3:3204.7935 4:0.011023 
0.02868225695452302 1:3 2:1 3:506.10291 4:0.023571 
0.02842851810911787 1:0 2:1 3:2666.9524 4:0.019401 
0.02839734838734961 1:0 2:1 3:354.80908 4:0.039756 
0.02903653924991077 1:0 2:0 3:330.05197 4:0.01902 
0.02868750351531362 1:2 2:0 3:635.41363 4:0.014989 
0.0263472612353663 1:5 2:1 3:479.36807 4:0.015786 
0.02839127355147527 1:5 2:1 3:147.18599 4:0.036205 
0.02842851810911457 1:1 2:1 3:888.4707 4:0.01757 
0.02910808155317237 1:5 2:1 3:1079.5116 4:0.022006 
0.02839965079376765 1:7 2:1 3:2167.0908 4:0.014357 
0.02860412327361146 1:8 2:1 3:1636.6272 4:0.016317 
0.0291538957090367 1:2 2:1 3:319.84677 4:0.023703 
0.02860319525098331 1:10 2:1 3:402.14963 4:0.017483 
0.02837847639809626 1:1 2:1 3:444.22903 4:0.025977 
0.02688379275929392 1:10 2:1 3:568.70892 4:0.016222 
0.02817497415495188 1:0 2:1 3:371.97244 4:0.021718 
0.02842151932692031 1:8 2:1 3:6455.0381 4:0.019284 
0.02839085975344165 1:10 2:1 3:626.05267 4:0.019318 
0.02838910459823021 1:7 2:1 3:502.02637 4:0.017647 
0.02842171431046875 1:3 2:1 3:905.76196 4:0.010755 
0.02897474591031161 1:5 2:1 3:728.33258 4:0.023067 
0.02915296249741057 1:10 2:1 3:290.28839 4:0.034394 
0.02910732316777727 1:4 2:1 3:689.09216 4:0.017136 
0.02910833638653008 1:0 2:0 3:2369.6111 4:0.013531 
0.02910503698176622 1:8 2:1 3:1131.85 4:0.032965 
0.02834973029199105 1:5 2:1 3:2690.9695 4:0.010502 
0.02840212422287888 1:7 2:1 3:3133.0188 4:0.01127 
-0.9708241473344021 1:3 2:1 3:671.90271 4:0.024424 
0.02838950278102847 1:0 2:1 3:1074.9319 4:0.025715 
0.02860336355711314 1:5 2:1 3:1693.8639 4:0.017622 
0.02812862390879899 1:0 2:1 3:537.10272 4:0.01313 
0.02920872437693111 1:3 2:1 3:515.8432 4:0.01913 
0.02847672163401338 1:0 2:1 3:1533.7312 4:0.017524 
0.02842136553335348 1:3 2:1 3:736.91437 4:0.025899 
