svm_type nu_svr
kernel_type rbf
gamma 0.333333
nr_class 2
total_sv 53
rho -0.108522
SV
-0.1084089173655075 0:0 1:1 2:1015 3:0.01777 
1 0:0 1:1 2:1034 3:0.012251 
0.2346054321788666 0:0 1:1 2:745 3:0.016227 
0.5575432771786454 0:0 1:0 2:956 3:0.017125 
0.3838031218600529 0:7 1:1 2:1304 3:0.016676 
-0.441235165109816 0:7 1:1 2:777 3:0.007606 
0.7245759106588376 0:3 1:1 2:1114 3:0.024521 
-0.1087519294891803 0:12 1:0 2:798 3:0.019292 
0.2244020602692306 0:7 1:1 2:960 3:0.01536 
0.724534973145898 0:0 1:1 2:841 3:0.023468 
0.7243920672166394 0:8 1:1 2:856 3:0.018424 
-0.592720341535647 0:7 1:1 2:905 3:0.012156 
0.5578518833718455 0:0 1:1 2:1102 3:0.011828 
0.5579065996766703 0:7 1:1 2:1033 3:0.025003 
-0.4415205146389045 0:0 1:1 2:1034 3:0.012251 
0.3911216575975015 0:0 1:1 2:1229 3:0.024241 
0.05779373587383836 0:2 1:1 2:677 3:0.021674 
0.8900898709925396 0:0 1:1 2:1154 3:0.017748 
-1 0:2 1:1 2:272 3:0.002271 
0.05780527218205973 0:5 1:1 2:1284 3:0.02349 
0.3926339981983749 0:5 1:1 2:1006 3:0.033737 
0.3910586306167621 0:5 1:1 2:1234 3:0.025695 
-0.108279278989692 0:8 1:1 2:1140 3:0.017725 
-0.6095439647706891 0:0 1:1 2:1049 3:0.019303 
-0.6078741162845008 0:0 1:1 2:814 3:0.009613 
-0.7745500121759195 0:11 1:1 2:1260 3:0.015145 
-1 0:0 1:0 2:956 3:0.017125 
0.3893230428676976 0:2 1:1 2:1187 3:0.015838 
0.0579150863809099 0:2 1:1 2:1091 3:0.014183 
0.8906258758876652 0:10 1:1 2:762 3:0.021499 
0.5573441933396528 0:10 1:1 2:933 3:0.024319 
-0.2833723465932518 0:0 1:0 2:742 3:0.011465 
-1 0:10 1:1 2:616 3:0.004951 
-0.2745371855192422 0:12 1:0 2:901 3:0.026871 
-0.6078814738633094 0:0 1:0 2:657 3:0.010741 
-1 0:10 1:0 2:1170 3:0.013789 
-0.5927490564860798 0:4 1:0 2:906 3:0.01951 
0.3889089011183574 0:4 1:0 2:1153 3:0.021692 
-0.274548349878601 0:2 1:1 2:964 3:0.014866 
0.2244182017581666 0:2 1:0 2:1260 3:0.01878 
0.8918892066151299 0:2 1:1 2:1053 3:0.017739 
0.55232784247422 0:5 1:1 2:1307 3:0.03949 
0.224083246469607 0:5 1:1 2:868 3:0.015249 
-1 0:4 1:1 2:1070 3:0.023328 
-1 0:0 1:1 2:1322 3:0.038783 
0.3911774245326005 0:9 1:1 2:982 3:0.009767 
0.3910733838702344 0:2 1:1 2:920 3:0.022925 
-0.4412076674453118 0:12 1:1 2:1320 3:0.031653 
0.05734986196802432 0:0 1:1 2:1082 3:0.043385 
-0.1132507796911926 0:7 1:1 2:1003 3:0.021834 
-0.2750342246294703 0:7 1:1 2:830 3:0.017196 
-0.2746816950540145 0:3 1:1 2:1098 3:0.021694 
0.04359226122030179 0:5 1:1 2:1186 3:0.023255 
