svm_type nu_svr
kernel_type rbf
gamma 0.333333
nr_class 2
total_sv 52
rho -0.136208
SV
-0.1272885261150318 0:0 1:1 2:0.01777 3:190 
1 0:0 1:1 2:0.012251 3:140 
0.196504522132089 0:0 1:1 2:0.016227 3:170 
0.5217177143707425 0:0 1:0 2:0.017125 3:185 
0.3907994143649212 0:7 1:1 2:0.016676 3:101 
-0.4604660080339982 0:7 1:1 2:0.007606 3:52 
0.6884007942005947 0:3 1:1 2:0.024521 3:265 
-0.23432338398639 0:12 1:0 2:0.019292 3:220 
0.1885270287440625 0:7 1:1 2:0.01536 3:73 
0.6884047409148717 0:0 1:1 2:0.023468 3:255 
1 0:8 1:1 2:0.018424 3:190 
-0.6272068971240531 0:7 1:1 2:0.012156 3:155 
0.5218505898618311 0:0 1:1 2:0.011828 3:80 
0.5210631942255035 0:7 1:1 2:0.025003 3:275 
-0.3375076310460267 0:0 1:1 2:0.012251 3:140 
0.27450495911282 0:0 1:1 2:0.024241 3:125 
0.02184751310398845 0:2 1:1 2:0.021674 3:175 
0.8497248095333443 0:0 1:1 2:0.017748 3:160 
-1 0:2 1:1 2:0.002271 3:59 
0.02028963820260665 0:5 1:1 2:0.02349 3:160 
0.3753456909819418 0:5 1:1 2:0.033737 3:148 
0.3564499360397525 0:5 1:1 2:0.025695 3:170 
-0.4208385906995653 0:8 1:1 2:0.017725 3:175 
-0.6274241965465523 0:0 1:1 2:0.019303 3:135 
-0.6272467288686896 0:0 1:1 2:0.009613 3:70 
-1 0:0 1:0 2:0.017125 3:185 
0.3551696438381746 0:2 1:1 2:0.015838 3:200 
-0.03061851923357789 0:2 1:1 2:0.014183 3:170 
0.8548958523464742 0:10 1:1 2:0.021499 3:290 
0.56612539133799 0:10 1:1 2:0.024319 3:220 
-0.293932108919306 0:0 1:0 2:0.011465 3:120 
-0.656974061406628 0:10 1:1 2:0.004951 3:45 
-0.2939253187820615 0:12 1:0 2:0.026871 3:150 
-0.627083043918062 0:0 1:0 2:0.010741 3:115 
-0.6569740632551279 0:10 1:0 2:0.013789 3:45 
-0.8668755473476354 0:4 1:0 2:0.01951 3:150 
0.3550215042865527 0:4 1:0 2:0.021692 3:230 
-0.4684069335711099 0:2 1:1 2:0.014866 3:140 
0.0267815137228845 0:2 1:0 2:0.01878 3:160 
0.8547444529190561 0:2 1:1 2:0.017739 3:250 
0.5218280136034364 0:5 1:1 2:0.03949 3:280 
0.1883104846006339 0:5 1:1 2:0.015249 3:165 
-1 0:4 1:1 2:0.023328 3:100 
-1 0:0 1:1 2:0.038783 3:129 
0.5710026243516676 0:9 1:1 2:0.009767 3:174 
0.2670149757380417 0:2 1:1 2:0.022925 3:126 
-0.4613895553024549 0:12 1:1 2:0.031653 3:165 
0.7059981410287435 0:0 1:1 2:0.043385 3:128 
-0.8437868433525041 0:7 1:1 2:0.021834 3:190 
-0.2939137113884399 0:7 1:1 2:0.017196 3:120 
-0.2938183311027857 0:3 1:1 2:0.021694 3:110 
0.3676768564372746 0:5 1:1 2:0.023255 3:150 
