svm_type nu_svr
kernel_type rbf
gamma 0.2
nr_class 2
total_sv 15
rho -0.320826
SV
-0.3428721054729571 1:0 2:1 3:516.24097 4:0.000534 5:190 
1 1:0 2:1 3:633.92914 4:0.000403 5:140 
0.01267067176041503 1:0 2:1 3:514.25031 4:0.000689 5:170 
-0.6539953282395851 1:0 2:0 3:398.70984 4:0.000513 5:185 
0.178949103858919 1:0 2:1 3:540.31665 4:0.000424 5:101 
-0.6538219154296887 1:0 2:1 3:558.74066 4:0.000298 5:52 
0.5121122717482262 1:0 2:1 3:615.01532 4:0.00064 5:265 
-0.3206576699016788 1:0 2:0 3:457.76593 4:0.000562 5:220 
0.01177951431979152 1:0 2:1 3:508.71634 4:0.00042 5:73 
0.5119574482893816 1:0 2:1 3:595.60547 4:0.000672 5:255 
0.5267469097653276 1:0 2:1 3:512.27393 4:0.000538 5:190 
-0.8203628866013069 1:0 2:1 3:472.09235 4:0.000511 5:155 
0.3455089717197962 1:0 2:1 3:485.67459 4:0.00026 5:80 
0.3454638269469067 1:0 2:1 3:525.77222 4:0.000658 5:275 
-0.6534788127635467 1:0 2:1 3:633.92914 4:0.000403 5:140 
