svm_type nu_svr
kernel_type rbf
gamma 0.25
nr_class 2
total_sv 53
rho -0.0769937
SV
-0.554594735119402 0:0 1:4 2:535.77716 3:0.01951 4:150 
-0.05482453902256727 0:1 1:7 2:800.05133 3:0.021834 4:190 
0.4005375333871772 0:0 1:5 2:428.13965 3:0.015085 4:225 
-0.5544116513452011 0:0 1:12 2:1324.5002 3:0.01502 4:67 
0.7337578729562113 0:0 1:12 2:562.80328 3:0.024701 4:138 
-1 0:0 1:0 2:568.21381 3:0.038783 4:129 
1 0:0 1:0 2:1017.2359 3:0.012251 4:140 
-1 0:0 1:0 2:1977.5859 3:0.005931 4:70 
0.4004914194541043 0:0 1:5 2:391.67111 3:0.025695 4:170 
0.9009979060270153 0:0 1:2 2:961.8056 3:0.014913 4:200 
0.7339868891097872 0:0 1:8 2:358.11847 3:0.018424 4:190 
-1 0:0 1:4 2:4583.7803 3:0.023328 4:100 
0.5672045109940007 0:0 1:7 2:379.2099 3:0.016127 4:225 
0.06762328172041632 0:0 1:5 2:276.49921 3:0.02349 4:160 
-0.3877446513452011 0:0 1:7 2:1040.3964 3:0.007606 4:52 
0.06715841945410431 0:0 1:2 2:561.47235 3:0.021674 4:175 
0.4004518949648631 0:0 1:4 2:373.483 3:0.021692 4:230 
-0.554594735119402 0:0 1:0 2:345.1481 3:0.019303 4:135 
-0.8879377892559812 0:1 1:5 2:552.27222 3:0.025702 4:190 
-1 0:0 1:2 2:3468.8306 3:0.002271 4:59 
0.2338671357759995 0:0 1:0 2:1216.2747 3:0.016227 4:170 
-0.3877974756897858 0:0 1:12 2:442.5748 3:0.031653 4:165 
-0.2215006162198814 0:0 1:0 2:1598.9414 3:0.011465 4:120 
-0.5546047892559813 0:0 1:0 2:3760.4128 3:0.010741 4:115 
0.5677350843465045 0:0 1:3 2:266.99597 3:0.029261 4:240 
-0.7213354259631938 0:0 1:7 2:977.36426 3:0.018771 4:145 
0.5673208891097872 0:0 1:7 2:283.00702 3:0.025003 4:275 
-0.05422316411705589 0:0 1:0 2:1328.2211 3:0.01777 4:190 
0.2338244194541043 0:0 1:5 2:1196.2836 3:0.015249 4:165 
0.4009979060270153 0:0 1:9 2:881.04571 3:0.009767 4:174 
0.4005341357759995 0:0 1:7 2:284.74152 3:0.016676 4:101 
0.4006538891097872 0:0 1:5 2:260.56043 3:0.033737 4:148 
-0.5543725408421574 0:0 1:7 2:676.60901 3:0.012156 4:155 
-0.05437254084215733 0:0 1:0 2:983.75049 3:0.01158 4:90 
0.06773508434650455 0:0 1:5 2:663.73047 3:0.016049 4:100 
0.5672045333871771 0:0 1:0 2:531.49121 3:0.016488 4:205 
0.5671584194541043 0:0 1:0 2:1001.5763 3:0.017125 4:185 
0.7338671357759995 0:0 1:0 2:276.96069 3:0.023468 4:255 
0.06711892641974579 0:1 1:5 2:596.24262 3:0.023255 4:150 
0.2338671357759995 0:0 1:2 2:590.18298 3:0.01878 4:160 
0.2342892817204163 0:0 1:2 2:1610.8887 3:0.012129 4:145 
-0.2215098473637666 0:1 1:3 2:870.72296 3:0.021694 4:110 
-0.2213354259631938 0:0 1:2 2:1151.014 3:0.014866 4:140 
-1 0:0 1:0 2:1001.5763 3:0.017125 4:185 
-0.05482453902256727 0:0 1:12 2:353.39954 3:0.019292 4:220 
0.9004248729562112 0:0 1:0 2:753.75763 3:0.017748 4:160 
-0.3877974756897858 0:0 1:0 2:1017.2359 3:0.012251 4:140 
-1 0:0 1:10 2:256.2449 3:0.013789 4:45 
-0.05483361621988143 0:0 1:8 2:521.31824 3:0.017725 4:175 
-0.7122746683120097 0:0 1:11 2:252.03314 3:0.015145 4:45 
0.9005375333871772 0:0 1:2 2:398.63901 3:0.017739 4:250 
0.9006538891097873 0:0 1:10 2:897.86102 3:0.021499 4:290 
-0.05510977329082803 0:0 1:5 2:2688.2241 3:0.009627 4:105 
