svm_type nu_svr
kernel_type rbf
gamma 0.25
nr_class 2
total_sv 53
rho -0.108598
SV
-0.1083474596826413 0:0 1:0 2:1784.5159 3:1015 4:190 
1 0:0 1:0 2:1899.0386 3:1034 4:140 
0.2245816020132773 0:0 1:0 2:1928.4839 3:745 4:170 
0.5578790469727741 0:0 1:0 2:1464.4348 3:956 4:185 
0.3908415999680828 0:0 1:7 2:1455.2574 3:1304 4:101 
-0.4415838159723646 0:0 1:7 2:2185.0735 3:777 4:52 
0.7245352526445519 0:0 1:3 2:1418.5193 3:1114 4:265 
-0.1078700479767545 0:0 1:12 2:1387.7516 3:798 4:220 
0.2243673964347803 0:0 1:7 2:1663.5341 3:960 4:73 
0.7244233681157398 0:0 1:0 2:1489.085 3:841 4:255 
0.7241640228528071 0:0 1:8 2:1459.4364 3:856 4:190 
-0.6082453757790778 0:0 1:7 2:1825.4937 3:905 4:155 
0.5574504594444687 0:0 1:0 2:1481.2729 3:1102 4:80 
0.557509373033986 0:0 1:7 2:1362.0447 3:1033 4:275 
-0.4415902523295498 0:0 1:0 2:1899.0386 3:1034 4:140 
0.3908006526369195 0:0 1:0 2:1219.8586 3:1229 4:125 
0.05789676222635592 0:0 1:2 2:1472.0798 3:677 4:175 
0.8908125457757761 0:0 1:0 2:1658.2784 3:1154 4:160 
-1 0:0 1:2 2:6199.2202 3:272 4:59 
0.05742066579112537 0:0 1:5 2:1440.207 3:1284 4:160 
0.3907936053029856 0:0 1:5 2:1309.333 3:1006 4:148 
0.3907945336946091 0:0 1:5 2:1445.6055 3:1234 4:170 
-0.1077841634744955 0:0 1:8 2:1545.4904 3:1140 4:175 
-0.6082569751569146 0:0 1:0 2:1192.4337 3:1049 4:135 
-0.608208255521512 0:0 1:0 2:4007.5034 3:814 4:70 
-0.7750144596826413 0:0 1:11 2:1273.736 3:1260 4:45 
-1 0:0 1:0 2:1464.4348 3:956 4:185 
0.390797703376782 0:0 1:2 2:1639.1249 3:1187 4:200 
0.05745785092334616 0:0 1:2 2:1672.0845 3:1091 4:170 
0.8911654877036888 0:0 1:10 2:1768.0786 3:762 4:290 
0.5574957771609318 0:0 1:10 2:1430.9865 3:933 4:220 
-0.2749124995818915 0:0 1:0 2:2025.5453 3:742 4:120 
-1 0:0 1:10 2:2617.1016 3:616 4:45 
-0.2749372184407238 0:0 1:12 2:1348.2349 3:901 4:150 
-0.6082169969389615 0:0 1:0 2:3196.9268 3:657 4:115 
-1 0:0 1:10 2:1194.8899 3:1170 4:45 
-0.6082758971097151 0:0 1:4 2:1591.6799 3:906 4:150 
0.3908306577330083 0:0 1:4 2:1368.2917 3:1153 4:230 
-0.2744796443559124 0:0 1:2 2:2055.8557 3:964 4:140 
0.2245249634412562 0:0 1:2 2:1633.4545 3:1260 4:160 
0.8909960009428417 0:0 1:2 2:1692.3934 3:1053 4:250 
0.557478729830823 0:0 1:5 2:1345.3405 3:1307 4:280 
0.2245816020132773 0:0 1:5 2:1887.9951 3:868 4:165 
-1 0:0 1:4 2:3143.0408 3:1070 4:100 
-1 0:0 1:0 2:1609.4563 3:1322 4:129 
0.3908749827692433 0:0 1:9 2:1932.5494 3:982 4:174 
0.3908041637064357 0:0 1:2 2:2951.2705 3:920 4:126 
-0.4416209902451064 0:0 1:12 2:1469.601 3:1320 4:165 
0.05751358319043676 0:0 1:0 2:1324.3845 3:1082 4:128 
-0.1079539763199373 0:1 1:7 2:1558.2727 3:1003 4:190 
-0.2744855871945953 0:1 1:7 2:2358.7581 3:830 4:120 
-0.2744780939715318 0:1 1:3 2:1624.9089 3:1098 4:110 
0.05746932003401516 0:1 1:5 2:1510.9131 3:1186 4:150 
