svm_type nu_svr
kernel_type rbf
gamma 0.25
nr_class 2
total_sv 53
rho -0.0767672
SV
-0.5543158610826594 0:0 1:4 2:906 3:0.01951 4:150 
-0.0539939173893161 0:1 1:7 2:1003 3:0.021834 4:190 
0.4002223729037117 0:0 1:5 2:1017 3:0.015085 4:225 
-0.5546124637582123 0:0 1:12 2:848 3:0.01502 4:67 
0.7335553729037116 0:0 1:12 2:1102 3:0.024701 4:138 
-1 0:0 1:0 2:1322 3:0.038783 4:129 
1 0:0 1:0 2:1034 3:0.012251 4:140 
-1 0:0 1:0 2:443 3:0.005931 4:70 
0.4008511207311087 0:0 1:5 2:1234 3:0.025695 4:170 
0.900934578506607 0:0 1:2 2:1079 3:0.014913 4:200 
0.7341841207311086 0:0 1:8 2:856 3:0.018424 4:190 
-1 0:0 1:4 2:1070 3:0.023328 4:100 
0.5676015785066071 0:0 1:7 2:1064 3:0.016127 4:225 
0.06706543524127634 0:0 1:5 2:1284 3:0.02349 4:160 
-0.3875808067985307 0:0 1:7 2:777 3:0.007606 4:52 
0.06749216059079306 0:0 1:2 2:677 3:0.021674 4:175 
0.4008511207311087 0:0 1:4 2:1153 3:0.021692 4:230 
-0.5539680619818934 0:0 1:0 2:1049 3:0.019303 4:135 
-0.8874126531260329 0:1 1:5 2:733 3:0.025702 4:190 
-1 0:0 1:2 2:272 3:0.002271 4:59 
0.233958550714409 0:0 1:0 2:745 3:0.016227 4:170 
-0.3875478487179834 0:0 1:12 2:1320 3:0.031653 4:165 
-0.2212404356968461 0:0 1:0 2:742 3:0.011465 4:120 
-0.5539939173893161 0:0 1:0 2:657 3:0.010741 4:115 
0.5672925507144091 0:0 1:3 2:988 3:0.029261 4:240 
-0.7212404356968461 0:0 1:7 2:857 3:0.018771 4:145 
0.567255774017573 0:0 1:7 2:1033 3:0.025003 4:275 
-0.05399391738931609 0:0 1:0 2:1015 3:0.01777 4:190 
0.2339217740175729 0:0 1:5 2:868 3:0.015249 4:165 
0.4005887740175729 0:0 1:9 2:982 3:0.009767 4:174 
0.4003984352412763 0:0 1:7 2:1304 3:0.016676 4:101 
0.400825160590793 0:0 1:5 2:1006 3:0.033737 4:148 
-0.5538246319201409 0:0 1:7 2:905 3:0.012156 4:155 
-0.05399391738931609 0:0 1:0 2:899 3:0.01158 4:90 
0.06746022680439323 0:0 1:5 2:969 3:0.016049 4:100 
0.5671811675135187 0:0 1:0 2:1102 3:0.016488 4:205 
0.5672925507144091 0:0 1:0 2:956 3:0.017125 4:185 
0.7338471675135186 0:0 1:0 2:841 3:0.023468 4:255 
0.06746022680439323 0:1 1:5 2:1186 3:0.023255 4:150 
0.2338471675135187 0:0 1:2 2:1260 3:0.01878 4:160 
0.2339217740175729 0:0 1:2 2:1065 3:0.012129 4:145 
-0.2211335625612189 0:1 1:3 2:1098 3:0.021694 4:110 
-0.2209148067985307 0:0 1:2 2:964 3:0.014866 4:140 
-1 0:0 1:0 2:956 3:0.017125 4:185 
-0.05391246835748453 0:0 1:12 2:798 3:0.019292 4:220 
0.9006255507144091 0:0 1:0 2:1154 3:0.017748 4:160 
-0.3874692894192148 0:0 1:0 2:1034 3:0.012251 4:140 
-1 0:0 1:10 2:1170 3:0.013789 4:45 
-0.05396806198189345 0:0 1:8 2:1140 3:0.017725 4:175 
-0.7207466531260329 0:0 1:11 2:1260 3:0.015145 4:45 
0.9005141675135186 0:0 1:2 2:1053 3:0.017739 4:250 
0.9008511207311087 0:0 1:10 2:762 3:0.021499 4:290 
-0.05413628941921485 0:0 1:5 2:634 3:0.009627 4:105 
