svm_type nu_svr
kernel_type rbf
gamma 0.25
nr_class 2
total_sv 53
rho -0.0757476
SV
-0.5438743141118183 0:0 1:4 2:564.58441 3:0.000589 4:0.01951 
0.2392609297878841 0:1 1:7 2:470.82245 3:0.000697 4:0.021834 
0.3915878743197313 0:0 1:5 2:725.46198 3:0.000457 4:0.015085 
-0.5431565562879725 0:0 1:12 2:714.8045 3:0.000713 4:0.01502 
0.7253604016463272 0:0 1:12 2:669.13043 3:0.000791 4:0.024701 
-1 0:0 1:0 2:787.40277 3:0.001009 4:0.038783 
1 0:0 1:0 2:633.92914 3:0.000403 4:0.012251 
-1 0:0 1:0 2:447.74573 3:0.000277 4:0.005931 
0.3915380341790052 0:0 1:5 2:599.19843 3:0.000672 4:0.025695 
0.8919788223057358 0:0 1:2 2:1005.8044 3:0.000478 4:0.014913 
0.7021074957774198 0:0 1:8 2:512.27393 3:0.000538 4:0.018424 
-1 0:0 1:4 2:232.14264 3:0.000933 4:0.023328 
0.5587172306029421 0:0 1:7 2:866.62476 3:0.000449 4:0.016127 
0.05802275399689234 0:0 1:5 2:593.62805 3:0.000582 4:0.02349 
-0.3769912012461623 0:0 1:7 2:558.74066 3:0.000298 4:0.007606 
0.2178310085560203 0:0 1:2 2:452.17032 3:0.000716 4:0.021674 
0.3919937754815636 0:0 1:4 2:497.3168 3:0.000531 4:0.021692 
-0.5431173699518294 0:0 1:0 2:305.73157 3:0.000343 4:0.019303 
-0.8771216371768609 0:1 1:5 2:394.25983 3:0.000771 4:0.025702 
-1 0:0 1:2 2:644.00458 3:0.000154 4:0.002271 
0.2647924283480152 0:0 1:0 2:514.25031 3:0.000689 4:0.016227 
-0.3766001316459497 0:0 1:12 2:568.73761 3:0.000853 4:0.031653 
-0.2099718556854948 0:0 1:0 2:417.44363 3:0.00039 4:0.011465 
-0.5504973491467944 0:0 1:0 2:451.15335 3:0.000518 4:0.010741 
0.5495356978338017 0:0 1:3 2:525.13648 3:0.000634 4:0.029261 
-0.7098158697570064 0:0 1:7 2:406.57483 3:0.000434 4:0.018771 
0.549037692711379 0:0 1:7 2:525.77222 3:0.000658 4:0.025003 
-0.1416147829335215 0:0 1:0 2:516.24097 3:0.000534 4:0.01777 
0.2248137889688483 0:0 1:5 2:489.45871 3:0.000581 4:0.015249 
0.3920818540943726 0:0 1:9 2:530.43671 3:0.000334 4:0.009767 
0.3918624346422073 0:0 1:7 2:540.31665 3:0.000424 4:0.016676 
0.3452162316339709 0:0 1:5 2:513.64008 3:0.000857 4:0.033737 
-0.6674095894135177 0:0 1:7 2:472.09235 3:0.000511 4:0.012156 
-0.04388210271281909 0:0 1:0 2:742.38281 3:0.000415 4:0.01158 
0.0586581248897295 0:0 1:5 2:482.72513 3:0.000501 4:0.016049 
0.5585266023772988 0:0 1:0 2:622.1748 3:0.000535 4:0.016488 
0.5581616178032609 0:0 1:0 2:398.70984 3:0.000513 4:0.017125 
0.725655828417493 0:0 1:0 2:595.60547 3:0.000672 4:0.023468 
0.05856620962547963 0:1 1:5 2:456.8219 3:0.000876 4:0.023255 
0.1072288881899165 0:0 1:2 2:635.51575 3:0.000602 4:0.01878 
0.2252045138836281 0:0 1:2 2:731.3606 3:0.000475 4:0.012129 
-0.2099718556854948 0:1 1:3 2:434.06674 3:0.000818 4:0.021694 
-0.2097844204121153 0:0 1:2 2:662.53265 3:0.000613 4:0.014866 
-1 0:0 1:0 2:398.70984 3:0.000513 4:0.017125 
-0.04379351198092274 0:0 1:12 2:457.76593 3:0.000562 4:0.019292 
0.8880029290310638 0:0 1:0 2:510.10651 3:0.000593 4:0.017748 
-0.3980255019105509 0:0 1:0 2:633.92914 3:0.000403 4:0.012251 
-1 0:0 1:10 2:235.69646 3:0.000326 4:0.013789 
-0.04320082396158227 0:0 1:8 2:519.73486 3:0.000505 4:0.017725 
-0.7103782887637886 0:0 1:11 2:314.22421 3:0.000383 4:0.015145 
0.8918624346440124 0:0 1:2 2:754.89471 3:0.000505 4:0.017739 
0.8923943962520007 0:0 1:10 2:660.87097 3:0.000707 4:0.021499 
-0.05079283721579839 0:0 1:5 2:530.69006 3:0.000435 4:0.009627 
