svm_type nu_svr
kernel_type rbf
gamma 0.2
nr_class 2
total_sv 110
rho 0.0282904
SV
0.02857075357239014 1:0 2:1 3:1328.2211 4:122.42004 5:0.000534 
0.02799532398486038 1:0 2:1 3:1216.2747 4:184.08177 5:0.000689 
0.02800470989308645 1:0 2:1 3:284.74152 4:187.60159 5:0.000424 
0.02832534494341588 1:0 2:1 3:1040.3964 4:174.87781 5:0.000298 
0.02832534494375827 1:0 2:1 3:256.99347 4:179.7747 5:0.00064 
0.028162180097418 1:0 2:0 3:353.39954 4:245.15866 5:0.000562 
0.02832534494375827 1:0 2:1 3:724.33752 4:111.76267 5:0.00042 
0.0283051504688514 1:0 2:1 3:276.96069 4:258.78903 5:0.000672 
0.02792612316535403 1:0 2:1 3:358.11847 4:243.40955 5:0.000538 
0.02800426937393055 1:0 2:1 3:676.60901 4:108.40743 5:0.000511 
0.02832031427469417 1:0 2:1 3:338.77457 4:154.93671 5:0.00026 
0.02817509258920081 1:0 2:1 3:283.00702 4:134.63148 5:0.000658 
0.02832534494375838 1:0 2:1 3:1017.2359 4:211.1675 5:0.000403 
0.02864114056824085 1:0 2:1 3:280.64706 4:125.32471 5:0.000706 
0.0283203140144318 1:0 2:1 3:561.47235 4:317.07281 5:0.000716 
1 1:0 2:1 3:753.75763 4:187.0966 5:0.000593 
-0.9711440985134161 1:0 2:1 3:3468.8306 4:152.31142 5:0.000154 
0.02832534494375838 1:0 2:1 3:276.49921 4:156.18234 5:0.000582 
0.02814550531255466 1:0 2:1 3:260.56043 4:137.77418 5:0.000857 
0.02809985069303389 1:0 2:1 3:391.67111 4:169.74104 5:0.000672 
0.02816505083769338 1:0 2:1 3:521.31824 4:110.60689 5:0.000505 
0.02832031455455686 1:0 2:1 3:345.1481 4:117.79584 5:0.000343 
0.02807649242110088 1:0 2:1 3:5365.5361 4:93.960075 5:0.000411 
0.02815999498315924 1:0 2:1 3:252.03314 4:62.218277 5:0.000383 
0.02848706677835289 1:0 2:0 3:1001.5763 4:194.78667 5:0.000513 
0.02816504181154456 1:0 2:1 3:478.60736 4:272.56207 5:0.000429 
0.0283203140144318 1:0 2:1 3:626.1297 4:233.00282 5:0.000451 
1 1:0 2:1 3:897.86102 4:212.32161 5:0.000707 
0.02832031401443179 1:0 2:1 3:390.26743 4:219.63496 5:0.000586 
0.02832031427469416 1:0 2:0 3:1598.9414 4:168.61116 5:0.00039 
-0.9715129332216471 1:0 2:1 3:1057.3951 4:122.04619 5:0.00024 
0.02799536919816574 1:0 2:0 3:238.24316 4:251.46826 5:0.000452 
0.02832031452041058 1:0 2:0 3:3760.4128 4:100.71413 5:0.000518 
-0.971052785403506 1:0 2:0 3:256.2449 4:40.574505 5:0.000326 
0.02832031455455748 1:0 2:0 3:535.77716 4:196.95021 5:0.000589 
0.02864466019365965 1:0 2:0 3:373.483 4:290.93979 5:0.000531 
0.02832534494341589 1:0 2:1 3:1151.014 4:137.8206 5:0.000613 
0.02864466019365961 1:0 2:0 3:590.18298 4:173.51231 5:0.000602 
1 1:0 2:1 3:398.63901 4:131.64836 5:0.000505 
0.02862706341190457 1:0 2:1 3:228.86702 4:164.6559 5:0.000853 
0.02857075357239017 1:0 2:1 3:1196.2836 4:118.39919 5:0.000581 
-0.9711913083997309 1:0 2:1 3:4583.7803 4:44.069962 5:0.000933 
-0.971824907129044 1:0 2:1 3:568.21381 4:572.40143 5:0.001009 
0.02831398313110482 1:0 2:1 3:881.04571 4:111.65286 5:0.000334 
0.0283253449435871 1:0 2:1 3:3948.0073 4:168.07809 5:0.000819 
0.02773379871513565 1:0 2:1 3:442.5748 4:211.117 5:0.000853 
0.02832031449265386 1:0 2:1 3:248.66318 4:246.04076 5:0.001194 
0.02771183302739755 1:1 2:1 3:800.05133 4:92.28968 5:0.000697 
0.02766721390338509 1:1 2:1 3:3012.1274 4:91.326851 5:0.000637 
0.02771183302476074 1:1 2:1 3:870.72296 4:114.43704 5:0.000818 
0.02765081646299111 1:1 2:1 3:596.24262 4:148.28641 5:0.000876 
0.02800426998474892 1:1 2:1 3:552.27222 4:138.30226 5:0.000771 
0.02799532398486033 1:1 2:1 3:871.32562 4:134.92932 5:0.00073 
0.02766721318539921 1:1 2:1 3:694.47742 4:73.443481 5:0.000549 
0.02807162501931226 1:1 2:1 3:200.09001 4:75.059196 5:0.00056 
0.02816492195717438 1:1 2:1 3:529.72784 4:72.823708 5:0.000775 
0.02807398584229913 1:1 2:0 3:2012.1512 4:150.36011 5:0.000551 
0.02814550531255461 1:1 2:1 3:850.95929 4:91.247353 5:0.000774 
0.02862706341190457 1:1 2:1 3:768.0473 4:120.21809 5:0.000658 
0.02857075357239017 1:1 2:0 3:459.62476 4:84.585358 5:0.000589 
0.02832031357539928 1:1 2:1 3:682.61542 4:101.42107 5:0.000664 
0.02832031397729884 1:1 2:1 3:767.72119 4:105.6449 5:0.000865 
0.02832031383730616 1:1 2:0 3:567.7085 4:64.040039 5:0.001064 
0.02832031383730616 1:1 2:0 3:1923.7953 4:68.875267 5:0.000683 
0.02816504163202262 1:1 2:0 3:2342.4438 4:149.2966 5:0.000748 
0.0280739858417702 1:1 2:1 3:601.82971 4:90.997894 5:0.000758 
0.02832031383730616 1:1 2:1 3:6078.5239 4:247.03374 5:0.001417 
0.02830515046885138 1:1 2:1 3:1655.2334 4:113.12672 5:0.000766 
0.02832031397729884 1:1 2:1 3:797.86145 4:121.96153 5:0.000767 
0.0283203051805891 1:1 2:0 3:2360.9907 4:95.614876 5:0.000626 
0.02832031468773558 1:1 2:1 3:667.60211 4:88.994751 5:0.000814 
0.02815999498264569 1:1 2:1 3:610.76752 4:97.601379 5:0.000724 
0.02832030355379016 1:1 2:0 3:475.0296 4:99.353554 5:0.000723 
0.01590481617504686 1:1 2:1 3:2689.7979 4:129.24826 5:0.001007 
0.02832031441300636 1:1 2:1 3:3298.5713 4:78.399452 5:0.001106 
0.02832031449267789 1:1 2:1 3:3204.7935 4:121.17292 5:0.000473 
0.02799147636947843 1:1 2:1 3:506.10291 4:84.184044 5:0.000575 
0.02799532395653676 1:1 2:1 3:2666.9524 4:82.125359 5:0.000696 
0.02864466019365906 1:1 2:1 3:354.80908 4:109.8411 5:0.00131 
0.02864114083602621 1:1 2:0 3:330.05197 4:66.906998 5:0.000441 
0.02807649242110093 1:1 2:0 3:635.41363 4:111.23468 5:0.000727 
0.02832030377337315 1:1 2:1 3:479.36807 4:92.010223 5:0.000435 
0.02816504163202262 1:1 2:1 3:147.18599 4:65.945 5:0.000494 
0.02818042049515557 1:1 2:1 3:888.4707 4:47.813747 5:0.00046 
0.02831397164375895 1:1 2:1 3:1079.5116 4:107.93533 5:0.000599 
0.02832031401443179 1:1 2:1 3:2167.0908 4:77.674416 5:0.000571 
0.02832031397729884 1:1 2:1 3:1636.6272 4:111.05724 5:0.000662 
0.02834490719818645 1:1 2:1 3:319.84677 4:57.090328 5:0.00047 
0.02832031397729884 1:1 2:1 3:402.14963 4:97.889984 5:0.000464 
0.02773379871513565 1:1 2:1 3:444.22903 4:81.708939 5:0.000686 
0.0283253449435871 1:1 2:1 3:568.70892 4:99.147339 5:0.000559 
0.02800427034530846 1:1 2:1 3:371.97244 4:38.322647 5:0.000513 
0.02832031468464974 1:1 2:1 3:6455.0381 4:100.42133 5:0.000876 
0.02818042049515557 1:1 2:1 3:626.05267 4:82.794144 5:0.000634 
0.02799152155447693 1:1 2:1 3:502.02637 4:78.912949 5:0.00043 
0.02864114083602621 1:1 2:1 3:905.76196 4:94.83757 5:0.000421 
0.02862706341190457 1:1 2:1 3:728.33258 4:67.299492 5:0.000588 
0.02857075357239017 1:1 2:1 3:290.28839 4:92.750999 5:0.000756 
0.02832031351666992 1:1 2:1 3:689.09216 4:81.077324 5:0.000754 
0.02832030502678382 1:1 2:0 3:2369.6111 4:95.077652 5:0.000546 
0.02816504181154461 1:1 2:1 3:1131.85 4:133.02512 5:0.000748 
0.01626991708910449 1:1 2:1 3:2690.9695 4:129.31689 5:0.000409 
0.0283102187537185 1:1 2:1 3:3133.0188 4:125.35245 5:0.000342 
-0.9713553395533393 1:1 2:1 3:671.90271 4:98.256821 5:0.000787 
0.02832030346074611 1:1 2:1 3:1074.9319 4:100.68175 5:0.000827 
0.02800426998474892 1:1 2:1 3:1693.8639 4:88.509705 5:0.000584 
0.02809971794164623 1:1 2:1 3:537.10272 4:75.457474 5:0.000661 
0.02864114083743121 1:1 2:1 3:515.8432 4:53.817097 5:0.000468 
0.02862706341190457 1:1 2:1 3:1533.7312 4:67.587502 5:0.00086 
0.02800470989308648 1:1 2:1 3:736.91437 4:94.29567 5:0.00088 
