svm_type nu_svr
kernel_type rbf
gamma 0.25
nr_class 2
total_sv 53
rho -0.0756231
SV
-0.5083517848651373 0:0 1:4 2:0 3:906 4:0.01951 
-0.05270264073411806 0:1 1:7 2:1 3:1003 4:0.021834 
0.3896089853449678 0:0 1:5 2:1 3:1017 4:0.015085 
-0.5409017185134387 0:0 1:12 2:1 3:848 4:0.01502 
0.7228145129480006 0:0 1:12 2:1 3:1102 4:0.024701 
-1 0:0 1:0 2:1 3:1322 4:0.038783 
1 0:0 1:0 2:1 3:1034 4:0.012251 
-1 0:0 1:0 2:0 3:443 4:0.005931 
0.3895600269042696 0:0 1:5 2:1 3:1234 4:0.025695 
0.8894815135337339 0:0 1:2 2:1 3:1079 4:0.014913 
1 0:0 1:8 2:1 3:856 4:0.018424 
-1 0:0 1:4 2:1 3:1070 4:0.023328 
0.5560457075751435 0:0 1:7 2:1 3:1064 4:0.016127 
0.05624678518098446 0:0 1:5 2:1 3:1284 4:0.02349 
-0.3742638198349055 0:0 1:7 2:1 3:777 4:0.007606 
0.0565108778297549 0:0 1:2 2:1 3:677 4:0.021674 
0.3797612185538449 0:0 1:4 2:0 3:1153 4:0.021692 
-0.546922405055867 0:0 1:0 2:1 3:1049 4:0.019303 
-0.8741633710122992 0:1 1:5 2:1 3:733 4:0.025702 
-1 0:0 1:2 2:1 3:272 4:0.002271 
0.2416247342195708 0:0 1:0 2:1 3:745 4:0.016227 
-0.3741726978793508 0:0 1:12 2:1 3:1320 4:0.031653 
-0.22743147416128 0:0 1:0 2:0 3:742 4:0.011465 
-0.5409056746642135 0:0 1:0 2:0 3:657 4:0.010741 
0.5563677400687738 0:0 1:3 2:1 3:988 4:0.029261 
-1 0:0 1:7 2:0 3:857 4:0.018771 
0.5562646413467407 0:0 1:7 2:1 3:1033 4:0.025003 
-0.04111696698531511 0:0 1:0 2:1 3:1015 4:0.01777 
0.2225783444082538 0:0 1:5 2:1 3:868 4:0.015249 
0.3895786954934862 0:0 1:9 2:1 3:982 4:0.009767 
0.3892562503768408 0:0 1:7 2:1 3:1304 4:0.016676 
0.3908067724625109 0:0 1:5 2:1 3:1006 4:0.033737 
-0.5083698657293059 0:0 1:7 2:1 3:905 4:0.012156 
-0.04090564568168013 0:0 1:0 2:1 3:899 4:0.01158 
0.05640987788433095 0:0 1:5 2:1 3:969 4:0.016049 
0.5566850019924714 0:0 1:0 2:1 3:1102 4:0.016488 
0.5565772662686528 0:0 1:0 2:0 3:956 4:0.017125 
0.7228306114340346 0:0 1:0 2:1 3:841 4:0.023468 
0.05622702690426954 0:1 1:5 2:1 3:1186 4:0.023255 
0.2229385818569056 0:0 1:2 2:0 3:1260 4:0.01878 
0.2231171257322696 0:0 1:2 2:1 3:1065 4:0.012129 
-0.2084096170864958 0:1 1:3 2:1 3:1098 4:0.021694 
-0.2070685977963073 0:0 1:2 2:1 3:964 4:0.014866 
-1 0:0 1:0 2:0 3:956 4:0.017125 
-0.04083037101272769 0:0 1:12 2:0 3:798 4:0.019292 
0.8856601190930293 0:0 1:0 2:1 3:1154 4:0.017748 
-0.3742407475853704 0:0 1:0 2:1 3:1034 4:0.012251 
-1 0:0 1:10 2:0 3:1170 4:0.013789 
-0.04090171645470441 0:0 1:8 2:1 3:1140 4:0.017725 
-0.7074736172864686 0:0 1:11 2:1 3:1260 4:0.015145 
0.8935499711531247 0:0 1:2 2:1 3:1053 4:0.017739 
0.8894976114340347 0:0 1:10 2:1 3:762 4:0.021499 
-0.04086726766101464 0:0 1:5 2:1 3:634 4:0.009627 
