svm_type nu_svr
kernel_type rbf
gamma 0.25
nr_class 2
total_sv 53
rho -0.108564
SV
-0.1083081101502285 0:0 1:1 2:1328.2211 3:122.42004 4:0.000534 
1 0:0 1:1 2:1017.2359 3:211.1675 4:0.000403 
0.2244449072304116 0:0 1:1 2:1216.2747 3:184.08177 4:0.000689 
0.5576215711860159 0:0 1:0 2:1001.5763 3:194.78667 4:0.000513 
0.3908330653456271 0:0 1:1 2:284.74152 3:187.60159 4:0.000424 
-0.4414949668367011 0:0 1:1 2:1040.3964 3:174.87781 4:0.000298 
0.7244990431449401 0:0 1:1 2:256.99347 3:179.7747 4:0.00064 
-0.1092937859633864 0:0 1:0 2:353.39954 3:245.15866 4:0.000562 
0.2241023094769833 0:0 1:1 2:724.33752 3:111.76267 4:0.00042 
0.7244695151307146 0:0 1:1 2:276.96069 3:258.78903 4:0.000672 
0.7243053308789577 0:0 1:1 2:358.11847 3:243.40955 4:0.000538 
-0.6079020139503424 0:0 1:1 2:676.60901 3:108.40743 4:0.000511 
0.5575039811724796 0:0 1:1 2:338.77457 3:154.93671 4:0.00026 
0.5578293270536101 0:0 1:1 2:283.00702 3:134.63148 4:0.000658 
-0.4416066356243247 0:0 1:1 2:1017.2359 3:211.1675 4:0.000403 
0.3911073617927525 0:0 1:1 2:280.64706 3:125.32471 4:0.000706 
0.05776427860919273 0:0 1:1 2:561.47235 3:317.07281 4:0.000716 
0.8907856761041478 0:0 1:1 2:753.75763 3:187.0966 4:0.000593 
-1 0:0 1:1 2:3468.8306 3:152.31142 4:0.000154 
0.05743630947698336 0:0 1:1 2:276.49921 3:156.18234 4:0.000582 
0.390955566990292 0:0 1:1 2:260.56043 3:137.77418 4:0.000857 
0.391127998582338 0:0 1:1 2:391.67111 3:169.74104 4:0.000672 
-0.1082846548733128 0:0 1:1 2:521.31824 3:110.60689 4:0.000505 
-0.6083081101502285 0:0 1:1 2:345.1481 3:117.79584 4:0.000343 
-0.607994376171431 0:0 1:1 2:5365.5361 3:93.960075 4:0.000411 
-0.7744292890491253 0:0 1:1 2:252.03314 3:62.218277 4:0.000383 
-1 0:0 1:0 2:1001.5763 3:194.78667 4:0.000513 
0.3908865173217693 0:0 1:1 2:478.60736 3:272.56207 4:0.000429 
0.05777513691611497 0:0 1:1 2:626.1297 3:233.00282 4:0.000451 
0.8911378374485722 0:0 1:1 2:897.86102 3:212.32161 4:0.000707 
0.5577670928255989 0:0 1:1 2:390.26743 3:219.63496 4:0.000586 
-0.2749575005130573 0:0 1:0 2:1598.9414 3:168.61116 4:0.00039 
-1 0:0 1:1 2:1057.3951 3:122.04619 4:0.00024 
-0.2749851972323468 0:0 1:0 2:238.24316 3:251.46826 4:0.000452 
-0.6082906522909998 0:0 1:0 2:3760.4128 3:100.71413 4:0.000518 
-1 0:0 1:0 2:256.2449 3:40.574505 4:0.000326 
-0.6080579879928827 0:0 1:0 2:535.77716 3:196.95021 4:0.000589 
0.3908354075341386 0:0 1:0 2:373.483 3:290.93979 4:0.000531 
-0.2748977822864078 0:0 1:1 2:1151.014 3:137.8206 4:0.000613 
0.2244592526662861 0:0 1:0 2:590.18298 3:173.51231 4:0.000602 
0.8908148514669629 0:0 1:1 2:398.63901 3:131.64836 4:0.000505 
0.5577714130945284 0:0 1:1 2:228.86702 3:164.6559 4:0.000853 
0.2244353029272484 0:0 1:1 2:1196.2836 3:118.39919 4:0.000581 
-1 0:0 1:1 2:4583.7803 3:44.069962 4:0.000933 
-1 0:0 1:1 2:568.21381 3:572.40143 4:0.001009 
0.391175136588006 0:0 1:1 2:881.04571 3:111.65286 4:0.000334 
0.3908975209009153 0:0 1:1 2:3948.0073 3:168.07809 4:0.000819 
-0.4416478532805761 0:0 1:1 2:442.5748 3:211.117 4:0.000853 
0.05760447970713053 0:0 1:1 2:248.66318 3:246.04076 4:0.001194 
-0.1083157706686084 0:1 1:1 2:800.05133 3:92.28968 4:0.000697 
-0.2749767054709439 0:1 1:1 2:3012.1274 3:91.326851 4:0.000637 
-0.274417681687359 0:1 1:1 2:870.72296 3:114.43704 4:0.000818 
0.05782288261954466 0:1 1:1 2:596.24262 3:148.28641 4:0.000876 
