svm_type nu_svr
kernel_type rbf
gamma 0.25
nr_class 2
total_sv 53
rho -0.108598
SV
-0.1078700479769346 0:0 1:0 2:1015 3:516.24097 4:0.000534 
1 0:0 1:0 2:1034 3:633.92914 4:0.000403 
0.2245816020132809 0:0 1:0 2:745 3:514.25031 4:0.000689 
0.5578790469727957 0:0 1:0 2:956 3:398.70984 4:0.000513 
0.3908415999680847 0:0 1:7 2:1304 3:540.31665 4:0.000424 
-0.4415838159723605 0:0 1:7 2:777 3:558.74066 4:0.000298 
0.7245352526445474 0:0 1:3 2:1114 3:615.01532 4:0.00064 
-0.1083474596826418 0:0 1:12 2:798 3:457.76593 4:0.000562 
0.2243673964347827 0:0 1:7 2:960 3:508.71634 4:0.00042 
0.7244233681157219 0:0 1:0 2:841 3:595.60547 4:0.000672 
0.7241640228528081 0:0 1:8 2:856 3:512.27393 4:0.000538 
-0.6082453757790772 0:0 1:7 2:905 3:472.09235 4:0.000511 
0.5574504594444726 0:0 1:0 2:1102 3:485.67459 4:0.00026 
0.5575093730339855 0:0 1:7 2:1033 3:525.77222 4:0.000658 
-0.4415902523295379 0:0 1:0 2:1034 3:633.92914 4:0.000403 
0.3908006526369241 0:0 1:0 2:1229 3:348.40878 4:0.000706 
0.05789676222636127 0:0 1:2 2:677 3:452.17032 4:0.000716 
0.8908125457757814 0:0 1:0 2:1154 3:510.10651 4:0.000593 
-1 0:0 1:2 2:272 3:644.00458 4:0.000154 
0.05742066579112973 0:0 1:5 2:1284 3:593.62805 4:0.000582 
0.3907936053030488 0:0 1:5 2:1006 3:513.64008 4:0.000857 
0.3907945336946123 0:0 1:5 2:1234 3:599.19843 4:0.000672 
-0.1077841634744932 0:0 1:8 2:1140 3:519.73486 4:0.000505 
-0.608256975156915 0:0 1:0 2:1049 3:305.73157 4:0.000343 
-0.6082082555215087 0:0 1:0 2:814 3:469.89963 4:0.000411 
-0.7750144596826418 0:0 1:11 2:1260 3:314.22421 4:0.000383 
-1 0:0 1:0 2:956 3:398.70984 4:0.000513 
0.3907977033767842 0:0 1:2 2:1187 3:660.32135 4:0.000429 
0.05745785092334769 0:0 1:2 2:1091 3:541.71991 4:0.000451 
0.8911654877036799 0:0 1:10 2:762 3:660.87097 4:0.000707 
0.5574957771609291 0:0 1:10 2:933 3:526.19269 4:0.000586 
-0.2749124995818996 0:0 1:0 2:742 3:417.44363 4:0.00039 
-1 0:0 1:10 2:616 3:455.86713 4:0.00024 
-0.2749372184407252 0:0 1:12 2:901 3:599.3794 4:0.000452 
-0.608216996938967 0:0 1:0 2:657 3:451.15335 4:0.000518 
-1 0:0 1:10 2:1170 3:235.69646 4:0.000326 
-0.6082758971097122 0:0 1:4 2:906 3:564.58441 4:0.000589 
0.390830657733005 0:0 1:4 2:1153 3:497.3168 4:0.000531 
-0.2744796443559084 0:0 1:2 2:964 3:662.53265 4:0.000613 
0.2245249634412594 0:0 1:2 2:1260 3:635.51575 4:0.000602 
0.8909960009428429 0:0 1:2 2:1053 3:754.89471 4:0.000505 
0.5574787298308236 0:0 1:5 2:1307 3:598.44568 4:0.000853 
0.2245816020132809 0:0 1:5 2:868 3:489.45871 4:0.000581 
-1 0:0 1:4 2:1070 3:232.14264 4:0.000933 
-1 0:0 1:0 2:1322 3:787.40277 4:0.001009 
0.3908749827692455 0:0 1:9 2:982 3:530.43671 4:0.000334 
0.3908041637064589 0:0 1:2 2:920 3:705.53766 4:0.000819 
-0.4416209902451045 0:0 1:12 2:1320 3:568.73761 4:0.000853 
0.05751358319044907 0:0 1:0 2:1082 3:520.5058 4:0.001194 
-0.1079539763199146 0:1 1:7 2:1003 3:470.82245 4:0.000697 
-0.2744855871945925 0:1 1:7 2:830 3:433.52792 4:0.000637 
-0.2744780939715273 0:1 1:3 2:1098 3:434.06674 4:0.000818 
0.05746932003401799 0:1 1:5 2:1186 3:456.8219 4:0.000876 
