svm_type nu_svr
kernel_type rbf
gamma 0.25
nr_class 2
total_sv 53
rho -0.0732135
SV
-0.5421535253120296 0:0 1:4 2:0 3:196.95021 4:150 
-0.04204917755030096 0:1 1:7 2:1 3:92.28968 4:190 
0.3952378874164472 0:0 1:5 2:1 3:140.46902 4:225 
-0.5416667248998633 0:0 1:12 2:1 3:126.06876 4:67 
0.7292088867942419 0:0 1:12 2:1 3:228.85782 4:138 
-1 0:0 1:0 2:1 3:572.40143 4:129 
1 0:0 1:0 2:1 3:211.1675 4:140 
-1 0:0 1:0 2:0 3:239.30429 4:70 
0.3953404836929368 0:0 1:5 2:1 3:169.74104 4:170 
0.8959279970469536 0:0 1:2 2:1 3:446.46307 4:200 
0.7288792748069788 0:0 1:8 2:1 3:243.40955 4:190 
-1 0:0 1:4 2:1 3:44.069962 4:100 
0.5624395922737579 0:0 1:7 2:1 3:211.8461 4:225 
0.06282576757812502 0:0 1:5 2:1 3:156.18234 4:160 
-0.3749997248998633 0:0 1:7 2:1 3:174.87781 4:52 
0.06213502166184415 0:0 1:2 2:1 3:317.07281 4:175 
0.3952579750413812 0:0 1:4 2:0 3:290.93979 4:230 
-0.542154252662885 0:0 1:0 2:1 3:117.79584 4:135 
-0.8752463504939336 0:1 1:5 2:1 3:138.30226 4:190 
-1 0:0 1:2 2:1 3:152.31142 4:59 
0.2288108310703753 0:0 1:0 2:1 3:184.08177 4:170 
-0.3756525343922065 0:0 1:12 2:1 3:211.117 4:165 
-0.2087782864802489 0:0 1:0 2:0 3:168.61116 4:120 
-0.5423195343922065 0:0 1:0 2:0 3:100.71413 4:115 
0.5625428867942419 0:0 1:3 2:1 3:171.88068 4:240 
-0.7090402238922658 0:0 1:7 2:0 3:201.55022 4:145 
0.5622132748069788 0:0 1:7 2:1 3:134.63148 4:275 
-0.0421542526628849 0:0 1:0 2:1 3:122.42004 4:190 
0.2291661629005463 0:0 1:5 2:1 3:118.39919 4:165 
0.5266822745756015 0:0 1:9 2:1 3:111.65286 4:174 
0.3954680216618441 0:0 1:7 2:1 3:187.60159 4:101 
0.3952579775140278 0:0 1:5 2:1 3:137.77418 4:148 
-0.5421112864802489 0:0 1:7 2:1 3:108.40743 4:155 
-0.04166756450300825 0:0 1:0 2:1 3:131.70177 4:90 
0.06283997330551598 0:0 1:5 2:1 3:165.8728 4:100 
0.5625001629005465 0:0 1:0 2:1 3:136.17122 4:205 
0.5624395922737579 0:0 1:0 2:0 3:194.78667 4:185 
0.7285909750413809 0:0 1:0 2:1 3:258.78903 4:255 
0.06186943874123899 0:1 1:5 2:1 3:148.28641 4:150 
0.2292609970469407 0:0 1:2 2:0 3:173.51231 4:160 
0.2291663002002732 0:0 1:2 2:1 3:184.23686 4:145 
-0.208821252662885 0:1 1:3 2:1 3:114.43704 4:110 
-0.2085803552013828 0:0 1:2 2:1 3:137.8206 4:140 
-1 0:0 1:0 2:0 3:194.78667 4:185 
-0.04211128648024887 0:0 1:12 2:0 3:245.15866 4:220 
0.8954778310713296 0:0 1:0 2:1 3:187.0966 4:160 
-0.3754442864802489 0:0 1:0 2:1 3:211.1675 4:140 
-1 0:0 1:10 2:0 3:40.574505 4:45 
-0.2846656384999797 0:0 1:8 2:1 3:110.60689 4:175 
-0.7083345645030082 0:0 1:11 2:1 3:62.218277 4:45 
0.8952579750413809 0:0 1:2 2:1 3:131.64836 4:250 
0.8952024387413524 0:0 1:10 2:1 3:212.32161 4:290 
-0.04204917755030097 0:0 1:5 2:1 3:126.8499 4:105 
