svm_type nu_svr
kernel_type rbf
gamma 0.2
nr_class 2
total_sv 110
rho 0.0214416
SV
0.02144313335911141 1:0 2:0 3:1 4:1784.5159 5:0.01777 
0.02132397634088412 1:0 2:0 3:1 4:1928.4839 5:0.016227 
0.01692062343551193 1:0 2:7 3:1 4:1455.2574 5:0.016676 
0.02151909436524146 1:0 2:7 3:1 4:2185.0735 5:0.007606 
0.0215947601870381 1:0 2:3 3:1 4:1418.5193 5:0.024521 
0.02156075074216679 1:0 2:12 3:0 4:1387.7516 5:0.019292 
0.02158479642593353 1:0 2:7 3:1 4:1663.5341 5:0.01536 
0.02132386228455641 1:0 2:0 3:1 4:1489.085 5:0.023468 
0.01808185422653086 1:0 2:8 3:1 4:1459.4364 5:0.018424 
0.02151034776477245 1:0 2:7 3:1 4:1825.4937 5:0.012156 
0.02154185829103472 1:0 2:0 3:1 4:1481.2729 5:0.011828 
0.02160864253773576 1:0 2:7 3:1 4:1362.0447 5:0.025003 
0.02156076721931044 1:0 2:0 3:1 4:1899.0386 5:0.012251 
0.0214434575986997 1:0 2:0 3:1 4:1219.8586 5:0.024241 
0.02128368120057045 1:0 2:2 3:1 4:1472.0798 5:0.021674 
1 1:0 2:0 3:1 4:1658.2784 5:0.017748 
-0.9784896596558763 1:0 2:2 3:1 4:6199.2202 5:0.002271 
0.02105696232665799 1:0 2:5 3:1 4:1440.207 5:0.02349 
0.02157789951262444 1:0 2:5 3:1 4:1309.333 5:0.033737 
0.01662115711038281 1:0 2:5 3:1 4:1445.6055 5:0.025695 
0.02156973995755884 1:0 2:8 3:1 4:1545.4904 5:0.017725 
0.02005368614102832 1:0 2:0 3:1 4:1192.4337 5:0.019303 
0.02158014678748243 1:0 2:0 3:1 4:4007.5034 5:0.009613 
0.02144326135529395 1:0 2:11 3:1 4:1273.736 5:0.015145 
0.02079335083755651 1:0 2:0 3:0 4:1464.4348 5:0.017125 
0.02141054558795263 1:0 2:2 3:1 4:1639.1249 5:0.015838 
0.01542861342583436 1:0 2:2 3:1 4:1672.0845 5:0.014183 
1 1:0 2:10 3:1 4:1768.0786 5:0.021499 
0.01654171998049749 1:0 2:10 3:1 4:1430.9865 5:0.024319 
0.02156973995755931 1:0 2:0 3:0 4:2025.5453 5:0.011465 
-0.9784302600424407 1:0 2:10 3:1 4:2617.1016 5:0.004951 
0.02154177830682184 1:0 2:12 3:0 4:1348.2349 5:0.026871 
0.02151340368570036 1:0 2:0 3:0 4:3196.9268 5:0.010741 
-0.9784198761952149 1:0 2:10 3:0 4:1194.8899 5:0.013789 
0.02144269229780157 1:0 2:4 3:0 4:1591.6799 5:0.01951 
0.02151141487750242 1:0 2:4 3:0 4:1368.2917 5:0.021692 
0.01606374913797893 1:0 2:2 3:1 4:2055.8557 5:0.014866 
0.02141444184028436 1:0 2:2 3:0 4:1633.4545 5:0.01878 
1 1:0 2:2 3:1 4:1692.3934 5:0.017739 
0.02130499073926085 1:0 2:5 3:1 4:1345.3405 5:0.03949 
0.02154561214211892 1:0 2:5 3:1 4:1887.9951 5:0.015249 
-0.9784889598335422 1:0 2:4 3:1 4:3143.0408 5:0.023328 
-1 1:0 2:0 3:1 4:1609.4563 5:0.038783 
0.02159115612984965 1:0 2:9 3:1 4:1932.5494 5:0.009767 
0.02154561214212262 1:0 2:2 3:1 4:2951.2705 5:0.022925 
0.02143992249128032 1:0 2:12 3:1 4:1469.601 5:0.031653 
0.03945132422540742 1:0 2:0 3:1 4:1324.3845 5:0.043385 
0.02087269873134662 1:1 2:7 3:1 4:1558.2727 5:0.021834 
0.02151989299928353 1:1 2:7 3:1 4:2358.7581 5:0.017196 
0.02068702680070236 1:1 2:3 3:1 4:1624.9089 5:0.021694 
0.02137995494983085 1:1 2:5 3:1 4:1510.9131 5:0.023255 
0.01841499810977526 1:1 2:5 3:1 4:1378.2238 5:0.025702 
0.02136295666939808 1:1 2:5 3:1 4:1710.5525 5:0.019139 
0.01563401516599777 1:1 2:0 3:1 4:1671.8125 5:0.014563 
0.01824544883915705 1:1 2:0 3:1 4:1168.4712 5:0.022936 
0.02071653912317158 1:1 2:8 3:1 4:1532.8699 5:0.01907 
0.02151034034411847 1:1 2:2 3:0 4:2309.8469 5:0.013489 
0.0214438542218064 1:1 2:10 3:1 4:1750.1954 5:0.020216 
0.02159103261151134 1:1 2:0 3:1 4:1296.8911 5:0.02633 
0.02134102501503769 1:1 2:0 3:0 4:1348.8986 5:0.018689 
0.01554834840055981 1:1 2:3 3:1 4:1444.5995 5:0.022125 
0.02094693197879666 1:1 2:0 3:1 4:1433.3026 5:0.029818 
0.02082193314481012 1:1 2:7 3:0 4:1404.7344 5:0.029027 
0.01236420479553848 1:1 2:5 3:0 4:1848.2263 5:0.022152 
0.02071656689054219 1:1 2:0 3:0 4:2108.9033 5:0.022825 
0.02158007835361618 1:1 2:5 3:1 4:1397.0787 5:0.029616 
0.02068704827780029 1:1 2:0 3:1 4:5855.2632 5:0.03027 
0.02159476018582026 1:1 2:5 3:1 4:1794.0947 5:0.019101 
0.8374553459801195 1:1 2:0 3:1 4:1609.3247 5:0.022342 
0.02159946549376636 1:1 2:2 3:0 4:2492.2273 5:0.012635 
0.02163593023516643 1:1 2:0 3:1 4:1534.9164 5:0.020593 
0.01597516033361035 1:1 2:8 3:1 4:1431.9677 5:0.02256 
0.02043867486595307 1:1 2:2 3:0 4:1467.7281 5:0.020635 
0.01824041641330205 1:1 2:0 3:1 4:1991.5887 5:0.029963 
0.02151034776477257 1:1 2:0 3:1 4:2252.6785 5:0.032625 
0.02151989299928353 1:1 2:5 3:1 4:2573.2761 5:0.011023 
0.02150635713228254 1:1 2:3 3:1 4:1354.5868 5:0.023571 
0.01660880602796189 1:1 2:0 3:1 4:2056.8992 5:0.019401 
0.02138931794175871 1:1 2:0 3:1 4:1278.163 5:0.039756 
0.02159950105798042 1:1 2:0 3:0 4:1209.1361 5:0.01902 
0.02144326135558447 1:1 2:2 3:0 4:1837.3319 5:0.014989 
0.01811562027898276 1:1 2:5 3:1 4:1375.2025 5:0.015786 
0.0215806165169447 1:1 2:5 3:1 4:1076.4918 5:0.036205 
0.02159950105940433 1:1 2:1 3:1 4:1250.2844 5:0.01757 
0.02135909775104165 1:1 2:5 3:1 4:1496.0945 5:0.022006 
0.02157931648125016 1:1 2:7 3:1 4:2084.5735 5:0.014357 
0.02144385422178915 1:1 2:8 3:1 4:1919.8759 5:0.016317 
0.01814054892772268 1:1 2:2 3:1 4:1166.3569 5:0.023703 
0.02158221090010102 1:1 2:10 3:1 4:1304.9731 5:0.017483 
0.02457772507612883 1:1 2:1 3:1 4:1316.2446 5:0.025977 
0.02144313335502566 1:1 2:10 3:1 4:1520.1614 5:0.016222 
0.02071643484228046 1:1 2:0 3:1 4:1289.1174 5:0.021718 
0.02144529516302444 1:1 2:8 3:1 4:5618.0537 5:0.019284 
0.02127407737848654 1:1 2:10 3:1 4:1494.4624 5:0.019318 
0.02158496937371506 1:1 2:7 3:1 4:1183.6102 5:0.017647 
0.01843732044139162 1:1 2:3 3:1 4:1990.678 5:0.010755 
0.02135990143064356 1:1 2:5 3:1 4:1383.3499 5:0.023067 
0.02159474486792858 1:1 2:10 3:1 4:1284.7441 5:0.034394 
0.01329023957767202 1:1 2:4 3:1 4:1848.5742 5:0.017136 
0.02155349824307388 1:1 2:0 3:0 4:2132.7498 5:0.013531 
0.0108592221762433 1:1 2:8 3:1 4:1456.9016 5:0.032965 
0.02156970720377199 1:1 2:5 3:1 4:2338.5618 5:0.010502 
0.02158014678747686 1:1 2:7 3:1 4:2298.9255 5:0.01127 
-0.9792628182899097 1:1 2:3 3:1 4:1321.229 5:0.024424 
0.02159397062988497 1:1 2:0 3:1 4:1617.012 5:0.025715 
0.01720719250340604 1:1 2:5 3:1 4:1766.9111 5:0.017622 
0.02141613268085653 1:1 2:0 3:1 4:1769.5518 5:0.01313 
0.02031507817562106 1:1 2:3 3:1 4:1190.5663 5:0.01913 
0.02068704827780029 1:1 2:0 3:1 4:2009.7479 5:0.017524 
0.02096830950949602 1:1 2:3 3:1 4:1557.2062 5:0.025899 
