svm_type nu_svr
kernel_type rbf
gamma 0.25
nr_class 2
total_sv 53
rho -0.0756231
SV
-0.5083514203036759 0:0 1:4 2:0 3:906 4:0.000589 
-0.05270304499601074 0:1 1:7 2:1 3:1003 4:0.000697 
0.3896089615016538 0:0 1:5 2:1 3:1017 4:0.000457 
-0.5409017025535556 0:0 1:12 2:1 3:848 4:0.000713 
0.7228144746035224 0:0 1:12 2:1 3:1102 4:0.000791 
-1 0:0 1:0 2:1 3:1322 4:0.001009 
1 0:0 1:0 2:1 3:1034 4:0.000403 
-1 0:0 1:0 2:0 3:443 4:0.000277 
0.3895600458937429 0:0 1:5 2:1 3:1234 4:0.000672 
0.8894814751892661 0:0 1:2 2:1 3:1079 4:0.000478 
1 0:0 1:8 2:1 3:856 4:0.000538 
-1 0:0 1:4 2:1 3:1070 4:0.000933 
0.5560456869415102 0:0 1:7 2:1 3:1064 4:0.000449 
0.05624676124789544 0:0 1:5 2:1 3:1284 4:0.000582 
-0.3742638372236164 0:0 1:7 2:1 3:777 4:0.000298 
0.05651088293278159 0:0 1:2 2:1 3:677 4:0.000716 
0.3797611997498513 0:0 1:4 2:0 3:1153 4:0.000531 
-0.5469223928911798 0:0 1:0 2:1 3:1049 4:0.000343 
-0.8741633558620147 0:1 1:5 2:1 3:733 4:0.000771 
-1 0:0 1:2 2:1 3:272 4:0.000154 
0.2416248233378951 0:0 1:0 2:1 3:745 4:0.000689 
-0.3741727496863749 0:0 1:12 2:1 3:1320 4:0.000853 
-0.2274316104804308 0:0 1:0 2:0 3:742 4:0.00039 
-0.5409017004948153 0:0 1:0 2:0 3:657 4:0.000518 
0.5563677207101787 0:0 1:3 2:1 3:988 4:0.000634 
-1 0:0 1:7 2:0 3:857 4:0.000434 
0.5562646606490361 0:0 1:7 2:1 3:1033 4:0.000658 
-0.04111701925690708 0:0 1:0 2:1 3:1015 4:0.000534 
0.2225783459277035 0:0 1:5 2:1 3:868 4:0.000581 
0.3895786715776951 0:0 1:9 2:1 3:982 4:0.000334 
0.3892561630835717 0:0 1:7 2:1 3:1304 4:0.000424 
0.3908068515246947 0:0 1:5 2:1 3:1006 4:0.000857 
-0.5083694343252463 0:0 1:7 2:1 3:905 4:0.000511 
-0.04090567424902418 0:0 1:0 2:1 3:899 4:0.000415 
0.05640985855349062 0:0 1:5 2:1 3:969 4:0.000501 
0.5566849847339633 0:0 1:0 2:1 3:1102 4:0.000535 
0.5565772674856547 0:0 1:0 2:0 3:956 4:0.000513 
0.7228306143819379 0:0 1:0 2:1 3:841 4:0.000672 
0.05622704589374294 0:1 1:5 2:1 3:1186 4:0.000876 
0.2229385846294261 0:0 1:2 2:0 3:1260 4:0.000602 
0.223117184067493 0:0 1:2 2:1 3:1065 4:0.000475 
-0.2084096512665928 0:1 1:3 2:1 3:1098 4:0.000818 
-0.2070686573946446 0:0 1:2 2:1 3:964 4:0.000613 
-1 0:0 1:0 2:0 3:956 4:0.000513 
-0.04083035586244316 0:0 1:12 2:0 3:798 4:0.000562 
0.8856601423715872 0:0 1:0 2:1 3:1154 4:0.000593 
-0.3742407762373178 0:0 1:0 2:1 3:1034 4:0.000403 
-1 0:0 1:10 2:0 3:1170 4:0.000326 
-0.0409057032318533 0:0 1:8 2:1 3:1140 4:0.000505 
-0.7074736613811254 0:0 1:11 2:1 3:1260 4:0.000383 
0.8935499786297676 0:0 1:2 2:1 3:1053 4:0.000505 
0.8894976143819379 0:0 1:10 2:1 3:762 4:0.000707 
-0.04086725230317094 0:0 1:5 2:1 3:634 4:0.000435 
