svm_type nu_svr
kernel_type rbf
gamma 0.2
nr_class 2
total_sv 15
rho -0.321418
SV
-0.3208997557882761 1:0 2:0 3:1 4:1784.5159 5:190 
1 1:0 2:0 3:1 4:1899.0386 5:140 
0.0116603606121593 1:0 2:0 3:1 4:1928.4839 5:170 
-0.6543018310486457 1:0 2:0 3:0 4:1464.4348 5:185 
0.1782171179550134 1:0 2:7 3:1 4:1455.2574 5:101 
-0.6542039776528827 1:0 2:7 3:1 4:2185.0735 5:52 
0.5114247774403589 1:0 2:3 3:1 4:1418.5193 5:265 
-0.3208443559461682 1:0 2:12 3:0 4:1387.7516 5:220 
0.01160129161033313 1:0 2:7 3:1 4:1663.5341 5:73 
0.5116603606121592 1:0 2:0 3:1 4:1489.085 5:255 
0.5116130114025534 1:0 2:8 3:1 4:1459.4364 5:190 
-0.8209270572275777 1:0 2:7 3:1 4:1825.4937 5:155 
0.3443987912983051 1:0 2:0 3:1 4:1481.2729 5:80 
0.3448671745040656 1:0 2:7 3:1 4:1362.0447 5:275 
-0.6542659077713973 1:0 2:0 3:1 4:1899.0386 5:140 
