svm_type nu_svr
kernel_type rbf
gamma 0.25
nr_class 2
total_sv 53
rho -0.0767624
SV
-0.554362103515625 0:0 1:4 2:0 3:535.77716 4:196.95021 
-0.05398283590963111 0:1 1:7 2:1 3:800.05133 4:92.28968 
0.4002197297172546 0:0 1:5 2:1 3:428.13965 4:140.46902 
-0.5545674187597253 0:0 1:12 2:1 3:1324.5002 4:126.06876 
0.7335527297172546 0:0 1:12 2:1 3:562.80328 4:228.85782 
-1 0:0 1:0 2:1 3:568.21381 4:572.40143 
1 0:0 1:0 2:1 3:1017.2359 4:211.1675 
-1 0:0 1:0 2:0 3:1977.5859 4:239.30429 
0.4008537000989488 0:0 1:5 2:1 3:391.67111 4:169.74104 
0.9009238343586405 0:0 1:2 2:1 3:961.8056 4:446.46307 
0.7341880820914595 0:0 1:8 2:1 3:358.11847 4:243.40955 
-1 0:0 1:4 2:1 3:4583.7803 4:44.069962 
0.5675908343586406 0:0 1:7 2:1 3:379.2099 4:211.8461 
0.06706861847217624 0:0 1:5 2:1 3:276.49921 4:156.18234 
-0.3873158359096311 0:0 1:7 2:1 3:1040.3964 4:174.87781 
0.06749419559101882 0:0 1:2 2:1 3:561.47235 4:317.07281 
0.4008537000989487 0:0 1:4 2:0 3:373.483 4:290.93979 
-0.5539559947614554 0:0 1:0 2:1 3:345.1481 4:117.79584 
-0.8873158202846312 0:1 1:5 2:1 3:552.27222 4:138.30226 
-1 0:0 1:2 2:1 3:3468.8306 4:152.31142 
0.2339539682258455 0:0 1:0 2:1 3:1216.2747 4:184.08177 
-0.3875447650749491 0:0 1:12 2:1 3:442.5748 4:211.117 
-0.2206498202846312 0:0 1:0 2:0 3:1598.9414 4:168.61116 
-0.5539559947614554 0:0 1:0 2:0 3:3760.4128 4:100.71413 
0.5672879682258456 0:0 1:3 2:1 3:266.99597 4:171.88068 
-0.7212344187597253 0:0 1:7 2:0 3:977.36426 4:201.55022 
0.567255561302739 0:0 1:7 2:1 3:283.00702 4:134.63148 
-0.05424600208739527 0:0 1:0 2:1 3:1328.2211 4:122.42004 
0.233921561302739 0:0 1:5 2:1 3:1196.2836 4:118.39919 
0.4004016184721763 0:0 1:9 2:1 3:881.04571 4:111.65286 
0.400588561302739 0:0 1:7 2:1 3:284.74152 4:187.60159 
0.4008271955910188 0:0 1:5 2:1 3:260.56043 4:137.77418 
-0.5545908359134748 0:0 1:7 2:1 3:676.60901 4:108.40743 
-0.05407569763119952 0:0 1:0 2:1 3:983.75049 4:131.70177 
0.06746437255859378 0:0 1:5 2:1 3:663.73047 4:165.8728 
0.567185049525497 0:0 1:0 2:1 3:531.49121 4:136.17122 
0.5672879682258456 0:0 1:0 2:0 3:1001.5763 4:194.78667 
0.733851049525497 0:0 1:0 2:1 3:276.96069 4:258.78903 
0.06746437255859378 0:1 1:5 2:1 3:596.24262 4:148.28641 
0.233851049525497 0:0 1:2 2:0 3:590.18298 4:173.51231 
0.233921561302739 0:0 1:2 2:1 3:1610.8887 4:184.23686 
-0.2209130020873953 0:1 1:3 2:1 3:870.72296 4:114.43704 
-0.2208024344232697 0:0 1:2 2:1 3:1151.014 4:137.8206 
-1 0:0 1:0 2:0 3:1001.5763 4:194.78667 
-0.05447293813004216 0:0 1:12 2:0 3:353.39954 4:245.15866 
0.9006209682258456 0:0 1:0 2:1 3:753.75763 4:187.0966 
-0.3874684344232697 0:0 1:0 2:1 3:1017.2359 4:211.1675 
-1 0:0 1:10 2:0 3:256.2449 4:40.574505 
-0.05390147482564677 0:0 1:8 2:1 3:521.31824 4:110.60689 
-0.7205684748256468 0:0 1:11 2:1 3:252.03314 4:62.218277 
0.900518049525497 0:0 1:2 2:1 3:398.63901 4:131.64836 
0.9008537000989487 0:0 1:10 2:1 3:897.86102 4:212.32161 
-0.05407569763119952 0:0 1:5 2:1 3:2688.2241 4:126.8499 
