svm_type nu_svr
kernel_type rbf
gamma 0.2
nr_class 2
total_sv 110
rho 0.0284473
SV
0.0285589498931863 1:0 2:0 3:122.42004 4:0.000534 5:190 
0.02820822510273335 1:0 2:0 3:184.08177 4:0.000689 5:170 
0.02880857835395789 1:0 2:7 3:187.60159 4:0.000424 5:101 
0.02879914781661841 1:0 2:7 3:174.87781 4:0.000298 5:52 
0.02832185450827496 1:0 2:3 3:179.7747 4:0.00064 5:265 
0.02836386580512607 1:0 2:12 3:245.15866 4:0.000562 5:220 
0.02879907423810035 1:0 2:7 3:111.76267 4:0.00042 5:73 
0.02832704990699664 1:0 2:0 3:258.78903 4:0.000672 5:255 
0.02803537236934028 1:0 2:8 3:243.40955 4:0.000538 5:190 
0.02839700938455914 1:0 2:7 3:108.40743 4:0.000511 5:155 
0.02850218980305397 1:0 2:0 3:154.93671 4:0.00026 5:80 
0.028319344541616 1:0 2:7 3:134.63148 4:0.000658 5:275 
0.02852415121968599 1:0 2:0 3:211.1675 4:0.000403 5:140 
0.02893591240179372 1:0 2:0 3:125.32471 4:0.000706 5:125 
0.02854485635875059 1:0 2:2 3:317.07281 4:0.000716 5:175 
1 1:0 2:0 3:187.0966 4:0.000593 5:160 
-0.9716029906154409 1:0 2:2 3:152.31142 4:0.000154 5:59 
0.02839707524389606 1:0 2:5 3:156.18234 4:0.000582 5:160 
0.02832707802794066 1:0 2:5 3:137.77418 4:0.000857 5:148 
0.02832184930544968 1:0 2:5 3:169.74104 4:0.000672 5:170 
0.01863336359666645 1:0 2:8 3:110.60689 4:0.000505 5:175 
0.02831946728673262 1:0 2:0 3:117.79584 4:0.000343 5:135 
0.02844336496482502 1:0 2:0 3:93.960075 4:0.000411 5:70 
0.02839188769821943 1:0 2:11 3:62.218277 4:0.000383 5:45 
0.02836386580512618 1:0 2:0 3:194.78667 4:0.000513 5:185 
0.02820822543741497 1:0 2:2 3:272.56207 4:0.000429 5:200 
0.02831935749950204 1:0 2:2 3:233.00282 4:0.000451 5:170 
1 1:0 2:10 3:212.32161 4:0.000707 5:290 
0.0283918876982194 1:0 2:10 3:219.63496 4:0.000586 5:220 
0.02831433212273973 1:0 2:0 3:168.61116 4:0.00039 5:120 
-0.9714966616180903 1:0 2:10 3:122.04619 4:0.00024 5:45 
0.02832900803163077 1:0 2:12 3:251.46826 4:0.000452 5:150 
0.02887933119996058 1:0 2:0 3:100.71413 4:0.000518 5:115 
-0.9714966616180903 1:0 2:10 3:40.574505 4:0.000326 5:45 
0.02832730779293619 1:0 2:4 3:196.95021 4:0.000589 5:150 
0.02831948073411665 1:0 2:4 3:290.93979 4:0.000531 5:230 
0.02831920217153524 1:0 2:2 3:137.8206 4:0.000613 5:140 
0.02802260592936339 1:0 2:2 3:173.51231 4:0.000602 5:160 
1 1:0 2:2 3:131.64836 4:0.000505 5:250 
0.02879907434312409 1:0 2:5 3:164.6559 4:0.000853 5:280 
0.02855840087708297 1:0 2:5 3:118.39919 4:0.000581 5:165 
-0.971191421651086 1:0 2:4 3:44.069962 4:0.000933 5:100 
-0.9714420245149176 1:0 2:0 3:572.40143 4:0.001009 5:129 
0.0183744158192106 1:0 2:9 3:111.65286 4:0.000334 5:174 
0.02830733287945347 1:0 2:2 3:168.07809 4:0.000819 5:126 
0.02893591240197866 1:0 2:12 3:211.117 4:0.000853 5:165 
0.02832184970357561 1:0 2:0 3:246.04076 4:0.001194 5:128 
0.02852415121030438 1:1 2:7 3:92.28968 4:0.000697 5:190 
0.02562707828583012 1:1 2:7 3:91.326851 4:0.000637 5:120 
0.02831942816381362 1:1 2:3 3:114.43704 4:0.000818 5:110 
0.02832235659044544 1:1 2:5 3:148.28641 4:0.000876 5:150 
0.0283270909485413 1:1 2:5 3:138.30226 4:0.000771 5:190 
0.02832886892502685 1:1 2:5 3:134.92932 4:0.00073 5:80 
0.02831935749950203 1:1 2:0 3:73.443481 4:0.000549 5:100 
0.02803537240373102 1:1 2:0 3:75.059196 4:0.00056 5:240 
0.02820875407833873 1:1 2:8 3:72.823708 4:0.000775 5:140 
0.02832093307866091 1:1 2:2 3:150.36011 4:0.000551 5:75 
0.02829421290689167 1:1 2:10 3:91.247353 4:0.000774 5:115 
0.02839651417774827 1:1 2:0 3:120.21809 4:0.000658 5:170 
0.02472561297999502 1:1 2:0 3:84.585358 4:0.000589 5:120 
0.02913404111070014 1:1 2:3 3:101.42107 4:0.000664 5:125 
0.02765254630332701 1:1 2:0 3:105.6449 4:0.000865 5:180 
0.02831475431515557 1:1 2:7 3:64.040039 4:0.001064 5:160 
0.02821465462326328 1:1 2:5 3:68.875267 4:0.000683 5:165 
0.02832001070071904 1:1 2:0 3:149.2966 4:0.000748 5:180 
0.02838383437712716 1:1 2:5 3:90.997894 4:0.000758 5:160 
0.02893591237092461 1:1 2:0 3:247.03374 4:0.001417 5:185 
0.02831557183676651 1:1 2:5 3:113.12672 4:0.000766 5:130 
0.02880857830382908 1:1 2:0 3:121.96153 4:0.000767 5:200 
0.02831933247172289 1:1 2:2 3:95.614876 4:0.000626 5:90 
0.02844315603362956 1:1 2:0 3:88.994751 4:0.000814 5:140 
0.02821429730751848 1:1 2:8 3:97.601379 4:0.000724 5:180 
0.0282571888416585 1:1 2:2 3:99.353554 4:0.000723 5:130 
0.02831752203430056 1:1 2:0 3:129.24826 4:0.001007 5:100 
0.02448191371237879 1:1 2:0 3:78.399452 4:0.001106 5:80 
0.02880495731017856 1:1 2:5 3:121.17292 4:0.000473 5:75 
0.02879811737190502 1:1 2:3 3:84.184044 4:0.000575 5:170 
0.02836387368030265 1:1 2:0 3:82.125359 4:0.000696 5:90 
0.02763838719903932 1:1 2:0 3:109.8411 4:0.00131 5:180 
0.02832730779256892 1:1 2:0 3:66.906998 4:0.000441 5:180 
0.02831919089494394 1:1 2:2 3:111.23468 4:0.000727 5:95 
0.02836365876355353 1:1 2:5 3:92.010223 4:0.000435 5:135 
0.02831921552359754 1:1 2:5 3:65.945 4:0.000494 5:210 
0.02832200417490835 1:1 2:1 3:47.813747 4:0.00046 5:80 
0.02880857828435001 1:1 2:5 3:107.93533 4:0.000599 5:140 
0.02831480983107904 1:1 2:7 3:77.674416 4:0.000571 5:120 
0.02832170338272227 1:1 2:8 3:111.05724 4:0.000662 5:100 
0.02832298096513385 1:1 2:2 3:57.090328 4:0.00047 5:170 
0.02832185450827497 1:1 2:10 3:97.889984 4:0.000464 5:245 
0.02478852685864557 1:1 2:1 3:81.708939 4:0.000686 5:120 
0.0289359123104215 1:1 2:10 3:99.147339 4:0.000559 5:140 
0.02832018201428416 1:1 2:0 3:38.322647 4:0.000513 5:120 
0.02832184930600488 1:1 2:8 3:100.42133 4:0.000876 5:200 
0.02844431718245591 1:1 2:10 3:82.794144 4:0.000634 5:170 
0.0283272748534885 1:1 2:7 3:78.912949 4:0.00043 5:85 
0.02829510934039832 1:1 2:3 3:94.83757 4:0.000421 5:156 
0.0282135330387682 1:1 2:5 3:67.299492 4:0.000588 5:170 
0.0282161757317291 1:1 2:10 3:92.750999 4:0.000756 5:180 
0.02854485635875062 1:1 2:4 3:81.077324 4:0.000754 5:150 
0.02866020332626875 1:1 2:0 3:95.077652 4:0.000546 5:115 
0.02832001069985668 1:1 2:8 3:133.02512 4:0.000748 5:240 
0.02845520438097974 1:1 2:5 3:129.31689 4:0.000409 5:85 
0.02831933996041092 1:1 2:7 3:125.35245 4:0.000342 5:160 
-0.9717193452029127 1:1 2:3 3:98.256821 4:0.000787 5:120 
0.0286007906634896 1:1 2:0 3:100.68175 4:0.000827 5:145 
0.02577033892683927 1:1 2:5 3:88.509705 4:0.000584 5:120 
0.02441027376890292 1:1 2:0 3:75.457474 4:0.000661 5:80 
0.02850329023889471 1:1 2:3 3:53.817097 4:0.000468 5:135 
0.02832018201210415 1:1 2:0 3:67.587502 4:0.00086 5:145 
0.02860079069894218 1:1 2:3 3:94.29567 4:0.00088 5:220 
