svm_type nu_svr
kernel_type rbf
gamma 0.25
nr_class 2
total_sv 53
rho -0.108598
SV
-0.1083474596826413 0:1784.5159 1:516.24097 2:0.000534 3:0.01777 4:190 
1 0:1899.0386 1:633.92914 2:0.000403 3:0.012251 4:140 
0.2245816020132773 0:1928.4839 1:514.25031 2:0.000689 3:0.016227 4:170 
0.5578790469727741 0:1464.4348 1:398.70984 2:0.000513 3:0.017125 4:185 
0.3908415999680828 0:1455.2574 1:540.31665 2:0.000424 3:0.016676 4:101 
-0.4415838159723646 0:2185.0735 1:558.74066 2:0.000298 3:0.007606 4:52 
0.7245352526445519 0:1418.5193 1:615.01532 2:0.00064 3:0.024521 4:265 
-0.1078700479767545 0:1387.7516 1:457.76593 2:0.000562 3:0.019292 4:220 
0.2243673964347803 0:1663.5341 1:508.71634 2:0.00042 3:0.01536 4:73 
0.7244233681157398 0:1489.085 1:595.60547 2:0.000672 3:0.023468 4:255 
0.7241640228528071 0:1459.4364 1:512.27393 2:0.000538 3:0.018424 4:190 
-0.6082453757790778 0:1825.4937 1:472.09235 2:0.000511 3:0.012156 4:155 
0.5574504594444687 0:1481.2729 1:485.67459 2:0.00026 3:0.011828 4:80 
0.557509373033986 0:1362.0447 1:525.77222 2:0.000658 3:0.025003 4:275 
-0.4415902523295498 0:1899.0386 1:633.92914 2:0.000403 3:0.012251 4:140 
0.3908006526369195 0:1219.8586 1:348.40878 2:0.000706 3:0.024241 4:125 
0.05789676222635592 0:1472.0798 1:452.17032 2:0.000716 3:0.021674 4:175 
0.8908125457757761 0:1658.2784 1:510.10651 2:0.000593 3:0.017748 4:160 
-1 0:6199.2202 1:644.00458 2:0.000154 3:0.002271 4:59 
0.05742066579112537 0:1440.207 1:593.62805 2:0.000582 3:0.02349 4:160 
0.3907936053029856 0:1309.333 1:513.64008 2:0.000857 3:0.033737 4:148 
0.3907945336946091 0:1445.6055 1:599.19843 2:0.000672 3:0.025695 4:170 
-0.1077841634744955 0:1545.4904 1:519.73486 2:0.000505 3:0.017725 4:175 
-0.6082569751569146 0:1192.4337 1:305.73157 2:0.000343 3:0.019303 4:135 
-0.608208255521512 0:4007.5034 1:469.89963 2:0.000411 3:0.009613 4:70 
-0.7750144596826413 0:1273.736 1:314.22421 2:0.000383 3:0.015145 4:45 
-1 0:1464.4348 1:398.70984 2:0.000513 3:0.017125 4:185 
0.390797703376782 0:1639.1249 1:660.32135 2:0.000429 3:0.015838 4:200 
0.05745785092334616 0:1672.0845 1:541.71991 2:0.000451 3:0.014183 4:170 
0.8911654877036888 0:1768.0786 1:660.87097 2:0.000707 3:0.021499 4:290 
0.5574957771609318 0:1430.9865 1:526.19269 2:0.000586 3:0.024319 4:220 
-0.2749124995818915 0:2025.5453 1:417.44363 2:0.00039 3:0.011465 4:120 
-1 0:2617.1016 1:455.86713 2:0.00024 3:0.004951 4:45 
-0.2749372184407238 0:1348.2349 1:599.3794 2:0.000452 3:0.026871 4:150 
-0.6082169969389615 0:3196.9268 1:451.15335 2:0.000518 3:0.010741 4:115 
-1 0:1194.8899 1:235.69646 2:0.000326 3:0.013789 4:45 
-0.6082758971097151 0:1591.6799 1:564.58441 2:0.000589 3:0.01951 4:150 
0.3908306577330083 0:1368.2917 1:497.3168 2:0.000531 3:0.021692 4:230 
-0.2744796443559124 0:2055.8557 1:662.53265 2:0.000613 3:0.014866 4:140 
0.2245249634412562 0:1633.4545 1:635.51575 2:0.000602 3:0.01878 4:160 
0.8909960009428417 0:1692.3934 1:754.89471 2:0.000505 3:0.017739 4:250 
0.557478729830823 0:1345.3405 1:598.44568 2:0.000853 3:0.03949 4:280 
0.2245816020132773 0:1887.9951 1:489.45871 2:0.000581 3:0.015249 4:165 
-1 0:3143.0408 1:232.14264 2:0.000933 3:0.023328 4:100 
-1 0:1609.4563 1:787.40277 2:0.001009 3:0.038783 4:129 
0.3908749827692433 0:1932.5494 1:530.43671 2:0.000334 3:0.009767 4:174 
0.3908041637064357 0:2951.2705 1:705.53766 2:0.000819 3:0.022925 4:126 
-0.4416209902451064 0:1469.601 1:568.73761 2:0.000853 3:0.031653 4:165 
0.05751358319043676 0:1324.3845 1:520.5058 2:0.001194 3:0.043385 4:128 
-0.1079539763199373 0:1558.2727 1:470.82245 2:0.000697 3:0.021834 4:190 
-0.2744855871945953 0:2358.7581 1:433.52792 2:0.000637 3:0.017196 4:120 
-0.2744780939715318 0:1624.9089 1:434.06674 2:0.000818 3:0.021694 4:110 
0.05746932003401516 0:1510.9131 1:456.8219 2:0.000876 3:0.023255 4:150 
