svm_type nu_svr
kernel_type rbf
gamma 0.2
nr_class 2
total_sv 110
rho 0.0280935
SV
0.02804264750095908 1:1 2:1328.2211 3:0.000534 4:0.01777 5:190 
0.02834350486318415 1:1 2:1216.2747 3:0.000689 4:0.016227 5:170 
0.02813925375004822 1:1 2:284.74152 3:0.000424 4:0.016676 5:101 
0.02811068074987555 1:1 2:1040.3964 3:0.000298 4:0.007606 5:52 
0.02762321392966371 1:1 2:256.99347 3:0.00064 4:0.024521 5:265 
0.02805956367692564 1:0 2:353.39954 3:0.000562 4:0.019292 5:220 
0.02804414769598951 1:1 2:724.33752 3:0.00042 4:0.01536 5:73 
0.02762321392965594 1:1 2:276.96069 3:0.000672 4:0.023468 5:255 
0.02812855095204825 1:1 2:358.11847 3:0.000538 4:0.018424 5:190 
0.02808613808509608 1:1 2:676.60901 3:0.000511 4:0.012156 5:155 
0.02827012649299354 1:1 2:338.77457 3:0.00026 4:0.011828 5:80 
0.02807666971307288 1:1 2:283.00702 3:0.000658 4:0.025003 5:275 
0.02841310021812204 1:1 2:1017.2359 3:0.000403 4:0.012251 5:140 
0.02841310021812204 1:1 2:280.64706 3:0.000706 4:0.024241 5:125 
0.02807743514887651 1:1 2:561.47235 3:0.000716 4:0.021674 5:175 
1 1:1 2:753.75763 3:0.000593 4:0.017748 5:160 
-0.9719233302869271 1:1 2:3468.8306 3:0.000154 4:0.002271 5:59 
0.02810825602198476 1:1 2:276.49921 3:0.000582 4:0.02349 5:160 
0.02814602967953683 1:1 2:260.56043 3:0.000857 4:0.033737 5:148 
0.02814245420672556 1:1 2:391.67111 3:0.000672 4:0.025695 5:170 
0.02804491313254476 1:1 2:521.31824 3:0.000505 4:0.017725 5:175 
0.02834350486318415 1:1 2:345.1481 3:0.000343 4:0.019303 5:135 
0.02785850827870495 1:1 2:5365.5361 3:0.000411 4:0.009613 5:70 
0.05092536477670628 1:1 2:252.03314 3:0.000383 4:0.015145 5:45 
0.02752093350481233 1:0 2:1001.5763 3:0.000513 4:0.017125 5:185 
0.02841347941935068 1:1 2:478.60736 3:0.000429 4:0.015838 5:200 
0.007160836195860925 1:1 2:626.1297 3:0.000451 4:0.014183 5:170 
1 1:1 2:897.86102 3:0.000707 4:0.021499 5:290 
0.02836616163859162 1:1 2:390.26743 3:0.000586 4:0.024319 5:220 
0.02827012649299361 1:0 2:1598.9414 3:0.00039 4:0.011465 5:120 
-0.9724790664951877 1:1 2:1057.3951 3:0.00024 4:0.004951 5:45 
0.02837248410960387 1:0 2:238.24316 3:0.000452 4:0.026871 5:150 
0.02826101513823116 1:0 2:3760.4128 3:0.000518 4:0.010741 5:115 
-0.9731049145700719 1:0 2:256.2449 3:0.000326 4:0.013789 5:45 
0.02841347941933496 1:0 2:535.77716 3:0.000589 4:0.01951 5:150 
0.02811207839908175 1:0 2:373.483 3:0.000531 4:0.021692 5:230 
0.0283435048631841 1:1 2:1151.014 3:0.000613 4:0.014866 5:140 
0.02804264750089421 1:0 2:590.18298 3:0.000602 4:0.01878 5:160 
1 1:1 2:398.63901 3:0.000505 4:0.017739 5:250 
0.0283435048631841 1:1 2:228.86702 3:0.000853 4:0.03949 5:280 
0.02805687876472154 1:1 2:1196.2836 3:0.000581 4:0.015249 5:165 
-0.9719225648511235 1:1 2:4583.7803 3:0.000933 4:0.023328 5:100 
-0.9718575457941094 1:1 2:568.21381 3:0.001009 4:0.038783 5:129 
0.02834350486318409 1:1 2:881.04571 3:0.000334 4:0.009767 5:174 
0.02834350486318409 1:1 2:3948.0073 3:0.000819 4:0.022925 5:126 
0.02826731853928603 1:1 2:442.5748 3:0.000853 4:0.031653 5:165 
0.0282673185392766 1:1 2:248.66318 3:0.001194 4:0.043385 5:128 
0.02798945664075849 1:1 2:800.05133 3:0.000697 4:0.021834 5:190 
0.02799652460753636 1:1 2:3012.1274 3:0.000637 4:0.017196 5:120 
0.02805687876403572 1:1 2:870.72296 3:0.000818 4:0.021694 5:110 
0.02762321392952611 1:1 2:596.24262 3:0.000876 4:0.023255 5:150 
0.02808107296478482 1:1 2:552.27222 3:0.000771 4:0.025702 5:190 
0.02837248410910834 1:1 2:871.32562 3:0.00073 4:0.019139 5:80 
0.02804491313254475 1:1 2:694.47742 3:0.000549 4:0.014563 5:100 
0.02805687876403572 1:1 2:200.09001 3:0.00056 4:0.022936 5:240 
0.02813925375001368 1:1 2:529.72784 3:0.000775 4:0.01907 5:140 
0.02805687876397973 1:0 2:2012.1512 3:0.000551 4:0.013489 5:75 
0.02805687876397973 1:1 2:850.95929 3:0.000774 4:0.020216 5:115 
0.02744346653529389 1:1 2:768.0473 3:0.000658 4:0.02633 5:170 
0.02841310021812201 1:0 2:459.62476 3:0.000589 4:0.018689 5:120 
0.02762321393036796 1:1 2:682.61542 3:0.000664 4:0.022125 5:125 
0.02812855090300104 1:1 2:767.72119 3:0.000865 4:0.029818 5:180 
0.02834350486318409 1:0 2:567.7085 3:0.001064 4:0.029027 5:160 
0.02805956367692561 1:0 2:1923.7953 3:0.000683 4:0.022152 5:165 
0.02808103870763478 1:0 2:2342.4438 3:0.000748 4:0.022825 5:180 
0.02826731853913744 1:1 2:601.82971 3:0.000758 4:0.029616 5:160 
0.02810122314004913 1:1 2:6078.5239 3:0.001417 4:0.03027 5:185 
0.02811207839908175 1:1 2:1655.2334 3:0.000766 4:0.019101 5:130 
0.02750851060077095 1:1 2:797.86145 3:0.000767 4:0.022342 5:200 
0.02799652460753636 1:0 2:2360.9907 3:0.000626 4:0.012635 5:90 
0.02805687876397973 1:1 2:667.60211 3:0.000814 4:0.020593 5:140 
0.02810122314004913 1:1 2:610.76752 3:0.000724 4:0.02256 5:180 
0.02808262987741394 1:0 2:475.0296 3:0.000723 4:0.020635 5:130 
0.02826101513823114 1:1 2:2689.7979 3:0.001007 4:0.029963 5:100 
0.02811204260151303 1:1 2:3298.5713 3:0.001106 4:0.032625 5:80 
0.02805687876397973 1:1 2:3204.7935 3:0.000473 4:0.011023 5:75 
0.0282673185392766 1:1 2:506.10291 3:0.000575 4:0.023571 5:170 
0.0284134794193507 1:1 2:2666.9524 3:0.000696 4:0.019401 5:90 
0.02805687875823615 1:1 2:354.80908 3:0.00131 4:0.039756 5:180 
0.0282701264929936 1:0 2:330.05197 3:0.000441 4:0.01902 5:180 
0.02841310021812201 1:0 2:635.41363 3:0.000727 4:0.014989 5:95 
0.02805601409561629 1:1 2:479.36807 3:0.000435 4:0.015786 5:135 
0.02750851061650184 1:1 2:147.18599 3:0.000494 4:0.036205 5:210 
0.0280441476959895 1:1 2:888.4707 3:0.00046 4:0.01757 5:80 
0.02810925597184756 1:1 2:1079.5116 3:0.000599 4:0.022006 5:140 
0.02805687876397973 1:1 2:2167.0908 3:0.000571 4:0.014357 5:120 
0.02750851061650184 1:1 2:1636.6272 3:0.000662 4:0.016317 5:100 
0.02811068074987551 1:1 2:319.84677 3:0.00047 4:0.023703 5:170 
0.02693566283644829 1:1 2:402.14963 3:0.000464 4:0.017483 5:245 
0.02746491426580845 1:1 2:444.22903 3:0.000686 4:0.025977 5:120 
0.02837248413768664 1:1 2:568.70892 3:0.000559 4:0.016222 5:140 
0.02805687876397973 1:1 2:371.97244 3:0.000513 4:0.021718 5:120 
0.02834350486318409 1:1 2:6455.0381 3:0.000876 4:0.019284 5:200 
0.02123061532677973 1:1 2:626.05267 3:0.000634 4:0.019318 5:170 
0.02805687876397973 1:1 2:502.02637 3:0.00043 4:0.017647 5:85 
0.02808103870763478 1:1 2:905.76196 3:0.000421 4:0.010755 5:156 
0.02805687876397973 1:1 2:728.33258 3:0.000588 4:0.023067 5:170 
0.02836616163859161 1:1 2:290.28839 3:0.000756 4:0.034394 5:180 
0.02841347941936643 1:1 2:689.09216 3:0.000754 4:0.017136 5:150 
0.02826101513823114 1:0 2:2369.6111 3:0.000546 4:0.013531 5:115 
0.02813925375004822 1:1 2:1131.85 3:0.000748 4:0.032965 5:240 
0.02813925375004822 1:1 2:2690.9695 3:0.000409 4:0.010502 5:85 
0.02785850827870495 1:1 2:3133.0188 3:0.000342 4:0.01127 5:160 
-0.9718539703204832 1:1 2:671.90271 3:0.000787 4:0.024424 5:120 
0.02807821788710217 1:1 2:1074.9319 3:0.000827 4:0.025715 5:145 
0.02805960511324598 1:1 2:1693.8639 3:0.000584 4:0.017622 5:120 
0.02837248410960387 1:1 2:537.10272 3:0.000661 4:0.01313 5:80 
0.02836616163859162 1:1 2:515.8432 3:0.000468 4:0.01913 5:135 
0.02827012649299361 1:1 2:1533.7312 3:0.00086 4:0.017524 5:145 
0.02826101513823116 1:1 2:736.91437 3:0.00088 4:0.025899 5:220 
