svm_type nu_svr
kernel_type rbf
gamma 0.2
nr_class 2
total_sv 110
rho 0.0243637
SV
0.01701838079070453 1:1 2:1015 3:122.42004 4:0.000534 5:0.01777 
0.02425666483011457 1:1 2:745 3:184.08177 4:0.000689 5:0.016227 
0.02426604963344325 1:1 2:1304 3:187.60159 4:0.000424 5:0.016676 
0.0244695450050928 1:1 2:777 3:174.87781 4:0.000298 5:0.007606 
0.02451435593772122 1:1 2:1114 3:179.7747 4:0.00064 5:0.024521 
0.0241805700319242 1:0 2:798 3:245.15866 4:0.000562 5:0.019292 
0.02422347555812343 1:1 2:960 3:111.76267 4:0.00042 5:0.01536 
0.02448121704088246 1:1 2:841 3:258.78903 4:0.000672 5:0.023468 
0.02460830961785077 1:1 2:856 3:243.40955 4:0.000538 5:0.018424 
0.02473904985929687 1:1 2:905 3:108.40743 4:0.000511 5:0.012156 
0.02416829846166135 1:1 2:1102 3:154.93671 4:0.00026 5:0.011828 
0.02415188128755419 1:1 2:1033 3:134.63148 4:0.000658 5:0.025003 
0.02435527081184774 1:1 2:1034 3:211.1675 4:0.000403 5:0.012251 
0.02436694220713109 1:1 2:1229 3:125.32471 4:0.000706 5:0.024241 
0.02473920964496135 1:1 2:677 3:317.07281 4:0.000716 5:0.021674 
1 1:1 2:1154 3:187.0966 4:0.000593 5:0.017748 
-0.9757542825435697 1:1 2:272 3:152.31142 4:0.000154 5:0.002271 
0.024161114696022 1:1 2:1284 3:156.18234 4:0.000582 5:0.02349 
0.02433010114349443 1:1 2:1006 3:137.77418 4:0.000857 5:0.033737 
0.02424571745643045 1:1 2:1234 3:169.74104 4:0.000672 5:0.025695 
0.02322352612128953 1:1 2:1140 3:110.60689 4:0.000505 5:0.017725 
0.0243417736069188 1:1 2:1049 3:117.79584 4:0.000343 5:0.019303 
0.02449222645323368 1:1 2:814 3:93.960075 4:0.000411 5:0.009613 
0.02466100628425283 1:1 2:1260 3:62.218277 4:0.000383 5:0.015145 
0.02390928208979315 1:0 2:956 3:194.78667 4:0.000513 5:0.017125 
0.0244505834126969 1:1 2:1187 3:272.56207 4:0.000429 5:0.015838 
0.0241655831211048 1:1 2:1091 3:233.00282 4:0.000451 5:0.014183 
1 1:1 2:762 3:212.32161 4:0.000707 5:0.021499 
0.02434177361526145 1:1 2:933 3:219.63496 4:0.000586 5:0.024319 
0.02416829846166135 1:0 2:742 3:168.61116 4:0.00039 5:0.011465 
-0.9757339503665567 1:1 2:616 3:122.04619 4:0.00024 5:0.004951 
0.02434177360691884 1:0 2:901 3:251.46826 4:0.000452 5:0.026871 
0.02445058342428776 1:0 2:657 3:100.71413 4:0.000518 5:0.010741 
-0.9755304549949073 1:0 2:1170 3:40.574505 4:0.000326 5:0.013789 
0.02449222645494311 1:0 2:906 3:196.95021 4:0.000589 5:0.01951 
0.02449222645323372 1:0 2:1153 3:290.93979 4:0.000531 5:0.021692 
0.02451435593772125 1:1 2:964 3:137.8206 4:0.000613 5:0.014866 
0.02466076994749923 1:0 2:1260 3:173.51231 4:0.000602 5:0.01878 
1 1:1 2:1053 3:131.64836 4:0.000505 5:0.017739 
0.02473904986315549 1:1 2:1307 3:164.6559 4:0.000853 5:0.03949 
0.02412951287420305 1:1 2:868 3:118.39919 4:0.000581 5:0.015249 
-0.9753916903821491 1:1 2:1070 3:44.069962 4:0.000933 5:0.023328 
-0.9755187829591175 1:1 2:1322 3:572.40143 4:0.001009 5:0.038783 
0.02426387574906279 1:1 2:982 3:111.65286 4:0.000334 5:0.009767 
0.02473904986326297 1:1 2:920 3:168.07809 4:0.000819 5:0.022925 
0.02426387574919949 1:1 2:1320 3:211.117 4:0.000853 5:0.031653 
0.02422347555812547 1:1 2:1082 3:246.04076 4:0.001194 5:0.043385 
0.02433009469358019 1:1 2:1003 3:92.28968 4:0.000697 5:0.021834 
0.02412801981929897 1:1 2:830 3:91.326851 4:0.000637 5:0.017196 
0.02454908138771209 1:1 2:1098 3:114.43704 4:0.000818 5:0.021694 
0.02454908138770175 1:1 2:1186 3:148.28641 4:0.000876 5:0.023255 
0.02423087865555368 1:1 2:733 3:138.30226 4:0.000771 5:0.025702 
0.02416642857752135 1:1 2:932 3:134.92932 4:0.00073 5:0.019139 
0.02445058342428776 1:1 2:799 3:73.443481 4:0.000549 5:0.014563 
0.02422347555810021 1:1 2:1215 3:75.059196 4:0.00056 5:0.022936 
0.0239092820897931 1:1 2:1183 3:72.823708 4:0.000775 5:0.01907 
0.02473904986315549 1:0 2:773 3:150.36011 4:0.000551 5:0.013489 
0.02365365079250232 1:1 2:1069 3:91.247353 4:0.000774 5:0.020216 
0.02422347555813802 1:1 2:833 3:120.21809 4:0.000658 5:0.02633 
0.02436694210669244 1:0 2:997 3:84.585358 4:0.000589 5:0.018689 
0.02300928395655628 1:1 2:989 3:101.42107 4:0.000664 5:0.022125 
0.02466100555895141 1:1 2:1128 3:105.6449 4:0.000865 5:0.029818 
0.02454908138768965 1:0 2:1219 3:64.040039 4:0.001064 5:0.029027 
0.02425666481435927 1:0 2:924 3:68.875267 4:0.000683 5:0.022152 
0.02420315437438013 1:0 2:1221 3:149.2966 4:0.000748 5:0.022825 
0.02475393491954414 1:1 2:1086 3:90.997894 4:0.000758 5:0.029616 
0.02418057003192423 1:1 2:582 3:247.03374 4:0.001417 5:0.03027 
0.02445058339345015 1:1 2:1073 3:113.12672 4:0.000766 5:0.019101 
0.01732879569650366 1:1 2:1017 3:121.96153 4:0.000767 5:0.022342 
0.02416642857752135 1:0 2:854 3:95.614876 4:0.000626 5:0.012635 
0.02422347555796706 1:1 2:1034 3:88.994751 4:0.000814 5:0.020593 
0.02426342399014359 1:1 2:1099 3:97.601379 4:0.000724 5:0.02256 
0.02412804020997715 1:0 2:998 3:99.353554 4:0.000723 5:0.020635 
0.02466076994749923 1:1 2:909 3:129.24826 4:0.001007 5:0.029963 
0.02434177361456987 1:1 2:937 3:78.399452 4:0.001106 5:0.032625 
0.02445058341658142 1:1 2:809 3:121.17292 4:0.000473 5:0.011023 
0.02425637295241883 1:1 2:1177 3:84.184044 4:0.000575 5:0.023571 
0.02412951287420311 1:1 2:1229 3:82.125359 4:0.000696 5:0.019401 
0.02445058341484962 1:1 2:1164 3:109.8411 4:0.00131 5:0.039756 
0.02445058338052957 1:0 2:1039 3:66.906998 4:0.000441 5:0.01902 
0.02449222645438491 1:0 2:1151 3:111.23468 4:0.000727 5:0.014989 
0.0243300849679402 1:1 2:1058 3:92.010223 4:0.000435 5:0.015786 
0.02422389903811747 1:1 2:1196 3:65.945 4:0.000494 5:0.036205 
0.02415188128755413 1:1 2:1183 3:47.813747 4:0.00046 5:0.01757 
0.02383121568447503 1:1 2:1137 3:107.93533 4:0.000599 5:0.022006 
0.02416558312953884 1:1 2:906 3:77.674416 4:0.000571 5:0.014357 
0.0244505833921841 1:1 2:1083 3:111.05724 4:0.000662 5:0.016317 
0.02412951287420311 1:1 2:1299 3:57.090328 4:0.00047 5:0.023703 
0.4621504095755042 1:1 2:1042 3:97.889984 4:0.000464 5:0.017483 
0.02435527081184778 1:1 2:1284 3:81.708939 4:0.000686 5:0.025977 
0.02422389903767666 1:1 2:974 3:99.147339 4:0.000559 5:0.016222 
0.02422347555812547 1:1 2:1261 3:38.322647 4:0.000513 5:0.021718 
0.02420315437042076 1:1 2:912 3:100.42133 4:0.000876 5:0.019284 
0.02454908138638133 1:1 2:1008 3:82.794144 4:0.000634 5:0.019318 
0.02416558311267075 1:1 2:926 3:78.912949 4:0.00043 5:0.017647 
0.02415958343567823 1:1 2:836 3:94.83757 4:0.000421 5:0.010755 
0.02412676894600409 1:1 2:1056 3:67.299492 4:0.000588 5:0.023067 
0.02416862702016441 1:1 2:1203 3:92.750999 4:0.000756 5:0.034394 
0.02454908138770002 1:1 2:949 3:81.077324 4:0.000754 5:0.017136 
0.02412806588478815 1:0 2:792 3:95.077652 4:0.000546 5:0.013531 
0.0241655831211048 1:1 2:1189 3:133.02512 4:0.000748 5:0.032965 
0.02454908138902044 1:1 2:861 3:129.31689 4:0.000409 5:0.010502 
0.02466076994749923 1:1 2:791 3:125.35245 4:0.000342 5:0.01127 
-1 1:1 2:1044 3:98.256821 4:0.000787 5:0.024424 
0.02339009503823415 1:1 2:985 3:100.68175 4:0.000827 5:0.025715 
0.02475393491954414 1:1 2:898 3:88.509705 4:0.000584 5:0.017622 
0.02473920964496134 1:1 2:740 3:75.457474 4:0.000661 5:0.01313 
0.02433010743907281 1:1 2:1319 3:53.817097 4:0.000468 5:0.01913 
0.02412674999944658 1:1 2:1049 3:67.587502 4:0.00086 5:0.017524 
0.02365999374631761 1:1 2:1066 3:94.29567 4:0.00088 5:0.025899 
