svm_type nu_svr
kernel_type rbf
gamma 0.25
nr_class 2
total_sv 53
rho -0.0767628
SV
-0.5540367773437487 0:0 1:1591.6799 2:196.95021 3:564.58441 4:0.01951 
-0.05411699865769137 0:1 1:1558.2727 2:92.28968 3:470.82245 4:0.021834 
0.4007157927074315 0:1 1:1728.682 2:140.46902 3:725.46198 4:0.015085 
-0.5542449261648738 0:1 1:2234.8701 2:126.06876 3:714.8045 4:0.01502 
0.7339822377644671 0:1 1:1652.1434 2:228.85782 3:669.13043 4:0.024701 
-1 0:1 1:1609.4563 2:572.40143 3:787.40277 4:0.038783 
1 0:1 1:1899.0386 2:211.1675 3:633.92914 4:0.012251 
-1 0:0 1:2853.9756 2:239.30429 3:447.74573 4:0.005931 
0.4007724788212762 0:1 1:1445.6055 2:169.74104 3:599.19843 4:0.025695 
0.9007157927074314 0:1 1:2036.9913 2:446.46307 3:1005.8044 4:0.014913 
0.7338955456072109 0:1 1:1459.4364 2:243.40955 3:512.27393 4:0.018424 
-1 0:1 1:3143.0408 2:44.069962 3:232.14264 4:0.023328 
0.5671554363961252 0:1 1:1772.2177 2:211.8461 3:866.62476 4:0.016127 
0.06689704704632754 0:1 1:1440.207 2:156.18234 3:593.62805 4:0.02349 
-0.3874706587096157 0:1 1:2185.0735 2:174.87781 3:558.74066 4:0.007606 
0.06743947882127622 0:1 1:1472.0798 2:317.07281 3:452.17032 4:0.021674 
0.4007724788212762 0:0 1:1368.2917 2:290.93979 3:497.3168 4:0.021692 
-0.5544067062555216 0:1 1:1192.4337 2:117.79584 3:305.73157 4:0.019303 
-0.8874499986576914 0:1 1:1378.2238 2:138.30226 3:394.25983 4:0.025702 
-1 0:1 1:6199.2202 2:152.31142 3:644.00458 4:0.002271 
0.2339479639263293 0:1 1:1928.4839 2:184.08177 3:514.25031 4:0.016227 
-0.3874542681004376 0:1 1:1469.601 2:211.117 3:568.73761 4:0.031653 
-0.2210737062555216 0:0 1:2025.5453 2:168.61116 3:417.44363 4:0.011465 
-0.5541376587096157 0:0 1:3196.9268 2:100.71413 3:451.15335 4:0.010741 
0.5673827927074315 0:1 1:1344.2603 2:171.88068 3:525.13648 4:0.029261 
-0.720666755071084 0:0 1:1467.5948 2:201.55022 3:406.57483 4:0.018771 
0.5673162377644672 0:1 1:1362.0447 2:134.63148 3:525.77222 4:0.025003 
-0.05412126810043762 0:1 1:1784.5159 2:122.42004 3:516.24097 4:0.01777 
0.2338214363961252 0:1 1:1887.9951 2:118.39919 3:489.45871 4:0.015249 
0.4006149639263293 0:1 1:1932.5494 2:111.65286 3:530.43671 4:0.009767 
0.4006368010178172 0:1 1:1455.2574 2:187.60159 3:540.31665 4:0.016676 
0.4002300470463275 0:1 1:1309.333 2:137.77418 3:513.64008 4:0.033737 
-0.5538278362295723 0:1 1:1825.4937 2:108.40743 3:472.09235 4:0.012156 
-0.05432065541864338 0:1 1:2098.7412 2:131.70177 3:742.38281 4:0.01158 
0.06731623776446716 0:1 1:1603.5798 2:165.8728 3:482.72513 4:0.016049 
0.5677202494315032 0:1 1:1665.1149 2:136.17122 3:622.1748 4:0.016488 
0.5673162377645904 0:0 1:1464.4348 2:194.78667 3:398.70984 4:0.017125 
0.7339698010178173 0:1 1:1489.085 2:258.78903 3:595.60547 4:0.023468 
0.06713893798827522 0:1 1:1510.9131 2:148.28641 3:456.8219 4:0.023255 
0.2343862494315033 0:0 1:1633.4545 2:173.51231 3:635.51575 4:0.01878 
0.2338049379882752 0:1 1:2297.9304 2:184.23686 3:731.3606 4:0.012129 
-0.2204948362295723 0:1 1:1624.9089 2:114.43704 3:434.06674 4:0.021694 
-0.2209119261648738 0:1 1:2055.8557 2:137.8206 3:662.53265 4:0.014866 
-1 0:0 1:1464.4348 2:194.78667 3:398.70984 4:0.017125 
-0.05417759695854085 0:0 1:1387.7516 2:245.15866 3:457.76593 4:0.019292 
0.9007157927074315 0:1 1:1658.2784 2:187.0966 3:510.10651 4:0.017748 
-0.3875105969585408 0:1 1:1899.0386 2:211.1675 3:633.92914 4:0.012251 
-1 0:0 1:1194.8899 2:40.574505 3:235.69646 4:0.013789 
-0.05429458729768705 0:1 1:1545.4904 2:110.60689 3:519.73486 4:0.017725 
-0.7209876554186434 0:1 1:1273.736 2:62.218277 3:314.22421 4:0.015145 
0.9005625456072108 0:1 1:1692.3934 2:131.64836 3:754.89471 4:0.017739 
0.9007724788212762 0:1 1:1768.0786 2:212.32161 3:660.87097 4:0.021499 
-0.05429458729768705 0:1 1:2643.8999 2:126.8499 3:530.69006 4:0.009627 
