svm_type nu_svr
kernel_type rbf
gamma 0.2
nr_class 2
total_sv 15
rho -0.321418
SV
-0.3208997557860681 1:1 2:1784.5159 3:122.42004 4:0.000534 5:190 
1 1:1 2:1899.0386 3:211.1675 4:0.000403 5:140 
0.01166036060987391 1:1 2:1928.4839 3:184.08177 4:0.000689 5:170 
-0.6543018309966987 1:0 2:1464.4348 3:194.78667 4:0.000513 5:185 
0.1782171179568289 1:1 2:1455.2574 3:187.60159 4:0.000424 5:101 
-0.6542039776514553 1:1 2:2185.0735 3:174.87781 4:0.000298 5:52 
0.511424777443213 1:1 2:1418.5193 3:179.7747 4:0.00064 5:265 
-0.3208443559444175 1:0 2:1387.7516 3:245.15866 4:0.000562 5:220 
0.01160129161161186 1:1 2:1663.5341 3:111.76267 4:0.00042 5:73 
0.511660360609874 1:1 2:1489.085 3:258.78903 4:0.000672 5:255 
0.5116130113380848 1:1 2:1459.4364 3:243.40955 4:0.000538 5:190 
-0.8209270572251284 1:1 2:1825.4937 3:108.40743 4:0.000511 5:155 
0.3443987912968572 1:1 2:1481.2729 3:154.93671 4:0.00026 5:80 
0.344867174507839 1:1 2:1362.0447 3:134.63148 4:0.000658 5:275 
-0.6542659077704145 1:1 2:1899.0386 3:211.1675 4:0.000403 5:140 
