svm_type nu_svr
kernel_type rbf
gamma 0.2
nr_class 2
total_sv 110
rho 0.0281656
SV
0.0283203125 1:1 2:1784.5159 3:1015 4:0.01777 5:190 
0.0283203125 1:1 2:1928.4839 3:745 4:0.016227 5:170 
0.0283203125 1:1 2:1455.2574 3:1304 4:0.016676 5:101 
0.0283203125 1:1 2:2185.0735 3:777 4:0.007606 5:52 
0.0283203125 1:1 2:1418.5193 3:1114 4:0.024521 5:265 
0.0283203125 1:0 2:1387.7516 3:798 4:0.019292 5:220 
0.0283203125 1:1 2:1663.5341 3:960 4:0.01536 5:73 
0.02829521894454956 1:1 2:1489.085 3:841 4:0.023468 5:255 
0.0283203125 1:1 2:1459.4364 3:856 4:0.018424 5:190 
0.0283203125 1:1 2:1825.4937 3:905 4:0.012156 5:155 
0.0283203125 1:1 2:1481.2729 3:1102 4:0.011828 5:80 
0.0283203125 1:1 2:1362.0447 3:1033 4:0.025003 5:275 
0.0283203125 1:1 2:1899.0386 3:1034 4:0.012251 5:140 
0.0283203125 1:1 2:1219.8586 3:1229 4:0.024241 5:125 
0.0283203125 1:1 2:1472.0798 3:677 4:0.021674 5:175 
1 1:1 2:1658.2784 3:1154 4:0.017748 5:160 
-0.971623249235563 1:1 2:6199.2202 3:272 4:0.002271 5:59 
0.02786025038221851 1:1 2:1440.207 3:1284 4:0.02349 5:160 
0.02796806135575025 1:1 2:1309.333 3:1006 4:0.033737 5:148 
0.02809892955701798 1:1 2:1445.6055 3:1234 4:0.025695 5:170 
0.02827362879179418 1:1 2:1545.4904 3:1140 4:0.017725 5:175 
0.02827589213848114 1:1 2:1192.4337 3:1049 4:0.019303 5:135 
0.02829521894454956 1:1 2:4007.5034 3:814 4:0.009613 5:70 
0.02829627692699432 1:1 2:1273.736 3:1260 4:0.015145 5:45 
0.02790426262072287 1:0 2:1464.4348 3:956 4:0.017125 5:185 
0.02777862548828125 1:1 2:1639.1249 3:1187 4:0.015838 5:200 
0.02734375 1:1 2:1672.0845 3:1091 4:0.014183 5:170 
1 1:1 2:1768.0786 3:762 4:0.021499 5:290 
0.02734375 1:1 2:1430.9865 3:933 4:0.024319 5:220 
0.02734375 1:0 2:2025.5453 3:742 4:0.011465 5:120 
-0.9713622230628971 1:1 2:2617.1016 3:616 4:0.004951 5:45 
0.02734375 1:0 2:1348.2349 3:901 4:0.026871 5:150 
0.02734375 1:0 2:3196.9268 3:657 4:0.010741 5:115 
-0.9713812743211747 1:0 2:1194.8899 3:1170 4:0.013789 5:45 
0.02734375 1:0 2:1591.6799 3:906 4:0.01951 5:150 
0.02734375 1:0 2:1368.2917 3:1153 4:0.021692 5:230 
0.02734375 1:1 2:2055.8557 3:964 4:0.014866 5:140 
0.02734375 1:0 2:1633.4545 3:1260 4:0.01878 5:160 
1 1:1 2:1692.3934 3:1053 4:0.017739 5:250 
0.02734375 1:1 2:1345.3405 3:1307 4:0.03949 5:280 
0.02734375 1:1 2:1887.9951 3:868 4:0.015249 5:165 
-0.9712902499595657 1:1 2:3143.0408 3:1070 4:0.023328 5:100 
-0.9714076272884995 1:1 2:1609.4563 3:1322 4:0.038783 5:129 
0.02815818786621094 1:1 2:1932.5494 3:982 4:0.009767 5:174 
0.02816295623779297 1:1 2:2951.2705 3:920 4:0.022925 5:126 
0.02791476249694824 1:1 2:1469.601 3:1320 4:0.031653 5:165 
0.02789849042892456 1:1 2:1324.3845 3:1082 4:0.043385 5:128 
0.02813474833965302 1:1 2:1558.2727 3:1003 4:0.021834 5:190 
0.02734375 1:1 2:2358.7581 3:830 4:0.017196 5:120 
0.02734375 1:1 2:1624.9089 3:1098 4:0.021694 5:110 
0.02734375 1:1 2:1510.9131 3:1186 4:0.023255 5:150 
0.02734375 1:1 2:1378.2238 3:733 4:0.025702 5:190 
0.02734375 1:1 2:1710.5525 3:932 4:0.019139 5:80 
0.02734375 1:1 2:1671.8125 3:799 4:0.014563 5:100 
0.02734375 1:1 2:1168.4712 3:1215 4:0.022936 5:240 
0.02734375 1:1 2:1532.8699 3:1183 4:0.01907 5:140 
0.02734375 1:0 2:2309.8469 3:773 4:0.013489 5:75 
0.02786025038221851 1:1 2:1750.1954 3:1069 4:0.020216 5:115 
0.02785241603851318 1:1 2:1296.8911 3:833 4:0.02633 5:170 
0.02785241603851318 1:0 2:1348.8986 3:997 4:0.018689 5:120 
0.02790426262072287 1:1 2:1444.5995 3:989 4:0.022125 5:125 
0.02790426262072287 1:1 2:1433.3026 3:1128 4:0.029818 5:180 
0.02791336306836456 1:0 2:1404.7344 3:1219 4:0.029027 5:160 
0.02796806135575025 1:0 2:1848.2263 3:924 4:0.022152 5:165 
0.02798123783941264 1:0 2:2108.9033 3:1221 4:0.022825 5:180 
0.02799076346855145 1:1 2:1397.0787 3:1086 4:0.029616 5:160 
0.02802675002021715 1:1 2:5855.2632 3:582 4:0.03027 5:185 
0.02803962491452694 1:1 2:1794.0947 3:1073 4:0.019101 5:130 
0.02804108592681587 1:1 2:1609.3247 3:1017 4:0.022342 5:200 
0.02804108592681587 1:0 2:2492.2273 3:854 4:0.012635 5:90 
0.02809892955701798 1:1 2:1534.9164 3:1034 4:0.020593 5:140 
0.02812241774518043 1:1 2:1431.9677 3:1099 4:0.02256 5:180 
0.02815818786621094 1:0 2:1467.7281 3:998 4:0.020635 5:130 
0.02817996870726347 1:1 2:1991.5887 3:909 4:0.029963 5:100 
0.02817996870726347 1:1 2:2252.6785 3:937 4:0.032625 5:80 
0.02827362879179418 1:1 2:2573.2761 3:809 4:0.011023 5:75 
0.02827392145991325 1:1 2:1354.5868 3:1177 4:0.023571 5:170 
0.02827392145991325 1:1 2:2056.8992 3:1229 4:0.019401 5:90 
0.02742528915405273 1:1 2:1278.163 3:1164 4:0.039756 5:180 
0.02827589213848114 1:0 2:1209.1361 3:1039 4:0.01902 5:180 
0.02827589213848114 1:0 2:1837.3319 3:1151 4:0.014989 5:95 
0.02829521894454956 1:1 2:1375.2025 3:1058 4:0.015786 5:135 
0.02829521894454956 1:1 2:1076.4918 3:1196 4:0.036205 5:210 
0.02829521894454956 1:1 2:1250.2844 3:1183 4:0.01757 5:80 
0.02829627692699432 1:1 2:1496.0945 3:1137 4:0.022006 5:140 
0.0283203125 1:1 2:2084.5735 3:906 4:0.014357 5:120 
0.0283203125 1:1 2:1919.8759 3:1083 4:0.016317 5:100 
0.0283203125 1:1 2:1166.3569 3:1299 4:0.023703 5:170 
0.0283203125 1:1 2:1304.9731 3:1042 4:0.017483 5:245 
0.0283203125 1:1 2:1316.2446 3:1284 4:0.025977 5:120 
0.0283203125 1:1 2:1520.1614 3:974 4:0.016222 5:140 
0.0283203125 1:1 2:1289.1174 3:1261 4:0.021718 5:120 
0.0283203125 1:1 2:5618.0537 3:912 4:0.019284 5:200 
0.0283203125 1:1 2:1494.4624 3:1008 4:0.019318 5:170 
0.0283203125 1:1 2:1183.6102 3:926 4:0.017647 5:85 
0.0283203125 1:1 2:1990.678 3:836 4:0.010755 5:156 
0.0283203125 1:1 2:1383.3499 3:1056 4:0.023067 5:170 
0.0283203125 1:1 2:1284.7441 3:1203 4:0.034394 5:180 
0.0283203125 1:1 2:1848.5742 3:949 4:0.017136 5:150 
0.02785241603851318 1:0 2:2132.7498 3:792 4:0.013531 5:115 
0.02790426262072287 1:1 2:1456.9016 3:1189 4:0.032965 5:240 
0.02791336306836456 1:1 2:2338.5618 3:861 4:0.010502 5:85 
0.02804108592681587 1:1 2:2298.9255 3:791 4:0.01127 5:160 
-0.971145890885964 1:1 2:1321.229 3:1044 4:0.024424 5:120 
0.02817996870726347 1:1 2:1617.012 3:985 4:0.025715 5:145 
0.02827392145991325 1:1 2:1766.9111 3:898 4:0.017622 5:120 
0.02827589213848114 1:1 2:1769.5518 3:740 4:0.01313 5:80 
0.02829521894454956 1:1 2:1190.5663 3:1319 4:0.01913 5:135 
0.02817996870726347 1:1 2:2009.7479 3:1049 4:0.017524 5:145 
0.02803962491452694 1:1 2:1557.2062 3:1066 4:0.025899 5:220 
