svm_type nu_svr
kernel_type rbf
gamma 0.2
nr_class 2
total_sv 110
rho 0.0210572
SV
0.02133967703992334 1:1 2:122.42004 3:516.24097 4:0.000534 5:0.01777 
0.0153527317985499 1:1 2:184.08177 3:514.25031 4:0.000689 5:0.016227 
0.02136624154147737 1:1 2:187.60159 3:540.31665 4:0.000424 5:0.016676 
0.02082320058953102 1:1 2:174.87781 3:558.74066 4:0.000298 5:0.007606 
0.02082320058953102 1:1 2:179.7747 3:615.01532 4:0.00064 5:0.024521 
0.02136624154147737 1:0 2:245.15866 3:457.76593 4:0.000562 5:0.019292 
0.02072853132670882 1:1 2:111.76267 3:508.71634 4:0.00042 5:0.01536 
0.02132542115194502 1:1 2:258.78903 3:595.60547 4:0.000672 5:0.023468 
0.02090340407688218 1:1 2:243.40955 3:512.27393 4:0.000538 5:0.018424 
0.02090223589218715 1:1 2:108.40743 3:472.09235 4:0.000511 5:0.012156 
0.02129093914718316 1:1 2:154.93671 3:485.67459 4:0.00026 5:0.011828 
0.02138271084613164 1:1 2:134.63148 3:525.77222 4:0.000658 5:0.025003 
0.02081708511140201 1:1 2:211.1675 3:633.92914 4:0.000403 5:0.012251 
0.0209022358921872 1:1 2:125.32471 3:348.40878 4:0.000706 5:0.024241 
0.02132544365100342 1:1 2:317.07281 3:452.17032 4:0.000716 5:0.021674 
1 1:1 2:187.0966 3:510.10651 4:0.000593 5:0.017748 
-0.9792713251229491 1:1 2:152.31142 3:644.00458 4:0.000154 5:0.002271 
0.02082012828849067 1:1 2:156.18234 3:593.62805 4:0.000582 5:0.02349 
0.02113602919725599 1:1 2:137.77418 3:513.64008 4:0.000857 5:0.033737 
0.02120064820832412 1:1 2:169.74104 3:599.19843 4:0.000672 5:0.025695 
0.02111023901531675 1:1 2:110.60689 3:519.73486 4:0.000505 5:0.017725 
0.02138179209208779 1:1 2:117.79584 3:305.73157 4:0.000343 5:0.019303 
0.01060684735154171 1:1 2:93.960075 3:469.89963 4:0.000411 5:0.009613 
0.02085581050398844 1:1 2:62.218277 3:314.22421 4:0.000383 5:0.015145 
0.02129859932106737 1:0 2:194.78667 3:398.70984 4:0.000513 5:0.017125 
0.02138271084782162 1:1 2:272.56207 3:660.32135 4:0.000429 5:0.015838 
0.02076772409153333 1:1 2:233.00282 3:541.71991 4:0.000451 5:0.014183 
1 1:1 2:212.32161 3:660.87097 4:0.000707 5:0.021499 
0.02088419037878441 1:1 2:219.63496 3:526.19269 4:0.000586 5:0.024319 
0.02080227941102583 1:0 2:168.61116 3:417.44363 4:0.00039 5:0.011465 
-0.9786745563525563 1:1 2:122.04619 3:455.86713 4:0.00024 5:0.004951 
0.02137210176885132 1:0 2:251.46826 3:599.3794 4:0.000452 5:0.026871 
0.02118670232758665 1:0 2:100.71413 3:451.15335 4:0.000518 5:0.010741 
-0.9735852869672708 1:0 2:40.574505 3:235.69646 4:0.000326 5:0.013789 
0.02072867487705086 1:0 2:196.95021 3:564.58441 4:0.000589 5:0.01951 
0.02080677726212118 1:0 2:290.93979 3:497.3168 4:0.000531 5:0.021692 
0.02055295942942715 1:1 2:137.8206 3:662.53265 4:0.000613 5:0.014866 
0.02138262023342373 1:0 2:173.51231 3:635.51575 4:0.000602 5:0.01878 
1 1:1 2:131.64836 3:754.89471 4:0.000505 5:0.017739 
0.0212738085420027 1:1 2:164.6559 3:598.44568 4:0.000853 5:0.03949 
0.02130843236245436 1:1 2:118.39919 3:489.45871 4:0.000581 5:0.015249 
-0.9736074890833161 1:1 2:44.069962 3:232.14264 4:0.000933 5:0.023328 
-0.9790965887560346 1:1 2:572.40143 3:787.40277 4:0.001009 5:0.038783 
0.02133938157383325 1:1 2:111.65286 3:530.43671 4:0.000334 5:0.009767 
0.02069829702265081 1:1 2:168.07809 3:705.53766 4:0.000819 5:0.022925 
0.02133967703992493 1:1 2:211.117 3:568.73761 4:0.000853 5:0.031653 
0.02082862162018598 1:1 2:246.04076 3:520.5058 4:0.001194 5:0.043385 
0.01373037900473032 1:1 2:92.28968 3:470.82245 4:0.000697 5:0.021834 
0.02008792794772997 1:1 2:91.326851 3:433.52792 4:0.000637 5:0.017196 
0.02081462880025621 1:1 2:114.43704 3:434.06674 4:0.000818 5:0.021694 
0.02133985981587878 1:1 2:148.28641 3:456.8219 4:0.000876 5:0.023255 
0.02080671831624886 1:1 2:138.30226 3:394.25983 4:0.000771 5:0.025702 
0.02082862863087011 1:1 2:134.92932 3:479.24417 4:0.00073 5:0.019139 
0.02031550226012258 1:1 2:73.443481 3:393.99454 4:0.000549 5:0.014563 
0.02109246389223138 1:1 2:75.059196 3:306.28265 4:0.00056 5:0.022936 
0.02029743278171639 1:1 2:72.823708 3:398.27478 4:0.000775 5:0.01907 
0.02074422733724376 1:0 2:150.36011 3:490.4653 4:0.000551 5:0.013489 
0.02138263157886722 1:1 2:91.247353 3:510.93781 4:0.000774 5:0.020216 
0.02138271082555458 1:1 2:120.21809 3:295.81384 4:0.000658 5:0.02633 
0.02126015570658871 1:0 2:84.585358 3:372.37299 4:0.000589 5:0.018689 
0.02121307934436651 1:1 2:101.42107 3:385.08719 4:0.000664 5:0.022125 
0.02081340847179179 1:1 2:105.6449 3:416.68872 4:0.000865 5:0.029818 
0.02077956374448296 1:0 2:64.040039 3:457.70758 4:0.001064 5:0.029027 
0.02080231511727237 1:0 2:68.875267 3:300.74512 4:0.000683 5:0.022152 
0.02138271084782165 1:0 2:149.2966 3:619.66821 4:0.000748 5:0.022825 
0.02126494857264286 1:1 2:90.997894 3:409.6506 4:0.000758 5:0.029616 
0.02138263544197243 1:1 2:247.03374 3:489.89142 4:0.001417 5:0.03027 
0.02069829431086888 1:1 2:113.12672 3:411.80115 4:0.000766 5:0.019101 
0.02113602918888441 1:1 2:121.96153 3:529.01337 4:0.000767 5:0.022342 
0.01250649081742523 1:0 2:95.614876 3:472.04217 4:0.000626 5:0.012635 
0.02081281100452597 1:1 2:88.994751 3:415.63882 4:0.000814 5:0.020593 
0.02082301866911889 1:1 2:97.601379 3:381.51263 4:0.000724 5:0.02256 
0.2405621998467287 1:0 2:99.353554 3:413.94989 4:0.000723 5:0.020635 
0.02138260668420237 1:1 2:129.24826 3:416.67041 4:0.001007 5:0.029963 
0.02072477469242799 1:1 2:78.399452 3:374.42261 4:0.001106 5:0.032625 
0.02133982827262367 1:1 2:121.17292 3:418.05795 4:0.000473 5:0.011023 
0.02133967702229408 1:1 2:84.184044 3:357.68951 4:0.000575 5:0.023571 
0.02133938127603918 1:1 2:82.125359 3:435.76679 4:0.000696 5:0.019401 
0.02011679384976868 1:1 2:109.8411 3:443.70615 4:0.00131 5:0.039756 
0.02080062880419602 1:0 2:66.906998 3:265.21146 4:0.000441 5:0.01902 
0.02131316083685392 1:0 2:111.23468 3:497.15573 4:0.000727 5:0.014989 
0.02138256208960432 1:1 2:92.010223 3:369.80402 4:0.000435 5:0.015786 
0.02076313028533198 1:1 2:65.945 3:258.46668 4:0.000494 5:0.036205 
0.02082933679267806 1:1 2:47.813747 3:196.42186 4:0.00046 5:0.01757 
0.02077293079064078 1:1 2:107.93533 3:432.35168 4:0.000599 5:0.022006 
0.02126389605601555 1:1 2:77.674416 3:424.5589 4:0.000571 5:0.014357 
0.02003841900420501 1:1 2:111.05724 3:447.59552 4:0.000662 5:0.016317 
0.02138198637031646 1:1 2:57.090328 3:286.40317 4:0.00047 5:0.023703 
0.02091219920853045 1:1 2:97.889984 3:351.97165 4:0.000464 5:0.017483 
0.02087944081159891 1:1 2:81.708939 3:367.56323 4:0.000686 5:0.025977 
0.6085332491093313 1:1 2:99.147339 3:410.55814 4:0.000559 5:0.016222 
0.02131316084122996 1:1 2:38.322647 3:335.32657 4:0.000513 5:0.021718 
0.02121164817268847 1:1 2:100.42133 3:446.13959 4:0.000876 5:0.019284 
0.02080629085737625 1:1 2:82.794144 3:397.17868 4:0.000634 5:0.019318 
0.02138179211100626 1:1 2:78.912949 3:231.2446 4:0.00043 5:0.017647 
0.007758026326319801 1:1 2:94.83757 3:472.57263 4:0.000421 5:0.010755 
0.02102543711729159 1:1 2:67.299492 3:325.24512 4:0.000588 5:0.023067 
0.021314233442301 1:1 2:92.750999 3:461.4581 4:0.000756 5:0.034394 
0.02132544358098272 1:1 2:81.077324 3:490.23093 4:0.000754 5:0.017136 
0.02122756794228644 1:0 2:95.077652 3:386.00528 4:0.000546 5:0.013531 
0.02121101365097269 1:1 2:133.02512 3:466.98206 4:0.000748 5:0.032965 
0.02097641671399635 1:1 2:129.31689 3:463.5795 4:0.000409 5:0.010502 
0.02076200695779926 1:1 2:125.35245 3:384.93063 4:0.000342 5:0.01127 
-1 1:1 2:98.256821 3:411.86313 4:0.000787 5:0.024424 
0.02129387708293121 1:1 2:100.68175 3:401.09644 4:0.000827 5:0.025715 
0.02058947388524904 1:1 2:88.509705 3:395.96884 4:0.000584 5:0.017622 
0.02082862863085502 1:1 2:75.457474 3:454.82169 4:0.000661 5:0.01313 
0.02080615783067937 1:1 2:53.817097 3:279.95862 4:0.000468 5:0.01913 
0.02130516022964869 1:1 2:67.587502 3:434.78683 4:0.00086 5:0.017524 
0.02000978371304071 1:1 2:94.29567 3:436.28659 4:0.00088 5:0.025899 
