svm_type nu_svr
kernel_type rbf
gamma 0.25
nr_class 2
total_sv 53
rho -0.108601
SV
-0.1082676178476512 0:0 1:1 2:1784.5159 3:516.24097 4:0.000534 
1 0:0 1:1 2:1899.0386 3:633.92914 4:0.000403 
0.2245070547798932 0:0 1:1 2:1928.4839 3:514.25031 4:0.000689 
0.5575884834098233 0:0 1:0 2:1464.4348 3:398.70984 4:0.000513 
0.3910849001763486 0:7 1:1 2:1455.2574 3:540.31665 4:0.000424 
-0.4416216888806032 0:7 1:1 2:2185.0735 3:558.74066 4:0.000298 
0.724456693662588 0:3 1:1 2:1418.5193 3:615.01532 4:0.00064 
-0.1083058587723455 0:12 1:0 2:1387.7516 3:457.76593 4:0.000562 
0.2244236253114077 0:7 1:1 2:1663.5341 3:508.71634 4:0.00042 
0.7242738774457814 0:0 1:1 2:1489.085 3:595.60547 4:0.000672 
0.7242005123068724 0:8 1:1 2:1459.4364 3:512.27393 4:0.000538 
-0.6083270050464911 0:7 1:1 2:1825.4937 3:472.09235 4:0.000511 
0.5578080389433449 0:0 1:1 2:1481.2729 3:485.67459 4:0.00026 
0.557622467583595 0:7 1:1 2:1362.0447 3:525.77222 4:0.000658 
-0.4416006178476511 0:0 1:1 2:1899.0386 3:633.92914 4:0.000403 
0.391062394941399 0:0 1:1 2:1219.8586 3:348.40878 4:0.000706 
0.05784200969895912 0:2 1:1 2:1472.0798 3:452.17032 4:0.000716 
0.8908624774609033 0:0 1:1 2:1658.2784 3:510.10651 4:0.000593 
-1 0:2 1:1 2:6199.2202 3:644.00458 4:0.000154 
0.05787630109848377 0:5 1:1 2:1440.207 3:593.62805 4:0.000582 
0.3908854698969462 0:5 1:1 2:1309.333 3:513.64008 4:0.000857 
0.391073812740215 0:5 1:1 2:1445.6055 3:599.19843 4:0.000672 
-0.1077656451308028 0:8 1:1 2:1545.4904 3:519.73486 4:0.000505 
-0.6082639568019139 0:0 1:1 2:1192.4337 3:305.73157 4:0.000343 
-0.6077580624202727 0:0 1:1 2:4007.5034 3:469.89963 4:0.000411 
-0.7749643956300911 0:11 1:1 2:1273.736 3:314.22421 4:0.000383 
-1 0:0 1:0 2:1464.4348 3:398.70984 4:0.000513 
0.3907684319963465 0:2 1:1 2:1639.1249 3:660.32135 4:0.000429 
0.05752171596873915 0:2 1:1 2:1672.0845 3:541.71991 4:0.000451 
0.8910183266562189 0:10 1:1 2:1768.0786 3:660.87097 4:0.000707 
0.5576582059642751 0:10 1:1 2:1430.9865 3:526.19269 4:0.000586 
-0.2749377215558655 0:0 1:0 2:2025.5453 3:417.44363 4:0.00039 
-1 0:10 1:1 2:2617.1016 3:455.86713 4:0.00024 
-0.2749806708766991 0:12 1:0 2:1348.2349 3:599.3794 4:0.000452 
-0.6081671927931804 0:0 1:0 2:3196.9268 3:451.15335 4:0.000518 
-1 0:10 1:0 2:1194.8899 3:235.69646 4:0.000326 
-0.6083313934661299 0:4 1:0 2:1591.6799 3:564.58441 4:0.000589 
0.3908521774695113 0:4 1:0 2:1368.2917 3:497.3168 4:0.000531 
-0.2749661418972236 0:2 1:1 2:2055.8557 3:662.53265 4:0.000613 
0.2241161262041479 0:2 1:0 2:1633.4545 3:635.51575 4:0.000602 
0.8910415878349183 0:2 1:1 2:1692.3934 3:754.89471 4:0.000505 
0.557474260068627 0:5 1:1 2:1345.3405 3:598.44568 4:0.000853 
0.2245325912305739 0:5 1:1 2:1887.9951 3:489.45871 4:0.000581 
-1 0:4 1:1 2:3143.0408 3:232.14264 4:0.000933 
-1 0:0 1:1 2:1609.4563 3:787.40277 4:0.001009 
0.391181597636677 0:9 1:1 2:1932.5494 3:530.43671 4:0.000334 
0.3908836086569282 0:2 1:1 2:2951.2705 3:705.53766 4:0.000819 
-0.441635788690625 0:12 1:1 2:1469.601 3:568.73761 4:0.000853 
0.05775975911479228 0:0 1:1 2:1324.3845 3:520.5058 4:0.001194 
-0.1083683740832744 0:7 1:1 2:1558.2727 3:470.82245 4:0.000697 
-0.274979375973512 0:7 1:1 2:2358.7581 3:433.52792 4:0.000637 
-0.2749752860018919 0:3 1:1 2:1624.9089 3:434.06674 4:0.000818 
0.05784028545790768 0:5 1:1 2:1510.9131 3:456.8219 4:0.000876 
