svm_type nu_svr
kernel_type rbf
gamma 0.25
nr_class 2
total_sv 53
rho -0.108759
SV
-0.1084276583159931 0:0 1:1 2:1328.2211 3:0.000534 4:190 
1 0:0 1:1 2:1017.2359 3:0.000403 4:140 
0.2243029138953027 0:0 1:1 2:1216.2747 3:0.000689 4:170 
0.5575656017529891 0:0 1:0 2:1001.5763 3:0.000513 4:185 
0.3909478561541536 0:7 1:1 2:284.74152 3:0.000424 4:101 
-0.4418213756091054 0:7 1:1 2:1040.3964 3:0.000298 4:52 
0.7243373029430139 0:3 1:1 2:256.99347 3:0.00064 4:265 
-0.1084902253710942 0:12 1:0 2:353.39954 3:0.000562 4:220 
0.2242954712546053 0:7 1:1 2:724.33752 3:0.00042 4:73 
0.7239292794186218 0:0 1:1 2:276.96069 3:0.000672 4:255 
0.7239745267226796 0:8 1:1 2:358.11847 3:0.000538 4:190 
-0.6083918014992031 0:7 1:1 2:676.60901 3:0.000511 4:155 
0.5576555839941102 0:0 1:1 2:338.77457 3:0.00026 4:80 
0.5576607163949054 0:7 1:1 2:283.00702 3:0.000658 4:275 
-0.4418184834271736 0:0 1:1 2:1017.2359 3:0.000403 4:140 
0.3908797189233544 0:0 1:1 2:280.64706 3:0.000706 4:125 
0.05719923166317057 0:2 1:1 2:561.47235 3:0.000716 4:175 
0.8910116736421645 0:0 1:1 2:753.75763 3:0.000593 4:160 
-1 0:2 1:1 2:3468.8306 3:0.000154 4:59 
0.05732712856572126 0:5 1:1 2:276.49921 3:0.000582 4:160 
0.3908277485135079 0:5 1:1 2:260.56043 3:0.000857 4:148 
0.3910060698408199 0:5 1:1 2:391.67111 3:0.000672 4:170 
-0.1079892507252332 0:8 1:1 2:521.31824 3:0.000505 4:175 
-0.6083847467275136 0:0 1:1 2:345.1481 3:0.000343 4:135 
-0.608168853916597 0:0 1:1 2:5365.5361 3:0.000411 4:70 
-0.7679270118081153 0:11 1:1 2:252.03314 3:0.000383 4:45 
-1 0:0 1:0 2:1001.5763 3:0.000513 4:185 
0.3906799273068186 0:2 1:1 2:478.60736 3:0.000429 4:200 
0.05733682637213202 0:2 1:1 2:626.1297 3:0.000451 4:170 
0.890999186093284 0:10 1:1 2:897.86102 3:0.000707 4:290 
0.5573372646932933 0:10 1:1 2:390.26743 3:0.000586 4:220 
-0.2750712579154164 0:0 1:0 2:1598.9414 3:0.00039 4:120 
-1 0:10 1:1 2:1057.3951 3:0.00024 4:45 
-0.2751357934610019 0:12 1:0 2:238.24316 3:0.000452 4:150 
-0.6083798944890252 0:0 1:0 2:3760.4128 3:0.000518 4:115 
-1 0:10 1:0 2:256.2449 3:0.000326 4:45 
-0.6082220862673291 0:4 1:0 2:535.77716 3:0.000589 4:150 
0.390625203903692 0:4 1:0 2:373.483 3:0.000531 4:230 
-0.275120558386886 0:2 1:1 2:1151.014 3:0.000613 4:140 
0.2238744616254561 0:2 1:0 2:590.18298 3:0.000602 4:160 
0.8909221309207253 0:2 1:1 2:398.63901 3:0.000505 4:250 
0.5576700399234855 0:5 1:1 2:228.86702 3:0.000853 4:280 
0.2243331370289838 0:5 1:1 2:1196.2836 3:0.000581 4:165 
-1 0:4 1:1 2:4583.7803 3:0.000933 4:100 
-1 0:0 1:1 2:568.21381 3:0.001009 4:129 
0.3910059306100332 0:9 1:1 2:881.04571 3:0.000334 4:174 
0.3910036806314004 0:2 1:1 2:3948.0073 3:0.000819 4:126 
-0.4417849499617029 0:12 1:1 2:442.5748 3:0.000853 4:165 
0.05752422181902394 0:0 1:1 2:248.66318 3:0.001194 4:128 
-0.1084557072896306 0:7 1:1 2:800.05133 3:0.000697 4:190 
-0.2751483133922894 0:7 1:1 2:3012.1274 3:0.000637 4:120 
-0.2751572253710942 0:3 1:1 2:870.72296 3:0.000818 4:110 
0.05766235932695624 0:5 1:1 2:596.24262 3:0.000876 4:150 
