svm_type nu_svr
kernel_type rbf
gamma 0.25
nr_class 2
total_sv 52
rho -0.0830718
SV
-0.8520218072556173 0:4 1:0 2:0.000589 3:0.01951 4:150 
-0.5187818496062766 0:7 1:1 2:0.000697 3:0.021834 4:190 
0.1902796395350452 0:5 1:1 2:0.000457 3:0.015085 4:225 
-0.5238897331274319 0:12 1:1 2:0.000713 3:0.01502 4:67 
0.6908598129551516 0:12 1:1 2:0.000791 3:0.024701 4:138 
-1 0:0 1:1 2:0.001009 3:0.038783 4:129 
1 0:0 1:1 2:0.000403 3:0.012251 4:140 
-1 0:0 1:0 2:0.000277 3:0.005931 4:70 
0.3567919217655518 0:5 1:1 2:0.000672 3:0.025695 4:170 
0.8573096821202407 0:2 1:1 2:0.000478 3:0.014913 4:200 
1 0:8 1:1 2:0.000538 3:0.018424 4:190 
-1 0:4 1:1 2:0.000933 3:0.023328 4:100 
0.4546154865089148 0:7 1:1 2:0.000449 3:0.016127 4:225 
0.02259768457988562 0:5 1:1 2:0.000582 3:0.02349 4:160 
-0.3572001624770709 0:7 1:1 2:0.000298 3:0.007606 4:52 
0.02447069713823452 0:2 1:1 2:0.000716 3:0.021674 4:175 
0.357283169065906 0:4 1:0 2:0.000531 3:0.021692 4:230 
-0.5252608363647293 0:0 1:1 2:0.000343 3:0.019303 4:135 
-0.7716805248968358 0:5 1:1 2:0.000771 3:0.025702 4:190 
-1 0:2 1:1 2:0.000154 3:0.002271 4:59 
0.1901543225831051 0:0 1:1 2:0.000689 3:0.016227 4:170 
-0.3571867358285099 0:12 1:1 2:0.000853 3:0.031653 4:165 
-0.1896527258413205 0:0 1:0 2:0.00039 3:0.011465 4:120 
-0.523912470287767 0:0 1:0 2:0.000518 3:0.010741 4:115 
0.5246343222421082 0:3 1:1 2:0.000634 3:0.029261 4:240 
-0.7037090544558836 0:7 1:0 2:0.000434 3:0.018771 4:145 
0.5241202757467914 0:7 1:1 2:0.000658 3:0.025003 4:275 
-0.02145389332601295 0:0 1:1 2:0.000534 3:0.01777 4:190 
0.1903852750834939 0:5 1:1 2:0.000581 3:0.015249 4:165 
0.5897239020508299 0:9 1:1 2:0.000334 3:0.009767 4:174 
0.2289519674620051 0:7 1:1 2:0.000424 3:0.016676 4:101 
0.4249325656881111 0:5 1:1 2:0.000857 3:0.033737 4:148 
-0.5241850910614824 0:7 1:1 2:0.000511 3:0.012156 4:155 
-0.02385282126950612 0:0 1:1 2:0.000415 3:0.01158 4:90 
0.7373381735721832 0:5 1:1 2:0.000501 3:0.016049 4:100 
0.5236875647207884 0:0 1:1 2:0.000535 3:0.016488 4:205 
0.5247736912601786 0:0 1:0 2:0.000513 3:0.017125 4:185 
0.6903753947899263 0:0 1:1 2:0.000672 3:0.023468 4:255 
0.3855599174055297 0:5 1:1 2:0.000876 3:0.023255 4:150 
0.188221460998086 0:2 1:1 2:0.000475 3:0.012129 4:145 
-0.1899367785968006 0:3 1:1 2:0.000818 3:0.021694 4:110 
-0.4940511427756648 0:2 1:1 2:0.000613 3:0.014866 4:140 
-1 0:0 1:0 2:0.000513 3:0.017125 4:185 
-0.02407822388752807 0:12 1:0 2:0.000562 3:0.019292 4:220 
0.8576372666428481 0:0 1:1 2:0.000593 3:0.017748 4:160 
-0.1749231002293845 0:0 1:1 2:0.000403 3:0.012251 4:140 
-0.9576554838237488 0:10 1:0 2:0.000326 3:0.013789 4:45 
-0.3818323471066792 0:8 1:1 2:0.000505 3:0.017725 4:175 
-0.1093786816599179 0:11 1:1 2:0.000383 3:0.015145 4:45 
0.8572236099073076 0:2 1:1 2:0.000505 3:0.017739 4:250 
0.8580721961777775 0:10 1:1 2:0.000707 3:0.021499 4:290 
-0.02535653612183213 0:5 1:1 2:0.000435 3:0.009627 4:105 
