svm_type nu_svr
kernel_type rbf
gamma 0.25
nr_class 2
total_sv 53
rho -0.0765167
SV
-0.5542424155968723 0:4 1:0 2:1591.6799 3:0.000589 4:0.01951 
-0.05370782027055819 0:7 1:1 2:1558.2727 3:0.000697 4:0.021834 
0.4013425148141992 0:5 1:1 2:1728.682 3:0.000457 4:0.015085 
-0.5542090899764455 0:12 1:1 2:2234.8701 3:0.000713 4:0.01502 
0.7347412498156056 0:12 1:1 2:1652.1434 3:0.000791 4:0.024701 
-1 0:0 1:1 2:1609.4563 3:0.001009 4:0.038783 
1 0:0 1:1 2:1899.0386 3:0.000403 4:0.012251 
-1 0:0 1:0 2:2853.9756 3:0.000277 4:0.005931 
0.4013194258188515 0:5 1:1 2:1445.6055 3:0.000672 4:0.025695 
0.9013190512485428 0:2 1:1 2:2036.9913 3:0.000478 4:0.014913 
0.7305231082249922 0:8 1:1 2:1459.4364 3:0.000538 4:0.018424 
-1 0:4 1:1 2:3143.0408 3:0.000933 4:0.023328 
0.5666367293591482 0:7 1:1 2:1772.2177 3:0.000449 4:0.016127 
0.06740481827874856 0:5 1:1 2:1440.207 3:0.000582 4:0.02349 
-0.3874390714909245 0:7 1:1 2:2185.0735 3:0.000298 4:0.007606 
0.06802971899669646 0:2 1:1 2:1472.0798 3:0.000716 4:0.021674 
0.4013398073804627 0:4 1:0 2:1368.2917 3:0.000531 4:0.021692 
-0.5541060714885309 0:0 1:1 2:1192.4337 3:0.000343 4:0.019303 
-0.8877462580695257 0:5 1:1 2:1378.2238 3:0.000771 4:0.025702 
-1 0:2 1:1 2:6199.2202 3:0.000154 4:0.002271 
0.23434199549344 0:0 1:1 2:1928.4839 3:0.000689 4:0.016227 
-0.3870260687097533 0:12 1:1 2:1469.601 3:0.000853 4:0.031653 
-0.2209094155968738 0:0 1:0 2:2025.5453 3:0.00039 4:0.011465 
-0.5542090899764455 0:0 1:0 2:3196.9268 3:0.000518 4:0.010741 
0.5676845120508127 0:3 1:1 2:1344.2603 3:0.000634 4:0.029261 
-0.7201617761702709 0:7 1:0 2:1467.5948 3:0.000434 4:0.018771 
0.5680314516543753 0:7 1:1 2:1362.0447 3:0.000658 4:0.025003 
-0.05424903161133421 0:0 1:1 2:1784.5159 3:0.000534 4:0.01777 
0.2346138584508445 0:5 1:1 2:1887.9951 3:0.000581 4:0.015249 
0.4011040973868444 0:9 1:1 2:1932.5494 3:0.000334 4:0.009767 
0.393859432377737 0:7 1:1 2:1455.2574 3:0.000424 4:0.016676 
0.4008173616471882 0:5 1:1 2:1309.333 3:0.000857 4:0.033737 
-0.5540906245444961 0:7 1:1 2:1825.4937 3:0.000511 4:0.012156 
-0.05439631242470233 0:0 1:1 2:2098.7412 3:0.000415 4:0.01158 
0.06777144114689146 0:5 1:1 2:1603.5798 3:0.000501 4:0.016049 
0.5676684135731845 0:0 1:1 2:1665.1149 3:0.000535 4:0.016488 
0.5674846347530629 0:0 1:0 2:1464.4348 3:0.000513 4:0.017125 
0.7347412498156056 0:0 1:1 2:1489.085 3:0.000672 4:0.023468 
0.06768451205081273 0:5 1:1 2:1510.9131 3:0.000876 4:0.023255 
0.2343458081467523 0:2 1:0 2:1633.4545 3:0.000602 4:0.01878 
0.234688574720013 0:2 1:1 2:2297.9304 3:0.000475 4:0.012129 
-0.2207576262116395 0:3 1:1 2:1624.9089 3:0.000818 4:0.021694 
-0.2209160316113342 0:2 1:1 2:2055.8557 3:0.000613 4:0.014866 
-1 0:0 1:0 2:1464.4348 3:0.000513 4:0.017125 
-0.05446739522826451 0:12 1:0 2:1387.7516 3:0.000562 4:0.019292 
0.9013142680367879 0:0 1:1 2:1658.2784 3:0.000593 4:0.017748 
-0.3874219353042795 0:0 1:1 2:1899.0386 3:0.000403 4:0.012251 
-1 0:10 1:0 2:1194.8899 3:0.000326 4:0.013789 
-0.05446739522826498 0:8 1:1 2:1545.4904 3:0.000505 4:0.017725 
-0.7210633124247023 0:11 1:1 2:1273.736 3:0.000383 4:0.015145 
0.9010081418696356 0:2 1:1 2:1692.3934 3:0.000505 4:0.017739 
0.9001838228887646 0:10 1:1 2:1768.0786 3:0.000707 4:0.021499 
-0.0544132580647817 0:5 1:1 2:2643.8999 3:0.000435 4:0.009627 
