svm_type nu_svr
kernel_type rbf
gamma 0.25
nr_class 2
total_sv 53
rho -0.108601
SV
-0.1082676165579628 0:0 1:1784.5159 2:516.24097 3:0.000534 4:0.01777 
1 0:0 1:1899.0386 2:633.92914 3:0.000403 4:0.012251 
0.2245070528975836 0:0 1:1928.4839 2:514.25031 3:0.000689 4:0.016227 
0.5575884806996194 0:0 1:1464.4348 2:398.70984 3:0.000513 4:0.017125 
0.3910849011595436 0:7 1:1455.2574 2:540.31665 3:0.000424 4:0.016676 
-0.4416216882466122 0:7 1:2185.0735 2:558.74066 3:0.000298 4:0.007606 
0.7244566938877716 0:3 1:1418.5193 2:615.01532 3:0.00064 4:0.024521 
-0.1083058568897512 0:12 1:1387.7516 2:457.76593 3:0.000562 4:0.019292 
0.2244236257225574 0:7 1:1663.5341 2:508.71634 3:0.00042 4:0.01536 
0.724273878114666 0:0 1:1489.085 2:595.60547 3:0.000672 4:0.023468 
0.7242005137588079 0:8 1:1459.4364 2:512.27393 3:0.000538 4:0.018424 
-0.608327002523595 0:7 1:1825.4937 2:472.09235 3:0.000511 4:0.012156 
0.5578080408799031 0:0 1:1481.2729 2:485.67459 3:0.00026 4:0.011828 
0.557622468326995 0:7 1:1362.0447 2:525.77222 3:0.000658 4:0.025003 
-0.4416006165579628 0:0 1:1899.0386 2:633.92914 3:0.000403 4:0.012251 
0.3910623956849982 0:0 1:1219.8586 2:348.40878 3:0.000706 4:0.024241 
0.05784200986276385 0:2 1:1472.0798 2:452.17032 3:0.000716 4:0.021674 
0.8908624799413399 0:0 1:1658.2784 2:510.10651 3:0.000593 4:0.017748 
-1 0:2 1:6199.2202 2:644.00458 3:0.000154 4:0.002271 
0.05787630162753613 0:5 1:1440.207 2:593.62805 3:0.000582 4:0.02349 
0.39088547109337 0:5 1:1309.333 2:513.64008 3:0.000857 4:0.033737 
0.3910738146174813 0:5 1:1445.6055 2:599.19843 3:0.000672 4:0.025695 
-0.1077656450131658 0:8 1:1545.4904 2:519.73486 3:0.000505 4:0.017725 
-0.608263956219991 0:0 1:1192.4337 2:305.73157 3:0.000343 4:0.019303 
-0.607758062544505 0:0 1:4007.5034 2:469.89963 3:0.000411 4:0.009613 
-0.774964394712412 0:11 1:1273.736 2:314.22421 3:0.000383 4:0.015145 
-1 0:0 1:1464.4348 2:398.70984 3:0.000513 4:0.017125 
0.3907684330858709 0:2 1:1639.1249 2:660.32135 3:0.000429 4:0.015838 
0.05752171523769956 0:2 1:1672.0845 2:541.71991 3:0.000451 4:0.014183 
0.8910183273912784 0:10 1:1768.0786 2:660.87097 3:0.000707 4:0.021499 
0.5576582077236323 0:10 1:1430.9865 2:526.19269 3:0.000586 4:0.024319 
-0.2749377211200119 0:0 1:2025.5453 2:417.44363 3:0.00039 4:0.011465 
-1 0:10 1:2617.1016 2:455.86713 3:0.00024 4:0.004951 
-0.2749807269289632 0:12 1:1348.2349 2:599.3794 3:0.000452 4:0.026871 
-0.6081671928453594 0:0 1:3196.9268 2:451.15335 3:0.000518 4:0.010741 
-1 0:10 1:1194.8899 2:235.69646 3:0.000326 4:0.013789 
-0.6083313935237238 0:4 1:1591.6799 2:564.58441 3:0.000589 4:0.01951 
0.3908521801541306 0:4 1:1368.2917 2:497.3168 3:0.000531 4:0.021692 
-0.2749661407363642 0:2 1:2055.8557 2:662.53265 3:0.000613 4:0.014866 
0.224116125004047 0:2 1:1633.4545 2:635.51575 3:0.000602 4:0.01878 
0.8910415904062252 0:2 1:1692.3934 2:754.89471 3:0.000505 4:0.017739 
0.5574742865018089 0:5 1:1345.3405 2:598.44568 3:0.000853 4:0.03949 
0.2245325913956761 0:5 1:1887.9951 2:489.45871 3:0.000581 4:0.015249 
-1 0:4 1:3143.0408 2:232.14264 3:0.000933 4:0.023328 
-1 0:0 1:1609.4563 2:787.40277 3:0.001009 4:0.038783 
0.3911815982762776 0:9 1:1932.5494 2:530.43671 3:0.000334 4:0.009767 
0.3908836094078024 0:2 1:2951.2705 2:705.53766 3:0.000819 4:0.022925 
-0.4416357872158203 0:12 1:1469.601 2:568.73761 3:0.000853 4:0.031653 
0.05775976019999812 0:0 1:1324.3845 2:520.5058 3:0.001194 4:0.043385 
-0.1083683741774541 0:7 1:1558.2727 2:470.82245 3:0.000697 4:0.021834 
-0.2749793758555397 0:7 1:2358.7581 2:433.52792 3:0.000637 4:0.017196 
-0.274975284842868 0:3 1:1624.9089 2:434.06674 3:0.000818 4:0.021694 
0.05784028345267792 0:5 1:1510.9131 2:456.8219 3:0.000876 4:0.023255 
