svm_type nu_svr
kernel_type rbf
gamma 0.2
nr_class 2
total_sv 110
rho 0.0281466
SV
0.0283203125 1:0 2:1328.2211 3:1784.5159 4:516.24097 5:0.000534 
0.0283203125 1:0 2:1216.2747 3:1928.4839 4:514.25031 5:0.000689 
0.0283203125 1:7 2:284.74152 3:1455.2574 4:540.31665 5:0.000424 
0.0283203125 1:7 2:1040.3964 3:2185.0735 4:558.74066 5:0.000298 
0.0283203125 1:3 2:256.99347 3:1418.5193 4:615.01532 5:0.00064 
0.0283203125 1:12 2:353.39954 3:1387.7516 4:457.76593 5:0.000562 
0.0283203125 1:7 2:724.33752 3:1663.5341 4:508.71634 5:0.00042 
0.02785241603851352 1:0 2:276.96069 3:1489.085 4:595.60547 5:0.000672 
0.02804108592681609 1:8 2:358.11847 3:1459.4364 4:512.27393 5:0.000538 
0.02817996870726369 1:7 2:676.60901 3:1825.4937 4:472.09235 5:0.000511 
0.02827392145991336 1:0 2:338.77457 3:1481.2729 4:485.67459 5:0.00026 
0.02827589213848125 1:7 2:283.00702 3:1362.0447 4:525.77222 5:0.000658 
0.02829521894454967 1:0 2:1017.2359 3:1899.0386 4:633.92914 5:0.000403 
0.0283203125 1:0 2:280.64706 3:1219.8586 4:348.40878 5:0.000706 
0.0283203125 1:2 2:561.47235 3:1472.0798 4:452.17032 5:0.000716 
1 1:0 2:753.75763 3:1658.2784 4:510.10651 5:0.000593 
-0.9714058760146143 1:2 2:3468.8306 3:6199.2202 4:644.00458 5:0.000154 
0.02785241603851318 1:5 2:276.49921 3:1440.207 4:593.62805 5:0.000582 
0.02791815610180515 1:5 2:260.56043 3:1309.333 4:513.64008 5:0.000857 
0.02817996870726347 1:5 2:391.67111 3:1445.6055 4:599.19843 5:0.000672 
0.02827392145991325 1:8 2:521.31824 3:1545.4904 4:519.73486 5:0.000505 
0.02827589213848114 1:0 2:345.1481 3:1192.4337 4:305.73157 5:0.000343 
0.02829521894454956 1:0 2:5365.5361 3:4007.5034 4:469.89963 5:0.000411 
0.02833598852157604 1:11 2:252.03314 3:1273.736 4:314.22421 5:0.000383 
0.02817996870726347 1:0 2:1001.5763 3:1464.4348 4:398.70984 5:0.000513 
0.02777862548828125 1:2 2:478.60736 3:1639.1249 4:660.32135 5:0.000429 
0.02734375 1:2 2:626.1297 3:1672.0845 4:541.71991 5:0.000451 
1 1:10 2:897.86102 3:1768.0786 4:660.87097 5:0.000707 
0.02734375 1:10 2:390.26743 3:1430.9865 4:526.19269 5:0.000586 
0.02734375 1:0 2:1598.9414 3:2025.5453 4:417.44363 5:0.00039 
-0.9713754398981108 1:10 2:1057.3951 3:2617.1016 4:455.86713 5:0.00024 
0.02734374999999606 1:12 2:238.24316 3:1348.2349 4:599.3794 5:0.000452 
0.02734375 1:0 2:3760.4128 3:3196.9268 4:451.15335 5:0.000518 
-0.971664011478424 1:10 2:256.2449 3:1194.8899 4:235.69646 5:0.000326 
0.02734375 1:4 2:535.77716 3:1591.6799 4:564.58441 5:0.000589 
0.02734375 1:4 2:373.483 3:1368.2917 4:497.3168 5:0.000531 
0.02734375 1:2 2:1151.014 3:2055.8557 4:662.53265 5:0.000613 
0.02734375 1:2 2:590.18298 3:1633.4545 4:635.51575 5:0.000602 
1 1:2 2:398.63901 3:1692.3934 4:754.89471 5:0.000505 
0.02734374999999645 1:5 2:228.86702 3:1345.3405 4:598.44568 5:0.000853 
0.02815818786621094 1:5 2:1196.2836 3:1887.9951 4:489.45871 5:0.000581 
-0.9716389179229729 1:4 2:4583.7803 3:3143.0408 4:232.14264 5:0.000933 
-0.9712615781463676 1:0 2:568.21381 3:1609.4563 4:787.40277 5:0.001009 
0.02816295623779297 1:9 2:881.04571 3:1932.5494 4:530.43671 5:0.000334 
0.02791476249694824 1:2 2:3948.0073 3:2951.2705 4:705.53766 5:0.000819 
0.02789849042892456 1:12 2:442.5748 3:1469.601 4:568.73761 5:0.000853 
0.02742528915405273 1:0 2:248.66318 3:1324.3845 4:520.5058 5:0.001194 
0.02813474833965302 1:7 2:800.05133 3:1558.2727 4:470.82245 5:0.000697 
0.02734375 1:7 2:3012.1274 3:2358.7581 4:433.52792 5:0.000637 
0.02734375 1:3 2:870.72296 3:1624.9089 4:434.06674 5:0.000818 
0.02734375 1:5 2:596.24262 3:1510.9131 4:456.8219 5:0.000876 
0.02734375 1:5 2:552.27222 3:1378.2238 4:394.25983 5:0.000771 
0.02734375 1:5 2:871.32562 3:1710.5525 4:479.24417 5:0.00073 
0.02734375 1:0 2:694.47742 3:1671.8125 4:393.99454 5:0.000549 
0.02734375 1:0 2:200.09001 3:1168.4712 4:306.28265 5:0.00056 
0.02785241603851318 1:8 2:529.72784 3:1532.8699 4:398.27478 5:0.000775 
0.02785241603851318 1:2 2:2012.1512 3:2309.8469 4:490.4653 5:0.000551 
0.02785241603851357 1:10 2:850.95929 3:1750.1954 4:510.93781 5:0.000774 
0.02791815610180509 1:0 2:768.0473 3:1296.8911 4:295.81384 5:0.000658 
0.02796893699269287 1:0 2:459.62476 3:1348.8986 4:372.37299 5:0.000589 
0.02798415505094459 1:3 2:682.61542 3:1444.5995 4:385.08719 5:0.000664 
0.02803962491452694 1:0 2:767.72119 3:1433.3026 4:416.68872 5:0.000865 
0.02804108592681587 1:7 2:567.7085 3:1404.7344 4:457.70758 5:0.001064 
0.02804108592681587 1:5 2:1923.7953 3:1848.2263 4:300.74512 5:0.000683 
0.02804108592681614 1:0 2:2342.4438 3:2108.9033 4:619.66821 5:0.000748 
0.02815818786621094 1:5 2:601.82971 3:1397.0787 4:409.6506 5:0.000758 
0.02817996870726347 1:0 2:6078.5239 3:5855.2632 4:489.89142 5:0.001417 
0.02817996870726347 1:5 2:1655.2334 3:1794.0947 4:411.80115 5:0.000766 
0.02817996870726375 1:0 2:797.86145 3:1609.3247 4:529.01337 5:0.000767 
0.02827392145991325 1:2 2:2360.9907 3:2492.2273 4:472.04217 5:0.000626 
0.02827392145991325 1:0 2:667.60211 3:1534.9164 4:415.63882 5:0.000814 
0.02827392145991336 1:8 2:610.76752 3:1431.9677 4:381.51263 5:0.000724 
0.02827589213848114 1:2 2:475.0296 3:1467.7281 4:413.94989 5:0.000723 
0.02827589213848114 1:0 2:2689.7979 3:1991.5887 4:416.67041 5:0.001007 
0.02827589213848125 1:0 2:3298.5713 3:2252.6785 4:374.42261 5:0.001106 
0.02829521894454956 1:5 2:3204.7935 3:2573.2761 4:418.05795 5:0.000473 
0.02734375000000118 1:3 2:506.10291 3:1354.5868 4:357.68951 5:0.000575 
0.0273437500000004 1:0 2:2666.9524 3:2056.8992 4:435.76679 5:0.000696 
0.0273437500000004 1:0 2:354.80908 3:1278.163 4:443.70615 5:0.00131 
0.02829521894454956 1:0 2:330.05197 3:1209.1361 4:265.21146 5:0.000441 
0.02829521894454967 1:2 2:635.41363 3:1837.3319 4:497.15573 5:0.000727 
0.0283203125 1:5 2:479.36807 3:1375.2025 4:369.80402 5:0.000435 
0.0283203125 1:5 2:147.18599 3:1076.4918 4:258.46668 5:0.000494 
0.0283203125 1:1 2:888.4707 3:1250.2844 4:196.42186 5:0.00046 
0.0283203125 1:5 2:1079.5116 3:1496.0945 4:432.35168 5:0.000599 
0.0283203125 1:7 2:2167.0908 3:2084.5735 4:424.5589 5:0.000571 
0.0283203125 1:8 2:1636.6272 3:1919.8759 4:447.59552 5:0.000662 
0.0283203125 1:2 2:319.84677 3:1166.3569 4:286.40317 5:0.00047 
0.0283203125 1:10 2:402.14963 3:1304.9731 4:351.97165 5:0.000464 
0.0283203125 1:1 2:444.22903 3:1316.2446 4:367.56323 5:0.000686 
0.0283203125 1:10 2:568.70892 3:1520.1614 4:410.55814 5:0.000559 
0.0283203125 1:0 2:371.97244 3:1289.1174 4:335.32657 5:0.000513 
0.0283203125 1:8 2:6455.0381 3:5618.0537 4:446.13959 5:0.000876 
0.0283203125 1:10 2:626.05267 3:1494.4624 4:397.17868 5:0.000634 
0.0283203125 1:7 2:502.02637 3:1183.6102 4:231.2446 5:0.00043 
0.02785241603851318 1:3 2:905.76196 3:1990.678 4:472.57263 5:0.000421 
0.02804108592681587 1:5 2:728.33258 3:1383.3499 4:325.24512 5:0.000588 
0.02817996870726347 1:10 2:290.28839 3:1284.7441 4:461.4581 5:0.000756 
0.0273437500000004 1:4 2:689.09216 3:1848.5742 4:490.23093 5:0.000754 
0.02827392145991325 1:0 2:2369.6111 3:2132.7498 4:386.00528 5:0.000546 
0.02827589213848114 1:8 2:1131.85 3:1456.9016 4:466.98206 5:0.000748 
0.02829521894454956 1:5 2:2690.9695 3:2338.5618 4:463.5795 5:0.000409 
0.0283203125 1:7 2:3133.0188 3:2298.9255 4:384.93063 5:0.000342 
-0.9715074377963897 1:3 2:671.90271 3:1321.229 4:411.86313 5:0.000787 
0.0283203125 1:0 2:1074.9319 3:1617.012 4:401.09644 5:0.000827 
0.0283203125 1:5 2:1693.8639 3:1766.9111 4:395.96884 5:0.000584 
0.0283203125 1:0 2:537.10272 3:1769.5518 4:454.82169 5:0.000661 
0.0283203125 1:3 2:515.8432 3:1190.5663 4:279.95862 5:0.000468 
0.02817996870726347 1:0 2:1533.7312 3:2009.7479 4:434.78683 5:0.00086 
0.02803962491452694 1:3 2:736.91437 3:1557.2062 4:436.28659 5:0.00088 
