svm_type nu_svr
kernel_type rbf
gamma 0.2
nr_class 2
total_sv 108
rho 0.0365272
SV
0.02237262952718366 1:0 2:1 3:122.42004 4:0.000534 5:0.01777 
-0.1261762486647174 1:0 2:1 3:184.08177 4:0.000689 5:0.016227 
0.03636527793689859 1:7 2:1 3:187.60159 4:0.000424 5:0.016676 
0.03613809005563551 1:7 2:1 3:174.87781 4:0.000298 5:0.007606 
0.03696006151826303 1:3 2:1 3:179.7747 4:0.00064 5:0.024521 
0.03591560079267075 1:12 2:0 3:245.15866 4:0.000562 5:0.019292 
0.03360644030715387 1:7 2:1 3:111.76267 4:0.00042 5:0.01536 
0.03640934294613307 1:0 2:1 3:258.78903 4:0.000672 5:0.023468 
0.03574839455820555 1:8 2:1 3:243.40955 4:0.000538 5:0.018424 
0.01709770084349549 1:7 2:1 3:108.40743 4:0.000511 5:0.012156 
0.1471571901611213 1:0 2:1 3:154.93671 4:0.00026 5:0.011828 
0.02188873156620341 1:7 2:1 3:134.63148 4:0.000658 5:0.025003 
0.03679308484531585 1:0 2:1 3:211.1675 4:0.000403 5:0.012251 
0.03714640698442262 1:0 2:1 3:125.32471 4:0.000706 5:0.024241 
0.03651702560085923 1:2 2:1 3:317.07281 4:0.000716 5:0.021674 
1 1:0 2:1 3:187.0966 4:0.000593 5:0.017748 
-1 1:2 2:1 3:152.31142 4:0.000154 5:0.002271 
0.0435261518704566 1:5 2:1 3:156.18234 4:0.000582 5:0.02349 
0.006424754308581471 1:5 2:1 3:137.77418 4:0.000857 5:0.033737 
0.03351406164153303 1:5 2:1 3:169.74104 4:0.000672 5:0.025695 
0.06228002165598512 1:8 2:1 3:110.60689 4:0.000505 5:0.017725 
0.03003898560815899 1:0 2:1 3:117.79584 4:0.000343 5:0.019303 
0.03890201774772717 1:0 2:1 3:93.960075 4:0.000411 5:0.009613 
0.03608701344556908 1:11 2:1 3:62.218277 4:0.000383 5:0.015145 
0.03607636559397487 1:0 2:0 3:194.78667 4:0.000513 5:0.017125 
0.03678441086072592 1:2 2:1 3:272.56207 4:0.000429 5:0.015838 
0.03587062825087026 1:2 2:1 3:233.00282 4:0.000451 5:0.014183 
1 1:10 2:1 3:212.32161 4:0.000707 5:0.021499 
0.03624483520741946 1:10 2:1 3:219.63496 4:0.000586 5:0.024319 
0.02801325525455848 1:0 2:0 3:168.61116 4:0.00039 5:0.011465 
-0.9643390501456816 1:10 2:1 3:122.04619 4:0.00024 5:0.004951 
0.0360274569626422 1:12 2:0 3:251.46826 4:0.000452 5:0.026871 
-0.1553383842240928 1:0 2:0 3:100.71413 4:0.000518 5:0.010741 
-0.9630863044924162 1:10 2:0 3:40.574505 4:0.000326 5:0.013789 
0.03546857572050092 1:4 2:0 3:196.95021 4:0.000589 5:0.01951 
0.0360389125231176 1:4 2:0 3:290.93979 4:0.000531 5:0.021692 
0.03048026497357548 1:2 2:1 3:137.8206 4:0.000613 5:0.014866 
0.03604932711133849 1:2 2:0 3:173.51231 4:0.000602 5:0.01878 
1 1:2 2:1 3:131.64836 4:0.000505 5:0.017739 
0.03562304075470069 1:5 2:1 3:164.6559 4:0.000853 5:0.03949 
0.02854813562038218 1:5 2:1 3:118.39919 4:0.000581 5:0.015249 
-0.9635421704682626 1:4 2:1 3:44.069962 4:0.000933 5:0.023328 
-0.9629843199204685 1:0 2:1 3:572.40143 4:0.001009 5:0.038783 
0.0452813565605592 1:9 2:1 3:111.65286 4:0.000334 5:0.009767 
0.02262689193971829 1:2 2:1 3:168.07809 4:0.000819 5:0.022925 
-0.2989495091544179 1:12 2:1 3:211.117 4:0.000853 5:0.031653 
0.02062882676629661 1:0 2:1 3:246.04076 4:0.001194 5:0.043385 
0.01219696187216987 1:7 2:1 3:91.326851 4:0.000637 5:0.017196 
0.02706660186658655 1:3 2:1 3:114.43704 4:0.000818 5:0.021694 
0.01794014215159227 1:5 2:1 3:148.28641 4:0.000876 5:0.023255 
0.02460335123860012 1:5 2:1 3:138.30226 4:0.000771 5:0.025702 
0.0006737687427893282 1:5 2:1 3:134.92932 4:0.00073 5:0.019139 
0.02948256547239838 1:0 2:1 3:73.443481 4:0.000549 5:0.014563 
-0.007724671893953653 1:0 2:1 3:75.059196 4:0.00056 5:0.022936 
0.03607641617819052 1:8 2:1 3:72.823708 4:0.000775 5:0.01907 
0.4381464499761509 1:2 2:0 3:150.36011 4:0.000551 5:0.013489 
0.02010031725763331 1:10 2:1 3:91.247353 4:0.000774 5:0.020216 
0.01794619623612615 1:0 2:1 3:120.21809 4:0.000658 5:0.02633 
0.02635966806027805 1:0 2:0 3:84.585358 4:0.000589 5:0.018689 
0.01507734060951909 1:3 2:1 3:101.42107 4:0.000664 5:0.022125 
0.03562933259764021 1:0 2:1 3:105.6449 4:0.000865 5:0.029818 
0.03090286086793159 1:7 2:0 3:64.040039 4:0.001064 5:0.029027 
0.03205879822112473 1:5 2:0 3:68.875267 4:0.000683 5:0.022152 
-0.06046385577456784 1:0 2:0 3:149.2966 4:0.000748 5:0.022825 
-0.02350898919830418 1:5 2:1 3:90.997894 4:0.000758 5:0.029616 
0.01892891865357103 1:0 2:1 3:247.03374 4:0.001417 5:0.03027 
0.01753260985443592 1:5 2:1 3:113.12672 4:0.000766 5:0.019101 
0.1130377757275956 1:2 2:0 3:95.614876 4:0.000626 5:0.012635 
0.03557795808144042 1:0 2:1 3:88.994751 4:0.000814 5:0.020593 
0.02729176574451599 1:8 2:1 3:97.601379 4:0.000724 5:0.02256 
0.5819711638475663 1:2 2:0 3:99.353554 4:0.000723 5:0.020635 
-0.1063575755670714 1:0 2:1 3:129.24826 4:0.001007 5:0.029963 
0.03023967453845971 1:0 2:1 3:78.399452 4:0.001106 5:0.032625 
0.0347243693701603 1:5 2:1 3:121.17292 4:0.000473 5:0.011023 
0.02639404533072937 1:3 2:1 3:84.184044 4:0.000575 5:0.023571 
0.02038566045152171 1:0 2:1 3:82.125359 4:0.000696 5:0.019401 
0.02878838862873538 1:0 2:1 3:109.8411 4:0.00131 5:0.039756 
0.02071006901232599 1:0 2:0 3:66.906998 4:0.000441 5:0.01902 
0.02488750107793608 1:2 2:0 3:111.23468 4:0.000727 5:0.014989 
0.06459197215511539 1:5 2:1 3:92.010223 4:0.000435 5:0.015786 
0.02542888965471191 1:5 2:1 3:65.945 4:0.000494 5:0.036205 
0.04617313619985752 1:1 2:1 3:47.813747 4:0.00046 5:0.01757 
0.02740709814962969 1:5 2:1 3:107.93533 4:0.000599 5:0.022006 
0.02361059050384175 1:7 2:1 3:77.674416 4:0.000571 5:0.014357 
-0.08741586922953994 1:8 2:1 3:111.05724 4:0.000662 5:0.016317 
0.03280030249116209 1:2 2:1 3:57.090328 4:0.00047 5:0.023703 
0.01327748895625995 1:10 2:1 3:97.889984 4:0.000464 5:0.017483 
0.006370557264259537 1:1 2:1 3:81.708939 4:0.000686 5:0.025977 
0.009663757820281093 1:10 2:1 3:99.147339 4:0.000559 5:0.016222 
0.03612364876861729 1:0 2:1 3:38.322647 4:0.000513 5:0.021718 
0.02826061218168644 1:8 2:1 3:100.42133 4:0.000876 5:0.019284 
0.0361574732320502 1:10 2:1 3:82.794144 4:0.000634 5:0.019318 
0.01671643840681616 1:7 2:1 3:78.912949 4:0.00043 5:0.017647 
0.3610087425105906 1:3 2:1 3:94.83757 4:0.000421 5:0.010755 
0.001013170625061552 1:5 2:1 3:67.299492 4:0.000588 5:0.023067 
0.02173117323530479 1:10 2:1 3:92.750999 4:0.000756 5:0.034394 
0.02963369181283788 1:4 2:1 3:81.077324 4:0.000754 5:0.017136 
-0.03355650669767614 1:0 2:0 3:95.077652 4:0.000546 5:0.013531 
0.02485684120121254 1:8 2:1 3:133.02512 4:0.000748 5:0.032965 
-0.01914345216732207 1:5 2:1 3:129.31689 4:0.000409 5:0.010502 
0.05402322787732012 1:7 2:1 3:125.35245 4:0.000342 5:0.01127 
-1 1:3 2:1 3:98.256821 4:0.000787 5:0.024424 
0.0608271438581421 1:0 2:1 3:100.68175 4:0.000827 5:0.025715 
0.03600148256684241 1:5 2:1 3:88.509705 4:0.000584 5:0.017622 
0.02497104829253343 1:0 2:1 3:75.457474 4:0.000661 5:0.01313 
0.03348458951168989 1:3 2:1 3:53.817097 4:0.000468 5:0.01913 
0.02058739225756781 1:0 2:1 3:67.587502 4:0.00086 5:0.017524 
-0.3275155016245778 1:3 2:1 3:94.29567 4:0.00088 5:0.025899 
