svm_type nu_svr
kernel_type rbf
gamma 0.2
nr_class 2
total_sv 53
rho -0.108331
SV
-0.1081735779533316 0:0 1:0 2:122.42004 3:516.24097 4:0.000534 5:0.01777 
1 0:0 1:0 2:211.1675 3:633.92914 4:0.000403 5:0.012251 
0.2196183900985464 0:0 1:0 2:184.08177 3:514.25031 4:0.000689 5:0.016227 
0.5575552272443147 0:0 1:0 2:194.78667 3:398.70984 4:0.000513 5:0.017125 
0.3910465330740373 0:0 1:7 2:187.60159 3:540.31665 4:0.000424 5:0.016676 
-0.4409477155983608 0:0 1:7 2:174.87781 3:558.74066 4:0.000298 5:0.007606 
0.7244654986221795 0:0 1:3 2:179.7747 3:615.01532 4:0.00064 5:0.024521 
-0.1081546302634831 0:0 1:12 2:245.15866 3:457.76593 4:0.000562 5:0.019292 
0.2245586692077852 0:0 1:7 2:111.76267 3:508.71634 4:0.00042 5:0.01536 
0.7246145376438957 0:0 1:0 2:258.78903 3:595.60547 4:0.000672 5:0.023468 
0.7243562101841657 0:0 1:8 2:243.40955 3:512.27393 4:0.000538 5:0.018424 
-0.6075972643375042 0:0 1:7 2:108.40743 3:472.09235 4:0.000511 5:0.012156 
0.5579049973123865 0:0 1:0 2:154.93671 3:485.67459 4:0.00026 5:0.011828 
0.5577313473389822 0:0 1:7 2:134.63148 3:525.77222 4:0.000658 5:0.025003 
-0.4409512449620561 0:0 1:0 2:211.1675 3:633.92914 4:0.000403 5:0.012251 
0.3909539185270396 0:0 1:0 2:125.32471 3:348.40878 4:0.000706 5:0.024241 
0.05789485951982849 0:0 1:2 2:317.07281 3:452.17032 4:0.000716 5:0.021674 
0.8901065455322579 0:0 1:0 2:187.0966 3:510.10651 4:0.000593 5:0.017748 
-1 0:0 1:2 2:152.31142 3:644.00458 4:0.000154 5:0.002271 
0.05757973667413858 0:0 1:5 2:156.18234 3:593.62805 4:0.000582 5:0.02349 
0.3909844430718343 0:0 1:5 2:137.77418 3:513.64008 4:0.000857 5:0.033737 
0.3884261253865302 0:0 1:5 2:169.74104 3:599.19843 4:0.000672 5:0.025695 
-0.1075840650055779 0:0 1:8 2:110.60689 3:519.73486 4:0.000505 5:0.017725 
-0.6079819073457295 0:0 1:0 2:117.79584 3:305.73157 4:0.000343 5:0.019303 
-0.6081712203965083 0:0 1:0 2:93.960075 3:469.89963 4:0.000411 5:0.009613 
-0.7748192385418812 0:0 1:11 2:62.218277 3:314.22421 4:0.000383 5:0.015145 
-1 0:0 1:0 2:194.78667 3:398.70984 4:0.000513 5:0.017125 
0.3910335882237725 0:0 1:2 2:272.56207 3:660.32135 4:0.000429 5:0.015838 
0.05766417257649007 0:0 1:2 2:233.00282 3:541.71991 4:0.000451 5:0.014183 
0.891291646245214 0:0 1:10 2:212.32161 3:660.87097 4:0.000707 5:0.021499 
0.5577939659866442 0:0 1:10 2:219.63496 3:526.19269 4:0.000586 5:0.024319 
-0.2742550874823853 0:0 1:0 2:168.61116 3:417.44363 4:0.00039 5:0.011465 
-1 0:0 1:10 2:122.04619 3:455.86713 4:0.00024 5:0.004951 
-0.2742510319159143 0:0 1:12 2:251.46826 3:599.3794 4:0.000452 5:0.026871 
-0.6075826820599348 0:0 1:0 2:100.71413 3:451.15335 4:0.000518 5:0.010741 
-1 0:0 1:10 2:40.574505 3:235.69646 4:0.000326 5:0.013789 
-0.6075775044273384 0:0 1:4 2:196.95021 3:564.58441 4:0.000589 5:0.01951 
0.3909338004791404 0:0 1:4 2:290.93979 3:497.3168 4:0.000531 5:0.021692 
-0.2742661651317539 0:0 1:2 2:137.8206 3:662.53265 4:0.000613 5:0.014866 
0.2243694470097229 0:0 1:2 2:173.51231 3:635.51575 4:0.000602 5:0.01878 
0.8911073305506273 0:0 1:2 2:131.64836 3:754.89471 4:0.000505 5:0.017739 
0.5560045116117429 0:0 1:5 2:164.6559 3:598.44568 4:0.000853 5:0.03949 
0.2243597572804182 0:0 1:5 2:118.39919 3:489.45871 4:0.000581 5:0.015249 
-1 0:0 1:4 2:44.069962 3:232.14264 4:0.000933 5:0.023328 
-1 0:0 1:0 2:572.40143 3:787.40277 4:0.001009 5:0.038783 
0.391302343962276 0:0 1:9 2:111.65286 3:530.43671 4:0.000334 5:0.009767 
0.3908782568047787 0:0 1:2 2:168.07809 3:705.53766 4:0.000819 5:0.022925 
-0.4409238132158242 0:0 1:12 2:211.117 3:568.73761 4:0.000853 5:0.031653 
0.0578803822058754 0:0 1:0 2:246.04076 3:520.5058 4:0.001194 5:0.043385 
-0.1075831503527696 0:1 1:7 2:92.28968 3:470.82245 4:0.000697 5:0.021834 
-0.2748833365159841 0:1 1:7 2:91.326851 3:433.52792 4:0.000637 5:0.017196 
-0.2743169997648854 0:1 1:3 2:114.43704 3:434.06674 4:0.000818 5:0.021694 
0.05760439289659681 0:1 1:5 2:148.28641 3:456.8219 4:0.000876 5:0.023255 
