svm_type nu_svr
kernel_type rbf
gamma 0.2
nr_class 2
total_sv 53
rho -0.108598
SV
-0.1083474596826413 0:0 1:1328.2211 2:1784.5159 3:1015 4:122.42004 5:0.000534 
1 0:0 1:1017.2359 2:1899.0386 3:1034 4:211.1675 5:0.000403 
0.2245816020132773 0:0 1:1216.2747 2:1928.4839 3:745 4:184.08177 5:0.000689 
0.5578790469727741 0:0 1:1001.5763 2:1464.4348 3:956 4:194.78667 5:0.000513 
0.3908415999680828 0:0 1:284.74152 2:1455.2574 3:1304 4:187.60159 5:0.000424 
-0.4415838159723646 0:0 1:1040.3964 2:2185.0735 3:777 4:174.87781 5:0.000298 
0.7245352526445519 0:0 1:256.99347 2:1418.5193 3:1114 4:179.7747 5:0.00064 
-0.1078700479767545 0:0 1:353.39954 2:1387.7516 3:798 4:245.15866 5:0.000562 
0.2243673964347803 0:0 1:724.33752 2:1663.5341 3:960 4:111.76267 5:0.00042 
0.7244233681157398 0:0 1:276.96069 2:1489.085 3:841 4:258.78903 5:0.000672 
0.7241640228528071 0:0 1:358.11847 2:1459.4364 3:856 4:243.40955 5:0.000538 
-0.6082453757790778 0:0 1:676.60901 2:1825.4937 3:905 4:108.40743 5:0.000511 
0.5574504594444687 0:0 1:338.77457 2:1481.2729 3:1102 4:154.93671 5:0.00026 
0.557509373033986 0:0 1:283.00702 2:1362.0447 3:1033 4:134.63148 5:0.000658 
-0.4415902523295498 0:0 1:1017.2359 2:1899.0386 3:1034 4:211.1675 5:0.000403 
0.3908006526369195 0:0 1:280.64706 2:1219.8586 3:1229 4:125.32471 5:0.000706 
0.05789676222635592 0:0 1:561.47235 2:1472.0798 3:677 4:317.07281 5:0.000716 
0.8908125457757761 0:0 1:753.75763 2:1658.2784 3:1154 4:187.0966 5:0.000593 
-1 0:0 1:3468.8306 2:6199.2202 3:272 4:152.31142 5:0.000154 
0.05742066579112537 0:0 1:276.49921 2:1440.207 3:1284 4:156.18234 5:0.000582 
0.3907936053029856 0:0 1:260.56043 2:1309.333 3:1006 4:137.77418 5:0.000857 
0.3907945336946091 0:0 1:391.67111 2:1445.6055 3:1234 4:169.74104 5:0.000672 
-0.1077841634744955 0:0 1:521.31824 2:1545.4904 3:1140 4:110.60689 5:0.000505 
-0.6082569751569146 0:0 1:345.1481 2:1192.4337 3:1049 4:117.79584 5:0.000343 
-0.608208255521512 0:0 1:5365.5361 2:4007.5034 3:814 4:93.960075 5:0.000411 
-0.7750144596826413 0:0 1:252.03314 2:1273.736 3:1260 4:62.218277 5:0.000383 
-1 0:0 1:1001.5763 2:1464.4348 3:956 4:194.78667 5:0.000513 
0.390797703376782 0:0 1:478.60736 2:1639.1249 3:1187 4:272.56207 5:0.000429 
0.05745785092334616 0:0 1:626.1297 2:1672.0845 3:1091 4:233.00282 5:0.000451 
0.8911654877036888 0:0 1:897.86102 2:1768.0786 3:762 4:212.32161 5:0.000707 
0.5574957771609318 0:0 1:390.26743 2:1430.9865 3:933 4:219.63496 5:0.000586 
-0.2749124995818915 0:0 1:1598.9414 2:2025.5453 3:742 4:168.61116 5:0.00039 
-1 0:0 1:1057.3951 2:2617.1016 3:616 4:122.04619 5:0.00024 
-0.2749372184407238 0:0 1:238.24316 2:1348.2349 3:901 4:251.46826 5:0.000452 
-0.6082169969389615 0:0 1:3760.4128 2:3196.9268 3:657 4:100.71413 5:0.000518 
-1 0:0 1:256.2449 2:1194.8899 3:1170 4:40.574505 5:0.000326 
-0.6082758971097151 0:0 1:535.77716 2:1591.6799 3:906 4:196.95021 5:0.000589 
0.3908306577330083 0:0 1:373.483 2:1368.2917 3:1153 4:290.93979 5:0.000531 
-0.2744796443559124 0:0 1:1151.014 2:2055.8557 3:964 4:137.8206 5:0.000613 
0.2245249634412562 0:0 1:590.18298 2:1633.4545 3:1260 4:173.51231 5:0.000602 
0.8909960009428417 0:0 1:398.63901 2:1692.3934 3:1053 4:131.64836 5:0.000505 
0.557478729830823 0:0 1:228.86702 2:1345.3405 3:1307 4:164.6559 5:0.000853 
0.2245816020132773 0:0 1:1196.2836 2:1887.9951 3:868 4:118.39919 5:0.000581 
-1 0:0 1:4583.7803 2:3143.0408 3:1070 4:44.069962 5:0.000933 
-1 0:0 1:568.21381 2:1609.4563 3:1322 4:572.40143 5:0.001009 
0.3908749827692433 0:0 1:881.04571 2:1932.5494 3:982 4:111.65286 5:0.000334 
0.3908041637064357 0:0 1:3948.0073 2:2951.2705 3:920 4:168.07809 5:0.000819 
-0.4416209902451064 0:0 1:442.5748 2:1469.601 3:1320 4:211.117 5:0.000853 
0.05751358319043676 0:0 1:248.66318 2:1324.3845 3:1082 4:246.04076 5:0.001194 
-0.1079539763199373 0:1 1:800.05133 2:1558.2727 3:1003 4:92.28968 5:0.000697 
-0.2744855871945953 0:1 1:3012.1274 2:2358.7581 3:830 4:91.326851 5:0.000637 
-0.2744780939715318 0:1 1:870.72296 2:1624.9089 3:1098 4:114.43704 5:0.000818 
0.05746932003401516 0:1 1:596.24262 2:1510.9131 3:1186 4:148.28641 5:0.000876 
