svm_type nu_svr
kernel_type rbf
gamma 0.2
nr_class 2
total_sv 53
rho -0.0767628
SV
-0.5540429407355386 0:0 1:1591.6799 2:564.58441 3:0.000589 4:0.01951 5:150 
-0.054038701873611 0:1 1:1558.2727 2:470.82245 3:0.000697 4:0.021834 5:190 
0.4005490602862054 0:0 1:1728.682 2:725.46198 3:0.000457 4:0.015085 5:225 
-0.5541061093225078 0:0 1:2234.8701 2:714.8045 3:0.000713 4:0.01502 5:67 
0.7338440171373686 0:0 1:1652.1434 2:669.13043 3:0.000791 4:0.024701 5:138 
-1 0:0 1:1609.4563 2:787.40277 3:0.001009 4:0.038783 5:129 
1 0:0 1:1899.0386 2:633.92914 3:0.000403 4:0.012251 5:140 
-1 0:0 1:2853.9756 2:447.74573 3:0.000277 4:0.005931 5:70 
0.4003001180634543 0:0 1:1445.6055 2:599.19843 3:0.000672 4:0.025695 5:170 
0.9011938281752965 0:0 1:2036.9913 2:1005.8044 3:0.000478 4:0.014913 5:200 
0.7345112123732169 0:0 1:1459.4364 2:512.27393 3:0.000538 4:0.018424 5:190 
-1 0:0 1:3143.0408 2:232.14264 3:0.000933 4:0.023328 5:100 
0.567134701521557 0:0 1:1772.2177 2:866.62476 3:0.000449 4:0.016127 5:225 
0.06741720177494132 0:0 1:1440.207 2:593.62805 3:0.000582 4:0.02349 5:160 
-0.3875307634258065 0:0 1:2185.0735 2:558.74066 3:0.000298 4:0.007606 5:52 
0.06759507839783777 0:0 1:1472.0798 2:452.17032 3:0.000716 4:0.021674 5:175 
0.4004532198549113 0:0 1:1368.2917 2:497.3168 3:0.000531 4:0.021692 5:230 
-0.5542919539759588 0:0 1:1192.4337 2:305.73157 3:0.000343 4:0.019303 5:135 
-0.8873759407355386 0:1 1:1378.2238 2:394.25983 3:0.000771 4:0.025702 5:190 
-1 0:0 1:6199.2202 2:644.00458 3:0.000154 4:0.002271 5:59 
0.2336331180634551 0:0 1:1928.4839 2:514.25031 3:0.000689 4:0.016227 5:170 
-0.3872329018845955 0:0 1:1469.601 2:568.73761 3:0.000853 4:0.031653 5:165 
-0.2209247093609081 0:0 1:2025.5453 2:417.44363 3:0.00039 4:0.011465 5:120 
-0.5541061093225078 0:0 1:3196.9268 2:451.15335 3:0.000518 4:0.010741 5:115 
0.5678608281752964 0:0 1:1344.2603 2:525.13648 3:0.000634 4:0.029261 5:240 
-0.7209589539759588 0:0 1:1467.5948 2:406.57483 3:0.000434 4:0.018771 5:145 
0.5671780171373686 0:0 1:1362.0447 2:525.77222 3:0.000658 4:0.025003 5:275 
-0.05425770936090808 0:0 1:1784.5159 2:516.24097 3:0.000534 4:0.01777 5:190 
0.233800701521557 0:0 1:1887.9951 2:489.45871 3:0.000581 4:0.015249 5:165 
0.4004532198549113 0:0 1:1932.5494 2:530.43671 3:0.000334 4:0.009767 5:174 
0.4009280783978377 0:0 1:1455.2574 2:540.31665 3:0.000424 4:0.016676 5:101 
0.4007502017749462 0:0 1:1309.333 2:513.64008 3:0.000857 4:0.033737 5:148 
-0.5541977634258065 0:0 1:1825.4937 2:472.09235 3:0.000511 4:0.012156 5:155 
-0.05410610932250783 0:0 1:2098.7412 2:742.38281 3:0.000415 4:0.01158 5:90 
0.06720333916728208 0:0 1:1603.5798 2:482.72513 3:0.000501 4:0.016049 5:100 
0.5671730016965073 0:0 1:1665.1149 2:622.1748 3:0.000535 4:0.016488 5:205 
0.5672160602862054 0:0 1:1464.4348 2:398.70984 3:0.000513 4:0.017125 5:185 
0.7338390016965073 0:0 1:1489.085 2:595.60547 3:0.000672 4:0.023468 5:255 
0.06720333916728208 0:1 1:1510.9131 2:456.8219 3:0.000876 4:0.023255 5:150 
0.2337862198549113 0:0 1:1633.4545 2:635.51575 3:0.000602 4:0.01878 5:160 
0.2337862198549113 0:0 1:2297.9304 2:731.3606 3:0.000475 4:0.012129 5:145 
-0.2211916665039051 0:1 1:1624.9089 2:434.06674 3:0.000818 4:0.021694 5:110 
-0.2210369870533724 0:0 1:2055.8557 2:662.53265 3:0.000613 4:0.014866 5:140 
-1 0:0 1:1464.4348 2:398.70984 3:0.000513 4:0.017125 5:185 
-0.054038701873611 0:0 1:1387.7516 2:457.76593 3:0.000562 4:0.019292 5:220 
0.901178212373217 0:0 1:1658.2784 2:510.10651 3:0.000593 4:0.017748 5:160 
-0.3873759407355386 0:0 1:1899.0386 2:633.92914 3:0.000403 4:0.012251 5:140 
-1 0:0 1:1194.8899 2:235.69646 3:0.000326 4:0.013789 5:45 
-0.05436998705337242 0:0 1:1545.4904 2:519.73486 3:0.000505 4:0.017725 5:175 
-0.7207731093225078 0:0 1:1273.736 2:314.22421 3:0.000383 4:0.015145 5:45 
0.9005060016965073 0:0 1:1692.3934 2:754.89471 3:0.000505 4:0.017739 5:250 
0.9005060016965072 0:0 1:1768.0786 2:660.87097 3:0.000707 4:0.021499 5:290 
-0.05404294073553859 0:0 1:2643.8999 2:530.69006 3:0.000435 4:0.009627 5:105 
