svm_type nu_svr
kernel_type rbf
gamma 0.166667
nr_class 2
total_sv 15
rho -0.321402
SV
-0.3207782636183854 1:0 2:0 3:1 4:516.24097 5:0.01777 6:190 
1 1:0 2:0 3:1 4:633.92914 5:0.012251 6:140 
0.0117788320463495 1:0 2:0 3:1 4:514.25031 5:0.016227 6:170 
-0.653991406921224 1:0 2:0 3:0 4:398.70984 5:0.017125 6:185 
0.1778501278700458 1:0 2:7 3:1 4:540.31665 5:0.016676 6:101 
-0.6540533261758679 1:0 2:7 3:1 4:558.74066 5:0.007606 6:52 
0.5112705337226782 1:0 2:3 3:1 4:615.01532 5:0.024521 6:265 
-0.3208537056006131 1:0 2:12 3:0 4:457.76593 5:0.019292 6:220 
0.0117788320463495 1:0 2:7 3:1 4:508.71634 5:0.01536 6:73 
0.511445436139684 1:0 2:0 3:1 4:595.60547 5:0.023468 6:255 
0.5116622134144924 1:0 2:8 3:1 4:512.27393 5:0.018424 6:190 
-0.8208388736435449 1:0 2:7 3:1 4:472.09235 5:0.012156 6:155 
0.344402425866406 1:0 2:0 3:1 4:485.67459 5:0.011828 6:80 
0.3444345946103409 1:0 2:7 3:1 4:525.77222 5:0.025003 6:275 
-0.6541074197567105 1:0 2:0 3:1 4:633.92914 5:0.012251 6:140 
