svm_type nu_svr
kernel_type rbf
gamma 0.2
nr_class 2
total_sv 53
rho -0.0766492
SV
-0.5543355996416808 0:0 1:4 2:0 3:196.95021 4:564.58441 5:0.000589 
-0.05433559964168079 0:1 1:7 2:1 3:92.28968 4:470.82245 5:0.000697 
0.4008991807861331 0:0 1:5 2:1 3:140.46902 4:725.46198 5:0.000457 
-0.5537837510351227 0:0 1:12 2:1 3:126.06876 4:714.8045 5:0.000713 
0.7342276140434634 0:0 1:12 2:1 3:228.85782 4:669.13043 5:0.000791 
-1 0:0 1:0 2:1 3:572.40143 4:787.40277 5:0.001009 
1 0:0 1:0 2:1 3:211.1675 4:633.92914 5:0.000403 
-1 0:0 1:0 2:0 3:239.30429 4:447.74573 5:0.000277 
0.4008794741046264 0:0 1:5 2:1 3:169.74104 4:599.19843 5:0.000672 
0.900647834152559 0:0 1:2 2:1 3:446.46307 4:1005.8044 5:0.000478 
0.7346902782645311 0:0 1:8 2:1 3:243.40955 4:512.27393 5:0.000538 
-1 0:0 1:4 2:1 3:44.069962 4:232.14264 5:0.000933 
0.5675661807861331 0:0 1:7 2:1 3:211.8461 4:866.62476 5:0.000449 
0.06756161404346343 0:0 1:5 2:1 3:156.18234 4:593.62805 5:0.000582 
-0.3875806546450748 0:0 1:7 2:1 3:174.87781 4:558.74066 5:0.000298 
0.06771710467119334 0:0 1:2 2:1 3:317.07281 4:452.17032 5:0.000716 
0.4011712011818298 0:0 1:4 2:0 3:290.93979 4:497.3168 5:0.000531 
-0.5537837510351227 0:0 1:0 2:1 3:117.79584 4:305.73157 5:0.000343 
-0.8873792914491716 0:1 1:5 2:1 3:138.30226 4:394.25983 5:0.000771 
-1 0:0 1:2 2:1 3:152.31142 4:644.00458 5:0.000154 
0.2290758343165988 0:0 1:0 2:1 3:184.08177 4:514.25031 5:0.000689 
-0.3873792914491717 0:0 1:12 2:1 3:211.117 4:568.73761 5:0.000853 
-0.2205844103048408 0:0 1:0 2:0 3:168.61116 4:417.44363 5:0.00039 
-0.5538802487239005 0:0 1:0 2:0 3:100.71413 4:451.15335 5:0.000518 
0.5675464741046264 0:0 1:3 2:1 3:171.88068 4:525.13648 5:0.000634 
-0.7209146546450641 0:0 1:7 2:0 3:201.55022 4:406.57483 5:0.000434 
0.5675616151230934 0:0 1:7 2:1 3:134.63148 4:525.77222 5:0.000658 
-0.05433559964168079 0:0 1:0 2:1 3:122.42004 4:516.24097 5:0.000534 
0.2345042011818298 0:0 1:5 2:1 3:118.39919 4:489.45871 5:0.000581 
0.4008946140475265 0:0 1:9 2:1 3:111.65286 4:530.43671 5:0.000334 
0.4008794741046264 0:0 1:7 2:1 3:187.60159 4:540.31665 5:0.000424 
0.4006478341525532 0:0 1:5 2:1 3:137.77418 4:513.64008 5:0.000857 
-0.5540462914491717 0:0 1:7 2:1 3:108.40743 4:472.09235 5:0.000511 
-0.05463648259994337 0:0 1:0 2:1 3:131.70177 4:742.38281 5:0.000415 
0.06802427826453117 0:0 1:5 2:1 3:165.8728 4:482.72513 5:0.000501 
0.5679821917810439 0:0 1:0 2:1 3:136.17122 4:622.1748 5:0.000535 
0.5670683279577589 0:0 1:0 2:0 3:194.78667 4:398.70984 5:0.000513 
0.7338091195618557 0:0 1:0 2:1 3:258.78903 4:595.60547 5:0.000672 
0.06706263747697359 0:1 1:5 2:1 3:148.28641 4:456.8219 5:0.000876 
0.2346481917810439 0:0 1:2 2:0 3:173.51231 4:635.51575 5:0.000602 
0.2343831046711933 0:0 1:2 2:1 3:184.23686 4:731.3606 5:0.000475 
-0.2210025996416808 0:1 1:3 2:1 3:114.43704 4:434.06674 5:0.000818 
-0.2210313761071571 0:0 1:2 2:1 3:137.8206 4:662.53265 5:0.000613 
-1 0:0 1:0 2:0 3:194.78667 4:398.70984 5:0.000513 
-0.05391741030484078 0:0 1:12 2:0 3:245.15866 4:457.76593 5:0.000562 
0.8991960257743294 0:0 1:0 2:1 3:187.0966 4:510.10651 5:0.000593 
-0.3872132487239005 0:0 1:0 2:1 3:211.1675 4:633.92914 5:0.000403 
-1 0:0 1:10 2:0 3:40.574505 4:235.69646 5:0.000326 
-0.05478206027938699 0:0 1:8 2:1 3:110.60689 4:519.73486 5:0.000505 
-0.7207132914491716 0:0 1:11 2:1 3:62.218277 4:314.22421 5:0.000383 
0.9008794741046271 0:0 1:2 2:1 3:131.64836 4:754.89471 5:0.000505 
0.9004761195618556 0:0 1:10 2:1 3:212.32161 4:660.87097 5:0.000707 
-0.05436438723223579 0:0 1:5 2:1 3:126.8499 4:530.69006 5:0.000435 
