svm_type nu_svr
kernel_type rbf
gamma 0.166667
nr_class 2
total_sv 110
rho 0.0254996
SV
0.02592347705226195 1:0 2:0 3:122.42004 4:516.24097 5:0.000534 6:0.01777 
0.01290658609253409 1:0 2:0 3:184.08177 4:514.25031 5:0.000689 6:0.016227 
0.02548773296265083 1:0 2:7 3:187.60159 4:540.31665 5:0.000424 6:0.016676 
0.02529757531105403 1:0 2:7 3:174.87781 4:558.74066 5:0.000298 6:0.007606 
0.02592145601132712 1:0 2:3 3:179.7747 4:615.01532 5:0.00064 6:0.024521 
0.02546572793986301 1:0 2:12 3:245.15866 4:457.76593 5:0.000562 6:0.019292 
0.02546191910512352 1:0 2:7 3:111.76267 4:508.71634 5:0.00042 6:0.01536 
0.02546172946028913 1:0 2:0 3:258.78903 4:595.60547 5:0.000672 6:0.023468 
0.02546247281138525 1:0 2:8 3:243.40955 4:512.27393 5:0.000538 6:0.018424 
0.02546933852192501 1:0 2:7 3:108.40743 4:472.09235 5:0.000511 6:0.012156 
0.02529948112686642 1:0 2:0 3:154.93671 4:485.67459 5:0.00026 6:0.011828 
0.02546717265319343 1:0 2:7 3:134.63148 4:525.77222 5:0.000658 6:0.025003 
0.02546936446469439 1:0 2:0 3:211.1675 4:633.92914 5:0.000403 6:0.012251 
0.02543630463447222 1:0 2:0 3:125.32471 4:348.40878 5:0.000706 6:0.024241 
0.02546687227650657 1:0 2:2 3:317.07281 4:452.17032 5:0.000716 6:0.021674 
1 1:0 2:0 3:187.0966 4:510.10651 5:0.000593 6:0.017748 
-0.9747004493038988 1:0 2:2 3:152.31142 4:644.00458 5:0.000154 6:0.002271 
0.02546708897283367 1:0 2:5 3:156.18234 4:593.62805 5:0.000582 6:0.02349 
0.02603598299275228 1:0 2:5 3:137.77418 4:513.64008 5:0.000857 6:0.033737 
0.02500496946218972 1:0 2:5 3:169.74104 4:599.19843 5:0.000672 6:0.025695 
0.0254693646384373 1:0 2:8 3:110.60689 4:519.73486 5:0.000505 6:0.017725 
0.02540030610838739 1:0 2:0 3:117.79584 4:305.73157 5:0.000343 6:0.019303 
0.02322228736823018 1:0 2:0 3:93.960075 4:469.89963 5:0.000411 6:0.009613 
0.02601060706548808 1:0 2:11 3:62.218277 4:314.22421 5:0.000383 6:0.015145 
0.02522848471612538 1:0 2:0 3:194.78667 4:398.70984 5:0.000513 6:0.017125 
0.02548773296265083 1:0 2:2 3:272.56207 4:660.32135 5:0.000429 6:0.015838 
0.02546191913543852 1:0 2:2 3:233.00282 4:541.71991 5:0.000451 6:0.014183 
1 1:0 2:10 3:212.32161 4:660.87097 5:0.000707 6:0.021499 
0.0254003067349471 1:0 2:10 3:219.63496 4:526.19269 5:0.000586 6:0.024319 
0.02546191913668684 1:0 2:0 3:168.61116 4:417.44363 5:0.00039 6:0.011465 
-0.9745132792656411 1:0 2:10 3:122.04619 4:455.86713 5:0.00024 6:0.004951 
0.02546572793986305 1:0 2:12 3:251.46826 4:599.3794 5:0.000452 6:0.026871 
0.0251886262089209 1:0 2:0 3:100.71413 4:451.15335 5:0.000518 6:0.010741 
-0.9746562455830645 1:0 2:10 3:40.574505 4:235.69646 5:0.000326 6:0.013789 
0.02529757531105407 1:0 2:4 3:196.95021 4:564.58441 5:0.000589 6:0.01951 
0.02522822969178461 1:0 2:4 3:290.93979 4:497.3168 5:0.000531 6:0.021692 
0.02546757076061379 1:0 2:2 3:137.8206 4:662.53265 5:0.000613 6:0.014866 
0.02546461130336652 1:0 2:2 3:173.51231 4:635.51575 5:0.000602 6:0.01878 
1 1:0 2:2 3:131.64836 4:754.89471 5:0.000505 6:0.017739 
0.02515170040917454 1:0 2:5 3:164.6559 4:598.44568 5:0.000853 6:0.03949 
0.02546931676141886 1:0 2:5 3:118.39919 4:489.45871 5:0.000581 6:0.015249 
-0.9747331302061926 1:0 2:4 3:44.069962 4:232.14264 5:0.000933 6:0.023328 
-0.9746959484099977 1:0 2:0 3:572.40143 4:787.40277 5:0.001009 6:0.038783 
0.02592142863333827 1:0 2:9 3:111.65286 4:530.43671 5:0.000334 6:0.009767 
0.02546222397427426 1:0 2:2 3:168.07809 4:705.53766 5:0.000819 6:0.022925 
0.02549302032468963 1:0 2:12 3:211.117 4:568.73761 5:0.000853 6:0.031653 
0.02546248691250852 1:0 2:0 3:246.04076 4:520.5058 5:0.001194 6:0.043385 
0.02522302252191379 1:1 2:7 3:92.28968 4:470.82245 5:0.000697 6:0.021834 
0.02536978185971275 1:1 2:7 3:91.326851 4:433.52792 5:0.000637 6:0.017196 
0.0254542544415077 1:1 2:3 3:114.43704 4:434.06674 5:0.000818 6:0.021694 
0.02547118572635574 1:1 2:5 3:148.28641 4:456.8219 5:0.000876 6:0.023255 
0.02592143099537415 1:1 2:5 3:138.30226 4:394.25983 5:0.000771 6:0.025702 
0.02592142869258478 1:1 2:5 3:134.92932 4:479.24417 5:0.00073 6:0.019139 
0.02547116063025881 1:1 2:0 3:73.443481 4:393.99454 5:0.000549 6:0.014563 
0.02546716850315057 1:1 2:0 3:75.059196 4:306.28265 5:0.00056 6:0.022936 
0.02522820272746299 1:1 2:8 3:72.823708 4:398.27478 5:0.000775 6:0.01907 
0.02545517741055302 1:1 2:2 3:150.36011 4:490.4653 5:0.000551 6:0.013489 
0.02546936476034925 1:1 2:10 3:91.247353 4:510.93781 5:0.000774 6:0.020216 
0.0259214280723017 1:1 2:0 3:120.21809 4:295.81384 5:0.000658 6:0.02633 
0.02505400717145604 1:1 2:0 3:84.585358 4:372.37299 5:0.000589 6:0.018689 
0.02545223847926123 1:1 2:3 3:101.42107 4:385.08719 5:0.000664 6:0.022125 
0.02539781906003432 1:1 2:0 3:105.6449 4:416.68872 5:0.000865 6:0.029818 
0.02546191913668616 1:1 2:7 3:64.040039 4:457.70758 5:0.001064 6:0.029027 
0.02601060329156334 1:1 2:5 3:68.875267 4:300.74512 5:0.000683 6:0.022152 
0.02529955069610128 1:1 2:0 3:149.2966 4:619.66821 5:0.000748 6:0.022825 
0.02552101589485823 1:1 2:5 3:90.997894 4:409.6506 5:0.000758 6:0.029616 
0.02548387816631034 1:1 2:0 3:247.03374 4:489.89142 5:0.001417 6:0.03027 
0.02592114747820133 1:1 2:5 3:113.12672 4:411.80115 5:0.000766 6:0.019101 
0.02546461130333311 1:1 2:0 3:121.96153 4:529.01337 5:0.000767 6:0.022342 
0.01114347585006722 1:1 2:2 3:95.614876 4:472.04217 5:0.000626 6:0.012635 
0.02546882179259033 1:1 2:0 3:88.994751 4:415.63882 5:0.000814 6:0.020593 
0.02545834226628416 1:1 2:8 3:97.601379 4:381.51263 5:0.000724 6:0.02256 
0.3611610156428776 1:1 2:2 3:99.353554 4:413.94989 5:0.000723 6:0.020635 
0.02592142653543669 1:1 2:0 3:129.24826 4:416.67041 5:0.001007 6:0.029963 
0.02544677115253076 1:1 2:0 3:78.399452 4:374.42261 5:0.001106 6:0.032625 
0.02603204983673919 1:1 2:5 3:121.17292 4:418.05795 5:0.000473 6:0.011023 
0.02592142833107071 1:1 2:3 3:84.184044 4:357.68951 5:0.000575 6:0.023571 
0.02546177153068459 1:1 2:0 3:82.125359 4:435.76679 5:0.000696 6:0.019401 
0.02546928227069898 1:1 2:0 3:109.8411 4:443.70615 5:0.00131 6:0.039756 
0.02546157011069878 1:1 2:0 3:66.906998 4:265.21146 5:0.000441 6:0.01902 
0.0259214559671317 1:1 2:2 3:111.23468 4:497.15573 5:0.000727 6:0.014989 
0.02546174170930916 1:1 2:5 3:92.010223 4:369.80402 5:0.000435 6:0.015786 
0.02546159915090324 1:1 2:5 3:65.945 4:258.46668 5:0.000494 6:0.036205 
0.02592114871014166 1:1 2:1 3:47.813747 4:196.42186 5:0.00046 6:0.01757 
0.02546059564014652 1:1 2:5 3:107.93533 4:432.35168 5:0.000599 6:0.022006 
0.02592142874636599 1:1 2:7 3:77.674416 4:424.5589 5:0.000571 6:0.014357 
0.0254854731482116 1:1 2:8 3:111.05724 4:447.59552 5:0.000662 6:0.016317 
0.02545843106353816 1:1 2:2 3:57.090328 4:286.40317 5:0.00047 6:0.023703 
0.02549302032468963 1:1 2:10 3:97.889984 4:351.97165 5:0.000464 6:0.017483 
0.02508264184371396 1:1 2:1 3:81.708939 4:367.56323 5:0.000686 6:0.025977 
0.02565545198038252 1:1 2:10 3:99.147339 4:410.55814 5:0.000559 6:0.016222 
0.02546797388827322 1:1 2:0 3:38.322647 4:335.32657 5:0.000513 6:0.021718 
0.02546686473691889 1:1 2:8 3:100.42133 4:446.13959 5:0.000876 6:0.019284 
0.0253990205379578 1:1 2:10 3:82.794144 4:397.17868 5:0.000634 6:0.019318 
0.02547006910025255 1:1 2:7 3:78.912949 4:231.2446 5:0.00043 6:0.017647 
0.01550804213465902 1:1 2:3 3:94.83757 4:472.57263 5:0.000421 6:0.010755 
0.02547318236214046 1:1 2:5 3:67.299492 4:325.24512 5:0.000588 6:0.023067 
0.02546978611134024 1:1 2:10 3:92.750999 4:461.4581 5:0.000756 6:0.034394 
0.02518972126630332 1:1 2:4 3:81.077324 4:490.23093 5:0.000754 6:0.017136 
0.02545135388433476 1:1 2:0 3:95.077652 4:386.00528 5:0.000546 6:0.013531 
0.02539019008623321 1:1 2:8 3:133.02512 4:466.98206 5:0.000748 6:0.032965 
0.02538691887528504 1:1 2:5 3:129.31689 4:463.5795 5:0.000409 6:0.010502 
0.02603205617367591 1:1 2:7 3:125.35245 4:384.93063 5:0.000342 6:0.01127 
-1 1:1 2:3 3:98.256821 4:411.86313 5:0.000787 6:0.024424 
0.02548551088962123 1:1 2:0 3:100.68175 4:401.09644 5:0.000827 6:0.025715 
0.02546808141733106 1:1 2:5 3:88.509705 4:395.96884 5:0.000584 6:0.017622 
0.02546661079652438 1:1 2:0 3:75.457474 4:454.82169 5:0.000661 6:0.01313 
0.02545843106353817 1:1 2:3 3:53.817097 4:279.95862 5:0.000468 6:0.01913 
0.02592142882736531 1:1 2:0 3:67.587502 4:434.78683 5:0.00086 6:0.017524 
0.02536377204417528 1:1 2:3 3:94.29567 4:436.28659 5:0.00088 6:0.025899 
