svm_type nu_svr
kernel_type rbf
gamma 0.2
nr_class 2
total_sv 53
rho -0.10861
SV
-0.1079097398304252 0:0 1:0 2:1015 3:0.000534 4:0.01777 5:190 
1 0:0 1:0 2:1034 3:0.000403 4:0.012251 5:140 
0.2249469637519311 0:0 1:0 2:745 3:0.000689 4:0.016227 5:170 
0.5575617446095825 0:0 1:0 2:956 3:0.000513 4:0.017125 5:185 
0.3907466181712174 0:0 1:7 2:1304 3:0.000424 4:0.016676 5:101 
-0.4414206783375492 0:0 1:7 2:777 3:0.000298 4:0.007606 5:52 
0.7244349976993794 0:0 1:3 2:1114 3:0.00064 4:0.024521 5:265 
-0.1083837564429107 0:0 1:12 2:798 3:0.000562 4:0.019292 5:220 
0.2240778730363117 0:0 1:7 2:960 3:0.00042 4:0.01536 5:73 
0.7241071620811798 0:0 1:0 2:841 3:0.000672 4:0.023468 5:255 
0.7244223045632869 0:0 1:8 2:856 3:0.000538 4:0.018424 5:190 
-0.6077689024455807 0:0 1:7 2:905 3:0.000511 4:0.012156 5:155 
0.5576891639345504 0:0 1:0 2:1102 3:0.00026 4:0.011828 5:80 
0.5574536119396936 0:0 1:7 2:1033 3:0.000658 4:0.025003 5:275 
-0.4412264027743877 0:0 1:0 2:1034 3:0.000403 4:0.012251 5:140 
0.3907628158152328 0:0 1:0 2:1229 3:0.000706 4:0.024241 5:125 
0.05769412741475538 0:0 1:2 2:677 3:0.000716 4:0.021674 5:175 
0.890795622277981 0:0 1:0 2:1154 3:0.000593 4:0.017748 5:160 
-1 0:0 1:2 2:272 3:0.000154 4:0.002271 5:59 
0.05774676769824367 0:0 1:5 2:1284 3:0.000582 4:0.02349 5:160 
0.3907620936679441 0:0 1:5 2:1006 3:0.000857 4:0.033737 5:148 
0.3907710819585661 0:0 1:5 2:1234 3:0.000672 4:0.025695 5:170 
-0.1083681646221401 0:0 1:8 2:1140 3:0.000505 4:0.017725 5:175 
-0.60814001381655 0:0 1:0 2:1049 3:0.000343 4:0.019303 5:135 
-0.6081599640755821 0:0 1:0 2:814 3:0.000411 4:0.009613 5:70 
-0.7745794829090069 0:0 1:11 2:1260 3:0.000383 4:0.015145 5:45 
-1 0:0 1:0 2:956 3:0.000513 4:0.017125 5:185 
0.3907761865038615 0:0 1:2 2:1187 3:0.000429 4:0.015838 5:200 
0.05757870831494683 0:0 1:2 2:1091 3:0.000451 4:0.014183 5:170 
0.8909325741401031 0:0 1:10 2:762 3:0.000707 4:0.021499 5:290 
0.5572988350741331 0:0 1:10 2:933 3:0.000586 4:0.024319 5:220 
-0.2750421990315068 0:0 1:0 2:742 3:0.00039 4:0.011465 5:120 
-1 0:0 1:10 2:616 3:0.00024 4:0.004951 5:45 
-0.2745536074108018 0:0 1:12 2:901 3:0.000452 4:0.026871 5:150 
-0.6081632094088814 0:0 1:0 2:657 3:0.000518 4:0.010741 5:115 
-1 0:0 1:10 2:1170 3:0.000326 4:0.013789 5:45 
-0.607829543844165 0:0 1:4 2:906 3:0.000589 4:0.01951 5:150 
0.3910219201572882 0:0 1:4 2:1153 3:0.000531 4:0.021692 5:230 
-0.275053036248069 0:0 1:2 2:964 3:0.000613 4:0.014866 5:140 
0.2243012083893811 0:0 1:2 2:1260 3:0.000602 4:0.01878 5:160 
0.8907876197773771 0:0 1:2 2:1053 3:0.000505 4:0.017739 5:250 
0.5576817492773227 0:0 1:5 2:1307 3:0.000853 4:0.03949 5:280 
0.224012343124692 0:0 1:5 2:868 3:0.000581 4:0.015249 5:165 
-1 0:0 1:4 2:1070 3:0.000933 4:0.023328 5:100 
-1 0:0 1:0 2:1322 3:0.001009 4:0.038783 5:129 
0.3911079613754464 0:0 1:9 2:982 3:0.000334 4:0.009767 5:174 
0.3910432369961666 0:0 1:2 2:920 3:0.000819 4:0.022925 5:126 
-0.4416881165056289 0:0 1:12 2:1320 3:0.000853 4:0.031653 5:165 
0.05733929023737259 0:0 1:0 2:1082 3:0.001194 4:0.043385 5:128 
-0.1078948325903362 0:1 1:7 2:1003 3:0.000697 4:0.021834 5:190 
-0.274596774970868 0:1 1:7 2:830 3:0.000637 4:0.017196 5:120 
-0.2745557087743511 0:1 1:3 2:1098 3:0.000818 4:0.021694 5:110 
0.05747955205079391 0:1 1:5 2:1186 3:0.000876 4:0.023255 5:150 
