svm_type nu_svr
kernel_type rbf
gamma 0.166667
nr_class 2
total_sv 103
rho 0.00759791
SV
0.007275082235745911 1:0 2:0 3:1 4:0.000534 5:0.01777 6:190 
0.004555797631907166 1:0 2:0 3:1 4:0.000689 5:0.016227 6:170 
0.2457619251088501 1:0 2:7 3:1 4:0.000424 5:0.016676 6:101 
0.00749451897743425 1:0 2:7 3:1 4:0.000298 5:0.007606 6:52 
0.007444824643752068 1:0 2:3 3:1 4:0.00064 5:0.024521 6:265 
0.005589606811424397 1:0 2:12 3:0 4:0.000562 5:0.019292 6:220 
0.006510056960935984 1:0 2:7 3:1 4:0.00042 5:0.01536 6:73 
-0.0005707203042122355 1:0 2:0 3:1 4:0.000672 5:0.023468 6:255 
0.006394678537382292 1:0 2:8 3:1 4:0.000538 5:0.018424 6:190 
0.006634393177192277 1:0 2:7 3:1 4:0.000511 5:0.012156 6:155 
0.004540413960844369 1:0 2:0 3:1 4:0.00026 5:0.011828 6:80 
0.007863501294946507 1:0 2:7 3:1 4:0.000658 5:0.025003 6:275 
0.002846198395267785 1:0 2:0 3:1 4:0.000403 5:0.012251 6:140 
-0.07642544955912045 1:0 2:0 3:1 4:0.000706 5:0.024241 6:125 
0.007247211197613179 1:0 2:2 3:1 4:0.000716 5:0.021674 6:175 
1 1:0 2:0 3:1 4:0.000593 5:0.017748 6:160 
-0.9921621539492065 1:0 2:2 3:1 4:0.000154 5:0.002271 6:59 
0.07263049269034422 1:0 2:5 3:1 4:0.000582 5:0.02349 6:160 
0.005356612939830918 1:0 2:5 3:1 4:0.000857 5:0.033737 6:148 
0.00392676375752754 1:0 2:5 3:1 4:0.000672 5:0.025695 6:170 
0.005077101373440529 1:0 2:8 3:1 4:0.000505 5:0.017725 6:175 
0.00856010129505308 1:0 2:0 3:1 4:0.000343 5:0.019303 6:135 
0.007388106042467868 1:0 2:0 3:1 4:0.000411 5:0.009613 6:70 
1 1:0 2:11 3:1 4:0.000383 5:0.015145 6:45 
0.004856565358939302 1:0 2:0 3:0 4:0.000513 5:0.017125 6:185 
0.005252553310632457 1:0 2:2 3:1 4:0.000429 5:0.015838 6:200 
1 1:0 2:10 3:1 4:0.000707 5:0.021499 6:290 
0.005014909472569298 1:0 2:10 3:1 4:0.000586 5:0.024319 6:220 
0.003725705858363816 1:0 2:0 3:0 4:0.00039 5:0.011465 6:120 
-1 1:0 2:10 3:1 4:0.00024 5:0.004951 6:45 
0.007394905178836697 1:0 2:12 3:0 4:0.000452 5:0.026871 6:150 
0.0051619303599772 1:0 2:0 3:0 4:0.000518 5:0.010741 6:115 
-0.8622612474618538 1:0 2:10 3:0 4:0.000326 5:0.013789 6:45 
0.003704317194615776 1:0 2:4 3:0 4:0.000589 5:0.01951 6:150 
0.007399537244931886 1:0 2:4 3:0 4:0.000531 5:0.021692 6:230 
0.003286344926488655 1:0 2:2 3:1 4:0.000613 5:0.014866 6:140 
-0.4433914219158067 1:0 2:2 3:0 4:0.000602 5:0.01878 6:160 
1 1:0 2:2 3:1 4:0.000505 5:0.017739 6:250 
0.007311794564642534 1:0 2:5 3:1 4:0.000853 5:0.03949 6:280 
0.002975345418872339 1:0 2:5 3:1 4:0.000581 5:0.015249 6:165 
-1 1:0 2:4 3:1 4:0.000933 5:0.023328 6:100 
-1 1:0 2:0 3:1 4:0.001009 5:0.038783 6:129 
0.003601048312337277 1:0 2:9 3:1 4:0.000334 5:0.009767 6:174 
-0.1298137880121131 1:0 2:2 3:1 4:0.000819 5:0.022925 6:126 
0.007114397442543545 1:0 2:12 3:1 4:0.000853 5:0.031653 6:165 
0.8707539554261928 1:0 2:0 3:1 4:0.001194 5:0.043385 6:128 
-0.0897837231265913 1:1 2:7 3:1 4:0.000637 5:0.017196 6:120 
0.007338270607936842 1:1 2:3 3:1 4:0.000818 5:0.021694 6:110 
0.001040539918941348 1:1 2:5 3:1 4:0.000876 5:0.023255 6:150 
0.006060194284487458 1:1 2:5 3:1 4:0.000771 5:0.025702 6:190 
0.00692967783815715 1:1 2:5 3:1 4:0.00073 5:0.019139 6:80 
0.001676442831568278 1:1 2:0 3:1 4:0.000549 5:0.014563 6:100 
0.007132431917163258 1:1 2:0 3:1 4:0.00056 5:0.022936 6:240 
0.003255271544778402 1:1 2:8 3:1 4:0.000775 5:0.01907 6:140 
0.006439106915468347 1:1 2:2 3:0 4:0.000551 5:0.013489 6:75 
0.008086122746289131 1:1 2:10 3:1 4:0.000774 5:0.020216 6:115 
0.003120648015585226 1:1 2:0 3:1 4:0.000658 5:0.02633 6:170 
0.0802478879727774 1:1 2:3 3:1 4:0.000664 5:0.022125 6:125 
0.006752555532469805 1:1 2:7 3:0 4:0.001064 5:0.029027 6:160 
0.005867205544960528 1:1 2:5 3:0 4:0.000683 5:0.022152 6:165 
0.01757720057122447 1:1 2:5 3:1 4:0.000758 5:0.029616 6:160 
0.003303638708549106 1:1 2:0 3:1 4:0.001417 5:0.03027 6:185 
-0.01641133300307318 1:1 2:5 3:1 4:0.000766 5:0.019101 6:130 
0.004925218996323041 1:1 2:0 3:1 4:0.000767 5:0.022342 6:200 
0.004662735210714419 1:1 2:2 3:0 4:0.000626 5:0.012635 6:90 
0.003503459815674921 1:1 2:0 3:1 4:0.000814 5:0.020593 6:140 
0.004314580600631902 1:1 2:8 3:1 4:0.000724 5:0.02256 6:180 
0.162956269439076 1:1 2:2 3:0 4:0.000723 5:0.020635 6:130 
0.06427011273717755 1:1 2:0 3:1 4:0.001007 5:0.029963 6:100 
0.001640537339331759 1:1 2:0 3:1 4:0.001106 5:0.032625 6:80 
0.004629119159807894 1:1 2:5 3:1 4:0.000473 5:0.011023 6:75 
0.002881064580438896 1:1 2:3 3:1 4:0.000575 5:0.023571 6:170 
0.005247799655324865 1:1 2:0 3:1 4:0.000696 5:0.019401 6:90 
0.005234699436718025 1:1 2:0 3:1 4:0.00131 5:0.039756 6:180 
0.00235974060683821 1:1 2:0 3:0 4:0.000441 5:0.01902 6:180 
0.01238227386506525 1:1 2:2 3:0 4:0.000727 5:0.014989 6:95 
0.006858101654542295 1:1 2:5 3:1 4:0.000435 5:0.015786 6:135 
0.007265640225868474 1:1 2:5 3:1 4:0.000494 5:0.036205 6:210 
0.002462179386003733 1:1 2:1 3:1 4:0.00046 5:0.01757 6:80 
0.005773786738090758 1:1 2:5 3:1 4:0.000599 5:0.022006 6:140 
-0.1286744663112823 1:1 2:7 3:1 4:0.000571 5:0.014357 6:120 
-0.08230719600137261 1:1 2:8 3:1 4:0.000662 5:0.016317 6:100 
0.007382239024691334 1:1 2:10 3:1 4:0.000464 5:0.017483 6:245 
1 1:1 2:1 3:1 4:0.000686 5:0.025977 6:120 
0.005500722700345337 1:1 2:10 3:1 4:0.000559 5:0.016222 6:140 
-0.6258682017219211 1:1 2:0 3:1 4:0.000513 5:0.021718 6:120 
0.007409296145949425 1:1 2:8 3:1 4:0.000876 5:0.019284 6:200 
0.006924825874189435 1:1 2:10 3:1 4:0.000634 5:0.019318 6:170 
0.005145783079417256 1:1 2:7 3:1 4:0.00043 5:0.017647 6:85 
0.009759407000691642 1:1 2:3 3:1 4:0.000421 5:0.010755 6:156 
0.002205632690810282 1:1 2:5 3:1 4:0.000588 5:0.023067 6:170 
0.0056556502250555 1:1 2:10 3:1 4:0.000756 5:0.034394 6:180 
0.001989707617193603 1:1 2:4 3:1 4:0.000754 5:0.017136 6:150 
0.00267456294812179 1:1 2:0 3:0 4:0.000546 5:0.013531 6:115 
0.007212072962517196 1:1 2:8 3:1 4:0.000748 5:0.032965 6:240 
0.004300650978758033 1:1 2:5 3:1 4:0.000409 5:0.010502 6:85 
-0.03342752077103558 1:1 2:7 3:1 4:0.000342 5:0.01127 6:160 
-1 1:1 2:3 3:1 4:0.000787 5:0.024424 6:120 
0.005365310142648439 1:1 2:0 3:1 4:0.000827 5:0.025715 6:145 
0.5721129023023807 1:1 2:5 3:1 4:0.000584 5:0.017622 6:120 
0.0009793067827364446 1:1 2:3 3:1 4:0.000468 5:0.01913 6:135 
0.001732923003601295 1:1 2:0 3:1 4:0.00086 5:0.017524 6:145 
0.007901017158592715 1:1 2:3 3:1 4:0.00088 5:0.025899 6:220 
