svm_type nu_svr
kernel_type rbf
gamma 0.2
nr_class 2
total_sv 53
rho -0.0935599
SV
-0.2117947686425327 0:0 1:0 2:1 3:516.24097 4:0.000534 5:0.01777 
1 0:0 1:0 2:1 3:633.92914 4:0.000403 5:0.012251 
0.2896890055722418 0:0 1:0 2:1 3:514.25031 4:0.000689 5:0.016227 
0.5573791149355628 0:0 1:0 2:0 3:398.70984 4:0.000513 5:0.017125 
0.3904539977561167 0:0 1:7 2:1 3:540.31665 4:0.000424 5:0.016676 
-0.4111427967205282 0:0 1:7 2:1 3:558.74066 4:0.000298 5:0.007606 
0.7240133480759732 0:0 1:3 2:1 3:615.01532 4:0.00064 5:0.024521 
0.06954967372284181 0:0 1:12 2:0 3:457.76593 4:0.000562 5:0.019292 
0.1792178555677917 0:0 1:7 2:1 3:508.71634 4:0.00042 5:0.01536 
0.7228786901863435 0:0 1:0 2:1 3:595.60547 4:0.000672 5:0.023468 
0.6772595383184514 0:0 1:8 2:1 3:512.27393 4:0.000538 5:0.018424 
-0.7908087596286762 0:0 1:7 2:1 3:472.09235 4:0.000511 5:0.012156 
0.5572613114634609 0:0 1:0 2:1 3:485.67459 4:0.00026 5:0.011828 
0.4798045748761919 0:0 1:7 2:1 3:525.77222 4:0.000658 5:0.025003 
-0.432960346129718 0:0 1:0 2:1 3:633.92914 4:0.000403 5:0.012251 
0.3906774599531211 0:0 1:0 2:1 3:348.40878 4:0.000706 5:0.024241 
0.2527632834683432 0:0 1:2 2:1 3:452.17032 4:0.000716 5:0.021674 
0.8812648580584614 0:0 1:0 2:1 3:510.10651 4:0.000593 5:0.017748 
-1 0:0 1:2 2:1 3:644.00458 4:0.000154 5:0.002271 
0.04734518262579281 0:0 1:5 2:1 3:593.62805 4:0.000582 5:0.02349 
0.3112537642870642 0:0 1:5 2:1 3:513.64008 4:0.000857 5:0.033737 
-0.3660912796411249 0:0 1:5 2:1 3:599.19843 4:0.000672 5:0.025695 
-0.07825859500135916 0:0 1:8 2:1 3:519.73486 4:0.000505 5:0.017725 
-0.5780091917155863 0:0 1:0 2:1 3:305.73157 4:0.000343 5:0.019303 
-0.5776168160647861 0:0 1:0 2:1 3:469.89963 4:0.000411 5:0.009613 
-0.7445663129147875 0:0 1:11 2:1 3:314.22421 4:0.000383 5:0.015145 
-1 0:0 1:0 2:0 3:398.70984 4:0.000513 5:0.017125 
0.5623472659099092 0:0 1:2 2:1 3:660.32135 4:0.000429 5:0.015838 
0.0556046815496359 0:0 1:2 2:1 3:541.71991 4:0.000451 5:0.014183 
0.890943040334692 0:0 1:10 2:1 3:660.87097 4:0.000707 5:0.021499 
0.4727118440448038 0:0 1:10 2:1 3:526.19269 4:0.000586 5:0.024319 
-0.2440705768381239 0:0 1:0 2:0 3:417.44363 4:0.00039 5:0.011465 
-1 0:0 1:10 2:1 3:455.86713 4:0.00024 5:0.004951 
-0.2444914489655755 0:0 1:12 2:0 3:599.3794 4:0.000452 5:0.026871 
-0.653657233520284 0:0 1:0 2:0 3:451.15335 4:0.000518 5:0.010741 
-1 0:0 1:10 2:0 3:235.69646 4:0.000326 5:0.013789 
-0.5776990275764194 0:0 1:4 2:0 3:564.58441 4:0.000589 5:0.01951 
0.3906902140453019 0:0 1:4 2:0 3:497.3168 4:0.000531 5:0.021692 
-0.4564350931132813 0:0 1:2 2:1 3:662.53265 4:0.000613 5:0.014866 
0.09773969024254311 0:0 1:2 2:0 3:635.51575 4:0.000602 5:0.01878 
0.8906386903733505 0:0 1:2 2:1 3:754.89471 4:0.000505 5:0.017739 
0.8828024589237984 0:0 1:5 2:1 3:598.44568 4:0.000853 5:0.03949 
0.2238399610163915 0:0 1:5 2:1 3:489.45871 4:0.000581 5:0.015249 
-1 0:0 1:4 2:1 3:232.14264 4:0.000933 5:0.023328 
-1 0:0 1:0 2:1 3:787.40277 4:0.001009 5:0.038783 
0.3775823908330319 0:0 1:9 2:1 3:530.43671 4:0.000334 5:0.009767 
0.3906735456037307 0:0 1:2 2:1 3:705.53766 4:0.000819 5:0.022925 
-0.4113864813653354 0:0 1:12 2:1 3:568.73761 4:0.000853 5:0.031653 
0.06282220813080966 0:0 1:0 2:1 3:520.5058 4:0.001194 5:0.043385 
0.3592893743158303 0:1 1:7 2:1 3:470.82245 4:0.000697 5:0.021834 
-0.2353142884773584 0:1 1:7 2:1 3:433.52792 4:0.000637 5:0.017196 
-0.2356969836845235 0:1 1:3 2:1 3:434.06674 4:0.000818 5:0.021694 
0.06150297580841321 0:1 1:5 2:1 3:456.8219 4:0.000876 5:0.023255 
