svm_type nu_svr
kernel_type rbf
gamma 0.166667
nr_class 2
total_sv 110
rho 0.0280959
SV
0.0283203125 1:0 2:0 3:1 4:1328.2211 5:1784.5159 6:0.01777 
0.0283203125 1:0 2:0 3:1 4:1216.2747 5:1928.4839 6:0.016227 
0.028076171875 1:0 2:7 3:1 4:284.74152 5:1455.2574 6:0.016676 
0.028076171875 1:0 2:7 3:1 4:1040.3964 5:2185.0735 6:0.007606 
0.0280151367188507 1:0 2:3 3:1 4:256.99347 5:1418.5193 6:0.024521 
0.0280151367188255 1:0 2:12 3:0 4:353.39954 5:1387.7516 6:0.019292 
0.0279998779296875 1:0 2:7 3:1 4:724.33752 5:1663.5341 6:0.01536 
0.0279998779296875 1:0 2:0 3:1 4:276.96069 5:1489.085 6:0.023468 
0.02799606323242188 1:0 2:8 3:1 4:358.11847 5:1459.4364 6:0.018424 
0.02799606323242188 1:0 2:7 3:1 4:676.60901 5:1825.4937 6:0.012156 
0.02799510955810547 1:0 2:0 3:1 4:338.77457 5:1481.2729 6:0.011828 
0.02799510955810547 1:0 2:7 3:1 4:283.00702 5:1362.0447 6:0.025003 
0.02790485573894441 1:0 2:0 3:1 4:1017.2359 5:1899.0386 6:0.012251 
0.02821352100001462 1:0 2:0 3:1 4:280.64706 5:1219.8586 6:0.024241 
0.02818680368364701 1:0 2:2 3:1 4:561.47235 5:1472.0798 6:0.021674 
1 1:0 2:0 3:1 4:753.75763 5:1658.2784 6:0.017748 
-0.9714909069734692 1:0 2:2 3:1 4:3468.8306 5:6199.2202 6:0.002271 
0.02818298712373624 1:0 2:5 3:1 4:276.49921 5:1440.207 6:0.02349 
0.02820778917522082 1:0 2:5 3:1 4:260.56043 5:1309.333 6:0.033737 
0.02826694655232131 1:0 2:5 3:1 4:391.67111 5:1445.6055 6:0.025695 
0.02805074071513292 1:0 2:8 3:1 4:521.31824 5:1545.4904 6:0.017725 
0.02805455587805161 1:0 2:0 3:1 4:345.1481 5:1192.4337 6:0.019303 
0.02806600183249364 1:0 2:0 3:1 4:5365.5361 5:4007.5034 6:0.009613 
0.02809652686119923 1:0 2:11 3:1 4:252.03314 5:1273.736 6:0.015145 
0.02815759181976318 1:0 2:0 3:0 4:1001.5763 5:1464.4348 6:0.017125 
0.02821381902322173 1:0 2:2 3:1 4:478.60736 5:1639.1249 6:0.015838 
0.02734375 1:0 2:2 3:1 4:626.1297 5:1672.0845 6:0.014183 
1 1:0 2:10 3:1 4:897.86102 5:1768.0786 6:0.021499 
0.02734375 1:0 2:10 3:1 4:390.26743 5:1430.9865 6:0.024319 
0.02734375 1:0 2:0 3:0 4:1598.9414 5:2025.5453 6:0.011465 
-0.9715243525833896 1:0 2:10 3:1 4:1057.3951 5:2617.1016 6:0.004951 
0.02734374999946041 1:0 2:12 3:0 4:238.24316 5:1348.2349 6:0.026871 
0.02734375 1:0 2:0 3:0 4:3760.4128 5:3196.9268 6:0.010741 
-0.9715340385221112 1:0 2:10 3:0 4:256.2449 5:1194.8899 6:0.013789 
0.02790485573894441 1:0 2:4 3:0 4:535.77716 5:1591.6799 6:0.01951 
0.02799510955810547 1:0 2:4 3:0 4:373.483 5:1368.2917 6:0.021692 
0.02799606323242188 1:0 2:2 3:1 4:1151.014 5:2055.8557 6:0.014866 
0.0279998779296875 1:0 2:2 3:0 4:590.18298 5:1633.4545 6:0.01878 
1 1:0 2:2 3:1 4:398.63901 5:1692.3934 6:0.017739 
0.02801513671814591 1:0 2:5 3:1 4:228.86702 5:1345.3405 6:0.03949 
0.028076171875 1:0 2:5 3:1 4:1196.2836 5:1887.9951 6:0.015249 
-0.9715008750681464 1:0 2:4 3:1 4:4583.7803 5:3143.0408 6:0.023328 
-0.971407373668626 1:0 2:0 3:1 4:568.21381 5:1609.4563 6:0.038783 
0.02790969870830518 1:0 2:9 3:1 4:881.04571 5:1932.5494 6:0.009767 
0.02792143746592674 1:0 2:2 3:1 4:3948.0073 5:2951.2705 6:0.022925 
0.02792642151326541 1:0 2:12 3:1 4:442.5748 5:1469.601 6:0.031653 
0.02793489405303262 1:0 2:0 3:1 4:248.66318 5:1324.3845 6:0.043385 
0.02796818816568702 1:1 2:7 3:1 4:800.05133 5:1558.2727 6:0.021834 
0.02799510955810547 1:1 2:7 3:1 4:3012.1274 5:2358.7581 6:0.017196 
0.02799510955810547 1:1 2:3 3:1 4:870.72296 5:1624.9089 6:0.021694 
0.02799510955810547 1:1 2:5 3:1 4:596.24262 5:1510.9131 6:0.023255 
0.02799510955810547 1:1 2:5 3:1 4:552.27222 5:1378.2238 6:0.025702 
0.02799606323242188 1:1 2:5 3:1 4:871.32562 5:1710.5525 6:0.019139 
0.02799606323242188 1:1 2:0 3:1 4:694.47742 5:1671.8125 6:0.014563 
0.02799606323242188 1:1 2:0 3:1 4:200.09001 5:1168.4712 6:0.022936 
0.02799606323242188 1:1 2:8 3:1 4:529.72784 5:1532.8699 6:0.01907 
0.0279998779296875 1:1 2:2 3:0 4:2012.1512 5:2309.8469 6:0.013489 
0.0279998779296875 1:1 2:10 3:1 4:850.95929 5:1750.1954 6:0.020216 
0.0279998779296875 1:1 2:0 3:1 4:768.0473 5:1296.8911 6:0.02633 
0.0279998779296875 1:1 2:0 3:0 4:459.62476 5:1348.8986 6:0.018689 
0.0280151367188255 1:1 2:3 3:1 4:682.61542 5:1444.5995 6:0.022125 
0.02801513671882551 1:1 2:0 3:1 4:767.72119 5:1433.3026 6:0.029818 
0.02801513671885068 1:1 2:7 3:0 4:567.7085 5:1404.7344 6:0.029027 
0.0280151367188507 1:1 2:5 3:0 4:1923.7953 5:1848.2263 6:0.022152 
0.02805074071513297 1:1 2:0 3:0 4:2342.4438 5:2108.9033 6:0.022825 
0.02805074071513297 1:1 2:5 3:1 4:601.82971 5:1397.0787 6:0.029616 
0.02805455587805161 1:1 2:0 3:1 4:6078.5239 5:5855.2632 6:0.03027 
0.02805455587805164 1:1 2:5 3:1 4:1655.2334 5:1794.0947 6:0.019101 
0.02806600183249364 1:1 2:0 3:1 4:797.86145 5:1609.3247 6:0.022342 
0.02806600183249366 1:1 2:2 3:0 4:2360.9907 5:2492.2273 6:0.012635 
0.028076171875 1:1 2:0 3:1 4:667.60211 5:1534.9164 6:0.020593 
0.028076171875 1:1 2:8 3:1 4:610.76752 5:1431.9677 6:0.02256 
0.028076171875 1:1 2:2 3:0 4:475.0296 5:1467.7281 6:0.020635 
0.028076171875 1:1 2:0 3:1 4:2689.7979 5:1991.5887 6:0.029963 
0.028076171875 1:1 2:0 3:1 4:3298.5713 5:2252.6785 6:0.032625 
0.02801513671882551 1:1 2:5 3:1 4:3204.7935 5:2573.2761 6:0.011023 
0.0279998779296875 1:1 2:3 3:1 4:506.10291 5:1354.5868 6:0.023571 
0.02799606323242188 1:1 2:0 3:1 4:2666.9524 5:2056.8992 6:0.019401 
0.02809652686119923 1:1 2:0 3:1 4:354.80908 5:1278.163 6:0.039756 
0.02809652686119926 1:1 2:0 3:0 4:330.05197 5:1209.1361 6:0.01902 
0.02799510955810547 1:1 2:2 3:0 4:635.41363 5:1837.3319 6:0.014989 
0.02734375000006765 1:1 2:5 3:1 4:479.36807 5:1375.2025 6:0.015786 
0.02734375000006765 1:1 2:5 3:1 4:147.18599 5:1076.4918 6:0.036205 
0.02815759181976318 1:1 2:1 3:1 4:888.4707 5:1250.2844 6:0.01757 
0.02815759181976318 1:1 2:5 3:1 4:1079.5116 5:1496.0945 6:0.022006 
0.02818298712373624 1:1 2:7 3:1 4:2167.0908 5:2084.5735 6:0.014357 
0.02818680368364701 1:1 2:8 3:1 4:1636.6272 5:1919.8759 6:0.016317 
0.02820778917522082 1:1 2:2 3:1 4:319.84677 5:1166.3569 6:0.023703 
0.02821352100001456 1:1 2:10 3:1 4:402.14963 5:1304.9731 6:0.017483 
0.02821381902322173 1:1 2:1 3:1 4:444.22903 5:1316.2446 6:0.025977 
0.02826694655232131 1:1 2:10 3:1 4:568.70892 5:1520.1614 6:0.016222 
0.0283203125 1:1 2:0 3:1 4:371.97244 5:1289.1174 6:0.021718 
0.0283203125 1:1 2:8 3:1 4:6455.0381 5:5618.0537 6:0.019284 
0.0283203125 1:1 2:10 3:1 4:626.05267 5:1494.4624 6:0.019318 
0.0283203125 1:1 2:7 3:1 4:502.02637 5:1183.6102 6:0.017647 
0.02805074071513297 1:1 2:3 3:1 4:905.76196 5:1990.678 6:0.010755 
0.02805455587805164 1:1 2:5 3:1 4:728.33258 5:1383.3499 6:0.023067 
0.02806600183249366 1:1 2:10 3:1 4:290.28839 5:1284.7441 6:0.034394 
0.02734375000006765 1:1 2:4 3:1 4:689.09216 5:1848.5742 6:0.017136 
0.02809652686119926 1:1 2:0 3:0 4:2369.6111 5:2132.7498 6:0.013531 
0.02815759181976318 1:1 2:8 3:1 4:1131.85 5:1456.9016 6:0.032965 
0.0283203125 1:1 2:5 3:1 4:2690.9695 5:2338.5618 6:0.010502 
0.0283203125 1:1 2:7 3:1 4:3133.0188 5:2298.9255 6:0.01127 
-0.9714739618939348 1:1 2:3 3:1 4:671.90271 5:1321.229 6:0.024424 
0.02778116893023252 1:1 2:0 3:1 4:1074.9319 5:1617.012 6:0.025715 
0.02778879925608635 1:1 2:5 3:1 4:1693.8639 5:1766.9111 6:0.017622 
0.0278116911649704 1:1 2:0 3:1 4:537.10272 5:1769.5518 6:0.01313 
0.02787274122238159 1:1 2:3 3:1 4:515.8432 5:1190.5663 6:0.01913 
0.02799487113952637 1:1 2:0 3:1 4:1533.7312 5:2009.7479 6:0.017524 
0.02799510955810547 1:1 2:3 3:1 4:736.91437 5:1557.2062 6:0.025899 
