svm_type nu_svr
kernel_type rbf
gamma 0.2
nr_class 2
total_sv 53
rho -0.0725632
SV
-0.5387980955124237 0:0 1:4 2:0 3:196.95021 4:0.000589 5:150 
-0.03837686683500396 0:1 1:7 2:1 3:92.28968 4:0.000697 5:190 
0.3934766093367953 0:0 1:5 2:1 3:140.46902 4:0.000457 5:225 
-0.538221745982352 0:0 1:12 2:1 3:126.06876 4:0.000713 5:67 
0.726499536859352 0:0 1:12 2:1 3:228.85782 4:0.000791 5:138 
-1 0:0 1:0 2:1 3:572.40143 4:0.001009 5:129 
1 0:0 1:0 2:1 3:211.1675 4:0.000403 5:140 
-1 0:0 1:0 2:0 3:239.30429 4:0.000277 5:70 
0.3934744314538595 0:0 1:5 2:1 3:169.74104 4:0.000672 5:170 
0.8932621581974853 0:0 1:2 2:1 3:446.46307 4:0.000478 5:200 
0.7265951581974852 0:0 1:8 2:1 3:243.40955 4:0.000538 5:190 
-1 0:0 1:4 2:1 3:44.069962 4:0.000933 5:100 
0.5601436093367953 0:0 1:7 2:1 3:211.8461 4:0.000449 5:225 
0.06004030574182054 0:0 1:5 2:1 3:156.18234 4:0.000582 5:160 
-0.3716474566006768 0:0 1:7 2:1 3:174.87781 4:0.000298 5:52 
0.05992915819748529 0:0 1:2 2:1 3:317.07281 4:0.000716 5:175 
0.393166536859352 0:0 1:4 2:0 3:290.93979 4:0.000531 5:230 
-0.538221745982352 0:0 1:0 2:1 3:117.79584 4:0.000343 5:135 
-0.8719976049006012 0:1 1:5 2:1 3:138.30226 4:0.000771 5:190 
-1 0:0 1:2 2:1 3:152.31142 4:0.000154 5:59 
0.2267274667556385 0:0 1:0 2:1 3:184.08177 4:0.000689 5:170 
-0.3717098669954748 0:0 1:12 2:1 3:211.117 4:0.000853 5:165 
-0.205043866835004 0:0 1:0 2:0 3:168.61116 4:0.00039 5:120 
-0.5383464265195087 0:0 1:0 2:0 3:100.71413 4:0.000518 5:115 
0.560059207536546 0:0 1:3 2:1 3:171.88068 4:0.000634 5:240 
-0.7048800306382428 0:0 1:7 2:0 3:201.55022 4:0.000434 5:145 
0.5595261786373781 0:0 1:7 2:1 3:134.63148 4:0.000658 5:275 
-0.03855661573454222 0:0 1:0 2:1 3:122.42004 4:0.000534 5:190 
0.2266286121579082 0:0 1:5 2:1 3:118.39919 4:0.000581 5:165 
0.5836040436164281 0:0 1:9 2:1 3:111.65286 4:0.000334 5:174 
0.3932263822021856 0:0 1:7 2:1 3:187.60159 4:0.000424 5:101 
0.3934635087750532 0:0 1:5 2:1 3:137.77418 4:0.000857 5:148 
-0.5383768669954748 0:0 1:7 2:1 3:108.40743 4:0.000511 5:155 
-0.03887727982514498 0:0 1:0 2:1 3:131.70177 4:0.000415 5:90 
0.05993339014476629 0:0 1:5 2:1 3:165.8728 4:0.000501 5:100 
0.5598933822021857 0:0 1:0 2:1 3:136.17122 4:0.000535 5:205 
0.5599291581974852 0:0 1:0 2:0 3:194.78667 4:0.000513 5:185 
0.7268096093367953 0:0 1:0 2:1 3:258.78903 4:0.000672 5:255 
0.06014143142118147 0:1 1:5 2:1 3:148.28641 4:0.000876 5:150 
0.2265993901384053 0:0 1:2 2:0 3:173.51231 4:0.000602 5:160 
0.226725207536546 0:0 1:2 2:1 3:184.23686 4:0.000475 5:145 
-0.205476651493993 0:1 1:3 2:1 3:114.43704 4:0.000818 5:110 
-0.2050440463157506 0:0 1:2 2:1 3:137.8206 4:0.000613 5:140 
-1 0:0 1:0 2:0 3:194.78667 4:0.000513 5:185 
-0.03831445660067676 0:0 1:12 2:0 3:245.15866 4:0.000562 5:220 
0.8933733056661186 0:0 1:0 2:1 3:187.0966 4:0.000593 5:160 
-0.371709866835002 0:0 1:0 2:1 3:211.1675 4:0.000403 5:140 
-1 0:0 1:10 2:0 3:40.574505 4:0.000326 5:45 
-0.3531653368959156 0:0 1:8 2:1 3:110.60689 4:0.000505 5:175 
-0.7048887459823518 0:0 1:11 2:1 3:62.218277 4:0.000383 5:45 
0.8934766093367953 0:0 1:2 2:1 3:131.64836 4:0.000505 5:250 
0.8932956121581526 0:0 1:10 2:1 3:212.32161 4:0.000707 5:290 
-0.03834642651950863 0:0 1:5 2:1 3:126.8499 4:0.000435 5:105 
