svm_type nu_svr
kernel_type rbf
gamma 0.2
nr_class 2
total_sv 53
rho -0.108592
SV
-0.1078879695202095 0:0 1:0 2:1 3:516.24097 4:0.000534 5:190 
1 0:0 1:0 2:1 3:633.92914 4:0.000403 5:140 
0.2243940391993085 0:0 1:0 2:1 3:514.25031 4:0.000689 5:170 
0.5576759672777525 0:0 1:0 2:0 3:398.70984 4:0.000513 5:185 
0.3907340975506994 0:0 1:7 2:1 3:540.31665 4:0.000424 5:101 
-0.4417365833733892 0:0 1:7 2:1 3:558.74066 4:0.000298 5:52 
0.7243495161864125 0:0 1:3 2:1 3:615.01532 4:0.00064 5:265 
-0.1084893210504958 0:0 1:12 2:0 3:457.76593 4:0.000562 5:220 
0.2249384317220006 0:0 1:7 2:1 3:508.71634 4:0.00042 5:73 
0.7244042168852508 0:0 1:0 2:1 3:595.60547 4:0.000672 5:255 
0.7243507317639348 0:0 1:8 2:1 3:512.27393 4:0.000538 5:190 
-0.6084026221906886 0:0 1:7 2:1 3:472.09235 4:0.000511 5:155 
0.5575920140850074 0:0 1:0 2:1 3:485.67459 4:0.00026 5:80 
0.5577583004561713 0:0 1:7 2:1 3:525.77222 4:0.000658 5:275 
-0.4412279695975665 0:0 1:0 2:1 3:633.92914 4:0.000403 5:140 
0.3908366338280747 0:0 1:0 2:1 3:348.40878 4:0.000706 5:125 
0.05756008584991926 0:0 1:2 2:1 3:452.17032 4:0.000716 5:175 
0.8909879251934019 0:0 1:0 2:1 3:510.10651 4:0.000593 5:160 
-1 0:0 1:2 2:1 3:644.00458 4:0.000154 5:59 
0.05744659052448925 0:0 1:5 2:1 3:593.62805 4:0.000582 5:160 
0.3909523625634436 0:0 1:5 2:1 3:513.64008 4:0.000857 5:148 
0.3906554119175878 0:0 1:5 2:1 3:599.19843 4:0.000672 5:170 
-0.1084893210902039 0:0 1:8 2:1 3:519.73486 4:0.000505 5:175 
-0.607902745835693 0:0 1:0 2:1 3:305.73157 4:0.000343 5:135 
-0.6084166293453913 0:0 1:0 2:1 3:469.89963 4:0.000411 5:70 
-0.7745671612638165 0:0 1:11 2:1 3:314.22421 4:0.000383 5:45 
-1 0:0 1:0 2:0 3:398.70984 4:0.000513 5:185 
0.3910039248337805 0:0 1:2 2:1 3:660.32135 4:0.000429 5:200 
0.05773960049662989 0:0 1:2 2:1 3:541.71991 4:0.000451 5:170 
0.8909274608712763 0:0 1:10 2:1 3:660.87097 4:0.000707 5:290 
0.5576609801428415 0:0 1:10 2:1 3:526.19269 4:0.000586 5:220 
-0.2750270627966879 0:0 1:0 2:0 3:417.44363 4:0.00039 5:120 
-1 0:0 1:10 2:1 3:455.86713 4:0.00024 5:45 
-0.2750615682779994 0:0 1:12 2:0 3:599.3794 4:0.000452 5:150 
-0.6083960377997821 0:0 1:0 2:0 3:451.15335 4:0.000518 5:115 
-1 0:0 1:10 2:0 3:235.69646 4:0.000326 5:45 
-0.6079369765588423 0:0 1:4 2:0 3:564.58441 4:0.000589 5:150 
0.3908638040645455 0:0 1:4 2:0 3:497.3168 4:0.000531 5:230 
-0.2745843288355993 0:0 1:2 2:1 3:662.53265 4:0.000613 5:140 
0.2242036857115119 0:0 1:2 2:0 3:635.51575 4:0.000602 5:160 
0.8909920892720949 0:0 1:2 2:1 3:754.89471 4:0.000505 5:250 
0.5575434462725277 0:0 1:5 2:1 3:598.44568 4:0.000853 5:280 
0.2239760678378789 0:0 1:5 2:1 3:489.45871 4:0.000581 5:165 
-1 0:0 1:4 2:1 3:232.14264 4:0.000933 5:100 
-1 0:0 1:0 2:1 3:787.40277 4:0.001009 5:129 
0.3910027704483636 0:0 1:9 2:1 3:530.43671 4:0.000334 5:174 
0.3908962556344971 0:0 1:2 2:1 3:705.53766 4:0.000819 5:126 
-0.4412412716232887 0:0 1:12 2:1 3:568.73761 4:0.000853 5:165 
0.0575285180215543 0:0 1:0 2:1 3:520.5058 4:0.001194 5:128 
-0.1079334036000234 0:1 1:7 2:1 3:470.82245 4:0.000697 5:190 
-0.2745621646942164 0:1 1:7 2:1 3:433.52792 4:0.000637 5:120 
-0.2745545510609871 0:1 1:3 2:1 3:434.06674 4:0.000818 5:110 
0.05744275990392522 0:1 1:5 2:1 3:456.8219 4:0.000876 5:150 
