svm_type nu_svr
kernel_type rbf
gamma 0.2
nr_class 2
total_sv 53
rho -0.108616
SV
-0.1088541593551449 0:0 1:0 2:1 3:122.42004 4:516.24097 5:190 
1 0:0 1:0 2:1 3:211.1675 4:633.92914 5:140 
0.2245573492227584 0:0 1:0 2:1 3:184.08177 4:514.25031 5:170 
0.5574878930379248 0:0 1:0 2:0 3:194.78667 4:398.70984 5:185 
0.3906749281221646 0:0 1:7 2:1 3:187.60159 4:540.31665 5:101 
-0.4414898571821375 0:0 1:7 2:1 3:174.87781 4:558.74066 5:52 
0.7245395476797508 0:0 1:3 2:1 3:179.7747 4:615.01532 5:265 
-0.1081977959281251 0:0 1:12 2:0 3:245.15866 4:457.76593 5:220 
0.2245064576396503 0:0 1:7 2:1 3:111.76267 4:508.71634 5:73 
0.7243656193963843 0:0 1:0 2:1 3:258.78903 4:595.60547 5:255 
0.7240172919238657 0:0 1:8 2:1 3:243.40955 4:512.27393 5:190 
-0.6082740390085661 0:0 1:7 2:1 3:108.40743 4:472.09235 5:155 
0.5576175389511434 0:0 1:0 2:1 3:154.93671 4:485.67459 5:80 
0.5578526787723159 0:0 1:7 2:1 3:134.63148 4:525.77222 5:275 
-0.4415750631364299 0:0 1:0 2:1 3:211.1675 4:633.92914 5:140 
0.3911458406448551 0:0 1:0 2:1 3:125.32471 4:348.40878 5:125 
0.05737397822817997 0:0 1:2 2:1 3:317.07281 4:452.17032 5:175 
0.890686468234271 0:0 1:0 2:1 3:187.0966 4:510.10651 5:160 
-1 0:0 1:2 2:1 3:152.31142 4:644.00458 5:59 
0.05740144310333631 0:0 1:5 2:1 3:156.18234 4:593.62805 5:160 
0.3908901894513409 0:0 1:5 2:1 3:137.77418 4:513.64008 5:148 
0.3907186714853923 0:0 1:5 2:1 3:169.74104 4:599.19843 5:170 
-0.1078661863680045 0:0 1:8 2:1 3:110.60689 4:519.73486 5:175 
-0.6083483471886867 0:0 1:0 2:1 3:117.79584 4:305.73157 5:135 
-0.6081344866206233 0:0 1:0 2:1 3:93.960075 4:469.89963 5:70 
-0.7746147850881651 0:0 1:11 2:1 3:62.218277 4:314.22421 5:45 
-1 0:0 1:0 2:0 3:194.78667 4:398.70984 5:185 
0.3911734576396503 0:0 1:2 2:1 3:272.56207 4:660.32135 5:200 
0.05748970721725455 0:0 1:2 2:1 3:233.00282 4:541.71991 5:170 
0.8913641260209978 0:0 1:10 2:1 3:212.32161 4:660.87097 5:290 
0.5575767595779669 0:0 1:10 2:1 3:219.63496 4:526.19269 5:220 
-0.2746105667171185 0:0 1:0 2:0 3:168.61116 4:417.44363 5:120 
-1 0:0 1:10 2:1 3:122.04619 4:455.86713 5:45 
-0.2748792706727701 0:0 1:12 2:0 3:251.46826 4:599.3794 5:150 
-0.6079399902841243 0:0 1:0 2:0 3:100.71413 4:451.15335 5:115 
-1 0:0 1:10 2:0 3:40.574505 4:235.69646 5:45 
-0.6083505032259395 0:0 1:4 2:0 3:196.95021 4:564.58441 5:150 
0.3912002051964861 0:0 1:4 2:0 3:290.93979 4:497.3168 5:230 
-0.2745554261228713 0:0 1:2 2:1 3:137.8206 4:662.53265 5:140 
0.2243561636340529 0:0 1:2 2:0 3:173.51231 4:635.51575 5:160 
0.8906460575080662 0:0 1:2 2:1 3:131.64836 4:754.89471 5:250 
0.5574486766061607 0:0 1:5 2:1 3:164.6559 4:598.44568 5:280 
0.2244052883280039 0:0 1:5 2:1 3:118.39919 4:489.45871 5:165 
-1 0:0 1:4 2:1 3:44.069962 4:232.14264 5:100 
-1 0:0 1:0 2:1 3:572.40143 4:787.40277 5:129 
0.3912587462521526 0:0 1:9 2:1 3:111.65286 4:530.43671 5:174 
0.3911425015422181 0:0 1:2 2:1 3:168.07809 4:705.53766 5:126 
-0.4416394072440056 0:0 1:12 2:1 3:211.117 4:568.73761 5:165 
0.05755130163583224 0:0 1:0 2:1 3:246.04076 4:520.5058 5:128 
-0.1083450694875221 0:1 1:7 2:1 3:92.28968 4:470.82245 5:190 
-0.2747481659232488 0:1 1:7 2:1 3:91.326851 4:433.52792 5:120 
-0.2746347729236839 0:1 1:3 2:1 3:114.43704 4:434.06674 5:110 
0.0576090054249911 0:1 1:5 2:1 3:148.28641 4:456.8219 5:150 
