svm_type nu_svr
kernel_type rbf
gamma 0.166667
nr_class 2
total_sv 110
rho 0.0281186
SV
0.02799749352177783 1:0 2:0 3:1 4:1015 5:516.24097 6:0.000534 
0.02807617188400369 1:0 2:0 3:1 4:745 5:514.25031 6:0.000689 
0.02807617188400369 1:0 2:7 3:1 4:1304 5:540.31665 6:0.000424 
0.02844905746001558 1:0 2:7 3:1 4:777 5:558.74066 6:0.000298 
0.02832031250843758 1:0 2:3 3:1 4:1114 5:615.01532 6:0.00064 
0.02801513672863934 1:0 2:12 3:0 4:798 5:457.76593 6:0.000562 
0.02801513673138145 1:0 2:7 3:1 4:960 5:508.71634 6:0.00042 
0.02799987794318248 1:0 2:0 3:1 4:841 5:595.60547 6:0.000672 
0.02799987794318248 1:0 2:8 3:1 4:856 5:512.27393 6:0.000538 
0.02799606324587922 1:0 2:7 3:1 4:905 5:472.09235 6:0.000511 
0.02799606324587922 1:0 2:0 3:1 4:1102 5:485.67459 6:0.00026 
0.02799543738114751 1:0 2:7 3:1 4:1033 5:525.77222 6:0.000658 
0.02799543738114751 1:0 2:0 3:1 4:1034 5:633.92914 6:0.000403 
0.02792319673834776 1:0 2:0 3:1 4:1229 5:348.40878 6:0.000706 
0.02838842948950482 1:0 2:2 3:1 4:677 5:452.17032 6:0.000716 
1 1:0 2:0 3:1 4:1154 5:510.10651 6:0.000593 
-0.9716786222045135 1:0 2:2 3:1 4:272 5:644.00458 6:0.000154 
0.02807617188603451 1:0 2:5 3:1 4:1284 5:593.62805 6:0.000582 
0.02832031230377374 1:0 2:5 3:1 4:1006 5:513.64008 6:0.000857 
0.02777767073989301 1:0 2:5 3:1 4:1234 5:599.19843 6:0.000672 
0.02823960781441992 1:0 2:8 3:1 4:1140 5:519.73486 6:0.000505 
0.02832174301841328 1:0 2:0 3:1 4:1049 5:305.73157 6:0.000343 
0.02832137779548638 1:0 2:0 3:1 4:814 5:469.89963 6:0.000411 
0.0278980801004115 1:0 2:11 3:1 4:1260 5:314.22421 6:0.000383 
0.02832055836545411 1:0 2:0 3:0 4:956 5:398.70984 6:0.000513 
0.02767634391089718 1:0 2:2 3:1 4:1187 5:660.32135 6:0.000429 
0.02799543738114747 1:0 2:2 3:1 4:1091 5:541.71991 6:0.000451 
1 1:0 2:10 3:1 4:762 5:660.87097 6:0.000707 
0.02799510957945745 1:0 2:10 3:1 4:933 5:526.19269 6:0.000586 
0.0279960632458792 1:0 2:0 3:0 4:742 5:417.44363 6:0.00039 
-0.9723236560891029 1:0 2:10 3:1 4:616 5:455.86713 6:0.00024 
0.0279960632458792 1:0 2:12 3:0 4:901 5:599.3794 6:0.000452 
0.02807617188603446 1:0 2:0 3:0 4:657 5:451.15335 6:0.000518 
-0.9715504508221544 1:0 2:10 3:0 4:1170 5:235.69646 6:0.000326 
0.02799606324587921 1:0 2:4 3:0 4:906 5:564.58441 6:0.000589 
0.02290313758393678 1:0 2:4 3:0 4:1153 5:497.3168 6:0.000531 
0.02799606324587921 1:0 2:2 3:1 4:964 5:662.53265 6:0.000613 
0.02801513673138144 1:0 2:2 3:0 4:1260 5:635.51575 6:0.000602 
1 1:0 2:2 3:1 4:1053 5:754.89471 6:0.000505 
0.02801513672863934 1:0 2:5 3:1 4:1307 5:598.44568 6:0.000853 
0.02807617188400364 1:0 2:5 3:1 4:868 5:489.45871 6:0.000581 
-0.9717603921855802 1:0 2:4 3:1 4:1070 5:232.14264 6:0.000933 
-0.9716782569815867 1:0 2:0 3:1 4:1322 5:787.40277 6:0.001009 
0.02808126575943803 1:0 2:9 3:1 4:982 5:530.43671 6:0.000334 
0.02813615851754485 1:0 2:2 3:1 4:920 5:705.53766 6:0.000819 
0.02832031245395004 1:0 2:12 3:1 4:1320 5:568.73761 6:0.000853 
0.02807617188549173 1:0 2:0 3:1 4:1082 5:520.5058 6:0.001194 
0.02832031246339008 1:1 2:7 3:1 4:1003 5:470.82245 6:0.000697 
0.02832031246339008 1:1 2:7 3:1 4:830 5:433.52792 6:0.000637 
0.02832031246339008 1:1 2:3 3:1 4:1098 5:434.06674 6:0.000818 
0.02807617183746609 1:1 2:5 3:1 4:1186 5:456.8219 6:0.000876 
0.02832031246234528 1:1 2:5 3:1 4:733 5:394.25983 6:0.000771 
0.02832031246175004 1:1 2:5 3:1 4:932 5:479.24417 6:0.00073 
0.02799510943308139 1:1 2:0 3:1 4:799 5:393.99454 6:0.000549 
0.02832031247539333 1:1 2:0 3:1 4:1215 5:306.28265 6:0.00056 
0.02832031247436437 1:1 2:8 3:1 4:1183 5:398.27478 6:0.000775 
0.02832031249650083 1:1 2:2 3:0 4:773 5:490.4653 6:0.000551 
0.02832031249650084 1:1 2:10 3:1 4:1069 5:510.93781 6:0.000774 
0.02844905746001553 1:1 2:0 3:1 4:833 5:295.81384 6:0.000658 
0.02832031246339013 1:1 2:0 3:0 4:997 5:372.37299 6:0.000589 
0.02799987794318246 1:1 2:3 3:1 4:989 5:385.08719 6:0.000664 
0.02801513673138145 1:1 2:0 3:1 4:1128 5:416.68872 6:0.000865 
0.02832031246339008 1:1 2:7 3:0 4:1219 5:457.70758 6:0.001064 
0.02832031247539333 1:1 2:5 3:0 4:924 5:300.74512 6:0.000683 
0.02832031247578826 1:1 2:0 3:0 4:1221 5:619.66821 6:0.000748 
0.02832031247435683 1:1 2:5 3:1 4:1086 5:409.6506 6:0.000758 
0.02807617188461867 1:1 2:0 3:1 4:582 5:489.89142 6:0.001417 
0.02832055836544618 1:1 2:5 3:1 4:1073 5:411.80115 6:0.000766 
0.02832031246232635 1:1 2:0 3:1 4:1017 5:529.01337 6:0.000767 
0.02832031246510239 1:1 2:2 3:0 4:854 5:472.04217 6:0.000626 
0.02832031361837045 1:1 2:0 3:1 4:1034 5:415.63882 6:0.000814 
0.02801513672936598 1:1 2:8 3:1 4:1099 5:381.51263 6:0.000724 
0.02799987794318248 1:1 2:2 3:0 4:998 5:413.94989 6:0.000723 
0.02801513667365686 1:1 2:0 3:1 4:909 5:416.67041 6:0.001007 
0.02799987794318248 1:1 2:0 3:1 4:937 5:374.42261 6:0.001106 
0.02799606324587921 1:1 2:5 3:1 4:809 5:418.05795 6:0.000473 
0.02832031245395004 1:1 2:3 3:1 4:1177 5:357.68951 6:0.000575 
0.0283203124743645 1:1 2:0 3:1 4:1229 5:435.76679 6:0.000696 
0.0276706218696218 1:1 2:0 3:1 4:1164 5:443.70615 6:0.00131 
0.02799987794318246 1:1 2:0 3:0 4:1039 5:265.21146 6:0.000441 
0.02290540286313763 1:1 2:2 3:0 4:1151 5:497.15573 6:0.000727 
0.0279951095907154 1:1 2:5 3:1 4:1058 5:369.80402 6:0.000435 
0.02832031246234528 1:1 2:5 3:1 4:1196 5:258.46668 6:0.000494 
0.02832031247436437 1:1 2:1 3:1 4:1183 5:196.42186 6:0.00046 
0.02792314822359273 1:1 2:5 3:1 4:1137 5:432.35168 6:0.000599 
0.02807617183123588 1:1 2:7 3:1 4:906 5:424.5589 6:0.000571 
0.02777767073989298 1:1 2:8 3:1 4:1083 5:447.59552 6:0.000662 
0.02832031247470725 1:1 2:2 3:1 4:1299 5:286.40317 6:0.00047 
0.02799373379073832 1:1 2:10 3:1 4:1042 5:351.97165 6:0.000464 
0.02799543738114747 1:1 2:1 3:1 4:1284 5:367.56323 6:0.000686 
0.02799606324587921 1:1 2:10 3:1 4:974 5:410.55814 6:0.000559 
0.02799987794318248 1:1 2:0 3:1 4:1261 5:335.32657 6:0.000513 
0.02799987794318248 1:1 2:8 3:1 4:912 5:446.13959 6:0.000876 
0.02801513673138145 1:1 2:10 3:1 4:1008 5:397.17868 6:0.000634 
0.02832031245395004 1:1 2:7 3:1 4:926 5:231.2446 6:0.00043 
0.02808126575943803 1:1 2:3 3:1 4:836 5:472.57263 6:0.000421 
0.02832031247556465 1:1 2:5 3:1 4:1056 5:325.24512 6:0.000588 
0.02789808010041147 1:1 2:10 3:1 4:1203 5:461.4581 6:0.000756 
0.02832031246175004 1:1 2:4 3:1 4:949 5:490.23093 6:0.000754 
0.02791855908087009 1:1 2:0 3:0 4:792 5:386.00528 6:0.000546 
0.02807617183808113 1:1 2:8 3:1 4:1189 5:466.98206 6:0.000748 
0.02832031246561674 1:1 2:5 3:1 4:861 5:463.5795 6:0.000409 
0.02791851078378291 1:1 2:7 3:1 4:791 5:384.93063 6:0.000342 
-0.9720025063005261 1:1 2:3 3:1 4:1044 5:411.86313 6:0.000787 
0.02832031246339013 1:1 2:0 3:1 4:985 5:401.09644 6:0.000827 
0.02832031246234528 1:1 2:5 3:1 4:898 5:395.96884 6:0.000584 
0.02832031247578826 1:1 2:0 3:1 4:740 5:454.82169 6:0.000661 
0.02832031250843754 1:1 2:3 3:1 4:1319 5:279.95862 6:0.000468 
0.02832031249650084 1:1 2:0 3:1 4:1049 5:434.78683 6:0.00086 
0.02799510957945745 1:1 2:3 3:1 4:1066 5:436.28659 6:0.00088 
