svm_type nu_svr
kernel_type rbf
gamma 0.166667
nr_class 2
total_sv 15
rho -0.306519
SV
-0.305997358519827 1:0 2:0 3:1 4:1328.2211 5:0.000534 6:0.01777 
1 1:0 2:0 3:1 4:1017.2359 5:0.000403 6:0.012251 
0.02692092075277447 1:0 2:0 3:1 4:1216.2747 5:0.000689 6:0.016227 
-0.6392197327916593 1:0 2:0 3:0 4:1001.5763 5:0.000513 6:0.017125 
-0.03748844702867435 1:0 2:7 3:1 4:284.74152 5:0.000424 6:0.016676 
-0.6393777197314203 1:0 2:7 3:1 4:1040.3964 5:0.000298 6:0.007606 
0.5264522599824756 1:0 2:3 3:1 4:256.99347 5:0.00064 6:0.024521 
-0.3067114679608944 1:0 2:12 3:0 4:353.39954 5:0.000562 6:0.019292 
0.02634030358726919 1:0 2:7 3:1 4:724.33752 5:0.00042 6:0.01536 
0.5265203948079593 1:0 2:0 3:1 4:276.96069 5:0.000672 6:0.023468 
0.5267914946185959 1:0 2:8 3:1 4:358.11847 5:0.000538 6:0.018424 
-0.8063433644836002 1:0 2:7 3:1 4:676.60901 5:0.000511 6:0.012156 
0.359810106445386 1:0 2:0 3:1 4:338.77457 5:0.00026 6:0.011828 
0.3820476895688401 1:0 2:7 3:1 4:283.00702 5:0.000658 6:0.025003 
-0.6397450792472255 1:0 2:0 3:1 4:1017.2359 5:0.000403 6:0.012251 
