svm_type nu_svr
kernel_type rbf
gamma 0.166667
nr_class 2
total_sv 15
rho -0.321391
SV
-0.3207051146743037 1:0 2:0 3:1 4:1328.2211 5:122.42004 6:0.01777 
1 1:0 2:0 3:1 4:1017.2359 5:211.1675 6:0.012251 
0.01178548918354128 1:0 2:0 3:1 4:1216.2747 5:184.08177 6:0.016227 
-0.6539846894107983 1:0 2:0 3:0 4:1001.5763 5:194.78667 6:0.017125 
0.1778643699569749 1:0 2:7 3:1 4:284.74152 5:187.60159 6:0.016676 
-0.6540960930575687 1:0 2:7 3:1 4:1040.3964 5:174.87781 6:0.007606 
0.5111138451802847 1:0 2:3 3:1 4:256.99347 5:179.7747 6:0.024521 
-0.3212768468377628 1:0 2:12 3:0 4:353.39954 5:245.15866 6:0.019292 
0.01178548918354122 1:0 2:7 3:1 4:724.33752 5:111.76267 6:0.01536 
0.5114607860318459 1:0 2:0 3:1 4:276.96069 5:258.78903 6:0.023468 
0.5119433167053832 1:0 2:8 3:1 4:358.11847 5:243.40955 6:0.018424 
-0.8208220303327786 1:0 2:7 3:1 4:676.60901 5:108.40743 6:0.012156 
0.3444155269736026 1:0 2:0 3:1 4:338.77457 5:154.93671 6:0.011828 
0.3446186247379953 1:0 2:7 3:1 4:283.00702 5:134.63148 6:0.025003 
-0.6541026736399571 1:0 2:0 3:1 4:1017.2359 5:211.1675 6:0.012251 
