svm_type nu_svr
kernel_type rbf
gamma 0.166667
nr_class 2
total_sv 110
rho 0.0281656
SV
0.0283203125 1:0 2:1 3:1328.2211 4:1784.5159 5:1015 6:516.24097 
0.0283203125 1:0 2:1 3:1216.2747 4:1928.4839 5:745 6:514.25031 
0.0283203125 1:0 2:1 3:284.74152 4:1455.2574 5:1304 6:540.31665 
0.0283203125 1:0 2:1 3:1040.3964 4:2185.0735 5:777 6:558.74066 
0.0283203125 1:0 2:1 3:256.99347 4:1418.5193 5:1114 6:615.01532 
0.0283203125 1:0 2:0 3:353.39954 4:1387.7516 5:798 6:457.76593 
0.0283203125 1:0 2:1 3:724.33752 4:1663.5341 5:960 6:508.71634 
0.02829521894454956 1:0 2:1 3:276.96069 4:1489.085 5:841 6:595.60547 
0.0283203125 1:0 2:1 3:358.11847 4:1459.4364 5:856 6:512.27393 
0.0283203125 1:0 2:1 3:676.60901 4:1825.4937 5:905 6:472.09235 
0.0283203125 1:0 2:1 3:338.77457 4:1481.2729 5:1102 6:485.67459 
0.0283203125 1:0 2:1 3:283.00702 4:1362.0447 5:1033 6:525.77222 
0.0283203125 1:0 2:1 3:1017.2359 4:1899.0386 5:1034 6:633.92914 
0.0283203125 1:0 2:1 3:280.64706 4:1219.8586 5:1229 6:348.40878 
0.0283203125 1:0 2:1 3:561.47235 4:1472.0798 5:677 6:452.17032 
1 1:0 2:1 3:753.75763 4:1658.2784 5:1154 6:510.10651 
-0.971623249235563 1:0 2:1 3:3468.8306 4:6199.2202 5:272 6:644.00458 
0.02786025038221851 1:0 2:1 3:276.49921 4:1440.207 5:1284 6:593.62805 
0.02796806135575025 1:0 2:1 3:260.56043 4:1309.333 5:1006 6:513.64008 
0.02809892955701798 1:0 2:1 3:391.67111 4:1445.6055 5:1234 6:599.19843 
0.02827362879179418 1:0 2:1 3:521.31824 4:1545.4904 5:1140 6:519.73486 
0.02827589213848114 1:0 2:1 3:345.1481 4:1192.4337 5:1049 6:305.73157 
0.02829521894454956 1:0 2:1 3:5365.5361 4:4007.5034 5:814 6:469.89963 
0.02829627692699432 1:0 2:1 3:252.03314 4:1273.736 5:1260 6:314.22421 
0.02790426262072287 1:0 2:0 3:1001.5763 4:1464.4348 5:956 6:398.70984 
0.02777862548828125 1:0 2:1 3:478.60736 4:1639.1249 5:1187 6:660.32135 
0.02734375 1:0 2:1 3:626.1297 4:1672.0845 5:1091 6:541.71991 
1 1:0 2:1 3:897.86102 4:1768.0786 5:762 6:660.87097 
0.02734375 1:0 2:1 3:390.26743 4:1430.9865 5:933 6:526.19269 
0.02734375 1:0 2:0 3:1598.9414 4:2025.5453 5:742 6:417.44363 
-0.9713622230628971 1:0 2:1 3:1057.3951 4:2617.1016 5:616 6:455.86713 
0.02734375 1:0 2:0 3:238.24316 4:1348.2349 5:901 6:599.3794 
0.02734375 1:0 2:0 3:3760.4128 4:3196.9268 5:657 6:451.15335 
-0.9713812743211747 1:0 2:0 3:256.2449 4:1194.8899 5:1170 6:235.69646 
0.02734375 1:0 2:0 3:535.77716 4:1591.6799 5:906 6:564.58441 
0.02734375 1:0 2:0 3:373.483 4:1368.2917 5:1153 6:497.3168 
0.02734375 1:0 2:1 3:1151.014 4:2055.8557 5:964 6:662.53265 
0.02734375 1:0 2:0 3:590.18298 4:1633.4545 5:1260 6:635.51575 
1 1:0 2:1 3:398.63901 4:1692.3934 5:1053 6:754.89471 
0.02734375 1:0 2:1 3:228.86702 4:1345.3405 5:1307 6:598.44568 
0.02734375 1:0 2:1 3:1196.2836 4:1887.9951 5:868 6:489.45871 
-0.9712902499595657 1:0 2:1 3:4583.7803 4:3143.0408 5:1070 6:232.14264 
-0.9714076272884995 1:0 2:1 3:568.21381 4:1609.4563 5:1322 6:787.40277 
0.02815818786621094 1:0 2:1 3:881.04571 4:1932.5494 5:982 6:530.43671 
0.02816295623779297 1:0 2:1 3:3948.0073 4:2951.2705 5:920 6:705.53766 
0.02791476249694824 1:0 2:1 3:442.5748 4:1469.601 5:1320 6:568.73761 
0.02789849042892456 1:0 2:1 3:248.66318 4:1324.3845 5:1082 6:520.5058 
0.02813474833965302 1:1 2:1 3:800.05133 4:1558.2727 5:1003 6:470.82245 
0.02734375 1:1 2:1 3:3012.1274 4:2358.7581 5:830 6:433.52792 
0.02734375 1:1 2:1 3:870.72296 4:1624.9089 5:1098 6:434.06674 
0.02734375 1:1 2:1 3:596.24262 4:1510.9131 5:1186 6:456.8219 
0.02734375 1:1 2:1 3:552.27222 4:1378.2238 5:733 6:394.25983 
0.02734375 1:1 2:1 3:871.32562 4:1710.5525 5:932 6:479.24417 
0.02734375 1:1 2:1 3:694.47742 4:1671.8125 5:799 6:393.99454 
0.02734375 1:1 2:1 3:200.09001 4:1168.4712 5:1215 6:306.28265 
0.02734375 1:1 2:1 3:529.72784 4:1532.8699 5:1183 6:398.27478 
0.02734375 1:1 2:0 3:2012.1512 4:2309.8469 5:773 6:490.4653 
0.02786025038221851 1:1 2:1 3:850.95929 4:1750.1954 5:1069 6:510.93781 
0.02785241603851318 1:1 2:1 3:768.0473 4:1296.8911 5:833 6:295.81384 
0.02785241603851318 1:1 2:0 3:459.62476 4:1348.8986 5:997 6:372.37299 
0.02790426262072287 1:1 2:1 3:682.61542 4:1444.5995 5:989 6:385.08719 
0.02790426262072287 1:1 2:1 3:767.72119 4:1433.3026 5:1128 6:416.68872 
0.02791336306836456 1:1 2:0 3:567.7085 4:1404.7344 5:1219 6:457.70758 
0.02796806135575025 1:1 2:0 3:1923.7953 4:1848.2263 5:924 6:300.74512 
0.02798123783941264 1:1 2:0 3:2342.4438 4:2108.9033 5:1221 6:619.66821 
0.02799076346855145 1:1 2:1 3:601.82971 4:1397.0787 5:1086 6:409.6506 
0.02802675002021715 1:1 2:1 3:6078.5239 4:5855.2632 5:582 6:489.89142 
0.02803962491452694 1:1 2:1 3:1655.2334 4:1794.0947 5:1073 6:411.80115 
0.02804108592681587 1:1 2:1 3:797.86145 4:1609.3247 5:1017 6:529.01337 
0.02804108592681587 1:1 2:0 3:2360.9907 4:2492.2273 5:854 6:472.04217 
0.02809892955701798 1:1 2:1 3:667.60211 4:1534.9164 5:1034 6:415.63882 
0.02812241774518043 1:1 2:1 3:610.76752 4:1431.9677 5:1099 6:381.51263 
0.02815818786621094 1:1 2:0 3:475.0296 4:1467.7281 5:998 6:413.94989 
0.02817996870726347 1:1 2:1 3:2689.7979 4:1991.5887 5:909 6:416.67041 
0.02817996870726347 1:1 2:1 3:3298.5713 4:2252.6785 5:937 6:374.42261 
0.02827362879179418 1:1 2:1 3:3204.7935 4:2573.2761 5:809 6:418.05795 
0.02827392145991325 1:1 2:1 3:506.10291 4:1354.5868 5:1177 6:357.68951 
0.02827392145991325 1:1 2:1 3:2666.9524 4:2056.8992 5:1229 6:435.76679 
0.02742528915405273 1:1 2:1 3:354.80908 4:1278.163 5:1164 6:443.70615 
0.02827589213848114 1:1 2:0 3:330.05197 4:1209.1361 5:1039 6:265.21146 
0.02827589213848114 1:1 2:0 3:635.41363 4:1837.3319 5:1151 6:497.15573 
0.02829521894454956 1:1 2:1 3:479.36807 4:1375.2025 5:1058 6:369.80402 
0.02829521894454956 1:1 2:1 3:147.18599 4:1076.4918 5:1196 6:258.46668 
0.02829521894454956 1:1 2:1 3:888.4707 4:1250.2844 5:1183 6:196.42186 
0.02829627692699432 1:1 2:1 3:1079.5116 4:1496.0945 5:1137 6:432.35168 
0.0283203125 1:1 2:1 3:2167.0908 4:2084.5735 5:906 6:424.5589 
0.0283203125 1:1 2:1 3:1636.6272 4:1919.8759 5:1083 6:447.59552 
0.0283203125 1:1 2:1 3:319.84677 4:1166.3569 5:1299 6:286.40317 
0.0283203125 1:1 2:1 3:402.14963 4:1304.9731 5:1042 6:351.97165 
0.0283203125 1:1 2:1 3:444.22903 4:1316.2446 5:1284 6:367.56323 
0.0283203125 1:1 2:1 3:568.70892 4:1520.1614 5:974 6:410.55814 
0.0283203125 1:1 2:1 3:371.97244 4:1289.1174 5:1261 6:335.32657 
0.0283203125 1:1 2:1 3:6455.0381 4:5618.0537 5:912 6:446.13959 
0.0283203125 1:1 2:1 3:626.05267 4:1494.4624 5:1008 6:397.17868 
0.0283203125 1:1 2:1 3:502.02637 4:1183.6102 5:926 6:231.2446 
0.0283203125 1:1 2:1 3:905.76196 4:1990.678 5:836 6:472.57263 
0.0283203125 1:1 2:1 3:728.33258 4:1383.3499 5:1056 6:325.24512 
0.0283203125 1:1 2:1 3:290.28839 4:1284.7441 5:1203 6:461.4581 
0.0283203125 1:1 2:1 3:689.09216 4:1848.5742 5:949 6:490.23093 
0.02785241603851318 1:1 2:0 3:2369.6111 4:2132.7498 5:792 6:386.00528 
0.02790426262072287 1:1 2:1 3:1131.85 4:1456.9016 5:1189 6:466.98206 
0.02791336306836456 1:1 2:1 3:2690.9695 4:2338.5618 5:861 6:463.5795 
0.02804108592681587 1:1 2:1 3:3133.0188 4:2298.9255 5:791 6:384.93063 
-0.971145890885964 1:1 2:1 3:671.90271 4:1321.229 5:1044 6:411.86313 
0.02817996870726347 1:1 2:1 3:1074.9319 4:1617.012 5:985 6:401.09644 
0.02827392145991325 1:1 2:1 3:1693.8639 4:1766.9111 5:898 6:395.96884 
0.02827589213848114 1:1 2:1 3:537.10272 4:1769.5518 5:740 6:454.82169 
0.02829521894454956 1:1 2:1 3:515.8432 4:1190.5663 5:1319 6:279.95862 
0.02817996870726347 1:1 2:1 3:1533.7312 4:2009.7479 5:1049 6:434.78683 
0.02803962491452694 1:1 2:1 3:736.91437 4:1557.2062 5:1066 6:436.28659 
