svm_type nu_svr
kernel_type rbf
gamma 0.166667
nr_class 2
total_sv 110
rho 0.0281656
SV
0.0283203125 1:1328.2211 2:1784.5159 3:122.42004 4:516.24097 5:0.000534 6:190 
0.0283203125 1:1216.2747 2:1928.4839 3:184.08177 4:514.25031 5:0.000689 6:170 
0.0283203125 1:284.74152 2:1455.2574 3:187.60159 4:540.31665 5:0.000424 6:101 
0.0283203125 1:1040.3964 2:2185.0735 3:174.87781 4:558.74066 5:0.000298 6:52 
0.0283203125 1:256.99347 2:1418.5193 3:179.7747 4:615.01532 5:0.00064 6:265 
0.0283203125 1:353.39954 2:1387.7516 3:245.15866 4:457.76593 5:0.000562 6:220 
0.0283203125 1:724.33752 2:1663.5341 3:111.76267 4:508.71634 5:0.00042 6:73 
0.02829521894454956 1:276.96069 2:1489.085 3:258.78903 4:595.60547 5:0.000672 6:255 
0.0283203125 1:358.11847 2:1459.4364 3:243.40955 4:512.27393 5:0.000538 6:190 
0.0283203125 1:676.60901 2:1825.4937 3:108.40743 4:472.09235 5:0.000511 6:155 
0.0283203125 1:338.77457 2:1481.2729 3:154.93671 4:485.67459 5:0.00026 6:80 
0.0283203125 1:283.00702 2:1362.0447 3:134.63148 4:525.77222 5:0.000658 6:275 
0.0283203125 1:1017.2359 2:1899.0386 3:211.1675 4:633.92914 5:0.000403 6:140 
0.0283203125 1:280.64706 2:1219.8586 3:125.32471 4:348.40878 5:0.000706 6:125 
0.0283203125 1:561.47235 2:1472.0798 3:317.07281 4:452.17032 5:0.000716 6:175 
1 1:753.75763 2:1658.2784 3:187.0966 4:510.10651 5:0.000593 6:160 
-0.971623249235563 1:3468.8306 2:6199.2202 3:152.31142 4:644.00458 5:0.000154 6:59 
0.02786025038221851 1:276.49921 2:1440.207 3:156.18234 4:593.62805 5:0.000582 6:160 
0.02796806135575025 1:260.56043 2:1309.333 3:137.77418 4:513.64008 5:0.000857 6:148 
0.02809892955701798 1:391.67111 2:1445.6055 3:169.74104 4:599.19843 5:0.000672 6:170 
0.02827362879179418 1:521.31824 2:1545.4904 3:110.60689 4:519.73486 5:0.000505 6:175 
0.02827589213848114 1:345.1481 2:1192.4337 3:117.79584 4:305.73157 5:0.000343 6:135 
0.02829521894454956 1:5365.5361 2:4007.5034 3:93.960075 4:469.89963 5:0.000411 6:70 
0.02829627692699432 1:252.03314 2:1273.736 3:62.218277 4:314.22421 5:0.000383 6:45 
0.02790426262072287 1:1001.5763 2:1464.4348 3:194.78667 4:398.70984 5:0.000513 6:185 
0.02777862548828125 1:478.60736 2:1639.1249 3:272.56207 4:660.32135 5:0.000429 6:200 
0.02734375 1:626.1297 2:1672.0845 3:233.00282 4:541.71991 5:0.000451 6:170 
1 1:897.86102 2:1768.0786 3:212.32161 4:660.87097 5:0.000707 6:290 
0.02734375 1:390.26743 2:1430.9865 3:219.63496 4:526.19269 5:0.000586 6:220 
0.02734375 1:1598.9414 2:2025.5453 3:168.61116 4:417.44363 5:0.00039 6:120 
-0.9713622230628971 1:1057.3951 2:2617.1016 3:122.04619 4:455.86713 5:0.00024 6:45 
0.02734375 1:238.24316 2:1348.2349 3:251.46826 4:599.3794 5:0.000452 6:150 
0.02734375 1:3760.4128 2:3196.9268 3:100.71413 4:451.15335 5:0.000518 6:115 
-0.9713812743211747 1:256.2449 2:1194.8899 3:40.574505 4:235.69646 5:0.000326 6:45 
0.02734375 1:535.77716 2:1591.6799 3:196.95021 4:564.58441 5:0.000589 6:150 
0.02734375 1:373.483 2:1368.2917 3:290.93979 4:497.3168 5:0.000531 6:230 
0.02734375 1:1151.014 2:2055.8557 3:137.8206 4:662.53265 5:0.000613 6:140 
0.02734375 1:590.18298 2:1633.4545 3:173.51231 4:635.51575 5:0.000602 6:160 
1 1:398.63901 2:1692.3934 3:131.64836 4:754.89471 5:0.000505 6:250 
0.02734375 1:228.86702 2:1345.3405 3:164.6559 4:598.44568 5:0.000853 6:280 
0.02734375 1:1196.2836 2:1887.9951 3:118.39919 4:489.45871 5:0.000581 6:165 
-0.9712902499595657 1:4583.7803 2:3143.0408 3:44.069962 4:232.14264 5:0.000933 6:100 
-0.9714076272884995 1:568.21381 2:1609.4563 3:572.40143 4:787.40277 5:0.001009 6:129 
0.02815818786621094 1:881.04571 2:1932.5494 3:111.65286 4:530.43671 5:0.000334 6:174 
0.02816295623779297 1:3948.0073 2:2951.2705 3:168.07809 4:705.53766 5:0.000819 6:126 
0.02791476249694824 1:442.5748 2:1469.601 3:211.117 4:568.73761 5:0.000853 6:165 
0.02789849042892456 1:248.66318 2:1324.3845 3:246.04076 4:520.5058 5:0.001194 6:128 
0.02813474833965302 1:800.05133 2:1558.2727 3:92.28968 4:470.82245 5:0.000697 6:190 
0.02734375 1:3012.1274 2:2358.7581 3:91.326851 4:433.52792 5:0.000637 6:120 
0.02734375 1:870.72296 2:1624.9089 3:114.43704 4:434.06674 5:0.000818 6:110 
0.02734375 1:596.24262 2:1510.9131 3:148.28641 4:456.8219 5:0.000876 6:150 
0.02734375 1:552.27222 2:1378.2238 3:138.30226 4:394.25983 5:0.000771 6:190 
0.02734375 1:871.32562 2:1710.5525 3:134.92932 4:479.24417 5:0.00073 6:80 
0.02734375 1:694.47742 2:1671.8125 3:73.443481 4:393.99454 5:0.000549 6:100 
0.02734375 1:200.09001 2:1168.4712 3:75.059196 4:306.28265 5:0.00056 6:240 
0.02734375 1:529.72784 2:1532.8699 3:72.823708 4:398.27478 5:0.000775 6:140 
0.02734375 1:2012.1512 2:2309.8469 3:150.36011 4:490.4653 5:0.000551 6:75 
0.02786025038221851 1:850.95929 2:1750.1954 3:91.247353 4:510.93781 5:0.000774 6:115 
0.02785241603851318 1:768.0473 2:1296.8911 3:120.21809 4:295.81384 5:0.000658 6:170 
0.02785241603851318 1:459.62476 2:1348.8986 3:84.585358 4:372.37299 5:0.000589 6:120 
0.02790426262072287 1:682.61542 2:1444.5995 3:101.42107 4:385.08719 5:0.000664 6:125 
0.02790426262072287 1:767.72119 2:1433.3026 3:105.6449 4:416.68872 5:0.000865 6:180 
0.02791336306836456 1:567.7085 2:1404.7344 3:64.040039 4:457.70758 5:0.001064 6:160 
0.02796806135575025 1:1923.7953 2:1848.2263 3:68.875267 4:300.74512 5:0.000683 6:165 
0.02798123783941264 1:2342.4438 2:2108.9033 3:149.2966 4:619.66821 5:0.000748 6:180 
0.02799076346855145 1:601.82971 2:1397.0787 3:90.997894 4:409.6506 5:0.000758 6:160 
0.02802675002021715 1:6078.5239 2:5855.2632 3:247.03374 4:489.89142 5:0.001417 6:185 
0.02803962491452694 1:1655.2334 2:1794.0947 3:113.12672 4:411.80115 5:0.000766 6:130 
0.02804108592681587 1:797.86145 2:1609.3247 3:121.96153 4:529.01337 5:0.000767 6:200 
0.02804108592681587 1:2360.9907 2:2492.2273 3:95.614876 4:472.04217 5:0.000626 6:90 
0.02809892955701798 1:667.60211 2:1534.9164 3:88.994751 4:415.63882 5:0.000814 6:140 
0.02812241774518043 1:610.76752 2:1431.9677 3:97.601379 4:381.51263 5:0.000724 6:180 
0.02815818786621094 1:475.0296 2:1467.7281 3:99.353554 4:413.94989 5:0.000723 6:130 
0.02817996870726347 1:2689.7979 2:1991.5887 3:129.24826 4:416.67041 5:0.001007 6:100 
0.02817996870726347 1:3298.5713 2:2252.6785 3:78.399452 4:374.42261 5:0.001106 6:80 
0.02827362879179418 1:3204.7935 2:2573.2761 3:121.17292 4:418.05795 5:0.000473 6:75 
0.02827392145991325 1:506.10291 2:1354.5868 3:84.184044 4:357.68951 5:0.000575 6:170 
0.02827392145991325 1:2666.9524 2:2056.8992 3:82.125359 4:435.76679 5:0.000696 6:90 
0.02742528915405273 1:354.80908 2:1278.163 3:109.8411 4:443.70615 5:0.00131 6:180 
0.02827589213848114 1:330.05197 2:1209.1361 3:66.906998 4:265.21146 5:0.000441 6:180 
0.02827589213848114 1:635.41363 2:1837.3319 3:111.23468 4:497.15573 5:0.000727 6:95 
0.02829521894454956 1:479.36807 2:1375.2025 3:92.010223 4:369.80402 5:0.000435 6:135 
0.02829521894454956 1:147.18599 2:1076.4918 3:65.945 4:258.46668 5:0.000494 6:210 
0.02829521894454956 1:888.4707 2:1250.2844 3:47.813747 4:196.42186 5:0.00046 6:80 
0.02829627692699432 1:1079.5116 2:1496.0945 3:107.93533 4:432.35168 5:0.000599 6:140 
0.0283203125 1:2167.0908 2:2084.5735 3:77.674416 4:424.5589 5:0.000571 6:120 
0.0283203125 1:1636.6272 2:1919.8759 3:111.05724 4:447.59552 5:0.000662 6:100 
0.0283203125 1:319.84677 2:1166.3569 3:57.090328 4:286.40317 5:0.00047 6:170 
0.0283203125 1:402.14963 2:1304.9731 3:97.889984 4:351.97165 5:0.000464 6:245 
0.0283203125 1:444.22903 2:1316.2446 3:81.708939 4:367.56323 5:0.000686 6:120 
0.0283203125 1:568.70892 2:1520.1614 3:99.147339 4:410.55814 5:0.000559 6:140 
0.0283203125 1:371.97244 2:1289.1174 3:38.322647 4:335.32657 5:0.000513 6:120 
0.0283203125 1:6455.0381 2:5618.0537 3:100.42133 4:446.13959 5:0.000876 6:200 
0.0283203125 1:626.05267 2:1494.4624 3:82.794144 4:397.17868 5:0.000634 6:170 
0.0283203125 1:502.02637 2:1183.6102 3:78.912949 4:231.2446 5:0.00043 6:85 
0.0283203125 1:905.76196 2:1990.678 3:94.83757 4:472.57263 5:0.000421 6:156 
0.0283203125 1:728.33258 2:1383.3499 3:67.299492 4:325.24512 5:0.000588 6:170 
0.0283203125 1:290.28839 2:1284.7441 3:92.750999 4:461.4581 5:0.000756 6:180 
0.0283203125 1:689.09216 2:1848.5742 3:81.077324 4:490.23093 5:0.000754 6:150 
0.02785241603851318 1:2369.6111 2:2132.7498 3:95.077652 4:386.00528 5:0.000546 6:115 
0.02790426262072287 1:1131.85 2:1456.9016 3:133.02512 4:466.98206 5:0.000748 6:240 
0.02791336306836456 1:2690.9695 2:2338.5618 3:129.31689 4:463.5795 5:0.000409 6:85 
0.02804108592681587 1:3133.0188 2:2298.9255 3:125.35245 4:384.93063 5:0.000342 6:160 
-0.971145890885964 1:671.90271 2:1321.229 3:98.256821 4:411.86313 5:0.000787 6:120 
0.02817996870726347 1:1074.9319 2:1617.012 3:100.68175 4:401.09644 5:0.000827 6:145 
0.02827392145991325 1:1693.8639 2:1766.9111 3:88.509705 4:395.96884 5:0.000584 6:120 
0.02827589213848114 1:537.10272 2:1769.5518 3:75.457474 4:454.82169 5:0.000661 6:80 
0.02829521894454956 1:515.8432 2:1190.5663 3:53.817097 4:279.95862 5:0.000468 6:135 
0.02817996870726347 1:1533.7312 2:2009.7479 3:67.587502 4:434.78683 5:0.00086 6:145 
0.02803962491452694 1:736.91437 2:1557.2062 3:94.29567 4:436.28659 5:0.00088 6:220 
