svm_type nu_svr
kernel_type rbf
gamma 0.2
nr_class 2
total_sv 53
rho -0.108598
SV
-0.1083474596826413 0:1328.2211 1:1784.5159 2:1015 3:516.24097 4:0.01777 5:190 
1 0:1017.2359 1:1899.0386 2:1034 3:633.92914 4:0.012251 5:140 
0.2245816020132773 0:1216.2747 1:1928.4839 2:745 3:514.25031 4:0.016227 5:170 
0.5578790469727741 0:1001.5763 1:1464.4348 2:956 3:398.70984 4:0.017125 5:185 
0.3908415999680828 0:284.74152 1:1455.2574 2:1304 3:540.31665 4:0.016676 5:101 
-0.4415838159723646 0:1040.3964 1:2185.0735 2:777 3:558.74066 4:0.007606 5:52 
0.7245352526445519 0:256.99347 1:1418.5193 2:1114 3:615.01532 4:0.024521 5:265 
-0.1078700479767545 0:353.39954 1:1387.7516 2:798 3:457.76593 4:0.019292 5:220 
0.2243673964347803 0:724.33752 1:1663.5341 2:960 3:508.71634 4:0.01536 5:73 
0.7244233681157398 0:276.96069 1:1489.085 2:841 3:595.60547 4:0.023468 5:255 
0.7241640228528071 0:358.11847 1:1459.4364 2:856 3:512.27393 4:0.018424 5:190 
-0.6082453757790778 0:676.60901 1:1825.4937 2:905 3:472.09235 4:0.012156 5:155 
0.5574504594444687 0:338.77457 1:1481.2729 2:1102 3:485.67459 4:0.011828 5:80 
0.557509373033986 0:283.00702 1:1362.0447 2:1033 3:525.77222 4:0.025003 5:275 
-0.4415902523295498 0:1017.2359 1:1899.0386 2:1034 3:633.92914 4:0.012251 5:140 
0.3908006526369195 0:280.64706 1:1219.8586 2:1229 3:348.40878 4:0.024241 5:125 
0.05789676222635592 0:561.47235 1:1472.0798 2:677 3:452.17032 4:0.021674 5:175 
0.8908125457757761 0:753.75763 1:1658.2784 2:1154 3:510.10651 4:0.017748 5:160 
-1 0:3468.8306 1:6199.2202 2:272 3:644.00458 4:0.002271 5:59 
0.05742066579112537 0:276.49921 1:1440.207 2:1284 3:593.62805 4:0.02349 5:160 
0.3907936053029856 0:260.56043 1:1309.333 2:1006 3:513.64008 4:0.033737 5:148 
0.3907945336946091 0:391.67111 1:1445.6055 2:1234 3:599.19843 4:0.025695 5:170 
-0.1077841634744955 0:521.31824 1:1545.4904 2:1140 3:519.73486 4:0.017725 5:175 
-0.6082569751569146 0:345.1481 1:1192.4337 2:1049 3:305.73157 4:0.019303 5:135 
-0.608208255521512 0:5365.5361 1:4007.5034 2:814 3:469.89963 4:0.009613 5:70 
-0.7750144596826413 0:252.03314 1:1273.736 2:1260 3:314.22421 4:0.015145 5:45 
-1 0:1001.5763 1:1464.4348 2:956 3:398.70984 4:0.017125 5:185 
0.390797703376782 0:478.60736 1:1639.1249 2:1187 3:660.32135 4:0.015838 5:200 
0.05745785092334616 0:626.1297 1:1672.0845 2:1091 3:541.71991 4:0.014183 5:170 
0.8911654877036888 0:897.86102 1:1768.0786 2:762 3:660.87097 4:0.021499 5:290 
0.5574957771609318 0:390.26743 1:1430.9865 2:933 3:526.19269 4:0.024319 5:220 
-0.2749124995818915 0:1598.9414 1:2025.5453 2:742 3:417.44363 4:0.011465 5:120 
-1 0:1057.3951 1:2617.1016 2:616 3:455.86713 4:0.004951 5:45 
-0.2749372184407238 0:238.24316 1:1348.2349 2:901 3:599.3794 4:0.026871 5:150 
-0.6082169969389615 0:3760.4128 1:3196.9268 2:657 3:451.15335 4:0.010741 5:115 
-1 0:256.2449 1:1194.8899 2:1170 3:235.69646 4:0.013789 5:45 
-0.6082758971097151 0:535.77716 1:1591.6799 2:906 3:564.58441 4:0.01951 5:150 
0.3908306577330083 0:373.483 1:1368.2917 2:1153 3:497.3168 4:0.021692 5:230 
-0.2744796443559124 0:1151.014 1:2055.8557 2:964 3:662.53265 4:0.014866 5:140 
0.2245249634412562 0:590.18298 1:1633.4545 2:1260 3:635.51575 4:0.01878 5:160 
0.8909960009428417 0:398.63901 1:1692.3934 2:1053 3:754.89471 4:0.017739 5:250 
0.557478729830823 0:228.86702 1:1345.3405 2:1307 3:598.44568 4:0.03949 5:280 
0.2245816020132773 0:1196.2836 1:1887.9951 2:868 3:489.45871 4:0.015249 5:165 
-1 0:4583.7803 1:3143.0408 2:1070 3:232.14264 4:0.023328 5:100 
-1 0:568.21381 1:1609.4563 2:1322 3:787.40277 4:0.038783 5:129 
0.3908749827692433 0:881.04571 1:1932.5494 2:982 3:530.43671 4:0.009767 5:174 
0.3908041637064357 0:3948.0073 1:2951.2705 2:920 3:705.53766 4:0.022925 5:126 
-0.4416209902451064 0:442.5748 1:1469.601 2:1320 3:568.73761 4:0.031653 5:165 
0.05751358319043676 0:248.66318 1:1324.3845 2:1082 3:520.5058 4:0.043385 5:128 
-0.1079539763199373 0:800.05133 1:1558.2727 2:1003 3:470.82245 4:0.021834 5:190 
-0.2744855871945953 0:3012.1274 1:2358.7581 2:830 3:433.52792 4:0.017196 5:120 
-0.2744780939715318 0:870.72296 1:1624.9089 2:1098 3:434.06674 4:0.021694 5:110 
0.05746932003401516 0:596.24262 1:1510.9131 2:1186 3:456.8219 4:0.023255 5:150 
