svm_type nu_svr
kernel_type rbf
gamma 0.166667
nr_class 2
total_sv 15
rho -0.321418
SV
-0.3208997557860681 1:0 2:1784.5159 3:122.42004 4:516.24097 5:0.01777 6:190 
1 1:0 2:1899.0386 3:211.1675 4:633.92914 5:0.012251 6:140 
0.01166036060987391 1:0 2:1928.4839 3:184.08177 4:514.25031 5:0.016227 6:170 
-0.6543018309966987 1:0 2:1464.4348 3:194.78667 4:398.70984 5:0.017125 6:185 
0.1782171179568289 1:7 2:1455.2574 3:187.60159 4:540.31665 5:0.016676 6:101 
-0.6542039776514553 1:7 2:2185.0735 3:174.87781 4:558.74066 5:0.007606 6:52 
0.511424777443213 1:3 2:1418.5193 3:179.7747 4:615.01532 5:0.024521 6:265 
-0.3208443559444175 1:12 2:1387.7516 3:245.15866 4:457.76593 5:0.019292 6:220 
0.01160129161161186 1:7 2:1663.5341 3:111.76267 4:508.71634 5:0.01536 6:73 
0.511660360609874 1:0 2:1489.085 3:258.78903 4:595.60547 5:0.023468 6:255 
0.5116130113380848 1:8 2:1459.4364 3:243.40955 4:512.27393 5:0.018424 6:190 
-0.8209270572251284 1:7 2:1825.4937 3:108.40743 4:472.09235 5:0.012156 6:155 
0.3443987912968572 1:0 2:1481.2729 3:154.93671 4:485.67459 5:0.011828 6:80 
0.344867174507839 1:7 2:1362.0447 3:134.63148 4:525.77222 5:0.025003 6:275 
-0.6542659077704145 1:0 2:1899.0386 3:211.1675 4:633.92914 5:0.012251 6:140 
