svm_type nu_svr
kernel_type rbf
gamma 0.2
nr_class 2
total_sv 53
rho -0.10858
SV
-0.108302811240686 0:0 1:1 2:1328.2211 3:122.42004 4:0.000534 5:0.01777 
1 0:0 1:1 2:1017.2359 3:211.1675 4:0.000403 5:0.012251 
0.2244081134147496 0:0 1:1 2:1216.2747 3:184.08177 4:0.000689 5:0.016227 
0.5576082421367473 0:0 1:0 2:1001.5763 3:194.78667 4:0.000513 5:0.017125 
0.390820873059222 0:7 1:1 2:284.74152 3:187.60159 4:0.000424 5:0.016676 
-0.441505564807714 0:7 1:1 2:1040.3964 3:174.87781 4:0.000298 5:0.007606 
0.7244900987142229 0:3 1:1 2:256.99347 3:179.7747 4:0.00064 5:0.024521 
-0.1084744313503803 0:12 1:0 2:353.39954 3:245.15866 4:0.000562 5:0.019292 
0.2240909710214866 0:7 1:1 2:724.33752 3:111.76267 4:0.00042 5:0.01536 
0.7244583203041202 0:0 1:1 2:276.96069 3:258.78903 4:0.000672 5:0.023468 
0.7241859897649261 0:8 1:1 2:358.11847 3:243.40955 4:0.000538 5:0.018424 
-0.6079175056618259 0:7 1:1 2:676.60901 3:108.40743 4:0.000511 5:0.012156 
0.5574785014132894 0:0 1:1 2:338.77457 3:154.93671 4:0.00026 5:0.011828 
0.5577945376000777 0:7 1:1 2:283.00702 3:134.63148 4:0.000658 5:0.025003 
-0.4416311099642193 0:0 1:1 2:1017.2359 3:211.1675 4:0.000403 5:0.012251 
0.3910779387224007 0:0 1:1 2:280.64706 3:125.32471 4:0.000706 5:0.024241 
0.05775854060292497 0:2 1:1 2:561.47235 3:317.07281 4:0.000716 5:0.021674 
0.890771608777789 0:0 1:1 2:753.75763 3:187.0966 4:0.000593 5:0.017748 
-1 0:2 1:1 2:3468.8306 3:152.31142 4:0.000154 5:0.002271 
0.05742497102148666 0:5 1:1 2:276.49921 3:156.18234 4:0.000582 5:0.02349 
0.3909465857994728 0:5 1:1 2:260.56043 3:137.77418 4:0.000857 5:0.033737 
0.3910851849708892 0:5 1:1 2:391.67111 3:169.74104 4:0.000672 5:0.025695 
-0.1083298209961834 0:8 1:1 2:521.31824 3:110.60689 4:0.000505 5:0.017725 
-0.608302811240686 0:0 1:1 2:345.1481 3:117.79584 4:0.000343 5:0.019303 
-0.6080162092210797 0:0 1:1 2:5365.5361 3:93.960075 4:0.000411 5:0.009613 
-0.7744409399711315 0:11 1:1 2:252.03314 3:62.218277 4:0.000383 5:0.015145 
-1 0:0 1:0 2:1001.5763 3:194.78667 4:0.000513 5:0.017125 
0.3908746029395936 0:2 1:1 2:478.60736 3:272.56207 4:0.000429 5:0.015838 
0.05776212286676596 0:2 1:1 2:626.1297 3:233.00282 4:0.000451 5:0.014183 
0.891121495093271 0:10 1:1 2:897.86102 3:212.32161 4:0.000707 5:0.021499 
0.5577475643872495 0:10 1:1 2:390.26743 3:219.63496 4:0.000586 5:0.024319 
-0.2749889172624582 0:0 1:0 2:1598.9414 3:168.61116 4:0.00039 5:0.011465 
-1 0:10 1:1 2:1057.3951 3:122.04619 4:0.00024 5:0.004951 
-0.2749934519280429 0:12 1:0 2:238.24316 3:251.46826 4:0.000452 5:0.026871 
-0.6083115003704963 0:0 1:0 2:3760.4128 3:100.71413 4:0.000518 5:0.010741 
-1 0:10 1:0 2:256.2449 3:40.574505 4:0.000326 5:0.013789 
-0.608084169694768 0:4 1:0 2:535.77716 3:196.95021 4:0.000589 5:0.01951 
0.390829340288993 0:4 1:0 2:373.483 3:290.93979 4:0.000531 5:0.021692 
-0.2749133396610804 0:2 1:1 2:1151.014 3:137.8206 4:0.000613 5:0.014866 
0.2244433317681192 0:2 1:0 2:590.18298 3:173.51231 4:0.000602 5:0.01878 
0.8908005279800623 0:2 1:1 2:398.63901 3:131.64836 4:0.000505 5:0.017739 
0.5578129877491348 0:5 1:1 2:228.86702 3:164.6559 4:0.000853 5:0.03949 
0.2244051213230248 0:5 1:1 2:1196.2836 3:118.39919 4:0.000581 5:0.015249 
-1 0:4 1:1 2:4583.7803 3:44.069962 4:0.000933 5:0.023328 
-1 0:0 1:1 2:568.21381 3:572.40143 4:0.001009 5:0.038783 
0.3911580545538933 0:9 1:1 2:881.04571 3:111.65286 4:0.000334 5:0.009767 
0.3908854843017416 0:2 1:1 2:3948.0073 3:168.07809 4:0.000819 5:0.022925 
-0.441626814171202 0:12 1:1 2:442.5748 3:211.117 4:0.000853 5:0.031653 
0.05777504057528439 0:0 1:1 2:248.66318 3:246.04076 4:0.001194 5:0.043385 
-0.1083353134739116 0:7 1:1 2:800.05133 3:92.28968 4:0.000697 5:0.021834 
-0.2750038028463672 0:7 1:1 2:3012.1274 3:91.326851 4:0.000637 5:0.017196 
-0.2744397101774627 0:3 1:1 2:870.72296 3:114.43704 4:0.000818 5:0.021694 
0.05760207288875685 0:5 1:1 2:596.24262 3:148.28641 4:0.000876 5:0.023255 
