svm_type nu_svr
kernel_type rbf
gamma 0.166667
nr_class 2
total_sv 110
rho 0.0280751
SV
0.02799415588380316 1:0 2:1 3:1328.2211 4:122.42004 5:0.01777 6:190 
0.02799224853517035 1:0 2:1 3:1216.2747 4:184.08177 5:0.016227 6:170 
0.02799224853517035 1:7 2:1 3:284.74152 4:187.60159 5:0.016676 6:101 
0.02798461914063932 1:7 2:1 3:1040.3964 4:174.87781 5:0.007606 6:52 
0.02798461914063932 1:3 2:1 3:256.99347 4:179.7747 5:0.024521 6:265 
0.02799415588371867 1:12 2:0 3:353.39954 4:245.15866 5:0.019292 6:220 
0.02799224853519855 1:7 2:1 3:724.33752 4:111.76267 5:0.01536 6:73 
0.02832031250000699 1:0 2:1 3:276.96069 4:258.78903 5:0.023468 6:255 
0.02832031250000699 1:8 2:1 3:358.11847 4:243.40955 5:0.018424 6:190 
0.02832031250000699 1:7 2:1 3:676.60901 4:108.40743 5:0.012156 6:155 
0.02832031250000699 1:0 2:1 3:338.77457 4:154.93671 5:0.011828 6:80 
0.0279941559612531 1:7 2:1 3:283.00702 4:134.63148 5:0.025003 6:275 
0.02807104592374621 1:0 2:1 3:1017.2359 4:211.1675 5:0.012251 6:140 
0.02810635049991028 1:0 2:1 3:280.64706 4:125.32471 5:0.024241 6:125 
0.02815499904985375 1:2 2:1 3:561.47235 4:317.07281 5:0.021674 6:175 
1 1:0 2:1 3:753.75763 4:187.0966 5:0.017748 6:160 
-0.971436902875136 1:2 2:1 3:3468.8306 4:152.31142 5:0.002271 6:59 
0.02795342356244612 1:5 2:1 3:276.49921 4:156.18234 5:0.02349 6:160 
0.0280710458755582 1:5 2:1 3:260.56043 4:137.77418 5:0.033737 6:148 
0.02807104587721854 1:5 2:1 3:391.67111 4:169.74104 5:0.025695 6:170 
0.02810635045338239 1:8 2:1 3:521.31824 4:110.60689 5:0.017725 6:175 
0.0281549990188259 1:0 2:1 3:345.1481 4:117.79584 5:0.019303 6:135 
0.02795342355967889 1:0 2:1 3:5365.5361 4:93.960075 5:0.009613 6:70 
0.02815499901771912 1:11 2:1 3:252.03314 4:62.218277 5:0.015145 6:45 
0.02810635045172216 1:0 2:0 3:1001.5763 4:194.78667 5:0.017125 6:185 
0.02807549387183829 1:2 2:1 3:478.60736 4:272.56207 5:0.015838 6:200 
0.02734375000002816 1:2 2:1 3:626.1297 4:233.00282 5:0.014183 6:170 
1 1:10 2:1 3:897.86102 4:212.32161 5:0.021499 6:290 
0.02814733982036564 1:10 2:1 3:390.26743 4:219.63496 5:0.024319 6:220 
0.02799463272059522 1:0 2:0 3:1598.9414 4:168.61116 5:0.011465 6:120 
-0.9713592529296311 1:10 2:1 3:1057.3951 4:122.04619 5:0.004951 6:45 
0.0279941558834652 1:12 2:0 3:238.24316 4:251.46826 5:0.026871 6:150 
0.02799224853517039 1:0 2:0 3:3760.4128 4:100.71413 5:0.010741 6:115 
-0.9719289540762537 1:10 2:0 3:256.2449 4:40.574505 5:0.013789 6:45 
0.0279846191406393 1:4 2:0 3:535.77716 4:196.95021 5:0.01951 6:150 
0.02807549387183829 1:4 2:0 3:373.483 4:290.93979 5:0.021692 6:230 
0.02832031250000704 1:2 2:1 3:1151.014 4:137.8206 5:0.014866 6:140 
0.02832031250000704 1:2 2:0 3:590.18298 4:173.51231 5:0.01878 6:160 
1 1:2 2:1 3:398.63901 4:131.64836 5:0.017739 6:250 
0.02814733982036564 1:5 2:1 3:228.86702 4:164.6559 5:0.03949 6:280 
0.02832031249949306 1:5 2:1 3:1196.2836 4:118.39919 5:0.015249 6:165 
-0.9718936495000898 1:4 2:1 3:4583.7803 4:44.069962 5:0.023328 6:100 
-0.9718450009501463 1:0 2:1 3:568.21381 4:572.40143 5:0.038783 6:129 
0.02815499901721209 1:9 2:1 3:881.04571 4:111.65286 5:0.009767 6:174 
0.02799463272059522 1:2 2:1 3:3948.0073 4:168.07809 5:0.022925 6:126 
0.02799463272059522 1:12 2:1 3:442.5748 4:211.117 5:0.031653 6:165 
0.0279534235596789 1:0 2:1 3:248.66318 4:246.04076 5:0.043385 6:128 
0.02795342355967893 1:7 2:1 3:800.05133 4:92.28968 5:0.021834 6:190 
0.02795342356244611 1:7 2:1 3:3012.1274 4:91.326851 5:0.017196 6:120 
0.0279846191406393 1:3 2:1 3:870.72296 4:114.43704 5:0.021694 6:110 
0.0279846191406393 1:5 2:1 3:596.24262 4:148.28641 5:0.023255 6:150 
0.0279846191406393 1:5 2:1 3:552.27222 4:138.30226 5:0.025702 6:190 
0.02799415588346519 1:5 2:1 3:871.32562 4:134.92932 5:0.019139 6:80 
0.02799415588371865 1:0 2:1 3:694.47742 4:73.443481 5:0.014563 6:100 
0.02799415588380314 1:0 2:1 3:200.09001 4:75.059196 5:0.022936 6:240 
0.0279846191406393 1:8 2:1 3:529.72784 4:72.823708 5:0.01907 6:140 
0.02799415588380316 1:2 2:0 3:2012.1512 4:150.36011 5:0.013489 6:75 
0.02799463272059522 1:10 2:1 3:850.95929 4:91.247353 5:0.020216 6:115 
0.02799463272059522 1:0 2:1 3:768.0473 4:120.21809 5:0.02633 6:170 
0.02814733982035156 1:0 2:0 3:459.62476 4:84.585358 5:0.018689 6:120 
0.02832031251337769 1:3 2:1 3:682.61542 4:101.42107 5:0.022125 6:125 
0.02799463272059522 1:0 2:1 3:767.72119 4:105.6449 5:0.029818 6:180 
0.02799463272059522 1:7 2:0 3:567.7085 4:64.040039 5:0.029027 6:160 
0.02807104587555823 1:5 2:0 3:1923.7953 4:68.875267 5:0.022152 6:165 
0.02815499901721209 1:0 2:0 3:2342.4438 4:149.2966 5:0.022825 6:180 
0.02815499901721209 1:5 2:1 3:601.82971 4:90.997894 5:0.029616 6:160 
0.02815499901771903 1:0 2:1 3:6078.5239 4:247.03374 5:0.03027 6:185 
0.02815499901771906 1:5 2:1 3:1655.2334 4:113.12672 5:0.019101 6:130 
0.0281549990188259 1:0 2:1 3:797.86145 4:121.96153 5:0.022342 6:200 
0.02832031249937101 1:2 2:0 3:2360.9907 4:95.614876 5:0.012635 6:90 
0.02832031249937101 1:0 2:1 3:667.60211 4:88.994751 5:0.020593 6:140 
0.02807104587555823 1:8 2:1 3:610.76752 4:97.601379 5:0.02256 6:180 
0.02734374972074919 1:2 2:0 3:475.0296 4:99.353554 5:0.020635 6:130 
0.02832031249949306 1:0 2:1 3:2689.7979 4:129.24826 5:0.029963 6:100 
0.02832031249949306 1:0 2:1 3:3298.5713 4:78.399452 5:0.032625 6:80 
0.02799463272059522 1:5 2:1 3:3204.7935 4:121.17292 5:0.011023 6:75 
0.02799415588380316 1:3 2:1 3:506.10291 4:84.184044 5:0.023571 6:170 
0.02799224853517039 1:0 2:1 3:2666.9524 4:82.125359 5:0.019401 6:90 
0.0279846191406393 1:0 2:1 3:354.80908 4:109.8411 5:0.039756 6:180 
0.02807104587721857 1:0 2:0 3:330.05197 4:66.906998 5:0.01902 6:180 
0.02832031250000704 1:2 2:0 3:635.41363 4:111.23468 5:0.014989 6:95 
0.02734374972074919 1:5 2:1 3:479.36807 4:92.010223 5:0.015786 6:135 
0.02832031250000704 1:5 2:1 3:147.18599 4:65.945 5:0.036205 6:210 
0.0273437500930836 1:1 2:1 3:888.4707 4:47.813747 5:0.01757 6:80 
0.02734374998007631 1:5 2:1 3:1079.5116 4:107.93533 5:0.022006 6:140 
0.02734375006205574 1:7 2:1 3:2167.0908 4:77.674416 5:0.014357 6:120 
0.02734375000664123 1:8 2:1 3:1636.6272 4:111.05724 5:0.016317 6:100 
0.02734375000442749 1:2 2:1 3:319.84677 4:57.090328 5:0.023703 6:170 
0.02799224853517039 1:10 2:1 3:402.14963 4:97.889984 5:0.017483 6:245 
0.02799224853517039 1:1 2:1 3:444.22903 4:81.708939 5:0.025977 6:120 
0.02807549387183829 1:10 2:1 3:568.70892 4:99.147339 5:0.016222 6:140 
0.02799224853517039 1:0 2:1 3:371.97244 4:38.322647 5:0.021718 6:120 
0.02815499901721209 1:8 2:1 3:6455.0381 4:100.42133 5:0.019284 6:200 
0.02799224853517039 1:10 2:1 3:626.05267 4:82.794144 5:0.019318 6:170 
0.02814733982035156 1:7 2:1 3:502.02637 4:78.912949 5:0.017647 6:85 
0.02799415588346519 1:3 2:1 3:905.76196 4:94.83757 5:0.010755 6:156 
0.02799224853519853 1:5 2:1 3:728.33258 4:67.299492 5:0.023067 6:170 
0.0279941558834652 1:10 2:1 3:290.28839 4:92.750999 5:0.034394 6:180 
0.02807549387183829 1:4 2:1 3:689.09216 4:81.077324 5:0.017136 6:150 
0.02810635045172214 1:0 2:0 3:2369.6111 4:95.077652 5:0.013531 6:115 
0.02810635045172214 1:8 2:1 3:1131.85 4:133.02512 5:0.032965 6:240 
0.02810635045338242 1:5 2:1 3:2690.9695 4:129.31689 5:0.010502 6:85 
0.0279534235596789 1:7 2:1 3:3133.0188 4:125.35245 5:0.01127 6:160 
-0.9720058440391552 1:3 2:1 3:671.90271 4:98.256821 5:0.024424 6:120 
0.02734374998007631 1:0 2:1 3:1074.9319 4:100.68175 5:0.025715 6:145 
0.02807104587555823 1:5 2:1 3:1693.8639 4:88.509705 5:0.017622 6:120 
0.02810635045172214 1:0 2:1 3:537.10272 4:75.457474 5:0.01313 6:80 
0.02815499901771903 1:3 2:1 3:515.8432 4:53.817097 5:0.01913 6:135 
0.02832031249937101 1:0 2:1 3:1533.7312 4:67.587502 5:0.017524 6:145 
0.02832031249949306 1:3 2:1 3:736.91437 4:94.29567 5:0.025899 6:220 
