svm_type nu_svr
kernel_type rbf
gamma 0.166667
nr_class 2
total_sv 53
rho -0.108598
SV
-0.1083474596826413 0:0 1:1 2:1328.2211 3:516.24097 4:0.000534 5:0.01777 6:190 
1 0:0 1:1 2:1017.2359 3:633.92914 4:0.000403 5:0.012251 6:140 
0.2245816020132773 0:0 1:1 2:1216.2747 3:514.25031 4:0.000689 5:0.016227 6:170 
0.5578790469727741 0:0 1:0 2:1001.5763 3:398.70984 4:0.000513 5:0.017125 6:185 
0.3908415999680828 0:0 1:1 2:284.74152 3:540.31665 4:0.000424 5:0.016676 6:101 
-0.4415838159723646 0:0 1:1 2:1040.3964 3:558.74066 4:0.000298 5:0.007606 6:52 
0.7245352526445519 0:0 1:1 2:256.99347 3:615.01532 4:0.00064 5:0.024521 6:265 
-0.1078700479767545 0:0 1:0 2:353.39954 3:457.76593 4:0.000562 5:0.019292 6:220 
0.2243673964347803 0:0 1:1 2:724.33752 3:508.71634 4:0.00042 5:0.01536 6:73 
0.7244233681157398 0:0 1:1 2:276.96069 3:595.60547 4:0.000672 5:0.023468 6:255 
0.7241640228528071 0:0 1:1 2:358.11847 3:512.27393 4:0.000538 5:0.018424 6:190 
-0.6082453757790778 0:0 1:1 2:676.60901 3:472.09235 4:0.000511 5:0.012156 6:155 
0.5574504594444687 0:0 1:1 2:338.77457 3:485.67459 4:0.00026 5:0.011828 6:80 
0.557509373033986 0:0 1:1 2:283.00702 3:525.77222 4:0.000658 5:0.025003 6:275 
-0.4415902523295498 0:0 1:1 2:1017.2359 3:633.92914 4:0.000403 5:0.012251 6:140 
0.3908006526369195 0:0 1:1 2:280.64706 3:348.40878 4:0.000706 5:0.024241 6:125 
0.05789676222635592 0:0 1:1 2:561.47235 3:452.17032 4:0.000716 5:0.021674 6:175 
0.8908125457757761 0:0 1:1 2:753.75763 3:510.10651 4:0.000593 5:0.017748 6:160 
-1 0:0 1:1 2:3468.8306 3:644.00458 4:0.000154 5:0.002271 6:59 
0.05742066579112537 0:0 1:1 2:276.49921 3:593.62805 4:0.000582 5:0.02349 6:160 
0.3907936053029856 0:0 1:1 2:260.56043 3:513.64008 4:0.000857 5:0.033737 6:148 
0.3907945336946091 0:0 1:1 2:391.67111 3:599.19843 4:0.000672 5:0.025695 6:170 
-0.1077841634744955 0:0 1:1 2:521.31824 3:519.73486 4:0.000505 5:0.017725 6:175 
-0.6082569751569146 0:0 1:1 2:345.1481 3:305.73157 4:0.000343 5:0.019303 6:135 
-0.608208255521512 0:0 1:1 2:5365.5361 3:469.89963 4:0.000411 5:0.009613 6:70 
-0.7750144596826413 0:0 1:1 2:252.03314 3:314.22421 4:0.000383 5:0.015145 6:45 
-1 0:0 1:0 2:1001.5763 3:398.70984 4:0.000513 5:0.017125 6:185 
0.390797703376782 0:0 1:1 2:478.60736 3:660.32135 4:0.000429 5:0.015838 6:200 
0.05745785092334616 0:0 1:1 2:626.1297 3:541.71991 4:0.000451 5:0.014183 6:170 
0.8911654877036888 0:0 1:1 2:897.86102 3:660.87097 4:0.000707 5:0.021499 6:290 
0.5574957771609318 0:0 1:1 2:390.26743 3:526.19269 4:0.000586 5:0.024319 6:220 
-0.2749124995818915 0:0 1:0 2:1598.9414 3:417.44363 4:0.00039 5:0.011465 6:120 
-1 0:0 1:1 2:1057.3951 3:455.86713 4:0.00024 5:0.004951 6:45 
-0.2749372184407238 0:0 1:0 2:238.24316 3:599.3794 4:0.000452 5:0.026871 6:150 
-0.6082169969389615 0:0 1:0 2:3760.4128 3:451.15335 4:0.000518 5:0.010741 6:115 
-1 0:0 1:0 2:256.2449 3:235.69646 4:0.000326 5:0.013789 6:45 
-0.6082758971097151 0:0 1:0 2:535.77716 3:564.58441 4:0.000589 5:0.01951 6:150 
0.3908306577330083 0:0 1:0 2:373.483 3:497.3168 4:0.000531 5:0.021692 6:230 
-0.2744796443559124 0:0 1:1 2:1151.014 3:662.53265 4:0.000613 5:0.014866 6:140 
0.2245249634412562 0:0 1:0 2:590.18298 3:635.51575 4:0.000602 5:0.01878 6:160 
0.8909960009428417 0:0 1:1 2:398.63901 3:754.89471 4:0.000505 5:0.017739 6:250 
0.557478729830823 0:0 1:1 2:228.86702 3:598.44568 4:0.000853 5:0.03949 6:280 
0.2245816020132773 0:0 1:1 2:1196.2836 3:489.45871 4:0.000581 5:0.015249 6:165 
-1 0:0 1:1 2:4583.7803 3:232.14264 4:0.000933 5:0.023328 6:100 
-1 0:0 1:1 2:568.21381 3:787.40277 4:0.001009 5:0.038783 6:129 
0.3908749827692433 0:0 1:1 2:881.04571 3:530.43671 4:0.000334 5:0.009767 6:174 
0.3908041637064357 0:0 1:1 2:3948.0073 3:705.53766 4:0.000819 5:0.022925 6:126 
-0.4416209902451064 0:0 1:1 2:442.5748 3:568.73761 4:0.000853 5:0.031653 6:165 
0.05751358319043676 0:0 1:1 2:248.66318 3:520.5058 4:0.001194 5:0.043385 6:128 
-0.1079539763199373 0:1 1:1 2:800.05133 3:470.82245 4:0.000697 5:0.021834 6:190 
-0.2744855871945953 0:1 1:1 2:3012.1274 3:433.52792 4:0.000637 5:0.017196 6:120 
-0.2744780939715318 0:1 1:1 2:870.72296 3:434.06674 4:0.000818 5:0.021694 6:110 
0.05746932003401516 0:1 1:1 2:596.24262 3:456.8219 4:0.000876 5:0.023255 6:150 
