svm_type nu_svr
kernel_type rbf
gamma 0.166667
nr_class 2
total_sv 53
rho -0.108598
SV
-0.1083474596826413 0:0 1:0 2:1 3:1328.2211 4:1015 5:122.42004 6:0.000534 
1 0:0 1:0 2:1 3:1017.2359 4:1034 5:211.1675 6:0.000403 
0.2245816020132773 0:0 1:0 2:1 3:1216.2747 4:745 5:184.08177 6:0.000689 
0.5578790469727741 0:0 1:0 2:0 3:1001.5763 4:956 5:194.78667 6:0.000513 
0.3908415999680828 0:0 1:7 2:1 3:284.74152 4:1304 5:187.60159 6:0.000424 
-0.4415838159723646 0:0 1:7 2:1 3:1040.3964 4:777 5:174.87781 6:0.000298 
0.7245352526445519 0:0 1:3 2:1 3:256.99347 4:1114 5:179.7747 6:0.00064 
-0.1078700479767545 0:0 1:12 2:0 3:353.39954 4:798 5:245.15866 6:0.000562 
0.2243673964347803 0:0 1:7 2:1 3:724.33752 4:960 5:111.76267 6:0.00042 
0.7244233681157398 0:0 1:0 2:1 3:276.96069 4:841 5:258.78903 6:0.000672 
0.7241640228528071 0:0 1:8 2:1 3:358.11847 4:856 5:243.40955 6:0.000538 
-0.6082453757790778 0:0 1:7 2:1 3:676.60901 4:905 5:108.40743 6:0.000511 
0.5574504594444687 0:0 1:0 2:1 3:338.77457 4:1102 5:154.93671 6:0.00026 
0.557509373033986 0:0 1:7 2:1 3:283.00702 4:1033 5:134.63148 6:0.000658 
-0.4415902523295498 0:0 1:0 2:1 3:1017.2359 4:1034 5:211.1675 6:0.000403 
0.3908006526369195 0:0 1:0 2:1 3:280.64706 4:1229 5:125.32471 6:0.000706 
0.05789676222635592 0:0 1:2 2:1 3:561.47235 4:677 5:317.07281 6:0.000716 
0.8908125457757761 0:0 1:0 2:1 3:753.75763 4:1154 5:187.0966 6:0.000593 
-1 0:0 1:2 2:1 3:3468.8306 4:272 5:152.31142 6:0.000154 
0.05742066579112537 0:0 1:5 2:1 3:276.49921 4:1284 5:156.18234 6:0.000582 
0.3907936053029856 0:0 1:5 2:1 3:260.56043 4:1006 5:137.77418 6:0.000857 
0.3907945336946091 0:0 1:5 2:1 3:391.67111 4:1234 5:169.74104 6:0.000672 
-0.1077841634744955 0:0 1:8 2:1 3:521.31824 4:1140 5:110.60689 6:0.000505 
-0.6082569751569146 0:0 1:0 2:1 3:345.1481 4:1049 5:117.79584 6:0.000343 
-0.608208255521512 0:0 1:0 2:1 3:5365.5361 4:814 5:93.960075 6:0.000411 
-0.7750144596826413 0:0 1:11 2:1 3:252.03314 4:1260 5:62.218277 6:0.000383 
-1 0:0 1:0 2:0 3:1001.5763 4:956 5:194.78667 6:0.000513 
0.390797703376782 0:0 1:2 2:1 3:478.60736 4:1187 5:272.56207 6:0.000429 
0.05745785092334616 0:0 1:2 2:1 3:626.1297 4:1091 5:233.00282 6:0.000451 
0.8911654877036888 0:0 1:10 2:1 3:897.86102 4:762 5:212.32161 6:0.000707 
0.5574957771609318 0:0 1:10 2:1 3:390.26743 4:933 5:219.63496 6:0.000586 
-0.2749124995818915 0:0 1:0 2:0 3:1598.9414 4:742 5:168.61116 6:0.00039 
-1 0:0 1:10 2:1 3:1057.3951 4:616 5:122.04619 6:0.00024 
-0.2749372184407238 0:0 1:12 2:0 3:238.24316 4:901 5:251.46826 6:0.000452 
-0.6082169969389615 0:0 1:0 2:0 3:3760.4128 4:657 5:100.71413 6:0.000518 
-1 0:0 1:10 2:0 3:256.2449 4:1170 5:40.574505 6:0.000326 
-0.6082758971097151 0:0 1:4 2:0 3:535.77716 4:906 5:196.95021 6:0.000589 
0.3908306577330083 0:0 1:4 2:0 3:373.483 4:1153 5:290.93979 6:0.000531 
-0.2744796443559124 0:0 1:2 2:1 3:1151.014 4:964 5:137.8206 6:0.000613 
0.2245249634412562 0:0 1:2 2:0 3:590.18298 4:1260 5:173.51231 6:0.000602 
0.8909960009428417 0:0 1:2 2:1 3:398.63901 4:1053 5:131.64836 6:0.000505 
0.557478729830823 0:0 1:5 2:1 3:228.86702 4:1307 5:164.6559 6:0.000853 
0.2245816020132773 0:0 1:5 2:1 3:1196.2836 4:868 5:118.39919 6:0.000581 
-1 0:0 1:4 2:1 3:4583.7803 4:1070 5:44.069962 6:0.000933 
-1 0:0 1:0 2:1 3:568.21381 4:1322 5:572.40143 6:0.001009 
0.3908749827692433 0:0 1:9 2:1 3:881.04571 4:982 5:111.65286 6:0.000334 
0.3908041637064357 0:0 1:2 2:1 3:3948.0073 4:920 5:168.07809 6:0.000819 
-0.4416209902451064 0:0 1:12 2:1 3:442.5748 4:1320 5:211.117 6:0.000853 
0.05751358319043676 0:0 1:0 2:1 3:248.66318 4:1082 5:246.04076 6:0.001194 
-0.1079539763199373 0:1 1:7 2:1 3:800.05133 4:1003 5:92.28968 6:0.000697 
-0.2744855871945953 0:1 1:7 2:1 3:3012.1274 4:830 5:91.326851 6:0.000637 
-0.2744780939715318 0:1 1:3 2:1 3:870.72296 4:1098 5:114.43704 6:0.000818 
0.05746932003401516 0:1 1:5 2:1 3:596.24262 4:1186 5:148.28641 6:0.000876 
