svm_type nu_svr
kernel_type rbf
gamma 0.166667
nr_class 2
total_sv 53
rho -0.0766436
SV
-0.5546943979001315 0:0 1:4 2:0 3:535.77716 4:564.58441 5:0.000589 6:0.01951 
-0.05419462388347151 0:1 1:7 2:1 3:800.05133 4:470.82245 5:0.000697 6:0.021834 
0.4008723790853907 0:0 1:5 2:1 3:428.13965 4:725.46198 5:0.000457 6:0.015085 
-0.5546943979001315 0:0 1:12 2:1 3:1324.5002 4:714.8045 5:0.000713 6:0.01502 
0.7342097501540168 0:0 1:12 2:1 3:562.80328 4:669.13043 5:0.000791 6:0.024701 
-1 0:0 1:0 2:1 3:568.21381 4:787.40277 5:0.001009 6:0.038783 
1 0:0 1:0 2:1 3:1017.2359 4:633.92914 5:0.000403 6:0.012251 
-1 0:0 1:0 2:0 3:1977.5859 4:447.74573 5:0.000277 6:0.005931 
0.400410630312273 0:0 1:5 2:1 3:391.67111 4:599.19843 5:0.000672 6:0.025695 
0.9005963968120891 0:0 1:2 2:1 3:961.8056 4:1005.8044 5:0.000478 6:0.014913 
0.7343501943042305 0:0 1:8 2:1 3:358.11847 4:512.27393 5:0.000538 6:0.018424 
-1 0:0 1:4 2:1 3:4583.7803 4:232.14264 5:0.000933 6:0.023328 
0.567513930945887 0:0 1:7 2:1 3:379.2099 4:866.62476 5:0.000449 6:0.016127 
0.06179581176627869 0:0 1:5 2:1 3:276.49921 4:593.62805 5:0.000582 6:0.02349 
-0.3871020406803156 0:0 1:7 2:1 3:1040.3964 4:558.74066 5:0.000298 6:0.007606 
0.0675437501540169 0:0 1:2 2:1 3:561.47235 4:452.17032 5:0.000716 6:0.021674 
0.4008723790853908 0:0 1:4 2:0 3:373.483 4:497.3168 5:0.000531 6:0.021692 
-0.5540520694553446 0:0 1:0 2:1 3:345.1481 4:305.73157 5:0.000343 6:0.019303 
-0.8873772003163608 0:1 1:5 2:1 3:552.27222 4:394.25983 5:0.000771 6:0.025702 
-1 0:0 1:2 2:1 3:3468.8306 4:644.00458 5:0.000154 6:0.002271 
0.234476541011021 0:0 1:0 2:1 3:1216.2747 4:514.25031 5:0.000689 6:0.016227 
-0.3875096046536591 0:0 1:12 2:1 3:442.5748 4:568.73761 5:0.000853 6:0.031653 
-0.2209898313872835 0:0 1:0 2:0 3:1598.9414 4:417.44363 5:0.00039 6:0.011465 
-0.5539095825454167 0:0 1:0 2:0 3:3760.4128 4:451.15335 5:0.000518 6:0.010741 
0.5675440809727541 0:0 1:3 2:1 3:266.99597 4:525.13648 5:0.000634 6:0.029261 
-0.7207147233964658 0:0 1:7 2:0 3:977.36426 4:406.57483 5:0.000434 6:0.018771 
0.5675393790853906 0:0 1:7 2:1 3:283.00702 4:525.77222 5:0.000658 6:0.025003 
-0.05426622293891499 0:0 1:0 2:1 3:1328.2211 4:516.24097 5:0.000534 6:0.01777 
0.2342100809728101 0:0 1:5 2:1 3:1196.2836 4:489.45871 5:0.000581 6:0.015249 
0.4010171943042306 0:0 1:9 2:1 3:881.04571 4:530.43671 5:0.000334 6:0.009767 
0.4013574508260715 0:0 1:7 2:1 3:284.74152 4:540.31665 5:0.000424 6:0.016676 
0.4008723790853113 0:0 1:5 2:1 3:260.56043 4:513.64008 5:0.000857 6:0.033737 
-0.5541474463655872 0:0 1:7 2:1 3:676.60901 4:472.09235 5:0.000511 6:0.012156 
-0.05390958254541671 0:0 1:0 2:1 3:983.75049 4:742.38281 5:0.000415 6:0.01158 
0.06707763031227298 0:0 1:5 2:1 3:663.73047 4:482.72513 5:0.000501 6:0.016049 
0.567810541011021 0:0 1:0 2:1 3:531.49121 4:622.1748 5:0.000535 6:0.016488 
0.5676841943042306 0:0 1:0 2:0 3:1001.5763 4:398.70984 5:0.000513 6:0.017125 
0.7332581320489164 0:0 1:0 2:1 3:276.96069 4:595.60547 5:0.000672 6:0.023468 
0.06781054101102103 0:1 1:5 2:1 3:596.24262 4:456.8219 5:0.000876 6:0.023255 
0.2343501943042306 0:0 1:2 2:0 3:590.18298 4:635.51575 5:0.000602 6:0.01878 
0.2342097501540168 0:0 1:2 2:1 3:1610.8887 4:731.3606 5:0.000475 6:0.012129 
-0.2207147233964659 0:1 1:3 2:1 3:870.72296 4:434.06674 5:0.000818 6:0.021694 
-0.2207190694553446 0:0 1:2 2:1 3:1151.014 4:662.53265 5:0.000613 6:0.014866 
-1 0:0 1:0 2:0 3:1001.5763 4:398.70984 5:0.000513 6:0.017125 
-0.05404420031636081 0:0 1:12 2:0 3:353.39954 4:457.76593 5:0.000562 6:0.019292 
0.901143541011021 0:0 1:0 2:1 3:753.75763 4:510.10651 5:0.000593 6:0.017748 
-0.3875276238834715 0:0 1:0 2:1 3:1017.2359 4:633.92914 5:0.000403 6:0.012251 
-1 0:0 1:10 2:0 3:256.2449 4:235.69646 5:0.000326 6:0.013789 
-0.05417660465365917 0:0 1:8 2:1 3:521.31824 4:519.73486 5:0.000505 6:0.017725 
-0.7209898313872835 0:0 1:11 2:1 3:252.03314 4:314.22421 5:0.000383 6:0.015145 
0.9005963968120891 0:0 1:2 2:1 3:398.63901 4:754.89471 5:0.000505 6:0.017739 
0.9008767501540169 0:0 1:10 2:1 3:897.86102 4:660.87097 5:0.000707 6:0.021499 
-0.05426622293891499 0:0 1:5 2:1 3:2688.2241 4:530.69006 5:0.000435 6:0.009627 
