svm_type nu_svr
kernel_type rbf
gamma 0.166667
nr_class 2
total_sv 53
rho -0.108598
SV
-0.1083474596826413 0:0 1:0 2:1 3:1328.2211 4:516.24097 5:0.000534 6:190 
1 0:0 1:0 2:1 3:1017.2359 4:633.92914 5:0.000403 6:140 
0.2245816020132773 0:0 1:0 2:1 3:1216.2747 4:514.25031 5:0.000689 6:170 
0.5578790469727741 0:0 1:0 2:0 3:1001.5763 4:398.70984 5:0.000513 6:185 
0.3908415999680828 0:0 1:7 2:1 3:284.74152 4:540.31665 5:0.000424 6:101 
-0.4415838159723646 0:0 1:7 2:1 3:1040.3964 4:558.74066 5:0.000298 6:52 
0.7245352526445519 0:0 1:3 2:1 3:256.99347 4:615.01532 5:0.00064 6:265 
-0.1078700479767545 0:0 1:12 2:0 3:353.39954 4:457.76593 5:0.000562 6:220 
0.2243673964347803 0:0 1:7 2:1 3:724.33752 4:508.71634 5:0.00042 6:73 
0.7244233681157398 0:0 1:0 2:1 3:276.96069 4:595.60547 5:0.000672 6:255 
0.7241640228528071 0:0 1:8 2:1 3:358.11847 4:512.27393 5:0.000538 6:190 
-0.6082453757790778 0:0 1:7 2:1 3:676.60901 4:472.09235 5:0.000511 6:155 
0.5574504594444687 0:0 1:0 2:1 3:338.77457 4:485.67459 5:0.00026 6:80 
0.557509373033986 0:0 1:7 2:1 3:283.00702 4:525.77222 5:0.000658 6:275 
-0.4415902523295498 0:0 1:0 2:1 3:1017.2359 4:633.92914 5:0.000403 6:140 
0.3908006526369195 0:0 1:0 2:1 3:280.64706 4:348.40878 5:0.000706 6:125 
0.05789676222635592 0:0 1:2 2:1 3:561.47235 4:452.17032 5:0.000716 6:175 
0.8908125457757761 0:0 1:0 2:1 3:753.75763 4:510.10651 5:0.000593 6:160 
-1 0:0 1:2 2:1 3:3468.8306 4:644.00458 5:0.000154 6:59 
0.05742066579112537 0:0 1:5 2:1 3:276.49921 4:593.62805 5:0.000582 6:160 
0.3907936053029856 0:0 1:5 2:1 3:260.56043 4:513.64008 5:0.000857 6:148 
0.3907945336946091 0:0 1:5 2:1 3:391.67111 4:599.19843 5:0.000672 6:170 
-0.1077841634744955 0:0 1:8 2:1 3:521.31824 4:519.73486 5:0.000505 6:175 
-0.6082569751569146 0:0 1:0 2:1 3:345.1481 4:305.73157 5:0.000343 6:135 
-0.608208255521512 0:0 1:0 2:1 3:5365.5361 4:469.89963 5:0.000411 6:70 
-0.7750144596826413 0:0 1:11 2:1 3:252.03314 4:314.22421 5:0.000383 6:45 
-1 0:0 1:0 2:0 3:1001.5763 4:398.70984 5:0.000513 6:185 
0.390797703376782 0:0 1:2 2:1 3:478.60736 4:660.32135 5:0.000429 6:200 
0.05745785092334616 0:0 1:2 2:1 3:626.1297 4:541.71991 5:0.000451 6:170 
0.8911654877036888 0:0 1:10 2:1 3:897.86102 4:660.87097 5:0.000707 6:290 
0.5574957771609318 0:0 1:10 2:1 3:390.26743 4:526.19269 5:0.000586 6:220 
-0.2749124995818915 0:0 1:0 2:0 3:1598.9414 4:417.44363 5:0.00039 6:120 
-1 0:0 1:10 2:1 3:1057.3951 4:455.86713 5:0.00024 6:45 
-0.2749372184407238 0:0 1:12 2:0 3:238.24316 4:599.3794 5:0.000452 6:150 
-0.6082169969389615 0:0 1:0 2:0 3:3760.4128 4:451.15335 5:0.000518 6:115 
-1 0:0 1:10 2:0 3:256.2449 4:235.69646 5:0.000326 6:45 
-0.6082758971097151 0:0 1:4 2:0 3:535.77716 4:564.58441 5:0.000589 6:150 
0.3908306577330083 0:0 1:4 2:0 3:373.483 4:497.3168 5:0.000531 6:230 
-0.2744796443559124 0:0 1:2 2:1 3:1151.014 4:662.53265 5:0.000613 6:140 
0.2245249634412562 0:0 1:2 2:0 3:590.18298 4:635.51575 5:0.000602 6:160 
0.8909960009428417 0:0 1:2 2:1 3:398.63901 4:754.89471 5:0.000505 6:250 
0.557478729830823 0:0 1:5 2:1 3:228.86702 4:598.44568 5:0.000853 6:280 
0.2245816020132773 0:0 1:5 2:1 3:1196.2836 4:489.45871 5:0.000581 6:165 
-1 0:0 1:4 2:1 3:4583.7803 4:232.14264 5:0.000933 6:100 
-1 0:0 1:0 2:1 3:568.21381 4:787.40277 5:0.001009 6:129 
0.3908749827692433 0:0 1:9 2:1 3:881.04571 4:530.43671 5:0.000334 6:174 
0.3908041637064357 0:0 1:2 2:1 3:3948.0073 4:705.53766 5:0.000819 6:126 
-0.4416209902451064 0:0 1:12 2:1 3:442.5748 4:568.73761 5:0.000853 6:165 
0.05751358319043676 0:0 1:0 2:1 3:248.66318 4:520.5058 5:0.001194 6:128 
-0.1079539763199373 0:1 1:7 2:1 3:800.05133 4:470.82245 5:0.000697 6:190 
-0.2744855871945953 0:1 1:7 2:1 3:3012.1274 4:433.52792 5:0.000637 6:120 
-0.2744780939715318 0:1 1:3 2:1 3:870.72296 4:434.06674 5:0.000818 6:110 
0.05746932003401516 0:1 1:5 2:1 3:596.24262 4:456.8219 5:0.000876 6:150 
