svm_type nu_svr
kernel_type rbf
gamma 0.142857
nr_class 2
total_sv 110
rho 0.0281656
SV
0.0283203125 1:0 2:0 3:1 4:1328.2211 5:1784.5159 6:516.24097 7:190 
0.0283203125 1:0 2:0 3:1 4:1216.2747 5:1928.4839 6:514.25031 7:170 
0.0283203125 1:0 2:7 3:1 4:284.74152 5:1455.2574 6:540.31665 7:101 
0.0283203125 1:0 2:7 3:1 4:1040.3964 5:2185.0735 6:558.74066 7:52 
0.0283203125 1:0 2:3 3:1 4:256.99347 5:1418.5193 6:615.01532 7:265 
0.0283203125 1:0 2:12 3:0 4:353.39954 5:1387.7516 6:457.76593 7:220 
0.0283203125 1:0 2:7 3:1 4:724.33752 5:1663.5341 6:508.71634 7:73 
0.02829521894454956 1:0 2:0 3:1 4:276.96069 5:1489.085 6:595.60547 7:255 
0.0283203125 1:0 2:8 3:1 4:358.11847 5:1459.4364 6:512.27393 7:190 
0.0283203125 1:0 2:7 3:1 4:676.60901 5:1825.4937 6:472.09235 7:155 
0.0283203125 1:0 2:0 3:1 4:338.77457 5:1481.2729 6:485.67459 7:80 
0.0283203125 1:0 2:7 3:1 4:283.00702 5:1362.0447 6:525.77222 7:275 
0.0283203125 1:0 2:0 3:1 4:1017.2359 5:1899.0386 6:633.92914 7:140 
0.0283203125 1:0 2:0 3:1 4:280.64706 5:1219.8586 6:348.40878 7:125 
0.0283203125 1:0 2:2 3:1 4:561.47235 5:1472.0798 6:452.17032 7:175 
1 1:0 2:0 3:1 4:753.75763 5:1658.2784 6:510.10651 7:160 
-0.971623249235563 1:0 2:2 3:1 4:3468.8306 5:6199.2202 6:644.00458 7:59 
0.02786025038221851 1:0 2:5 3:1 4:276.49921 5:1440.207 6:593.62805 7:160 
0.02796806135575025 1:0 2:5 3:1 4:260.56043 5:1309.333 6:513.64008 7:148 
0.02809892955701798 1:0 2:5 3:1 4:391.67111 5:1445.6055 6:599.19843 7:170 
0.02827362879179418 1:0 2:8 3:1 4:521.31824 5:1545.4904 6:519.73486 7:175 
0.02827589213848114 1:0 2:0 3:1 4:345.1481 5:1192.4337 6:305.73157 7:135 
0.02829521894454956 1:0 2:0 3:1 4:5365.5361 5:4007.5034 6:469.89963 7:70 
0.02829627692699432 1:0 2:11 3:1 4:252.03314 5:1273.736 6:314.22421 7:45 
0.02790426262072287 1:0 2:0 3:0 4:1001.5763 5:1464.4348 6:398.70984 7:185 
0.02777862548828125 1:0 2:2 3:1 4:478.60736 5:1639.1249 6:660.32135 7:200 
0.02734375 1:0 2:2 3:1 4:626.1297 5:1672.0845 6:541.71991 7:170 
1 1:0 2:10 3:1 4:897.86102 5:1768.0786 6:660.87097 7:290 
0.02734375 1:0 2:10 3:1 4:390.26743 5:1430.9865 6:526.19269 7:220 
0.02734375 1:0 2:0 3:0 4:1598.9414 5:2025.5453 6:417.44363 7:120 
-0.9713622230628971 1:0 2:10 3:1 4:1057.3951 5:2617.1016 6:455.86713 7:45 
0.02734375 1:0 2:12 3:0 4:238.24316 5:1348.2349 6:599.3794 7:150 
0.02734375 1:0 2:0 3:0 4:3760.4128 5:3196.9268 6:451.15335 7:115 
-0.9713812743211747 1:0 2:10 3:0 4:256.2449 5:1194.8899 6:235.69646 7:45 
0.02734375 1:0 2:4 3:0 4:535.77716 5:1591.6799 6:564.58441 7:150 
0.02734375 1:0 2:4 3:0 4:373.483 5:1368.2917 6:497.3168 7:230 
0.02734375 1:0 2:2 3:1 4:1151.014 5:2055.8557 6:662.53265 7:140 
0.02734375 1:0 2:2 3:0 4:590.18298 5:1633.4545 6:635.51575 7:160 
1 1:0 2:2 3:1 4:398.63901 5:1692.3934 6:754.89471 7:250 
0.02734375 1:0 2:5 3:1 4:228.86702 5:1345.3405 6:598.44568 7:280 
0.02734375 1:0 2:5 3:1 4:1196.2836 5:1887.9951 6:489.45871 7:165 
-0.9712902499595657 1:0 2:4 3:1 4:4583.7803 5:3143.0408 6:232.14264 7:100 
-0.9714076272884995 1:0 2:0 3:1 4:568.21381 5:1609.4563 6:787.40277 7:129 
0.02815818786621094 1:0 2:9 3:1 4:881.04571 5:1932.5494 6:530.43671 7:174 
0.02816295623779297 1:0 2:2 3:1 4:3948.0073 5:2951.2705 6:705.53766 7:126 
0.02791476249694824 1:0 2:12 3:1 4:442.5748 5:1469.601 6:568.73761 7:165 
0.02789849042892456 1:0 2:0 3:1 4:248.66318 5:1324.3845 6:520.5058 7:128 
0.02813474833965302 1:1 2:7 3:1 4:800.05133 5:1558.2727 6:470.82245 7:190 
0.02734375 1:1 2:7 3:1 4:3012.1274 5:2358.7581 6:433.52792 7:120 
0.02734375 1:1 2:3 3:1 4:870.72296 5:1624.9089 6:434.06674 7:110 
0.02734375 1:1 2:5 3:1 4:596.24262 5:1510.9131 6:456.8219 7:150 
0.02734375 1:1 2:5 3:1 4:552.27222 5:1378.2238 6:394.25983 7:190 
0.02734375 1:1 2:5 3:1 4:871.32562 5:1710.5525 6:479.24417 7:80 
0.02734375 1:1 2:0 3:1 4:694.47742 5:1671.8125 6:393.99454 7:100 
0.02734375 1:1 2:0 3:1 4:200.09001 5:1168.4712 6:306.28265 7:240 
0.02734375 1:1 2:8 3:1 4:529.72784 5:1532.8699 6:398.27478 7:140 
0.02734375 1:1 2:2 3:0 4:2012.1512 5:2309.8469 6:490.4653 7:75 
0.02786025038221851 1:1 2:10 3:1 4:850.95929 5:1750.1954 6:510.93781 7:115 
0.02785241603851318 1:1 2:0 3:1 4:768.0473 5:1296.8911 6:295.81384 7:170 
0.02785241603851318 1:1 2:0 3:0 4:459.62476 5:1348.8986 6:372.37299 7:120 
0.02790426262072287 1:1 2:3 3:1 4:682.61542 5:1444.5995 6:385.08719 7:125 
0.02790426262072287 1:1 2:0 3:1 4:767.72119 5:1433.3026 6:416.68872 7:180 
0.02791336306836456 1:1 2:7 3:0 4:567.7085 5:1404.7344 6:457.70758 7:160 
0.02796806135575025 1:1 2:5 3:0 4:1923.7953 5:1848.2263 6:300.74512 7:165 
0.02798123783941264 1:1 2:0 3:0 4:2342.4438 5:2108.9033 6:619.66821 7:180 
0.02799076346855145 1:1 2:5 3:1 4:601.82971 5:1397.0787 6:409.6506 7:160 
0.02802675002021715 1:1 2:0 3:1 4:6078.5239 5:5855.2632 6:489.89142 7:185 
0.02803962491452694 1:1 2:5 3:1 4:1655.2334 5:1794.0947 6:411.80115 7:130 
0.02804108592681587 1:1 2:0 3:1 4:797.86145 5:1609.3247 6:529.01337 7:200 
0.02804108592681587 1:1 2:2 3:0 4:2360.9907 5:2492.2273 6:472.04217 7:90 
0.02809892955701798 1:1 2:0 3:1 4:667.60211 5:1534.9164 6:415.63882 7:140 
0.02812241774518043 1:1 2:8 3:1 4:610.76752 5:1431.9677 6:381.51263 7:180 
0.02815818786621094 1:1 2:2 3:0 4:475.0296 5:1467.7281 6:413.94989 7:130 
0.02817996870726347 1:1 2:0 3:1 4:2689.7979 5:1991.5887 6:416.67041 7:100 
0.02817996870726347 1:1 2:0 3:1 4:3298.5713 5:2252.6785 6:374.42261 7:80 
0.02827362879179418 1:1 2:5 3:1 4:3204.7935 5:2573.2761 6:418.05795 7:75 
0.02827392145991325 1:1 2:3 3:1 4:506.10291 5:1354.5868 6:357.68951 7:170 
0.02827392145991325 1:1 2:0 3:1 4:2666.9524 5:2056.8992 6:435.76679 7:90 
0.02742528915405273 1:1 2:0 3:1 4:354.80908 5:1278.163 6:443.70615 7:180 
0.02827589213848114 1:1 2:0 3:0 4:330.05197 5:1209.1361 6:265.21146 7:180 
0.02827589213848114 1:1 2:2 3:0 4:635.41363 5:1837.3319 6:497.15573 7:95 
0.02829521894454956 1:1 2:5 3:1 4:479.36807 5:1375.2025 6:369.80402 7:135 
0.02829521894454956 1:1 2:5 3:1 4:147.18599 5:1076.4918 6:258.46668 7:210 
0.02829521894454956 1:1 2:1 3:1 4:888.4707 5:1250.2844 6:196.42186 7:80 
0.02829627692699432 1:1 2:5 3:1 4:1079.5116 5:1496.0945 6:432.35168 7:140 
0.0283203125 1:1 2:7 3:1 4:2167.0908 5:2084.5735 6:424.5589 7:120 
0.0283203125 1:1 2:8 3:1 4:1636.6272 5:1919.8759 6:447.59552 7:100 
0.0283203125 1:1 2:2 3:1 4:319.84677 5:1166.3569 6:286.40317 7:170 
0.0283203125 1:1 2:10 3:1 4:402.14963 5:1304.9731 6:351.97165 7:245 
0.0283203125 1:1 2:1 3:1 4:444.22903 5:1316.2446 6:367.56323 7:120 
0.0283203125 1:1 2:10 3:1 4:568.70892 5:1520.1614 6:410.55814 7:140 
0.0283203125 1:1 2:0 3:1 4:371.97244 5:1289.1174 6:335.32657 7:120 
0.0283203125 1:1 2:8 3:1 4:6455.0381 5:5618.0537 6:446.13959 7:200 
0.0283203125 1:1 2:10 3:1 4:626.05267 5:1494.4624 6:397.17868 7:170 
0.0283203125 1:1 2:7 3:1 4:502.02637 5:1183.6102 6:231.2446 7:85 
0.0283203125 1:1 2:3 3:1 4:905.76196 5:1990.678 6:472.57263 7:156 
0.0283203125 1:1 2:5 3:1 4:728.33258 5:1383.3499 6:325.24512 7:170 
0.0283203125 1:1 2:10 3:1 4:290.28839 5:1284.7441 6:461.4581 7:180 
0.0283203125 1:1 2:4 3:1 4:689.09216 5:1848.5742 6:490.23093 7:150 
0.02785241603851318 1:1 2:0 3:0 4:2369.6111 5:2132.7498 6:386.00528 7:115 
0.02790426262072287 1:1 2:8 3:1 4:1131.85 5:1456.9016 6:466.98206 7:240 
0.02791336306836456 1:1 2:5 3:1 4:2690.9695 5:2338.5618 6:463.5795 7:85 
0.02804108592681587 1:1 2:7 3:1 4:3133.0188 5:2298.9255 6:384.93063 7:160 
-0.971145890885964 1:1 2:3 3:1 4:671.90271 5:1321.229 6:411.86313 7:120 
0.02817996870726347 1:1 2:0 3:1 4:1074.9319 5:1617.012 6:401.09644 7:145 
0.02827392145991325 1:1 2:5 3:1 4:1693.8639 5:1766.9111 6:395.96884 7:120 
0.02827589213848114 1:1 2:0 3:1 4:537.10272 5:1769.5518 6:454.82169 7:80 
0.02829521894454956 1:1 2:3 3:1 4:515.8432 5:1190.5663 6:279.95862 7:135 
0.02817996870726347 1:1 2:0 3:1 4:1533.7312 5:2009.7479 6:434.78683 7:145 
0.02803962491452694 1:1 2:3 3:1 4:736.91437 5:1557.2062 6:436.28659 7:220 
