svm_type nu_svr
kernel_type rbf
gamma 0.166667
nr_class 2
total_sv 53
rho -0.0767628
SV
-0.554362103515625 0:0 1:0 2:535.77716 3:906 4:196.95021 5:564.58441 6:0.000589 
-0.05459235687692952 0:1 1:1 2:800.05133 3:1003 4:92.28968 5:470.82245 6:0.000697 
0.4002197297172546 0:0 1:1 2:428.13965 3:1017 4:140.46902 5:725.46198 6:0.000457 
-0.5540757895231242 0:0 1:1 2:1324.5002 3:848 4:126.06876 5:714.8045 6:0.000713 
0.7335527297172546 0:0 1:1 2:562.80328 3:1102 4:228.85782 5:669.13043 6:0.000791 
-1 0:0 1:1 2:568.21381 3:1322 4:572.40143 5:787.40277 6:0.001009 
1 0:0 1:1 2:1017.2359 3:1034 4:211.1675 5:633.92914 6:0.000403 
-1 0:0 1:0 2:1977.5859 3:443 4:239.30429 5:447.74573 6:0.000277 
0.4008540455970764 0:0 1:1 2:391.67111 3:1234 4:169.74104 5:599.19843 6:0.000672 
0.9009253495396278 0:0 1:1 2:961.8056 3:1079 4:446.46307 5:1005.8044 6:0.000478 
0.7341870455970764 0:0 1:1 2:358.11847 3:856 4:243.40955 5:512.27393 6:0.000538 
-1 0:0 1:1 2:4583.7803 3:1070 4:44.069962 5:232.14264 6:0.000933 
0.5672886340140652 0:0 1:1 2:379.2099 3:1064 4:211.8461 5:866.62476 6:0.000449 
0.06706857257103921 0:0 1:1 2:276.49921 3:1284 4:156.18234 5:593.62805 6:0.000582 
-0.3875802209461926 0:0 1:1 2:1040.3964 3:777 4:174.87781 5:558.74066 6:0.000298 
0.06749419487381356 0:0 1:1 2:561.47235 3:677 4:317.07281 5:452.17032 6:0.000716 
0.4008540455970764 0:0 1:0 2:373.483 3:1153 4:290.93979 5:497.3168 6:0.000531 
-0.5539559949407568 0:0 1:1 2:345.1481 3:1049 4:117.79584 5:305.73157 6:0.000343 
-0.8873165807887712 0:1 1:1 2:552.27222 3:733 4:138.30226 5:394.25983 6:0.000771 
-1 0:0 1:1 2:3468.8306 3:272 4:152.31142 5:644.00458 6:0.000154 
0.2339546340140651 0:0 1:1 2:1216.2747 3:745 4:184.08177 5:514.25031 6:0.000689 
-0.3875447765502333 0:0 1:1 2:442.5748 3:1320 4:211.117 5:568.73761 6:0.000853 
-0.2206505807887712 0:0 1:0 2:1598.9414 3:742 4:168.61116 5:417.44363 6:0.00039 
-0.5539559949407568 0:0 1:0 2:3760.4128 3:657 4:100.71413 5:451.15335 6:0.000518 
0.5672886340140652 0:0 1:1 2:266.99597 3:988 4:171.88068 5:525.13648 6:0.000634 
-0.7212344202837865 0:0 1:0 2:977.36426 3:857 4:201.55022 5:406.57483 6:0.000434 
0.5672544674663544 0:0 1:1 2:283.00702 3:1033 4:134.63148 5:525.77222 6:0.000658 
-0.05398359641377112 0:0 1:1 2:1328.2211 3:1015 4:122.42004 5:516.24097 6:0.000534 
0.2339204674663544 0:0 1:1 2:1196.2836 3:868 4:118.39919 5:489.45871 6:0.000581 
0.4004015725710392 0:0 1:1 2:881.04571 3:982 4:111.65286 5:530.43671 6:0.000334 
0.4005874674663544 0:0 1:1 2:284.74152 3:1304 4:187.60159 5:540.31665 6:0.000424 
0.4008271948738136 0:0 1:1 2:260.56043 3:1006 4:137.77418 5:513.64008 6:0.000857 
-0.5539835964137712 0:0 1:1 2:676.60901 3:905 4:108.40743 5:472.09235 6:0.000511 
-0.05456742028378646 0:0 1:1 2:983.75049 3:899 4:131.70177 5:742.38281 6:0.000415 
0.06746437255859378 0:0 1:1 2:663.73047 3:969 4:165.8728 5:482.72513 6:0.000501 
0.5671847432923396 0:0 1:1 2:531.49121 3:1102 4:136.17122 5:622.1748 6:0.000535 
0.5672886340140652 0:0 1:0 2:1001.5763 3:956 4:194.78667 5:398.70984 6:0.000513 
0.7338507432923396 0:0 1:1 2:276.96069 3:841 4:258.78903 5:595.60547 6:0.000672 
0.06746437255859378 0:1 1:1 2:596.24262 3:1186 4:148.28641 5:456.8219 6:0.000876 
0.2338507432923396 0:0 1:0 2:590.18298 3:1260 4:173.51231 5:635.51575 6:0.000602 
0.2339204674663544 0:0 1:1 2:1610.8887 3:1065 4:184.23686 5:731.3606 6:0.000475 
-0.2211304374389648 0:1 1:1 2:870.72296 3:1098 4:114.43704 5:434.06674 6:0.000818 
-0.2209142209461926 0:0 1:1 2:1151.014 3:964 4:137.8206 5:662.53265 6:0.000613 
-1 0:0 1:0 2:1001.5763 3:956 4:194.78667 5:398.70984 6:0.000513 
-0.05390223532978675 0:0 1:0 2:353.39954 3:798 4:245.15866 5:457.76593 6:0.000562 
0.9009253495396278 0:0 1:1 2:753.75763 3:1154 4:187.0966 5:510.10651 6:0.000593 
-0.3874688245829344 0:0 1:1 2:1017.2359 3:1034 4:211.1675 5:633.92914 6:0.000403 
-1 0:0 1:0 2:256.2449 3:1170 4:40.574505 5:235.69646 6:0.000326 
-0.05390223532978675 0:0 1:1 2:521.31824 3:1140 4:110.60689 5:519.73486 6:0.000505 
-0.7207427895231242 0:0 1:1 2:252.03314 3:1260 4:62.218277 5:314.22421 6:0.000383 
0.9005177432923397 0:0 1:1 2:398.63901 3:1053 4:131.64836 5:754.89471 6:0.000505 
0.9008540455970764 0:0 1:1 2:897.86102 3:762 4:212.32161 5:660.87097 6:0.000707 
-0.05413582458293437 0:0 1:1 2:2688.2241 3:634 4:126.8499 5:530.69006 6:0.000435 
