svm_type nu_svr
kernel_type rbf
gamma 0.142857
nr_class 2
total_sv 15
rho -0.321418
SV
-0.3208997557860681 1:1328.2211 2:1784.5159 3:1015 4:122.42004 5:516.24097 6:0.000534 7:0.01777 
1 1:1017.2359 2:1899.0386 3:1034 4:211.1675 5:633.92914 6:0.000403 7:0.012251 
0.01166036060987391 1:1216.2747 2:1928.4839 3:745 4:184.08177 5:514.25031 6:0.000689 7:0.016227 
-0.6543018309966987 1:1001.5763 2:1464.4348 3:956 4:194.78667 5:398.70984 6:0.000513 7:0.017125 
0.1782171179568289 1:284.74152 2:1455.2574 3:1304 4:187.60159 5:540.31665 6:0.000424 7:0.016676 
-0.6542039776514553 1:1040.3964 2:2185.0735 3:777 4:174.87781 5:558.74066 6:0.000298 7:0.007606 
0.511424777443213 1:256.99347 2:1418.5193 3:1114 4:179.7747 5:615.01532 6:0.00064 7:0.024521 
-0.3208443559444175 1:353.39954 2:1387.7516 3:798 4:245.15866 5:457.76593 6:0.000562 7:0.019292 
0.01160129161161186 1:724.33752 2:1663.5341 3:960 4:111.76267 5:508.71634 6:0.00042 7:0.01536 
0.511660360609874 1:276.96069 2:1489.085 3:841 4:258.78903 5:595.60547 6:0.000672 7:0.023468 
0.5116130113380848 1:358.11847 2:1459.4364 3:856 4:243.40955 5:512.27393 6:0.000538 7:0.018424 
-0.8209270572251284 1:676.60901 2:1825.4937 3:905 4:108.40743 5:472.09235 6:0.000511 7:0.012156 
0.3443987912968572 1:338.77457 2:1481.2729 3:1102 4:154.93671 5:485.67459 6:0.00026 7:0.011828 
0.344867174507839 1:283.00702 2:1362.0447 3:1033 4:134.63148 5:525.77222 6:0.000658 7:0.025003 
-0.6542659077704145 1:1017.2359 2:1899.0386 3:1034 4:211.1675 5:633.92914 6:0.000403 7:0.012251 
