svm_type nu_svr
kernel_type rbf
gamma 0.142857
nr_class 2
total_sv 15
rho -0.321418
SV
-0.3208997557860681 1:1 2:1015 3:122.42004 4:516.24097 5:0.000534 6:0.01777 7:190 
1 1:1 2:1034 3:211.1675 4:633.92914 5:0.000403 6:0.012251 7:140 
0.01166036060987391 1:1 2:745 3:184.08177 4:514.25031 5:0.000689 6:0.016227 7:170 
-0.6543018309966987 1:0 2:956 3:194.78667 4:398.70984 5:0.000513 6:0.017125 7:185 
0.1782171179568289 1:1 2:1304 3:187.60159 4:540.31665 5:0.000424 6:0.016676 7:101 
-0.6542039776514553 1:1 2:777 3:174.87781 4:558.74066 5:0.000298 6:0.007606 7:52 
0.511424777443213 1:1 2:1114 3:179.7747 4:615.01532 5:0.00064 6:0.024521 7:265 
-0.3208443559444175 1:0 2:798 3:245.15866 4:457.76593 5:0.000562 6:0.019292 7:220 
0.01160129161161186 1:1 2:960 3:111.76267 4:508.71634 5:0.00042 6:0.01536 7:73 
0.511660360609874 1:1 2:841 3:258.78903 4:595.60547 5:0.000672 6:0.023468 7:255 
0.5116130113380848 1:1 2:856 3:243.40955 4:512.27393 5:0.000538 6:0.018424 7:190 
-0.8209270572251284 1:1 2:905 3:108.40743 4:472.09235 5:0.000511 6:0.012156 7:155 
0.3443987912968572 1:1 2:1102 3:154.93671 4:485.67459 5:0.00026 6:0.011828 7:80 
0.344867174507839 1:1 2:1033 3:134.63148 4:525.77222 5:0.000658 6:0.025003 7:275 
-0.6542659077704145 1:1 2:1034 3:211.1675 4:633.92914 5:0.000403 6:0.012251 7:140 
