svm_type nu_svr
kernel_type rbf
gamma 0.125
nr_class 2
total_sv 110
rho 0.0280522
SV
0.02799633260659173 1:0 2:0 3:1 4:122.42004 5:516.24097 6:0.000534 7:0.01777 8:190 
0.02801496964288991 1:0 2:0 3:1 4:184.08177 5:514.25031 6:0.000689 7:0.016227 8:170 
0.02799987173118601 1:0 2:7 3:1 4:187.60159 5:540.31665 6:0.000424 7:0.016676 8:101 
0.0282185952380174 1:0 2:7 3:1 4:174.87781 5:558.74066 6:0.000298 7:0.007606 8:52 
0.02810733036703494 1:0 2:3 3:1 4:179.7747 5:615.01532 6:0.00064 7:0.024521 8:265 
0.02750658953798923 1:0 2:12 3:0 4:245.15866 5:457.76593 6:0.000562 7:0.019292 8:220 
0.02838261874331172 1:0 2:7 3:1 4:111.76267 5:508.71634 6:0.00042 7:0.01536 8:73 
0.0279954092160799 1:0 2:0 3:1 4:258.78903 5:595.60547 6:0.000672 7:0.023468 8:255 
0.02801737217788947 1:0 2:8 3:1 4:243.40955 5:512.27393 6:0.000538 7:0.018424 8:190 
0.02801512594855537 1:0 2:7 3:1 4:108.40743 5:472.09235 6:0.000511 7:0.012156 8:155 
0.02801363046363448 1:0 2:0 3:1 4:154.93671 5:485.67459 6:0.00026 7:0.011828 8:80 
0.02801737217788947 1:0 2:7 3:1 4:134.63148 5:525.77222 6:0.000658 7:0.025003 8:275 
0.02840172699426291 1:0 2:0 3:1 4:211.1675 5:633.92914 6:0.000403 7:0.012251 8:140 
0.02840172699426291 1:0 2:0 3:1 4:125.32471 5:348.40878 6:0.000706 7:0.024241 8:125 
0.0279960570784521 1:0 2:2 3:1 4:317.07281 5:452.17032 6:0.000716 7:0.021674 8:175 
1 1:0 2:0 3:1 4:187.0966 5:510.10651 6:0.000593 7:0.017748 8:160 
-0.9718926677510598 1:0 2:2 3:1 4:152.31142 5:644.00458 6:0.000154 7:0.002271 8:59 
0.02799511147778128 1:0 2:5 3:1 4:156.18234 5:593.62805 6:0.000582 7:0.02349 8:160 
0.02808559319204706 1:0 2:5 3:1 4:137.77418 5:513.64008 6:0.000857 7:0.033737 8:148 
0.02801760343938497 1:0 2:5 3:1 4:169.74104 5:599.19843 6:0.000672 7:0.025695 8:170 
0.02802534624495723 1:0 2:8 3:1 4:110.60689 5:519.73486 6:0.000505 7:0.017725 8:175 
0.02766942996014932 1:0 2:0 3:1 4:117.79584 5:305.73157 6:0.000343 7:0.019303 8:135 
0.02821858817393619 1:0 2:0 3:1 4:93.960075 5:469.89963 6:0.000411 7:0.009613 8:70 
0.02821858817393541 1:0 2:11 3:1 4:62.218277 5:314.22421 6:0.000383 7:0.015145 8:45 
0.02766942996014921 1:0 2:0 3:0 4:194.78667 5:398.70984 6:0.000513 7:0.017125 8:185 
0.02804488678052552 1:0 2:2 3:1 4:272.56207 5:660.32135 6:0.000429 7:0.015838 8:200 
0.02766942996014924 1:0 2:2 3:1 4:233.00282 5:541.71991 6:0.000451 7:0.014183 8:170 
1 1:0 2:10 3:1 4:212.32161 5:660.87097 6:0.000707 7:0.021499 8:290 
0.0275513252861951 1:0 2:10 3:1 4:219.63496 5:526.19269 6:0.000586 7:0.024319 8:220 
0.02805618286460596 1:0 2:0 3:0 4:168.61116 5:417.44363 6:0.00039 7:0.011465 8:120 
-0.9719441324682128 1:0 2:10 3:1 4:122.04619 5:455.86713 6:0.00024 7:0.004951 8:45 
0.0280355784772134 1:0 2:12 3:0 4:251.46826 5:599.3794 6:0.000452 7:0.026871 8:150 
0.02832026536358627 1:0 2:0 3:0 4:100.71413 5:451.15335 6:0.000518 7:0.010741 8:115 
-0.9720048885222188 1:0 2:10 3:0 4:40.574505 5:235.69646 6:0.000326 7:0.013789 8:45 
0.02801511015936584 1:0 2:4 3:0 4:196.95021 5:564.58441 6:0.000589 7:0.01951 8:150 
0.02801737217788944 1:0 2:4 3:0 4:290.93979 5:497.3168 6:0.000531 7:0.021692 8:230 
0.02801737217788944 1:0 2:2 3:1 4:137.8206 5:662.53265 6:0.000613 7:0.014866 8:140 
0.02799540921607984 1:0 2:2 3:0 4:173.51231 5:635.51575 6:0.000602 7:0.01878 8:160 
1 1:0 2:2 3:1 4:131.64836 5:754.89471 6:0.000505 7:0.017739 8:250 
0.02799540921607984 1:0 2:5 3:1 4:164.6559 5:598.44568 6:0.000853 7:0.03949 8:280 
0.02807613802778567 1:0 2:5 3:1 4:118.39919 5:489.45871 6:0.000581 7:0.015249 8:165 
-0.971943817135394 1:0 2:4 3:1 4:44.069962 5:232.14264 6:0.000933 7:0.023328 8:100 
-0.971914406807953 1:0 2:0 3:1 4:572.40143 5:787.40277 6:0.001009 7:0.038783 8:129 
0.0280761335789965 1:0 2:9 3:1 4:111.65286 5:530.43671 6:0.000334 7:0.009767 8:174 
0.02799605708458755 1:0 2:2 3:1 4:168.07809 5:705.53766 6:0.000819 7:0.022925 8:126 
0.02810733224894027 1:0 2:12 3:1 4:211.117 5:568.73761 6:0.000853 7:0.031653 8:165 
0.02799605708627065 1:0 2:0 3:1 4:246.04076 5:520.5058 6:0.001194 7:0.043385 8:128 
0.02799987173060617 1:1 2:7 3:1 4:92.28968 5:470.82245 6:0.000697 7:0.021834 8:190 
0.02838261874331157 1:1 2:7 3:1 4:91.326851 5:433.52792 6:0.000637 7:0.017196 8:120 
0.0279998717311791 1:1 2:3 3:1 4:114.43704 5:434.06674 6:0.000818 7:0.021694 8:110 
0.0280355784772134 1:1 2:5 3:1 4:148.28641 5:456.8219 6:0.000876 7:0.023255 8:150 
0.02840172699426296 1:1 2:5 3:1 4:138.30226 5:394.25983 6:0.000771 7:0.025702 8:190 
0.02799540921607984 1:1 2:5 3:1 4:134.92932 5:479.24417 6:0.00073 7:0.019139 8:80 
0.02821858391768865 1:1 2:0 3:1 4:73.443481 5:393.99454 6:0.000549 7:0.014563 8:100 
0.02821858817393541 1:1 2:0 3:1 4:75.059196 5:306.28265 6:0.00056 7:0.022936 8:240 
0.02801510961307629 1:1 2:8 3:1 4:72.823708 5:398.27478 6:0.000775 7:0.01907 8:140 
0.02799392550422466 1:1 2:2 3:0 4:150.36011 5:490.4653 6:0.000551 7:0.013489 8:75 
0.02801760343938501 1:1 2:10 3:1 4:91.247353 5:510.93781 6:0.000774 7:0.020216 8:115 
0.02799540921607988 1:1 2:0 3:1 4:120.21809 5:295.81384 6:0.000658 7:0.02633 8:170 
0.02760852911721061 1:1 2:0 3:0 4:84.585358 5:372.37299 6:0.000589 7:0.018689 8:120 
0.02799605691021915 1:1 2:3 3:1 4:101.42107 5:385.08719 6:0.000664 7:0.022125 8:125 
0.02801597984702425 1:1 2:0 3:1 4:105.6449 5:416.68872 6:0.000865 7:0.029818 8:180 
0.02801510961307569 1:1 2:7 3:0 4:64.040039 5:457.70758 6:0.001064 7:0.029027 8:160 
0.02807613802778567 1:1 2:5 3:0 4:68.875267 5:300.74512 6:0.000683 7:0.022152 8:165 
0.02801510951535907 1:1 2:0 3:0 4:149.2966 5:619.66821 6:0.000748 7:0.022825 8:180 
0.028015125121632 1:1 2:5 3:1 4:90.997894 5:409.6506 6:0.000758 7:0.029616 8:160 
0.028015125121632 1:1 2:0 3:1 4:247.03374 5:489.89142 6:0.001417 7:0.03027 8:185 
0.02799987173093107 1:1 2:5 3:1 4:113.12672 5:411.80115 6:0.000766 7:0.019101 8:130 
0.02840172699426282 1:1 2:0 3:1 4:121.96153 5:529.01337 6:0.000767 7:0.022342 8:200 
0.02832028402346221 1:1 2:2 3:0 4:95.614876 5:472.04217 6:0.000626 7:0.012635 8:90 
0.02821858817386674 1:1 2:0 3:1 4:88.994751 5:415.63882 6:0.000814 7:0.020593 8:140 
0.02801512547363494 1:1 2:8 3:1 4:97.601379 5:381.51263 6:0.000724 7:0.02256 8:180 
0.028321632237975 1:1 2:2 3:0 4:99.353554 5:413.94989 6:0.000723 7:0.020635 8:130 
0.02801511015936583 1:1 2:0 3:1 4:129.24826 5:416.67041 6:0.001007 7:0.029963 8:100 
0.02804488678052558 1:1 2:0 3:1 4:78.399452 5:374.42261 6:0.001106 7:0.032625 8:80 
0.028015125121632 1:1 2:5 3:1 4:121.17292 5:418.05795 6:0.000473 7:0.011023 8:75 
0.02801512594882768 1:1 2:3 3:1 4:84.184044 5:357.68951 6:0.000575 7:0.023571 8:170 
0.02799987173118597 1:1 2:0 3:1 4:82.125359 5:435.76679 6:0.000696 7:0.019401 8:90 
0.02801510953128691 1:1 2:0 3:1 4:109.8411 5:443.70615 6:0.00131 7:0.039756 8:180 
0.02801512594882768 1:1 2:0 3:0 4:66.906998 5:265.21146 6:0.000441 7:0.01902 8:180 
0.02801512594882768 1:1 2:2 3:0 4:111.23468 5:497.15573 6:0.000727 7:0.014989 8:95 
0.02801512594882768 1:1 2:5 3:1 4:92.010223 5:369.80402 6:0.000435 7:0.015786 8:135 
0.0280355784772134 1:1 2:5 3:1 4:65.945 5:258.46668 6:0.000494 7:0.036205 8:210 
0.02766942996014924 1:1 2:1 3:1 4:47.813747 5:196.42186 6:0.00046 7:0.01757 8:80 
0.02799987173116272 1:1 2:5 3:1 4:107.93533 5:432.35168 6:0.000599 7:0.022006 8:140 
0.02803557847721331 1:1 2:7 3:1 4:77.674416 5:424.5589 6:0.000571 7:0.014357 8:120 
0.02801512594883775 1:1 2:8 3:1 4:111.05724 5:447.59552 6:0.000662 7:0.016317 8:100 
0.02801510953947294 1:1 2:2 3:1 4:57.090328 5:286.40317 6:0.00047 7:0.023703 8:170 
0.02805586753178721 1:1 2:10 3:1 4:97.889984 5:351.97165 6:0.000464 7:0.017483 8:245 
0.02713614641412108 1:1 2:1 3:1 4:81.708939 5:367.56323 6:0.000686 7:0.025977 8:120 
0.0279960570710154 1:1 2:10 3:1 4:99.147339 5:410.55814 6:0.000559 7:0.016222 8:140 
0.02807614535600996 1:1 2:0 3:1 4:38.322647 5:335.32657 6:0.000513 7:0.021718 8:120 
0.02799540921607984 1:1 2:8 3:1 4:100.42133 5:446.13959 6:0.000876 7:0.019284 8:200 
0.02801510961307629 1:1 2:10 3:1 4:82.794144 5:397.17868 6:0.000634 7:0.019318 8:170 
0.02799987173116036 1:1 2:7 3:1 4:78.912949 5:231.2446 6:0.00043 7:0.017647 8:85 
0.02799987173087347 1:1 2:3 3:1 4:94.83757 5:472.57263 6:0.000421 7:0.010755 8:156 
0.02799605708458755 1:1 2:5 3:1 4:67.299492 5:325.24512 6:0.000588 7:0.023067 8:170 
0.02801510961251649 1:1 2:10 3:1 4:92.750999 5:461.4581 6:0.000756 7:0.034394 8:180 
0.02801512547363494 1:1 2:4 3:1 4:81.077324 5:490.23093 6:0.000754 7:0.017136 8:150 
0.02801510935855343 1:1 2:0 3:0 4:95.077652 5:386.00528 6:0.000546 7:0.013531 8:115 
0.028015125121632 1:1 2:8 3:1 4:133.02512 5:466.98206 6:0.000748 7:0.032965 8:240 
0.02807613802778567 1:1 2:5 3:1 4:129.31689 5:463.5795 6:0.000409 7:0.010502 8:85 
0.02807613802778567 1:1 2:7 3:1 4:125.35245 5:384.93063 6:0.000342 7:0.01127 8:160 
-0.9717814457984186 1:1 2:3 3:1 4:98.256821 5:411.86313 6:0.000787 7:0.024424 8:120 
0.0282185839176426 1:1 2:0 3:1 4:100.68175 5:401.09644 6:0.000827 7:0.025715 8:145 
0.02807614505366313 1:1 2:5 3:1 4:88.509705 5:395.96884 6:0.000584 7:0.017622 8:120 
0.02801510953128691 1:1 2:0 3:1 4:75.457474 5:454.82169 6:0.000661 7:0.01313 8:80 
0.02810733036703498 1:1 2:3 3:1 4:53.817097 5:279.95862 6:0.000468 7:0.01913 8:135 
0.02832028402346221 1:1 2:0 3:1 4:67.587502 5:434.78683 6:0.00086 7:0.017524 8:145 
0.02807614505452853 1:1 2:3 3:1 4:94.29567 5:436.28659 6:0.00088 7:0.025899 8:220 
