svm_type nu_svr
kernel_type rbf
gamma 0.142857
nr_class 2
total_sv 53
rho -0.0767628
SV
-0.554362103515625 0:0 1:4 2:0 3:535.77716 4:1591.6799 5:906 6:196.95021 7:0.01951 
-0.05459235687692952 0:1 1:7 2:1 3:800.05133 4:1558.2727 5:1003 6:92.28968 7:0.021834 
0.4002197297172546 0:0 1:5 2:1 3:428.13965 4:1728.682 5:1017 6:140.46902 7:0.015085 
-0.5540757895231242 0:0 1:12 2:1 3:1324.5002 4:2234.8701 5:848 6:126.06876 7:0.01502 
0.7335527297172546 0:0 1:12 2:1 3:562.80328 4:1652.1434 5:1102 6:228.85782 7:0.024701 
-1 0:0 1:0 2:1 3:568.21381 4:1609.4563 5:1322 6:572.40143 7:0.038783 
1 0:0 1:0 2:1 3:1017.2359 4:1899.0386 5:1034 6:211.1675 7:0.012251 
-1 0:0 1:0 2:0 3:1977.5859 4:2853.9756 5:443 6:239.30429 7:0.005931 
0.4008540455970764 0:0 1:5 2:1 3:391.67111 4:1445.6055 5:1234 6:169.74104 7:0.025695 
0.9009253495396278 0:0 1:2 2:1 3:961.8056 4:2036.9913 5:1079 6:446.46307 7:0.014913 
0.7341870455970764 0:0 1:8 2:1 3:358.11847 4:1459.4364 5:856 6:243.40955 7:0.018424 
-1 0:0 1:4 2:1 3:4583.7803 4:3143.0408 5:1070 6:44.069962 7:0.023328 
0.5672886340140652 0:0 1:7 2:1 3:379.2099 4:1772.2177 5:1064 6:211.8461 7:0.016127 
0.06706857257103921 0:0 1:5 2:1 3:276.49921 4:1440.207 5:1284 6:156.18234 7:0.02349 
-0.3875802209461926 0:0 1:7 2:1 3:1040.3964 4:2185.0735 5:777 6:174.87781 7:0.007606 
0.06749419487381356 0:0 1:2 2:1 3:561.47235 4:1472.0798 5:677 6:317.07281 7:0.021674 
0.4008540455970764 0:0 1:4 2:0 3:373.483 4:1368.2917 5:1153 6:290.93979 7:0.021692 
-0.5539559949407568 0:0 1:0 2:1 3:345.1481 4:1192.4337 5:1049 6:117.79584 7:0.019303 
-0.8873165807887712 0:1 1:5 2:1 3:552.27222 4:1378.2238 5:733 6:138.30226 7:0.025702 
-1 0:0 1:2 2:1 3:3468.8306 4:6199.2202 5:272 6:152.31142 7:0.002271 
0.2339546340140651 0:0 1:0 2:1 3:1216.2747 4:1928.4839 5:745 6:184.08177 7:0.016227 
-0.3875447765502333 0:0 1:12 2:1 3:442.5748 4:1469.601 5:1320 6:211.117 7:0.031653 
-0.2206505807887712 0:0 1:0 2:0 3:1598.9414 4:2025.5453 5:742 6:168.61116 7:0.011465 
-0.5539559949407568 0:0 1:0 2:0 3:3760.4128 4:3196.9268 5:657 6:100.71413 7:0.010741 
0.5672886340140652 0:0 1:3 2:1 3:266.99597 4:1344.2603 5:988 6:171.88068 7:0.029261 
-0.7212344202837865 0:0 1:7 2:0 3:977.36426 4:1467.5948 5:857 6:201.55022 7:0.018771 
0.5672544674663544 0:0 1:7 2:1 3:283.00702 4:1362.0447 5:1033 6:134.63148 7:0.025003 
-0.05398359641377112 0:0 1:0 2:1 3:1328.2211 4:1784.5159 5:1015 6:122.42004 7:0.01777 
0.2339204674663544 0:0 1:5 2:1 3:1196.2836 4:1887.9951 5:868 6:118.39919 7:0.015249 
0.4004015725710392 0:0 1:9 2:1 3:881.04571 4:1932.5494 5:982 6:111.65286 7:0.009767 
0.4005874674663544 0:0 1:7 2:1 3:284.74152 4:1455.2574 5:1304 6:187.60159 7:0.016676 
0.4008271948738136 0:0 1:5 2:1 3:260.56043 4:1309.333 5:1006 6:137.77418 7:0.033737 
-0.5539835964137712 0:0 1:7 2:1 3:676.60901 4:1825.4937 5:905 6:108.40743 7:0.012156 
-0.05456742028378646 0:0 1:0 2:1 3:983.75049 4:2098.7412 5:899 6:131.70177 7:0.01158 
0.06746437255859378 0:0 1:5 2:1 3:663.73047 4:1603.5798 5:969 6:165.8728 7:0.016049 
0.5671847432923396 0:0 1:0 2:1 3:531.49121 4:1665.1149 5:1102 6:136.17122 7:0.016488 
0.5672886340140652 0:0 1:0 2:0 3:1001.5763 4:1464.4348 5:956 6:194.78667 7:0.017125 
0.7338507432923396 0:0 1:0 2:1 3:276.96069 4:1489.085 5:841 6:258.78903 7:0.023468 
0.06746437255859378 0:1 1:5 2:1 3:596.24262 4:1510.9131 5:1186 6:148.28641 7:0.023255 
0.2338507432923396 0:0 1:2 2:0 3:590.18298 4:1633.4545 5:1260 6:173.51231 7:0.01878 
0.2339204674663544 0:0 1:2 2:1 3:1610.8887 4:2297.9304 5:1065 6:184.23686 7:0.012129 
-0.2211304374389648 0:1 1:3 2:1 3:870.72296 4:1624.9089 5:1098 6:114.43704 7:0.021694 
-0.2209142209461926 0:0 1:2 2:1 3:1151.014 4:2055.8557 5:964 6:137.8206 7:0.014866 
-1 0:0 1:0 2:0 3:1001.5763 4:1464.4348 5:956 6:194.78667 7:0.017125 
-0.05390223532978675 0:0 1:12 2:0 3:353.39954 4:1387.7516 5:798 6:245.15866 7:0.019292 
0.9009253495396278 0:0 1:0 2:1 3:753.75763 4:1658.2784 5:1154 6:187.0966 7:0.017748 
-0.3874688245829344 0:0 1:0 2:1 3:1017.2359 4:1899.0386 5:1034 6:211.1675 7:0.012251 
-1 0:0 1:10 2:0 3:256.2449 4:1194.8899 5:1170 6:40.574505 7:0.013789 
-0.05390223532978675 0:0 1:8 2:1 3:521.31824 4:1545.4904 5:1140 6:110.60689 7:0.017725 
-0.7207427895231242 0:0 1:11 2:1 3:252.03314 4:1273.736 5:1260 6:62.218277 7:0.015145 
0.9005177432923397 0:0 1:2 2:1 3:398.63901 4:1692.3934 5:1053 6:131.64836 7:0.017739 
0.9008540455970764 0:0 1:10 2:1 3:897.86102 4:1768.0786 5:762 6:212.32161 7:0.021499 
-0.05413582458293437 0:0 1:5 2:1 3:2688.2241 4:2643.8999 5:634 6:126.8499 7:0.009627 
