svm_type nu_svr
kernel_type rbf
gamma 0.142857
nr_class 2
total_sv 53
rho -0.0767628
SV
-0.554362103515625 0:0 1:4 2:0 3:535.77716 4:906 5:0.000589 6:0.01951 7:150 
-0.05459235687692952 0:1 1:7 2:1 3:800.05133 4:1003 5:0.000697 6:0.021834 7:190 
0.4002197297172546 0:0 1:5 2:1 3:428.13965 4:1017 5:0.000457 6:0.015085 7:225 
-0.5540757895231242 0:0 1:12 2:1 3:1324.5002 4:848 5:0.000713 6:0.01502 7:67 
0.7335527297172546 0:0 1:12 2:1 3:562.80328 4:1102 5:0.000791 6:0.024701 7:138 
-1 0:0 1:0 2:1 3:568.21381 4:1322 5:0.001009 6:0.038783 7:129 
1 0:0 1:0 2:1 3:1017.2359 4:1034 5:0.000403 6:0.012251 7:140 
-1 0:0 1:0 2:0 3:1977.5859 4:443 5:0.000277 6:0.005931 7:70 
0.4008540455970764 0:0 1:5 2:1 3:391.67111 4:1234 5:0.000672 6:0.025695 7:170 
0.9009253495396278 0:0 1:2 2:1 3:961.8056 4:1079 5:0.000478 6:0.014913 7:200 
0.7341870455970764 0:0 1:8 2:1 3:358.11847 4:856 5:0.000538 6:0.018424 7:190 
-1 0:0 1:4 2:1 3:4583.7803 4:1070 5:0.000933 6:0.023328 7:100 
0.5672886340140652 0:0 1:7 2:1 3:379.2099 4:1064 5:0.000449 6:0.016127 7:225 
0.06706857257103921 0:0 1:5 2:1 3:276.49921 4:1284 5:0.000582 6:0.02349 7:160 
-0.3875802209461926 0:0 1:7 2:1 3:1040.3964 4:777 5:0.000298 6:0.007606 7:52 
0.06749419487381356 0:0 1:2 2:1 3:561.47235 4:677 5:0.000716 6:0.021674 7:175 
0.4008540455970764 0:0 1:4 2:0 3:373.483 4:1153 5:0.000531 6:0.021692 7:230 
-0.5539559949407568 0:0 1:0 2:1 3:345.1481 4:1049 5:0.000343 6:0.019303 7:135 
-0.8873165807887712 0:1 1:5 2:1 3:552.27222 4:733 5:0.000771 6:0.025702 7:190 
-1 0:0 1:2 2:1 3:3468.8306 4:272 5:0.000154 6:0.002271 7:59 
0.2339546340140651 0:0 1:0 2:1 3:1216.2747 4:745 5:0.000689 6:0.016227 7:170 
-0.3875447765502333 0:0 1:12 2:1 3:442.5748 4:1320 5:0.000853 6:0.031653 7:165 
-0.2206505807887712 0:0 1:0 2:0 3:1598.9414 4:742 5:0.00039 6:0.011465 7:120 
-0.5539559949407568 0:0 1:0 2:0 3:3760.4128 4:657 5:0.000518 6:0.010741 7:115 
0.5672886340140652 0:0 1:3 2:1 3:266.99597 4:988 5:0.000634 6:0.029261 7:240 
-0.7212344202837865 0:0 1:7 2:0 3:977.36426 4:857 5:0.000434 6:0.018771 7:145 
0.5672544674663544 0:0 1:7 2:1 3:283.00702 4:1033 5:0.000658 6:0.025003 7:275 
-0.05398359641377112 0:0 1:0 2:1 3:1328.2211 4:1015 5:0.000534 6:0.01777 7:190 
0.2339204674663544 0:0 1:5 2:1 3:1196.2836 4:868 5:0.000581 6:0.015249 7:165 
0.4004015725710392 0:0 1:9 2:1 3:881.04571 4:982 5:0.000334 6:0.009767 7:174 
0.4005874674663544 0:0 1:7 2:1 3:284.74152 4:1304 5:0.000424 6:0.016676 7:101 
0.4008271948738136 0:0 1:5 2:1 3:260.56043 4:1006 5:0.000857 6:0.033737 7:148 
-0.5539835964137712 0:0 1:7 2:1 3:676.60901 4:905 5:0.000511 6:0.012156 7:155 
-0.05456742028378646 0:0 1:0 2:1 3:983.75049 4:899 5:0.000415 6:0.01158 7:90 
0.06746437255859378 0:0 1:5 2:1 3:663.73047 4:969 5:0.000501 6:0.016049 7:100 
0.5671847432923396 0:0 1:0 2:1 3:531.49121 4:1102 5:0.000535 6:0.016488 7:205 
0.5672886340140652 0:0 1:0 2:0 3:1001.5763 4:956 5:0.000513 6:0.017125 7:185 
0.7338507432923396 0:0 1:0 2:1 3:276.96069 4:841 5:0.000672 6:0.023468 7:255 
0.06746437255859378 0:1 1:5 2:1 3:596.24262 4:1186 5:0.000876 6:0.023255 7:150 
0.2338507432923396 0:0 1:2 2:0 3:590.18298 4:1260 5:0.000602 6:0.01878 7:160 
0.2339204674663544 0:0 1:2 2:1 3:1610.8887 4:1065 5:0.000475 6:0.012129 7:145 
-0.2211304374389648 0:1 1:3 2:1 3:870.72296 4:1098 5:0.000818 6:0.021694 7:110 
-0.2209142209461926 0:0 1:2 2:1 3:1151.014 4:964 5:0.000613 6:0.014866 7:140 
-1 0:0 1:0 2:0 3:1001.5763 4:956 5:0.000513 6:0.017125 7:185 
-0.05390223532978675 0:0 1:12 2:0 3:353.39954 4:798 5:0.000562 6:0.019292 7:220 
0.9009253495396278 0:0 1:0 2:1 3:753.75763 4:1154 5:0.000593 6:0.017748 7:160 
-0.3874688245829344 0:0 1:0 2:1 3:1017.2359 4:1034 5:0.000403 6:0.012251 7:140 
-1 0:0 1:10 2:0 3:256.2449 4:1170 5:0.000326 6:0.013789 7:45 
-0.05390223532978675 0:0 1:8 2:1 3:521.31824 4:1140 5:0.000505 6:0.017725 7:175 
-0.7207427895231242 0:0 1:11 2:1 3:252.03314 4:1260 5:0.000383 6:0.015145 7:45 
0.9005177432923397 0:0 1:2 2:1 3:398.63901 4:1053 5:0.000505 6:0.017739 7:250 
0.9008540455970764 0:0 1:10 2:1 3:897.86102 4:762 5:0.000707 6:0.021499 7:290 
-0.05413582458293437 0:0 1:5 2:1 3:2688.2241 4:634 5:0.000435 6:0.009627 7:105 
