svm_type nu_svr
kernel_type rbf
gamma 0.125
nr_class 2
total_sv 15
rho -0.321418
SV
-0.3208997557860681 1:0 2:0 3:1 4:1328.2211 5:1015 6:516.24097 7:0.000534 8:0.01777 
1 1:0 2:0 3:1 4:1017.2359 5:1034 6:633.92914 7:0.000403 8:0.012251 
0.01166036060987391 1:0 2:0 3:1 4:1216.2747 5:745 6:514.25031 7:0.000689 8:0.016227 
-0.6543018309966987 1:0 2:0 3:0 4:1001.5763 5:956 6:398.70984 7:0.000513 8:0.017125 
0.1782171179568289 1:0 2:7 3:1 4:284.74152 5:1304 6:540.31665 7:0.000424 8:0.016676 
-0.6542039776514553 1:0 2:7 3:1 4:1040.3964 5:777 6:558.74066 7:0.000298 8:0.007606 
0.511424777443213 1:0 2:3 3:1 4:256.99347 5:1114 6:615.01532 7:0.00064 8:0.024521 
-0.3208443559444175 1:0 2:12 3:0 4:353.39954 5:798 6:457.76593 7:0.000562 8:0.019292 
0.01160129161161186 1:0 2:7 3:1 4:724.33752 5:960 6:508.71634 7:0.00042 8:0.01536 
0.511660360609874 1:0 2:0 3:1 4:276.96069 5:841 6:595.60547 7:0.000672 8:0.023468 
0.5116130113380848 1:0 2:8 3:1 4:358.11847 5:856 6:512.27393 7:0.000538 8:0.018424 
-0.8209270572251284 1:0 2:7 3:1 4:676.60901 5:905 6:472.09235 7:0.000511 8:0.012156 
0.3443987912968572 1:0 2:0 3:1 4:338.77457 5:1102 6:485.67459 7:0.00026 8:0.011828 
0.344867174507839 1:0 2:7 3:1 4:283.00702 5:1033 6:525.77222 7:0.000658 8:0.025003 
-0.6542659077704145 1:0 2:0 3:1 4:1017.2359 5:1034 6:633.92914 7:0.000403 8:0.012251 
