svm_type nu_svr
kernel_type rbf
gamma 0.5
nr_class 2
total_sv 59
rho 0.112965
SV
1 1:-0.398258 2:0.183673 
1 1:-0.605701 2:-0.22449 
-1 1:-0.431512 2:0.142857 
1 1:-0.572447 2:-0.542857 
1 1:-0.578781 2:-0.771429 
0.4251373945669744 1:-0.179731 2:0.714286 
1 1:-0.391924 2:0.183673 
-1 1:-0.434679 2:-0.102041 
1 1:-0.832146 2:-0.714286 
1 1:-0.605701 2:-0.22449 
1 1:-0.125891 2:-0.346939 
1 1:-0.30483 2:-0.061225 
-1 1:-1 2:-0.885714 
1 1:0.113222 2:-0.159184 
1 1:-0.179731 2:0.020408 
-0.508043079826529 1:-0.700713 2:-0.265306 
-1 1:-0.431512 2:0.142857 
1 1:-0.124307 2:1 
1 1:-0.315914 2:0.428571 
-1 1:-0.863816 2:-1 
-0.9177937517627741 1:-0.423595 2:-0.428571 
-1 1:-0.727633 2:-1 
-1 1:-0.311164 2:-0.142857 
1 1:-0.444181 2:0.673469 
-1 1:0.233571 2:-0.55102 
-1 1:0.353919 2:-0.314286 
1 1:-0.714964 2:0.053061 
1 1:0.053048 2:-0.338776 
-1 1:0.106888 2:-0.020408 
0.745165432662209 1:0.646873 2:-0.322449 
-0.574163168410697 1:-0.140143 2:0.183673 
-1 1:0.14331 2:-0.142857 
1 1:-0.022961 2:0.183673 
-1 1:-0.087886 2:-0.714286 
-1 1:-0.357086 2:0.591837 
1 1:-0.016627 2:-0.22449 
-1 1:-0.2019 2:0.020408 
1 1:0.125891 2:0.102041 
1 1:-0.043547 2:-0.061225 
0.1035098262198153 1:1 2:0.142857 
-1 1:0.045131 2:-0.22449 
-1 1:-0.097387 2:0.102041 
-1 1:-0.098971 2:-0.306122 
-1 1:0.350752 2:-0.55102 
1 1:-0.494854 2:-0.755102 
1 1:-0.141726 2:-0.632653 
-1 1:-0.545527 2:0.102041 
0.7261873465510013 1:-0.092637 2:-0.591837 
1 1:-0.339667 2:-0.387755 
1 1:-0.35867 2:-0.22449 
-1 1:-0.577197 2:-0.093878 
-1 1:-0.312747 2:0.020408 
-1 1:-0.046714 2:0.102041 
1 1:-0.049881 2:-0.142857 
-1 1:-0.059382 2:0.591837 
-1 1:-0.702296 2:-0.061225 
-1 1:0.002375 2:-0.387755 
1 1:0.065716 2:-0.183673 
-1 1:-0.502771 2:-0.265306 
