svm_type nu_svr
kernel_type rbf
gamma 0.5
nr_class 2
total_sv 60
rho 0.36654
SV
1 1:-0.209721 2:-0.246048 
1 1:0.081089 2:-0.514521 
0.5485563962848086 1:0.034352 2:0.082356 
1 1:-0.01361 2:0.031133 
1 1:-0.219523 2:-0.214234 
-1 1:-0.318813 2:-0.519142 
1 1:-0.285251 2:-0.535098 
1 1:-0.186169 2:0.105803 
0.1591084978653272 1:0.081089 2:-0.514521 
1 1:-0.624437 2:0.068736 
1 1:-0.224879 2:-0.247118 
-1 1:0.105986 2:-1 
-0.01818144994573574 1:-0.018496 2:0.032203 
-0.5550334595258775 1:-0.324231 2:-0.642847 
-1 1:-0.500142 2:-0.277424 
1 1:0.147663 2:-0.064649 
0.2923351058498642 1:-0.18513 2:0.07253 
-1 1:-0.358906 2:-0.869631 
-1 1:-0.004284 2:0.196673 
-1 1:-0.902952 2:-0.439704 
-1 1:-0.090263 2:-0.161405 
-1 1:0.151769 2:-0.387313 
1 1:0.379997 2:-0.247556 
1 1:-0.006591 2:0.810527 
-1 1:-0.911733 2:0.024323 
-1 1:0.460325 2:0.776135 
1 1:-0.174643 2:-0.635355 
-1 1:-0.080001 2:0.429294 
-1 1:-0.321951 2:-0.048353 
-1 1:-0.356546 2:0.020771 
1 1:-0.511139 2:0.139806 
-1 1:-0.301141 2:-0.179452 
1 1:-0.501218 2:-0.182809 
-0.4267850905283868 1:-0.7544 2:0.170356 
1 1:-0.455716 2:0.34003 
1 1:-0.742215 2:-0.032884 
1 1:-0.473108 2:0.330204 
-1 1:-0.458311 2:-0.108722 
-1 1:-0.542637 2:-0.013037 
-1 1:-0.462484 2:-0.106679 
-1 1:-0.455762 2:0.347084 
-1 1:-0.560157 2:0.476577 
1 1:-0.452333 2:-0.574257 
1 1:-0.846686 2:0.650727 
1 1:-1 2:-0.255777 
-1 1:-0.417013 2:-0.039986 
1 1:-0.436269 2:-0.412074 
-1 1:-0.379345 2:-0.316729 
1 1:-0.615633 2:-0.260009 
1 1:-0.470865 2:-0.32135 
1 1:-0.503926 2:-0.170745 
-1 1:-0.317626 2:-0.587294 
-1 1:-0.681675 2:0.011626 
-1 1:-0.34509 2:0.562631 
1 1:-0.273992 2:-0.276889 
-1 1:-0.534191 2:-0.562242 
-1 1:-0.46764 2:0.077638 
1 1:-0.494245 2:0.140439 
-1 1:-0.793579 2:-0.17989 
1 1:-0.40729 2:0.14939 
