svm_type nu_svr
kernel_type rbf
gamma 0.5
nr_class 2
total_sv 58
rho 0.237987
SV
1 1:-0.209721 2:-0.398258 
1 1:0.081089 2:-0.605701 
1 1:-0.150229 2:-0.572447 
-1 1:-0.104703 2:-0.771971 
1 1:0.034352 2:-0.230404 
1 1:-0.01361 2:-0.179731 
1 1:-0.219523 2:-0.391924 
-1 1:-0.318813 2:-0.434679 
1 1:-0.285251 2:-0.832146 
1 1:-0.186169 2:-0.2019 
0.3633411227492387 1:0.081089 2:-0.605701 
1 1:-0.624437 2:-0.125891 
1 1:-0.224879 2:-0.30483 
-1 1:0.105986 2:-1 
-1 1:-0.324231 2:-0.593032 
-1 1:-0.500142 2:-0.431512 
1 1:0.147663 2:-0.124307 
1 1:-0.18513 2:-0.315914 
-1 1:-0.358906 2:-0.863816 
-1 1:-0.004284 2:-0.528108 
-1 1:-0.370554 2:-0.423595 
-1 1:-0.902952 2:-0.727633 
-1 1:-0.090263 2:-0.311164 
0.2055203776912143 1:-0.256483 2:-0.403009 
-1 1:0.151769 2:-0.273159 
1 1:0.379997 2:-0.444181 
-1 1:-0.911733 2:0.233571 
-1 1:0.460325 2:0.353919 
1 1:-0.174643 2:-0.714964 
-1 1:-0.080001 2:0.106888 
-1 1:-0.356546 2:0.14331 
1 1:-0.511139 2:-0.022961 
-1 1:-0.301141 2:-0.087886 
1 1:-0.501218 2:-0.016627 
1 1:-0.455716 2:0.125891 
0.8410811217959709 1:-0.742215 2:-0.162312 
1 1:-0.473108 2:-0.043547 
0.636611295833697 1:-0.274831 2:1 
-1 1:-0.458311 2:0.045131 
-1 1:-0.542637 2:-0.097387 
-1 1:-0.462484 2:-0.098971 
-1 1:-0.455762 2:0.350752 
1 1:-0.452333 2:-0.494854 
1 1:-0.846686 2:-0.461599 
0.9534460819298791 1:-1 2:-0.515439 
-1 1:-0.417013 2:-0.295329 
-1 1:-0.379345 2:-0.195566 
1 1:-0.615633 2:-0.509105 
1 1:-0.470865 2:-0.35867 
-1 1:-0.317626 2:-0.577197 
-1 1:-0.681675 2:-0.312747 
-1 1:-0.34509 2:-0.046714 
1 1:-0.273992 2:-0.049881 
-1 1:-0.534191 2:-0.702296 
-1 1:-0.46764 2:0.002375 
1 1:-0.494245 2:0.065716 
-1 1:-0.793579 2:-0.502771 
1 1:-0.40729 2:0.149644 
