svm_type nu_svr
kernel_type rbf
gamma 0.5
nr_class 2
total_sv 60
rho 0.348963
SV
1 1:-0.685075 2:0.183673 
1 1:-0.352737 2:-0.22449 
-1 1:-0.414079 2:0.142857 
1 1:-0.440985 2:-0.542857 
0.1309503810534615 1:-0.470295 2:0.795918 
-1 1:-0.225448 2:0.428571 
1 1:-0.724984 2:-0.771429 
0.3275009598299865 1:-0.174405 2:0.714286 
1 1:-0.231998 2:0.183673 
-1 1:-0.737549 2:-0.102041 
1 1:-0.563308 2:-0.714286 
1 1:-0.352737 2:-0.22449 
1 1:-0.674198 2:-0.346939 
1 1:-0.442876 2:-0.061225 
-1 1:-0.573139 2:-0.885714 
1 1:-0.627577 2:-0.159184 
-1 1:-0.702391 2:-0.265306 
-1 1:-0.414079 2:0.142857 
1 1:-0.348415 2:1 
-1 1:-0.686475 2:-1 
-0.06650993761518459 1:-0.20182 2:-0.142857 
-0.1234276688285689 1:-0.766359 2:-0.428571 
-1 1:-0.991567 2:-1 
-1 1:-0.405977 2:-0.142857 
1 1:-0.650517 2:0.673469 
-1 1:-0.978478 2:-0.55102 
-0.8513824333787475 1:1 2:-0.314286 
1 1:-0.725396 2:0.053061 
1 1:-0.514096 2:-0.338776 
-1 1:-0.352926 2:-0.020408 
-1 1:-0.588211 2:-0.142857 
1 1:-0.6256 2:0.183673 
-1 1:-0.638231 2:-0.714286 
-1 1:-0.86243 2:0.591837 
1 1:-0.870802 2:-0.22449 
0.5415486591165518 1:-0.801809 2:-0.428571 
-1 1:-0.693321 2:0.020408 
1 1:-0.747894 2:0.102041 
1 1:-0.802744 2:-0.061225 
-1 1:-0.810245 2:-0.22449 
-1 1:-0.778015 2:0.102041 
-1 1:-0.771454 2:-0.306122 
-1 1:-0.659505 2:-0.55102 
1 1:-0.689745 2:-0.755102 
1 1:-0.835969 2:-0.632653 
-1 1:-0.73218 2:0.102041 
-1 1:-0.892958 2:0.102041 
1 1:-0.726962 2:-0.591837 
1 1:-0.852637 2:-0.387755 
1 1:-0.772226 2:-0.22449 
1 1:-0.833465 2:0.020408 
-1 1:-0.788365 2:-0.093878 
-1 1:-0.891488 2:0.020408 
-0.958679960177499 1:-0.796179 2:0.102041 
1 1:-0.839894 2:-0.142857 
-1 1:-0.674094 2:-0.061225 
-1 1:-0.775561 2:-0.387755 
1 1:-0.76648 2:-0.183673 
-1 1:-0.941977 2:-0.265306 
1 1:-0.790394 2:0.428571 
