svm_type nu_svr
kernel_type rbf
gamma 0.5
nr_class 2
total_sv 60
rho 0.180044
SV
1 1:-0.625535 2:-0.246048 
1 1:-0.724138 2:-0.514521 
1 1:-0.956386 2:-0.299265 
1 1:-0.965184 2:0.082356 
1 1:-0.958853 2:0.031133 
1 1:-0.933121 2:-0.214234 
-1 1:-0.832138 2:-0.519142 
1 1:-0.939254 2:-0.535098 
1 1:-0.956936 2:0.105803 
1 1:-0.724138 2:-0.514521 
1 1:-0.807677 2:-0.247118 
-1 1:0.053178 2:-1 
1 1:-0.964053 2:0.530671 
-1 1:-0.937233 2:-0.171474 
-1 1:-0.966757 2:-0.373741 
-1 1:-0.729103 2:-0.277424 
1 1:-0.894918 2:-0.34003 
1 1:-0.761987 2:-0.064649 
1 1:-0.922927 2:0.07253 
-1 1:-0.711404 2:-0.869631 
-1 1:-0.965421 2:-0.439704 
-1 1:-0.876791 2:-0.161405 
1 1:-0.920273 2:-0.247556 
1 1:-0.974102 2:0.810527 
-1 1:0.406689 2:0.024323 
-1 1:-0.866507 2:0.776135 
1 1:-0.767319 2:-0.635355 
1 1:0.205108 2:0.004719 
-1 1:-0.906343 2:0.429294 
-1 1:-0.85762 2:0.020771 
1 1:-0.871561 2:0.139806 
-1 1:-0.770401 2:-0.179452 
-1 1:-0.983226 2:0.005254 
1 1:-0.878709 2:-0.182809 
-1 1:-0.803147 2:0.170356 
1 1:-0.80325 2:0.34003 
0.09855551131961986 1:-0.855848 2:0.330204 
0.1690627955077445 1:0.88062 2:0.362018 
-1 1:-0.834994 2:-0.108722 
-1 1:-0.853014 2:-0.013037 
-1 1:-0.896052 2:-0.106679 
-1 1:-0.193826 2:0.347084 
1 1:-0.030539 2:-0.574257 
0.2996175699043021 1:-0.20107 2:-0.166707 
-1 1:-0.94202 2:-0.185241 
-0.05087815710645138 1:-0.704392 2:-0.039986 
1 1:-0.359559 2:-0.412074 
-1 1:-0.52775 2:-0.316729 
1 1:-0.86635 2:-0.32135 
0.4327641232683334 1:1 2:-0.172399 
-0.9491218428935491 1:-0.887492 2:-0.252031 
-1 1:-0.759482 2:-0.587294 
-1 1:-0.815739 2:0.011626 
-1 1:-0.954627 2:0.562631 
1 1:-0.82818 2:-0.276889 
-1 1:-0.053296 2:-0.562242 
-1 1:-0.833631 2:0.077638 
1 1:-0.705844 2:0.140439 
-1 1:-0.883112 2:-0.17989 
1 1:-0.813018 2:0.14939 
