svm_type nu_svr
kernel_type rbf
gamma 0.5
nr_class 2
total_sv 59
rho 0.237226
SV
1 1:-1 2:0.285467 
1 1:-1 2:0.318339 
0.7808974612377565 1:-1 2:-0.181661 
1 1:0.166667 2:0.785467 
1 1:-0.5 2:0.456747 
1 1:-1 2:-0.015571 
1 1:0.333333 2:0.010381 
-1 1:0.166667 2:0.095156 
1 1:-1 2:0.435986 
1 1:0.166667 2:0.316609 
1 1:-1 2:0.318339 
1 1:-1 2:0.655709 
1 1:-1 2:0.525952 
-0.9908880599254749 1:-0.666667 2:-1 
1 1:-0.166667 2:0.269896 
0.1500372205880668 1:-0.166667 2:0.66436 
-1 1:-1 2:0.344291 
-1 1:-1 2:-0.062284 
-1 1:0.833333 2:0.709343 
-1 1:-1 2:0.183391 
1 1:0.666667 2:-0.152249 
1 1:0.666667 2:0.143599 
-1 1:0.666667 2:-0.404844 
-1 1:0.666667 2:0.553633 
-1 1:-0.333333 2:0.096886 
0.5619406380803982 1:-0.333333 2:0.524221 
1 1:-0.666667 2:0.351211 
1 1:-0.166667 2:0.790657 
-1 1:-0.333333 2:0.380623 
-1 1:-1 2:0.816609 
0.9327706525682335 1:0.5 2:0.228374 
1 1:-0.666667 2:0.121107 
-1 1:-0.166667 2:0.581315 
1 1:-0.166667 2:-0.202422 
-1 1:-0.166667 2:0.141869 
-1 1:-1 2:0.631488 
1 1:0.333333 2:0.576125 
-1 1:-1 2:-0.029412 
1 1:-1 2:0.480969 
1 1:-0.166667 2:0.408304 
1 1:-1 2:-0.463668 
-1 1:-1 2:0.318339 
-1 1:0.333333 2:0.430796 
-1 1:-0.666667 2:0.256055 
-1 1:-1 2:0.102076 
-1 1:-1 2:0.543253 
-1 1:-1 2:0.32699 
-0.009111940074525156 1:-0.166667 2:0.359862 
-1 1:-0.166667 2:0.49654 
-1 1:0.333333 2:0.403114 
0.5743540275255451 1:0.666667 2:0.214533 
-1 1:-0.5 2:-0.024222 
-1 1:-0.166667 2:0.356401 
1 1:-0.333333 2:0.17128 
-1 1:0.166667 2:-0.102076 
-1 1:-0.5 2:0.33564 
1 1:-1 2:0.233564 
-1 1:-0.5 2:0.811419 
1 1:-0.5 2:0.373702 
