svm_type nu_svr
kernel_type rbf
gamma 0.5
nr_class 2
total_sv 61
rho 0.343863
SV
1 1:-1 2:-0.246048 
1 1:-1 2:-0.514521 
1 1:0.166667 2:-0.299265 
1 1:-0.5 2:0.082356 
0.1357049683749536 1:0.166667 2:-0.363283 
1 1:-1 2:0.031133 
1 1:0.333333 2:-0.214234 
-0.1133656976609781 1:0.166667 2:-0.519142 
1 1:-1 2:-0.535098 
1 1:0.166667 2:0.105803 
1 1:-1 2:-0.514521 
1 1:-1 2:0.068736 
1 1:-1 2:-0.247118 
-1 1:-0.666667 2:-1 
-1 1:-1 2:-0.171474 
-0.7411922084934837 1:-1 2:-0.642847 
-1 1:0.833333 2:-0.373741 
-1 1:-1 2:-0.277424 
1 1:-0.666667 2:-0.34003 
1 1:0.666667 2:-0.064649 
1 1:0.666667 2:0.07253 
-1 1:0.666667 2:-0.869631 
-1 1:-1 2:-0.587975 
-1 1:0.666667 2:-0.439704 
-1 1:-0.333333 2:-0.161405 
0.7820918352555822 1:-0.333333 2:-0.055261 
1 1:-0.666667 2:-0.247556 
1 1:-0.166667 2:0.810527 
-1 1:-0.333333 2:0.024323 
-1 1:-1 2:0.776135 
1 1:0.5 2:-0.635355 
1 1:-0.666667 2:0.004719 
-0.1473423983480185 1:1 2:0.429294 
0.08220319636946424 1:-1 2:1 
-1 1:-0.166667 2:0.020771 
1 1:-0.166667 2:0.139806 
-1 1:-0.166667 2:-0.179452 
-0.7104072890838754 1:-1 2:0.005254 
1 1:0.333333 2:-0.182809 
-1 1:-1 2:0.170356 
1 1:-1 2:0.34003 
-1 1:-1 2:-0.108722 
-1 1:0.333333 2:-0.013037 
-1 1:-0.666667 2:-0.106679 
-1 1:-1 2:0.347084 
1 1:-0.166667 2:-0.574257 
-1 1:-1 2:-0.185241 
-1 1:-0.166667 2:-0.039986 
1 1:0.166667 2:-0.412074 
-1 1:0.333333 2:-0.316729 
1 1:0.666667 2:-0.32135 
-1 1:0.166667 2:-0.252031 
-0.2876924064136439 1:-0.5 2:-0.587294 
-1 1:-0.166667 2:0.011626 
-1 1:0.666667 2:0.562631 
1 1:-0.333333 2:-0.276889 
-1 1:0.166667 2:-0.562242 
-1 1:-0.5 2:0.077638 
1 1:-1 2:0.140439 
-1 1:-0.5 2:-0.17989 
1 1:-0.5 2:0.14939 
