svm_type nu_svr
kernel_type rbf
gamma 0.333333
nr_class 2
total_sv 61
rho 0.16694
SV
1 1:-1 2:-0.625535 3:-0.246048 
1 1:-1 2:-0.724138 3:-0.514521 
-1 1:-1 2:-0.729103 3:-0.277424 
-0.4706512048869949 1:-1 2:-0.716794 3:-0.740478 
1 1:-1 2:-0.965184 3:0.082356 
1 1:-1 2:-0.958853 3:0.031133 
1 1:-1 2:-0.933121 3:-0.214234 
-1 1:-1 2:-0.832138 3:-0.519142 
1 1:-1 2:-0.939254 3:-0.535098 
1 1:-1 2:-0.724138 3:-0.514521 
1 1:-1 2:-0.807677 3:-0.247118 
-1 1:-1 2:0.053178 3:-1 
-1 1:-1 2:-0.937233 3:-0.171474 
-1 1:-1 2:-0.966757 3:-0.373741 
-1 1:-1 2:-0.729103 3:-0.277424 
1 1:-1 2:-0.761987 3:-0.064649 
0.309225454252411 1:-1 2:-0.922927 3:0.07253 
-1 1:-1 2:-0.711404 3:-0.869631 
-1 1:-1 2:-0.971129 3:0.196673 
-1 1:-1 2:-0.965421 3:-0.439704 
-1 1:-1 2:-0.876791 3:-0.161405 
-0.03028571680766558 1:-1 2:-0.681721 3:-0.387313 
1 1:-1 2:-0.920273 3:-0.247556 
1 1:-1 2:-0.974102 3:0.810527 
-1 1:-1 2:0.406689 3:0.024323 
-1 1:-1 2:-0.866507 3:0.776135 
1 1:-1 2:-0.767319 3:-0.635355 
1 1:-1 2:0.205108 3:0.004719 
-1 1:-1 2:-0.906343 3:0.429294 
-1 1:1 2:-0.85762 3:0.020771 
1 1:1 2:-0.871561 3:0.139806 
-1 1:1 2:-0.770401 3:-0.179452 
1 1:1 2:-0.878709 3:-0.182809 
-1 1:1 2:-0.803147 3:0.170356 
1 1:1 2:-0.80325 3:0.34003 
1 1:1 2:-0.30396 3:-0.000146 
1 1:1 2:-0.855848 3:0.330204 
0.2901039649048649 1:1 2:0.88062 3:0.362018 
-1 1:1 2:-0.834994 3:-0.108722 
-1 1:1 2:-0.853014 3:-0.013037 
-1 1:1 2:-0.896052 3:-0.106679 
-1 1:1 2:-0.193826 3:0.347084 
-0.7630238551376403 1:1 2:-0.000806 3:0.476577 
0.9371222337490227 1:1 2:-0.030539 3:-0.574257 
1 1:1 2:-0.20107 3:-0.166707 
-0.4412731145935393 1:1 2:-0.93417 3:0.823466 
-1 1:1 2:-0.94202 3:-0.185241 
0.4635483470937011 1:1 2:-0.8452 3:-0.38133 
1 1:1 2:-1 3:0.650727 
1 1:1 2:-0.359559 3:-0.412074 
-1 1:1 2:-0.52775 3:-0.316729 
1 1:1 2:-0.86635 3:-0.32135 
1 1:1 2:-0.848168 3:-0.170745 
-0.2947661085741594 1:1 2:-0.759482 3:-0.587294 
-1 1:1 2:-0.815739 3:0.011626 
1 1:1 2:-0.82818 3:-0.276889 
-1 1:1 2:-0.053296 3:-0.562242 
-1 1:1 2:-0.833631 3:0.077638 
1 1:1 2:-0.705844 3:0.140439 
-1 1:1 2:-0.883112 3:-0.17989 
1 1:1 2:-0.813018 3:0.14939 
