svm_type nu_svr
kernel_type rbf
gamma 0.333333
nr_class 2
total_sv 58
rho 0.195229
SV
1 1:-1 2:-1 3:-0.685075 
1 1:-1 2:-1 3:-0.352737 
-1 1:-1 2:-1 3:-0.414079 
-1 1:-1 2:0.166667 3:-0.488633 
1 1:-1 2:-0.5 3:-0.470295 
1 1:-1 2:-1 3:-0.174405 
1 1:-1 2:0.333333 3:-0.231998 
-1 1:-1 2:0.166667 3:-0.737549 
1 1:-1 2:-1 3:-0.563308 
1 1:-1 2:0.166667 3:-0.639346 
0.767003634811077 1:-1 2:-1 3:-0.352737 
0.9395145354575706 1:-1 2:-1 3:-0.674198 
1 1:-1 2:-1 3:-0.442876 
-1 1:-1 2:-0.666667 3:-0.573139 
-1 1:-1 2:-1 3:-0.702391 
-1 1:-1 2:-1 3:-0.791651 
-0.04278053488020325 1:-1 2:0.833333 3:-0.910516 
-1 1:-1 2:-1 3:-0.414079 
1 1:-1 2:0.666667 3:-0.348415 
1 1:-1 2:0.666667 3:-0.321028 
-1 1:-1 2:-1 3:-0.5121 
-1 1:-1 2:0.666667 3:-0.686475 
-1 1:-1 2:-1 3:-0.766359 
-1 1:-1 2:0.666667 3:-0.991567 
-1 1:-1 2:-0.333333 3:-0.405977 
1 1:-1 2:-0.666667 3:-0.650517 
1 1:-1 2:-0.166667 3:-0.526912 
-1 1:-1 2:-0.333333 3:-0.978478 
-1 1:-1 2:-1 3:1 
1 1:-1 2:0.5 3:-0.725396 
-1 1:-1 2:1 3:-0.352926 
-1 1:1 2:-0.166667 3:-0.588211 
1 1:1 2:-0.166667 3:-0.6256 
-1 1:1 2:-0.166667 3:-0.638231 
1 1:1 2:0.333333 3:-0.870802 
-1 1:1 2:-1 3:-0.693321 
1 1:1 2:-1 3:-0.747894 
1 1:1 2:-1 3:-0.584429 
1 1:1 2:-0.166667 3:-0.802744 
0.3281635653827835 1:1 2:-1 3:-0.218426 
-0.9706725463158065 1:1 2:-1 3:-0.810245 
-1 1:1 2:0.333333 3:-0.778015 
-1 1:1 2:-0.666667 3:-0.771454 
-1 1:1 2:-1 3:-0.659505 
1 1:1 2:-0.166667 3:-0.689745 
1 1:1 2:-1 3:-0.835969 
1 1:1 2:-0.166667 3:-0.896561 
0.9653182643485686 1:1 2:0.166667 3:-0.852637 
-1 1:1 2:0.333333 3:-0.727626 
1 1:1 2:0.666667 3:-0.772226 
-0.9865469188039901 1:1 2:-0.5 3:-0.788365 
-1 1:1 2:-0.166667 3:-0.891488 
1 1:1 2:-0.333333 3:-0.839894 
-1 1:1 2:0.166667 3:-0.674094 
-1 1:1 2:-0.5 3:-0.775561 
1 1:1 2:-1 3:-0.76648 
-1 1:1 2:-0.5 3:-0.941977 
1 1:1 2:-0.5 3:-0.790394 
