svm_type nu_svr
kernel_type rbf
gamma 0.333333
nr_class 2
total_sv 59
rho 0.457617
SV
1 1:-1 2:0.285467 3:-0.685075 
1 1:-1 2:0.318339 3:-0.352737 
-1 1:-1 2:0.183391 3:-0.414079 
-1 1:-1 2:-0.126298 3:-0.488633 
1 1:-1 2:0.456747 3:-0.470295 
1 1:-1 2:-0.015571 3:-0.174405 
1 1:-1 2:0.010381 3:-0.231998 
-1 1:-1 2:0.095156 3:-0.737549 
1 1:-1 2:0.435986 3:-0.563308 
1 1:-1 2:0.316609 3:-0.639346 
1 1:-1 2:0.525952 3:-0.442876 
-0.5017800960983044 1:-1 2:-1 3:-0.573139 
-1 1:-1 2:0.344291 3:-0.702391 
-0.4982199039016957 1:-1 2:-0.062284 3:-0.791651 
-1 1:-1 2:0.709343 3:-0.910516 
-1 1:-1 2:0.183391 3:-0.414079 
1 1:-1 2:-0.152249 3:-0.348415 
1 1:-1 2:0.143599 3:-0.321028 
-1 1:-1 2:-0.404844 3:-0.686475 
-1 1:-1 2:0.088235 3:-0.20182 
-1 1:-1 2:0.553633 3:-0.991567 
-1 1:-1 2:0.096886 3:-0.405977 
1 1:-1 2:0.351211 3:-0.650517 
0.9717856955389023 1:-1 2:0.790657 3:-0.526912 
0.5194868008638829 1:-1 2:0.031142 3:-0.700132 
-1 1:-1 2:0.380623 3:-0.978478 
-1 1:-1 2:0.816609 3:1 
1 1:-1 2:0.228374 3:-0.725396 
-1 1:-1 2:0.813149 3:-0.352926 
-1 1:1 2:0.581315 3:-0.588211 
1 1:1 2:-0.202422 3:-0.6256 
-1 1:1 2:0.141869 3:-0.638231 
1 1:1 2:0.576125 3:-0.870802 
-1 1:1 2:-0.029412 3:-0.693321 
1 1:1 2:0.480969 3:-0.747894 
0.2632088853243524 1:1 2:0.641869 3:-0.584429 
1 1:1 2:0.408304 3:-0.802744 
0.7340467371440991 1:1 2:-0.463668 3:-0.218426 
-1 1:1 2:0.318339 3:-0.810245 
-1 1:1 2:0.430796 3:-0.778015 
-1 1:1 2:0.256055 3:-0.771454 
-1 1:1 2:0.102076 3:-0.659505 
0.937491128657631 1:1 2:-0.070934 3:-0.689745 
1 1:1 2:0.655709 3:-0.835969 
-1 1:1 2:0.32699 3:-0.892958 
1 1:1 2:0.598616 3:-0.896561 
1 1:1 2:0.096886 3:-0.852637 
-1 1:1 2:0.403114 3:-0.727626 
1 1:1 2:0.214533 3:-0.772226 
0.5739807524711323 1:1 2:0.107266 3:-0.767455 
1 1:1 2:0.273356 3:-0.833465 
-1 1:1 2:-0.024222 3:-0.788365 
-1 1:1 2:0.356401 3:-0.891488 
1 1:1 2:0.17128 3:-0.839894 
-1 1:1 2:-0.102076 3:-0.674094 
-1 1:1 2:0.33564 3:-0.775561 
1 1:1 2:0.233564 3:-0.76648 
-1 1:1 2:0.811419 3:-0.941977 
1 1:1 2:0.373702 3:-0.790394 
