svm_type nu_svr
kernel_type rbf
gamma 0.333333
nr_class 2
total_sv 60
rho 0.317579
SV
1 1:-1 2:-0.685075 3:0.183673 
1 1:-1 2:-0.352737 3:-0.22449 
-1 1:-1 2:-0.414079 3:0.142857 
1 1:-1 2:-0.440985 3:-0.542857 
-1 1:-1 2:-0.225448 3:0.428571 
1 1:-1 2:-0.724984 3:-0.771429 
1 1:-1 2:-0.231998 3:0.183673 
-1 1:-1 2:-0.737549 3:-0.102041 
1 1:-1 2:-0.563308 3:-0.714286 
1 1:-1 2:-0.352737 3:-0.22449 
1 1:-1 2:-0.674198 3:-0.346939 
1 1:-1 2:-0.442876 3:-0.061225 
-1 1:-1 2:-0.573139 3:-0.885714 
1 1:-1 2:-0.627577 3:-0.159184 
-1 1:-1 2:-0.702391 3:-0.265306 
-1 1:-1 2:-0.414079 3:0.142857 
0.6416171368291816 1:-1 2:-0.348415 3:1 
-1 1:-1 2:-0.686475 3:-1 
-0.03029360312272817 1:-1 2:-0.20182 3:-0.142857 
-1 1:-1 2:-0.766359 3:-0.428571 
-0.8213760197099357 1:-1 2:-0.991567 3:-1 
-1 1:-1 2:-0.405977 3:-0.142857 
1 1:-1 2:-0.650517 3:0.673469 
-1 1:-1 2:-0.978478 3:-0.55102 
-1 1:-1 2:1 3:-0.314286 
1 1:-1 2:-0.514096 3:-0.338776 
-1 1:-1 2:-0.352926 3:-0.020408 
0.6147753645508218 1:1 2:-0.714969 3:-0.469388 
-1 1:1 2:-0.588211 3:-0.142857 
1 1:1 2:-0.6256 3:0.183673 
-1 1:1 2:-0.638231 3:-0.714286 
-1 1:1 2:-0.86243 3:0.591837 
1 1:1 2:-0.870802 3:-0.22449 
-1 1:1 2:-0.693321 3:0.020408 
1 1:1 2:-0.747894 3:0.102041 
1 1:1 2:-0.584429 3:0.102041 
1 1:1 2:-0.802744 3:-0.061225 
0.2313607200219342 1:1 2:-0.218426 3:0.142857 
-1 1:1 2:-0.810245 3:-0.22449 
-1 1:1 2:-0.778015 3:0.102041 
-1 1:1 2:-0.771454 3:-0.306122 
-1 1:1 2:-0.659505 3:-0.55102 
1 1:1 2:-0.689745 3:-0.755102 
1 1:1 2:-0.835969 3:-0.632653 
-0.2350242944695984 1:1 2:-0.73218 3:0.102041 
-1 1:1 2:-0.892958 3:0.102041 
1 1:1 2:-0.726962 3:-0.591837 
0.5122467785980626 1:1 2:-0.896561 3:0.346939 
1 1:1 2:-0.852637 3:-0.387755 
-0.9133060826977379 1:1 2:-0.727626 3:-0.55102 
1 1:1 2:-0.772226 3:-0.22449 
1 1:1 2:-0.833465 3:0.020408 
-1 1:1 2:-0.788365 3:-0.093878 
-1 1:1 2:-0.891488 3:0.020408 
1 1:1 2:-0.839894 3:-0.142857 
-1 1:1 2:-0.674094 3:-0.061225 
-1 1:1 2:-0.775561 3:-0.387755 
1 1:1 2:-0.76648 3:-0.183673 
-1 1:1 2:-0.941977 3:-0.265306 
1 1:1 2:-0.790394 3:0.428571 
