svm_type nu_svr
kernel_type rbf
gamma 0.333333
nr_class 2
total_sv 59
rho 0.330852
SV
1 1:-0.723575 2:-0.398258 3:-0.246048 
1 1:-0.678864 2:-0.605701 3:-0.514521 
1 1:-0.852123 2:-0.572447 3:-0.299265 
1 1:-0.866467 2:-0.230404 3:0.082356 
1 1:-0.838917 2:-0.179731 3:0.031133 
1 1:-0.850492 2:-0.391924 3:-0.214234 
-1 1:-0.707577 2:-0.434679 3:-0.519142 
1 1:-0.841967 2:-0.832146 3:-0.535098 
1 1:-0.888515 2:-0.2019 3:0.105803 
1 1:-0.678864 2:-0.605701 3:-0.514521 
0.8399178896615264 1:-0.944027 2:-0.125891 3:0.068736 
1 1:-0.772861 2:-0.30483 3:-0.247118 
-0.3473615886230261 1:1 2:-1 3:-1 
1 1:-0.909095 2:0.113222 3:0.530671 
-1 1:-0.954734 2:-0.700713 3:-0.171474 
-1 1:-0.922993 2:-0.637371 3:-0.373741 
-1 1:-0.84854 2:-0.431512 3:-0.277424 
1 1:-0.780339 2:-0.564529 3:-0.34003 
1 1:-0.729993 2:-0.124307 3:-0.064649 
1 1:-0.861599 2:-0.315914 3:0.07253 
-1 1:-0.39852 2:-0.863816 3:-0.869631 
-0.6808239305927339 1:-0.172146 2:-0.423595 3:-0.587975 
-1 1:-0.953775 2:-0.727633 3:-0.439704 
-1 1:-0.798862 2:-0.311164 3:-0.161405 
1 1:-0.886076 2:-0.403009 3:-0.055261 
1 1:-0.759542 2:-0.444181 3:-0.247556 
1 1:-0.895037 2:0.106888 3:0.810527 
-1 1:-0.193184 2:0.233571 3:0.024323 
-1 1:-0.791922 2:0.353919 3:0.776135 
1 1:-0.665781 2:-0.714964 3:-0.635355 
0.5360323142986336 1:-0.268055 2:0.053048 3:0.004719 
-0.9718144807842399 1:-0.846524 2:0.106888 3:0.429294 
-1 1:-0.830395 2:0.14331 3:0.020771 
1 1:-0.882199 2:-0.022961 3:0.139806 
-1 1:-0.752452 2:-0.087886 3:-0.179452 
-1 1:-0.96409 2:-0.357086 3:0.005254 
1 1:-0.821822 2:-0.016627 3:-0.182809 
-1 1:-0.913952 2:-0.2019 3:0.170356 
1 1:-0.860695 2:0.125891 3:0.34003 
0.3026386873751035 1:0.865713 2:1 3:0.362018 
-1 1:-0.821023 2:0.045131 3:-0.108722 
-1 1:-0.861216 2:-0.097387 3:-0.013037 
-1 1:-0.847255 2:-0.098971 3:-0.106679 
-1 1:-0.642731 2:0.350752 3:0.347084 
0.9761099204452041 1:-0.41563 2:-0.494854 3:-0.574257 
-1 1:-0.948213 2:-0.545527 3:-0.185241 
-1 1:-0.83618 2:-0.295329 3:-0.039986 
-1 1:-0.670729 2:-0.195566 3:-0.316729 
1 1:-0.826784 2:-0.35867 3:-0.32135 
0.3453011882195325 1:0.773103 2:0.14331 3:-0.172399 
-1 1:-0.643086 2:-0.577197 3:-0.587294 
-1 1:-0.880197 2:-0.312747 3:0.011626 
-1 1:-0.918695 2:-0.046714 3:0.562631 
1 1:-0.698566 2:-0.049881 3:-0.276889 
-1 1:-0.522741 2:-0.702296 3:-0.562242 
-1 1:-0.90445 2:0.002375 3:0.077638 
1 1:-0.788972 2:0.065716 3:0.140439 
-1 1:-0.955463 2:-0.502771 3:-0.17989 
1 1:-0.812321 2:0.149644 3:0.14939 
