svm_type nu_svr
kernel_type rbf
gamma 0.333333
nr_class 2
total_sv 62
rho 0.0577301
SV
1 1:-0.625535 2:-0.246048 3:0.183673 
1 1:-0.724138 2:-0.514521 3:-0.22449 
-1 1:-0.729103 2:-0.277424 3:0.142857 
1 1:-0.956386 2:-0.299265 3:-0.542857 
-1 1:-0.934617 2:-0.17201 3:0.428571 
1 1:-0.817005 2:-0.363283 3:-0.771429 
1 1:-0.958853 2:0.031133 3:0.714286 
1 1:-0.933121 2:-0.214234 3:0.183673 
-1 1:-0.832138 2:-0.519142 3:-0.102041 
1 1:-0.939254 2:-0.535098 3:-0.714286 
1 1:-0.724138 2:-0.514521 3:-0.22449 
1 1:-0.957684 2:0.068736 3:-0.346939 
1 1:-0.807677 2:-0.247118 3:-0.061225 
-1 1:0.053178 2:-1 3:-0.885714 
1 1:-0.964053 2:0.530671 3:-0.159184 
1 1:-0.922482 2:0.139466 3:0.020408 
-1 1:-0.937233 2:-0.171474 3:-0.265306 
-0.2664509959001545 1:-0.966757 2:-0.373741 3:-1 
-1 1:-0.729103 2:-0.277424 3:0.142857 
1 1:-0.761987 2:-0.064649 3:1 
-1 1:-0.711404 2:-0.869631 3:-1 
-0.130015260991925 1:0.145628 2:-0.587975 3:-0.428571 
-1 1:-0.965421 2:-0.439704 3:-1 
-1 1:-0.876791 2:-0.161405 3:-0.142857 
1 1:-0.920273 2:-0.247556 3:0.673469 
-1 1:0.406689 2:0.024323 3:-0.55102 
-1 1:-0.866507 2:0.776135 3:-0.314286 
0.6830543043235789 1:-0.767319 2:-0.635355 3:0.053061 
1 1:0.205108 2:0.004719 3:-0.338776 
-0.1761832727716983 1:-0.906343 2:0.429294 3:-0.020408 
0.7217344886514367 1:-0.967825 2:1 3:-0.322449 
-1 1:-0.792999 2:-0.048353 3:0.183673 
-1 1:-0.85762 2:0.020771 3:-0.142857 
1 1:-0.871561 2:0.139806 3:0.183673 
-1 1:-0.770401 2:-0.179452 3:-0.714286 
-1 1:-0.983226 2:0.005254 3:0.591837 
1 1:-0.878709 2:-0.182809 3:-0.22449 
-1 1:-0.803147 2:0.170356 3:0.020408 
1 1:-0.80325 2:0.34003 3:0.102041 
1 1:-0.855848 2:0.330204 3:-0.061225 
0.169970088872747 1:0.88062 2:0.362018 3:0.142857 
-1 1:-0.834994 2:-0.108722 3:-0.22449 
-1 1:-0.853014 2:-0.013037 3:0.102041 
-1 1:-0.896052 2:-0.106679 3:-0.306122 
-1 1:-0.193826 2:0.347084 3:-0.55102 
1 1:-0.030539 2:-0.574257 3:-0.755102 
1 1:-0.20107 2:-0.166707 3:-0.632653 
-0.1529380018818259 1:-0.93417 2:0.823466 3:0.102041 
-1 1:-0.94202 2:-0.185241 3:0.102041 
0.7558289727736506 1:-0.8452 2:-0.38133 3:-0.591837 
1 1:-0.359559 2:-0.412074 3:-0.387755 
1 1:-0.86635 2:-0.32135 3:-0.22449 
-1 1:-0.759482 2:-0.587294 3:-0.093878 
-1 1:-0.815739 2:0.011626 3:0.020408 
-1 1:-0.954627 2:0.562631 3:0.102041 
1 1:-0.82818 2:-0.276889 3:-0.142857 
-0.2744124684543963 1:-0.687797 2:0.493117 3:0.591837 
-1 1:-0.053296 2:-0.562242 3:-0.061225 
-1 1:-0.833631 2:0.077638 3:-0.387755 
1 1:-0.705844 2:0.140439 3:-0.183673 
-1 1:-0.883112 2:-0.17989 3:-0.265306 
0.6694121453785867 1:-0.813018 2:0.14939 3:0.428571 
