svm_type nu_svr
kernel_type rbf
gamma 0.333333
nr_class 2
total_sv 60
rho 0.202037
SV
1 1:1 2:-0.723575 3:0.183673 
1 1:1 2:-0.678864 3:-0.22449 
1 1:1 2:-0.852123 3:-0.542857 
1 1:1 2:-0.770809 3:-0.771429 
0.737603718886072 1:1 2:-0.838917 3:0.714286 
1 1:1 2:-0.850492 3:0.183673 
-1 1:1 2:-0.707577 3:-0.102041 
1 1:1 2:-0.841967 3:-0.714286 
1 1:1 2:-0.678864 3:-0.22449 
1 1:1 2:-0.944027 3:-0.346939 
1 1:1 2:-0.772861 3:-0.061225 
-0.7555982826926065 1:1 2:1 3:-0.885714 
1 1:1 2:-0.909095 3:-0.159184 
0.7312373564034247 1:1 2:-0.855892 3:0.020408 
-1 1:1 2:-0.954734 3:-0.265306 
-0.4397722746822241 1:1 2:-0.922993 3:-1 
-1 1:-1 2:-0.84854 3:0.142857 
1 1:1 2:-0.729993 3:1 
-1 1:1 2:-0.39852 3:-1 
-1 1:-1 2:-0.953775 3:-1 
1 1:-1 2:-0.886076 3:0.510204 
1 1:-1 2:-0.782552 3:-0.061225 
1 1:1 2:-0.759542 3:0.673469 
-1 1:1 2:-0.193184 3:-0.55102 
-1 1:1 2:-0.791922 3:-0.314286 
1 1:1 2:-0.268055 3:-0.338776 
-1 1:1 2:-0.846524 3:-0.020408 
-1 1:1 2:-0.811905 3:0.183673 
-1 1:1 2:-0.830395 3:-0.142857 
1 1:1 2:-0.882199 3:0.183673 
-1 1:1 2:-0.752452 3:-0.714286 
-1 1:1 2:-0.96409 3:0.591837 
1 1:1 2:-0.821822 3:-0.22449 
-1 1:1 2:-0.913952 3:0.020408 
0.2766904103989968 1:-1 2:-0.893648 3:-0.387755 
1 1:1 2:-0.860695 3:0.102041 
0.3808912244256146 1:-1 2:-0.596929 3:0.102041 
1 1:1 2:-0.874837 3:-0.061225 
0.2531175838786986 1:1 2:0.865713 3:0.142857 
-1 1:1 2:-0.821023 3:-0.22449 
-1 1:1 2:-0.861216 3:0.102041 
-0.914711573841854 1:-1 2:-0.847255 3:-0.306122 
-1 1:1 2:-0.642731 3:-0.55102 
1 1:1 2:-0.41563 3:-0.755102 
1 1:1 2:-0.617232 3:-0.632653 
-1 1:1 2:-0.921264 3:0.102041 
-0.8899178687833152 1:-1 2:-0.948213 3:0.102041 
1 1:-1 2:-0.702955 3:-0.591837 
0.6204597060071931 1:1 2:-0.606428 3:-0.387755 
-1 1:1 2:-0.670729 3:-0.55102 
1 1:1 2:-0.826784 3:-0.22449 
-1 1:1 2:-0.643086 3:-0.093878 
-1 1:1 2:-0.880197 3:0.020408 
-1 1:1 2:-0.918695 3:0.102041 
1 1:1 2:-0.698566 3:-0.142857 
-1 1:1 2:-0.851482 3:0.591837 
-1 1:1 2:-0.522741 3:-0.061225 
-1 1:1 2:-0.90445 3:-0.387755 
1 1:1 2:-0.788972 3:-0.183673 
-1 1:1 2:-0.955463 3:-0.265306 
