svm_type nu_svr
kernel_type rbf
gamma 0.333333
nr_class 2
total_sv 62
rho 0.116221
SV
1 1:-1 2:-0.625535 3:-0.246048 
1 1:-1 2:-0.724138 3:-0.514521 
-0.03198832235637484 1:-1 2:-0.729103 3:-0.277424 
1 1:0.166667 2:-0.956386 3:-0.299265 
1 1:-0.5 2:-0.965184 3:0.082356 
1 1:-1 2:-0.958853 3:0.031133 
1 1:0.333333 2:-0.933121 3:-0.214234 
-1 1:0.166667 2:-0.832138 3:-0.519142 
1 1:-1 2:-0.939254 3:-0.535098 
1 1:0.166667 2:-0.956936 3:0.105803 
1 1:-1 2:-0.724138 3:-0.514521 
1 1:-1 2:-0.957684 3:0.068736 
1 1:-1 2:-0.807677 3:-0.247118 
-1 1:-0.666667 2:0.053178 3:-1 
-1 1:-1 2:-0.937233 3:-0.171474 
-1 1:0.833333 2:-0.966757 3:-0.373741 
-1 1:-1 2:-0.729103 3:-0.277424 
1 1:-0.666667 2:-0.894918 3:-0.34003 
1 1:0.666667 2:-0.761987 3:-0.064649 
1 1:0.666667 2:-0.922927 3:0.07253 
-1 1:0.666667 2:-0.711404 3:-0.869631 
-1 1:0.666667 2:-0.965421 3:-0.439704 
-1 1:-0.333333 2:-0.876791 3:-0.161405 
0.004013121109753141 1:-0.333333 2:-0.928249 3:-0.055261 
1 1:-0.666667 2:-0.920273 3:-0.247556 
1 1:-0.166667 2:-0.974102 3:0.810527 
0.05246467382911497 1:-0.166667 2:-0.667368 3:-0.368682 
-1 1:-0.333333 2:0.406689 3:0.024323 
-1 1:-1 2:-0.866507 3:0.776135 
1 1:0.5 2:-0.767319 3:-0.635355 
1 1:-0.666667 2:0.205108 3:0.004719 
-0.4586479470009207 1:1 2:-0.906343 3:0.429294 
-1 1:-0.166667 2:-0.85762 3:0.020771 
1 1:-0.166667 2:-0.871561 3:0.139806 
-1 1:-0.166667 2:-0.770401 3:-0.179452 
-1 1:-1 2:-0.826473 3:-0.402053 
-1 1:-1 2:-0.983226 3:0.005254 
1 1:0.333333 2:-0.878709 3:-0.182809 
-1 1:-1 2:-0.803147 3:0.170356 
1 1:-1 2:-0.80325 3:0.34003 
0.2779067181343569 1:-1 2:0.88062 3:0.362018 
-1 1:-1 2:-0.834994 3:-0.108722 
-1 1:0.333333 2:-0.853014 3:-0.013037 
-1 1:-0.666667 2:-0.896052 3:-0.106679 
-1 1:-1 2:-0.193826 3:0.347084 
1 1:-0.166667 2:-0.030539 3:-0.574257 
0.1500570635858848 1:-1 2:-0.20107 3:-0.166707 
-1 1:-1 2:-0.94202 3:-0.185241 
-0.723723143480591 1:-0.166667 2:-0.704392 3:-0.039986 
1 1:0.166667 2:-0.359559 3:-0.412074 
-0.7856405871621133 1:0.333333 2:-0.52775 3:-0.316729 
1 1:0.666667 2:-0.86635 3:-0.32135 
0.5155584233408902 1:0.333333 2:1 3:-0.172399 
-1 1:-0.5 2:-0.759482 3:-0.587294 
-1 1:-0.166667 2:-0.815739 3:0.011626 
-1 1:0.666667 2:-0.954627 3:0.562631 
1 1:-0.333333 2:-0.82818 3:-0.276889 
-1 1:0.166667 2:-0.053296 3:-0.562242 
-1 1:-0.5 2:-0.833631 3:0.077638 
1 1:-1 2:-0.705844 3:0.140439 
-1 1:-0.5 2:-0.883112 3:-0.17989 
1 1:-0.5 2:-0.813018 3:0.14939 
