svm_type nu_svr
kernel_type rbf
gamma 0.333333
nr_class 2
total_sv 60
rho -0.0417542
SV
1 1:-1 2:-0.625535 3:-0.209721 
1 1:-1 2:-0.724138 3:0.081089 
-1 1:0.166667 2:-0.716794 3:-0.104703 
0.7553571640363053 1:-0.5 2:-0.965184 3:0.034352 
0.9901594292364535 1:-1 2:-0.958853 3:-0.01361 
1 1:0.333333 2:-0.933121 3:-0.219523 
-1 1:0.166667 2:-0.832138 3:-0.318813 
1 1:-1 2:-0.939254 3:-0.285251 
1 1:0.166667 2:-0.956936 3:-0.186169 
1 1:-1 2:-0.957684 3:-0.624437 
1 1:-1 2:-0.807677 3:-0.224879 
-1 1:-0.666667 2:0.053178 3:0.105986 
-1 1:-1 2:-0.937233 3:-0.729894 
-0.8224267871283515 1:-1 2:0.654557 3:-0.324231 
-1 1:0.833333 2:-0.966757 3:-0.708908 
-1 1:-1 2:-0.729103 3:-0.500142 
1 1:0.666667 2:-0.761987 3:0.147663 
1 1:0.666667 2:-0.922927 3:-0.18513 
-1 1:0.666667 2:-0.711404 3:-0.358906 
-0.1775732128716486 1:1 2:-0.971129 3:-0.004284 
-1 1:0.666667 2:-0.965421 3:-0.902952 
-1 1:-0.333333 2:-0.876791 3:-0.090263 
-1 1:-0.666667 2:-0.681721 3:0.151769 
0.8047648437168846 1:-0.666667 2:-0.920273 3:0.379997 
-1 1:-0.333333 2:0.406689 3:-0.911733 
-1 1:-1 2:-0.866507 3:0.460325 
0.5475911786037932 1:0.5 2:-0.767319 3:-0.174643 
0.2232952404263269 1:-0.666667 2:0.205108 3:0.258035 
-1 1:1 2:-0.906343 3:-0.080001 
-1 1:-0.166667 2:-0.85762 3:-0.356546 
1 1:-0.166667 2:-0.871561 3:-0.511139 
-1 1:-0.166667 2:-0.770401 3:-0.301141 
-1 1:-1 2:-0.826473 3:-0.511794 
1 1:0.333333 2:-0.878709 3:-0.501218 
1 1:-1 2:-0.80325 3:-0.455716 
1 1:-0.166667 2:-0.436699 3:-0.742215 
1 1:-0.166667 2:-0.855848 3:-0.473108 
1 1:-1 2:0.88062 3:-0.274831 
-1 1:-1 2:-0.834994 3:-0.458311 
-1 1:0.333333 2:-0.853014 3:-0.542637 
-1 1:-0.666667 2:-0.896052 3:-0.462484 
-1 1:-1 2:-0.193826 3:-0.455762 
1 1:-0.166667 2:-0.030539 3:-0.452333 
1 1:-1 2:-0.20107 3:-0.408574 
-1 1:-1 2:-0.93417 3:-0.388956 
1 1:-0.166667 2:-1 3:-0.846686 
1 1:0.166667 2:-0.359559 3:-0.436269 
-1 1:0.333333 2:-0.52775 3:-0.379345 
1 1:0.666667 2:-0.86635 3:-0.470865 
0.5793314367067459 1:0.333333 2:1 3:-0.382943 
1 1:0.666667 2:-0.848168 3:-0.503926 
-1 1:-0.5 2:-0.759482 3:-0.317626 
-1 1:-0.166667 2:-0.815739 3:-0.681675 
1 1:-0.333333 2:-0.82818 3:-0.273992 
-1 1:0.166667 2:-0.053296 3:-0.534191 
-1 1:-0.5 2:-0.833631 3:-0.46764 
1 1:-1 2:-0.705844 3:-0.494245 
0.09950070727349067 1:-0.166667 2:-0.509602 3:-0.506916 
-1 1:-0.5 2:-0.883112 3:-0.793579 
1 1:-0.5 2:-0.813018 3:-0.40729 
