svm_type nu_svr
kernel_type rbf
gamma 0.25
nr_class 2
total_sv 62
rho 0.190666
SV
1 1:-1 2:1 3:-0.625535 4:-0.685075 
1 1:-1 2:1 3:-0.724138 4:-0.352737 
-1 1:-1 2:1 3:-0.716794 4:-0.488633 
1 1:-1 2:1 3:-0.965184 4:-0.470295 
1 1:-1 2:1 3:-0.958853 4:-0.174405 
1 1:-1 2:1 3:-0.933121 4:-0.231998 
-1 1:-1 2:1 3:-0.832138 4:-0.737549 
0.5864935069719449 1:-1 2:1 3:-0.939254 4:-0.563308 
1 1:-1 2:1 3:-0.956936 4:-0.639346 
0.437227914313752 1:-1 2:1 3:-0.724138 4:-0.352737 
-0.08571104876252268 1:-1 2:1 3:-0.868644 4:0.043854 
1 1:-1 2:1 3:-0.807677 4:-0.442876 
-1 1:-1 2:1 3:0.053178 4:-0.573139 
-1 1:-1 2:1 3:-0.937233 4:-0.702391 
-1 1:-1 2:1 3:-0.966757 4:-0.910516 
-1 1:-1 2:-1 3:-0.729103 4:-0.414079 
1 1:-1 2:1 3:-0.761987 4:-0.348415 
-1 1:-1 2:1 3:-0.711404 4:-0.686475 
-1 1:-1 2:-1 3:-0.965421 4:-0.991567 
-0.3767650741636506 1:-1 2:-1 3:-0.876791 4:-0.405977 
1 1:-1 2:-1 3:-0.928249 4:-0.054008 
-1 1:-1 2:1 3:-0.681721 4:-0.627403 
1 1:-1 2:-1 3:-0.859541 4:-0.493746 
1 1:-1 2:1 3:-0.920273 4:-0.650517 
-1 1:-1 2:1 3:0.406689 4:-0.978478 
-1 1:-1 2:1 3:-0.866507 4:1 
1 1:-1 2:1 3:0.205108 4:-0.514096 
-1 1:-1 2:1 3:-0.906343 4:-0.352926 
-1 1:-1 2:1 3:-0.967825 4:-0.222144 
-1 1:1 2:1 3:-0.85762 4:-0.588211 
1 1:1 2:1 3:-0.871561 4:-0.6256 
-1 1:1 2:1 3:-0.770401 4:-0.638231 
1 1:1 2:1 3:-0.878709 4:-0.870802 
-1 1:1 2:1 3:-0.803147 4:-0.693321 
1 1:1 2:1 3:-0.80325 4:-0.747894 
1 1:1 2:-1 3:-0.30396 4:-0.584429 
1 1:1 2:1 3:-0.855848 4:-0.802744 
0.1980855842786677 1:1 2:1 3:0.88062 4:-0.218426 
-1 1:1 2:1 3:-0.834994 4:-0.810245 
-1 1:1 2:1 3:-0.853014 4:-0.778015 
-1 1:1 2:-1 3:-0.896052 4:-0.771454 
-1 1:1 2:1 3:-0.193826 4:-0.659505 
-0.5105978373274257 1:1 2:1 3:-0.000806 4:-0.849922 
1 1:1 2:1 3:-0.030539 4:-0.689745 
1 1:1 2:1 3:-0.20107 4:-0.835969 
-0.8237237151231472 1:1 2:1 3:-0.93417 4:-0.73218 
-0.203202324623254 1:1 2:-1 3:-0.94202 4:-0.892958 
0.4285179729231807 1:1 2:-1 3:-0.8452 4:-0.726962 
1 1:1 2:1 3:-1 4:-0.896561 
1 1:1 2:1 3:-0.359559 4:-0.852637 
-1 1:1 2:1 3:-0.52775 4:-0.727626 
1 1:1 2:1 3:-0.86635 4:-0.772226 
0.3496750215124546 1:1 2:1 3:1 4:-0.767455 
1 1:1 2:1 3:-0.848168 4:-0.833465 
-1 1:1 2:1 3:-0.759482 4:-0.788365 
-1 1:1 2:1 3:-0.815739 4:-0.891488 
1 1:1 2:1 3:-0.82818 4:-0.839894 
-1 1:1 2:1 3:-0.053296 4:-0.674094 
-1 1:1 2:1 3:-0.833631 4:-0.775561 
1 1:1 2:1 3:-0.705844 4:-0.76648 
-1 1:1 2:1 3:-0.883112 4:-0.941977 
1 1:1 2:1 3:-0.813018 4:-0.790394 
