svm_type nu_svr
kernel_type rbf
gamma 0.25
nr_class 2
total_sv 62
rho 0.0941702
SV
1 1:-1 2:-1 3:-0.625535 4:0.183673 
1 1:-1 2:-1 3:-0.724138 4:-0.22449 
-1 1:-1 2:-1 3:-0.729103 4:0.142857 
1 1:-1 2:0.166667 3:-0.956386 4:-0.542857 
-1 1:-1 2:1 3:-0.934617 4:0.428571 
1 1:-1 2:0.166667 3:-0.817005 4:-0.771429 
1 1:-1 2:0.333333 3:-0.933121 4:0.183673 
-1 1:-1 2:0.166667 3:-0.832138 4:-0.102041 
1 1:-1 2:-1 3:-0.939254 4:-0.714286 
1 1:-1 2:-1 3:-0.724138 4:-0.22449 
0.550895288783843 1:-1 2:-1 3:-0.957684 4:-0.346939 
1 1:-1 2:-1 3:-0.807677 4:-0.061225 
-1 1:-1 2:-0.666667 3:0.053178 4:-0.885714 
0.3323555365311078 1:-1 2:-0.166667 3:-0.964053 4:-0.159184 
-1 1:-1 2:-1 3:-0.937233 4:-0.265306 
-1 1:-1 2:-1 3:-0.729103 4:0.142857 
1 1:-1 2:0.666667 3:-0.761987 4:1 
-0.9386344273354151 1:-1 2:0.666667 3:-0.711404 4:-1 
-0.3471173498310622 1:-1 2:-1 3:0.145628 4:-0.428571 
-1 1:-1 2:0.666667 3:-0.965421 4:-1 
-1 1:-1 2:-0.333333 3:-0.876791 4:-0.142857 
-1 1:-1 2:-0.666667 3:-0.681721 4:-0.22449 
0.6140916994477593 1:-1 2:-0.666667 3:-0.920273 4:0.673469 
-1 1:-1 2:-0.333333 3:0.406689 4:-0.55102 
-1 1:-1 2:-1 3:-0.866507 4:-0.314286 
1 1:-1 2:0.5 3:-0.767319 4:0.053061 
1 1:-1 2:-0.666667 3:0.205108 4:-0.338776 
-0.279889210422116 1:-1 2:1 3:-0.906343 4:-0.020408 
1 1:1 2:-0.5 3:-0.770592 4:-0.469388 
-1 1:1 2:-0.166667 3:-0.85762 4:-0.142857 
1 1:1 2:-0.166667 3:-0.871561 4:0.183673 
-1 1:1 2:-0.166667 3:-0.770401 4:-0.714286 
-0.5757468469133641 1:1 2:-1 3:-0.983226 4:0.591837 
1 1:1 2:0.333333 3:-0.878709 4:-0.22449 
-1 1:1 2:-1 3:-0.803147 4:0.020408 
0.1232750683794688 1:1 2:-1 3:-0.900937 4:-0.387755 
1 1:1 2:-1 3:-0.80325 4:0.102041 
1 1:1 2:-1 3:-0.30396 4:0.102041 
1 1:1 2:-0.166667 3:-0.855848 4:-0.061225 
-0.8586121654980428 1:1 2:-1 3:-0.834994 4:-0.22449 
-1 1:1 2:0.333333 3:-0.853014 4:0.102041 
-1 1:1 2:-0.666667 3:-0.896052 4:-0.306122 
-1 1:1 2:-1 3:-0.193826 4:-0.55102 
1 1:1 2:-0.166667 3:-0.030539 4:-0.755102 
1 1:1 2:-1 3:-0.20107 4:-0.632653 
-1 1:1 2:-1 3:-0.94202 4:0.102041 
1 1:1 2:-0.666667 3:-0.8452 4:-0.591837 
0.6369468653176504 1:1 2:-0.166667 3:-1 4:0.346939 
1 1:1 2:0.166667 3:-0.359559 4:-0.387755 
-1 1:1 2:0.333333 3:-0.52775 4:-0.55102 
1 1:1 2:0.666667 3:-0.86635 4:-0.22449 
0.01304746668426456 1:1 2:0.333333 3:1 4:0.265306 
0.729388074855906 1:1 2:0.666667 3:-0.848168 4:0.020408 
-1 1:1 2:-0.5 3:-0.759482 4:-0.093878 
-1 1:1 2:-0.166667 3:-0.815739 4:0.020408 
-1 1:1 2:0.666667 3:-0.954627 4:0.102041 
1 1:1 2:-0.333333 3:-0.82818 4:-0.142857 
-1 1:1 2:0.166667 3:-0.053296 4:-0.061225 
-1 1:1 2:-0.5 3:-0.833631 4:-0.387755 
1 1:1 2:-1 3:-0.705844 4:-0.183673 
-1 1:1 2:-0.5 3:-0.883112 4:-0.265306 
1 1:1 2:-0.5 3:-0.813018 4:0.428571 
