svm_type nu_svr
kernel_type rbf
gamma 0.25
nr_class 2
total_sv 63
rho 0.0749784
SV
0.1488844251639496 1:-1 2:-1 3:1 4:0.183673 
1 1:-1 2:-1 3:1 4:-0.22449 
-0.02493803512489169 1:-1 2:-1 3:-1 4:0.142857 
1 1:-1 2:0.166667 3:1 4:-0.542857 
1 1:-1 2:0.166667 3:1 4:-0.771429 
1 1:-1 2:0.333333 3:1 4:0.183673 
-1 1:-1 2:0.166667 3:1 4:-0.102041 
1 1:-1 2:-1 3:1 4:-0.714286 
1 1:-1 2:-1 3:1 4:-0.22449 
0.6636500024917664 1:-1 2:-1 3:1 4:-0.346939 
-0.4775876730375606 1:-1 2:-0.666667 3:1 4:0.061225 
1 1:-1 2:-1 3:1 4:-0.061225 
-1 1:-1 2:-0.666667 3:1 4:-0.885714 
-1 1:-1 2:-1 3:1 4:-0.265306 
-1 1:-1 2:-1 3:1 4:-0.795918 
-1 1:-1 2:-1 3:-1 4:0.142857 
0.7936931157084787 1:-1 2:0.666667 3:1 4:1 
-1 1:-1 2:0.666667 3:1 4:-1 
-0.5284216695029024 1:-1 2:0.666667 3:-1 4:-1 
-0.9346121435698673 1:-1 2:-0.333333 3:-1 4:-0.142857 
1 1:-1 2:-0.333333 3:-1 4:0.510204 
-1 1:-1 2:-0.666667 3:1 4:-0.22449 
1 1:-1 2:-0.666667 3:-1 4:-0.061225 
-1 1:-1 2:-0.333333 3:1 4:-0.55102 
-1 1:-1 2:-1 3:1 4:-0.314286 
0.3458066420671547 1:-1 2:0.5 3:1 4:0.053061 
1 1:-1 2:-0.666667 3:1 4:-0.338776 
-1 1:-1 2:1 3:1 4:-0.020408 
1 1:1 2:-0.5 3:1 4:-0.469388 
-1 1:1 2:-0.166667 3:1 4:-0.142857 
1 1:1 2:-0.166667 3:1 4:0.183673 
-1 1:1 2:-0.166667 3:1 4:-0.714286 
-1 1:1 2:-1 3:1 4:0.591837 
1 1:1 2:0.333333 3:1 4:-0.22449 
-1 1:1 2:-1 3:1 4:0.020408 
1 1:1 2:-1 3:1 4:0.102041 
0.07158330824282542 1:1 2:-0.166667 3:-1 4:-0.020408 
1 1:1 2:-1 3:-1 4:0.102041 
1 1:1 2:-0.166667 3:1 4:-0.061225 
1 1:1 2:-1 3:1 4:0.142857 
-1 1:1 2:-1 3:1 4:-0.22449 
-1 1:1 2:0.333333 3:1 4:0.102041 
-1 1:1 2:-0.666667 3:-1 4:-0.306122 
-1 1:1 2:-1 3:1 4:-0.55102 
1 1:1 2:-0.166667 3:1 4:-0.755102 
1 1:1 2:-1 3:1 4:-0.632653 
-0.03444047876477782 1:1 2:-1 3:1 4:0.102041 
-1 1:1 2:-1 3:-1 4:0.102041 
1 1:1 2:-0.666667 3:-1 4:-0.591837 
1 1:1 2:0.166667 3:1 4:-0.387755 
-1 1:1 2:0.333333 3:1 4:-0.55102 
1 1:1 2:0.666667 3:1 4:-0.22449 
0.912262858187144 1:1 2:0.666667 3:1 4:0.020408 
-1 1:1 2:-0.5 3:1 4:-0.093878 
-1 1:1 2:-0.166667 3:1 4:0.020408 
-1 1:1 2:0.666667 3:1 4:0.102041 
1 1:1 2:-0.333333 3:1 4:-0.142857 
-1 1:1 2:0.166667 3:1 4:-0.061225 
-1 1:1 2:-0.5 3:1 4:-0.387755 
1 1:1 2:-1 3:1 4:-0.183673 
0.06411964813868119 1:1 2:-0.166667 3:1 4:-0.387755 
-1 1:1 2:-0.5 3:1 4:-0.265306 
1 1:1 2:-0.5 3:1 4:0.428571 
