svm_type nu_svr
kernel_type rbf
gamma 0.25
nr_class 2
total_sv 61
rho 0.255578
SV
1 1:-1 2:-0.625535 3:-0.209721 4:-0.398258 
1 1:-1 2:-0.724138 3:0.081089 4:-0.605701 
-1 1:-1 2:-0.716794 3:-0.104703 4:-0.771971 
1 1:-1 2:-0.965184 3:0.034352 4:-0.230404 
1 1:-1 2:-0.958853 3:-0.01361 4:-0.179731 
1 1:-1 2:-0.933121 3:-0.219523 4:-0.391924 
-1 1:-1 2:-0.832138 3:-0.318813 4:-0.434679 
1 1:-1 2:-0.939254 3:-0.285251 4:-0.832146 
0.285430292212172 1:-1 2:-0.956936 3:-0.186169 4:-0.2019 
0.3763202303038061 1:-1 2:-0.724138 3:0.081089 4:-0.605701 
1 1:-1 2:-0.957684 3:-0.624437 4:-0.125891 
1 1:-1 2:-0.807677 3:-0.224879 4:-0.30483 
-1 1:-1 2:0.053178 3:0.105986 4:-1 
-0.8007325573648314 1:-1 2:-0.958999 3:-0.018496 4:-0.322249 
-1 1:-1 2:-0.966757 3:-0.708908 4:-0.637371 
-1 1:-1 2:-0.729103 3:-0.500142 4:-0.431512 
1 1:-1 2:-0.761987 3:0.147663 4:-0.124307 
1 1:-1 2:-0.922927 3:-0.18513 4:-0.315914 
-1 1:-1 2:-0.711404 3:-0.358906 4:-0.863816 
-1 1:-1 2:-0.971129 3:-0.004284 4:-0.528108 
-1 1:-1 2:-0.965421 3:-0.902952 4:-0.727633 
-1 1:-1 2:-0.876791 3:-0.090263 4:-0.311164 
-1 1:-1 2:-0.681721 3:0.151769 4:-0.273159 
1 1:-1 2:-0.920273 3:0.379997 4:-0.444181 
-1 1:-1 2:0.406689 3:-0.911733 4:0.233571 
-1 1:-1 2:-0.866507 3:0.460325 4:0.353919 
1 1:-1 2:-0.767319 3:-0.174643 4:-0.714964 
0.826751666741901 1:-1 2:0.205108 3:0.258035 4:0.053048 
-1 1:-1 2:-0.906343 3:-0.080001 4:0.106888 
-1 1:1 2:-0.85762 3:-0.356546 4:0.14331 
1 1:1 2:-0.871561 3:-0.511139 4:-0.022961 
-1 1:1 2:-0.770401 3:-0.301141 4:-0.087886 
1 1:1 2:-0.878709 3:-0.501218 4:-0.016627 
-1 1:1 2:-0.803147 3:-0.7544 4:-0.2019 
1 1:1 2:-0.80325 3:-0.455716 4:0.125891 
0.08323508276564597 1:1 2:-0.436699 3:-0.742215 4:-0.162312 
1 1:1 2:-0.855848 3:-0.473108 4:-0.043547 
0.2962398634112113 1:1 2:0.88062 3:-0.274831 4:1 
-1 1:1 2:-0.834994 3:-0.458311 4:0.045131 
-1 1:1 2:-0.853014 3:-0.542637 4:-0.097387 
-1 1:1 2:-0.896052 3:-0.462484 4:-0.098971 
-1 1:1 2:-0.193826 3:-0.455762 4:0.350752 
-0.1992674426351683 1:1 2:-0.000806 3:-0.560157 4:0.507522 
1 1:1 2:-0.030539 3:-0.452333 4:-0.494854 
1 1:1 2:-0.20107 3:-0.408574 4:-0.141726 
1 1:1 2:-1 3:-0.846686 4:-0.461599 
1 1:1 2:-0.359559 3:-0.436269 4:-0.339667 
-1 1:1 2:-0.52775 3:-0.379345 4:-0.195566 
0.9330434372808116 1:1 2:-0.91916 3:-0.615633 4:-0.509105 
1 1:1 2:-0.86635 3:-0.470865 4:-0.35867 
0.1989794272844518 1:1 2:1 3:-0.382943 4:0.14331 
1 1:1 2:-0.848168 3:-0.503926 4:-0.239905 
-1 1:1 2:-0.759482 3:-0.317626 4:-0.577197 
-1 1:1 2:-0.815739 3:-0.681675 4:-0.312747 
-1 1:1 2:-0.954627 3:-0.34509 4:-0.046714 
1 1:1 2:-0.82818 3:-0.273992 4:-0.049881 
-1 1:1 2:-0.053296 3:-0.534191 4:-0.702296 
-1 1:1 2:-0.833631 3:-0.46764 4:0.002375 
1 1:1 2:-0.705844 3:-0.494245 4:0.065716 
-1 1:1 2:-0.883112 3:-0.793579 4:-0.502771 
1 1:1 2:-0.813018 3:-0.40729 4:0.149644 
