svm_type nu_svr
kernel_type rbf
gamma 0.25
nr_class 2
total_sv 60
rho 0.5314
SV
1 1:-1 2:0.285467 3:-0.209721 4:-0.398258 
1 1:-1 2:0.318339 3:0.081089 4:-0.605701 
-0.547042219268714 1:-1 2:-0.126298 3:-0.104703 4:-0.771971 
1 1:-1 2:0.456747 3:0.034352 4:-0.230404 
1 1:-1 2:-0.015571 3:-0.01361 4:-0.179731 
1 1:-1 2:0.010381 3:-0.219523 4:-0.391924 
-1 1:-1 2:0.095156 3:-0.318813 4:-0.434679 
1 1:-1 2:0.435986 3:-0.285251 4:-0.832146 
1 1:-1 2:0.316609 3:-0.186169 4:-0.2019 
1 1:-1 2:0.655709 3:-0.624437 4:-0.125891 
1 1:-1 2:0.525952 3:-0.224879 4:-0.30483 
-0.8413890656618151 1:-1 2:-1 3:0.105986 4:-1 
-0.04358273621634594 1:-1 2:0.750865 3:-0.018496 4:-0.322249 
-1 1:-1 2:-0.062284 3:-0.324231 4:-0.593032 
-1 1:-1 2:0.709343 3:-0.708908 4:-0.637371 
-1 1:-1 2:0.183391 3:-0.500142 4:-0.431512 
1 1:-1 2:-0.152249 3:0.147663 4:-0.124307 
1 1:-1 2:0.143599 3:-0.18513 4:-0.315914 
-1 1:-1 2:-0.404844 3:-0.358906 4:-0.863816 
-1 1:-1 2:0.088235 3:-0.004284 4:-0.528108 
-1 1:-1 2:0.553633 3:-0.902952 4:-0.727633 
-1 1:-1 2:0.096886 3:-0.090263 4:-0.311164 
-1 1:-1 2:0.197232 3:0.151769 4:-0.273159 
1 1:-1 2:0.351211 3:0.379997 4:-0.444181 
-1 1:-1 2:0.380623 3:-0.911733 4:0.233571 
-1 1:-1 2:0.816609 3:0.460325 4:0.353919 
1 1:-1 2:0.228374 3:-0.174643 4:-0.714964 
-1 1:-1 2:0.813149 3:-0.080001 4:0.106888 
-1 1:1 2:0.581315 3:-0.356546 4:0.14331 
1 1:1 2:-0.202422 3:-0.511139 4:-0.022961 
-1 1:1 2:0.141869 3:-0.301141 4:-0.087886 
1 1:1 2:0.576125 3:-0.501218 4:-0.016627 
-1 1:1 2:-0.029412 3:-0.7544 4:-0.2019 
1 1:1 2:0.480969 3:-0.455716 4:0.125891 
0.3483864445884314 1:1 2:0.128028 3:-0.742215 4:-0.162312 
1 1:1 2:0.408304 3:-0.473108 4:-0.043547 
0.6516135554115688 1:1 2:-0.463668 3:-0.274831 4:1 
-1 1:1 2:0.318339 3:-0.458311 4:0.045131 
-1 1:1 2:0.430796 3:-0.542637 4:-0.097387 
-1 1:1 2:0.256055 3:-0.462484 4:-0.098971 
-1 1:1 2:0.102076 3:-0.455762 4:0.350752 
-0.4081913082726135 1:1 2:0.150519 3:-0.560157 4:0.507522 
1 1:1 2:-0.070934 3:-0.452333 4:-0.494854 
1 1:1 2:0.655709 3:-0.408574 4:-0.141726 
1 1:1 2:0.598616 3:-0.846686 4:-0.461599 
-0.1597946705805111 1:1 2:0.49654 3:-0.417013 4:-0.295329 
1 1:1 2:0.096886 3:-0.436269 4:-0.339667 
-1 1:1 2:0.403114 3:-0.379345 4:-0.195566 
1 1:1 2:0.33218 3:-0.615633 4:-0.509105 
1 1:1 2:0.214533 3:-0.470865 4:-0.35867 
1 1:1 2:0.273356 3:-0.503926 4:-0.239905 
-1 1:1 2:-0.024222 3:-0.317626 4:-0.577197 
-1 1:1 2:0.356401 3:-0.681675 4:-0.312747 
-1 1:1 2:0.610727 3:-0.34509 4:-0.046714 
1 1:1 2:0.17128 3:-0.273992 4:-0.049881 
-1 1:1 2:-0.102076 3:-0.534191 4:-0.702296 
-1 1:1 2:0.33564 3:-0.46764 4:0.002375 
1 1:1 2:0.233564 3:-0.494245 4:0.065716 
-1 1:1 2:0.811419 3:-0.793579 4:-0.502771 
1 1:1 2:0.373702 3:-0.40729 4:0.149644 
