svm_type nu_svr
kernel_type rbf
gamma 0.25
nr_class 2
total_sv 60
rho 0.11141
SV
1 1:-1 2:-1 3:1 4:-0.209721 
-1 1:-1 2:0.166667 3:1 4:-0.104703 
0.9516463028772462 1:-1 2:-0.5 3:1 4:0.034352 
0.4907146283261055 1:-1 2:1 3:-1 4:-0.354214 
1 1:-1 2:-1 3:1 4:-0.01361 
1 1:-1 2:0.333333 3:1 4:-0.219523 
-1 1:-1 2:0.166667 3:1 4:-0.318813 
0.1169438355268193 1:-1 2:-1 3:1 4:-0.285251 
1 1:-1 2:0.166667 3:1 4:-0.186169 
1 1:-1 2:-1 3:1 4:-0.624437 
1 1:-1 2:-1 3:1 4:-0.224879 
-1 1:-1 2:-0.666667 3:1 4:0.105986 
-1 1:-1 2:-1 3:1 4:-0.729894 
-1 1:-1 2:-1 3:1 4:-0.324231 
-0.8024529801720089 1:-1 2:0.833333 3:1 4:-0.708908 
-1 1:-1 2:-1 3:-1 4:-0.500142 
1 1:-1 2:0.666667 3:1 4:0.147663 
1 1:-1 2:0.666667 3:1 4:-0.18513 
-1 1:-1 2:0.666667 3:1 4:-0.358906 
-1 1:-1 2:0.666667 3:-1 4:-0.902952 
-1 1:-1 2:-0.333333 3:-1 4:-0.090263 
1 1:-1 2:-0.333333 3:-1 4:-0.256483 
-1 1:-1 2:-0.666667 3:1 4:0.151769 
0.9927087805002694 1:-1 2:-0.666667 3:-1 4:0.08501 
1 1:-1 2:-0.666667 3:1 4:0.379997 
-1 1:-1 2:-0.333333 3:1 4:-0.911733 
-1 1:-1 2:-1 3:1 4:0.460325 
1 1:-1 2:0.5 3:1 4:-0.174643 
-1 1:-1 2:1 3:1 4:-0.080001 
-1 1:1 2:-0.166667 3:1 4:-0.356546 
1 1:1 2:-0.166667 3:1 4:-0.511139 
-1 1:1 2:-0.166667 3:1 4:-0.301141 
1 1:1 2:0.333333 3:1 4:-0.501218 
-0.9245442075674708 1:1 2:-1 3:1 4:-0.7544 
1 1:1 2:-1 3:1 4:-0.455716 
0.6731824050061909 1:1 2:-0.166667 3:-1 4:-0.742215 
0.5469143038979125 1:1 2:-1 3:-1 4:0.04585 
1 1:1 2:-0.166667 3:1 4:-0.473108 
0.3523135471498144 1:1 2:-1 3:1 4:-0.274831 
-1 1:1 2:-1 3:1 4:-0.458311 
-1 1:1 2:0.333333 3:1 4:-0.542637 
-1 1:1 2:-0.666667 3:-1 4:-0.462484 
-1 1:1 2:-1 3:1 4:-0.455762 
1 1:1 2:-0.166667 3:1 4:-0.452333 
1 1:1 2:-1 3:1 4:-0.408574 
1 1:1 2:-0.166667 3:1 4:-0.846686 
-0.2730028122605203 1:1 2:-0.166667 3:1 4:-0.417013 
1 1:1 2:0.166667 3:1 4:-0.436269 
-1 1:1 2:0.333333 3:1 4:-0.379345 
1 1:1 2:0.666667 3:1 4:-0.470865 
0.8755761967156415 1:1 2:0.666667 3:1 4:-0.503926 
-1 1:1 2:-0.5 3:1 4:-0.317626 
-1 1:1 2:-0.166667 3:1 4:-0.681675 
-1 1:1 2:0.666667 3:1 4:-0.34509 
1 1:1 2:-0.333333 3:1 4:-0.273992 
-1 1:1 2:0.166667 3:1 4:-0.534191 
-1 1:1 2:-0.5 3:1 4:-0.46764 
1 1:1 2:-1 3:1 4:-0.494245 
-1 1:1 2:-0.5 3:1 4:-0.793579 
1 1:1 2:-0.5 3:1 4:-0.40729 
