svm_type nu_svr
kernel_type rbf
gamma 0.25
nr_class 2
total_sv 61
rho 0.201048
SV
1 1:-0.625535 2:0.285467 3:-0.398258 4:-0.246048 
1 1:-0.724138 2:0.318339 3:-0.605701 4:-0.514521 
-0.381852078565426 1:-0.729103 2:0.183391 3:-0.431512 4:-0.277424 
1 1:-0.956386 2:0.785467 3:-0.572447 4:-0.299265 
1 1:-0.965184 2:0.456747 3:-0.230404 4:0.082356 
1 1:-0.958853 2:-0.015571 3:-0.179731 4:0.031133 
1 1:-0.933121 2:0.010381 3:-0.391924 4:-0.214234 
-1 1:-0.832138 2:0.095156 3:-0.434679 4:-0.519142 
1 1:-0.939254 2:0.435986 3:-0.832146 4:-0.535098 
1 1:-0.956936 2:0.316609 3:-0.2019 4:0.105803 
1 1:-0.724138 2:0.318339 3:-0.605701 4:-0.514521 
0.4916189108821526 1:-0.957684 2:0.655709 3:-0.125891 4:0.068736 
1 1:-0.807677 2:0.525952 3:-0.30483 4:-0.247118 
-0.4484985443443718 1:0.053178 2:-1 3:-1 4:-1 
1 1:-0.922482 2:0.66436 3:-0.179731 4:0.139466 
-1 1:-0.937233 2:0.344291 3:-0.700713 4:-0.171474 
-1 1:-0.966757 2:0.709343 3:-0.637371 4:-0.373741 
-1 1:-0.729103 2:0.183391 3:-0.431512 4:-0.277424 
1 1:-0.894918 2:0.583045 3:-0.564529 4:-0.34003 
1 1:-0.761987 2:-0.152249 3:-0.124307 4:-0.064649 
1 1:-0.922927 2:0.143599 3:-0.315914 4:0.07253 
-1 1:-0.711404 2:-0.404844 3:-0.863816 4:-0.869631 
-1 1:-0.965421 2:0.553633 3:-0.727633 4:-0.439704 
-1 1:-0.876791 2:0.096886 3:-0.311164 4:-0.161405 
1 1:-0.928249 2:0.524221 3:-0.403009 4:-0.055261 
1 1:-0.920273 2:0.351211 3:-0.444181 4:-0.247556 
1 1:-0.974102 2:0.790657 3:0.106888 4:0.810527 
-1 1:0.406689 2:0.380623 3:0.233571 4:0.024323 
-1 1:-0.866507 2:0.816609 3:0.353919 4:0.776135 
1 1:-0.767319 2:0.228374 3:-0.714964 4:-0.635355 
1 1:0.205108 2:0.121107 3:0.053048 4:0.004719 
-1 1:-0.85762 2:0.581315 3:0.14331 4:0.020771 
1 1:-0.871561 2:-0.202422 3:-0.022961 4:0.139806 
-1 1:-0.770401 2:0.141869 3:-0.087886 4:-0.179452 
-1 1:-0.983226 2:0.631488 3:-0.357086 4:0.005254 
1 1:-0.878709 2:0.576125 3:-0.016627 4:-0.182809 
-1 1:-0.803147 2:-0.029412 3:-0.2019 4:0.170356 
1 1:-0.80325 2:0.480969 3:0.125891 4:0.34003 
0.1471999411458295 1:0.88062 2:-0.463668 3:1 4:0.362018 
-1 1:-0.834994 2:0.318339 3:0.045131 4:-0.108722 
-1 1:-0.853014 2:0.430796 3:-0.097387 4:-0.013037 
-1 1:-0.896052 2:0.256055 3:-0.098971 4:-0.106679 
-1 1:-0.193826 2:0.102076 3:0.350752 4:0.347084 
1 1:-0.030539 2:-0.070934 3:-0.494854 4:-0.574257 
-1 1:-0.94202 2:0.32699 3:-0.545527 4:-0.185241 
-1 1:-0.894677 2:0.359862 3:-0.555028 4:-0.34256 
-1 1:-0.704392 2:0.49654 3:-0.295329 4:-0.039986 
0.5446844373462502 1:-0.359559 2:0.096886 3:-0.339667 4:-0.412074 
-1 1:-0.52775 2:0.403114 3:-0.195566 4:-0.316729 
1 1:-0.86635 2:0.214533 3:-0.35867 4:-0.32135 
0.5659180714512594 1:1 2:0.107266 3:0.14331 4:-0.172399 
-0.1696493770902022 1:-0.887492 2:0.131488 3:-0.562945 4:-0.252031 
-1 1:-0.759482 2:-0.024222 3:-0.577197 4:-0.587294 
-1 1:-0.815739 2:0.356401 3:-0.312747 4:0.011626 
-1 1:-0.954627 2:0.610727 3:-0.046714 4:0.562631 
1 1:-0.82818 2:0.17128 3:-0.049881 4:-0.276889 
-1 1:-0.053296 2:-0.102076 3:-0.702296 4:-0.562242 
-1 1:-0.833631 2:0.33564 3:0.002375 4:0.077638 
0.2505786391745083 1:-0.705844 2:0.233564 3:0.065716 4:0.140439 
-1 1:-0.883112 2:0.811419 3:-0.502771 4:-0.17989 
1 1:-0.813018 2:0.373702 3:0.149644 4:0.14939 
