svm_type nu_svr
kernel_type rbf
gamma 0.25
nr_class 2
total_sv 61
rho 0.253504
SV
1 1:1 2:-0.625535 3:0.285467 4:-0.398258 
1 1:1 2:-0.724138 3:0.318339 4:-0.605701 
1 1:1 2:-0.956386 3:0.785467 4:-0.572447 
1 1:1 2:-0.965184 3:0.456747 4:-0.230404 
1 1:1 2:-0.958853 3:-0.015571 4:-0.179731 
1 1:1 2:-0.933121 3:0.010381 4:-0.391924 
-1 1:1 2:-0.832138 3:0.095156 4:-0.434679 
1 1:1 2:-0.939254 3:0.435986 4:-0.832146 
1 1:1 2:-0.956936 3:0.316609 4:-0.2019 
1 1:1 2:-0.724138 3:0.318339 4:-0.605701 
1 1:1 2:-0.807677 3:0.525952 4:-0.30483 
-0.5917520617864506 1:1 2:0.053178 3:-1 4:-1 
0.12082014201332 1:1 2:-0.922482 3:0.66436 4:-0.179731 
-1 1:1 2:-0.937233 3:0.344291 4:-0.700713 
-1 1:1 2:-0.966757 3:0.709343 4:-0.637371 
-1 1:-1 2:-0.729103 3:0.183391 4:-0.431512 
1 1:1 2:-0.894918 3:0.583045 4:-0.564529 
1 1:1 2:-0.761987 3:-0.152249 4:-0.124307 
1 1:1 2:-0.922927 3:0.143599 4:-0.315914 
-1 1:1 2:-0.711404 3:-0.404844 4:-0.863816 
-1 1:-1 2:-0.965421 3:0.553633 4:-0.727633 
1 1:-1 2:-0.928249 3:0.524221 4:-0.403009 
1 1:-1 2:-0.859541 3:0.709343 4:-0.290578 
1 1:1 2:-0.920273 3:0.351211 4:-0.444181 
1 1:1 2:-0.974102 3:0.790657 4:0.106888 
-1 1:1 2:0.406689 3:0.380623 4:0.233571 
-1 1:1 2:-0.866507 3:0.816609 4:0.353919 
1 1:1 2:-0.767319 3:0.228374 4:-0.714964 
1 1:1 2:0.205108 3:0.121107 4:0.053048 
-0.4082479382135493 1:1 2:-0.906343 3:0.813149 4:0.106888 
-1 1:1 2:-0.85762 3:0.581315 4:0.14331 
1 1:1 2:-0.871561 3:-0.202422 4:-0.022961 
-1 1:1 2:-0.770401 3:0.141869 4:-0.087886 
-1 1:1 2:-0.826473 3:-0.088235 4:-0.374505 
-1 1:1 2:-0.983226 3:0.631488 4:-0.357086 
1 1:1 2:-0.878709 3:0.576125 4:-0.016627 
-1 1:1 2:-0.803147 3:-0.029412 4:-0.2019 
1 1:1 2:-0.80325 3:0.480969 4:0.125891 
0.3160627488250551 1:-1 2:-0.436699 3:0.128028 4:-0.162312 
0.6018329431361662 1:-1 2:-0.30396 3:0.641869 4:-0.059382 
0.08316212019038915 1:1 2:0.88062 3:-0.463668 4:1 
-1 1:1 2:-0.834994 3:0.318339 4:0.045131 
-1 1:1 2:-0.853014 3:0.430796 4:-0.097387 
-1 1:-1 2:-0.896052 3:0.256055 4:-0.098971 
-1 1:1 2:-0.193826 3:0.102076 4:0.350752 
1 1:1 2:-0.030539 3:-0.070934 4:-0.494854 
-1 1:1 2:-0.894677 3:0.359862 4:-0.555028 
-1 1:1 2:-0.704392 3:0.49654 4:-0.295329 
-1 1:1 2:-0.52775 3:0.403114 4:-0.195566 
0.2988579403900534 1:1 2:-0.86635 3:0.214533 4:-0.35867 
0.6818331059051042 1:1 2:1 3:0.107266 4:0.14331 
-1 1:1 2:-0.887492 3:0.131488 4:-0.562945 
-1 1:1 2:-0.759482 3:-0.024222 4:-0.577197 
-1 1:1 2:-0.815739 3:0.356401 4:-0.312747 
-1 1:1 2:-0.954627 3:0.610727 4:-0.046714 
1 1:1 2:-0.82818 3:0.17128 4:-0.049881 
-1 1:1 2:-0.053296 3:-0.102076 4:-0.702296 
-1 1:1 2:-0.833631 3:0.33564 4:0.002375 
0.897430999539912 1:1 2:-0.705844 3:0.233564 4:0.065716 
-1 1:1 2:-0.883112 3:0.811419 4:-0.502771 
1 1:1 2:-0.813018 3:0.373702 4:0.149644 
