svm_type nu_svr
kernel_type rbf
gamma 0.25
nr_class 2
total_sv 60
rho 0.397779
SV
1 1:1 2:-0.625535 3:-0.685075 4:-0.398258 
1 1:1 2:-0.724138 3:-0.352737 4:-0.605701 
-1 1:1 2:-0.716794 3:-0.488633 4:-0.771971 
1 1:1 2:-0.965184 3:-0.470295 4:-0.230404 
0.3445732734407008 1:1 2:-0.958853 3:-0.174405 4:-0.179731 
1 1:1 2:-0.933121 3:-0.231998 4:-0.391924 
-1 1:1 2:-0.832138 3:-0.737549 4:-0.434679 
1 1:1 2:-0.939254 3:-0.563308 4:-0.832146 
1 1:1 2:-0.956936 3:-0.639346 4:-0.2019 
1 1:1 2:-0.724138 3:-0.352737 4:-0.605701 
1 1:1 2:-0.807677 3:-0.442876 4:-0.30483 
-1 1:1 2:0.053178 3:-0.573139 4:-1 
-1 1:1 2:-0.937233 3:-0.702391 4:-0.700713 
-1 1:1 2:-0.966757 3:-0.910516 4:-0.637371 
-1 1:-1 2:-0.729103 3:-0.414079 4:-0.431512 
1 1:1 2:-0.761987 3:-0.348415 4:-0.124307 
-1 1:1 2:-0.711404 3:-0.686475 4:-0.863816 
-1 1:-1 2:-0.965421 3:-0.991567 4:-0.727633 
-1 1:-1 2:-0.876791 3:-0.405977 4:-0.311164 
1 1:-1 2:-0.928249 3:-0.054008 4:-0.403009 
1 1:-1 2:-0.859541 3:-0.493746 4:-0.290578 
1 1:1 2:-0.920273 3:-0.650517 4:-0.444181 
-1 1:1 2:0.406689 3:-0.978478 4:0.233571 
-1 1:1 2:-0.866507 3:1 4:0.353919 
1 1:1 2:-0.767319 3:-0.725396 4:-0.714964 
0.7629268375324775 1:1 2:0.205108 3:-0.514096 4:0.053048 
-1 1:1 2:-0.906343 3:-0.352926 4:0.106888 
-1 1:1 2:-0.85762 3:-0.588211 4:0.14331 
1 1:1 2:-0.871561 3:-0.6256 4:-0.022961 
-1 1:1 2:-0.770401 3:-0.638231 4:-0.087886 
-0.7692687840054181 1:1 2:-0.983226 3:-0.86243 4:-0.357086 
1 1:1 2:-0.878709 3:-0.870802 4:-0.016627 
-1 1:1 2:-0.803147 3:-0.693321 4:-0.2019 
1 1:1 2:-0.80325 3:-0.747894 4:0.125891 
1 1:-1 2:-0.436699 3:-0.885588 4:-0.162312 
0.4058782565365583 1:-1 2:-0.30396 3:-0.584429 4:-0.059382 
1 1:1 2:-0.855848 3:-0.802744 4:-0.043547 
0.007240296539549872 1:1 2:0.88062 3:-0.218426 4:1 
-1 1:1 2:-0.834994 3:-0.810245 4:0.045131 
-1 1:1 2:-0.853014 3:-0.778015 4:-0.097387 
-1 1:-1 2:-0.896052 3:-0.771454 4:-0.098971 
-1 1:1 2:-0.193826 3:-0.659505 4:0.350752 
1 1:1 2:-0.030539 3:-0.689745 4:-0.494854 
-0.2307312159945819 1:1 2:-0.93417 3:-0.73218 4:0.830562 
0.6107686427740533 1:-1 2:-0.8452 3:-0.726962 4:-0.092637 
1 1:1 2:-1 3:-0.896561 4:-0.461599 
-1 1:1 2:-0.704392 3:-0.739317 4:-0.295329 
1 1:1 2:-0.359559 3:-0.852637 4:-0.339667 
-1 1:1 2:-0.52775 3:-0.727626 4:-0.195566 
1 1:1 2:-0.86635 3:-0.772226 4:-0.35867 
0.9073920778774778 1:1 2:1 3:-0.767455 4:0.14331 
-1 1:1 2:-0.759482 3:-0.788365 4:-0.577197 
-1 1:1 2:-0.815739 3:-0.891488 4:-0.312747 
-1 1:1 2:-0.954627 3:-0.796179 4:-0.046714 
1 1:1 2:-0.82818 3:-0.839894 4:-0.049881 
-1 1:1 2:-0.053296 3:-0.674094 4:-0.702296 
-1 1:1 2:-0.833631 3:-0.775561 4:0.002375 
0.9612206152991828 1:1 2:-0.705844 3:-0.76648 4:0.065716 
-1 1:1 2:-0.883112 3:-0.941977 4:-0.502771 
1 1:1 2:-0.813018 3:-0.790394 4:0.149644 
