svm_type nu_svr
kernel_type rbf
gamma 0.25
nr_class 2
total_sv 60
rho 0.519015
SV
1 1:-1 2:0.285467 3:-0.685075 4:-0.209721 
1 1:-1 2:0.318339 3:-0.352737 4:0.081089 
-0.8055515548573388 1:-1 2:0.183391 3:-0.414079 4:-0.500142 
-1 1:0.166667 2:-0.126298 3:-0.488633 4:-0.104703 
1 1:-0.5 2:0.456747 3:-0.470295 4:0.034352 
1 1:-1 2:-0.015571 3:-0.174405 4:-0.01361 
1 1:0.333333 2:0.010381 3:-0.231998 4:-0.219523 
-1 1:0.166667 2:0.095156 3:-0.737549 4:-0.318813 
1 1:-1 2:0.435986 3:-0.563308 4:-0.285251 
1 1:0.166667 2:0.316609 3:-0.639346 4:-0.186169 
1 1:-1 2:0.655709 3:-0.674198 4:-0.624437 
1 1:-1 2:0.525952 3:-0.442876 4:-0.224879 
-1 1:-0.666667 2:-1 3:-0.573139 4:0.105986 
-1 1:-1 2:-0.062284 3:-0.791651 4:-0.324231 
-0.5864377936810291 1:0.833333 2:0.709343 3:-0.910516 4:-0.708908 
-1 1:-1 2:0.183391 3:-0.414079 4:-0.500142 
1 1:0.666667 2:-0.152249 3:-0.348415 4:0.147663 
1 1:0.666667 2:0.143599 3:-0.321028 4:-0.18513 
-1 1:0.666667 2:-0.404844 3:-0.686475 4:-0.358906 
-0.9257725976772249 1:1 2:0.088235 3:-0.20182 4:-0.004284 
-1 1:0.666667 2:0.553633 3:-0.991567 4:-0.902952 
-1 1:-0.333333 2:0.096886 3:-0.405977 4:-0.090263 
-1 1:-0.666667 2:0.197232 3:-0.627403 4:0.151769 
1 1:-0.666667 2:0.351211 3:-0.650517 4:0.379997 
0.142603691395582 1:-0.166667 2:0.790657 3:-0.526912 4:-0.006591 
-1 1:-0.333333 2:0.380623 3:-0.978478 4:-0.911733 
-1 1:-1 2:0.816609 3:1 4:0.460325 
1 1:0.5 2:0.228374 3:-0.725396 4:-0.174643 
-0.6822380537844074 1:1 2:0.813149 3:-0.352926 4:-0.080001 
-1 1:-0.166667 2:0.581315 3:-0.588211 4:-0.356546 
1 1:-0.166667 2:-0.202422 3:-0.6256 4:-0.511139 
-1 1:-0.166667 2:0.141869 3:-0.638231 4:-0.301141 
1 1:0.333333 2:0.576125 3:-0.870802 4:-0.501218 
1 1:-1 2:0.480969 3:-0.747894 4:-0.455716 
1 1:-0.166667 2:0.128028 3:-0.885588 4:-0.742215 
1 1:-0.166667 2:0.408304 3:-0.802744 4:-0.473108 
1 1:-1 2:-0.463668 3:-0.218426 4:-0.274831 
-1 1:-1 2:0.318339 3:-0.810245 4:-0.458311 
-1 1:0.333333 2:0.430796 3:-0.778015 4:-0.542637 
-1 1:-0.666667 2:0.256055 3:-0.771454 4:-0.462484 
-1 1:-1 2:0.102076 3:-0.659505 4:-0.455762 
1 1:-0.166667 2:-0.070934 3:-0.689745 4:-0.452333 
-1 1:-1 2:0.543253 3:-0.73218 4:-0.388956 
1 1:-0.166667 2:0.598616 3:-0.896561 4:-0.846686 
0.11545582243159 1:-0.833333 2:0.576125 3:-0.964458 4:-1 
-1 1:-0.166667 2:0.49654 3:-0.739317 4:-0.417013 
1 1:0.166667 2:0.096886 3:-0.852637 4:-0.436269 
-1 1:0.333333 2:0.403114 3:-0.727626 4:-0.379345 
0.6247674197163988 1:0.666667 2:0.33218 3:-0.776934 4:-0.615633 
1 1:0.666667 2:0.214533 3:-0.772226 4:-0.470865 
0.1171730664564295 1:0.333333 2:0.107266 3:-0.767455 4:-0.382943 
1 1:0.666667 2:0.273356 3:-0.833465 4:-0.503926 
-1 1:-0.5 2:-0.024222 3:-0.788365 4:-0.317626 
-1 1:-0.166667 2:0.356401 3:-0.891488 4:-0.681675 
1 1:-0.333333 2:0.17128 3:-0.839894 4:-0.273992 
-1 1:0.166667 2:-0.102076 3:-0.674094 4:-0.534191 
-1 1:-0.5 2:0.33564 3:-0.775561 4:-0.46764 
1 1:-1 2:0.233564 3:-0.76648 4:-0.494245 
-1 1:-0.5 2:0.811419 3:-0.941977 4:-0.793579 
1 1:-0.5 2:0.373702 3:-0.790394 4:-0.40729 
