svm_type nu_svr
kernel_type rbf
gamma 0.25
nr_class 2
total_sv 59
rho 0.302535
SV
1 1:-1 2:1 3:-0.209721 4:-0.398258 
0.8664017990929019 1:-1 2:1 3:0.081089 4:-0.605701 
-1 1:0.166667 2:1 3:-0.104703 4:-0.771971 
1 1:-0.5 2:1 3:0.034352 4:-0.230404 
1 1:-1 2:1 3:-0.01361 4:-0.179731 
1 1:0.333333 2:1 3:-0.219523 4:-0.391924 
-1 1:0.166667 2:1 3:-0.318813 4:-0.434679 
1 1:-1 2:1 3:-0.285251 4:-0.832146 
1 1:0.166667 2:1 3:-0.186169 4:-0.2019 
1 1:-1 2:1 3:-0.624437 4:-0.125891 
1 1:-1 2:1 3:-0.224879 4:-0.30483 
-1 1:-0.666667 2:1 3:0.105986 4:-1 
-1 1:-1 2:1 3:-0.324231 4:-0.593032 
-0.7990182373627513 1:0.833333 2:1 3:-0.708908 4:-0.637371 
-1 1:-1 2:-1 3:-0.500142 4:-0.431512 
1 1:0.666667 2:1 3:0.147663 4:-0.124307 
1 1:0.666667 2:1 3:-0.18513 4:-0.315914 
-1 1:0.666667 2:1 3:-0.358906 4:-0.863816 
-0.7379665195595185 1:0.666667 2:-1 3:-0.902952 4:-0.727633 
-0.7311138518822604 1:-0.333333 2:-1 3:-0.090263 4:-0.311164 
1 1:-0.333333 2:-1 3:-0.256483 4:-0.403009 
-1 1:-0.666667 2:1 3:0.151769 4:-0.273159 
0.4148321734309944 1:-0.666667 2:-1 3:0.08501 4:-0.290578 
1 1:-0.666667 2:1 3:0.379997 4:-0.444181 
-1 1:-0.333333 2:1 3:-0.911733 4:0.233571 
-1 1:-1 2:1 3:0.460325 4:0.353919 
1 1:0.5 2:1 3:-0.174643 4:-0.714964 
-1 1:1 2:1 3:-0.080001 4:0.106888 
-1 1:-0.166667 2:1 3:-0.356546 4:0.14331 
1 1:-0.166667 2:1 3:-0.511139 4:-0.022961 
-1 1:-0.166667 2:1 3:-0.301141 4:-0.087886 
-1 1:-1 2:1 3:-0.511794 4:-0.374505 
1 1:0.333333 2:1 3:-0.501218 4:-0.016627 
-0.7103228014603384 1:-1 2:1 3:-0.7544 4:-0.2019 
1 1:-1 2:1 3:-0.455716 4:0.125891 
1 1:-0.166667 2:-1 3:-0.742215 4:-0.162312 
0.7187660274761034 1:-1 2:-1 3:0.04585 4:-0.059382 
1 1:-0.166667 2:1 3:-0.473108 4:-0.043547 
-1 1:-1 2:1 3:-0.458311 4:0.045131 
-1 1:0.333333 2:1 3:-0.542637 4:-0.097387 
-1 1:-0.666667 2:-1 3:-0.462484 4:-0.098971 
-1 1:-1 2:1 3:-0.455762 4:0.350752 
1 1:-0.166667 2:1 3:-0.452333 4:-0.494854 
1 1:-0.166667 2:1 3:-0.846686 4:-0.461599 
-1 1:-0.166667 2:1 3:-0.417013 4:-0.295329 
-1 1:0.333333 2:1 3:-0.379345 4:-0.195566 
1 1:0.666667 2:1 3:-0.615633 4:-0.509105 
1 1:0.666667 2:1 3:-0.470865 4:-0.35867 
1 1:0.666667 2:1 3:-0.503926 4:-0.239905 
-1 1:-0.5 2:1 3:-0.317626 4:-0.577197 
-1 1:-0.166667 2:1 3:-0.681675 4:-0.312747 
-1 1:0.666667 2:1 3:-0.34509 4:-0.046714 
1 1:-0.333333 2:1 3:-0.273992 4:-0.049881 
-1 1:0.166667 2:1 3:-0.534191 4:-0.702296 
-1 1:-0.5 2:1 3:-0.46764 4:0.002375 
1 1:-1 2:1 3:-0.494245 4:0.065716 
-0.02157858973513153 1:-1 2:1 3:-0.361489 4:-0.19715 
-1 1:-0.5 2:1 3:-0.793579 4:-0.502771 
1 1:-0.5 2:1 3:-0.40729 4:0.149644 
