svm_type nu_svr
kernel_type rbf
gamma 0.2
nr_class 2
total_sv 60
rho 0.206556
SV
1 1:-1 2:-1 3:1 4:-0.685075 5:-0.209721 
-1 1:-1 2:0.166667 3:1 4:-0.488633 5:-0.104703 
0.8725791537429943 1:-1 2:-0.5 3:1 4:-0.470295 5:0.034352 
0.3912844731413228 1:-1 2:-1 3:1 4:-0.174405 5:-0.01361 
1 1:-1 2:0.333333 3:1 4:-0.231998 5:-0.219523 
-1 1:-1 2:0.166667 3:1 4:-0.737549 5:-0.318813 
0.544876610511405 1:-1 2:-1 3:1 4:-0.563308 5:-0.285251 
1 1:-1 2:0.166667 3:1 4:-0.639346 5:-0.186169 
1 1:-1 2:-1 3:1 4:-0.674198 5:-0.624437 
1 1:-1 2:-1 3:1 4:-0.442876 5:-0.224879 
-1 1:-1 2:-0.666667 3:1 4:-0.573139 5:0.105986 
-1 1:-1 2:-1 3:1 4:-0.702391 5:-0.729894 
-1 1:-1 2:-1 3:1 4:-0.791651 5:-0.324231 
-0.643887388077376 1:-1 2:0.833333 3:1 4:-0.910516 5:-0.708908 
-1 1:-1 2:-1 3:-1 4:-0.414079 5:-0.500142 
1 1:-1 2:0.666667 3:1 4:-0.348415 5:0.147663 
1 1:-1 2:0.666667 3:1 4:-0.321028 5:-0.18513 
-1 1:-1 2:0.666667 3:1 4:-0.686475 5:-0.358906 
-0.5780992821719388 1:-1 2:0.666667 3:-1 4:-0.991567 5:-0.902952 
-1 1:-1 2:-0.333333 3:-1 4:-0.405977 5:-0.090263 
1 1:-1 2:-0.333333 3:-1 4:-0.054008 5:-0.256483 
-1 1:-1 2:-0.666667 3:1 4:-0.627403 5:0.151769 
1 1:-1 2:-0.666667 3:-1 4:-0.493746 5:0.08501 
1 1:-1 2:-0.666667 3:1 4:-0.650517 5:0.379997 
-1 1:-1 2:-0.333333 3:1 4:-0.978478 5:-0.911733 
-1 1:-1 2:-1 3:1 4:1 5:0.460325 
1 1:-1 2:0.5 3:1 4:-0.725396 5:-0.174643 
-1 1:-1 2:1 3:1 4:-0.352926 5:-0.080001 
-1 1:1 2:-0.166667 3:1 4:-0.588211 5:-0.356546 
1 1:1 2:-0.166667 3:1 4:-0.6256 5:-0.511139 
-1 1:1 2:-0.166667 3:1 4:-0.638231 5:-0.301141 
1 1:1 2:0.333333 3:1 4:-0.870802 5:-0.501218 
-1 1:1 2:-1 3:1 4:-0.693321 5:-0.7544 
1 1:1 2:-1 3:1 4:-0.747894 5:-0.455716 
0.8485422625729325 1:1 2:-0.166667 3:-1 4:-0.885588 5:-0.742215 
0.5106927248072932 1:1 2:-1 3:-1 4:-0.584429 5:0.04585 
1 1:1 2:-0.166667 3:1 4:-0.802744 5:-0.473108 
0.5955561865639458 1:1 2:-1 3:1 4:-0.218426 5:-0.274831 
-1 1:1 2:-1 3:1 4:-0.810245 5:-0.458311 
-1 1:1 2:0.333333 3:1 4:-0.778015 5:-0.542637 
-1 1:1 2:-0.666667 3:-1 4:-0.771454 5:-0.462484 
-1 1:1 2:-1 3:1 4:-0.659505 5:-0.455762 
1 1:1 2:-0.166667 3:1 4:-0.689745 5:-0.452333 
1 1:1 2:-1 3:1 4:-0.835969 5:-0.408574 
1 1:1 2:-0.166667 3:1 4:-0.896561 5:-0.846686 
-0.7780133297506852 1:1 2:-0.166667 3:1 4:-0.739317 5:-0.417013 
1 1:1 2:0.166667 3:1 4:-0.852637 5:-0.436269 
-1 1:1 2:0.333333 3:1 4:-0.727626 5:-0.379345 
1 1:1 2:0.666667 3:1 4:-0.772226 5:-0.470865 
0.2364685886601071 1:1 2:0.333333 3:1 4:-0.767455 5:-0.382943 
1 1:1 2:0.666667 3:1 4:-0.833465 5:-0.503926 
-1 1:1 2:-0.5 3:1 4:-0.788365 5:-0.317626 
-1 1:1 2:-0.166667 3:1 4:-0.891488 5:-0.681675 
-1 1:1 2:0.666667 3:1 4:-0.796179 5:-0.34509 
1 1:1 2:-0.333333 3:1 4:-0.839894 5:-0.273992 
-1 1:1 2:0.166667 3:1 4:-0.674094 5:-0.534191 
-1 1:1 2:-0.5 3:1 4:-0.775561 5:-0.46764 
1 1:1 2:-1 3:1 4:-0.76648 5:-0.494245 
-1 1:1 2:-0.5 3:1 4:-0.941977 5:-0.793579 
1 1:1 2:-0.5 3:1 4:-0.790394 5:-0.40729 
