svm_type nu_svr
kernel_type rbf
gamma 0.2
nr_class 2
total_sv 64
rho 0.189027
SV
1 1:-1 2:-1 3:-0.625535 4:0.285467 5:-0.209721 
1 1:-1 2:-1 3:-0.724138 4:0.318339 5:0.081089 
-1 1:-1 2:-1 3:-0.729103 4:0.183391 5:-0.500142 
0.1925536736841298 1:-1 2:0.166667 3:-0.956386 4:0.785467 5:-0.150229 
-1 1:-1 2:0.166667 3:-0.716794 4:-0.126298 5:-0.104703 
1 1:-1 2:-0.5 3:-0.965184 4:0.456747 5:0.034352 
1 1:-1 2:-1 3:-0.958853 4:-0.015571 5:-0.01361 
1 1:-1 2:0.333333 3:-0.933121 4:0.010381 5:-0.219523 
-1 1:-1 2:0.166667 3:-0.832138 4:0.095156 5:-0.318813 
1 1:-1 2:-1 3:-0.939254 4:0.435986 5:-0.285251 
1 1:-1 2:0.166667 3:-0.956936 4:0.316609 5:-0.186169 
1 1:-1 2:-1 3:-0.957684 4:0.655709 5:-0.624437 
1 1:-1 2:-1 3:-0.807677 4:0.525952 5:-0.224879 
-1 1:-1 2:-0.666667 3:0.053178 4:-1 5:0.105986 
-1 1:-1 2:-1 3:-0.937233 4:0.344291 5:-0.729894 
-0.3689334513400668 1:-1 2:0.833333 3:-0.966757 4:0.709343 5:-0.708908 
-1 1:-1 2:-1 3:-0.729103 4:0.183391 5:-0.500142 
1 1:-1 2:0.666667 3:-0.761987 4:-0.152249 5:0.147663 
1 1:-1 2:0.666667 3:-0.922927 4:0.143599 5:-0.18513 
-1 1:-1 2:0.666667 3:-0.711404 4:-0.404844 5:-0.358906 
-1 1:-1 2:0.666667 3:-0.965421 4:0.553633 5:-0.902952 
-1 1:-1 2:-0.333333 3:-0.876791 4:0.096886 5:-0.090263 
-1 1:-1 2:-0.666667 3:-0.681721 4:0.197232 5:0.151769 
-0.009900375075949928 1:-1 2:-0.666667 3:-0.859541 4:0.709343 5:0.08501 
0.5373813312909261 1:-1 2:-0.666667 3:-0.920273 4:0.351211 5:0.379997 
0.2482157198937421 1:-1 2:-0.166667 3:-0.667368 4:0.031142 5:-0.2759 
-1 1:-1 2:-0.333333 3:0.406689 4:0.380623 5:-0.911733 
-1 1:-1 2:-1 3:-0.866507 4:0.816609 5:0.460325 
1 1:-1 2:0.5 3:-0.767319 4:0.228374 5:-0.174643 
0.8842468017423802 1:-1 2:-0.666667 3:0.205108 4:0.121107 5:0.258035 
-1 1:-1 2:1 3:-0.906343 4:0.813149 5:-0.080001 
-0.9373014680614992 1:-1 2:-1 3:-0.967825 4:0.401384 5:-0.199182 
-1 1:1 2:-0.166667 3:-0.85762 4:0.581315 5:-0.356546 
1 1:1 2:-0.166667 3:-0.871561 4:-0.202422 5:-0.511139 
-1 1:1 2:-0.166667 3:-0.770401 4:0.141869 5:-0.301141 
1 1:1 2:0.333333 3:-0.878709 4:0.576125 5:-0.501218 
-0.3002621360207019 1:1 2:-1 3:-0.803147 4:-0.029412 5:-0.7544 
1 1:1 2:-1 3:-0.80325 4:0.480969 5:-0.455716 
0.5916354176019484 1:1 2:-0.166667 3:-0.436699 4:0.128028 5:-0.742215 
1 1:1 2:-0.166667 3:-0.855848 4:0.408304 5:-0.473108 
0.4575221735973459 1:1 2:-1 3:0.88062 4:-0.463668 5:-0.274831 
-1 1:1 2:-1 3:-0.834994 4:0.318339 5:-0.458311 
-1 1:1 2:0.333333 3:-0.853014 4:0.430796 5:-0.542637 
-1 1:1 2:-0.666667 3:-0.896052 4:0.256055 5:-0.462484 
-1 1:1 2:-1 3:-0.193826 4:0.102076 5:-0.455762 
-0.129723342564339 1:1 2:-1 3:-0.000806 4:0.150519 5:-0.560157 
1 1:1 2:-0.166667 3:-0.030539 4:-0.070934 5:-0.452333 
1 1:1 2:-1 3:-0.20107 4:0.655709 5:-0.408574 
1 1:1 2:-0.166667 3:-1 4:0.598616 5:-0.846686 
-0.2538792269374434 1:1 2:-0.166667 3:-0.704392 4:0.49654 5:-0.417013 
1 1:1 2:0.166667 3:-0.359559 4:0.096886 5:-0.436269 
-1 1:1 2:0.333333 3:-0.52775 4:0.403114 5:-0.379345 
1 1:1 2:0.666667 3:-0.86635 4:0.214533 5:-0.470865 
0.08844488218952747 1:1 2:0.333333 3:1 4:0.107266 5:-0.382943 
1 1:1 2:0.666667 3:-0.848168 4:0.273356 5:-0.503926 
-1 1:1 2:-0.5 3:-0.759482 4:-0.024222 5:-0.317626 
-1 1:1 2:-0.166667 3:-0.815739 4:0.356401 5:-0.681675 
-1 1:1 2:0.666667 3:-0.954627 4:0.610727 5:-0.34509 
1 1:1 2:-0.333333 3:-0.82818 4:0.17128 5:-0.273992 
-1 1:1 2:0.166667 3:-0.053296 4:-0.102076 5:-0.534191 
-1 1:1 2:-0.5 3:-0.833631 4:0.33564 5:-0.46764 
1 1:1 2:-1 3:-0.705844 4:0.233564 5:-0.494245 
-1 1:1 2:-0.5 3:-0.883112 4:0.811419 5:-0.793579 
1 1:1 2:-0.5 3:-0.813018 4:0.373702 5:-0.40729 
