svm_type nu_svr
kernel_type rbf
gamma 0.2
nr_class 2
total_sv 61
rho 0.175718
SV
1 1:-1 2:-1 3:1 4:-0.625535 5:-0.723575 
1 1:-1 2:-1 3:1 4:-0.724138 5:-0.678864 
-1 1:-1 2:0.166667 3:1 4:-0.716794 5:-0.567191 
1 1:-1 2:-0.5 3:1 4:-0.965184 5:-0.866467 
0.568584936332833 1:-1 2:1 3:-1 4:-0.934617 5:-0.878479 
0.3503259312472123 1:-1 2:-1 3:1 4:-0.958853 5:-0.838917 
1 1:-1 2:0.333333 3:1 4:-0.933121 5:-0.850492 
-1 1:-1 2:0.166667 3:1 4:-0.832138 5:-0.707577 
0.6630326284194312 1:-1 2:0.166667 3:1 4:-0.956936 5:-0.888515 
1 1:-1 2:-1 3:1 4:-0.807677 5:-0.772861 
-1 1:-1 2:-0.666667 3:1 4:0.053178 5:1 
-1 1:-1 2:-1 3:1 4:-0.937233 5:-0.954734 
-1 1:-1 2:0.833333 3:1 4:-0.966757 5:-0.922993 
-1 1:-1 2:-1 3:-1 4:-0.729103 5:-0.84854 
1 1:-1 2:0.666667 3:1 4:-0.761987 5:-0.729993 
1 1:-1 2:0.666667 3:1 4:-0.922927 5:-0.861599 
-1 1:-1 2:0.666667 3:1 4:-0.711404 5:-0.39852 
-1 1:-1 2:0.666667 3:-1 4:-0.965421 5:-0.953775 
-1 1:-1 2:-0.333333 3:-1 4:-0.876791 5:-0.798862 
1 1:-1 2:-0.333333 3:-1 4:-0.928249 5:-0.886076 
-1 1:-1 2:-0.666667 3:1 4:-0.681721 5:-0.61764 
1 1:-1 2:-0.666667 3:-1 4:-0.859541 5:-0.782552 
1 1:-1 2:-0.666667 3:1 4:-0.920273 5:-0.759542 
-1 1:-1 2:-0.333333 3:1 4:0.406689 5:-0.193184 
-1 1:-1 2:-1 3:1 4:-0.866507 5:-0.791922 
1 1:-1 2:0.5 3:1 4:-0.767319 5:-0.665781 
1 1:-1 2:-0.666667 3:1 4:0.205108 5:-0.268055 
-1 1:-1 2:1 3:1 4:-0.906343 5:-0.846524 
-1 1:-1 2:-1 3:1 4:-0.967825 5:-0.903218 
-1 1:1 2:-0.166667 3:1 4:-0.85762 5:-0.830395 
1 1:1 2:-0.166667 3:1 4:-0.871561 5:-0.882199 
-1 1:1 2:-0.166667 3:1 4:-0.770401 5:-0.752452 
1 1:1 2:0.333333 3:1 4:-0.878709 5:-0.821822 
-1 1:1 2:-1 3:1 4:-0.803147 5:-0.913952 
1 1:1 2:-1 3:1 4:-0.80325 5:-0.860695 
1 1:1 2:-1 3:-1 4:-0.30396 5:-0.596929 
1 1:1 2:-0.166667 3:1 4:-0.855848 5:-0.874837 
0.1418388719188168 1:1 2:-1 3:1 4:0.88062 5:0.865713 
-1 1:1 2:-1 3:1 4:-0.834994 5:-0.821023 
-1 1:1 2:0.333333 3:1 4:-0.853014 5:-0.861216 
-1 1:1 2:-0.666667 3:-1 4:-0.896052 5:-0.847255 
-1 1:1 2:-1 3:1 4:-0.193826 5:-0.642731 
-6.661338147750939e-16 1:1 2:-1 3:1 4:-0.000806 5:-0.540797 
0.8048542827201376 1:1 2:-0.166667 3:1 4:-0.030539 5:-0.41563 
1 1:1 2:-1 3:1 4:-0.20107 5:-0.617232 
0.1934080319663053 1:1 2:-0.666667 3:-1 4:-0.8452 5:-0.702955 
1 1:1 2:-0.166667 3:1 4:-1 5:-1 
1 1:1 2:0.166667 3:1 4:-0.359559 5:-0.606428 
-1 1:1 2:0.333333 3:1 4:-0.52775 5:-0.670729 
1 1:1 2:0.666667 3:1 4:-0.86635 5:-0.826784 
0.346546513063726 1:1 2:0.333333 3:1 4:1 5:0.773103 
0.9314088043315381 1:1 2:0.666667 3:1 4:-0.848168 5:-0.836817 
-1 1:1 2:-0.5 3:1 4:-0.759482 5:-0.643086 
-1 1:1 2:-0.166667 3:1 4:-0.815739 5:-0.880197 
-1 1:1 2:0.666667 3:1 4:-0.954627 5:-0.918695 
1 1:1 2:-0.333333 3:1 4:-0.82818 5:-0.698566 
-1 1:1 2:0.166667 3:1 4:-0.053296 5:-0.522741 
-1 1:1 2:-0.5 3:1 4:-0.833631 5:-0.90445 
1 1:1 2:-1 3:1 4:-0.705844 5:-0.788972 
-1 1:1 2:-0.5 3:1 4:-0.883112 5:-0.955463 
1 1:1 2:-0.5 3:1 4:-0.813018 5:-0.812321 
