svm_type nu_svr
kernel_type rbf
gamma 0.2
nr_class 2
total_sv 61
rho 0.511075
SV
1 1:-1 2:-0.723575 3:-0.685075 4:-0.209721 5:-0.246048 
1 1:-1 2:-0.678864 3:-0.352737 4:0.081089 5:-0.514521 
-1 1:-1 2:-0.84854 3:-0.414079 4:-0.500142 5:-0.277424 
-1 1:-1 2:-0.567191 3:-0.488633 4:-0.104703 5:-0.740478 
0.5464466160862634 1:-1 2:-0.866467 3:-0.470295 4:0.034352 5:0.082356 
1 1:-1 2:-0.838917 3:-0.174405 4:-0.01361 5:0.031133 
1 1:-1 2:-0.850492 3:-0.231998 4:-0.219523 5:-0.214234 
-1 1:-1 2:-0.707577 3:-0.737549 4:-0.318813 5:-0.519142 
1 1:-1 2:-0.841967 3:-0.563308 4:-0.285251 5:-0.535098 
1 1:-1 2:-0.888515 3:-0.639346 4:-0.186169 5:0.105803 
0.2851589723883222 1:-1 2:-0.678864 3:-0.352737 4:0.081089 5:-0.514521 
1 1:-1 2:-0.944027 3:-0.674198 4:-0.624437 5:0.068736 
1 1:-1 2:-0.772861 3:-0.442876 4:-0.224879 5:-0.247118 
-0.5448769332209825 1:-1 2:1 3:-0.573139 4:0.105986 5:-1 
-0.9279349630278414 1:-1 2:-0.922993 3:-0.910516 4:-0.708908 5:-0.373741 
-1 1:-1 2:-0.84854 3:-0.414079 4:-0.500142 5:-0.277424 
1 1:-1 2:-0.729993 3:-0.348415 4:0.147663 5:-0.064649 
1 1:-1 2:-0.861599 3:-0.321028 4:-0.18513 5:0.07253 
-1 1:-1 2:-0.39852 3:-0.686475 4:-0.358906 5:-0.869631 
-1 1:-1 2:-0.893907 3:-0.20182 4:-0.004284 5:0.196673 
-1 1:-1 2:-0.953775 3:-0.991567 4:-0.902952 5:-0.439704 
-1 1:-1 2:-0.798862 3:-0.405977 4:-0.090263 5:-0.161405 
-1 1:-1 2:-0.61764 3:-0.627403 4:0.151769 5:-0.387313 
1 1:-1 2:-0.759542 3:-0.650517 4:0.379997 5:-0.247556 
-1 1:-1 2:-0.193184 3:-0.978478 4:-0.911733 5:0.024323 
-1 1:-1 2:-0.791922 3:1 4:0.460325 5:0.776135 
1 1:-1 2:-0.665781 3:-0.725396 4:-0.174643 5:-0.635355 
-1 1:-1 2:-0.846524 3:-0.352926 4:-0.080001 5:0.429294 
-1 1:1 2:-0.830395 3:-0.588211 4:-0.356546 5:0.020771 
1 1:1 2:-0.882199 3:-0.6256 4:-0.511139 5:0.139806 
-1 1:1 2:-0.752452 3:-0.638231 4:-0.301141 5:-0.179452 
1 1:1 2:-0.821822 3:-0.870802 4:-0.501218 5:-0.182809 
-1 1:1 2:-0.913952 3:-0.693321 4:-0.7544 5:0.170356 
1 1:1 2:-0.860695 3:-0.747894 4:-0.455716 5:0.34003 
0.3889111768834953 1:1 2:-0.698702 3:-0.885588 4:-0.742215 5:-0.032884 
1 1:1 2:-0.874837 3:-0.802744 4:-0.473108 5:0.330204 
0.2791617583571062 1:1 2:0.865713 3:-0.218426 4:-0.274831 5:0.362018 
-1 1:1 2:-0.821023 3:-0.810245 4:-0.458311 5:-0.108722 
-1 1:1 2:-0.861216 3:-0.778015 4:-0.542637 5:-0.013037 
-1 1:1 2:-0.847255 3:-0.771454 4:-0.462484 5:-0.106679 
-1 1:1 2:-0.642731 3:-0.659505 4:-0.455762 5:0.347084 
-0.495376754576603 1:1 2:-0.540797 3:-0.849922 4:-0.560157 5:0.476577 
1 1:1 2:-0.41563 3:-0.689745 4:-0.452333 5:-0.574257 
1 1:1 2:-0.617232 3:-0.835969 4:-0.408574 5:-0.166707 
1 1:1 2:-1 3:-0.896561 4:-0.846686 5:0.650727 
-0.0318113491745728 1:1 2:-0.83618 3:-0.739317 4:-0.417013 5:-0.039986 
1 1:1 2:-0.606428 3:-0.852637 4:-0.436269 5:-0.412074 
-1 1:1 2:-0.670729 3:-0.727626 4:-0.379345 5:-0.316729 
1 1:1 2:-0.910797 3:-0.776934 4:-0.615633 5:-0.260009 
1 1:1 2:-0.826784 3:-0.772226 4:-0.470865 5:-0.32135 
0.5003214762848129 1:1 2:0.773103 3:-0.767455 4:-0.382943 5:-0.172399 
1 1:1 2:-0.836817 3:-0.833465 4:-0.503926 5:-0.170745 
-1 1:1 2:-0.643086 3:-0.788365 4:-0.317626 5:-0.587294 
-1 1:1 2:-0.880197 3:-0.891488 4:-0.681675 5:0.011626 
-1 1:1 2:-0.918695 3:-0.796179 4:-0.34509 5:0.562631 
1 1:1 2:-0.698566 3:-0.839894 4:-0.273992 5:-0.276889 
-1 1:1 2:-0.522741 3:-0.674094 4:-0.534191 5:-0.562242 
-1 1:1 2:-0.90445 3:-0.775561 4:-0.46764 5:0.077638 
1 1:1 2:-0.788972 3:-0.76648 4:-0.494245 5:0.140439 
-1 1:1 2:-0.955463 3:-0.941977 4:-0.793579 5:-0.17989 
1 1:1 2:-0.812321 3:-0.790394 4:-0.40729 5:0.14939 
