svm_type nu_svr
kernel_type rbf
gamma 0.2
nr_class 2
total_sv 60
rho 0.256151
SV
1 1:-1 2:-1 3:1 4:-0.209721 5:-0.398258 
1 1:-1 2:-1 3:1 4:0.081089 5:-0.605701 
-1 1:-1 2:0.166667 3:1 4:-0.104703 5:-0.771971 
0.2374875660197133 1:-1 2:-0.5 3:1 4:0.034352 5:-0.230404 
0.5152797569875794 1:-1 2:1 3:-1 4:-0.354214 5:-0.353919 
1 1:-1 2:0.333333 3:1 4:-0.219523 5:-0.391924 
-1 1:-1 2:0.166667 3:1 4:-0.318813 5:-0.434679 
1 1:-1 2:-1 3:1 4:-0.285251 5:-0.832146 
1 1:-1 2:0.166667 3:1 4:-0.186169 5:-0.2019 
0.7390601550686909 1:-1 2:-1 3:1 4:-0.624437 5:-0.125891 
1 1:-1 2:-1 3:1 4:-0.224879 5:-0.30483 
-1 1:-1 2:-0.666667 3:1 4:0.105986 5:-1 
-1 1:-1 2:-1 3:1 4:-0.729894 5:-0.700713 
-1 1:-1 2:-1 3:1 4:-0.324231 5:-0.593032 
-0.7033111693465296 1:-1 2:0.833333 3:1 4:-0.708908 5:-0.637371 
-1 1:-1 2:-1 3:-1 4:-0.500142 5:-0.431512 
1 1:-1 2:0.666667 3:1 4:0.147663 5:-0.124307 
1 1:-1 2:0.666667 3:1 4:-0.18513 5:-0.315914 
-1 1:-1 2:0.666667 3:1 4:-0.358906 5:-0.863816 
-1 1:-1 2:0.666667 3:-1 4:-0.902952 5:-0.727633 
-1 1:-1 2:-0.333333 3:-1 4:-0.090263 5:-0.311164 
1 1:-1 2:-0.333333 3:-1 4:-0.256483 5:-0.403009 
-1 1:-1 2:-0.666667 3:1 4:0.151769 5:-0.273159 
0.9756311938112048 1:-1 2:-0.666667 3:-1 4:0.08501 5:-0.290578 
1 1:-1 2:-0.666667 3:1 4:0.379997 5:-0.444181 
-1 1:-1 2:-0.333333 3:1 4:-0.911733 5:0.233571 
-1 1:-1 2:-1 3:1 4:0.460325 5:0.353919 
1 1:-1 2:0.5 3:1 4:-0.174643 5:-0.714964 
-1 1:-1 2:1 3:1 4:-0.080001 5:0.106888 
-1 1:1 2:-0.166667 3:1 4:-0.356546 5:0.14331 
1 1:1 2:-0.166667 3:1 4:-0.511139 5:-0.022961 
-1 1:1 2:-0.166667 3:1 4:-0.301141 5:-0.087886 
1 1:1 2:0.333333 3:1 4:-0.501218 5:-0.016627 
-0.8150142603622157 1:1 2:-1 3:1 4:-0.7544 5:-0.2019 
1 1:1 2:-1 3:1 4:-0.455716 5:0.125891 
0.7074951349436556 1:1 2:-0.166667 3:-1 4:-0.742215 5:-0.162312 
0.5984479439387392 1:1 2:-1 3:-1 4:0.04585 5:-0.059382 
1 1:1 2:-0.166667 3:1 4:-0.473108 5:-0.043547 
0.441659361455126 1:1 2:-1 3:1 4:-0.274831 5:1 
-1 1:1 2:-1 3:1 4:-0.458311 5:0.045131 
-1 1:1 2:0.333333 3:1 4:-0.542637 5:-0.097387 
-1 1:1 2:-0.666667 3:-1 4:-0.462484 5:-0.098971 
-1 1:1 2:-1 3:1 4:-0.455762 5:0.350752 
1 1:1 2:-0.166667 3:1 4:-0.452333 5:-0.494854 
1 1:1 2:-1 3:1 4:-0.408574 5:-0.141726 
-0.481674570291255 1:1 2:-1 3:1 4:-0.388956 5:0.830562 
1 1:1 2:-0.166667 3:1 4:-0.846686 5:-0.461599 
1 1:1 2:0.166667 3:1 4:-0.436269 5:-0.339667 
-1 1:1 2:0.333333 3:1 4:-0.379345 5:-0.195566 
1 1:1 2:0.666667 3:1 4:-0.470865 5:-0.35867 
0.7849388877752901 1:1 2:0.666667 3:1 4:-0.503926 5:-0.239905 
-1 1:1 2:-0.5 3:1 4:-0.317626 5:-0.577197 
-1 1:1 2:-0.166667 3:1 4:-0.681675 5:-0.312747 
-1 1:1 2:0.666667 3:1 4:-0.34509 5:-0.046714 
1 1:1 2:-0.333333 3:1 4:-0.273992 5:-0.049881 
-1 1:1 2:0.166667 3:1 4:-0.534191 5:-0.702296 
-1 1:1 2:-0.5 3:1 4:-0.46764 5:0.002375 
1 1:1 2:-1 3:1 4:-0.494245 5:0.065716 
-1 1:1 2:-0.5 3:1 4:-0.793579 5:-0.502771 
1 1:1 2:-0.5 3:1 4:-0.40729 5:0.149644 
