svm_type nu_svr
kernel_type rbf
gamma 0.2
nr_class 2
total_sv 62
rho 0.252921
SV
1 1:-1 2:1 3:-0.723575 4:0.285467 5:-0.398258 
1 1:-1 2:1 3:-0.678864 4:0.318339 5:-0.605701 
-1 1:-1 2:1 3:-0.567191 4:-0.126298 5:-0.771971 
1 1:-1 2:1 3:-0.866467 4:0.456747 5:-0.230404 
1 1:-1 2:1 3:-0.838917 4:-0.015571 5:-0.179731 
1 1:-1 2:1 3:-0.850492 4:0.010381 5:-0.391924 
-1 1:-1 2:1 3:-0.707577 4:0.095156 5:-0.434679 
1 1:-1 2:1 3:-0.841967 4:0.435986 5:-0.832146 
1 1:-1 2:1 3:-0.678864 4:0.318339 5:-0.605701 
1 1:-1 2:1 3:-0.772861 4:0.525952 5:-0.30483 
-0.1200051401443221 1:-1 2:1 3:1 4:-1 5:-1 
-1 1:-1 2:1 3:-0.816895 4:0.50173 5:-0.444181 
-1 1:-1 2:1 3:-0.954734 4:0.344291 5:-0.700713 
-1 1:-1 2:1 3:0.144317 4:-0.062284 5:-0.593032 
-1 1:-1 2:1 3:-0.922993 4:0.709343 5:-0.637371 
-1 1:-1 2:-1 3:-0.84854 4:0.183391 5:-0.431512 
1 1:-1 2:1 3:-0.729993 4:-0.152249 5:-0.124307 
-1 1:-1 2:1 3:-0.39852 4:-0.404844 5:-0.863816 
-1 1:-1 2:-1 3:-0.953775 4:0.553633 5:-0.727633 
-0.2879628680397224 1:-1 2:-1 3:-0.798862 4:0.096886 5:-0.311164 
1 1:-1 2:-1 3:-0.886076 4:0.524221 5:-0.403009 
-1 1:-1 2:1 3:-0.61764 4:0.197232 5:-0.273159 
1 1:-1 2:-1 3:-0.782552 4:0.709343 5:-0.290578 
1 1:-1 2:1 3:-0.759542 4:0.351211 5:-0.444181 
0.4829236656920129 1:-1 2:1 3:-0.895037 4:0.790657 5:0.106888 
-1 1:-1 2:1 3:-0.193184 4:0.380623 5:0.233571 
-1 1:-1 2:1 3:-0.791922 4:0.816609 5:0.353919 
0.7533920724142678 1:-1 2:1 3:-0.268055 4:0.121107 5:0.053048 
-1 1:-1 2:1 3:-0.846524 4:0.813149 5:0.106888 
-1 1:1 2:1 3:-0.830395 4:0.581315 5:0.14331 
1 1:1 2:1 3:-0.882199 4:-0.202422 5:-0.022961 
-1 1:1 2:1 3:-0.752452 4:0.141869 5:-0.087886 
1 1:1 2:1 3:-0.821822 4:0.576125 5:-0.016627 
-1 1:1 2:1 3:-0.913952 4:-0.029412 5:-0.2019 
1 1:1 2:1 3:-0.860695 4:0.480969 5:0.125891 
0.1604544649317335 1:1 2:-1 3:-0.698702 4:0.128028 5:-0.162312 
1 1:1 2:-1 3:-0.596929 4:0.641869 5:-0.059382 
1 1:1 2:1 3:-0.874837 4:0.408304 5:-0.043547 
0.3207087938571588 1:1 2:1 3:0.865713 4:-0.463668 5:1 
-1 1:1 2:1 3:-0.821023 4:0.318339 5:0.045131 
-1 1:1 2:1 3:-0.861216 4:0.430796 5:-0.097387 
-1 1:1 2:-1 3:-0.847255 4:0.256055 5:-0.098971 
-1 1:1 2:1 3:-0.642731 4:0.102076 5:0.350752 
-0.8625806629732754 1:1 2:1 3:-0.540797 4:0.150519 5:0.507522 
1 1:1 2:1 3:-0.41563 4:-0.070934 5:-0.494854 
1 1:1 2:1 3:-0.617232 4:0.655709 5:-0.141726 
1 1:1 2:1 3:-1 4:0.598616 5:-0.461599 
-0.1659339969774372 1:1 2:1 3:-0.83618 4:0.49654 5:-0.295329 
1 1:1 2:1 3:-0.606428 4:0.096886 5:-0.339667 
-1 1:1 2:1 3:-0.670729 4:0.403114 5:-0.195566 
1 1:1 2:1 3:-0.826784 4:0.214533 5:-0.35867 
0.2825210031048271 1:1 2:1 3:0.773103 4:0.107266 5:0.14331 
1 1:1 2:1 3:-0.836817 4:0.273356 5:-0.239905 
-1 1:1 2:1 3:-0.643086 4:-0.024222 5:-0.577197 
-1 1:1 2:1 3:-0.880197 4:0.356401 5:-0.312747 
-0.5635173318652431 1:1 2:1 3:-0.918695 4:0.610727 5:-0.046714 
1 1:1 2:1 3:-0.698566 4:0.17128 5:-0.049881 
-1 1:1 2:1 3:-0.522741 4:-0.102076 5:-0.702296 
-1 1:1 2:1 3:-0.90445 4:0.33564 5:0.002375 
1 1:1 2:1 3:-0.788972 4:0.233564 5:0.065716 
-1 1:1 2:1 3:-0.955463 4:0.811419 5:-0.502771 
1 1:1 2:1 3:-0.812321 4:0.373702 5:0.149644 
