svm_type nu_svr
kernel_type rbf
gamma 0.2
nr_class 2
total_sv 62
rho 0.312901
SV
1 1:-1 2:-1 3:-0.685075 4:-0.398258 5:0.183673 
1 1:-1 2:-1 3:-0.352737 4:-0.605701 5:-0.22449 
-1 1:-1 2:-1 3:-0.414079 4:-0.431512 5:0.142857 
1 1:-1 2:0.166667 3:-0.440985 4:-0.572447 5:-0.542857 
-0.06527285827760752 1:-1 2:1 3:-0.225448 4:-0.353919 5:0.428571 
1 1:-1 2:0.166667 3:-0.724984 4:-0.578781 5:-0.771429 
1 1:-1 2:0.333333 3:-0.231998 4:-0.391924 5:0.183673 
-1 1:-1 2:0.166667 3:-0.737549 4:-0.434679 5:-0.102041 
1 1:-1 2:-1 3:-0.563308 4:-0.832146 5:-0.714286 
1 1:-1 2:-1 3:-0.352737 4:-0.605701 5:-0.22449 
1 1:-1 2:-1 3:-0.674198 4:-0.125891 5:-0.346939 
1 1:-1 2:-1 3:-0.442876 4:-0.30483 5:-0.061225 
-1 1:-1 2:-0.666667 3:-0.573139 4:-1 5:-0.885714 
0.5965578680688778 1:-1 2:-0.166667 3:-0.627577 4:0.113222 5:-0.159184 
-1 1:-1 2:-1 3:-0.702391 4:-0.700713 5:-0.265306 
-0.1997578050228304 1:-1 2:-1 3:-0.791651 4:-0.593032 5:-0.795918 
-1 1:-1 2:-1 3:-0.414079 4:-0.431512 5:0.142857 
0.7743801872850672 1:-1 2:0.666667 3:-0.348415 4:-0.124307 5:1 
-1 1:-1 2:0.666667 3:-0.686475 4:-0.863816 5:-1 
-1 1:-1 2:-1 3:-0.766359 4:-0.423595 5:-0.428571 
-0.725543223769146 1:-1 2:0.666667 3:-0.991567 4:-0.727633 5:-1 
-1 1:-1 2:-0.333333 3:-0.405977 4:-0.311164 5:-0.142857 
-1 1:-1 2:-0.666667 3:-0.627403 4:-0.273159 5:-0.22449 
0.6224926744228261 1:-1 2:-0.666667 3:-0.650517 4:-0.444181 5:0.673469 
-1 1:-1 2:-0.333333 3:-0.978478 4:0.233571 5:-0.55102 
-1 1:-1 2:-1 3:1 4:0.353919 5:-0.314286 
0.8735424421464512 1:-1 2:0.5 3:-0.725396 4:-0.714964 5:0.053061 
1 1:-1 2:-0.666667 3:-0.514096 4:0.053048 5:-0.338776 
-0.9358141318675144 1:-1 2:1 3:-0.352926 4:0.106888 5:-0.020408 
-1 1:1 2:-0.166667 3:-0.588211 4:0.14331 5:-0.142857 
1 1:1 2:-0.166667 3:-0.6256 4:-0.022961 5:0.183673 
-1 1:1 2:-0.166667 3:-0.638231 4:-0.087886 5:-0.714286 
-0.402402298835539 1:1 2:-1 3:-0.86243 4:-0.357086 5:0.591837 
1 1:1 2:0.333333 3:-0.870802 4:-0.016627 5:-0.22449 
-1 1:1 2:-1 3:-0.693321 4:-0.2019 5:0.020408 
1 1:1 2:-1 3:-0.747894 4:0.125891 5:0.102041 
1 1:1 2:-1 3:-0.584429 4:-0.059382 5:0.102041 
1 1:1 2:-0.166667 3:-0.802744 4:-0.043547 5:-0.061225 
0.5260310413042958 1:1 2:-1 3:-0.218426 4:1 5:0.142857 
-1 1:1 2:-1 3:-0.810245 4:0.045131 5:-0.22449 
-1 1:1 2:0.333333 3:-0.778015 4:-0.097387 5:0.102041 
-1 1:1 2:-0.666667 3:-0.771454 4:-0.098971 5:-0.306122 
-1 1:1 2:-1 3:-0.659505 4:0.350752 5:-0.55102 
1 1:1 2:-0.166667 3:-0.689745 4:-0.494854 5:-0.755102 
1 1:1 2:-1 3:-0.835969 4:-0.141726 5:-0.632653 
-0.8099409167127447 1:1 2:-1 3:-0.73218 4:0.830562 5:0.102041 
-0.06381464765762103 1:1 2:-1 3:-0.892958 4:-0.545527 5:0.102041 
1 1:1 2:-0.666667 3:-0.726962 4:-0.092637 5:-0.591837 
1 1:1 2:0.166667 3:-0.852637 4:-0.339667 5:-0.387755 
-0.7974541178569966 1:1 2:0.333333 3:-0.727626 4:-0.195566 5:-0.55102 
1 1:1 2:0.666667 3:-0.772226 4:-0.35867 5:-0.22449 
0.707653537790498 1:1 2:0.666667 3:-0.833465 4:-0.239905 5:0.020408 
-1 1:1 2:-0.5 3:-0.788365 4:-0.577197 5:-0.093878 
-1 1:1 2:-0.166667 3:-0.891488 4:-0.312747 5:0.020408 
-1 1:1 2:0.666667 3:-0.796179 4:-0.046714 5:0.102041 
1 1:1 2:-0.333333 3:-0.839894 4:-0.049881 5:-0.142857 
-1 1:1 2:0.166667 3:-0.674094 4:-0.702296 5:-0.061225 
-1 1:1 2:-0.5 3:-0.775561 4:0.002375 5:-0.387755 
1 1:1 2:-1 3:-0.76648 4:0.065716 5:-0.183673 
0.8993422489819841 1:1 2:-0.166667 3:-0.812061 4:-0.319082 5:-0.387755 
-1 1:1 2:-0.5 3:-0.941977 4:-0.502771 5:-0.265306 
1 1:1 2:-0.5 3:-0.790394 4:0.149644 5:0.428571 
