svm_type nu_svr
kernel_type rbf
gamma 0.2
nr_class 2
total_sv 64
rho 0.22627
SV
1 1:-1 2:-1 3:-0.625535 4:0.285467 5:-0.246048 
1 1:-1 2:-1 3:-0.724138 4:0.318339 5:-0.514521 
-1 1:-1 2:-1 3:-0.729103 4:0.183391 5:-0.277424 
0.4808786734110033 1:-1 2:0.166667 3:-0.956386 4:0.785467 5:-0.299265 
1 1:-1 2:-0.5 3:-0.965184 4:0.456747 5:0.082356 
1 1:-1 2:-1 3:-0.958853 4:-0.015571 5:0.031133 
1 1:-1 2:0.333333 3:-0.933121 4:0.010381 5:-0.214234 
-1 1:-1 2:0.166667 3:-0.832138 4:0.095156 5:-0.519142 
0.08195080486569063 1:-1 2:0.166667 3:-0.956936 4:0.316609 5:0.105803 
0.8366157224494472 1:-1 2:-1 3:-0.724138 4:0.318339 5:-0.514521 
1 1:-1 2:-1 3:-0.807677 4:0.525952 5:-0.247118 
-1 1:-1 2:-0.666667 3:0.053178 4:-1 5:-1 
-1 1:-1 2:-1 3:-0.937233 4:0.344291 5:-0.171474 
-1 1:-1 2:0.833333 3:-0.966757 4:0.709343 5:-0.373741 
-1 1:-1 2:-1 3:-0.729103 4:0.183391 5:-0.277424 
1 1:-1 2:0.666667 3:-0.761987 4:-0.152249 5:-0.064649 
1 1:-1 2:0.666667 3:-0.922927 4:0.143599 5:0.07253 
-1 1:-1 2:0.666667 3:-0.711404 4:-0.404844 5:-0.869631 
-0.08261314192531442 1:-1 2:1 3:-0.971129 4:0.088235 5:0.196673 
-0.2605904359622368 1:-1 2:-1 3:0.145628 4:-0.33391 5:-0.587975 
-1 1:-1 2:0.666667 3:-0.965421 4:0.553633 5:-0.439704 
-1 1:-1 2:-0.333333 3:-0.876791 4:0.096886 5:-0.161405 
-1 1:-1 2:-0.666667 3:-0.681721 4:0.197232 5:-0.387313 
1 1:-1 2:-0.666667 3:-0.920273 4:0.351211 5:-0.247556 
0.1303455819011999 1:-1 2:-0.166667 3:-0.974102 4:0.790657 5:0.810527 
-1 1:-1 2:-0.333333 3:0.406689 4:0.380623 5:0.024323 
-1 1:-1 2:-1 3:-0.866507 4:0.816609 5:0.776135 
1 1:-1 2:0.5 3:-0.767319 4:0.228374 5:-0.635355 
1 1:-1 2:-0.666667 3:0.205108 4:0.121107 5:0.004719 
-0.4958423598545255 1:-1 2:1 3:-0.906343 4:0.813149 5:0.429294 
-1 1:1 2:-0.166667 3:-0.85762 4:0.581315 5:0.020771 
1 1:1 2:-0.166667 3:-0.871561 4:-0.202422 5:0.139806 
-1 1:1 2:-0.166667 3:-0.770401 4:0.141869 5:-0.179452 
1 1:1 2:0.333333 3:-0.878709 4:0.576125 5:-0.182809 
-1 1:1 2:-1 3:-0.803147 4:-0.029412 5:0.170356 
1 1:1 2:-1 3:-0.80325 4:0.480969 5:0.34003 
1 1:1 2:-1 3:-0.30396 4:0.641869 5:-0.000146 
1 1:1 2:-0.166667 3:-0.855848 4:0.408304 5:0.330204 
0.7155378296708079 1:1 2:-1 3:0.88062 4:-0.463668 5:0.362018 
0.6018314523776562 1:1 2:-1 3:-0.793693 4:0.288927 5:-0.023642 
-1 1:1 2:-1 3:-0.834994 4:0.318339 5:-0.108722 
-1 1:1 2:0.333333 3:-0.853014 4:0.430796 5:-0.013037 
-1 1:1 2:-0.666667 3:-0.896052 4:0.256055 5:-0.106679 
-1 1:1 2:-1 3:-0.193826 4:0.102076 5:0.347084 
-1 1:1 2:-1 3:-0.000806 4:0.150519 5:0.476577 
1 1:1 2:-0.166667 3:-0.030539 4:-0.070934 5:-0.574257 
1 1:1 2:-1 3:-0.20107 4:0.655709 5:-0.166707 
-0.9007485640934078 1:1 2:-1 3:-0.94202 4:0.32699 5:-0.185241 
0.2921150448198256 1:1 2:-0.666667 3:-0.8452 4:0.520761 5:-0.38133 
1 1:1 2:-0.166667 3:-1 4:0.598616 5:0.650727 
1 1:1 2:0.166667 3:-0.359559 4:0.096886 5:-0.412074 
-1 1:1 2:0.333333 3:-0.52775 4:0.403114 5:-0.316729 
1 1:1 2:0.666667 3:-0.86635 4:0.214533 5:-0.32135 
0.003581423918575573 1:1 2:0.333333 3:1 4:0.107266 5:-0.172399 
0.8571434665857933 1:1 2:0.666667 3:-0.848168 4:0.273356 5:-0.170745 
-0.2824276274010862 1:1 2:-0.5 3:-0.759482 4:-0.024222 5:-0.587294 
-1 1:1 2:-0.166667 3:-0.815739 4:0.356401 5:0.011626 
-0.9777778707634293 1:1 2:0.666667 3:-0.954627 4:0.610727 5:0.562631 
1 1:1 2:-0.333333 3:-0.82818 4:0.17128 5:-0.276889 
-1 1:1 2:0.166667 3:-0.053296 4:-0.102076 5:-0.562242 
-1 1:1 2:-0.5 3:-0.833631 4:0.33564 5:0.077638 
1 1:1 2:-1 3:-0.705844 4:0.233564 5:0.140439 
-1 1:1 2:-0.5 3:-0.883112 4:0.811419 5:-0.17989 
1 1:1 2:-0.5 3:-0.813018 4:0.373702 5:0.14939 
