svm_type nu_svr
kernel_type rbf
gamma 0.2
nr_class 2
total_sv 59
rho 0.43781
SV
1 1:0.285467 2:-0.685075 3:-0.209721 4:-0.246048 5:0.183673 
1 1:0.318339 2:-0.352737 3:0.081089 4:-0.514521 5:-0.22449 
-1 1:0.183391 2:-0.414079 3:-0.500142 4:-0.277424 5:0.142857 
1 1:0.785467 2:-0.440985 3:-0.150229 4:-0.299265 5:-0.542857 
1 1:0.190311 2:-0.724984 3:-0.228314 4:-0.363283 5:-0.771429 
1 1:0.010381 2:-0.231998 3:-0.219523 4:-0.214234 5:0.183673 
-1 1:0.095156 2:-0.737549 3:-0.318813 4:-0.519142 5:-0.102041 
1 1:0.435986 2:-0.563308 3:-0.285251 4:-0.535098 5:-0.714286 
1 1:0.318339 2:-0.352737 3:0.081089 4:-0.514521 5:-0.22449 
1 1:0.655709 2:-0.674198 3:-0.624437 4:0.068736 5:-0.346939 
1 1:0.525952 2:-0.442876 3:-0.224879 4:-0.247118 5:-0.061225 
-0.5690104868317738 1:-1 2:-0.573139 3:0.105986 4:-1 5:-0.885714 
1 1:0.269896 2:-0.627577 3:-0.216148 4:0.530671 5:-0.159184 
-1 1:0.183391 2:-0.414079 3:-0.500142 4:-0.277424 5:0.142857 
1 1:-0.152249 2:-0.348415 3:0.147663 4:-0.064649 5:1 
-1 1:-0.404844 2:-0.686475 3:-0.358906 4:-0.869631 5:-1 
-1 1:0.553633 2:-0.991567 3:-0.902952 4:-0.439704 5:-1 
-1 1:0.096886 2:-0.405977 3:-0.090263 4:-0.161405 5:-0.142857 
-1 1:0.197232 2:-0.627403 3:0.151769 4:-0.387313 5:-0.22449 
0.3201252157154263 1:0.351211 2:-0.650517 3:0.379997 4:-0.247556 5:0.673469 
0.431575817137392 1:0.790657 2:-0.526912 3:-0.006591 4:0.810527 5:0.918367 
-1 1:0.380623 2:-0.978478 3:-0.911733 4:0.024323 5:-0.55102 
-1 1:0.816609 2:1 3:0.460325 4:0.776135 5:-0.314286 
-1 1:0.813149 2:-0.352926 3:-0.080001 4:0.429294 5:-0.020408 
0.6110871724642121 1:0.401384 2:-0.222144 3:-0.199182 4:1 5:-0.322449 
-1 1:0.264706 2:-0.797906 3:-0.321951 4:-0.048353 5:0.183673 
-1 1:0.581315 2:-0.588211 3:-0.356546 4:0.020771 5:-0.142857 
1 1:-0.202422 2:-0.6256 3:-0.511139 4:0.139806 5:0.183673 
-1 1:0.141869 2:-0.638231 3:-0.301141 4:-0.179452 5:-0.714286 
-1 1:0.631488 2:-0.86243 3:-0.728532 4:0.005254 5:0.591837 
1 1:0.576125 2:-0.870802 3:-0.501218 4:-0.182809 5:-0.22449 
-0.8287026851076267 1:-0.029412 2:-0.693321 3:-0.7544 4:0.170356 5:0.020408 
1 1:0.480969 2:-0.747894 3:-0.455716 4:0.34003 5:0.102041 
1 1:0.128028 2:-0.885588 3:-0.742215 4:-0.032884 5:-0.020408 
1 1:0.408304 2:-0.802744 3:-0.473108 4:0.330204 5:-0.061225 
-1 1:0.318339 2:-0.810245 3:-0.458311 4:-0.108722 5:-0.22449 
-1 1:0.430796 2:-0.778015 3:-0.542637 4:-0.013037 5:0.102041 
-1 1:0.256055 2:-0.771454 3:-0.462484 4:-0.106679 5:-0.306122 
-1 1:0.102076 2:-0.659505 3:-0.455762 4:0.347084 5:-0.55102 
1 1:-0.070934 2:-0.689745 3:-0.452333 4:-0.574257 5:-0.755102 
1 1:0.655709 2:-0.835969 3:-0.408574 4:-0.166707 5:-0.632653 
-1 1:0.543253 2:-0.73218 3:-0.388956 4:0.823466 5:0.102041 
1 1:0.598616 2:-0.896561 3:-0.846686 4:0.650727 5:0.346939 
0.8215370028127537 1:0.576125 2:-0.964458 3:-1 4:-0.255777 5:-0.714286 
-0.6022868280605994 1:0.49654 2:-0.739317 3:-0.417013 4:-0.039986 5:-0.22449 
1 1:0.096886 2:-0.852637 3:-0.436269 4:-0.412074 5:-0.387755 
-1 1:0.403114 2:-0.727626 3:-0.379345 4:-0.316729 5:-0.55102 
1 1:0.214533 2:-0.772226 3:-0.470865 4:-0.32135 5:-0.22449 
0.8156747918702161 1:0.273356 2:-0.833465 3:-0.503926 4:-0.170745 5:0.020408 
-1 1:-0.024222 2:-0.788365 3:-0.317626 4:-0.587294 5:-0.093878 
-1 1:0.356401 2:-0.891488 3:-0.681675 4:0.011626 5:0.020408 
-1 1:0.610727 2:-0.796179 3:-0.34509 4:0.562631 5:0.102041 
1 1:0.17128 2:-0.839894 3:-0.273992 4:-0.276889 5:-0.142857 
-1 1:-0.102076 2:-0.674094 3:-0.534191 4:-0.562242 5:-0.061225 
-1 1:0.33564 2:-0.775561 3:-0.46764 4:0.077638 5:-0.387755 
1 1:0.233564 2:-0.76648 3:-0.494245 4:0.140439 5:-0.183673 
1 1:0.083045 2:-0.812061 3:-0.506916 4:-0.253247 5:-0.387755 
-1 1:0.811419 2:-0.941977 3:-0.793579 4:-0.17989 5:-0.265306 
1 1:0.373702 2:-0.790394 3:-0.40729 4:0.14939 5:0.428571 
