svm_type nu_svr
kernel_type rbf
gamma 0.2
nr_class 2
total_sv 62
rho 0.27152
SV
1 1:-0.723575 2:-0.209721 3:-0.398258 4:-0.246048 5:0.183673 
1 1:-0.678864 2:0.081089 3:-0.605701 4:-0.514521 5:-0.22449 
-1 1:-0.84854 2:-0.500142 3:-0.431512 4:-0.277424 5:0.142857 
1 1:-0.852123 2:-0.150229 3:-0.572447 4:-0.299265 5:-0.542857 
1 1:-0.770809 2:-0.228314 3:-0.578781 4:-0.363283 5:-0.771429 
1 1:-0.850492 2:-0.219523 3:-0.391924 4:-0.214234 5:0.183673 
-1 1:-0.707577 2:-0.318813 3:-0.434679 4:-0.519142 5:-0.102041 
1 1:-0.841967 2:-0.285251 3:-0.832146 4:-0.535098 5:-0.714286 
1 1:-0.678864 2:0.081089 3:-0.605701 4:-0.514521 5:-0.22449 
1 1:-0.944027 2:-0.624437 3:-0.125891 4:0.068736 5:-0.346939 
1 1:-0.772861 2:-0.224879 3:-0.30483 4:-0.247118 5:-0.061225 
-0.9833129536815316 1:1 2:0.105986 3:-1 4:-1 5:-0.885714 
1 1:-0.909095 2:-0.216148 3:0.113222 4:0.530671 5:-0.159184 
-1 1:-0.84854 2:-0.500142 3:-0.431512 4:-0.277424 5:0.142857 
1 1:-0.729993 2:0.147663 3:-0.124307 4:-0.064649 5:1 
-1 1:-0.39852 2:-0.358906 3:-0.863816 4:-0.869631 5:-1 
-1 1:-0.893907 2:-0.004284 3:-0.528108 4:0.196673 5:-0.142857 
-1 1:-0.953775 2:-0.902952 3:-0.727633 4:-0.439704 5:-1 
-1 1:-0.798862 2:-0.090263 3:-0.311164 4:-0.161405 5:-0.142857 
-1 1:-0.61764 2:0.151769 3:-0.273159 4:-0.387313 5:-0.22449 
0.3143743473524235 1:-0.759542 2:0.379997 3:-0.444181 4:-0.247556 5:0.673469 
-1 1:-0.193184 2:-0.911733 3:0.233571 4:0.024323 5:-0.55102 
-1 1:-0.791922 2:0.460325 3:0.353919 4:0.776135 5:-0.314286 
0.2940476863990946 1:-0.665781 2:-0.174643 3:-0.714964 4:-0.635355 5:0.053061 
0.825136553091853 1:-0.268055 2:0.258035 3:0.053048 4:0.004719 5:-0.338776 
-1 1:-0.846524 2:-0.080001 3:0.106888 4:0.429294 5:-0.020408 
0.6861341306674819 1:-0.903218 2:-0.199182 3:0.646873 4:1 5:-0.322449 
-1 1:-0.811905 2:-0.321951 3:-0.140143 4:-0.048353 5:0.183673 
0.05750466303665815 1:-0.785889 2:-0.412775 3:0.051465 4:-0.055164 5:-0.469388 
-1 1:-0.830395 2:-0.356546 3:0.14331 4:0.020771 5:-0.142857 
1 1:-0.882199 2:-0.511139 3:-0.022961 4:0.139806 5:0.183673 
-1 1:-0.752452 2:-0.301141 3:-0.087886 4:-0.179452 5:-0.714286 
-1 1:-0.96409 2:-0.728532 3:-0.357086 4:0.005254 5:0.591837 
1 1:-0.821822 2:-0.501218 3:-0.016627 4:-0.182809 5:-0.22449 
-1 1:-0.913952 2:-0.7544 3:-0.2019 4:0.170356 5:0.020408 
1 1:-0.860695 2:-0.455716 3:0.125891 4:0.34003 5:0.102041 
0.3242297105278364 1:-0.698702 2:-0.742215 3:-0.162312 4:-0.032884 5:-0.020408 
1 1:-0.874837 2:-0.473108 3:-0.043547 4:0.330204 5:-0.061225 
0.1029684351709574 1:0.865713 2:-0.274831 3:1 4:0.362018 5:0.142857 
-1 1:-0.821023 2:-0.458311 3:0.045131 4:-0.108722 5:-0.22449 
-1 1:-0.861216 2:-0.542637 3:-0.097387 4:-0.013037 5:0.102041 
-1 1:-0.847255 2:-0.462484 3:-0.098971 4:-0.106679 5:-0.306122 
-1 1:-0.642731 2:-0.455762 3:0.350752 4:0.347084 5:-0.55102 
1 1:-0.41563 2:-0.452333 3:-0.494854 4:-0.574257 5:-0.755102 
1 1:-0.617232 2:-0.408574 3:-0.141726 4:-0.166707 5:-0.632653 
-0.01668704631846832 1:-0.948213 2:-0.83002 3:-0.545527 4:-0.185241 5:0.102041 
1 1:-1 2:-0.846686 3:-0.461599 4:0.650727 5:0.346939 
1 1:-0.932148 2:-1 3:-0.515439 4:-0.255777 5:-0.714286 
1 1:-0.606428 2:-0.436269 3:-0.339667 4:-0.412074 5:-0.387755 
-1 1:-0.670729 2:-0.379345 3:-0.195566 4:-0.316729 5:-0.55102 
1 1:-0.826784 2:-0.470865 3:-0.35867 4:-0.32135 5:-0.22449 
0.3956044737536952 1:0.773103 2:-0.382943 3:0.14331 4:-0.172399 5:0.265306 
1 1:-0.836817 2:-0.503926 3:-0.239905 4:-0.170745 5:0.020408 
-1 1:-0.643086 2:-0.317626 3:-0.577197 4:-0.587294 5:-0.093878 
-1 1:-0.880197 2:-0.681675 3:-0.312747 4:0.011626 5:0.020408 
-1 1:-0.918695 2:-0.34509 3:-0.046714 4:0.562631 5:0.102041 
1 1:-0.698566 2:-0.273992 3:-0.049881 4:-0.276889 5:-0.142857 
-1 1:-0.522741 2:-0.534191 3:-0.702296 4:-0.562242 5:-0.061225 
-1 1:-0.90445 2:-0.46764 3:0.002375 4:0.077638 5:-0.387755 
1 1:-0.788972 2:-0.494245 3:0.065716 4:0.140439 5:-0.183673 
-1 1:-0.955463 2:-0.793579 3:-0.502771 4:-0.17989 5:-0.265306 
1 1:-0.812321 2:-0.40729 3:0.149644 4:0.14939 5:0.428571 
