svm_type nu_svr
kernel_type rbf
gamma 0.2
nr_class 2
total_sv 63
rho 0.131811
SV
1 1:-1 2:-0.723575 3:0.285467 4:-0.246048 5:0.183673 
1 1:-1 2:-0.678864 3:0.318339 4:-0.514521 5:-0.22449 
-1 1:-1 2:-0.84854 3:0.183391 4:-0.277424 5:0.142857 
1 1:0.166667 2:-0.852123 3:0.785467 4:-0.299265 5:-0.542857 
0.09465059871735075 1:-0.5 2:-0.866467 3:0.456747 4:0.082356 5:0.795918 
-0.2893341786096892 1:1 2:-0.878479 3:-0.089965 4:-0.17201 5:0.428571 
1 1:0.166667 2:-0.770809 3:0.190311 4:-0.363283 5:-0.771429 
1 1:-1 2:-0.838917 3:-0.015571 4:0.031133 5:0.714286 
1 1:0.333333 2:-0.850492 3:0.010381 4:-0.214234 5:0.183673 
-1 1:0.166667 2:-0.707577 3:0.095156 4:-0.519142 5:-0.102041 
1 1:-1 2:-0.841967 3:0.435986 4:-0.535098 5:-0.714286 
1 1:-1 2:-0.678864 3:0.318339 4:-0.514521 5:-0.22449 
1 1:-1 2:-0.944027 3:0.655709 4:0.068736 5:-0.346939 
1 1:-1 2:-0.772861 3:0.525952 4:-0.247118 5:-0.061225 
-0.594128397821991 1:-0.666667 2:1 3:-1 4:-1 5:-0.885714 
1 1:-0.166667 2:-0.909095 3:0.269896 4:0.530671 5:-0.159184 
1 1:-0.166667 2:-0.855892 3:0.66436 4:0.139466 5:0.020408 
-1 1:-1 2:-0.954734 3:0.344291 4:-0.171474 5:-0.265306 
-1 1:-1 2:-0.84854 3:0.183391 4:-0.277424 5:0.142857 
0.9857918301471582 1:0.666667 2:-0.729993 3:-0.152249 4:-0.064649 5:1 
-1 1:0.666667 2:-0.39852 3:-0.404844 4:-0.869631 5:-1 
-0.2996489057264752 1:-1 2:-0.172146 3:-0.33391 4:-0.587975 5:-0.428571 
-1 1:0.666667 2:-0.953775 3:0.553633 4:-0.439704 5:-1 
-1 1:-0.333333 2:-0.798862 3:0.096886 4:-0.161405 5:-0.142857 
1 1:-0.666667 2:-0.759542 3:0.351211 4:-0.247556 5:0.673469 
0.06697353363692476 1:-0.166667 2:-0.895037 3:0.790657 4:0.810527 5:0.918367 
-1 1:-0.333333 2:-0.193184 3:0.380623 4:0.024323 5:-0.55102 
-1 1:-1 2:-0.791922 3:0.816609 4:0.776135 5:-0.314286 
0.8224139485151959 1:0.5 2:-0.665781 3:0.228374 4:-0.635355 5:0.053061 
1 1:-0.666667 2:-0.268055 3:0.121107 4:0.004719 5:-0.338776 
1 1:-1 2:-0.903218 3:0.401384 4:1 5:-0.322449 
-1 1:0.166667 2:-0.811905 3:0.264706 4:-0.048353 5:0.183673 
-1 1:-0.166667 2:-0.830395 3:0.581315 4:0.020771 5:-0.142857 
1 1:-0.166667 2:-0.882199 3:-0.202422 4:0.139806 5:0.183673 
-1 1:-0.166667 2:-0.752452 3:0.141869 4:-0.179452 5:-0.714286 
-1 1:-1 2:-0.96409 3:0.631488 4:0.005254 5:0.591837 
1 1:0.333333 2:-0.821822 3:0.576125 4:-0.182809 5:-0.22449 
-1 1:-1 2:-0.913952 3:-0.029412 4:0.170356 5:0.020408 
1 1:-1 2:-0.860695 3:0.480969 4:0.34003 5:0.102041 
1 1:-0.166667 2:-0.874837 3:0.408304 4:0.330204 5:-0.061225 
0.03017008898337065 1:-1 2:0.865713 3:-0.463668 4:0.362018 5:0.142857 
-1 1:-1 2:-0.821023 3:0.318339 4:-0.108722 5:-0.22449 
-1 1:0.333333 2:-0.861216 3:0.430796 4:-0.013037 5:0.102041 
-1 1:-0.666667 2:-0.847255 3:0.256055 4:-0.106679 5:-0.306122 
-1 1:-1 2:-0.642731 3:0.102076 4:0.347084 5:-0.55102 
1 1:-0.166667 2:-0.41563 3:-0.070934 4:-0.574257 5:-0.755102 
1 1:-1 2:-0.617232 3:0.655709 4:-0.166707 5:-0.632653 
-0.7703864293488782 1:-1 2:-0.921264 3:0.543253 4:0.823466 5:0.102041 
-1 1:-1 2:-0.948213 3:0.32699 4:-0.185241 5:0.102041 
-0.8856035149268767 1:-0.166667 2:-0.83618 3:0.49654 4:-0.039986 5:-0.22449 
1 1:0.166667 2:-0.606428 3:0.096886 4:-0.412074 5:-0.387755 
-0.01123713613640323 1:0.333333 2:-0.670729 3:0.403114 4:-0.316729 5:-0.55102 
1 1:0.666667 2:-0.826784 3:0.214533 4:-0.32135 5:-0.22449 
-1 1:-0.5 2:-0.643086 3:-0.024222 4:-0.587294 5:-0.093878 
-1 1:-0.166667 2:-0.880197 3:0.356401 4:0.011626 5:0.020408 
-1 1:0.666667 2:-0.918695 3:0.610727 4:0.562631 5:0.102041 
1 1:-0.333333 2:-0.698566 3:0.17128 4:-0.276889 5:-0.142857 
-0.1496614374296866 1:0.333333 2:-0.851482 3:0.586505 4:0.493117 5:0.591837 
-1 1:0.166667 2:-0.522741 3:-0.102076 4:-0.562242 5:-0.061225 
-1 1:-0.5 2:-0.90445 3:0.33564 4:0.077638 5:-0.387755 
1 1:-1 2:-0.788972 3:0.233564 4:0.140439 5:-0.183673 
-1 1:-0.5 2:-0.955463 3:0.811419 4:-0.17989 5:-0.265306 
1 1:-0.5 2:-0.812321 3:0.373702 4:0.14939 5:0.428571 
