svm_type nu_svr
kernel_type rbf
gamma 0.2
nr_class 2
total_sv 60
rho 0.160336
SV
1 1:-1 2:-0.625535 3:-0.723575 4:-0.209721 5:0.183673 
1 1:-1 2:-0.724138 3:-0.678864 4:0.081089 5:-0.22449 
-1 1:-1 2:-0.729103 3:-0.84854 4:-0.500142 5:0.142857 
1 1:0.166667 2:-0.956386 3:-0.852123 4:-0.150229 5:-0.542857 
1 1:0.166667 2:-0.817005 3:-0.770809 4:-0.228314 5:-0.771429 
1 1:-1 2:-0.958853 3:-0.838917 4:-0.01361 5:0.714286 
1 1:0.333333 2:-0.933121 3:-0.850492 4:-0.219523 5:0.183673 
-1 1:0.166667 2:-0.832138 3:-0.707577 4:-0.318813 5:-0.102041 
1 1:-1 2:-0.939254 3:-0.841967 4:-0.285251 5:-0.714286 
1 1:-1 2:-0.724138 3:-0.678864 4:0.081089 5:-0.22449 
1 1:-1 2:-0.957684 3:-0.944027 4:-0.624437 5:-0.346939 
1 1:-1 2:-0.807677 3:-0.772861 4:-0.224879 5:-0.061225 
-1 1:-0.666667 2:0.053178 3:1 4:0.105986 5:-0.885714 
1 1:-0.166667 2:-0.964053 3:-0.909095 4:-0.216148 5:-0.159184 
-1 1:-1 2:-0.729103 3:-0.84854 4:-0.500142 5:0.142857 
1 1:0.666667 2:-0.761987 3:-0.729993 4:0.147663 5:1 
0.392560873427304 1:0.666667 2:-0.922927 3:-0.861599 4:-0.18513 5:0.428571 
-1 1:0.666667 2:-0.711404 3:-0.39852 4:-0.358906 5:-1 
-0.2360390381581498 1:-1 2:0.145628 3:-0.172146 4:-0.370554 5:-0.428571 
-1 1:0.666667 2:-0.965421 3:-0.953775 4:-0.902952 5:-1 
-1 1:-0.333333 2:-0.876791 3:-0.798862 4:-0.090263 5:-0.142857 
-1 1:-0.666667 2:-0.681721 3:-0.61764 4:0.151769 5:-0.22449 
-1 1:-0.333333 2:0.406689 3:-0.193184 4:-0.911733 5:-0.55102 
-1 1:-1 2:-0.866507 3:-0.791922 4:0.460325 5:-0.314286 
0.3349558398657098 1:-0.666667 2:0.205108 3:-0.268055 4:0.258035 5:-0.338776 
-1 1:1 2:-0.906343 3:-0.846524 4:-0.080001 5:-0.020408 
-1 1:0.166667 2:-0.792999 3:-0.811905 4:-0.321951 5:0.183673 
-1 1:-0.166667 2:-0.85762 3:-0.830395 4:-0.356546 5:-0.142857 
1 1:-0.166667 2:-0.871561 3:-0.882199 4:-0.511139 5:0.183673 
-1 1:-0.166667 2:-0.770401 3:-0.752452 4:-0.301141 5:-0.714286 
-1 1:-1 2:-0.983226 3:-0.96409 4:-0.728532 5:0.591837 
1 1:0.333333 2:-0.878709 3:-0.821822 4:-0.501218 5:-0.22449 
-0.8977210212824678 1:-1 2:-0.803147 3:-0.913952 4:-0.7544 5:0.020408 
1 1:-1 2:-0.80325 3:-0.860695 4:-0.455716 5:0.102041 
0.4093144468798879 1:-0.166667 2:-0.436699 3:-0.698702 4:-0.742215 5:-0.020408 
1 1:-0.166667 2:-0.855848 3:-0.874837 4:-0.473108 5:-0.061225 
0.5613382959613175 1:-1 2:0.88062 3:0.865713 4:-0.274831 5:0.142857 
-1 1:-1 2:-0.834994 3:-0.821023 4:-0.458311 5:-0.22449 
-1 1:0.333333 2:-0.853014 3:-0.861216 4:-0.542637 5:0.102041 
-1 1:-0.666667 2:-0.896052 3:-0.847255 4:-0.462484 5:-0.306122 
-1 1:-1 2:-0.193826 3:-0.642731 4:-0.455762 5:-0.55102 
1 1:-0.166667 2:-0.030539 3:-0.41563 4:-0.452333 5:-0.755102 
1 1:-1 2:-0.20107 3:-0.617232 4:-0.408574 5:-0.632653 
-1 1:-1 2:-0.93417 3:-0.921264 4:-0.388956 5:0.102041 
1 1:-0.166667 2:-1 3:-1 4:-0.846686 5:0.346939 
1 1:0.166667 2:-0.359559 3:-0.606428 4:-0.436269 5:-0.387755 
1 1:0.666667 2:-0.86635 3:-0.826784 4:-0.470865 5:-0.22449 
0.3630615083134728 1:0.333333 2:1 3:0.773103 4:-0.382943 5:0.265306 
1 1:0.666667 2:-0.848168 3:-0.836817 4:-0.503926 5:0.020408 
-1 1:-0.5 2:-0.759482 3:-0.643086 4:-0.317626 5:-0.093878 
-1 1:-0.166667 2:-0.815739 3:-0.880197 4:-0.681675 5:0.020408 
-1 1:0.666667 2:-0.954627 3:-0.918695 4:-0.34509 5:0.102041 
1 1:-0.333333 2:-0.82818 3:-0.698566 4:-0.273992 5:-0.142857 
-0.8662399405593822 1:0.333333 2:-0.687797 3:-0.851482 4:-0.331441 5:0.591837 
-1 1:0.166667 2:-0.053296 3:-0.522741 4:-0.534191 5:-0.061225 
-1 1:-0.5 2:-0.833631 3:-0.90445 4:-0.46764 5:-0.387755 
1 1:-1 2:-0.705844 3:-0.788972 4:-0.494245 5:-0.183673 
0.9387690355523078 1:-0.166667 2:-0.509602 3:-0.730449 4:-0.506916 5:-0.387755 
-1 1:-0.5 2:-0.883112 3:-0.955463 4:-0.793579 5:-0.265306 
1 1:-0.5 2:-0.813018 3:-0.812321 4:-0.40729 5:0.428571 
