svm_type nu_svr
kernel_type rbf
gamma 0.2
nr_class 2
total_sv 62
rho 0.300862
SV
1 1:-1 2:1 3:-0.723575 4:0.285467 5:-0.246048 
1 1:-1 2:1 3:-0.678864 4:0.318339 5:-0.514521 
1 1:0.166667 2:1 3:-0.852123 4:0.785467 5:-0.299265 
1 1:-0.5 2:1 3:-0.866467 4:0.456747 5:0.082356 
0.1262473706267014 1:1 2:-1 3:-0.878479 4:-0.089965 5:-0.17201 
1 1:-1 2:1 3:-0.838917 4:-0.015571 5:0.031133 
1 1:0.333333 2:1 3:-0.850492 4:0.010381 5:-0.214234 
-1 1:0.166667 2:1 3:-0.707577 4:0.095156 5:-0.519142 
1 1:-1 2:1 3:-0.841967 4:0.435986 5:-0.535098 
1 1:0.166667 2:1 3:-0.888515 4:0.316609 5:0.105803 
1 1:-1 2:1 3:-0.678864 4:0.318339 5:-0.514521 
1 1:-1 2:1 3:-0.772861 4:0.525952 5:-0.247118 
-0.5634179371297693 1:-0.666667 2:1 3:1 4:-1 5:-1 
0.8702190675444633 1:-0.166667 2:1 3:-0.855892 4:0.66436 5:0.139466 
-1 1:-1 2:1 3:-0.954734 4:0.344291 5:-0.171474 
-0.9375510354811004 1:-1 2:1 3:0.144317 4:-0.062284 5:-0.642847 
-1 1:0.833333 2:1 3:-0.922993 4:0.709343 5:-0.373741 
-1 1:-1 2:-1 3:-0.84854 4:0.183391 5:-0.277424 
1 1:0.666667 2:1 3:-0.729993 4:-0.152249 5:-0.064649 
1 1:0.666667 2:1 3:-0.861599 4:0.143599 5:0.07253 
-1 1:0.666667 2:1 3:-0.39852 4:-0.404844 5:-0.869631 
-1 1:0.666667 2:-1 3:-0.953775 4:0.553633 5:-0.439704 
1 1:-0.333333 2:-1 3:-0.886076 4:0.524221 5:-0.055261 
1 1:-0.666667 2:-1 3:-0.782552 4:0.709343 5:-0.196916 
1 1:-0.666667 2:1 3:-0.759542 4:0.351211 5:-0.247556 
1 1:-0.166667 2:1 3:-0.895037 4:0.790657 5:0.810527 
-1 1:-0.333333 2:1 3:-0.193184 4:0.380623 5:0.024323 
-1 1:-1 2:1 3:-0.791922 4:0.816609 5:0.776135 
1 1:0.5 2:1 3:-0.665781 4:0.228374 5:-0.635355 
0.7026910532765652 1:-0.666667 2:1 3:-0.268055 4:0.121107 5:0.004719 
-1 1:-0.166667 2:1 3:-0.830395 4:0.581315 5:0.020771 
1 1:-0.166667 2:1 3:-0.882199 4:-0.202422 5:0.139806 
-1 1:-0.166667 2:1 3:-0.752452 4:0.141869 5:-0.179452 
-0.2704240357801043 1:-1 2:1 3:-0.767577 4:-0.088235 5:-0.402053 
-1 1:-1 2:1 3:-0.96409 4:0.631488 5:0.005254 
1 1:0.333333 2:1 3:-0.821822 4:0.576125 5:-0.182809 
-1 1:-1 2:1 3:-0.913952 4:-0.029412 5:0.170356 
1 1:-1 2:1 3:-0.860695 4:0.480969 5:0.34003 
0.1876384079900242 1:-0.166667 2:-1 3:-0.698702 4:0.128028 5:-0.032884 
0.3953119612804453 1:-1 2:-1 3:-0.596929 4:0.641869 5:-0.000146 
0.65317562529902 1:-1 2:1 3:0.865713 4:-0.463668 5:0.362018 
-1 1:-1 2:1 3:-0.821023 4:0.318339 5:-0.108722 
-1 1:0.333333 2:1 3:-0.861216 4:0.430796 5:-0.013037 
-1 1:-0.666667 2:-1 3:-0.847255 4:0.256055 5:-0.106679 
-1 1:-1 2:1 3:-0.642731 4:0.102076 5:0.347084 
-0.8793236548427396 1:-1 2:1 3:-0.540797 4:0.150519 5:0.476577 
0.742169757458329 1:-0.166667 2:1 3:-0.41563 4:-0.070934 5:-0.574257 
-1 1:-0.166667 2:1 3:-0.883378 4:0.359862 5:-0.34256 
-1 1:-0.166667 2:1 3:-0.83618 4:0.49654 5:-0.039986 
-1 1:0.333333 2:1 3:-0.670729 4:0.403114 5:-0.316729 
1 1:0.666667 2:1 3:-0.826784 4:0.214533 5:-0.32135 
0.5033616941965462 1:0.333333 2:1 3:0.773103 4:0.107266 5:-0.172399 
-0.3492833367662867 1:0.166667 2:1 3:-0.958179 4:0.131488 5:-0.252031 
-1 1:-0.5 2:1 3:-0.643086 4:-0.024222 5:-0.587294 
-1 1:-0.166667 2:1 3:-0.880197 4:0.356401 5:0.011626 
-1 1:0.666667 2:1 3:-0.918695 4:0.610727 5:0.562631 
1 1:-0.333333 2:1 3:-0.698566 4:0.17128 5:-0.276889 
-1 1:0.166667 2:1 3:-0.522741 4:-0.102076 5:-0.562242 
-1 1:-0.5 2:1 3:-0.90445 4:0.33564 5:0.077638 
0.8191850623279056 1:-1 2:1 3:-0.788972 4:0.233564 5:0.140439 
-1 1:-0.5 2:1 3:-0.955463 4:0.811419 5:-0.17989 
1 1:-0.5 2:1 3:-0.812321 4:0.373702 5:0.14939 
