svm_type nu_svr
kernel_type rbf
gamma 0.2
nr_class 2
total_sv 62
rho 0.40371
SV
1 1:-1 2:0.285467 3:-0.685075 4:-0.398258 5:0.183673 
1 1:-1 2:0.318339 3:-0.352737 4:-0.605701 5:-0.22449 
-1 1:-1 2:0.183391 3:-0.414079 4:-0.431512 5:0.142857 
1 1:0.166667 2:0.785467 3:-0.440985 4:-0.572447 5:-0.542857 
0.2718510234996401 1:-0.5 2:0.456747 3:-0.470295 4:-0.230404 5:0.795918 
-0.5812414234582879 1:1 2:-0.089965 3:-0.225448 4:-0.353919 5:0.428571 
1 1:0.166667 2:0.190311 3:-0.724984 4:-0.578781 5:-0.771429 
1 1:-1 2:-0.015571 3:-0.174405 4:-0.179731 5:0.714286 
1 1:0.333333 2:0.010381 3:-0.231998 4:-0.391924 5:0.183673 
-1 1:0.166667 2:0.095156 3:-0.737549 4:-0.434679 5:-0.102041 
1 1:-1 2:0.435986 3:-0.563308 4:-0.832146 5:-0.714286 
1 1:-1 2:0.318339 3:-0.352737 4:-0.605701 5:-0.22449 
1 1:-1 2:0.655709 3:-0.674198 4:-0.125891 5:-0.346939 
1 1:-1 2:0.525952 3:-0.442876 4:-0.30483 5:-0.061225 
-0.5757470811395314 1:-0.666667 2:-1 3:-0.573139 4:-1 5:-0.885714 
1 1:-0.166667 2:0.269896 3:-0.627577 4:0.113222 5:-0.159184 
-1 1:-1 2:0.344291 3:-0.702391 4:-0.700713 5:-0.265306 
-1 1:-1 2:0.183391 3:-0.414079 4:-0.431512 5:0.142857 
1 1:0.666667 2:-0.152249 3:-0.348415 4:-0.124307 5:1 
-1 1:0.666667 2:-0.404844 3:-0.686475 4:-0.863816 5:-1 
-1 1:0.666667 2:0.553633 3:-0.991567 4:-0.727633 5:-1 
-1 1:-0.333333 2:0.096886 3:-0.405977 4:-0.311164 5:-0.142857 
1 1:-0.666667 2:0.351211 3:-0.650517 4:-0.444181 5:0.673469 
-1 1:-0.333333 2:0.380623 3:-0.978478 4:0.233571 5:-0.55102 
-1 1:-1 2:0.816609 3:1 4:0.353919 5:-0.314286 
1 1:0.5 2:0.228374 3:-0.725396 4:-0.714964 5:0.053061 
1 1:-0.666667 2:0.121107 3:-0.514096 4:0.053048 5:-0.338776 
-0.4007840851387915 1:1 2:0.813149 3:-0.352926 4:0.106888 5:-0.020408 
-1 1:0.166667 2:0.264706 3:-0.797906 4:-0.140143 5:0.183673 
-1 1:-0.166667 2:0.581315 3:-0.588211 4:0.14331 5:-0.142857 
1 1:-0.166667 2:-0.202422 3:-0.6256 4:-0.022961 5:0.183673 
-1 1:-0.166667 2:0.141869 3:-0.638231 4:-0.087886 5:-0.714286 
-1 1:-1 2:0.631488 3:-0.86243 4:-0.357086 5:0.591837 
1 1:0.333333 2:0.576125 3:-0.870802 4:-0.016627 5:-0.22449 
1 1:0.666667 2:0.378893 3:-0.801809 4:-0.018211 5:-0.428571 
-1 1:-1 2:-0.029412 3:-0.693321 4:-0.2019 5:0.020408 
1 1:-1 2:0.480969 3:-0.747894 4:0.125891 5:0.102041 
1 1:-0.166667 2:0.408304 3:-0.802744 4:-0.043547 5:-0.061225 
-1 1:-1 2:0.318339 3:-0.810245 4:0.045131 5:-0.22449 
-1 1:0.333333 2:0.430796 3:-0.778015 4:-0.097387 5:0.102041 
-1 1:-0.666667 2:0.256055 3:-0.771454 4:-0.098971 5:-0.306122 
-1 1:-1 2:0.102076 3:-0.659505 4:0.350752 5:-0.55102 
1 1:-0.166667 2:-0.070934 3:-0.689745 4:-0.494854 5:-0.755102 
1 1:-1 2:0.655709 3:-0.835969 4:-0.141726 5:-0.632653 
-0.2402674207225975 1:-1 2:0.543253 3:-0.73218 4:0.830562 5:0.102041 
-1 1:-1 2:0.32699 3:-0.892958 4:-0.545527 5:0.102041 
-0.8002928994816012 1:-0.166667 2:0.49654 3:-0.739317 4:-0.295329 5:-0.22449 
1 1:0.166667 2:0.096886 3:-0.852637 4:-0.339667 5:-0.387755 
-0.2625760348888718 1:0.333333 2:0.403114 3:-0.727626 4:-0.195566 5:-0.55102 
1 1:0.666667 2:0.214533 3:-0.772226 4:-0.35867 5:-0.22449 
0.1685268389627561 1:0.666667 2:0.273356 3:-0.833465 4:-0.239905 5:0.020408 
-1 1:-0.5 2:-0.024222 3:-0.788365 4:-0.577197 5:-0.093878 
-1 1:-0.166667 2:0.356401 3:-0.891488 4:-0.312747 5:0.020408 
-1 1:0.666667 2:0.610727 3:-0.796179 4:-0.046714 5:0.102041 
1 1:-0.333333 2:0.17128 3:-0.839894 4:-0.049881 5:-0.142857 
-0.1390910551703189 1:0.333333 2:0.586505 3:-0.645361 4:-0.059382 5:0.591837 
-1 1:0.166667 2:-0.102076 3:-0.674094 4:-0.702296 5:-0.061225 
-1 1:-0.5 2:0.33564 3:-0.775561 4:0.002375 5:-0.387755 
1 1:-1 2:0.233564 3:-0.76648 4:0.065716 5:-0.183673 
0.5596221375376038 1:-0.166667 2:0.083045 3:-0.812061 4:-0.319082 5:-0.387755 
-1 1:-0.5 2:0.811419 3:-0.941977 4:-0.502771 5:-0.265306 
1 1:-0.5 2:0.373702 3:-0.790394 4:0.149644 5:0.428571 
