svm_type nu_svr
kernel_type rbf
gamma 0.166667
nr_class 2
total_sv 63
rho 0.204028
SV
1 1:-1 2:-1 3:1 4:-0.625535 5:-0.685075 6:0.183673 
1 1:-1 2:-1 3:1 4:-0.724138 5:-0.352737 6:-0.22449 
-0.1524088154164325 1:-1 2:-1 3:-1 4:-0.729103 5:-0.414079 6:0.142857 
1 1:-1 2:0.166667 3:1 4:-0.956386 5:-0.440985 6:-0.542857 
1 1:-1 2:0.166667 3:1 4:-0.817005 5:-0.724984 6:-0.771429 
1 1:-1 2:0.333333 3:1 4:-0.933121 5:-0.231998 6:0.183673 
-1 1:-1 2:0.166667 3:1 4:-0.832138 5:-0.737549 6:-0.102041 
1 1:-1 2:-1 3:1 4:-0.939254 5:-0.563308 6:-0.714286 
0.8574019826587955 1:-1 2:-1 3:1 4:-0.724138 5:-0.352737 6:-0.22449 
-0.239632472149054 1:-1 2:-0.666667 3:1 4:-0.868644 5:0.043854 6:0.061225 
1 1:-1 2:-1 3:1 4:-0.807677 5:-0.442876 6:-0.061225 
-1 1:-1 2:-0.666667 3:1 4:0.053178 5:-0.573139 6:-0.885714 
-0.2828272224759246 1:-1 2:0.333333 3:1 4:-0.881376 5:-0.729312 6:0.061225 
-1 1:-1 2:-1 3:1 4:-0.937233 5:-0.702391 6:-0.265306 
-0.1485672129730098 1:-1 2:-1 3:1 4:0.654557 5:-0.791651 6:-0.795918 
-1 1:-1 2:-1 3:-1 4:-0.729103 5:-0.414079 6:0.142857 
-1 1:-1 2:-0.666667 3:1 4:-0.848144 5:-0.270968 6:0.020408 
1 1:-1 2:0.666667 3:1 4:-0.761987 5:-0.348415 6:1 
-1 1:-1 2:0.666667 3:1 4:-0.711404 5:-0.686475 6:-1 
-0.4993998676248565 1:-1 2:0.666667 3:-1 4:-0.965421 5:-0.991567 6:-1 
-1 1:-1 2:-0.333333 3:-1 4:-0.876791 5:-0.405977 6:-0.142857 
1 1:-1 2:-0.333333 3:-1 4:-0.928249 5:-0.054008 6:0.510204 
-1 1:-1 2:-0.666667 3:1 4:-0.681721 5:-0.627403 6:-0.22449 
1 1:-1 2:-0.666667 3:-1 4:-0.859541 5:-0.493746 6:-0.061225 
-1 1:-1 2:-0.333333 3:1 4:0.406689 5:-0.978478 6:-0.55102 
-1 1:-1 2:-1 3:1 4:-0.866507 5:1 6:-0.314286 
0.3545096129944624 1:-1 2:0.5 3:1 4:-0.767319 5:-0.725396 6:0.053061 
1 1:-1 2:-0.666667 3:1 4:0.205108 5:-0.514096 6:-0.338776 
-1 1:-1 2:1 3:1 4:-0.906343 5:-0.352926 6:-0.020408 
1 1:1 2:-0.5 3:1 4:-0.770592 5:-0.714969 6:-0.469388 
-1 1:1 2:-0.166667 3:1 4:-0.85762 5:-0.588211 6:-0.142857 
1 1:1 2:-0.166667 3:1 4:-0.871561 5:-0.6256 6:0.183673 
-1 1:1 2:-0.166667 3:1 4:-0.770401 5:-0.638231 6:-0.714286 
-1 1:1 2:-1 3:1 4:-0.983226 5:-0.86243 6:0.591837 
1 1:1 2:0.333333 3:1 4:-0.878709 5:-0.870802 6:-0.22449 
-1 1:1 2:-1 3:1 4:-0.803147 5:-0.693321 6:0.020408 
1 1:1 2:-1 3:1 4:-0.80325 5:-0.747894 6:0.102041 
1 1:1 2:-1 3:-1 4:-0.30396 5:-0.584429 6:0.102041 
1 1:1 2:-0.166667 3:1 4:-0.855848 5:-0.802744 6:-0.061225 
0.1433165624280928 1:1 2:-1 3:1 4:0.88062 5:-0.218426 6:0.142857 
-1 1:1 2:-1 3:1 4:-0.834994 5:-0.810245 6:-0.22449 
-1 1:1 2:0.333333 3:1 4:-0.853014 5:-0.778015 6:0.102041 
-1 1:1 2:-0.666667 3:-1 4:-0.896052 5:-0.771454 6:-0.306122 
-1 1:1 2:-1 3:1 4:-0.193826 5:-0.659505 6:-0.55102 
1 1:1 2:-0.166667 3:1 4:-0.030539 5:-0.689745 6:-0.755102 
1 1:1 2:-1 3:1 4:-0.20107 5:-0.835969 6:-0.632653 
-0.6771644093607228 1:1 2:-1 3:-1 4:-0.94202 5:-0.892958 6:0.102041 
1 1:1 2:-0.666667 3:-1 4:-0.8452 5:-0.726962 6:-0.591837 
0.6574189007795851 1:1 2:-0.166667 3:1 4:-1 5:-0.896561 6:0.346939 
1 1:1 2:0.166667 3:1 4:-0.359559 5:-0.852637 6:-0.387755 
-1 1:1 2:0.333333 3:1 4:-0.52775 5:-0.727626 6:-0.55102 
1 1:1 2:0.666667 3:1 4:-0.86635 5:-0.772226 6:-0.22449 
0.06613343646112745 1:1 2:0.333333 3:1 4:1 5:-0.767455 6:0.265306 
0.9212195046779367 1:1 2:0.666667 3:1 4:-0.848168 5:-0.833465 6:0.020408 
-1 1:1 2:-0.5 3:1 4:-0.759482 5:-0.788365 6:-0.093878 
-1 1:1 2:-0.166667 3:1 4:-0.815739 5:-0.891488 6:0.020408 
-1 1:1 2:0.666667 3:1 4:-0.954627 5:-0.796179 6:0.102041 
1 1:1 2:-0.333333 3:1 4:-0.82818 5:-0.839894 6:-0.142857 
-1 1:1 2:0.166667 3:1 4:-0.053296 5:-0.674094 6:-0.061225 
-1 1:1 2:-0.5 3:1 4:-0.833631 5:-0.775561 6:-0.387755 
1 1:1 2:-1 3:1 4:-0.705844 5:-0.76648 6:-0.183673 
-1 1:1 2:-0.5 3:1 4:-0.883112 5:-0.941977 6:-0.265306 
1 1:1 2:-0.5 3:1 4:-0.813018 5:-0.790394 6:0.428571 
