svm_type nu_svr
kernel_type rbf
gamma 0.166667
nr_class 2
total_sv 65
rho 0.307282
SV
1 1:-1 2:-1 3:-0.625535 4:0.285467 5:-0.209721 6:-0.246048 
1 1:-1 2:-1 3:-0.724138 4:0.318339 5:0.081089 6:-0.514521 
-1 1:-1 2:-1 3:-0.729103 4:0.183391 5:-0.500142 6:-0.277424 
0.8939025223989228 1:-1 2:0.166667 3:-0.956386 4:0.785467 5:-0.150229 6:-0.299265 
-0.1997429208942587 1:-1 2:0.166667 3:-0.716794 4:-0.126298 5:-0.104703 6:-0.740478 
1 1:-1 2:-1 3:-0.958853 4:-0.015571 5:-0.01361 6:0.031133 
1 1:-1 2:0.333333 3:-0.933121 4:0.010381 5:-0.219523 6:-0.214234 
-1 1:-1 2:0.166667 3:-0.832138 4:0.095156 5:-0.318813 6:-0.519142 
1 1:-1 2:-1 3:-0.939254 4:0.435986 5:-0.285251 6:-0.535098 
1 1:-1 2:0.166667 3:-0.956936 4:0.316609 5:-0.186169 6:0.105803 
0.7614273122065335 1:-1 2:-1 3:-0.957684 4:0.655709 5:-0.624437 6:0.068736 
1 1:-1 2:-1 3:-0.807677 4:0.525952 5:-0.224879 6:-0.247118 
-1 1:-1 2:-0.666667 3:0.053178 4:-1 5:0.105986 6:-1 
-0.7992507145520011 1:-1 2:-0.166667 3:-0.958999 4:0.750865 5:-0.018496 6:0.032203 
-1 1:-1 2:-1 3:-0.937233 4:0.344291 5:-0.729894 6:-0.171474 
-0.3996979939926293 1:-1 2:0.833333 3:-0.966757 4:0.709343 5:-0.708908 6:-0.373741 
-1 1:-1 2:-1 3:-0.729103 4:0.183391 5:-0.500142 6:-0.277424 
1 1:-1 2:0.666667 3:-0.761987 4:-0.152249 5:0.147663 6:-0.064649 
1 1:-1 2:0.666667 3:-0.922927 4:0.143599 5:-0.18513 6:0.07253 
-1 1:-1 2:0.666667 3:-0.711404 4:-0.404844 5:-0.358906 6:-0.869631 
-0.5929072389713539 1:-1 2:1 3:-0.971129 4:0.088235 5:-0.004284 6:0.196673 
-1 1:-1 2:0.666667 3:-0.965421 4:0.553633 5:-0.902952 6:-0.439704 
-1 1:-1 2:-0.333333 3:-0.876791 4:0.096886 5:-0.090263 6:-0.161405 
-1 1:-1 2:-0.666667 3:-0.681721 4:0.197232 5:0.151769 6:-0.387313 
1 1:-1 2:-0.666667 3:-0.920273 4:0.351211 5:0.379997 6:-0.247556 
0.4872262576318576 1:-1 2:-0.166667 3:-0.974102 4:0.790657 5:-0.006591 6:0.810527 
-1 1:-1 2:-0.333333 3:0.406689 4:0.380623 5:-0.911733 6:0.024323 
-1 1:-1 2:-1 3:-0.866507 4:0.816609 5:0.460325 6:0.776135 
1 1:-1 2:0.5 3:-0.767319 4:0.228374 5:-0.174643 6:-0.635355 
0.3593849421886345 1:-1 2:-0.666667 3:0.205108 4:0.121107 5:0.258035 6:0.004719 
-1 1:-1 2:1 3:-0.906343 4:0.813149 5:-0.080001 6:0.429294 
-1 1:1 2:-0.166667 3:-0.85762 4:0.581315 5:-0.356546 6:0.020771 
1 1:1 2:-0.166667 3:-0.871561 4:-0.202422 5:-0.511139 6:0.139806 
-1 1:1 2:-0.166667 3:-0.770401 4:0.141869 5:-0.301141 6:-0.179452 
1 1:1 2:0.333333 3:-0.878709 4:0.576125 5:-0.501218 6:-0.182809 
-0.3574848465439767 1:1 2:-1 3:-0.803147 4:-0.029412 5:-0.7544 6:0.170356 
1 1:1 2:-1 3:-0.80325 4:0.480969 5:-0.455716 6:0.34003 
0.506415004332284 1:1 2:-0.166667 3:-0.436699 4:0.128028 5:-0.742215 6:-0.032884 
0.002065224413553461 1:1 2:-1 3:-0.30396 4:0.641869 5:0.04585 6:-0.000146 
1 1:1 2:-0.166667 3:-0.855848 4:0.408304 5:-0.473108 6:0.330204 
0.5835791095584734 1:1 2:-1 3:0.88062 4:-0.463668 5:-0.274831 6:0.362018 
-1 1:1 2:-1 3:-0.834994 4:0.318339 5:-0.458311 6:-0.108722 
-1 1:1 2:0.333333 3:-0.853014 4:0.430796 5:-0.542637 6:-0.013037 
-1 1:1 2:-0.666667 3:-0.896052 4:0.256055 5:-0.462484 6:-0.106679 
-1 1:1 2:-1 3:-0.193826 4:0.102076 5:-0.455762 6:0.347084 
-0.34514849596908 1:1 2:-1 3:-0.000806 4:0.150519 5:-0.560157 6:0.476577 
1 1:1 2:-0.166667 3:-0.030539 4:-0.070934 5:-0.452333 6:-0.574257 
1 1:1 2:-1 3:-0.20107 4:0.655709 5:-0.408574 6:-0.166707 
-0.3057677890767 1:1 2:-1 3:-0.93417 4:0.543253 5:-0.388956 6:0.823466 
0.1391378043391958 1:1 2:-0.666667 3:-0.8452 4:0.520761 5:-0.256881 6:-0.38133 
1 1:1 2:-0.166667 3:-1 4:0.598616 5:-0.846686 6:0.650727 
1 1:1 2:0.166667 3:-0.359559 4:0.096886 5:-0.436269 6:-0.412074 
-1 1:1 2:0.333333 3:-0.52775 4:0.403114 5:-0.379345 6:-0.316729 
1 1:1 2:0.666667 3:-0.86635 4:0.214533 5:-0.470865 6:-0.32135 
0.2668618229305448 1:1 2:0.333333 3:1 4:0.107266 5:-0.382943 6:-0.172399 
1 1:1 2:0.666667 3:-0.848168 4:0.273356 5:-0.503926 6:-0.170745 
-1 1:1 2:-0.5 3:-0.759482 4:-0.024222 5:-0.317626 6:-0.587294 
-1 1:1 2:-0.166667 3:-0.815739 4:0.356401 5:-0.681675 6:0.011626 
-1 1:1 2:0.666667 3:-0.954627 4:0.610727 5:-0.34509 6:0.562631 
1 1:1 2:-0.333333 3:-0.82818 4:0.17128 5:-0.273992 6:-0.276889 
-1 1:1 2:0.166667 3:-0.053296 4:-0.102076 5:-0.534191 6:-0.562242 
-1 1:1 2:-0.5 3:-0.833631 4:0.33564 5:-0.46764 6:0.077638 
1 1:1 2:-1 3:-0.705844 4:0.233564 5:-0.494245 6:0.140439 
-1 1:1 2:-0.5 3:-0.883112 4:0.811419 5:-0.793579 6:-0.17989 
1 1:1 2:-0.5 3:-0.813018 4:0.373702 5:-0.40729 6:0.14939 
