svm_type nu_svr
kernel_type rbf
gamma 0.166667
nr_class 2
total_sv 61
rho 0.405863
SV
1 1:-1 2:1 3:-0.625535 4:0.285467 5:-0.209721 6:-0.398258 
1 1:-1 2:1 3:-0.724138 4:0.318339 5:0.081089 6:-0.605701 
-1 1:-1 2:1 3:-0.716794 4:-0.126298 5:-0.104703 6:-0.771971 
0.2074716923681593 1:-1 2:-1 3:-0.934617 4:-0.089965 5:-0.354214 6:-0.353919 
1 1:-1 2:1 3:-0.958853 4:-0.015571 5:-0.01361 6:-0.179731 
1 1:-1 2:1 3:-0.933121 4:0.010381 5:-0.219523 6:-0.391924 
-1 1:-1 2:1 3:-0.832138 4:0.095156 5:-0.318813 6:-0.434679 
1 1:-1 2:1 3:-0.939254 4:0.435986 5:-0.285251 6:-0.832146 
1 1:-1 2:1 3:-0.957684 4:0.655709 5:-0.624437 6:-0.125891 
1 1:-1 2:1 3:-0.807677 4:0.525952 5:-0.224879 6:-0.30483 
-1 1:-1 2:1 3:0.053178 4:-1 5:0.105986 6:-1 
-0.3842250536497712 1:-1 2:1 3:-0.881376 4:0.50173 5:-0.201087 6:-0.444181 
-1 1:-1 2:1 3:-0.937233 4:0.344291 5:-0.729894 6:-0.700713 
-1 1:-1 2:1 3:-0.966757 4:0.709343 5:-0.708908 6:-0.637371 
-1 1:-1 2:-1 3:-0.729103 4:0.183391 5:-0.500142 6:-0.431512 
1 1:-1 2:1 3:-0.761987 4:-0.152249 5:0.147663 6:-0.124307 
0.8771825764211328 1:-1 2:1 3:-0.922927 4:0.143599 5:-0.18513 6:-0.315914 
0.438125221846125 1:-1 2:-1 3:-0.539699 4:-0.186851 5:-0.453851 6:-0.626287 
-1 1:-1 2:1 3:-0.711404 4:-0.404844 5:-0.358906 6:-0.863816 
-1 1:-1 2:-1 3:-0.965421 4:0.553633 5:-0.902952 6:-0.727633 
-1 1:-1 2:-1 3:-0.876791 4:0.096886 5:-0.090263 6:-0.311164 
1 1:-1 2:-1 3:-0.928249 4:0.524221 5:-0.256483 6:-0.403009 
-1 1:-1 2:1 3:-0.681721 4:0.197232 5:0.151769 6:-0.273159 
0.9990395408234912 1:-1 2:-1 3:-0.859541 4:0.709343 5:0.08501 6:-0.290578 
1 1:-1 2:1 3:-0.920273 4:0.351211 5:0.379997 6:-0.444181 
-1 1:-1 2:1 3:0.406689 4:0.380623 5:-0.911733 6:0.233571 
-1 1:-1 2:1 3:-0.866507 4:0.816609 5:0.460325 6:0.353919 
0.3738826877472209 1:-1 2:1 3:0.205108 4:0.121107 5:0.258035 6:0.053048 
-1 1:-1 2:1 3:-0.906343 4:0.813149 5:-0.080001 6:0.106888 
-1 1:1 2:1 3:-0.85762 4:0.581315 5:-0.356546 6:0.14331 
1 1:1 2:1 3:-0.871561 4:-0.202422 5:-0.511139 6:-0.022961 
-1 1:1 2:1 3:-0.770401 4:0.141869 5:-0.301141 6:-0.087886 
1 1:1 2:1 3:-0.878709 4:0.576125 5:-0.501218 6:-0.016627 
-1 1:1 2:1 3:-0.803147 4:-0.029412 5:-0.7544 6:-0.2019 
1 1:1 2:1 3:-0.80325 4:0.480969 5:-0.455716 6:0.125891 
1 1:1 2:-1 3:-0.436699 4:0.128028 5:-0.742215 6:-0.162312 
0.2715951563011562 1:1 2:-1 3:-0.30396 4:0.641869 5:0.04585 6:-0.059382 
1 1:1 2:1 3:-0.855848 4:0.408304 5:-0.473108 6:-0.043547 
0.3255939957579341 1:1 2:1 3:0.88062 4:-0.463668 5:-0.274831 6:1 
-1 1:1 2:1 3:-0.834994 4:0.318339 5:-0.458311 6:0.045131 
-1 1:1 2:1 3:-0.853014 4:0.430796 5:-0.542637 6:-0.097387 
-1 1:1 2:-1 3:-0.896052 4:0.256055 5:-0.462484 6:-0.098971 
-1 1:1 2:1 3:-0.193826 4:0.102076 5:-0.455762 6:0.350752 
-0.6157749463502284 1:1 2:1 3:-0.000806 4:0.150519 5:-0.560157 6:0.507522 
1 1:1 2:1 3:-0.030539 4:-0.070934 5:-0.452333 6:-0.494854 
1 1:1 2:1 3:-0.20107 4:0.655709 5:-0.408574 6:-0.141726 
1 1:1 2:1 3:-1 4:0.598616 5:-0.846686 6:-0.461599 
1 1:1 2:1 3:-0.359559 4:0.096886 5:-0.436269 6:-0.339667 
-1 1:1 2:1 3:-0.52775 4:0.403114 5:-0.379345 6:-0.195566 
1 1:1 2:1 3:-0.86635 4:0.214533 5:-0.470865 6:-0.35867 
0.5071091287347805 1:1 2:1 3:1 4:0.107266 5:-0.382943 6:0.14331 
1 1:1 2:1 3:-0.848168 4:0.273356 5:-0.503926 6:-0.239905 
-1 1:1 2:1 3:-0.759482 4:-0.024222 5:-0.317626 6:-0.577197 
-1 1:1 2:1 3:-0.815739 4:0.356401 5:-0.681675 6:-0.312747 
-1 1:1 2:1 3:-0.954627 4:0.610727 5:-0.34509 6:-0.046714 
1 1:1 2:1 3:-0.82818 4:0.17128 5:-0.273992 6:-0.049881 
-1 1:1 2:1 3:-0.053296 4:-0.102076 5:-0.534191 6:-0.702296 
-1 1:1 2:1 3:-0.833631 4:0.33564 5:-0.46764 6:0.002375 
1 1:1 2:1 3:-0.705844 4:0.233564 5:-0.494245 6:0.065716 
-1 1:1 2:1 3:-0.883112 4:0.811419 5:-0.793579 6:-0.502771 
1 1:1 2:1 3:-0.813018 4:0.373702 5:-0.40729 6:0.149644 
