svm_type nu_svr
kernel_type rbf
gamma 0.166667
nr_class 2
total_sv 62
rho 0.366592
SV
1 1:-1 2:-1 3:-0.723575 4:-0.209721 5:-0.398258 6:-0.246048 
1 1:-1 2:-1 3:-0.678864 4:0.081089 5:-0.605701 6:-0.514521 
-1 1:-1 2:-1 3:-0.84854 4:-0.500142 5:-0.431512 6:-0.277424 
0.4364345616419049 1:-1 2:0.166667 3:-0.852123 4:-0.150229 5:-0.572447 6:-0.299265 
0.8042112889494361 1:-1 2:-0.5 3:-0.866467 4:0.034352 5:-0.230404 6:0.082356 
1 1:-1 2:-1 3:-0.838917 4:-0.01361 5:-0.179731 6:0.031133 
1 1:-1 2:0.333333 3:-0.850492 4:-0.219523 5:-0.391924 6:-0.214234 
-1 1:-1 2:0.166667 3:-0.707577 4:-0.318813 5:-0.434679 6:-0.519142 
1 1:-1 2:-1 3:-0.841967 4:-0.285251 5:-0.832146 6:-0.535098 
1 1:-1 2:0.166667 3:-0.888515 4:-0.186169 5:-0.2019 6:0.105803 
1 1:-1 2:-1 3:-0.944027 4:-0.624437 5:-0.125891 6:0.068736 
1 1:-1 2:-1 3:-0.772861 4:-0.224879 5:-0.30483 6:-0.247118 
-0.6746504182835912 1:-1 2:-0.666667 3:1 4:0.105986 5:-1 6:-1 
-0.3058928692387287 1:-1 2:-0.166667 3:-0.857999 4:-0.018496 5:-0.322249 6:0.032203 
-1 1:-1 2:-1 3:-0.954734 4:-0.729894 5:-0.700713 6:-0.171474 
-0.2780167132592158 1:-1 2:0.833333 3:-0.922993 4:-0.708908 5:-0.637371 6:-0.373741 
-1 1:-1 2:-1 3:-0.84854 4:-0.500142 5:-0.431512 6:-0.277424 
1 1:-1 2:0.666667 3:-0.729993 4:0.147663 5:-0.124307 6:-0.064649 
1 1:-1 2:0.666667 3:-0.861599 4:-0.18513 5:-0.315914 6:0.07253 
-1 1:-1 2:0.666667 3:-0.39852 4:-0.358906 5:-0.863816 6:-0.869631 
-0.528966709432658 1:-1 2:1 3:-0.893907 4:-0.004284 5:-0.528108 6:0.196673 
-0.9864612993168879 1:-1 2:-1 3:-0.172146 4:-0.370554 5:-0.423595 6:-0.587975 
-1 1:-1 2:0.666667 3:-0.953775 4:-0.902952 5:-0.727633 6:-0.439704 
-1 1:-1 2:-0.333333 3:-0.798862 4:-0.090263 5:-0.311164 6:-0.161405 
-1 1:-1 2:-0.666667 3:-0.61764 4:0.151769 5:-0.273159 6:-0.387313 
1 1:-1 2:-0.666667 3:-0.759542 4:0.379997 5:-0.444181 6:-0.247556 
-1 1:-1 2:-0.333333 3:-0.193184 4:-0.911733 5:0.233571 6:0.024323 
-1 1:-1 2:-1 3:-0.791922 4:0.460325 5:0.353919 6:0.776135 
1 1:-1 2:0.5 3:-0.665781 4:-0.174643 5:-0.714964 6:-0.635355 
-1 1:-1 2:1 3:-0.846524 4:-0.080001 5:0.106888 6:0.429294 
-1 1:1 2:-0.166667 3:-0.830395 4:-0.356546 5:0.14331 6:0.020771 
1 1:1 2:-0.166667 3:-0.882199 4:-0.511139 5:-0.022961 6:0.139806 
-1 1:1 2:-0.166667 3:-0.752452 4:-0.301141 5:-0.087886 6:-0.179452 
1 1:1 2:0.333333 3:-0.821822 4:-0.501218 5:-0.016627 6:-0.182809 
-0.45943945959044 1:1 2:-1 3:-0.913952 4:-0.7544 5:-0.2019 6:0.170356 
1 1:1 2:-1 3:-0.860695 4:-0.455716 5:0.125891 6:0.34003 
1 1:1 2:-0.166667 3:-0.698702 4:-0.742215 5:-0.162312 6:-0.032884 
1 1:1 2:-0.166667 3:-0.874837 4:-0.473108 5:-0.043547 6:0.330204 
0.4241340975901326 1:1 2:-1 3:0.865713 4:-0.274831 5:1 6:0.362018 
-1 1:1 2:-1 3:-0.821023 4:-0.458311 5:0.045131 6:-0.108722 
-1 1:1 2:0.333333 3:-0.861216 4:-0.542637 5:-0.097387 6:-0.013037 
-1 1:1 2:-0.666667 3:-0.847255 4:-0.462484 5:-0.098971 6:-0.106679 
-1 1:1 2:-1 3:-0.642731 4:-0.455762 5:0.350752 6:0.347084 
-0.1709298651598452 1:1 2:-1 3:-0.540797 4:-0.560157 5:0.507522 6:0.476577 
1 1:1 2:-0.166667 3:-0.41563 4:-0.452333 5:-0.494854 6:-0.574257 
1 1:1 2:-1 3:-0.617232 4:-0.408574 5:-0.141726 6:-0.166707 
1 1:1 2:-0.166667 3:-1 4:-0.846686 5:-0.461599 6:0.650727 
-1 1:1 2:-0.166667 3:-0.83618 4:-0.417013 5:-0.295329 6:-0.039986 
1 1:1 2:0.166667 3:-0.606428 4:-0.436269 5:-0.339667 6:-0.412074 
-1 1:1 2:0.333333 3:-0.670729 4:-0.379345 5:-0.195566 6:-0.316729 
1 1:1 2:0.666667 3:-0.826784 4:-0.470865 5:-0.35867 6:-0.32135 
0.3352200518185265 1:1 2:0.333333 3:0.773103 4:-0.382943 5:0.14331 6:-0.172399 
1 1:1 2:0.666667 3:-0.836817 4:-0.503926 5:-0.239905 6:-0.170745 
-0.5956426657186336 1:1 2:-0.5 3:-0.643086 4:-0.317626 5:-0.577197 6:-0.587294 
-1 1:1 2:-0.166667 3:-0.880197 4:-0.681675 5:-0.312747 6:0.011626 
-1 1:1 2:0.666667 3:-0.918695 4:-0.34509 5:-0.046714 6:0.562631 
1 1:1 2:-0.333333 3:-0.698566 4:-0.273992 5:-0.049881 6:-0.276889 
-1 1:1 2:0.166667 3:-0.522741 4:-0.534191 5:-0.702296 6:-0.562242 
-1 1:1 2:-0.5 3:-0.90445 4:-0.46764 5:0.002375 6:0.077638 
1 1:1 2:-1 3:-0.788972 4:-0.494245 5:0.065716 6:0.140439 
-1 1:1 2:-0.5 3:-0.955463 4:-0.793579 5:-0.502771 6:-0.17989 
1 1:1 2:-0.5 3:-0.812321 4:-0.40729 5:0.149644 6:0.14939 
