svm_type nu_svr
kernel_type rbf
gamma 0.166667
nr_class 2
total_sv 62
rho 0.462917
SV
1 1:-1 2:-0.625535 3:0.285467 4:-0.685075 5:-0.398258 6:0.183673 
1 1:-1 2:-0.724138 3:0.318339 4:-0.352737 5:-0.605701 6:-0.22449 
-1 1:-1 2:-0.729103 3:0.183391 4:-0.414079 5:-0.431512 6:0.142857 
1 1:-1 2:-0.956386 3:0.785467 4:-0.440985 5:-0.572447 6:-0.542857 
-1 1:-1 2:-0.934617 3:-0.089965 4:-0.225448 5:-0.353919 6:0.428571 
1 1:-1 2:-0.817005 3:0.190311 4:-0.724984 5:-0.578781 6:-0.771429 
0.1093588178380719 1:-1 2:-0.958853 3:-0.015571 4:-0.174405 5:-0.179731 6:0.714286 
1 1:-1 2:-0.933121 3:0.010381 4:-0.231998 5:-0.391924 6:0.183673 
-1 1:-1 2:-0.832138 3:0.095156 4:-0.737549 5:-0.434679 6:-0.102041 
1 1:-1 2:-0.939254 3:0.435986 4:-0.563308 5:-0.832146 6:-0.714286 
1 1:-1 2:-0.724138 3:0.318339 4:-0.352737 5:-0.605701 6:-0.22449 
1 1:-1 2:-0.957684 3:0.655709 4:-0.674198 5:-0.125891 6:-0.346939 
1 1:-1 2:-0.807677 3:0.525952 4:-0.442876 5:-0.30483 6:-0.061225 
-0.373746861088407 1:-1 2:0.053178 3:-1 4:-0.573139 5:-1 6:-0.885714 
0.605909079752195 1:-1 2:-0.964053 3:0.269896 4:-0.627577 5:0.113222 6:-0.159184 
-0.3693509497243306 1:-1 2:-0.881376 3:0.50173 4:-0.729312 5:-0.444181 6:0.061225 
-1 1:-1 2:-0.937233 3:0.344291 4:-0.702391 5:-0.700713 6:-0.265306 
-1 1:-1 2:-0.966757 3:0.709343 4:-0.910516 5:-0.637371 6:-1 
-1 1:-1 2:-0.729103 3:0.183391 4:-0.414079 5:-0.431512 6:0.142857 
1 1:-1 2:-0.761987 3:-0.152249 4:-0.348415 5:-0.124307 6:1 
-1 1:-1 2:-0.711404 3:-0.404844 4:-0.686475 5:-0.863816 6:-1 
-0.05500008950206229 1:-1 2:0.145628 3:-0.33391 4:-0.766359 5:-0.423595 6:-0.428571 
-1 1:-1 2:-0.965421 3:0.553633 4:-0.991567 5:-0.727633 6:-1 
-1 1:-1 2:-0.876791 3:0.096886 4:-0.405977 5:-0.311164 6:-0.142857 
1 1:-1 2:-0.920273 3:0.351211 4:-0.650517 5:-0.444181 6:0.673469 
-1 1:-1 2:0.406689 3:0.380623 4:-0.978478 5:0.233571 6:-0.55102 
-1 1:-1 2:-0.866507 3:0.816609 4:1 5:0.353919 6:-0.314286 
1 1:-1 2:0.205108 3:0.121107 4:-0.514096 5:0.053048 6:-0.338776 
-1 1:-1 2:-0.906343 3:0.813149 4:-0.352926 5:0.106888 6:-0.020408 
0.6654144802109823 1:1 2:-0.770592 3:0.429066 4:-0.714969 5:0.051465 6:-0.469388 
-1 1:1 2:-0.85762 3:0.581315 4:-0.588211 5:0.14331 6:-0.142857 
1 1:1 2:-0.871561 3:-0.202422 4:-0.6256 5:-0.022961 6:0.183673 
-1 1:1 2:-0.770401 3:0.141869 4:-0.638231 5:-0.087886 6:-0.714286 
-1 1:1 2:-0.983226 3:0.631488 4:-0.86243 5:-0.357086 6:0.591837 
1 1:1 2:-0.878709 3:0.576125 4:-0.870802 5:-0.016627 6:-0.22449 
-1 1:1 2:-0.803147 3:-0.029412 4:-0.693321 5:-0.2019 6:0.020408 
1 1:1 2:-0.80325 3:0.480969 4:-0.747894 5:0.125891 6:0.102041 
1 1:1 2:-0.855848 3:0.408304 4:-0.802744 5:-0.043547 6:-0.061225 
0.291576235717371 1:1 2:0.88062 3:-0.463668 4:-0.218426 5:1 6:0.142857 
-1 1:1 2:-0.834994 3:0.318339 4:-0.810245 5:0.045131 6:-0.22449 
-1 1:1 2:-0.853014 3:0.430796 4:-0.778015 5:-0.097387 6:0.102041 
-1 1:1 2:-0.896052 3:0.256055 4:-0.771454 5:-0.098971 6:-0.306122 
-1 1:1 2:-0.193826 3:0.102076 4:-0.659505 5:0.350752 6:-0.55102 
1 1:1 2:-0.030539 3:-0.070934 4:-0.689745 5:-0.494854 6:-0.755102 
1 1:1 2:-0.20107 3:0.655709 4:-0.835969 5:-0.141726 6:-0.632653 
-0.5888360266686271 1:1 2:-0.93417 3:0.543253 4:-0.73218 5:0.830562 6:0.102041 
-1 1:1 2:-0.94202 3:0.32699 4:-0.892958 5:-0.545527 6:0.102041 
1 1:1 2:-0.8452 3:0.520761 4:-0.726962 5:-0.092637 6:-0.591837 
1 1:1 2:-1 3:0.598616 4:-0.896561 5:-0.461599 6:0.346939 
1 1:1 2:-0.359559 3:0.096886 4:-0.852637 5:-0.339667 6:-0.387755 
-1 1:1 2:-0.52775 3:0.403114 4:-0.727626 5:-0.195566 6:-0.55102 
1 1:1 2:-0.86635 3:0.214533 4:-0.772226 5:-0.35867 6:-0.22449 
1 1:1 2:-0.848168 3:0.273356 4:-0.833465 5:-0.239905 6:0.020408 
-0.6130660730165731 1:1 2:-0.759482 3:-0.024222 4:-0.788365 5:-0.577197 6:-0.093878 
-1 1:1 2:-0.815739 3:0.356401 4:-0.891488 5:-0.312747 6:0.020408 
1 1:1 2:-0.82818 3:0.17128 4:-0.839894 5:-0.049881 6:-0.142857 
-1 1:1 2:-0.053296 3:-0.102076 4:-0.674094 5:-0.702296 6:-0.061225 
-1 1:1 2:-0.833631 3:0.33564 4:-0.775561 5:0.002375 6:-0.387755 
1 1:1 2:-0.705844 3:0.233564 4:-0.76648 5:0.065716 6:-0.183673 
0.3277413864813801 1:1 2:-0.509602 3:0.083045 4:-0.812061 5:-0.319082 6:-0.387755 
-1 1:1 2:-0.883112 3:0.811419 4:-0.941977 5:-0.502771 6:-0.265306 
1 1:1 2:-0.813018 3:0.373702 4:-0.790394 5:0.149644 6:0.428571 
