svm_type nu_svr
kernel_type rbf
gamma 0.166667
nr_class 2
total_sv 65
rho 0.294499
SV
1 1:-1 2:-1 3:1 4:-0.723575 5:-0.398258 6:0.183673 
1 1:-1 2:-1 3:1 4:-0.678864 5:-0.605701 6:-0.22449 
-0.09814701569198635 1:-1 2:-1 3:-1 4:-0.84854 5:-0.431512 6:0.142857 
1 1:-1 2:0.166667 3:1 4:-0.852123 5:-0.572447 6:-0.542857 
1 1:-1 2:0.166667 3:1 4:-0.770809 5:-0.578781 6:-0.771429 
1 1:-1 2:0.333333 3:1 4:-0.850492 5:-0.391924 6:0.183673 
-1 1:-1 2:0.166667 3:1 4:-0.707577 5:-0.434679 6:-0.102041 
1 1:-1 2:-1 3:1 4:-0.841967 5:-0.832146 6:-0.714286 
0.57093809464703 1:-1 2:-1 3:1 4:-0.678864 5:-0.605701 6:-0.22449 
1 1:-1 2:-1 3:1 4:-0.772861 5:-0.30483 6:-0.061225 
-1 1:-1 2:-0.666667 3:1 4:1 5:-1 6:-0.885714 
-0.4599805878879702 1:-1 2:0.333333 3:1 4:-0.816895 5:-0.444181 6:0.061225 
-1 1:-1 2:-1 3:1 4:-0.954734 5:-0.700713 6:-0.265306 
-0.08797323627129155 1:-1 2:-1 3:1 4:0.144317 5:-0.593032 6:-0.795918 
-1 1:-1 2:-1 3:-1 4:-0.84854 5:-0.431512 6:0.142857 
-1 1:-1 2:-0.666667 3:1 4:-0.767471 5:-0.529691 6:0.020408 
1 1:-1 2:0.666667 3:1 4:-0.729993 5:-0.124307 6:1 
-1 1:-1 2:0.666667 3:1 4:-0.39852 5:-0.863816 6:-1 
-0.5854149619067414 1:-1 2:0.666667 3:-1 4:-0.953775 5:-0.727633 6:-1 
-0.9397982751028129 1:-1 2:-0.333333 3:-1 4:-0.798862 5:-0.311164 6:-0.142857 
1 1:-1 2:-0.333333 3:-1 4:-0.886076 5:-0.403009 6:0.510204 
-1 1:-1 2:-0.666667 3:1 4:-0.61764 5:-0.273159 6:-0.22449 
1 1:-1 2:-0.666667 3:-1 4:-0.782552 5:-0.290578 6:-0.061225 
0.1180354462454393 1:-1 2:-0.666667 3:1 4:-0.759542 5:-0.444181 6:0.673469 
-1 1:-1 2:-0.333333 3:1 4:-0.193184 5:0.233571 6:-0.55102 
-1 1:-1 2:-1 3:1 4:-0.791922 5:0.353919 6:-0.314286 
0.3362348519495848 1:-1 2:0.5 3:1 4:-0.665781 5:-0.714964 6:0.053061 
1 1:-1 2:-0.666667 3:1 4:-0.268055 5:0.053048 6:-0.338776 
-0.9644534386063243 1:-1 2:1 3:1 4:-0.846524 5:0.106888 6:-0.020408 
1 1:1 2:-0.5 3:1 4:-0.785889 5:0.051465 6:-0.469388 
-1 1:1 2:-0.166667 3:1 4:-0.830395 5:0.14331 6:-0.142857 
1 1:1 2:-0.166667 3:1 4:-0.882199 5:-0.022961 6:0.183673 
-1 1:1 2:-0.166667 3:1 4:-0.752452 5:-0.087886 6:-0.714286 
-1 1:1 2:-1 3:1 4:-0.96409 5:-0.357086 6:0.591837 
1 1:1 2:0.333333 3:1 4:-0.821822 5:-0.016627 6:-0.22449 
-1 1:1 2:-1 3:1 4:-0.913952 5:-0.2019 6:0.020408 
1 1:1 2:-1 3:1 4:-0.860695 5:0.125891 6:0.102041 
1 1:1 2:-1 3:-1 4:-0.596929 5:-0.059382 6:0.102041 
1 1:1 2:-0.166667 3:1 4:-0.874837 5:-0.043547 6:-0.061225 
0.226453253878048 1:1 2:-1 3:1 4:0.865713 5:1 6:0.142857 
-1 1:1 2:-1 3:1 4:-0.821023 5:0.045131 6:-0.22449 
-1 1:1 2:0.333333 3:1 4:-0.861216 5:-0.097387 6:0.102041 
-1 1:1 2:-0.666667 3:-1 4:-0.847255 5:-0.098971 6:-0.306122 
-1 1:1 2:-1 3:1 4:-0.642731 5:0.350752 6:-0.55102 
1 1:1 2:-0.166667 3:1 4:-0.41563 5:-0.494854 6:-0.755102 
1 1:1 2:-1 3:1 4:-0.617232 5:-0.141726 6:-0.632653 
-0.2046464388282922 1:1 2:-1 3:1 4:-0.921264 5:0.830562 6:0.102041 
-0.6595860457045815 1:1 2:-1 3:-1 4:-0.948213 5:-0.545527 6:0.102041 
1 1:1 2:-0.666667 3:-1 4:-0.702955 5:-0.092637 6:-0.591837 
0.9795046049673367 1:1 2:-0.166667 3:1 4:-1 5:-0.461599 6:0.346939 
1 1:1 2:0.166667 3:1 4:-0.606428 5:-0.339667 6:-0.387755 
-1 1:1 2:0.333333 3:1 4:-0.670729 5:-0.195566 6:-0.55102 
1 1:1 2:0.666667 3:1 4:-0.826784 5:-0.35867 6:-0.22449 
0.002192553779966798 1:1 2:0.333333 3:1 4:0.773103 5:0.14331 6:0.265306 
0.7532145241969201 1:1 2:0.666667 3:1 4:-0.836817 5:-0.239905 6:0.020408 
-1 1:1 2:-0.5 3:1 4:-0.643086 5:-0.577197 6:-0.093878 
-1 1:1 2:-0.166667 3:1 4:-0.880197 5:-0.312747 6:0.020408 
-1 1:1 2:0.666667 3:1 4:-0.918695 5:-0.046714 6:0.102041 
1 1:1 2:-0.333333 3:1 4:-0.698566 5:-0.049881 6:-0.142857 
-1 1:1 2:0.166667 3:1 4:-0.522741 5:-0.702296 6:-0.061225 
-1 1:1 2:-0.5 3:1 4:-0.90445 5:0.002375 6:-0.387755 
1 1:1 2:-1 3:1 4:-0.788972 5:0.065716 6:-0.183673 
0.01342667033567436 1:1 2:-0.166667 3:1 4:-0.730449 5:-0.319082 6:-0.387755 
-1 1:1 2:-0.5 3:1 4:-0.955463 5:-0.502771 6:-0.265306 
1 1:1 2:-0.5 3:1 4:-0.812321 5:0.149644 6:0.428571 
