svm_type nu_svr
kernel_type rbf
gamma 0.166667
nr_class 2
total_sv 62
rho 0.315656
SV
1 1:-1 2:-1 3:1 4:0.285467 5:-0.685075 6:0.183673 
1 1:-1 2:-1 3:1 4:0.318339 5:-0.352737 6:-0.22449 
-0.05240420145800664 1:-1 2:-1 3:-1 4:0.183391 5:-0.414079 6:0.142857 
1 1:-1 2:0.166667 3:1 4:0.785467 5:-0.440985 6:-0.542857 
1 1:-1 2:0.166667 3:1 4:0.190311 5:-0.724984 6:-0.771429 
1 1:-1 2:0.333333 3:1 4:0.010381 5:-0.231998 6:0.183673 
-1 1:-1 2:0.166667 3:1 4:0.095156 5:-0.737549 6:-0.102041 
1 1:-1 2:-1 3:1 4:0.435986 5:-0.563308 6:-0.714286 
0.8719672650117157 1:-1 2:-1 3:1 4:0.318339 5:-0.352737 6:-0.22449 
1 1:-1 2:-1 3:1 4:0.525952 5:-0.442876 6:-0.061225 
-1 1:-1 2:-0.666667 3:1 4:-1 5:-0.573139 6:-0.885714 
-1 1:-1 2:-1 3:1 4:0.344291 5:-0.702391 6:-0.265306 
-0.8293653301005111 1:-1 2:-1 3:1 4:-0.062284 5:-0.791651 6:-0.795918 
-1 1:-1 2:-1 3:-1 4:0.183391 5:-0.414079 6:0.142857 
-1 1:-1 2:-0.666667 3:1 4:0.416955 5:-0.270968 6:0.020408 
1 1:-1 2:0.666667 3:1 4:-0.152249 5:-0.348415 6:1 
-1 1:-1 2:0.666667 3:1 4:-0.404844 5:-0.686475 6:-1 
-0.7292021967687681 1:-1 2:0.666667 3:-1 4:0.553633 5:-0.991567 6:-1 
-0.3389916700715804 1:-1 2:-0.333333 3:-1 4:0.096886 5:-0.405977 6:-0.142857 
0.497729175953492 1:-1 2:-0.333333 3:-1 4:0.524221 5:-0.054008 6:0.510204 
-1 1:-1 2:-0.666667 3:1 4:0.197232 5:-0.627403 6:-0.22449 
1 1:-1 2:-0.666667 3:-1 4:0.709343 5:-0.493746 6:-0.061225 
-1 1:-1 2:-0.333333 3:1 4:0.380623 5:-0.978478 6:-0.55102 
-1 1:-1 2:-1 3:1 4:0.816609 5:1 6:-0.314286 
0.2849289775915357 1:-1 2:0.5 3:1 4:0.228374 5:-0.725396 6:0.053061 
1 1:-1 2:-0.666667 3:1 4:0.121107 5:-0.514096 6:-0.338776 
-1 1:-1 2:1 3:1 4:0.813149 5:-0.352926 6:-0.020408 
1 1:1 2:-0.5 3:1 4:0.429066 5:-0.714969 6:-0.469388 
-1 1:1 2:-0.166667 3:1 4:0.581315 5:-0.588211 6:-0.142857 
1 1:1 2:-0.166667 3:1 4:-0.202422 5:-0.6256 6:0.183673 
-1 1:1 2:-0.166667 3:1 4:0.141869 5:-0.638231 6:-0.714286 
-1 1:1 2:-1 3:1 4:0.631488 5:-0.86243 6:0.591837 
1 1:1 2:0.333333 3:1 4:0.576125 5:-0.870802 6:-0.22449 
-1 1:1 2:-1 3:1 4:-0.029412 5:-0.693321 6:0.020408 
1 1:1 2:-1 3:1 4:0.480969 5:-0.747894 6:0.102041 
0.3845279372901502 1:1 2:-0.166667 3:-1 4:0.128028 5:-0.885588 6:-0.020408 
1 1:1 2:-1 3:-1 4:0.641869 5:-0.584429 6:0.102041 
1 1:1 2:-0.166667 3:1 4:0.408304 5:-0.802744 6:-0.061225 
0.8122183837233824 1:1 2:-1 3:1 4:-0.463668 5:-0.218426 6:0.142857 
-1 1:1 2:-1 3:1 4:0.318339 5:-0.810245 6:-0.22449 
-1 1:1 2:0.333333 3:1 4:0.430796 5:-0.778015 6:0.102041 
-1 1:1 2:-0.666667 3:-1 4:0.256055 5:-0.771454 6:-0.306122 
-1 1:1 2:-1 3:1 4:0.102076 5:-0.659505 6:-0.55102 
1 1:1 2:-0.166667 3:1 4:-0.070934 5:-0.689745 6:-0.755102 
1 1:1 2:-1 3:1 4:0.655709 5:-0.835969 6:-0.632653 
-0.05003660160113416 1:1 2:-1 3:1 4:0.543253 5:-0.73218 6:0.102041 
-1 1:1 2:-1 3:-1 4:0.32699 5:-0.892958 6:0.102041 
1 1:1 2:-0.666667 3:-1 4:0.520761 5:-0.726962 6:-0.591837 
0.1486282604297235 1:1 2:-0.166667 3:1 4:0.598616 5:-0.896561 6:0.346939 
1 1:1 2:0.166667 3:1 4:0.096886 5:-0.852637 6:-0.387755 
-1 1:1 2:0.333333 3:1 4:0.403114 5:-0.727626 6:-0.55102 
1 1:1 2:0.666667 3:1 4:0.214533 5:-0.772226 6:-0.22449 
1 1:1 2:0.666667 3:1 4:0.273356 5:-0.833465 6:0.020408 
-1 1:1 2:-0.5 3:1 4:-0.024222 5:-0.788365 6:-0.093878 
-1 1:1 2:-0.166667 3:1 4:0.356401 5:-0.891488 6:0.020408 
-1 1:1 2:0.666667 3:1 4:0.610727 5:-0.796179 6:0.102041 
1 1:1 2:-0.333333 3:1 4:0.17128 5:-0.839894 6:-0.142857 
-1 1:1 2:0.166667 3:1 4:-0.102076 5:-0.674094 6:-0.061225 
-1 1:1 2:-0.5 3:1 4:0.33564 5:-0.775561 6:-0.387755 
1 1:1 2:-1 3:1 4:0.233564 5:-0.76648 6:-0.183673 
-1 1:1 2:-0.5 3:1 4:0.811419 5:-0.941977 6:-0.265306 
1 1:1 2:-0.5 3:1 4:0.373702 5:-0.790394 6:0.428571 
