svm_type nu_svr
kernel_type rbf
gamma 0.166667
nr_class 2
total_sv 60
rho 0.260808
SV
1 1:-1 2:-1 3:-0.625535 4:-0.723575 5:0.285467 6:-0.398258 
1 1:-1 2:-1 3:-0.724138 4:-0.678864 5:0.318339 6:-0.605701 
-1 1:-1 2:-1 3:-0.729103 4:-0.84854 5:0.183391 6:-0.431512 
0.5255945368088573 1:-1 2:0.166667 3:-0.956386 4:-0.852123 5:0.785467 6:-0.572447 
-0.8479443348423257 1:-1 2:0.166667 3:-0.716794 4:-0.567191 5:-0.126298 6:-0.771971 
1 1:-1 2:-0.5 3:-0.965184 4:-0.866467 5:0.456747 6:-0.230404 
1 1:-1 2:-1 3:-0.958853 4:-0.838917 5:-0.015571 6:-0.179731 
1 1:-1 2:0.333333 3:-0.933121 4:-0.850492 5:0.010381 6:-0.391924 
-1 1:-1 2:0.166667 3:-0.832138 4:-0.707577 5:0.095156 6:-0.434679 
1 1:-1 2:0.166667 3:-0.956936 4:-0.888515 5:0.316609 6:-0.2019 
1 1:-1 2:-1 3:-0.724138 4:-0.678864 5:0.318339 6:-0.605701 
1 1:-1 2:-1 3:-0.807677 4:-0.772861 5:0.525952 6:-0.30483 
-0.3678414694256369 1:-1 2:-0.666667 3:0.053178 4:1 5:-1 6:-1 
-1 1:-1 2:-1 3:-0.937233 4:-0.954734 5:0.344291 6:-0.700713 
-1 1:-1 2:0.833333 3:-0.966757 4:-0.922993 5:0.709343 6:-0.637371 
-1 1:-1 2:-1 3:-0.729103 4:-0.84854 5:0.183391 6:-0.431512 
1 1:-1 2:0.666667 3:-0.761987 4:-0.729993 5:-0.152249 6:-0.124307 
1 1:-1 2:0.666667 3:-0.922927 4:-0.861599 5:0.143599 6:-0.315914 
-1 1:-1 2:0.666667 3:-0.711404 4:-0.39852 5:-0.404844 6:-0.863816 
-0.8337925813950706 1:-1 2:-1 3:0.145628 4:-0.172146 5:-0.33391 6:-0.423595 
-1 1:-1 2:0.666667 3:-0.965421 4:-0.953775 5:0.553633 6:-0.727633 
-1 1:-1 2:-0.333333 3:-0.876791 4:-0.798862 5:0.096886 6:-0.311164 
-1 1:-1 2:-0.666667 3:-0.681721 4:-0.61764 5:0.197232 6:-0.273159 
1 1:-1 2:-0.666667 3:-0.920273 4:-0.759542 5:0.351211 6:-0.444181 
-1 1:-1 2:-0.333333 3:0.406689 4:-0.193184 5:0.380623 6:0.233571 
-1 1:-1 2:-1 3:-0.866507 4:-0.791922 5:0.816609 6:0.353919 
1 1:-1 2:0.5 3:-0.767319 4:-0.665781 5:0.228374 6:-0.714964 
1 1:-1 2:-0.666667 3:0.205108 4:-0.268055 5:0.121107 6:0.053048 
-0.7598978057132403 1:-1 2:1 3:-0.906343 4:-0.846524 5:0.813149 6:0.106888 
-1 1:1 2:-0.166667 3:-0.85762 4:-0.830395 5:0.581315 6:0.14331 
1 1:1 2:-0.166667 3:-0.871561 4:-0.882199 5:-0.202422 6:-0.022961 
-1 1:1 2:-0.166667 3:-0.770401 4:-0.752452 5:0.141869 6:-0.087886 
1 1:1 2:0.333333 3:-0.878709 4:-0.821822 5:0.576125 6:-0.016627 
-0.9258242025887058 1:1 2:-1 3:-0.803147 4:-0.913952 5:-0.029412 6:-0.2019 
1 1:1 2:-1 3:-0.80325 4:-0.860695 5:0.480969 6:0.125891 
0.9635751530347052 1:1 2:-1 3:-0.30396 4:-0.596929 5:0.641869 6:-0.059382 
1 1:1 2:-0.166667 3:-0.855848 4:-0.874837 5:0.408304 6:-0.043547 
0.3488633630891332 1:1 2:-1 3:0.88062 4:0.865713 5:-0.463668 6:1 
-1 1:1 2:-1 3:-0.834994 4:-0.821023 5:0.318339 6:0.045131 
-1 1:1 2:0.333333 3:-0.853014 4:-0.861216 5:0.430796 6:-0.097387 
-1 1:1 2:-0.666667 3:-0.896052 4:-0.847255 5:0.256055 6:-0.098971 
-1 1:1 2:-1 3:-0.193826 4:-0.642731 5:0.102076 6:0.350752 
-0.3696533817876729 1:1 2:-1 3:-0.000806 4:-0.540797 5:0.150519 6:0.507522 
1 1:1 2:-0.166667 3:-0.030539 4:-0.41563 5:-0.070934 6:-0.494854 
1 1:1 2:-1 3:-0.20107 4:-0.617232 5:0.655709 6:-0.141726 
1 1:1 2:-0.166667 3:-1 4:-1 5:0.598616 6:-0.461599 
1 1:1 2:0.166667 3:-0.359559 4:-0.606428 5:0.096886 6:-0.339667 
-1 1:1 2:0.333333 3:-0.52775 4:-0.670729 5:0.403114 6:-0.195566 
1 1:1 2:0.666667 3:-0.86635 4:-0.826784 5:0.214533 6:-0.35867 
0.1619669470673049 1:1 2:0.333333 3:1 4:0.773103 5:0.107266 6:0.14331 
1 1:1 2:0.666667 3:-0.848168 4:-0.836817 5:0.273356 6:-0.239905 
-1 1:1 2:-0.5 3:-0.759482 4:-0.643086 5:-0.024222 6:-0.577197 
-1 1:1 2:-0.166667 3:-0.815739 4:-0.880197 5:0.356401 6:-0.312747 
-0.8950462242473481 1:1 2:0.666667 3:-0.954627 4:-0.918695 5:0.610727 6:-0.046714 
1 1:1 2:-0.333333 3:-0.82818 4:-0.698566 5:0.17128 6:-0.049881 
-1 1:1 2:0.166667 3:-0.053296 4:-0.522741 5:-0.102076 6:-0.702296 
-1 1:1 2:-0.5 3:-0.833631 4:-0.90445 5:0.33564 6:0.002375 
1 1:1 2:-1 3:-0.705844 4:-0.788972 5:0.233564 6:0.065716 
-1 1:1 2:-0.5 3:-0.883112 4:-0.955463 5:0.811419 6:-0.502771 
1 1:1 2:-0.5 3:-0.813018 4:-0.812321 5:0.373702 6:0.149644 
