svm_type nu_svr
kernel_type rbf
gamma 0.166667
nr_class 2
total_sv 62
rho 0.308635
SV
1 1:-1 2:-1 3:-0.625535 4:-0.723575 5:0.285467 6:-0.685075 
1 1:-1 2:-1 3:-0.724138 4:-0.678864 5:0.318339 6:-0.352737 
-1 1:-1 2:-1 3:-0.729103 4:-0.84854 5:0.183391 6:-0.414079 
-1 1:-1 2:0.166667 3:-0.716794 4:-0.567191 5:-0.126298 6:-0.488633 
1 1:-1 2:-0.5 3:-0.965184 4:-0.866467 5:0.456747 6:-0.470295 
1 1:-1 2:-1 3:-0.958853 4:-0.838917 5:-0.015571 6:-0.174405 
1 1:-1 2:0.333333 3:-0.933121 4:-0.850492 5:0.010381 6:-0.231998 
-1 1:-1 2:0.166667 3:-0.832138 4:-0.707577 5:0.095156 6:-0.737549 
1 1:-1 2:0.166667 3:-0.956936 4:-0.888515 5:0.316609 6:-0.639346 
0.3549518181207802 1:-1 2:-1 3:-0.724138 4:-0.678864 5:0.318339 6:-0.352737 
1 1:-1 2:-1 3:-0.807677 4:-0.772861 5:0.525952 6:-0.442876 
-0.735494505673832 1:-1 2:-0.666667 3:0.053178 4:1 5:-1 6:-0.573139 
-1 1:-1 2:-1 3:-0.937233 4:-0.954734 5:0.344291 6:-0.702391 
-1 1:-1 2:0.833333 3:-0.966757 4:-0.922993 5:0.709343 6:-0.910516 
-1 1:-1 2:-1 3:-0.729103 4:-0.84854 5:0.183391 6:-0.414079 
1 1:-1 2:0.666667 3:-0.761987 4:-0.729993 5:-0.152249 6:-0.348415 
1 1:-1 2:0.666667 3:-0.922927 4:-0.861599 5:0.143599 6:-0.321028 
-0.4484579152314562 1:-1 2:-1 3:-0.539699 4:-0.629473 5:-0.186851 6:-0.5121 
-1 1:-1 2:0.666667 3:-0.711404 4:-0.39852 5:-0.404844 6:-0.686475 
-1 1:-1 2:0.666667 3:-0.965421 4:-0.953775 5:0.553633 6:-0.991567 
-1 1:-1 2:-0.333333 3:-0.876791 4:-0.798862 5:0.096886 6:-0.405977 
-1 1:-1 2:-0.666667 3:-0.681721 4:-0.61764 5:0.197232 6:-0.627403 
1 1:-1 2:-0.666667 3:-0.920273 4:-0.759542 5:0.351211 6:-0.650517 
1 1:-1 2:-0.166667 3:-0.974102 4:-0.895037 5:0.790657 6:-0.526912 
-1 1:-1 2:-0.333333 3:0.406689 4:-0.193184 5:0.380623 6:-0.978478 
-1 1:-1 2:-1 3:-0.866507 4:-0.791922 5:0.816609 6:1 
1 1:-1 2:0.5 3:-0.767319 4:-0.665781 5:0.228374 6:-0.725396 
1 1:-1 2:-0.666667 3:0.205108 4:-0.268055 5:0.121107 6:-0.514096 
-0.753592729971166 1:-1 2:1 3:-0.906343 4:-0.846524 5:0.813149 6:-0.352926 
-1 1:1 2:-0.166667 3:-0.85762 4:-0.830395 5:0.581315 6:-0.588211 
1 1:1 2:-0.166667 3:-0.871561 4:-0.882199 5:-0.202422 6:-0.6256 
-1 1:1 2:-0.166667 3:-0.770401 4:-0.752452 5:0.141869 6:-0.638231 
1 1:1 2:0.333333 3:-0.878709 4:-0.821822 5:0.576125 6:-0.870802 
1 1:1 2:-1 3:-0.80325 4:-0.860695 5:0.480969 6:-0.747894 
0.9807812070120261 1:1 2:-1 3:-0.30396 4:-0.596929 5:0.641869 6:-0.584429 
1 1:1 2:-0.166667 3:-0.855848 4:-0.874837 5:0.408304 6:-0.802744 
0.3978127187964808 1:1 2:-1 3:0.88062 4:0.865713 5:-0.463668 6:-0.218426 
0.06784819979162671 1:1 2:-1 3:-0.793693 4:-0.791973 5:0.288927 6:-0.686792 
-1 1:1 2:-1 3:-0.834994 4:-0.821023 5:0.318339 6:-0.810245 
-1 1:1 2:0.333333 3:-0.853014 4:-0.861216 5:0.430796 6:-0.778015 
-1 1:1 2:-0.666667 3:-0.896052 4:-0.847255 5:0.256055 6:-0.771454 
-1 1:1 2:-1 3:-0.193826 4:-0.642731 5:0.102076 6:-0.659505 
-0.3007601594297574 1:1 2:-1 3:-0.000806 4:-0.540797 5:0.150519 6:-0.849922 
1 1:1 2:-0.166667 3:-0.030539 4:-0.41563 5:-0.070934 6:-0.689745 
1 1:1 2:-1 3:-0.20107 4:-0.617232 5:0.655709 6:-0.835969 
-1 1:1 2:-1 3:-0.94202 4:-0.948213 5:0.32699 6:-0.892958 
1 1:1 2:-0.166667 3:-1 4:-1 5:0.598616 6:-0.896561 
-0.1168328550933231 1:1 2:-0.166667 3:-0.704392 4:-0.83618 5:0.49654 6:-0.739317 
1 1:1 2:0.166667 3:-0.359559 4:-0.606428 5:0.096886 6:-0.852637 
-1 1:1 2:0.333333 3:-0.52775 4:-0.670729 5:0.403114 6:-0.727626 
1 1:1 2:0.666667 3:-0.86635 4:-0.826784 5:0.214533 6:-0.772226 
0.1986060562790858 1:1 2:0.333333 3:1 4:0.773103 5:0.107266 6:-0.767455 
1 1:1 2:0.666667 3:-0.848168 4:-0.836817 5:0.273356 6:-0.833465 
-1 1:1 2:-0.5 3:-0.759482 4:-0.643086 5:-0.024222 6:-0.788365 
-1 1:1 2:-0.166667 3:-0.815739 4:-0.880197 5:0.356401 6:-0.891488 
-0.6448618346004654 1:1 2:0.666667 3:-0.954627 4:-0.918695 5:0.610727 6:-0.796179 
1 1:1 2:-0.333333 3:-0.82818 4:-0.698566 5:0.17128 6:-0.839894 
-1 1:1 2:0.166667 3:-0.053296 4:-0.522741 5:-0.102076 6:-0.674094 
-1 1:1 2:-0.5 3:-0.833631 4:-0.90445 5:0.33564 6:-0.775561 
1 1:1 2:-1 3:-0.705844 4:-0.788972 5:0.233564 6:-0.76648 
-1 1:1 2:-0.5 3:-0.883112 4:-0.955463 5:0.811419 6:-0.941977 
1 1:1 2:-0.5 3:-0.813018 4:-0.812321 5:0.373702 6:-0.790394 
