svm_type nu_svr
kernel_type rbf
gamma 0.166667
nr_class 2
total_sv 64
rho 0.19498
SV
1 1:-0.625535 2:-0.723575 3:0.285467 4:-0.398258 5:-0.246048 6:0.183673 
1 1:-0.724138 2:-0.678864 3:0.318339 4:-0.605701 5:-0.514521 6:-0.22449 
-1 1:-0.729103 2:-0.84854 3:0.183391 4:-0.431512 5:-0.277424 6:0.142857 
1 1:-0.956386 2:-0.852123 3:0.785467 4:-0.572447 5:-0.299265 6:-0.542857 
0.5900857204782338 1:-0.965184 2:-0.866467 3:0.456747 4:-0.230404 5:0.082356 6:0.795918 
-0.2374859735704285 1:-0.934617 2:-0.878479 3:-0.089965 4:-0.353919 5:-0.17201 6:0.428571 
1 1:-0.817005 2:-0.770809 3:0.190311 4:-0.578781 5:-0.363283 6:-0.771429 
1 1:-0.933121 2:-0.850492 3:0.010381 4:-0.391924 5:-0.214234 6:0.183673 
-1 1:-0.832138 2:-0.707577 3:0.095156 4:-0.434679 5:-0.519142 6:-0.102041 
1 1:-0.939254 2:-0.841967 3:0.435986 4:-0.832146 5:-0.535098 6:-0.714286 
1 1:-0.724138 2:-0.678864 3:0.318339 4:-0.605701 5:-0.514521 6:-0.22449 
1 1:-0.957684 2:-0.944027 3:0.655709 4:-0.125891 5:0.068736 6:-0.346939 
1 1:-0.807677 2:-0.772861 3:0.525952 4:-0.30483 5:-0.247118 6:-0.061225 
-0.6085768544691161 1:0.053178 2:1 3:-1 4:-1 5:-1 6:-0.885714 
1 1:-0.964053 2:-0.909095 3:0.269896 4:0.113222 5:0.530671 6:-0.159184 
1 1:-0.922482 2:-0.855892 3:0.66436 4:-0.179731 5:0.139466 6:0.020408 
-1 1:-0.937233 2:-0.954734 3:0.344291 4:-0.700713 5:-0.171474 6:-0.265306 
-0.119427320838181 1:-0.966757 2:-0.922993 3:0.709343 4:-0.637371 5:-0.373741 6:-1 
-1 1:-0.729103 2:-0.84854 3:0.183391 4:-0.431512 5:-0.277424 6:0.142857 
1 1:-0.761987 2:-0.729993 3:-0.152249 4:-0.124307 5:-0.064649 6:1 
0.9352740679532989 1:-0.922927 2:-0.861599 3:0.143599 4:-0.315914 5:0.07253 6:0.428571 
-1 1:-0.711404 2:-0.39852 3:-0.404844 4:-0.863816 5:-0.869631 6:-1 
-1 1:-0.965421 2:-0.953775 3:0.553633 4:-0.727633 5:-0.439704 6:-1 
-1 1:-0.876791 2:-0.798862 3:0.096886 4:-0.311164 5:-0.161405 6:-0.142857 
1 1:-0.920273 2:-0.759542 3:0.351211 4:-0.444181 5:-0.247556 6:0.673469 
0.1029029856063397 1:-0.974102 2:-0.895037 3:0.790657 4:0.106888 5:0.810527 6:0.918367 
-1 1:0.406689 2:-0.193184 3:0.380623 4:0.233571 5:0.024323 6:-0.55102 
-1 1:-0.866507 2:-0.791922 3:0.816609 4:0.353919 5:0.776135 6:-0.314286 
0.9565745665843819 1:-0.767319 2:-0.665781 3:0.228374 4:-0.714964 5:-0.635355 6:0.053061 
1 1:0.205108 2:-0.268055 3:0.121107 4:0.053048 5:0.004719 6:-0.338776 
-0.5706296765143051 1:-0.906343 2:-0.846524 3:0.813149 4:0.106888 5:0.429294 6:-0.020408 
1 1:-0.967825 2:-0.903218 3:0.401384 4:0.646873 5:1 6:-0.322449 
-1 1:-0.792999 2:-0.811905 3:0.264706 4:-0.140143 5:-0.048353 6:0.183673 
-1 1:-0.85762 2:-0.830395 3:0.581315 4:0.14331 5:0.020771 6:-0.142857 
1 1:-0.871561 2:-0.882199 3:-0.202422 4:-0.022961 5:0.139806 6:0.183673 
-1 1:-0.770401 2:-0.752452 3:0.141869 4:-0.087886 5:-0.179452 6:-0.714286 
-1 1:-0.983226 2:-0.96409 3:0.631488 4:-0.357086 5:0.005254 6:0.591837 
1 1:-0.878709 2:-0.821822 3:0.576125 4:-0.016627 5:-0.182809 6:-0.22449 
-1 1:-0.803147 2:-0.913952 3:-0.029412 4:-0.2019 5:0.170356 6:0.020408 
1 1:-0.80325 2:-0.860695 3:0.480969 4:0.125891 5:0.34003 6:0.102041 
1 1:-0.855848 2:-0.874837 3:0.408304 4:-0.043547 5:0.330204 6:-0.061225 
0.1861317226732276 1:0.88062 2:0.865713 3:-0.463668 4:1 5:0.362018 6:0.142857 
-1 1:-0.834994 2:-0.821023 3:0.318339 4:0.045131 5:-0.108722 6:-0.22449 
-1 1:-0.853014 2:-0.861216 3:0.430796 4:-0.097387 5:-0.013037 6:0.102041 
-1 1:-0.896052 2:-0.847255 3:0.256055 4:-0.098971 5:-0.106679 6:-0.306122 
-1 1:-0.193826 2:-0.642731 3:0.102076 4:0.350752 5:0.347084 6:-0.55102 
1 1:-0.030539 2:-0.41563 3:-0.070934 4:-0.494854 5:-0.574257 6:-0.755102 
1 1:-0.20107 2:-0.617232 3:0.655709 4:-0.141726 5:-0.166707 6:-0.632653 
-0.2440417870118806 1:-0.93417 2:-0.921264 3:0.543253 4:0.830562 5:0.823466 6:0.102041 
-1 1:-0.94202 2:-0.948213 3:0.32699 4:-0.545527 5:-0.185241 6:0.102041 
0.01300293700286704 1:-0.8452 2:-0.702955 3:0.520761 4:-0.092637 5:-0.38133 6:-0.591837 
1 1:-0.359559 2:-0.606428 3:0.096886 4:-0.339667 5:-0.412074 6:-0.387755 
-1 1:-0.52775 2:-0.670729 3:0.403114 4:-0.195566 5:-0.316729 6:-0.55102 
1 1:-0.86635 2:-0.826784 3:0.214533 4:-0.35867 5:-0.32135 6:-0.22449 
-1 1:-0.759482 2:-0.643086 3:-0.024222 4:-0.577197 5:-0.587294 6:-0.093878 
-1 1:-0.815739 2:-0.880197 3:0.356401 4:-0.312747 5:0.011626 6:0.020408 
-1 1:-0.954627 2:-0.918695 3:0.610727 4:-0.046714 5:0.562631 6:0.102041 
1 1:-0.82818 2:-0.698566 3:0.17128 4:-0.049881 5:-0.276889 6:-0.142857 
-0.2198383875960886 1:-0.687797 2:-0.851482 3:0.586505 4:-0.059382 5:0.493117 6:0.591837 
-1 1:-0.053296 2:-0.522741 3:-0.102076 4:-0.702296 5:-0.562242 6:-0.061225 
-1 1:-0.833631 2:-0.90445 3:0.33564 4:0.002375 5:0.077638 6:-0.387755 
1 1:-0.705844 2:-0.788972 3:0.233564 4:0.065716 5:0.140439 6:-0.183673 
-1 1:-0.883112 2:-0.955463 3:0.811419 4:-0.502771 5:-0.17989 6:-0.265306 
0.216027999701651 1:-0.813018 2:-0.812321 3:0.373702 4:0.149644 5:0.14939 6:0.428571 
