svm_type nu_svr
kernel_type rbf
gamma 0.166667
nr_class 2
total_sv 62
rho 0.226968
SV
1 1:-1 2:-0.625535 3:-0.209721 4:-0.398258 5:-0.246048 6:0.183673 
1 1:-1 2:-0.724138 3:0.081089 4:-0.605701 5:-0.514521 6:-0.22449 
-1 1:-1 2:-0.729103 3:-0.500142 4:-0.431512 5:-0.277424 6:0.142857 
1 1:0.166667 2:-0.956386 3:-0.150229 4:-0.572447 5:-0.299265 6:-0.542857 
1 1:0.166667 2:-0.817005 3:-0.228314 4:-0.578781 5:-0.363283 6:-0.771429 
0.9187338936732976 1:-1 2:-0.958853 3:-0.01361 4:-0.179731 5:0.031133 6:0.714286 
1 1:0.333333 2:-0.933121 3:-0.219523 4:-0.391924 5:-0.214234 6:0.183673 
-1 1:0.166667 2:-0.832138 3:-0.318813 4:-0.434679 5:-0.519142 6:-0.102041 
1 1:-1 2:-0.939254 3:-0.285251 4:-0.832146 5:-0.535098 6:-0.714286 
1 1:-1 2:-0.724138 3:0.081089 4:-0.605701 5:-0.514521 6:-0.22449 
1 1:-1 2:-0.957684 3:-0.624437 4:-0.125891 5:0.068736 6:-0.346939 
1 1:-1 2:-0.807677 3:-0.224879 4:-0.30483 5:-0.247118 6:-0.061225 
-1 1:-0.666667 2:0.053178 3:0.105986 4:-1 5:-1 6:-0.885714 
1 1:-0.166667 2:-0.964053 3:-0.216148 4:0.113222 5:0.530671 6:-0.159184 
-1 1:-1 2:-0.729103 3:-0.500142 4:-0.431512 5:-0.277424 6:0.142857 
1 1:0.666667 2:-0.761987 3:0.147663 4:-0.124307 5:-0.064649 6:1 
-1 1:0.666667 2:-0.711404 3:-0.358906 4:-0.863816 5:-0.869631 6:-1 
-0.4011240540939535 1:-1 2:0.145628 3:-0.370554 4:-0.423595 5:-0.587975 6:-0.428571 
-1 1:0.666667 2:-0.965421 3:-0.902952 4:-0.727633 5:-0.439704 6:-1 
-1 1:-0.333333 2:-0.876791 3:-0.090263 4:-0.311164 5:-0.161405 6:-0.142857 
-1 1:-0.666667 2:-0.681721 3:0.151769 4:-0.273159 5:-0.387313 6:-0.22449 
-1 1:-0.333333 2:0.406689 3:-0.911733 4:0.233571 5:0.024323 6:-0.55102 
-1 1:-1 2:-0.866507 3:0.460325 4:0.353919 5:0.776135 6:-0.314286 
0.717681086662156 1:0.5 2:-0.767319 3:-0.174643 4:-0.714964 5:-0.635355 6:0.053061 
0.3744270395659781 1:-0.666667 2:0.205108 3:0.258035 4:0.053048 5:0.004719 6:-0.338776 
-1 1:1 2:-0.906343 3:-0.080001 4:0.106888 5:0.429294 6:-0.020408 
-1 1:0.166667 2:-0.792999 3:-0.321951 4:-0.140143 5:-0.048353 6:0.183673 
-1 1:-0.166667 2:-0.85762 3:-0.356546 4:0.14331 5:0.020771 6:-0.142857 
1 1:-0.166667 2:-0.871561 3:-0.511139 4:-0.022961 5:0.139806 6:0.183673 
-1 1:-0.166667 2:-0.770401 3:-0.301141 4:-0.087886 5:-0.179452 6:-0.714286 
-1 1:-1 2:-0.983226 3:-0.728532 4:-0.357086 5:0.005254 6:0.591837 
1 1:0.333333 2:-0.878709 3:-0.501218 4:-0.016627 5:-0.182809 6:-0.22449 
-1 1:-1 2:-0.803147 3:-0.7544 4:-0.2019 5:0.170356 6:0.020408 
1 1:-1 2:-0.80325 3:-0.455716 4:0.125891 5:0.34003 6:0.102041 
0.4019809824987226 1:-0.166667 2:-0.436699 3:-0.742215 4:-0.162312 5:-0.032884 6:-0.020408 
1 1:-0.166667 2:-0.855848 3:-0.473108 4:-0.043547 5:0.330204 6:-0.061225 
0.4378881791923488 1:-1 2:0.88062 3:-0.274831 4:1 5:0.362018 6:0.142857 
-1 1:-1 2:-0.834994 3:-0.458311 4:0.045131 5:-0.108722 6:-0.22449 
-1 1:0.333333 2:-0.853014 3:-0.542637 4:-0.097387 5:-0.013037 6:0.102041 
-1 1:-0.666667 2:-0.896052 3:-0.462484 4:-0.098971 5:-0.106679 6:-0.306122 
-1 1:-1 2:-0.193826 3:-0.455762 4:0.350752 5:0.347084 6:-0.55102 
1 1:-0.166667 2:-0.030539 3:-0.452333 4:-0.494854 5:-0.574257 6:-0.755102 
1 1:-1 2:-0.20107 3:-0.408574 4:-0.141726 5:-0.166707 6:-0.632653 
-0.7645011255866243 1:-1 2:-0.94202 3:-0.83002 4:-0.545527 5:-0.185241 6:0.102041 
1 1:-0.166667 2:-1 3:-0.846686 4:-0.461599 5:0.650727 6:0.346939 
0.3998471713629562 1:-0.833333 2:-0.764964 3:-1 4:-0.515439 5:-0.255777 6:-0.714286 
-0.4904124830113505 1:-0.166667 2:-0.704392 3:-0.417013 4:-0.295329 5:-0.039986 6:-0.22449 
1 1:0.166667 2:-0.359559 3:-0.436269 4:-0.339667 5:-0.412074 6:-0.387755 
1 1:0.666667 2:-0.86635 3:-0.470865 4:-0.35867 5:-0.32135 6:-0.22449 
0.2236161163895617 1:0.333333 2:1 3:-0.382943 4:0.14331 5:-0.172399 6:0.265306 
0.5258255306549783 1:0.666667 2:-0.848168 3:-0.503926 4:-0.239905 5:-0.170745 6:0.020408 
-1 1:-0.5 2:-0.759482 3:-0.317626 4:-0.577197 5:-0.587294 6:-0.093878 
-1 1:-0.166667 2:-0.815739 3:-0.681675 4:-0.312747 5:0.011626 6:0.020408 
-1 1:0.666667 2:-0.954627 3:-0.34509 4:-0.046714 5:0.562631 6:0.102041 
1 1:-0.333333 2:-0.82818 3:-0.273992 4:-0.049881 5:-0.276889 6:-0.142857 
-0.3439623373080715 1:0.333333 2:-0.687797 3:-0.331441 4:-0.059382 5:0.493117 6:0.591837 
-1 1:0.166667 2:-0.053296 3:-0.534191 4:-0.702296 5:-0.562242 6:-0.061225 
-1 1:-0.5 2:-0.833631 3:-0.46764 4:0.002375 5:0.077638 6:-0.387755 
1 1:-1 2:-0.705844 3:-0.494245 4:0.065716 5:0.140439 6:-0.183673 
1 1:-0.166667 2:-0.509602 3:-0.506916 4:-0.319082 5:-0.253247 6:-0.387755 
-1 1:-0.5 2:-0.883112 3:-0.793579 4:-0.502771 5:-0.17989 6:-0.265306 
1 1:-0.5 2:-0.813018 3:-0.40729 4:0.149644 5:0.14939 6:0.428571 
