svm_type nu_svr
kernel_type rbf
gamma 0.166667
nr_class 2
total_sv 62
rho 0.350562
SV
1 1:-1 2:1 3:0.285467 4:-0.209721 5:-0.398258 6:0.183673 
1 1:-1 2:1 3:0.318339 4:0.081089 5:-0.605701 6:-0.22449 
1 1:0.166667 2:1 3:0.785467 4:-0.150229 5:-0.572447 6:-0.542857 
1 1:0.166667 2:1 3:0.190311 4:-0.228314 5:-0.578781 6:-0.771429 
1 1:0.333333 2:1 3:0.010381 4:-0.219523 5:-0.391924 6:0.183673 
-1 1:0.166667 2:1 3:0.095156 4:-0.318813 5:-0.434679 6:-0.102041 
1 1:-1 2:1 3:0.435986 4:-0.285251 5:-0.832146 6:-0.714286 
0.8024942431809334 1:-1 2:1 3:0.318339 4:0.081089 5:-0.605701 6:-0.22449 
1 1:-1 2:1 3:0.655709 4:-0.624437 5:-0.125891 6:-0.346939 
1 1:-1 2:1 3:0.525952 4:-0.224879 5:-0.30483 6:-0.061225 
-1 1:-0.666667 2:1 3:-1 4:0.105986 5:-1 6:-0.885714 
1 1:-0.166667 2:1 3:0.269896 4:-0.216148 5:0.113222 6:-0.159184 
-1 1:-1 2:1 3:0.344291 4:-0.729894 5:-0.700713 6:-0.265306 
-0.2009214024946925 1:-1 2:1 3:-0.062284 4:-0.324231 5:-0.593032 6:-0.795918 
-1 1:-1 2:-1 3:0.183391 4:-0.500142 5:-0.431512 6:0.142857 
1 1:0.666667 2:1 3:-0.152249 4:0.147663 5:-0.124307 6:1 
0.325414632211172 1:0.666667 2:1 3:0.143599 4:-0.18513 5:-0.315914 6:0.428571 
-1 1:0.666667 2:1 3:-0.404844 4:-0.358906 5:-0.863816 6:-1 
-0.7987167533831706 1:0.666667 2:-1 3:0.553633 4:-0.902952 5:-0.727633 6:-1 
-1 1:-0.333333 2:-1 3:0.096886 4:-0.090263 5:-0.311164 6:-0.142857 
1 1:-0.333333 2:-1 3:0.524221 4:-0.256483 5:-0.403009 6:0.510204 
-1 1:-0.666667 2:1 3:0.197232 4:0.151769 5:-0.273159 6:-0.22449 
-1 1:-0.333333 2:1 3:0.380623 4:-0.911733 5:0.233571 6:-0.55102 
-1 1:-1 2:1 3:0.816609 4:0.460325 5:0.353919 6:-0.314286 
-0.6338656588542267 1:1 2:1 3:0.813149 4:-0.080001 5:0.106888 6:-0.020408 
-1 1:0.166667 2:1 3:0.264706 4:-0.321951 5:-0.140143 6:0.183673 
-1 1:-0.166667 2:1 3:0.581315 4:-0.356546 5:0.14331 6:-0.142857 
1 1:-0.166667 2:1 3:-0.202422 4:-0.511139 5:-0.022961 6:0.183673 
-1 1:-0.166667 2:1 3:0.141869 4:-0.301141 5:-0.087886 6:-0.714286 
-1 1:-1 2:1 3:0.631488 4:-0.728532 5:-0.357086 6:0.591837 
1 1:0.333333 2:1 3:0.576125 4:-0.501218 5:-0.016627 6:-0.22449 
-1 1:-1 2:1 3:-0.029412 4:-0.7544 5:-0.2019 6:0.020408 
1 1:-1 2:1 3:0.480969 4:-0.455716 5:0.125891 6:0.102041 
1 1:-0.166667 2:-1 3:0.128028 4:-0.742215 5:-0.162312 6:-0.020408 
1 1:-0.166667 2:1 3:0.408304 4:-0.473108 5:-0.043547 6:-0.061225 
0.5123698032043353 1:-1 2:1 3:-0.463668 4:-0.274831 5:1 6:0.142857 
0.1637117682203002 1:-0.666667 2:-1 3:0.00692 4:-0.318937 5:-0.252573 6:-0.632653 
-1 1:-1 2:1 3:0.318339 4:-0.458311 5:0.045131 6:-0.22449 
-1 1:0.333333 2:1 3:0.430796 4:-0.542637 5:-0.097387 6:0.102041 
-1 1:-0.666667 2:-1 3:0.256055 4:-0.462484 5:-0.098971 6:-0.306122 
-1 1:-1 2:1 3:0.102076 4:-0.455762 5:0.350752 6:-0.55102 
1 1:-0.166667 2:1 3:-0.070934 4:-0.452333 5:-0.494854 6:-0.755102 
1 1:-1 2:1 3:0.655709 4:-0.408574 5:-0.141726 6:-0.632653 
-0.4477157372245872 1:-1 2:1 3:0.543253 4:-0.388956 5:0.830562 6:0.102041 
1 1:-0.666667 2:-1 3:0.520761 4:-0.256881 5:-0.092637 6:-0.591837 
0.736598456284377 1:-0.166667 2:1 3:0.598616 4:-0.846686 5:-0.461599 6:0.346939 
-1 1:-0.166667 2:1 3:0.49654 4:-0.417013 5:-0.295329 6:-0.22449 
1 1:0.166667 2:1 3:0.096886 4:-0.436269 5:-0.339667 6:-0.387755 
-0.4092429487654374 1:0.333333 2:1 3:0.403114 4:-0.379345 5:-0.195566 6:-0.55102 
1 1:0.666667 2:1 3:0.214533 4:-0.470865 5:-0.35867 6:-0.22449 
1 1:0.666667 2:1 3:0.273356 4:-0.503926 5:-0.239905 6:0.020408 
-1 1:-0.5 2:1 3:-0.024222 4:-0.317626 5:-0.577197 6:-0.093878 
-1 1:-0.166667 2:1 3:0.356401 4:-0.681675 5:-0.312747 6:0.020408 
-1 1:0.666667 2:1 3:0.610727 4:-0.34509 5:-0.046714 6:0.102041 
1 1:-0.333333 2:1 3:0.17128 4:-0.273992 5:-0.049881 6:-0.142857 
0.459411096898882 1:-1 2:-1 3:-0.100346 4:-0.531536 5:-0.379256 6:-0.428571 
-0.5095374992778857 1:0.333333 2:1 3:0.586505 4:-0.331441 5:-0.059382 6:0.591837 
-1 1:0.166667 2:1 3:-0.102076 4:-0.534191 5:-0.702296 6:-0.061225 
-1 1:-0.5 2:1 3:0.33564 4:-0.46764 5:0.002375 6:-0.387755 
1 1:-1 2:1 3:0.233564 4:-0.494245 5:0.065716 6:-0.183673 
-1 1:-0.5 2:1 3:0.811419 4:-0.793579 5:-0.502771 6:-0.265306 
1 1:-0.5 2:1 3:0.373702 4:-0.40729 5:0.149644 6:0.428571 
