svm_type nu_svr
kernel_type rbf
gamma 0.166667
nr_class 2
total_sv 62
rho 0.663712
SV
1 1:-1 2:1 3:0.285467 4:-0.685075 5:-0.398258 6:-0.246048 
1 1:-1 2:1 3:0.318339 4:-0.352737 5:-0.605701 6:-0.514521 
0.3023885586945293 1:0.166667 2:1 3:0.785467 4:-0.440985 5:-0.572447 6:-0.299265 
1 1:-0.5 2:1 3:0.456747 4:-0.470295 5:-0.230404 6:0.082356 
1 1:-1 2:1 3:-0.015571 4:-0.174405 5:-0.179731 6:0.031133 
1 1:0.333333 2:1 3:0.010381 4:-0.231998 5:-0.391924 6:-0.214234 
-1 1:0.166667 2:1 3:0.095156 4:-0.737549 5:-0.434679 6:-0.519142 
1 1:-1 2:1 3:0.435986 4:-0.563308 5:-0.832146 6:-0.535098 
1 1:0.166667 2:1 3:0.316609 4:-0.639346 5:-0.2019 6:0.105803 
1 1:-1 2:1 3:0.318339 4:-0.352737 5:-0.605701 6:-0.514521 
-0.0122682311651058 1:-0.666667 2:1 3:-0.299308 4:0.043854 5:-0.110055 6:-0.056137 
1 1:-1 2:1 3:0.525952 4:-0.442876 5:-0.30483 6:-0.247118 
-1 1:-0.666667 2:1 3:-1 4:-0.573139 5:-1 6:-1 
-1 1:-1 2:1 3:0.344291 4:-0.702391 5:-0.700713 6:-0.171474 
-0.8294239741398018 1:-1 2:1 3:-0.062284 4:-0.791651 5:-0.593032 6:-0.642847 
-0.9627561734506618 1:0.833333 2:1 3:0.709343 4:-0.910516 5:-0.637371 6:-0.373741 
-1 1:-1 2:-1 3:0.183391 4:-0.414079 5:-0.431512 6:-0.277424 
1 1:0.666667 2:1 3:-0.152249 4:-0.348415 5:-0.124307 6:-0.064649 
0.4162733478770764 1:0.666667 2:1 3:0.143599 4:-0.321028 5:-0.315914 6:0.07253 
-1 1:0.666667 2:1 3:-0.404844 4:-0.686475 5:-0.863816 6:-0.869631 
-0.9293194879286559 1:0.666667 2:-1 3:0.553633 4:-0.991567 5:-0.727633 6:-0.439704 
-1 1:-0.333333 2:-1 3:0.096886 4:-0.405977 5:-0.311164 6:-0.161405 
1 1:-0.333333 2:-1 3:0.524221 4:-0.054008 5:-0.403009 6:-0.055261 
-0.8278464739452068 1:-0.666667 2:1 3:0.197232 4:-0.627403 5:-0.273159 6:-0.387313 
1 1:-0.666667 2:-1 3:0.709343 4:-0.493746 5:-0.290578 6:-0.196916 
1 1:-0.666667 2:1 3:0.351211 4:-0.650517 5:-0.444181 6:-0.247556 
1 1:-0.166667 2:1 3:0.790657 4:-0.526912 5:0.106888 6:0.810527 
-1 1:-0.333333 2:1 3:0.380623 4:-0.978478 5:0.233571 6:0.024323 
-1 1:-1 2:1 3:0.816609 4:1 5:0.353919 6:0.776135 
1 1:0.5 2:1 3:0.228374 4:-0.725396 5:-0.714964 6:-0.635355 
-1 1:1 2:1 3:0.813149 4:-0.352926 5:0.106888 6:0.429294 
-1 1:-0.166667 2:1 3:0.581315 4:-0.588211 5:0.14331 6:0.020771 
1 1:-0.166667 2:1 3:-0.202422 4:-0.6256 5:-0.022961 6:0.139806 
-1 1:-0.166667 2:1 3:0.141869 4:-0.638231 5:-0.087886 6:-0.179452 
-1 1:-1 2:1 3:0.631488 4:-0.86243 5:-0.357086 6:0.005254 
1 1:0.333333 2:1 3:0.576125 4:-0.870802 5:-0.016627 6:-0.182809 
-1 1:-1 2:1 3:-0.029412 4:-0.693321 5:-0.2019 6:0.170356 
1 1:-1 2:1 3:0.480969 4:-0.747894 5:0.125891 6:0.34003 
1 1:-0.166667 2:-1 3:0.128028 4:-0.885588 5:-0.162312 6:-0.032884 
0.4126697639161478 1:-1 2:-1 3:0.641869 4:-0.584429 5:-0.059382 6:-0.000146 
0.3573800642982761 1:-0.166667 2:1 3:0.408304 4:-0.802744 5:-0.043547 6:0.330204 
-1 1:-1 2:1 3:0.318339 4:-0.810245 5:0.045131 6:-0.108722 
-1 1:0.333333 2:1 3:0.430796 4:-0.778015 5:-0.097387 6:-0.013037 
-1 1:-0.666667 2:-1 3:0.256055 4:-0.771454 5:-0.098971 6:-0.106679 
-1 1:-1 2:1 3:0.102076 4:-0.659505 5:0.350752 6:0.347084 
1 1:-0.166667 2:1 3:-0.070934 4:-0.689745 5:-0.494854 6:-0.574257 
-0.09212272059141456 1:-0.166667 2:1 3:0.359862 4:-0.798953 5:-0.555028 6:-0.34256 
-1 1:-0.166667 2:1 3:0.49654 4:-0.739317 5:-0.295329 6:-0.039986 
1 1:0.166667 2:1 3:0.096886 4:-0.852637 5:-0.339667 6:-0.412074 
-1 1:0.333333 2:1 3:0.403114 4:-0.727626 5:-0.195566 6:-0.316729 
1 1:0.666667 2:1 3:0.214533 4:-0.772226 5:-0.35867 6:-0.32135 
1 1:0.666667 2:1 3:0.273356 4:-0.833465 5:-0.239905 6:-0.170745 
-1 1:-0.5 2:1 3:-0.024222 4:-0.788365 5:-0.577197 6:-0.587294 
-1 1:-0.166667 2:1 3:0.356401 4:-0.891488 5:-0.312747 6:0.011626 
-0.3462629387791534 1:0.666667 2:1 3:0.610727 4:-0.796179 5:-0.046714 6:0.562631 
1 1:-0.333333 2:1 3:0.17128 4:-0.839894 5:-0.049881 6:-0.276889 
0.5112882652139702 1:-1 2:-1 3:-0.100346 4:-0.787466 5:-0.379256 6:-0.452255 
-1 1:0.166667 2:1 3:-0.102076 4:-0.674094 5:-0.702296 6:-0.562242 
-1 1:-0.5 2:1 3:0.33564 4:-0.775561 5:0.002375 6:0.077638 
1 1:-1 2:1 3:0.233564 4:-0.76648 5:0.065716 6:0.140439 
-1 1:-0.5 2:1 3:0.811419 4:-0.941977 5:-0.502771 6:-0.17989 
1 1:-0.5 2:1 3:0.373702 4:-0.790394 5:0.149644 6:0.14939 
