svm_type nu_svr
kernel_type rbf
gamma 0.166667
nr_class 2
total_sv 64
rho 0.406525
SV
1 1:-1 2:-0.723575 3:0.285467 4:-0.685075 5:-0.246048 6:0.183673 
1 1:-1 2:-0.678864 3:0.318339 4:-0.352737 5:-0.514521 6:-0.22449 
-1 1:-1 2:-0.84854 3:0.183391 4:-0.414079 5:-0.277424 6:0.142857 
1 1:0.166667 2:-0.852123 3:0.785467 4:-0.440985 5:-0.299265 6:-0.542857 
-0.6876925438461602 1:1 2:-0.878479 3:-0.089965 4:-0.225448 5:-0.17201 6:0.428571 
1 1:0.166667 2:-0.770809 3:0.190311 4:-0.724984 5:-0.363283 6:-0.771429 
1 1:-1 2:-0.838917 3:-0.015571 4:-0.174405 5:0.031133 6:0.714286 
1 1:0.333333 2:-0.850492 3:0.010381 4:-0.231998 5:-0.214234 6:0.183673 
-1 1:0.166667 2:-0.707577 3:0.095156 4:-0.737549 5:-0.519142 6:-0.102041 
1 1:-1 2:-0.841967 3:0.435986 4:-0.563308 5:-0.535098 6:-0.714286 
1 1:-1 2:-0.678864 3:0.318339 4:-0.352737 5:-0.514521 6:-0.22449 
1 1:-1 2:-0.944027 3:0.655709 4:-0.674198 5:0.068736 6:-0.346939 
1 1:-1 2:-0.772861 3:0.525952 4:-0.442876 5:-0.247118 6:-0.061225 
-0.5730240155891213 1:-0.666667 2:1 3:-1 4:-0.573139 5:-1 6:-0.885714 
1 1:-0.166667 2:-0.909095 3:0.269896 4:-0.627577 5:0.530671 6:-0.159184 
0.6790029893027847 1:-0.166667 2:-0.855892 3:0.66436 4:-0.507869 5:0.139466 6:0.020408 
-1 1:-1 2:-0.954734 3:0.344291 4:-0.702391 5:-0.171474 6:-0.265306 
-1 1:-1 2:-0.84854 3:0.183391 4:-0.414079 5:-0.277424 6:0.142857 
1 1:0.666667 2:-0.729993 3:-0.152249 4:-0.348415 5:-0.064649 6:1 
-1 1:0.666667 2:-0.39852 3:-0.404844 4:-0.686475 5:-0.869631 6:-1 
-1 1:0.666667 2:-0.953775 3:0.553633 4:-0.991567 5:-0.439704 6:-1 
-1 1:-0.333333 2:-0.798862 3:0.096886 4:-0.405977 5:-0.161405 6:-0.142857 
1 1:-0.666667 2:-0.759542 3:0.351211 4:-0.650517 5:-0.247556 6:0.673469 
0.0229083246485743 1:-0.166667 2:-0.895037 3:0.790657 4:-0.526912 5:0.810527 6:0.918367 
-1 1:-0.333333 2:-0.193184 3:0.380623 4:-0.978478 5:0.024323 6:-0.55102 
-1 1:-1 2:-0.791922 3:0.816609 4:1 5:0.776135 6:-0.314286 
1 1:0.5 2:-0.665781 3:0.228374 4:-0.725396 5:-0.635355 6:0.053061 
1 1:-0.666667 2:-0.268055 3:0.121107 4:-0.514096 5:0.004719 6:-0.338776 
-0.5507703583780809 1:1 2:-0.846524 3:0.813149 4:-0.352926 5:0.429294 6:-0.020408 
0.04792597688281023 1:-1 2:-0.903218 3:0.401384 4:-0.222144 5:1 6:-0.322449 
-1 1:0.166667 2:-0.811905 3:0.264706 4:-0.797906 5:-0.048353 6:0.183673 
-1 1:-0.166667 2:-0.830395 3:0.581315 4:-0.588211 5:0.020771 6:-0.142857 
1 1:-0.166667 2:-0.882199 3:-0.202422 4:-0.6256 5:0.139806 6:0.183673 
-1 1:-0.166667 2:-0.752452 3:0.141869 4:-0.638231 5:-0.179452 6:-0.714286 
-1 1:-1 2:-0.96409 3:0.631488 4:-0.86243 5:0.005254 6:0.591837 
1 1:0.333333 2:-0.821822 3:0.576125 4:-0.870802 5:-0.182809 6:-0.22449 
1 1:0.666667 2:-0.736975 3:0.378893 4:-0.801809 5:-0.127061 6:-0.428571 
-1 1:-1 2:-0.913952 3:-0.029412 4:-0.693321 5:0.170356 6:0.020408 
1 1:-1 2:-0.860695 3:0.480969 4:-0.747894 5:0.34003 6:0.102041 
1 1:-0.166667 2:-0.874837 3:0.408304 4:-0.802744 5:0.330204 6:-0.061225 
0.00768704687664056 1:-1 2:0.865713 3:-0.463668 4:-0.218426 5:0.362018 6:0.142857 
-1 1:-1 2:-0.821023 3:0.318339 4:-0.810245 5:-0.108722 6:-0.22449 
-1 1:0.333333 2:-0.861216 3:0.430796 4:-0.778015 5:-0.013037 6:0.102041 
-1 1:-0.666667 2:-0.847255 3:0.256055 4:-0.771454 5:-0.106679 6:-0.306122 
-1 1:-1 2:-0.642731 3:0.102076 4:-0.659505 5:0.347084 6:-0.55102 
1 1:-0.166667 2:-0.41563 3:-0.070934 4:-0.689745 5:-0.574257 6:-0.755102 
1 1:-1 2:-0.617232 3:0.655709 4:-0.835969 5:-0.166707 6:-0.632653 
-0.02289066373964188 1:-1 2:-0.921264 3:0.543253 4:-0.73218 5:0.823466 6:0.102041 
-1 1:-1 2:-0.948213 3:0.32699 4:-0.892958 5:-0.185241 6:0.102041 
-1 1:-0.166667 2:-0.83618 3:0.49654 4:-0.739317 5:-0.039986 6:-0.22449 
1 1:0.166667 2:-0.606428 3:0.096886 4:-0.852637 5:-0.412074 6:-0.387755 
-0.8092212868943871 1:0.333333 2:-0.670729 3:0.403114 4:-0.727626 5:-0.316729 6:-0.55102 
1 1:0.666667 2:-0.826784 3:0.214533 4:-0.772226 5:-0.32135 6:-0.22449 
0.1045087906794012 1:0.666667 2:-0.836817 3:0.273356 4:-0.833465 5:-0.170745 6:0.020408 
-1 1:-0.5 2:-0.643086 3:-0.024222 4:-0.788365 5:-0.587294 6:-0.093878 
-1 1:-0.166667 2:-0.880197 3:0.356401 4:-0.891488 5:0.011626 6:0.020408 
-0.3564011315526087 1:0.666667 2:-0.918695 3:0.610727 4:-0.796179 5:0.562631 6:0.102041 
1 1:-0.333333 2:-0.698566 3:0.17128 4:-0.839894 5:-0.276889 6:-0.142857 
-1 1:0.166667 2:-0.522741 3:-0.102076 4:-0.674094 5:-0.562242 6:-0.061225 
-1 1:-0.5 2:-0.90445 3:0.33564 4:-0.775561 5:0.077638 6:-0.387755 
1 1:-1 2:-0.788972 3:0.233564 4:-0.76648 5:0.140439 6:-0.183673 
0.1379668716097891 1:-0.166667 2:-0.730449 3:0.083045 4:-0.812061 5:-0.253247 6:-0.387755 
-1 1:-0.5 2:-0.955463 3:0.811419 4:-0.941977 5:-0.17989 6:-0.265306 
1 1:-0.5 2:-0.812321 3:0.373702 4:-0.790394 5:0.14939 6:0.428571 
