svm_type nu_svr
kernel_type rbf
gamma 0.166667
nr_class 2
total_sv 61
rho 0.399561
SV
1 1:-1 2:1 3:-0.685075 4:-0.209721 5:-0.246048 6:0.183673 
1 1:-1 2:1 3:-0.352737 4:0.081089 5:-0.514521 6:-0.22449 
1 1:0.166667 2:1 3:-0.440985 4:-0.150229 5:-0.299265 6:-0.542857 
1 1:0.166667 2:1 3:-0.724984 4:-0.228314 5:-0.363283 6:-0.771429 
1 1:0.333333 2:1 3:-0.231998 4:-0.219523 5:-0.214234 6:0.183673 
-1 1:0.166667 2:1 3:-0.737549 4:-0.318813 5:-0.519142 6:-0.102041 
1 1:-1 2:1 3:-0.563308 4:-0.285251 5:-0.535098 6:-0.714286 
1 1:-1 2:1 3:-0.352737 4:0.081089 5:-0.514521 6:-0.22449 
1 1:-1 2:1 3:-0.674198 4:-0.624437 5:0.068736 6:-0.346939 
1 1:-1 2:1 3:-0.442876 4:-0.224879 5:-0.247118 6:-0.061225 
-1 1:-0.666667 2:1 3:-0.573139 4:0.105986 5:-1 6:-0.885714 
1 1:-0.166667 2:1 3:-0.627577 4:-0.216148 5:0.530671 6:-0.159184 
-1 1:-1 2:1 3:-0.702391 4:-0.729894 5:-0.171474 6:-0.265306 
-0.7071311006392403 1:-1 2:1 3:-0.791651 4:-0.324231 5:-0.642847 6:-0.795918 
-1 1:-1 2:-1 3:-0.414079 4:-0.500142 5:-0.277424 6:0.142857 
1 1:0.666667 2:1 3:-0.348415 4:0.147663 5:-0.064649 6:1 
-1 1:0.666667 2:1 3:-0.686475 4:-0.358906 5:-0.869631 6:-1 
-0.6057200618255367 1:0.666667 2:-1 3:-0.991567 4:-0.902952 5:-0.439704 6:-1 
-1 1:-0.333333 2:-1 3:-0.405977 4:-0.090263 5:-0.161405 6:-0.142857 
1 1:-0.333333 2:-1 3:-0.054008 4:-0.256483 5:-0.055261 6:0.510204 
-1 1:-0.666667 2:1 3:-0.627403 4:0.151769 5:-0.387313 6:-0.22449 
0.1045502225364948 1:-0.666667 2:-1 3:-0.493746 4:0.08501 5:-0.196916 6:-0.061225 
-1 1:-0.333333 2:1 3:-0.978478 4:-0.911733 5:0.024323 6:-0.55102 
-1 1:-1 2:1 3:1 4:0.460325 5:0.776135 6:-0.314286 
-1 1:1 2:1 3:-0.352926 4:-0.080001 5:0.429294 6:-0.020408 
-1 1:0.166667 2:1 3:-0.797906 4:-0.321951 5:-0.048353 6:0.183673 
-1 1:-0.166667 2:1 3:-0.588211 4:-0.356546 5:0.020771 6:-0.142857 
1 1:-0.166667 2:1 3:-0.6256 4:-0.511139 5:0.139806 6:0.183673 
-1 1:-0.166667 2:1 3:-0.638231 4:-0.301141 5:-0.179452 6:-0.714286 
-1 1:-1 2:1 3:-0.86243 4:-0.728532 5:0.005254 6:0.591837 
1 1:0.333333 2:1 3:-0.870802 4:-0.501218 5:-0.182809 6:-0.22449 
-1 1:-1 2:1 3:-0.693321 4:-0.7544 5:0.170356 6:0.020408 
1 1:-1 2:1 3:-0.747894 4:-0.455716 5:0.34003 6:0.102041 
1 1:-0.166667 2:-1 3:-0.885588 4:-0.742215 5:-0.032884 6:-0.020408 
0.2706086075846356 1:-1 2:-1 3:-0.584429 4:0.04585 5:-0.000146 6:0.102041 
1 1:-0.166667 2:1 3:-0.802744 4:-0.473108 5:0.330204 6:-0.061225 
0.156322132283911 1:-0.666667 2:-1 3:-0.785454 4:-0.318937 5:-0.495841 6:-0.632653 
-1 1:-1 2:1 3:-0.810245 4:-0.458311 5:-0.108722 6:-0.22449 
-1 1:0.333333 2:1 3:-0.778015 4:-0.542637 5:-0.013037 6:0.102041 
-1 1:-0.666667 2:-1 3:-0.771454 4:-0.462484 5:-0.106679 6:-0.306122 
-1 1:-1 2:1 3:-0.659505 4:-0.455762 5:0.347084 6:-0.55102 
1 1:-0.166667 2:1 3:-0.689745 4:-0.452333 5:-0.574257 6:-0.755102 
1 1:-1 2:1 3:-0.835969 4:-0.408574 5:-0.166707 6:-0.632653 
-0.6586998451479062 1:-1 2:1 3:-0.73218 4:-0.388956 5:0.823466 6:0.102041 
1 1:-0.666667 2:-1 3:-0.726962 4:-0.256881 5:-0.38133 6:-0.591837 
1 1:-0.166667 2:1 3:-0.896561 4:-0.846686 5:0.650727 6:0.346939 
0.5443894073074151 1:-0.833333 2:1 3:-0.964458 4:-1 5:-0.255777 6:-0.714286 
-1 1:-0.166667 2:1 3:-0.739317 4:-0.417013 5:-0.039986 6:-0.22449 
1 1:0.166667 2:1 3:-0.852637 4:-0.436269 5:-0.412074 6:-0.387755 
1 1:0.666667 2:1 3:-0.772226 4:-0.470865 5:-0.32135 6:-0.22449 
0.9241296302875434 1:0.666667 2:1 3:-0.833465 4:-0.503926 5:-0.170745 6:0.020408 
-1 1:-0.5 2:1 3:-0.788365 4:-0.317626 5:-0.587294 6:-0.093878 
-1 1:-0.166667 2:1 3:-0.891488 4:-0.681675 5:0.011626 6:0.020408 
-1 1:0.666667 2:1 3:-0.796179 4:-0.34509 5:0.562631 6:0.102041 
1 1:-0.333333 2:1 3:-0.839894 4:-0.273992 5:-0.276889 6:-0.142857 
-0.02844899238731656 1:0.333333 2:1 3:-0.645361 4:-0.331441 5:0.493117 6:0.591837 
-1 1:0.166667 2:1 3:-0.674094 4:-0.534191 5:-0.562242 6:-0.061225 
-1 1:-0.5 2:1 3:-0.775561 4:-0.46764 5:0.077638 6:-0.387755 
1 1:-1 2:1 3:-0.76648 4:-0.494245 5:0.140439 6:-0.183673 
-1 1:-0.5 2:1 3:-0.941977 4:-0.793579 5:-0.17989 6:-0.265306 
1 1:-0.5 2:1 3:-0.790394 4:-0.40729 5:0.14939 6:0.428571 
