svm_type nu_svr
kernel_type rbf
gamma 0.142857
nr_class 2
total_sv 63
rho 0.323381
SV
1 1:-1 2:-1 3:-0.723575 4:-0.209721 5:-0.398258 6:-0.246048 7:0.183673 
1 1:-1 2:-1 3:-0.678864 4:0.081089 5:-0.605701 6:-0.514521 7:-0.22449 
-1 1:-1 2:-1 3:-0.84854 4:-0.500142 5:-0.431512 6:-0.277424 7:0.142857 
1 1:-1 2:0.166667 3:-0.852123 4:-0.150229 5:-0.572447 6:-0.299265 7:-0.542857 
1 1:-1 2:0.166667 3:-0.770809 4:-0.228314 5:-0.578781 6:-0.363283 7:-0.771429 
1 1:-1 2:0.333333 3:-0.850492 4:-0.219523 5:-0.391924 6:-0.214234 7:0.183673 
-1 1:-1 2:0.166667 3:-0.707577 4:-0.318813 5:-0.434679 6:-0.519142 7:-0.102041 
1 1:-1 2:-1 3:-0.841967 4:-0.285251 5:-0.832146 6:-0.535098 7:-0.714286 
1 1:-1 2:-1 3:-0.678864 4:0.081089 5:-0.605701 6:-0.514521 7:-0.22449 
1 1:-1 2:-1 3:-0.944027 4:-0.624437 5:-0.125891 6:0.068736 7:-0.346939 
1 1:-1 2:-1 3:-0.772861 4:-0.224879 5:-0.30483 6:-0.247118 7:-0.061225 
-0.8112619051179775 1:-1 2:-0.666667 3:1 4:0.105986 5:-1 6:-1 7:-0.885714 
1 1:-1 2:-0.166667 3:-0.909095 4:-0.216148 5:0.113222 6:0.530671 7:-0.159184 
-1 1:-1 2:-1 3:-0.954734 4:-0.729894 5:-0.700713 6:-0.171474 7:-0.265306 
-1 1:-1 2:-1 3:-0.84854 4:-0.500142 5:-0.431512 6:-0.277424 7:0.142857 
1 1:-1 2:0.666667 3:-0.729993 4:0.147663 5:-0.124307 6:-0.064649 7:1 
-1 1:-1 2:0.666667 3:-0.39852 4:-0.358906 5:-0.863816 6:-0.869631 7:-1 
-0.1312028532573329 1:-1 2:1 3:-0.893907 4:-0.004284 5:-0.528108 6:0.196673 7:-0.142857 
-1 1:-1 2:-1 3:-0.172146 4:-0.370554 5:-0.423595 6:-0.587975 7:-0.428571 
-1 1:-1 2:0.666667 3:-0.953775 4:-0.902952 5:-0.727633 6:-0.439704 7:-1 
-1 1:-1 2:-0.333333 3:-0.798862 4:-0.090263 5:-0.311164 6:-0.161405 7:-0.142857 
-1 1:-1 2:-0.666667 3:-0.61764 4:0.151769 5:-0.273159 6:-0.387313 7:-0.22449 
-1 1:-1 2:-0.333333 3:-0.193184 4:-0.911733 5:0.233571 6:0.024323 7:-0.55102 
-1 1:-1 2:-1 3:-0.791922 4:0.460325 5:0.353919 6:0.776135 7:-0.314286 
0.8452437949501824 1:-1 2:0.5 3:-0.665781 4:-0.174643 5:-0.714964 6:-0.635355 7:0.053061 
0.7434981317041245 1:-1 2:-0.666667 3:-0.268055 4:0.258035 5:0.053048 6:0.004719 7:-0.338776 
-1 1:-1 2:1 3:-0.846524 4:-0.080001 5:0.106888 6:0.429294 7:-0.020408 
-0.9475001959480398 1:1 2:0.166667 3:-0.811905 4:-0.321951 5:-0.140143 6:-0.048353 7:0.183673 
0.2158614091784619 1:1 2:-0.5 3:-0.785889 4:-0.412775 5:0.051465 6:-0.055164 7:-0.469388 
-1 1:1 2:-0.166667 3:-0.830395 4:-0.356546 5:0.14331 6:0.020771 7:-0.142857 
1 1:1 2:-0.166667 3:-0.882199 4:-0.511139 5:-0.022961 6:0.139806 7:0.183673 
-1 1:1 2:-0.166667 3:-0.752452 4:-0.301141 5:-0.087886 6:-0.179452 7:-0.714286 
-0.101557203274303 1:1 2:-1 3:-0.96409 4:-0.728532 5:-0.357086 6:0.005254 7:0.591837 
1 1:1 2:0.333333 3:-0.821822 4:-0.501218 5:-0.016627 6:-0.182809 7:-0.22449 
-1 1:1 2:-1 3:-0.913952 4:-0.7544 5:-0.2019 6:0.170356 7:0.020408 
1 1:1 2:-1 3:-0.860695 4:-0.455716 5:0.125891 6:0.34003 7:0.102041 
1 1:1 2:-0.166667 3:-0.874837 4:-0.473108 5:-0.043547 6:0.330204 7:-0.061225 
0.3419954575353082 1:1 2:-1 3:0.865713 4:-0.274831 5:1 6:0.362018 7:0.142857 
-1 1:1 2:-1 3:-0.821023 4:-0.458311 5:0.045131 6:-0.108722 7:-0.22449 
-1 1:1 2:0.333333 3:-0.861216 4:-0.542637 5:-0.097387 6:-0.013037 7:0.102041 
-1 1:1 2:-0.666667 3:-0.847255 4:-0.462484 5:-0.098971 6:-0.106679 7:-0.306122 
-1 1:1 2:-1 3:-0.642731 4:-0.455762 5:0.350752 6:0.347084 7:-0.55102 
1 1:1 2:-0.166667 3:-0.41563 4:-0.452333 5:-0.494854 6:-0.574257 7:-0.755102 
1 1:1 2:-1 3:-0.617232 4:-0.408574 5:-0.141726 6:-0.166707 7:-0.632653 
-0.00847784240234678 1:1 2:-1 3:-0.921264 4:-0.388956 5:0.830562 6:0.823466 7:0.102041 
0.7108910953798179 1:1 2:-0.666667 3:-0.702955 4:-0.256881 5:-0.092637 6:-0.38133 7:-0.591837 
1 1:1 2:-0.166667 3:-1 4:-0.846686 5:-0.461599 6:0.650727 7:0.346939 
0.06581268291147238 1:1 2:-0.833333 3:-0.932148 4:-1 5:-0.515439 6:-0.255777 7:-0.714286 
1 1:1 2:0.166667 3:-0.606428 4:-0.436269 5:-0.339667 6:-0.412074 7:-0.387755 
-1 1:1 2:0.333333 3:-0.670729 4:-0.379345 5:-0.195566 6:-0.316729 7:-0.55102 
1 1:1 2:0.666667 3:-0.826784 4:-0.470865 5:-0.35867 6:-0.32135 7:-0.22449 
0.07669742834063305 1:1 2:0.333333 3:0.773103 4:-0.382943 5:0.14331 6:-0.172399 7:0.265306 
1 1:1 2:0.666667 3:-0.836817 4:-0.503926 5:-0.239905 6:-0.170745 7:0.020408 
-1 1:1 2:-0.5 3:-0.643086 4:-0.317626 5:-0.577197 6:-0.587294 7:-0.093878 
-1 1:1 2:-0.166667 3:-0.880197 4:-0.681675 5:-0.312747 6:0.011626 7:0.020408 
-1 1:1 2:0.666667 3:-0.918695 4:-0.34509 5:-0.046714 6:0.562631 7:0.102041 
1 1:1 2:-0.333333 3:-0.698566 4:-0.273992 5:-0.049881 6:-0.276889 7:-0.142857 
-1 1:1 2:0.166667 3:-0.522741 4:-0.534191 5:-0.702296 6:-0.562242 7:-0.061225 
-1 1:1 2:-0.5 3:-0.90445 4:-0.46764 5:0.002375 6:0.077638 7:-0.387755 
1 1:1 2:-1 3:-0.788972 4:-0.494245 5:0.065716 6:0.140439 7:-0.183673 
1 1:1 2:-0.166667 3:-0.730449 4:-0.506916 5:-0.319082 6:-0.253247 7:-0.387755 
-1 1:1 2:-0.5 3:-0.955463 4:-0.793579 5:-0.502771 6:-0.17989 7:-0.265306 
1 1:1 2:-0.5 3:-0.812321 4:-0.40729 5:0.149644 6:0.14939 7:0.428571 
