svm_type nu_svr
kernel_type rbf
gamma 0.142857
nr_class 2
total_sv 67
rho 0.199791
SV
1 1:-1 2:-1 3:1 4:-0.625535 5:-0.685075 6:-0.209721 7:0.183673 
1 1:-1 2:-1 3:1 4:-0.724138 5:-0.352737 6:0.081089 7:-0.22449 
-0.02039316902629371 1:-1 2:-1 3:-1 4:-0.729103 5:-0.414079 6:-0.500142 7:0.142857 
1 1:-1 2:0.166667 3:1 4:-0.956386 5:-0.440985 6:-0.150229 7:-0.542857 
1 1:-1 2:0.166667 3:1 4:-0.817005 5:-0.724984 6:-0.228314 7:-0.771429 
1 1:-1 2:0.333333 3:1 4:-0.933121 5:-0.231998 6:-0.219523 7:0.183673 
-1 1:-1 2:0.166667 3:1 4:-0.832138 5:-0.737549 6:-0.318813 7:-0.102041 
1 1:-1 2:-1 3:1 4:-0.939254 5:-0.563308 6:-0.285251 7:-0.714286 
0.7042867810883225 1:-1 2:-1 3:1 4:-0.957684 5:-0.674198 6:-0.624437 7:-0.346939 
1 1:-1 2:-1 3:1 4:-0.807677 5:-0.442876 6:-0.224879 7:-0.061225 
-1 1:-1 2:-0.666667 3:1 4:0.053178 5:-0.573139 6:0.105986 7:-0.885714 
-0.1168009028312044 1:-1 2:0.333333 3:1 4:-0.881376 5:-0.729312 6:-0.201087 7:0.061225 
-1 1:-1 2:-1 3:1 4:-0.937233 5:-0.702391 6:-0.729894 7:-0.265306 
-0.1841627574050919 1:-1 2:-1 3:1 4:0.654557 5:-0.791651 6:-0.324231 7:-0.795918 
-1 1:-1 2:-1 3:-1 4:-0.729103 5:-0.414079 6:-0.500142 7:0.142857 
-1 1:-1 2:-0.666667 3:1 4:-0.848144 5:-0.270968 6:-0.146762 7:0.020408 
1 1:-1 2:0.666667 3:1 4:-0.761987 5:-0.348415 6:0.147663 7:1 
-1 1:-1 2:0.666667 3:1 4:-0.711404 5:-0.686475 6:-0.358906 7:-1 
-0.5113891289918217 1:-1 2:0.666667 3:-1 4:-0.965421 5:-0.991567 6:-0.902952 7:-1 
-1 1:-1 2:-0.333333 3:-1 4:-0.876791 5:-0.405977 6:-0.090263 7:-0.142857 
1 1:-1 2:-0.333333 3:-1 4:-0.928249 5:-0.054008 6:-0.256483 7:0.510204 
-1 1:-1 2:-0.666667 3:1 4:-0.681721 5:-0.627403 6:0.151769 7:-0.22449 
0.8990397313588779 1:-1 2:-0.666667 3:-1 4:-0.859541 5:-0.493746 6:0.08501 7:-0.061225 
-1 1:-1 2:-0.333333 3:1 4:0.406689 5:-0.978478 6:-0.911733 7:-0.55102 
-1 1:-1 2:-1 3:1 4:-0.866507 5:1 6:0.460325 7:-0.314286 
0.02606114393157796 1:-1 2:0.5 3:1 4:-0.767319 5:-0.725396 6:-0.174643 7:0.053061 
1 1:-1 2:-0.666667 3:1 4:0.205108 5:-0.514096 6:0.258035 7:-0.338776 
-1 1:-1 2:1 3:1 4:-0.906343 5:-0.352926 6:-0.080001 7:-0.020408 
-0.3971695245190997 1:1 2:0.166667 3:1 4:-0.792999 5:-0.797906 6:-0.321951 7:0.183673 
1 1:1 2:-0.5 3:1 4:-0.770592 5:-0.714969 6:-0.412775 7:-0.469388 
-1 1:1 2:-0.166667 3:1 4:-0.85762 5:-0.588211 6:-0.356546 7:-0.142857 
1 1:1 2:-0.166667 3:1 4:-0.871561 5:-0.6256 6:-0.511139 7:0.183673 
-1 1:1 2:-0.166667 3:1 4:-0.770401 5:-0.638231 6:-0.301141 7:-0.714286 
-0.7373750060006643 1:1 2:-1 3:1 4:-0.983226 5:-0.86243 6:-0.728532 7:0.591837 
1 1:1 2:0.333333 3:1 4:-0.878709 5:-0.870802 6:-0.501218 7:-0.22449 
-1 1:1 2:-1 3:1 4:-0.803147 5:-0.693321 6:-0.7544 7:0.020408 
1 1:1 2:-1 3:1 4:-0.80325 5:-0.747894 6:-0.455716 7:0.102041 
0.4129766039757233 1:1 2:-0.166667 3:-1 4:-0.436699 5:-0.885588 6:-0.742215 7:-0.020408 
0.08724388984428977 1:1 2:-1 3:-1 4:-0.30396 5:-0.584429 6:0.04585 7:0.102041 
1 1:1 2:-0.166667 3:1 4:-0.855848 5:-0.802744 6:-0.473108 7:-0.061225 
0.2957462221829333 1:1 2:-1 3:1 4:0.88062 5:-0.218426 6:-0.274831 7:0.142857 
-1 1:1 2:-1 3:1 4:-0.834994 5:-0.810245 6:-0.458311 7:-0.22449 
-1 1:1 2:0.333333 3:1 4:-0.853014 5:-0.778015 6:-0.542637 7:0.102041 
-1 1:1 2:-0.666667 3:-1 4:-0.896052 5:-0.771454 6:-0.462484 7:-0.306122 
-1 1:1 2:-1 3:1 4:-0.193826 5:-0.659505 6:-0.455762 7:-0.55102 
1 1:1 2:-0.166667 3:1 4:-0.030539 5:-0.689745 6:-0.452333 7:-0.755102 
1 1:1 2:-1 3:1 4:-0.20107 5:-0.835969 6:-0.408574 7:-0.632653 
-0.4110586045084664 1:1 2:-1 3:1 4:-0.93417 5:-0.73218 6:-0.388956 7:0.102041 
-0.09942536165054681 1:1 2:-1 3:-1 4:-0.94202 5:-0.892958 6:-0.83002 7:0.102041 
1 1:1 2:-0.666667 3:-1 4:-0.8452 5:-0.726962 6:-0.256881 7:-0.591837 
1 1:1 2:-0.166667 3:1 4:-1 5:-0.896561 6:-0.846686 7:0.346939 
-0.522225545066811 1:1 2:-0.166667 3:1 4:-0.704392 5:-0.739317 6:-0.417013 7:-0.22449 
1 1:1 2:0.166667 3:1 4:-0.359559 5:-0.852637 6:-0.436269 7:-0.387755 
-1 1:1 2:0.333333 3:1 4:-0.52775 5:-0.727626 6:-0.379345 7:-0.55102 
1 1:1 2:0.666667 3:1 4:-0.86635 5:-0.772226 6:-0.470865 7:-0.22449 
0.04435968657864734 1:1 2:0.333333 3:1 4:1 5:-0.767455 6:-0.382943 7:0.265306 
1 1:1 2:0.666667 3:1 4:-0.848168 5:-0.833465 6:-0.503926 7:0.020408 
-1 1:1 2:-0.5 3:1 4:-0.759482 5:-0.788365 6:-0.317626 7:-0.093878 
-1 1:1 2:-0.166667 3:1 4:-0.815739 5:-0.891488 6:-0.681675 7:0.020408 
-1 1:1 2:0.666667 3:1 4:-0.954627 5:-0.796179 6:-0.34509 7:0.102041 
1 1:1 2:-0.333333 3:1 4:-0.82818 5:-0.839894 6:-0.273992 7:-0.142857 
-1 1:1 2:0.166667 3:1 4:-0.053296 5:-0.674094 6:-0.534191 7:-0.061225 
-1 1:1 2:-0.5 3:1 4:-0.833631 5:-0.775561 6:-0.46764 7:-0.387755 
1 1:1 2:-1 3:1 4:-0.705844 5:-0.76648 6:-0.494245 7:-0.183673 
0.5302859410396279 1:1 2:-0.166667 3:1 4:-0.509602 5:-0.812061 6:-0.506916 7:-0.387755 
-1 1:1 2:-0.5 3:1 4:-0.883112 5:-0.941977 6:-0.793579 7:-0.265306 
1 1:1 2:-0.5 3:1 4:-0.813018 5:-0.790394 6:-0.40729 7:0.428571 
