svm_type nu_svr
kernel_type rbf
gamma 0.142857
nr_class 2
total_sv 62
rho 0.395161
SV
1 1:-1 2:-1 3:1 4:-0.625535 5:0.285467 6:-0.685075 7:-0.398258 
1 1:-1 2:-1 3:1 4:-0.724138 5:0.318339 6:-0.352737 7:-0.605701 
-1 1:-1 2:0.166667 3:1 4:-0.716794 5:-0.126298 6:-0.488633 7:-0.771971 
0.04941324418044208 1:-1 2:-0.5 3:1 4:-0.965184 5:0.456747 6:-0.470295 7:-0.230404 
0.3705837801913653 1:-1 2:1 3:-1 4:-0.934617 5:-0.089965 6:-0.225448 7:-0.353919 
0.7192385931149773 1:-1 2:-1 3:1 4:-0.958853 5:-0.015571 6:-0.174405 7:-0.179731 
1 1:-1 2:0.333333 3:1 4:-0.933121 5:0.010381 6:-0.231998 7:-0.391924 
-1 1:-1 2:0.166667 3:1 4:-0.832138 5:0.095156 6:-0.737549 7:-0.434679 
1 1:-1 2:0.166667 3:1 4:-0.956936 5:0.316609 6:-0.639346 7:-0.2019 
1 1:-1 2:-1 3:1 4:-0.807677 5:0.525952 6:-0.442876 7:-0.30483 
-1 1:-1 2:-0.666667 3:1 4:0.053178 5:-1 6:-0.573139 7:-1 
-1 1:-1 2:-1 3:1 4:-0.937233 5:0.344291 6:-0.702391 7:-0.700713 
-1 1:-1 2:0.833333 3:1 4:-0.966757 5:0.709343 6:-0.910516 7:-0.637371 
-1 1:-1 2:-1 3:-1 4:-0.729103 5:0.183391 6:-0.414079 7:-0.431512 
1 1:-1 2:0.666667 3:1 4:-0.761987 5:-0.152249 6:-0.348415 7:-0.124307 
1 1:-1 2:0.666667 3:1 4:-0.922927 5:0.143599 6:-0.321028 7:-0.315914 
-1 1:-1 2:0.666667 3:1 4:-0.711404 5:-0.404844 6:-0.686475 7:-0.863816 
-1 1:-1 2:0.666667 3:-1 4:-0.965421 5:0.553633 6:-0.991567 7:-0.727633 
-0.9739339890981517 1:-1 2:-0.333333 3:-1 4:-0.876791 5:0.096886 6:-0.405977 7:-0.311164 
1 1:-1 2:-0.333333 3:-1 4:-0.928249 5:0.524221 6:-0.054008 7:-0.403009 
-1 1:-1 2:-0.666667 3:1 4:-0.681721 5:0.197232 6:-0.627403 7:-0.273159 
1 1:-1 2:-0.666667 3:-1 4:-0.859541 5:0.709343 6:-0.493746 7:-0.290578 
1 1:-1 2:-0.666667 3:1 4:-0.920273 5:0.351211 6:-0.650517 7:-0.444181 
-1 1:-1 2:-0.333333 3:1 4:0.406689 5:0.380623 6:-0.978478 7:0.233571 
-1 1:-1 2:-1 3:1 4:-0.866507 5:0.816609 6:1 7:0.353919 
1 1:-1 2:0.5 3:1 4:-0.767319 5:0.228374 6:-0.725396 7:-0.714964 
0.5594148182913975 1:-1 2:-0.666667 3:1 4:0.205108 5:0.121107 6:-0.514096 7:0.053048 
-1 1:-1 2:1 3:1 4:-0.906343 5:0.813149 6:-0.352926 7:0.106888 
-0.2433215329746265 1:-1 2:-1 3:1 4:-0.967825 5:0.401384 6:-0.222144 7:0.646873 
-1 1:1 2:-0.166667 3:1 4:-0.85762 5:0.581315 6:-0.588211 7:0.14331 
1 1:1 2:-0.166667 3:1 4:-0.871561 5:-0.202422 6:-0.6256 7:-0.022961 
-1 1:1 2:-0.166667 3:1 4:-0.770401 5:0.141869 6:-0.638231 7:-0.087886 
1 1:1 2:0.333333 3:1 4:-0.878709 5:0.576125 6:-0.870802 7:-0.016627 
-1 1:1 2:-1 3:1 4:-0.803147 5:-0.029412 6:-0.693321 7:-0.2019 
1 1:1 2:-1 3:1 4:-0.80325 5:0.480969 6:-0.747894 7:0.125891 
0.4257205932799343 1:1 2:-0.166667 3:-1 4:-0.436699 5:0.128028 6:-0.885588 7:-0.162312 
1 1:1 2:-1 3:-1 4:-0.30396 5:0.641869 6:-0.584429 7:-0.059382 
1 1:1 2:-0.166667 3:1 4:-0.855848 5:0.408304 6:-0.802744 7:-0.043547 
0.6150089941525443 1:1 2:-1 3:1 4:0.88062 5:-0.463668 6:-0.218426 7:1 
-1 1:1 2:-1 3:1 4:-0.834994 5:0.318339 6:-0.810245 7:0.045131 
-1 1:1 2:0.333333 3:1 4:-0.853014 5:0.430796 6:-0.778015 7:-0.097387 
-1 1:1 2:-0.666667 3:-1 4:-0.896052 5:0.256055 6:-0.771454 7:-0.098971 
-1 1:1 2:-1 3:1 4:-0.193826 5:0.102076 6:-0.659505 7:0.350752 
-0.7676126442601245 1:1 2:-1 3:1 4:-0.000806 5:0.150519 6:-0.849922 7:0.507522 
1 1:1 2:-0.166667 3:1 4:-0.030539 5:-0.070934 6:-0.689745 7:-0.494854 
1 1:1 2:-1 3:1 4:-0.20107 5:0.655709 6:-0.835969 7:-0.141726 
1 1:1 2:-0.166667 3:1 4:-1 5:0.598616 6:-0.896561 7:-0.461599 
-0.06157621203202467 1:1 2:-0.166667 3:1 4:-0.704392 5:0.49654 6:-0.739317 7:-0.295329 
1 1:1 2:0.166667 3:1 4:-0.359559 5:0.096886 6:-0.852637 7:-0.339667 
-1 1:1 2:0.333333 3:1 4:-0.52775 5:0.403114 6:-0.727626 7:-0.195566 
1 1:1 2:0.666667 3:1 4:-0.86635 5:0.214533 6:-0.772226 7:-0.35867 
0.2867509824408002 1:1 2:0.333333 3:1 4:1 5:0.107266 6:-0.767455 7:0.14331 
0.9738689943485392 1:1 2:0.666667 3:1 4:-0.848168 5:0.273356 6:-0.833465 7:-0.239905 
-1 1:1 2:-0.5 3:1 4:-0.759482 5:-0.024222 6:-0.788365 7:-0.577197 
-1 1:1 2:-0.166667 3:1 4:-0.815739 5:0.356401 6:-0.891488 7:-0.312747 
-0.9535556216350729 1:1 2:0.666667 3:1 4:-0.954627 5:0.610727 6:-0.796179 7:-0.046714 
1 1:1 2:-0.333333 3:1 4:-0.82818 5:0.17128 6:-0.839894 7:-0.049881 
-1 1:1 2:0.166667 3:1 4:-0.053296 5:-0.102076 6:-0.674094 7:-0.702296 
-1 1:1 2:-0.5 3:1 4:-0.833631 5:0.33564 6:-0.775561 7:0.002375 
1 1:1 2:-1 3:1 4:-0.705844 5:0.233564 6:-0.76648 7:0.065716 
-1 1:1 2:-0.5 3:1 4:-0.883112 5:0.811419 6:-0.941977 7:-0.502771 
1 1:1 2:-0.5 3:1 4:-0.813018 5:0.373702 6:-0.790394 7:0.149644 
