svm_type nu_svr
kernel_type rbf
gamma 0.142857
nr_class 2
total_sv 64
rho 0.283665
SV
1 1:-1 2:-1 3:1 4:-0.625535 5:-0.685075 6:-0.209721 7:-0.398258 
1 1:-1 2:-1 3:1 4:-0.724138 5:-0.352737 6:0.081089 7:-0.605701 
-1 1:-1 2:0.166667 3:1 4:-0.716794 5:-0.488633 6:-0.104703 7:-0.771971 
0.07787951819928597 1:-1 2:-0.5 3:1 4:-0.965184 5:-0.470295 6:0.034352 7:-0.230404 
0.3049435817996717 1:-1 2:1 3:-1 4:-0.934617 5:-0.225448 6:-0.354214 7:-0.353919 
1 1:-1 2:0.333333 3:1 4:-0.933121 5:-0.231998 6:-0.219523 7:-0.391924 
-1 1:-1 2:0.166667 3:1 4:-0.832138 5:-0.737549 6:-0.318813 7:-0.434679 
1 1:-1 2:-1 3:1 4:-0.939254 5:-0.563308 6:-0.285251 7:-0.832146 
1 1:-1 2:0.166667 3:1 4:-0.956936 5:-0.639346 6:-0.186169 7:-0.2019 
1 1:-1 2:-1 3:1 4:-0.807677 5:-0.442876 6:-0.224879 7:-0.30483 
-1 1:-1 2:-0.666667 3:1 4:0.053178 5:-0.573139 6:0.105986 7:-1 
-1 1:-1 2:-1 3:1 4:-0.937233 5:-0.702391 6:-0.729894 7:-0.700713 
-1 1:-1 2:0.833333 3:1 4:-0.966757 5:-0.910516 6:-0.708908 7:-0.637371 
-1 1:-1 2:-1 3:-1 4:-0.729103 5:-0.414079 6:-0.500142 7:-0.431512 
-0.05470364109680229 1:-1 2:-0.666667 3:1 4:-0.848144 5:-0.270968 6:-0.146762 7:-0.529691 
1 1:-1 2:0.666667 3:1 4:-0.761987 5:-0.348415 6:0.147663 7:-0.124307 
1 1:-1 2:0.666667 3:1 4:-0.922927 5:-0.321028 6:-0.18513 7:-0.315914 
-1 1:-1 2:0.666667 3:1 4:-0.711404 5:-0.686475 6:-0.358906 7:-0.863816 
-0.9053114049722302 1:-1 2:0.666667 3:-1 4:-0.965421 5:-0.991567 6:-0.902952 7:-0.727633 
-1 1:-1 2:-0.333333 3:-1 4:-0.876791 5:-0.405977 6:-0.090263 7:-0.311164 
1 1:-1 2:-0.333333 3:-1 4:-0.928249 5:-0.054008 6:-0.256483 7:-0.403009 
-1 1:-1 2:-0.666667 3:1 4:-0.681721 5:-0.627403 6:0.151769 7:-0.273159 
0.9362686872582152 1:-1 2:-0.666667 3:-1 4:-0.859541 5:-0.493746 6:0.08501 7:-0.290578 
1 1:-1 2:-0.666667 3:1 4:-0.920273 5:-0.650517 6:0.379997 7:-0.444181 
-1 1:-1 2:-0.333333 3:1 4:0.406689 5:-0.978478 6:-0.911733 7:0.233571 
-1 1:-1 2:-1 3:1 4:-0.866507 5:1 6:0.460325 7:0.353919 
1 1:-1 2:0.5 3:1 4:-0.767319 5:-0.725396 6:-0.174643 7:-0.714964 
0.02736536458028978 1:-1 2:-0.666667 3:1 4:0.205108 5:-0.514096 6:0.258035 7:0.053048 
-1 1:-1 2:1 3:1 4:-0.906343 5:-0.352926 6:-0.080001 7:0.106888 
-1 1:1 2:-0.166667 3:1 4:-0.85762 5:-0.588211 6:-0.356546 7:0.14331 
1 1:1 2:-0.166667 3:1 4:-0.871561 5:-0.6256 6:-0.511139 7:-0.022961 
-1 1:1 2:-0.166667 3:1 4:-0.770401 5:-0.638231 6:-0.301141 7:-0.087886 
1 1:1 2:0.333333 3:1 4:-0.878709 5:-0.870802 6:-0.501218 7:-0.016627 
-0.7909653936957877 1:1 2:-1 3:1 4:-0.803147 5:-0.693321 6:-0.7544 7:-0.2019 
1 1:1 2:-1 3:1 4:-0.80325 5:-0.747894 6:-0.455716 7:0.125891 
1 1:1 2:-0.166667 3:-1 4:-0.436699 5:-0.885588 6:-0.742215 7:-0.162312 
0.4984177991488531 1:1 2:-1 3:-1 4:-0.30396 5:-0.584429 6:0.04585 7:-0.059382 
1 1:1 2:-0.166667 3:1 4:-0.855848 5:-0.802744 6:-0.473108 7:-0.043547 
0.443838473908202 1:1 2:-1 3:1 4:0.88062 5:-0.218426 6:-0.274831 7:1 
-1 1:1 2:-1 3:1 4:-0.834994 5:-0.810245 6:-0.458311 7:0.045131 
-1 1:1 2:0.333333 3:1 4:-0.853014 5:-0.778015 6:-0.542637 7:-0.097387 
-1 1:1 2:-0.666667 3:-1 4:-0.896052 5:-0.771454 6:-0.462484 7:-0.098971 
-1 1:1 2:-1 3:1 4:-0.193826 5:-0.659505 6:-0.455762 7:0.350752 
-0.2250279378181079 1:1 2:-1 3:1 4:-0.000806 5:-0.849922 6:-0.560157 7:0.507522 
1 1:1 2:-0.166667 3:1 4:-0.030539 5:-0.689745 6:-0.452333 7:-0.494854 
1 1:1 2:-1 3:1 4:-0.20107 5:-0.835969 6:-0.408574 7:-0.141726 
-0.20637486788644 1:1 2:-1 3:1 4:-0.93417 5:-0.73218 6:-0.388956 7:0.830562 
1 1:1 2:-0.166667 3:1 4:-1 5:-0.896561 6:-0.846686 7:-0.461599 
-0.8176167545306322 1:1 2:-0.166667 3:1 4:-0.704392 5:-0.739317 6:-0.417013 7:-0.295329 
1 1:1 2:0.166667 3:1 4:-0.359559 5:-0.852637 6:-0.436269 7:-0.339667 
-1 1:1 2:0.333333 3:1 4:-0.52775 5:-0.727626 6:-0.379345 7:-0.195566 
0.2719086713496539 1:1 2:0.666667 3:1 4:-0.91916 5:-0.776934 6:-0.615633 7:-0.509105 
1 1:1 2:0.666667 3:1 4:-0.86635 5:-0.772226 6:-0.470865 7:-0.35867 
0.4393779037558279 1:1 2:0.333333 3:1 4:1 5:-0.767455 6:-0.382943 7:0.14331 
1 1:1 2:0.666667 3:1 4:-0.848168 5:-0.833465 6:-0.503926 7:-0.239905 
-1 1:1 2:-0.5 3:1 4:-0.759482 5:-0.788365 6:-0.317626 7:-0.577197 
-1 1:1 2:-0.166667 3:1 4:-0.815739 5:-0.891488 6:-0.681675 7:-0.312747 
-1 1:1 2:0.666667 3:1 4:-0.954627 5:-0.796179 6:-0.34509 7:-0.046714 
1 1:1 2:-0.333333 3:1 4:-0.82818 5:-0.839894 6:-0.273992 7:-0.049881 
-1 1:1 2:0.166667 3:1 4:-0.053296 5:-0.674094 6:-0.534191 7:-0.702296 
-1 1:1 2:-0.5 3:1 4:-0.833631 5:-0.775561 6:-0.46764 7:0.002375 
1 1:1 2:-1 3:1 4:-0.705844 5:-0.76648 6:-0.494245 7:0.065716 
-1 1:1 2:-0.5 3:1 4:-0.883112 5:-0.941977 6:-0.793579 7:-0.502771 
1 1:1 2:-0.5 3:1 4:-0.813018 5:-0.790394 6:-0.40729 7:0.149644 
