svm_type nu_svr
kernel_type rbf
gamma 0.142857
nr_class 2
total_sv 62
rho 0.271887
SV
1 1:-1 2:-1 3:-0.625535 4:0.285467 5:-0.209721 6:-0.246048 7:0.183673 
1 1:-1 2:-1 3:-0.724138 4:0.318339 5:0.081089 6:-0.514521 7:-0.22449 
-1 1:-1 2:-1 3:-0.729103 4:0.183391 5:-0.500142 6:-0.277424 7:0.142857 
1 1:-1 2:0.166667 3:-0.956386 4:0.785467 5:-0.150229 6:-0.299265 7:-0.542857 
1 1:-1 2:0.166667 3:-0.817005 4:0.190311 5:-0.228314 6:-0.363283 7:-0.771429 
0.260861701476887 1:-1 2:-1 3:-0.958853 4:-0.015571 5:-0.01361 6:0.031133 7:0.714286 
1 1:-1 2:0.333333 3:-0.933121 4:0.010381 5:-0.219523 6:-0.214234 7:0.183673 
-1 1:-1 2:0.166667 3:-0.832138 4:0.095156 5:-0.318813 6:-0.519142 7:-0.102041 
1 1:-1 2:-1 3:-0.939254 4:0.435986 5:-0.285251 6:-0.535098 7:-0.714286 
0.2334475246611538 1:-1 2:-1 3:-0.724138 4:0.318339 5:0.081089 6:-0.514521 7:-0.22449 
1 1:-1 2:-1 3:-0.957684 4:0.655709 5:-0.624437 6:0.068736 7:-0.346939 
1 1:-1 2:-1 3:-0.807677 4:0.525952 5:-0.224879 6:-0.247118 7:-0.061225 
-1 1:-1 2:-0.666667 3:0.053178 4:-1 5:0.105986 6:-1 7:-0.885714 
0.8053776881317585 1:-1 2:-0.166667 3:-0.964053 4:0.269896 5:-0.216148 6:0.530671 7:-0.159184 
-0.4661217969519982 1:-1 2:0.333333 3:-0.881376 4:0.50173 5:-0.201087 6:-0.248237 7:0.061225 
-1 1:-1 2:-1 3:-0.937233 4:0.344291 5:-0.729894 6:-0.171474 7:-0.265306 
-1 1:-1 2:-1 3:-0.729103 4:0.183391 5:-0.500142 6:-0.277424 7:0.142857 
1 1:-1 2:0.666667 3:-0.761987 4:-0.152249 5:0.147663 6:-0.064649 7:1 
-1 1:-1 2:0.666667 3:-0.711404 4:-0.404844 5:-0.358906 6:-0.869631 7:-1 
-1 1:-1 2:0.666667 3:-0.965421 4:0.553633 5:-0.902952 6:-0.439704 7:-1 
-1 1:-1 2:-0.333333 3:-0.876791 4:0.096886 5:-0.090263 6:-0.161405 7:-0.142857 
-1 1:-1 2:-0.666667 3:-0.681721 4:0.197232 5:0.151769 6:-0.387313 7:-0.22449 
-1 1:-1 2:-0.333333 3:0.406689 4:0.380623 5:-0.911733 6:0.024323 7:-0.55102 
-1 1:-1 2:-1 3:-0.866507 4:0.816609 5:0.460325 6:0.776135 7:-0.314286 
1 1:-1 2:0.5 3:-0.767319 4:0.228374 5:-0.174643 6:-0.635355 7:0.053061 
0.9397378726106538 1:-1 2:-0.666667 3:0.205108 4:0.121107 5:0.258035 6:0.004719 7:-0.338776 
-1 1:-1 2:1 3:-0.906343 4:0.813149 5:-0.080001 6:0.429294 7:-0.020408 
-0.8322115998662249 1:1 2:0.166667 3:-0.792999 4:0.264706 5:-0.321951 6:-0.048353 7:0.183673 
1 1:1 2:-0.5 3:-0.770592 4:0.429066 5:-0.412775 6:-0.055164 7:-0.469388 
-1 1:1 2:-0.166667 3:-0.85762 4:0.581315 5:-0.356546 6:0.020771 7:-0.142857 
1 1:1 2:-0.166667 3:-0.871561 4:-0.202422 5:-0.511139 6:0.139806 7:0.183673 
-1 1:1 2:-0.166667 3:-0.770401 4:0.141869 5:-0.301141 6:-0.179452 7:-0.714286 
-0.2766093872396116 1:1 2:-1 3:-0.983226 4:0.631488 5:-0.728532 6:0.005254 7:0.591837 
1 1:1 2:0.333333 3:-0.878709 4:0.576125 5:-0.501218 6:-0.182809 7:-0.22449 
-1 1:1 2:-1 3:-0.803147 4:-0.029412 5:-0.7544 6:0.170356 7:0.020408 
1 1:1 2:-1 3:-0.80325 4:0.480969 5:-0.455716 6:0.34003 7:0.102041 
1 1:1 2:-0.166667 3:-0.855848 4:0.408304 5:-0.473108 6:0.330204 7:-0.061225 
0.3521440413753624 1:1 2:-1 3:0.88062 4:-0.463668 5:-0.274831 6:0.362018 7:0.142857 
-1 1:1 2:-1 3:-0.834994 4:0.318339 5:-0.458311 6:-0.108722 7:-0.22449 
-1 1:1 2:0.333333 3:-0.853014 4:0.430796 5:-0.542637 6:-0.013037 7:0.102041 
-1 1:1 2:-0.666667 3:-0.896052 4:0.256055 5:-0.462484 6:-0.106679 7:-0.306122 
-1 1:1 2:-1 3:-0.193826 4:0.102076 5:-0.455762 6:0.347084 7:-0.55102 
1 1:1 2:-0.166667 3:-0.030539 4:-0.070934 5:-0.452333 6:-0.574257 7:-0.755102 
1 1:1 2:-1 3:-0.20107 4:0.655709 5:-0.408574 6:-0.166707 7:-0.632653 
-0.2511576929916884 1:1 2:-1 3:-0.93417 4:0.543253 5:-0.388956 6:0.823466 7:0.102041 
0.4084311717441848 1:1 2:-0.666667 3:-0.8452 4:0.520761 5:-0.256881 6:-0.38133 7:-0.591837 
1 1:1 2:-0.166667 3:-1 4:0.598616 5:-0.846686 6:0.650727 7:0.346939 
-0.1738995229504769 1:1 2:-0.166667 3:-0.704392 4:0.49654 5:-0.417013 6:-0.039986 7:-0.22449 
1 1:1 2:0.166667 3:-0.359559 4:0.096886 5:-0.436269 6:-0.412074 7:-0.387755 
-1 1:1 2:0.333333 3:-0.52775 4:0.403114 5:-0.379345 6:-0.316729 7:-0.55102 
1 1:1 2:0.666667 3:-0.86635 4:0.214533 5:-0.470865 6:-0.32135 7:-0.22449 
1 1:1 2:0.666667 3:-0.848168 4:0.273356 5:-0.503926 6:-0.170745 7:0.020408 
-1 1:1 2:-0.5 3:-0.759482 4:-0.024222 5:-0.317626 6:-0.587294 7:-0.093878 
-1 1:1 2:-0.166667 3:-0.815739 4:0.356401 5:-0.681675 6:0.011626 7:0.020408 
-1 1:1 2:0.666667 3:-0.954627 4:0.610727 5:-0.34509 6:0.562631 7:0.102041 
1 1:1 2:-0.333333 3:-0.82818 4:0.17128 5:-0.273992 6:-0.276889 7:-0.142857 
-1 1:1 2:0.166667 3:-0.053296 4:-0.102076 5:-0.534191 6:-0.562242 7:-0.061225 
-1 1:1 2:-0.5 3:-0.833631 4:0.33564 5:-0.46764 6:0.077638 7:-0.387755 
1 1:1 2:-1 3:-0.705844 4:0.233564 5:-0.494245 6:0.140439 7:-0.183673 
1 1:1 2:-0.166667 3:-0.509602 4:0.083045 5:-0.506916 6:-0.253247 7:-0.387755 
-1 1:1 2:-0.5 3:-0.883112 4:0.811419 5:-0.793579 6:-0.17989 7:-0.265306 
1 1:1 2:-0.5 3:-0.813018 4:0.373702 5:-0.40729 6:0.14939 7:0.428571 
