svm_type nu_svr
kernel_type rbf
gamma 0.142857
nr_class 2
total_sv 61
rho 0.435446
SV
1 1:-1 2:-1 3:-0.625535 4:-0.723575 5:-0.685075 6:-0.398258 7:-0.246048 
1 1:-1 2:-1 3:-0.724138 4:-0.678864 5:-0.352737 6:-0.605701 7:-0.514521 
-1 1:-1 2:-1 3:-0.729103 4:-0.84854 5:-0.414079 6:-0.431512 7:-0.277424 
1 1:-1 2:-0.5 3:-0.965184 4:-0.866467 5:-0.470295 6:-0.230404 7:0.082356 
0.6989219536295552 1:-1 2:-1 3:-0.958853 4:-0.838917 5:-0.174405 6:-0.179731 7:0.031133 
1 1:-1 2:0.333333 3:-0.933121 4:-0.850492 5:-0.231998 6:-0.391924 7:-0.214234 
-1 1:-1 2:0.166667 3:-0.832138 4:-0.707577 5:-0.737549 6:-0.434679 7:-0.519142 
1 1:-1 2:-1 3:-0.939254 4:-0.841967 5:-0.563308 6:-0.832146 7:-0.535098 
1 1:-1 2:0.166667 3:-0.956936 4:-0.888515 5:-0.639346 6:-0.2019 7:0.105803 
1 1:-1 2:-1 3:-0.724138 4:-0.678864 5:-0.352737 6:-0.605701 7:-0.514521 
1 1:-1 2:-1 3:-0.807677 4:-0.772861 5:-0.442876 6:-0.30483 7:-0.247118 
-0.6862234677825009 1:-1 2:-0.666667 3:0.053178 4:1 5:-0.573139 6:-1 7:-1 
-1 1:-1 2:-1 3:-0.937233 4:-0.954734 5:-0.702391 6:-0.700713 7:-0.171474 
-1 1:-1 2:0.833333 3:-0.966757 4:-0.922993 5:-0.910516 6:-0.637371 7:-0.373741 
-1 1:-1 2:-1 3:-0.729103 4:-0.84854 5:-0.414079 6:-0.431512 7:-0.277424 
1 1:-1 2:0.666667 3:-0.761987 4:-0.729993 5:-0.348415 6:-0.124307 7:-0.064649 
1 1:-1 2:0.666667 3:-0.922927 4:-0.861599 5:-0.321028 6:-0.315914 7:0.07253 
-1 1:-1 2:-1 3:-0.539699 4:-0.629473 5:-0.5121 6:-0.626287 7:-0.552756 
-1 1:-1 2:0.666667 3:-0.711404 4:-0.39852 5:-0.686475 6:-0.863816 7:-0.869631 
-0.4862131777692368 1:-1 2:-1 3:0.145628 4:-0.172146 5:-0.766359 6:-0.423595 7:-0.587975 
-1 1:-1 2:0.666667 3:-0.965421 4:-0.953775 5:-0.991567 6:-0.727633 7:-0.439704 
-1 1:-1 2:-0.333333 3:-0.876791 4:-0.798862 5:-0.405977 6:-0.311164 7:-0.161405 
-1 1:-1 2:-0.666667 3:-0.681721 4:-0.61764 5:-0.627403 6:-0.273159 7:-0.387313 
1 1:-1 2:-0.666667 3:-0.920273 4:-0.759542 5:-0.650517 6:-0.444181 7:-0.247556 
-1 1:-1 2:-0.333333 3:0.406689 4:-0.193184 5:-0.978478 6:0.233571 7:0.024323 
-1 1:-1 2:-1 3:-0.866507 4:-0.791922 5:1 6:0.353919 7:0.776135 
1 1:-1 2:0.5 3:-0.767319 4:-0.665781 5:-0.725396 6:-0.714964 7:-0.635355 
1 1:-1 2:-0.666667 3:0.205108 4:-0.268055 5:-0.514096 6:0.053048 7:0.004719 
-1 1:-1 2:1 3:-0.906343 4:-0.846524 5:-0.352926 6:0.106888 7:0.429294 
-1 1:1 2:-0.166667 3:-0.85762 4:-0.830395 5:-0.588211 6:0.14331 7:0.020771 
1 1:1 2:-0.166667 3:-0.871561 4:-0.882199 5:-0.6256 6:-0.022961 7:0.139806 
-1 1:1 2:-0.166667 3:-0.770401 4:-0.752452 5:-0.638231 6:-0.087886 7:-0.179452 
1 1:1 2:0.333333 3:-0.878709 4:-0.821822 5:-0.870802 6:-0.016627 7:-0.182809 
-1 1:1 2:-1 3:-0.803147 4:-0.913952 5:-0.693321 6:-0.2019 7:0.170356 
1 1:1 2:-1 3:-0.80325 4:-0.860695 5:-0.747894 6:0.125891 7:0.34003 
0.7306313885721836 1:1 2:-1 3:-0.30396 4:-0.596929 5:-0.584429 6:-0.059382 7:-0.000146 
1 1:1 2:-0.166667 3:-0.855848 4:-0.874837 5:-0.802744 6:-0.043547 7:0.330204 
0.2767619229880632 1:1 2:-1 3:0.88062 4:0.865713 5:-0.218426 6:1 7:0.362018 
-1 1:1 2:-1 3:-0.834994 4:-0.821023 5:-0.810245 6:0.045131 7:-0.108722 
-1 1:1 2:0.333333 3:-0.853014 4:-0.861216 5:-0.778015 6:-0.097387 7:-0.013037 
-1 1:1 2:-0.666667 3:-0.896052 4:-0.847255 5:-0.771454 6:-0.098971 7:-0.106679 
-1 1:1 2:-1 3:-0.193826 4:-0.642731 5:-0.659505 6:0.350752 7:0.347084 
-0.3266436076849525 1:1 2:-1 3:-0.000806 4:-0.540797 5:-0.849922 6:0.507522 7:0.476577 
1 1:1 2:-0.166667 3:-0.030539 4:-0.41563 5:-0.689745 6:-0.494854 7:-0.574257 
1 1:1 2:-1 3:-0.20107 4:-0.617232 5:-0.835969 6:-0.141726 7:-0.166707 
-0.1388349689621441 1:1 2:-1 3:-0.94202 4:-0.948213 5:-0.892958 6:-0.545527 7:-0.185241 
0.9539635593475205 1:1 2:-0.166667 3:-1 4:-1 5:-0.896561 6:-0.461599 7:0.650727 
1 1:1 2:0.166667 3:-0.359559 4:-0.606428 5:-0.852637 6:-0.339667 7:-0.412074 
-1 1:1 2:0.333333 3:-0.52775 4:-0.670729 5:-0.727626 6:-0.195566 7:-0.316729 
1 1:1 2:0.666667 3:-0.86635 4:-0.826784 5:-0.772226 6:-0.35867 7:-0.32135 
0.3397211754626774 1:1 2:0.333333 3:1 4:0.773103 5:-0.767455 6:0.14331 7:-0.172399 
1 1:1 2:0.666667 3:-0.848168 4:-0.836817 5:-0.833465 6:-0.239905 7:-0.170745 
-0.3620847778011658 1:1 2:-0.5 3:-0.759482 4:-0.643086 5:-0.788365 6:-0.577197 7:-0.587294 
-1 1:1 2:-0.166667 3:-0.815739 4:-0.880197 5:-0.891488 6:-0.312747 7:0.011626 
-1 1:1 2:0.666667 3:-0.954627 4:-0.918695 5:-0.796179 6:-0.046714 7:0.562631 
1 1:1 2:-0.333333 3:-0.82818 4:-0.698566 5:-0.839894 6:-0.049881 7:-0.276889 
-1 1:1 2:0.166667 3:-0.053296 4:-0.522741 5:-0.674094 6:-0.702296 7:-0.562242 
-1 1:1 2:-0.5 3:-0.833631 4:-0.90445 5:-0.775561 6:0.002375 7:0.077638 
1 1:1 2:-1 3:-0.705844 4:-0.788972 5:-0.76648 6:0.065716 7:0.140439 
-1 1:1 2:-0.5 3:-0.883112 4:-0.955463 5:-0.941977 6:-0.502771 7:-0.17989 
1 1:1 2:-0.5 3:-0.813018 4:-0.812321 5:-0.790394 6:0.149644 7:0.14939 
