svm_type nu_svr
kernel_type rbf
gamma 0.142857
nr_class 2
total_sv 63
rho 0.478803
SV
1 1:-1 2:-1 3:1 4:0.285467 5:-0.685075 6:-0.209721 7:-0.246048 
1 1:-1 2:-1 3:1 4:0.318339 5:-0.352737 6:0.081089 7:-0.514521 
-0.987719051373375 1:-1 2:0.166667 3:1 4:-0.126298 5:-0.488633 6:-0.104703 7:-0.740478 
0.1170608747229534 1:-1 2:1 3:-1 4:-0.089965 5:-0.225448 6:-0.354214 7:-0.17201 
0.9492385764688208 1:-1 2:-1 3:1 4:-0.015571 5:-0.174405 6:-0.01361 7:0.031133 
1 1:-1 2:0.333333 3:1 4:0.010381 5:-0.231998 6:-0.219523 7:-0.214234 
-1 1:-1 2:0.166667 3:1 4:0.095156 5:-0.737549 6:-0.318813 7:-0.519142 
1 1:-1 2:-1 3:1 4:0.435986 5:-0.563308 6:-0.285251 7:-0.535098 
1 1:-1 2:0.166667 3:1 4:0.316609 5:-0.639346 6:-0.186169 7:0.105803 
1 1:-1 2:-1 3:1 4:0.525952 5:-0.442876 6:-0.224879 7:-0.247118 
-1 1:-1 2:-0.666667 3:1 4:-1 5:-0.573139 6:0.105986 7:-1 
-0.237729860955952 1:-1 2:-0.166667 3:1 4:0.750865 5:-0.558643 6:-0.018496 7:0.032203 
-1 1:-1 2:-1 3:1 4:0.344291 5:-0.702391 6:-0.729894 7:-0.171474 
-1 1:-1 2:-1 3:1 4:-0.062284 5:-0.791651 6:-0.324231 7:-0.642847 
-0.5952232873727252 1:-1 2:0.833333 3:1 4:0.709343 5:-0.910516 6:-0.708908 7:-0.373741 
-1 1:-1 2:-1 3:-1 4:0.183391 5:-0.414079 6:-0.500142 7:-0.277424 
1 1:-1 2:0.666667 3:1 4:-0.152249 5:-0.348415 6:0.147663 7:-0.064649 
1 1:-1 2:0.666667 3:1 4:0.143599 5:-0.321028 6:-0.18513 7:0.07253 
0.250115054540929 1:-1 2:-1 3:-1 4:-0.186851 5:-0.5121 6:-0.453851 7:-0.552756 
-1 1:-1 2:0.666667 3:1 4:-0.404844 5:-0.686475 6:-0.358906 7:-0.869631 
-0.5204702446266636 1:-1 2:0.666667 3:-1 4:0.553633 5:-0.991567 6:-0.902952 7:-0.439704 
-1 1:-1 2:-0.333333 3:-1 4:0.096886 5:-0.405977 6:-0.090263 7:-0.161405 
1 1:-1 2:-0.333333 3:-1 4:0.524221 5:-0.054008 6:-0.256483 7:-0.055261 
-1 1:-1 2:-0.666667 3:1 4:0.197232 5:-0.627403 6:0.151769 7:-0.387313 
0.5109088511426996 1:-1 2:-0.666667 3:-1 4:0.709343 5:-0.493746 6:0.08501 7:-0.196916 
1 1:-1 2:-0.666667 3:1 4:0.351211 5:-0.650517 6:0.379997 7:-0.247556 
-1 1:-1 2:-0.333333 3:1 4:0.380623 5:-0.978478 6:-0.911733 7:0.024323 
-1 1:-1 2:-1 3:1 4:0.816609 5:1 6:0.460325 7:0.776135 
1 1:-1 2:0.5 3:1 4:0.228374 5:-0.725396 6:-0.174643 7:-0.635355 
-1 1:-1 2:1 3:1 4:0.813149 5:-0.352926 6:-0.080001 7:0.429294 
-1 1:1 2:-0.166667 3:1 4:0.581315 5:-0.588211 6:-0.356546 7:0.020771 
1 1:1 2:-0.166667 3:1 4:-0.202422 5:-0.6256 6:-0.511139 7:0.139806 
-1 1:1 2:-0.166667 3:1 4:0.141869 5:-0.638231 6:-0.301141 7:-0.179452 
1 1:1 2:0.333333 3:1 4:0.576125 5:-0.870802 6:-0.501218 7:-0.182809 
-0.6984567987276301 1:1 2:-1 3:1 4:-0.029412 5:-0.693321 6:-0.7544 7:0.170356 
1 1:1 2:-1 3:1 4:0.480969 5:-0.747894 6:-0.455716 7:0.34003 
1 1:1 2:-0.166667 3:-1 4:0.128028 5:-0.885588 6:-0.742215 7:-0.032884 
0.6393924629690271 1:1 2:-1 3:-1 4:0.641869 5:-0.584429 6:0.04585 7:-0.000146 
1 1:1 2:-0.166667 3:1 4:0.408304 5:-0.802744 6:-0.473108 7:0.330204 
0.4125353227172911 1:1 2:-1 3:1 4:-0.463668 5:-0.218426 6:-0.274831 7:0.362018 
-1 1:1 2:-1 3:1 4:0.318339 5:-0.810245 6:-0.458311 7:-0.108722 
-1 1:1 2:0.333333 3:1 4:0.430796 5:-0.778015 6:-0.542637 7:-0.013037 
-1 1:1 2:-0.666667 3:-1 4:0.256055 5:-0.771454 6:-0.462484 7:-0.106679 
-1 1:1 2:-1 3:1 4:0.102076 5:-0.659505 6:-0.455762 7:0.347084 
1 1:1 2:-0.166667 3:1 4:-0.070934 5:-0.689745 6:-0.452333 7:-0.574257 
1 1:1 2:-1 3:1 4:0.655709 5:-0.835969 6:-0.408574 7:-0.166707 
-0.7106665194720286 1:1 2:-1 3:1 4:0.543253 5:-0.73218 6:-0.388956 7:0.823466 
1 1:1 2:-0.166667 3:1 4:0.598616 5:-0.896561 6:-0.846686 7:0.650727 
-0.2497342374716257 1:1 2:-0.166667 3:1 4:0.49654 5:-0.739317 6:-0.417013 7:-0.039986 
1 1:1 2:0.166667 3:1 4:0.096886 5:-0.852637 6:-0.436269 7:-0.412074 
-1 1:1 2:0.333333 3:1 4:0.403114 5:-0.727626 6:-0.379345 7:-0.316729 
1 1:1 2:0.666667 3:1 4:0.214533 5:-0.772226 6:-0.470865 7:-0.32135 
0.1207488574382794 1:1 2:0.333333 3:1 4:0.107266 5:-0.767455 6:-0.382943 7:-0.172399 
1 1:1 2:0.666667 3:1 4:0.273356 5:-0.833465 6:-0.503926 7:-0.170745 
-1 1:1 2:-0.5 3:1 4:-0.024222 5:-0.788365 6:-0.317626 7:-0.587294 
-1 1:1 2:-0.166667 3:1 4:0.356401 5:-0.891488 6:-0.681675 7:0.011626 
-1 1:1 2:0.666667 3:1 4:0.610727 5:-0.796179 6:-0.34509 7:0.562631 
1 1:1 2:-0.333333 3:1 4:0.17128 5:-0.839894 6:-0.273992 7:-0.276889 
-1 1:1 2:0.166667 3:1 4:-0.102076 5:-0.674094 6:-0.534191 7:-0.562242 
-1 1:1 2:-0.5 3:1 4:0.33564 5:-0.775561 6:-0.46764 7:0.077638 
1 1:1 2:-1 3:1 4:0.233564 5:-0.76648 6:-0.494245 7:0.140439 
-1 1:1 2:-0.5 3:1 4:0.811419 5:-0.941977 6:-0.793579 7:-0.17989 
1 1:1 2:-0.5 3:1 4:0.373702 5:-0.790394 6:-0.40729 7:0.14939 
