svm_type nu_svr
kernel_type rbf
gamma 0.142857
nr_class 2
total_sv 61
rho 0.399362
SV
1 1:-1 2:-1 3:-0.625535 4:-0.723575 5:-0.685075 6:-0.246048 7:0.183673 
1 1:-1 2:-1 3:-0.724138 4:-0.678864 5:-0.352737 6:-0.514521 7:-0.22449 
-1 1:-1 2:-1 3:-0.729103 4:-0.84854 5:-0.414079 6:-0.277424 7:0.142857 
1 1:-1 2:0.166667 3:-0.956386 4:-0.852123 5:-0.440985 6:-0.299265 7:-0.542857 
-0.3244646905209273 1:-1 2:1 3:-0.934617 4:-0.878479 5:-0.225448 6:-0.17201 7:0.428571 
1 1:-1 2:0.166667 3:-0.817005 4:-0.770809 5:-0.724984 6:-0.363283 7:-0.771429 
1 1:-1 2:0.333333 3:-0.933121 4:-0.850492 5:-0.231998 6:-0.214234 7:0.183673 
-1 1:-1 2:0.166667 3:-0.832138 4:-0.707577 5:-0.737549 6:-0.519142 7:-0.102041 
1 1:-1 2:-1 3:-0.939254 4:-0.841967 5:-0.563308 6:-0.535098 7:-0.714286 
1 1:-1 2:-1 3:-0.724138 4:-0.678864 5:-0.352737 6:-0.514521 7:-0.22449 
1 1:-1 2:-1 3:-0.807677 4:-0.772861 5:-0.442876 6:-0.247118 7:-0.061225 
-0.6097034417838364 1:-1 2:-0.666667 3:0.053178 4:1 5:-0.573139 6:-1 7:-0.885714 
0.8233569159302956 1:-1 2:-0.166667 3:-0.964053 4:-0.909095 5:-0.627577 6:0.530671 7:-0.159184 
-1 1:-1 2:-1 3:-0.937233 4:-0.954734 5:-0.702391 6:-0.171474 7:-0.265306 
-1 1:-1 2:-1 3:-0.729103 4:-0.84854 5:-0.414079 6:-0.277424 7:0.142857 
1 1:-1 2:0.666667 3:-0.761987 4:-0.729993 5:-0.348415 6:-0.064649 7:1 
-1 1:-1 2:0.666667 3:-0.711404 4:-0.39852 5:-0.686475 6:-0.869631 7:-1 
-0.8955101358642009 1:-1 2:-1 3:0.145628 4:-0.172146 5:-0.766359 6:-0.587975 7:-0.428571 
-1 1:-1 2:0.666667 3:-0.965421 4:-0.953775 5:-0.991567 6:-0.439704 7:-1 
-1 1:-1 2:-0.333333 3:-0.876791 4:-0.798862 5:-0.405977 6:-0.161405 7:-0.142857 
-1 1:-1 2:-0.666667 3:-0.681721 4:-0.61764 5:-0.627403 6:-0.387313 7:-0.22449 
1 1:-1 2:-0.666667 3:-0.920273 4:-0.759542 5:-0.650517 6:-0.247556 7:0.673469 
-1 1:-1 2:-0.333333 3:0.406689 4:-0.193184 5:-0.978478 6:0.024323 7:-0.55102 
-1 1:-1 2:-1 3:-0.866507 4:-0.791922 5:1 6:0.776135 7:-0.314286 
0.7066256852391287 1:-1 2:0.5 3:-0.767319 4:-0.665781 5:-0.725396 6:-0.635355 7:0.053061 
1 1:-1 2:-0.666667 3:0.205108 4:-0.268055 5:-0.514096 6:0.004719 7:-0.338776 
-1 1:-1 2:1 3:-0.906343 4:-0.846524 5:-0.352926 6:0.429294 7:-0.020408 
1 1:1 2:-0.5 3:-0.770592 4:-0.785889 5:-0.714969 6:-0.055164 7:-0.469388 
-1 1:1 2:-0.166667 3:-0.85762 4:-0.830395 5:-0.588211 6:0.020771 7:-0.142857 
1 1:1 2:-0.166667 3:-0.871561 4:-0.882199 5:-0.6256 6:0.139806 7:0.183673 
-1 1:1 2:-0.166667 3:-0.770401 4:-0.752452 5:-0.638231 6:-0.179452 7:-0.714286 
-0.4736888841072783 1:1 2:-1 3:-0.983226 4:-0.96409 5:-0.86243 6:0.005254 7:0.591837 
1 1:1 2:0.333333 3:-0.878709 4:-0.821822 5:-0.870802 6:-0.182809 7:-0.22449 
-1 1:1 2:-1 3:-0.803147 4:-0.913952 5:-0.693321 6:0.170356 7:0.020408 
1 1:1 2:-1 3:-0.80325 4:-0.860695 5:-0.747894 6:0.34003 7:0.102041 
0.7945042369204806 1:1 2:-1 3:-0.30396 4:-0.596929 5:-0.584429 6:-0.000146 7:0.102041 
1 1:1 2:-0.166667 3:-0.855848 4:-0.874837 5:-0.802744 6:0.330204 7:-0.061225 
0.1622177348388857 1:1 2:-1 3:0.88062 4:0.865713 5:-0.218426 6:0.362018 7:0.142857 
-0.7928571080556616 1:1 2:-1 3:-0.834994 4:-0.821023 5:-0.810245 6:-0.108722 7:-0.22449 
-1 1:1 2:0.333333 3:-0.853014 4:-0.861216 5:-0.778015 6:-0.013037 7:0.102041 
-1 1:1 2:-0.666667 3:-0.896052 4:-0.847255 5:-0.771454 6:-0.106679 7:-0.306122 
-1 1:1 2:-1 3:-0.193826 4:-0.642731 5:-0.659505 6:0.347084 7:-0.55102 
1 1:1 2:-0.166667 3:-0.030539 4:-0.41563 5:-0.689745 6:-0.574257 7:-0.755102 
1 1:1 2:-1 3:-0.20107 4:-0.617232 5:-0.835969 6:-0.166707 7:-0.632653 
-1 1:1 2:-1 3:-0.94202 4:-0.948213 5:-0.892958 6:-0.185241 7:0.102041 
1 1:1 2:-0.666667 3:-0.8452 4:-0.702955 5:-0.726962 6:-0.38133 7:-0.591837 
0.4463142052059518 1:1 2:-0.166667 3:-1 4:-1 5:-0.896561 6:0.650727 7:0.346939 
1 1:1 2:0.166667 3:-0.359559 4:-0.606428 5:-0.852637 6:-0.412074 7:-0.387755 
-1 1:1 2:0.333333 3:-0.52775 4:-0.670729 5:-0.727626 6:-0.316729 7:-0.55102 
1 1:1 2:0.666667 3:-0.86635 4:-0.826784 5:-0.772226 6:-0.32135 7:-0.22449 
0.1780238909286436 1:1 2:0.333333 3:1 4:0.773103 5:-0.767455 6:-0.172399 7:0.265306 
0.8889573309366141 1:1 2:0.666667 3:-0.848168 4:-0.836817 5:-0.833465 6:-0.170745 7:0.020408 
-1 1:1 2:-0.5 3:-0.759482 4:-0.643086 5:-0.788365 6:-0.587294 7:-0.093878 
-1 1:1 2:-0.166667 3:-0.815739 4:-0.880197 5:-0.891488 6:0.011626 7:0.020408 
-0.9037757396680952 1:1 2:0.666667 3:-0.954627 4:-0.918695 5:-0.796179 6:0.562631 7:0.102041 
1 1:1 2:-0.333333 3:-0.82818 4:-0.698566 5:-0.839894 6:-0.276889 7:-0.142857 
-1 1:1 2:0.166667 3:-0.053296 4:-0.522741 5:-0.674094 6:-0.562242 7:-0.061225 
-1 1:1 2:-0.5 3:-0.833631 4:-0.90445 5:-0.775561 6:0.077638 7:-0.387755 
1 1:1 2:-1 3:-0.705844 4:-0.788972 5:-0.76648 6:0.140439 7:-0.183673 
-1 1:1 2:-0.5 3:-0.883112 4:-0.955463 5:-0.941977 6:-0.17989 7:-0.265306 
1 1:1 2:-0.5 3:-0.813018 4:-0.812321 5:-0.790394 6:0.14939 7:0.428571 
