svm_type nu_svr
kernel_type rbf
gamma 0.142857
nr_class 2
total_sv 66
rho 0.244937
SV
1 1:-1 2:1 3:-0.625535 4:-0.723575 5:0.285467 6:-0.246048 7:0.183673 
1 1:-1 2:1 3:-0.724138 4:-0.678864 5:0.318339 6:-0.514521 7:-0.22449 
1 1:0.166667 2:1 3:-0.956386 4:-0.852123 5:0.785467 6:-0.299265 7:-0.542857 
1 1:0.166667 2:1 3:-0.817005 4:-0.770809 5:0.190311 6:-0.363283 7:-0.771429 
0.1298349888718695 1:-1 2:1 3:-0.958853 4:-0.838917 5:-0.015571 6:0.031133 7:0.714286 
1 1:0.333333 2:1 3:-0.933121 4:-0.850492 5:0.010381 6:-0.214234 7:0.183673 
-1 1:0.166667 2:1 3:-0.832138 4:-0.707577 5:0.095156 6:-0.519142 7:-0.102041 
1 1:-1 2:1 3:-0.939254 4:-0.841967 5:0.435986 6:-0.535098 7:-0.714286 
1 1:-1 2:1 3:-0.724138 4:-0.678864 5:0.318339 6:-0.514521 7:-0.22449 
1 1:-1 2:1 3:-0.957684 4:-0.944027 5:0.655709 6:0.068736 7:-0.346939 
1 1:-1 2:1 3:-0.807677 4:-0.772861 5:0.525952 6:-0.247118 7:-0.061225 
-0.9557973885860467 1:-0.666667 2:1 3:0.053178 4:1 5:-1 6:-1 7:-0.885714 
1 1:-0.166667 2:1 3:-0.964053 4:-0.909095 5:0.269896 6:0.530671 7:-0.159184 
1 1:-0.166667 2:1 3:-0.922482 4:-0.855892 5:0.66436 6:0.139466 7:0.020408 
-1 1:-1 2:1 3:-0.937233 4:-0.954734 5:0.344291 6:-0.171474 7:-0.265306 
-1 1:-1 2:-1 3:-0.729103 4:-0.84854 5:0.183391 6:-0.277424 7:0.142857 
1 1:0.666667 2:1 3:-0.761987 4:-0.729993 5:-0.152249 6:-0.064649 7:1 
0.1341362641025968 1:0.666667 2:1 3:-0.922927 4:-0.861599 5:0.143599 6:0.07253 7:0.428571 
-1 1:0.666667 2:1 3:-0.711404 4:-0.39852 5:-0.404844 6:-0.869631 7:-1 
-1 1:0.666667 2:-1 3:-0.965421 4:-0.953775 5:0.553633 6:-0.439704 7:-1 
1 1:-0.333333 2:-1 3:-0.928249 4:-0.886076 5:0.524221 6:-0.055261 7:0.510204 
1 1:-0.666667 2:-1 3:-0.859541 4:-0.782552 5:0.709343 6:-0.196916 7:-0.061225 
1 1:-0.666667 2:1 3:-0.920273 4:-0.759542 5:0.351211 6:-0.247556 7:0.673469 
0.3128887051058842 1:-0.166667 2:1 3:-0.974102 4:-0.895037 5:0.790657 6:0.810527 7:0.918367 
-1 1:-0.333333 2:1 3:0.406689 4:-0.193184 5:0.380623 6:0.024323 7:-0.55102 
-1 1:-1 2:1 3:-0.866507 4:-0.791922 5:0.816609 6:0.776135 7:-0.314286 
1 1:-0.666667 2:1 3:0.205108 4:-0.268055 5:0.121107 6:0.004719 7:-0.338776 
0.4186468308311538 1:-1 2:1 3:-0.967825 4:-0.903218 5:0.401384 6:1 7:-0.322449 
-1 1:0.166667 2:1 3:-0.792999 4:-0.811905 5:0.264706 6:-0.048353 7:0.183673 
-1 1:-0.166667 2:1 3:-0.85762 4:-0.830395 5:0.581315 6:0.020771 7:-0.142857 
1 1:-0.166667 2:1 3:-0.871561 4:-0.882199 5:-0.202422 6:0.139806 7:0.183673 
-1 1:-0.166667 2:1 3:-0.770401 4:-0.752452 5:0.141869 6:-0.179452 7:-0.714286 
-0.2130245989328196 1:-1 2:1 3:-0.826473 4:-0.767577 5:-0.088235 6:-0.402053 7:-0.55102 
-1 1:-1 2:1 3:-0.983226 4:-0.96409 5:0.631488 6:0.005254 7:0.591837 
1 1:0.333333 2:1 3:-0.878709 4:-0.821822 5:0.576125 6:-0.182809 7:-0.22449 
-1 1:-1 2:1 3:-0.803147 4:-0.913952 5:-0.029412 6:0.170356 7:0.020408 
1 1:-1 2:1 3:-0.80325 4:-0.860695 5:0.480969 6:0.34003 7:0.102041 
0.1549877631983097 1:-0.166667 2:-1 3:-0.436699 4:-0.698702 5:0.128028 6:-0.032884 7:-0.020408 
0.2514695552838782 1:-1 2:-1 3:-0.30396 4:-0.596929 5:0.641869 6:-0.000146 7:0.102041 
1 1:-0.166667 2:1 3:-0.855848 4:-0.874837 5:0.408304 6:0.330204 7:-0.061225 
0.2943134623140158 1:-1 2:1 3:0.88062 4:0.865713 5:-0.463668 6:0.362018 7:0.142857 
0.1221266257467802 1:-0.666667 2:-1 3:-0.29808 4:-0.447273 5:0.00692 6:-0.495841 7:-0.632653 
-1 1:-1 2:1 3:-0.834994 4:-0.821023 5:0.318339 6:-0.108722 7:-0.22449 
-1 1:0.333333 2:1 3:-0.853014 4:-0.861216 5:0.430796 6:-0.013037 7:0.102041 
-1 1:-0.666667 2:-1 3:-0.896052 4:-0.847255 5:0.256055 6:-0.106679 7:-0.306122 
-1 1:-1 2:1 3:-0.193826 4:-0.642731 5:0.102076 6:0.347084 7:-0.55102 
1 1:-0.166667 2:1 3:-0.030539 4:-0.41563 5:-0.070934 6:-0.574257 7:-0.755102 
-1 1:-0.5 2:1 3:-0.8862 4:-0.891427 5:0.565744 6:0.036143 7:0.020408 
-0.5025252785086652 1:-1 2:1 3:-0.93417 4:-0.921264 5:0.543253 6:0.823466 7:0.102041 
-1 1:-1 2:-1 3:-0.94202 4:-0.948213 5:0.32699 6:-0.185241 7:0.102041 
1 1:-0.666667 2:-1 3:-0.8452 4:-0.702955 5:0.520761 6:-0.38133 7:-0.591837 
-1 1:-0.166667 2:1 3:-0.894677 4:-0.883378 5:0.359862 6:-0.34256 7:-0.265306 
-1 1:-0.166667 2:1 3:-0.704392 4:-0.83618 5:0.49654 6:-0.039986 7:-0.22449 
1 1:0.166667 2:1 3:-0.359559 4:-0.606428 5:0.096886 6:-0.412074 7:-0.387755 
-0.2550437440004111 1:0.333333 2:1 3:-0.52775 4:-0.670729 5:0.403114 6:-0.316729 7:-0.55102 
-0.07360898997205752 1:-0.666667 2:1 3:-0.945255 4:-0.964915 5:0.776817 6:0.042565 7:0.020408 
1 1:0.666667 2:1 3:-0.86635 4:-0.826784 5:0.214533 6:-0.32135 7:-0.22449 
0.181595804545512 1:0.333333 2:1 3:1 4:0.773103 5:0.107266 6:-0.172399 7:0.265306 
-1 1:-0.5 2:1 3:-0.759482 4:-0.643086 5:-0.024222 6:-0.587294 7:-0.093878 
-1 1:-0.166667 2:1 3:-0.815739 4:-0.880197 5:0.356401 6:0.011626 7:0.020408 
-1 1:0.666667 2:1 3:-0.954627 4:-0.918695 5:0.610727 6:0.562631 7:0.102041 
1 1:-0.333333 2:1 3:-0.82818 4:-0.698566 5:0.17128 6:-0.276889 7:-0.142857 
-1 1:0.166667 2:1 3:-0.053296 4:-0.522741 5:-0.102076 6:-0.562242 7:-0.061225 
-1 1:-0.5 2:1 3:-0.833631 4:-0.90445 5:0.33564 6:0.077638 7:-0.387755 
1 1:-1 2:1 3:-0.705844 4:-0.788972 5:0.233564 6:0.140439 7:-0.183673 
-1 1:-0.5 2:1 3:-0.883112 4:-0.955463 5:0.811419 6:-0.17989 7:-0.265306 
