svm_type nu_svr
kernel_type rbf
gamma 0.142857
nr_class 2
total_sv 61
rho 0.411408
SV
1 1:-1 2:1 3:-0.625535 4:0.285467 5:-0.685075 6:-0.209721 7:-0.398258 
0.6925551793867121 1:-1 2:1 3:-0.724138 4:0.318339 5:-0.352737 6:0.081089 7:-0.605701 
-1 1:0.166667 2:1 3:-0.716794 4:-0.126298 5:-0.488633 6:-0.104703 7:-0.771971 
1 1:-1 2:1 3:-0.958853 4:-0.015571 5:-0.174405 6:-0.01361 7:-0.179731 
1 1:0.333333 2:1 3:-0.933121 4:0.010381 5:-0.231998 6:-0.219523 7:-0.391924 
-1 1:0.166667 2:1 3:-0.832138 4:0.095156 5:-0.737549 6:-0.318813 7:-0.434679 
1 1:-1 2:1 3:-0.939254 4:0.435986 5:-0.563308 6:-0.285251 7:-0.832146 
1 1:0.166667 2:1 3:-0.956936 4:0.316609 5:-0.639346 6:-0.186169 7:-0.2019 
1 1:-1 2:1 3:-0.957684 4:0.655709 5:-0.674198 6:-0.624437 7:-0.125891 
1 1:-1 2:1 3:-0.807677 4:0.525952 5:-0.442876 6:-0.224879 7:-0.30483 
-1 1:-0.666667 2:1 3:0.053178 4:-1 5:-0.573139 6:0.105986 7:-1 
-1 1:-1 2:1 3:-0.937233 4:0.344291 5:-0.702391 6:-0.729894 7:-0.700713 
-0.8706112163689842 1:0.833333 2:1 3:-0.966757 4:0.709343 5:-0.910516 6:-0.708908 7:-0.637371 
-1 1:-1 2:-1 3:-0.729103 4:0.183391 5:-0.414079 6:-0.500142 7:-0.431512 
1 1:0.666667 2:1 3:-0.761987 4:-0.152249 5:-0.348415 6:0.147663 7:-0.124307 
1 1:0.666667 2:1 3:-0.922927 4:0.143599 5:-0.321028 6:-0.18513 7:-0.315914 
-1 1:0.666667 2:1 3:-0.711404 4:-0.404844 5:-0.686475 6:-0.358906 7:-0.863816 
-0.60659775145561 1:0.666667 2:-1 3:-0.965421 4:0.553633 5:-0.991567 6:-0.902952 7:-0.727633 
-0.9014219735342626 1:-0.333333 2:-1 3:-0.876791 4:0.096886 5:-0.405977 6:-0.090263 7:-0.311164 
1 1:-0.333333 2:-1 3:-0.928249 4:0.524221 5:-0.054008 6:-0.256483 7:-0.403009 
-1 1:-0.666667 2:1 3:-0.681721 4:0.197232 5:-0.627403 6:0.151769 7:-0.273159 
0.3090541201356424 1:-0.666667 2:-1 3:-0.859541 4:0.709343 5:-0.493746 6:0.08501 7:-0.290578 
1 1:-0.666667 2:1 3:-0.920273 4:0.351211 5:-0.650517 6:0.379997 7:-0.444181 
-1 1:-0.333333 2:1 3:0.406689 4:0.380623 5:-0.978478 6:-0.911733 7:0.233571 
-1 1:-1 2:1 3:-0.866507 4:0.816609 5:1 6:0.460325 7:0.353919 
1 1:0.5 2:1 3:-0.767319 4:0.228374 5:-0.725396 6:-0.174643 7:-0.714964 
-1 1:1 2:1 3:-0.906343 4:0.813149 5:-0.352926 6:-0.080001 7:0.106888 
-1 1:-0.166667 2:1 3:-0.85762 4:0.581315 5:-0.588211 6:-0.356546 7:0.14331 
1 1:-0.166667 2:1 3:-0.871561 4:-0.202422 5:-0.6256 6:-0.511139 7:-0.022961 
-1 1:-0.166667 2:1 3:-0.770401 4:0.141869 5:-0.638231 6:-0.301141 7:-0.087886 
-0.08610550543061903 1:-1 2:1 3:-0.826473 4:-0.088235 5:-0.868481 6:-0.511794 7:-0.374505 
1 1:0.333333 2:1 3:-0.878709 4:0.576125 5:-0.870802 6:-0.501218 7:-0.016627 
-1 1:-1 2:1 3:-0.803147 4:-0.029412 5:-0.693321 6:-0.7544 7:-0.2019 
1 1:-1 2:1 3:-0.80325 4:0.480969 5:-0.747894 6:-0.455716 7:0.125891 
1 1:-0.166667 2:-1 3:-0.436699 4:0.128028 5:-0.885588 6:-0.742215 7:-0.162312 
0.5409723588568431 1:-1 2:-1 3:-0.30396 4:0.641869 5:-0.584429 6:0.04585 7:-0.059382 
1 1:-0.166667 2:1 3:-0.855848 4:0.408304 5:-0.802744 6:-0.473108 7:-0.043547 
0.4667071534350823 1:-1 2:1 3:0.88062 4:-0.463668 5:-0.218426 6:-0.274831 7:1 
-1 1:-1 2:1 3:-0.834994 4:0.318339 5:-0.810245 6:-0.458311 7:0.045131 
-1 1:0.333333 2:1 3:-0.853014 4:0.430796 5:-0.778015 6:-0.542637 7:-0.097387 
-1 1:-0.666667 2:-1 3:-0.896052 4:0.256055 5:-0.771454 6:-0.462484 7:-0.098971 
-1 1:-1 2:1 3:-0.193826 4:0.102076 5:-0.659505 6:-0.455762 7:0.350752 
1 1:-0.166667 2:1 3:-0.030539 4:-0.070934 5:-0.689745 6:-0.452333 7:-0.494854 
-0.9004503828826632 1:-1 2:1 3:-0.93417 4:0.543253 5:-0.73218 6:-0.388956 7:0.830562 
1 1:-0.166667 2:1 3:-1 4:0.598616 5:-0.896561 6:-0.846686 7:-0.461599 
-1 1:-0.166667 2:1 3:-0.704392 4:0.49654 5:-0.739317 6:-0.417013 7:-0.295329 
0.7481651133453345 1:0.166667 2:1 3:-0.359559 4:0.096886 5:-0.852637 6:-0.436269 7:-0.339667 
-1 1:0.333333 2:1 3:-0.52775 4:0.403114 5:-0.727626 6:-0.379345 7:-0.195566 
1 1:0.666667 2:1 3:-0.86635 4:0.214533 5:-0.772226 6:-0.470865 7:-0.35867 
1 1:0.333333 2:1 3:1 4:0.107266 5:-0.767455 6:-0.382943 7:0.14331 
0.8558753069525461 1:0.666667 2:1 3:-0.848168 4:0.273356 5:-0.833465 6:-0.503926 7:-0.239905 
-1 1:-0.5 2:1 3:-0.759482 4:-0.024222 5:-0.788365 6:-0.317626 7:-0.577197 
-1 1:-0.166667 2:1 3:-0.815739 4:0.356401 5:-0.891488 6:-0.681675 7:-0.312747 
-0.6348131703278611 1:0.666667 2:1 3:-0.954627 4:0.610727 5:-0.796179 6:-0.34509 7:-0.046714 
1 1:-0.333333 2:1 3:-0.82818 4:0.17128 5:-0.839894 6:-0.273992 7:-0.049881 
0.3866707678878396 1:-1 2:-1 3:-0.295346 4:-0.100346 5:-0.787466 6:-0.531536 7:-0.379256 
-1 1:0.166667 2:1 3:-0.053296 4:-0.102076 5:-0.674094 6:-0.534191 7:-0.702296 
-1 1:-0.5 2:1 3:-0.833631 4:0.33564 5:-0.775561 6:-0.46764 7:0.002375 
1 1:-1 2:1 3:-0.705844 4:0.233564 5:-0.76648 6:-0.494245 7:0.065716 
-1 1:-0.5 2:1 3:-0.883112 4:0.811419 5:-0.941977 6:-0.793579 7:-0.502771 
1 1:-0.5 2:1 3:-0.813018 4:0.373702 5:-0.790394 6:-0.40729 7:0.149644 
