svm_type nu_svr
kernel_type rbf
gamma 0.125
nr_class 2
total_sv 64
rho 0.280272
SV
1 1:-1 2:-1 3:1 4:-0.625535 5:0.285467 6:-0.209721 7:-0.246048 8:0.183673 
1 1:-1 2:-1 3:1 4:-0.724138 5:0.318339 6:0.081089 7:-0.514521 8:-0.22449 
1 1:-1 2:0.166667 3:1 4:-0.956386 5:0.785467 6:-0.150229 7:-0.299265 8:-0.542857 
1 1:-1 2:0.166667 3:1 4:-0.817005 5:0.190311 6:-0.228314 7:-0.363283 8:-0.771429 
1 1:-1 2:0.333333 3:1 4:-0.933121 5:0.010381 6:-0.219523 7:-0.214234 8:0.183673 
-1 1:-1 2:0.166667 3:1 4:-0.832138 5:0.095156 6:-0.318813 7:-0.519142 8:-0.102041 
1 1:-1 2:-1 3:1 4:-0.939254 5:0.435986 6:-0.285251 7:-0.535098 8:-0.714286 
0.6069371066110736 1:-1 2:-1 3:1 4:-0.957684 5:0.655709 6:-0.624437 7:0.068736 8:-0.346939 
1 1:-1 2:-1 3:1 4:-0.807677 5:0.525952 6:-0.224879 7:-0.247118 8:-0.061225 
-1 1:-1 2:-0.666667 3:1 4:0.053178 5:-1 6:0.105986 7:-1 8:-0.885714 
-1 1:-1 2:0.333333 3:1 4:-0.881376 5:0.50173 6:-0.201087 7:-0.248237 8:0.061225 
-1 1:-1 2:-1 3:1 4:-0.937233 5:0.344291 6:-0.729894 7:-0.171474 8:-0.265306 
-1 1:-1 2:-1 3:-1 4:-0.729103 5:0.183391 6:-0.500142 7:-0.277424 8:0.142857 
-0.6210362988618565 1:-1 2:-0.666667 3:1 4:-0.848144 5:0.416955 6:-0.146762 7:-0.420538 8:0.020408 
1 1:-1 2:0.666667 3:1 4:-0.761987 5:-0.152249 6:0.147663 7:-0.064649 8:1 
0.4061665333245189 1:-1 2:0.666667 3:1 4:-0.922927 5:0.143599 6:-0.18513 7:0.07253 8:0.428571 
-1 1:-1 2:0.666667 3:1 4:-0.711404 5:-0.404844 6:-0.358906 7:-0.869631 8:-1 
-0.6194424931084875 1:-1 2:0.666667 3:-1 4:-0.965421 5:0.553633 6:-0.902952 7:-0.439704 8:-1 
-1 1:-1 2:-0.333333 3:-1 4:-0.876791 5:0.096886 6:-0.090263 7:-0.161405 8:-0.142857 
1 1:-1 2:-0.333333 3:-1 4:-0.928249 5:0.524221 6:-0.256483 7:-0.055261 8:0.510204 
-1 1:-1 2:-0.666667 3:1 4:-0.681721 5:0.197232 6:0.151769 7:-0.387313 8:-0.22449 
0.7564943578277249 1:-1 2:-0.666667 3:-1 4:-0.859541 5:0.709343 6:0.08501 7:-0.196916 8:-0.061225 
-1 1:-1 2:-0.333333 3:1 4:0.406689 5:0.380623 6:-0.911733 7:0.024323 8:-0.55102 
-1 1:-1 2:-1 3:1 4:-0.866507 5:0.816609 6:0.460325 7:0.776135 8:-0.314286 
0.3161409460363665 1:-1 2:0.5 3:1 4:-0.767319 5:0.228374 6:-0.174643 7:-0.635355 8:0.053061 
0.8503396682301607 1:-1 2:-0.666667 3:1 4:0.205108 5:0.121107 6:0.258035 7:0.004719 8:-0.338776 
-1 1:-1 2:1 3:1 4:-0.906343 5:0.813149 6:-0.080001 7:0.429294 8:-0.020408 
-0.2162033814995813 1:1 2:0.166667 3:1 4:-0.792999 5:0.264706 6:-0.321951 7:-0.048353 8:0.183673 
1 1:1 2:-0.5 3:1 4:-0.770592 5:0.429066 6:-0.412775 7:-0.055164 8:-0.469388 
-1 1:1 2:-0.166667 3:1 4:-0.85762 5:0.581315 6:-0.356546 7:0.020771 8:-0.142857 
1 1:1 2:-0.166667 3:1 4:-0.871561 5:-0.202422 6:-0.511139 7:0.139806 8:0.183673 
-1 1:1 2:-0.166667 3:1 4:-0.770401 5:0.141869 6:-0.301141 7:-0.179452 8:-0.714286 
-1 1:1 2:-1 3:1 4:-0.983226 5:0.631488 6:-0.728532 7:0.005254 8:0.591837 
1 1:1 2:0.333333 3:1 4:-0.878709 5:0.576125 6:-0.501218 7:-0.182809 8:-0.22449 
-1 1:1 2:-1 3:1 4:-0.803147 5:-0.029412 6:-0.7544 7:0.170356 8:0.020408 
1 1:1 2:-1 3:1 4:-0.80325 5:0.480969 6:-0.455716 7:0.34003 8:0.102041 
0.5972868815434639 1:1 2:-0.166667 3:-1 4:-0.436699 5:0.128028 6:-0.742215 7:-0.032884 8:-0.020408 
1 1:1 2:-0.166667 3:1 4:-0.855848 5:0.408304 6:-0.473108 7:0.330204 8:-0.061225 
0.3833226053265457 1:1 2:-1 3:1 4:0.88062 5:-0.463668 6:-0.274831 7:0.362018 8:0.142857 
-1 1:1 2:-1 3:1 4:-0.834994 5:0.318339 6:-0.458311 7:-0.108722 8:-0.22449 
-1 1:1 2:0.333333 3:1 4:-0.853014 5:0.430796 6:-0.542637 7:-0.013037 8:0.102041 
-1 1:1 2:-0.666667 3:-1 4:-0.896052 5:0.256055 6:-0.462484 7:-0.106679 8:-0.306122 
-1 1:1 2:-1 3:1 4:-0.193826 5:0.102076 6:-0.455762 7:0.347084 8:-0.55102 
1 1:1 2:-0.166667 3:1 4:-0.030539 5:-0.070934 6:-0.452333 7:-0.574257 8:-0.755102 
1 1:1 2:-1 3:1 4:-0.20107 5:0.655709 6:-0.408574 7:-0.166707 8:-0.632653 
-0.08895583454445637 1:1 2:-1 3:1 4:-0.93417 5:0.543253 6:-0.388956 7:0.823466 8:0.102041 
-0.03326631037583475 1:1 2:-1 3:-1 4:-0.94202 5:0.32699 6:-0.83002 7:-0.185241 8:0.102041 
1 1:1 2:-0.666667 3:-1 4:-0.8452 5:0.520761 6:-0.256881 7:-0.38133 8:-0.591837 
1 1:1 2:-0.166667 3:1 4:-1 5:0.598616 6:-0.846686 7:0.650727 8:0.346939 
-0.4210956816097836 1:1 2:-0.166667 3:1 4:-0.704392 5:0.49654 6:-0.417013 7:-0.039986 8:-0.22449 
1 1:1 2:0.166667 3:1 4:-0.359559 5:0.096886 6:-0.436269 7:-0.412074 8:-0.387755 
-1 1:1 2:0.333333 3:1 4:-0.52775 5:0.403114 6:-0.379345 7:-0.316729 8:-0.55102 
1 1:1 2:0.666667 3:1 4:-0.86635 5:0.214533 6:-0.470865 7:-0.32135 8:-0.22449 
1 1:1 2:0.666667 3:1 4:-0.848168 5:0.273356 6:-0.503926 7:-0.170745 8:0.020408 
-1 1:1 2:-0.5 3:1 4:-0.759482 5:-0.024222 6:-0.317626 7:-0.587294 8:-0.093878 
-1 1:1 2:-0.166667 3:1 4:-0.815739 5:0.356401 6:-0.681675 7:0.011626 8:0.020408 
-1 1:1 2:0.666667 3:1 4:-0.954627 5:0.610727 6:-0.34509 7:0.562631 8:0.102041 
1 1:1 2:-0.333333 3:1 4:-0.82818 5:0.17128 6:-0.273992 7:-0.276889 8:-0.142857 
-1 1:1 2:0.166667 3:1 4:-0.053296 5:-0.102076 6:-0.534191 7:-0.562242 8:-0.061225 
-1 1:1 2:-0.5 3:1 4:-0.833631 5:0.33564 6:-0.46764 7:0.077638 8:-0.387755 
1 1:1 2:-1 3:1 4:-0.705844 5:0.233564 6:-0.494245 7:0.140439 8:-0.183673 
0.08331190110014625 1:1 2:-0.166667 3:1 4:-0.509602 5:0.083045 6:-0.506916 7:-0.253247 8:-0.387755 
-1 1:1 2:-0.5 3:1 4:-0.883112 5:0.811419 6:-0.793579 7:-0.17989 8:-0.265306 
1 1:1 2:-0.5 3:1 4:-0.813018 5:0.373702 6:-0.40729 7:0.14939 8:0.428571 
