svm_type nu_svr
kernel_type rbf
gamma 0.125
nr_class 2
total_sv 62
rho 0.421157
SV
1 1:-1 2:-1 3:-0.625535 4:-0.723575 5:-0.685075 6:-0.398258 7:-0.246048 8:0.183673 
1 1:-1 2:-1 3:-0.724138 4:-0.678864 5:-0.352737 6:-0.605701 7:-0.514521 8:-0.22449 
-1 1:-1 2:-1 3:-0.729103 4:-0.84854 5:-0.414079 6:-0.431512 7:-0.277424 8:0.142857 
1 1:-1 2:0.166667 3:-0.956386 4:-0.852123 5:-0.440985 6:-0.572447 7:-0.299265 8:-0.542857 
-0.3305143099652651 1:-1 2:1 3:-0.934617 4:-0.878479 5:-0.225448 6:-0.353919 7:-0.17201 8:0.428571 
1 1:-1 2:0.166667 3:-0.817005 4:-0.770809 5:-0.724984 6:-0.578781 7:-0.363283 8:-0.771429 
1 1:-1 2:0.333333 3:-0.933121 4:-0.850492 5:-0.231998 6:-0.391924 7:-0.214234 8:0.183673 
-1 1:-1 2:0.166667 3:-0.832138 4:-0.707577 5:-0.737549 6:-0.434679 7:-0.519142 8:-0.102041 
1 1:-1 2:-1 3:-0.939254 4:-0.841967 5:-0.563308 6:-0.832146 7:-0.535098 8:-0.714286 
1 1:-1 2:-1 3:-0.724138 4:-0.678864 5:-0.352737 6:-0.605701 7:-0.514521 8:-0.22449 
0.04722108627440989 1:-1 2:-1 3:-0.957684 4:-0.944027 5:-0.674198 6:-0.125891 7:0.068736 8:-0.346939 
1 1:-1 2:-1 3:-0.807677 4:-0.772861 5:-0.442876 6:-0.30483 7:-0.247118 8:-0.061225 
-0.6269202024860306 1:-1 2:-0.666667 3:0.053178 4:1 5:-0.573139 6:-1 7:-1 8:-0.885714 
0.8461689362113174 1:-1 2:-0.166667 3:-0.964053 4:-0.909095 5:-0.627577 6:0.113222 7:0.530671 8:-0.159184 
-1 1:-1 2:-1 3:-0.937233 4:-0.954734 5:-0.702391 6:-0.700713 7:-0.171474 8:-0.265306 
-1 1:-1 2:-1 3:-0.729103 4:-0.84854 5:-0.414079 6:-0.431512 7:-0.277424 8:0.142857 
1 1:-1 2:0.666667 3:-0.761987 4:-0.729993 5:-0.348415 6:-0.124307 7:-0.064649 8:1 
-1 1:-1 2:0.666667 3:-0.711404 4:-0.39852 5:-0.686475 6:-0.863816 7:-0.869631 8:-1 
-0.8904524733185051 1:-1 2:-1 3:0.145628 4:-0.172146 5:-0.766359 6:-0.423595 7:-0.587975 8:-0.428571 
-1 1:-1 2:0.666667 3:-0.965421 4:-0.953775 5:-0.991567 6:-0.727633 7:-0.439704 8:-1 
-1 1:-1 2:-0.333333 3:-0.876791 4:-0.798862 5:-0.405977 6:-0.311164 7:-0.161405 8:-0.142857 
-1 1:-1 2:-0.666667 3:-0.681721 4:-0.61764 5:-0.627403 6:-0.273159 7:-0.387313 8:-0.22449 
1 1:-1 2:-0.666667 3:-0.920273 4:-0.759542 5:-0.650517 6:-0.444181 7:-0.247556 8:0.673469 
-1 1:-1 2:-0.333333 3:0.406689 4:-0.193184 5:-0.978478 6:0.233571 7:0.024323 8:-0.55102 
-1 1:-1 2:-1 3:-0.866507 4:-0.791922 5:1 6:0.353919 7:0.776135 8:-0.314286 
0.755879333225192 1:-1 2:0.5 3:-0.767319 4:-0.665781 5:-0.725396 6:-0.714964 7:-0.635355 8:0.053061 
1 1:-1 2:-0.666667 3:0.205108 4:-0.268055 5:-0.514096 6:0.053048 7:0.004719 8:-0.338776 
-1 1:-1 2:1 3:-0.906343 4:-0.846524 5:-0.352926 6:0.106888 7:0.429294 8:-0.020408 
0.7355536769595832 1:1 2:-0.5 3:-0.770592 4:-0.785889 5:-0.714969 6:0.051465 7:-0.055164 8:-0.469388 
-1 1:1 2:-0.166667 3:-0.85762 4:-0.830395 5:-0.588211 6:0.14331 7:0.020771 8:-0.142857 
1 1:1 2:-0.166667 3:-0.871561 4:-0.882199 5:-0.6256 6:-0.022961 7:0.139806 8:0.183673 
-1 1:1 2:-0.166667 3:-0.770401 4:-0.752452 5:-0.638231 6:-0.087886 7:-0.179452 8:-0.714286 
-0.7493463397377133 1:1 2:-1 3:-0.983226 4:-0.96409 5:-0.86243 6:-0.357086 7:0.005254 8:0.591837 
1 1:1 2:0.333333 3:-0.878709 4:-0.821822 5:-0.870802 6:-0.016627 7:-0.182809 8:-0.22449 
-1 1:1 2:-1 3:-0.803147 4:-0.913952 5:-0.693321 6:-0.2019 7:0.170356 8:0.020408 
1 1:1 2:-1 3:-0.80325 4:-0.860695 5:-0.747894 6:0.125891 7:0.34003 8:0.102041 
0.6227979421143244 1:1 2:-1 3:-0.30396 4:-0.596929 5:-0.584429 6:-0.059382 7:-0.000146 8:0.102041 
1 1:1 2:-0.166667 3:-0.855848 4:-0.874837 5:-0.802744 6:-0.043547 7:0.330204 8:-0.061225 
0.2033263999103473 1:1 2:-1 3:0.88062 4:0.865713 5:-0.218426 6:1 7:0.362018 8:0.142857 
-1 1:1 2:-1 3:-0.834994 4:-0.821023 5:-0.810245 6:0.045131 7:-0.108722 8:-0.22449 
-1 1:1 2:0.333333 3:-0.853014 4:-0.861216 5:-0.778015 6:-0.097387 7:-0.013037 8:0.102041 
-1 1:1 2:-0.666667 3:-0.896052 4:-0.847255 5:-0.771454 6:-0.098971 7:-0.106679 8:-0.306122 
-1 1:1 2:-1 3:-0.193826 4:-0.642731 5:-0.659505 6:0.350752 7:0.347084 8:-0.55102 
1 1:1 2:-0.166667 3:-0.030539 4:-0.41563 5:-0.689745 6:-0.494854 7:-0.574257 8:-0.755102 
1 1:1 2:-1 3:-0.20107 4:-0.617232 5:-0.835969 6:-0.141726 7:-0.166707 8:-0.632653 
-0.4027666744924863 1:1 2:-1 3:-0.94202 4:-0.948213 5:-0.892958 6:-0.545527 7:-0.185241 8:0.102041 
1 1:1 2:-0.666667 3:-0.8452 4:-0.702955 5:-0.726962 6:-0.092637 7:-0.38133 8:-0.591837 
0.7371010844316437 1:1 2:-0.166667 3:-1 4:-1 5:-0.896561 6:-0.461599 7:0.650727 8:0.346939 
1 1:1 2:0.166667 3:-0.359559 4:-0.606428 5:-0.852637 6:-0.339667 7:-0.412074 8:-0.387755 
-1 1:1 2:0.333333 3:-0.52775 4:-0.670729 5:-0.727626 6:-0.195566 7:-0.316729 8:-0.55102 
1 1:1 2:0.666667 3:-0.86635 4:-0.826784 5:-0.772226 6:-0.35867 7:-0.32135 8:-0.22449 
0.162162225656208 1:1 2:0.333333 3:1 4:0.773103 5:-0.767455 6:0.14331 7:-0.172399 8:0.265306 
0.8897893152169738 1:1 2:0.666667 3:-0.848168 4:-0.836817 5:-0.833465 6:-0.239905 7:-0.170745 8:0.020408 
-1 1:1 2:-0.5 3:-0.759482 4:-0.643086 5:-0.788365 6:-0.577197 7:-0.587294 8:-0.093878 
-1 1:1 2:-0.166667 3:-0.815739 4:-0.880197 5:-0.891488 6:-0.312747 7:0.011626 8:0.020408 
-1 1:1 2:0.666667 3:-0.954627 4:-0.918695 5:-0.796179 6:-0.046714 7:0.562631 8:0.102041 
1 1:1 2:-0.333333 3:-0.82818 4:-0.698566 5:-0.839894 6:-0.049881 7:-0.276889 8:-0.142857 
-1 1:1 2:0.166667 3:-0.053296 4:-0.522741 5:-0.674094 6:-0.702296 7:-0.562242 8:-0.061225 
-1 1:1 2:-0.5 3:-0.833631 4:-0.90445 5:-0.775561 6:0.002375 7:0.077638 8:-0.387755 
1 1:1 2:-1 3:-0.705844 4:-0.788972 5:-0.76648 6:0.065716 7:0.140439 8:-0.183673 
-1 1:1 2:-0.5 3:-0.883112 4:-0.955463 5:-0.941977 6:-0.502771 7:-0.17989 8:-0.265306 
1 1:1 2:-0.5 3:-0.813018 4:-0.812321 5:-0.790394 6:0.149644 7:0.14939 8:0.428571 
