svm_type nu_svr
kernel_type rbf
gamma 0.111111
nr_class 2
total_sv 64
rho 0.324728
SV
1 1:-1 2:-1 3:1 4:-0.625535 5:-0.723575 6:-0.209721 7:-0.398258 8:-0.246048 9:0.183673 
1 1:-1 2:-1 3:1 4:-0.724138 5:-0.678864 6:0.081089 7:-0.605701 8:-0.514521 9:-0.22449 
-0.05568042859777938 1:-1 2:-1 3:-1 4:-0.729103 5:-0.84854 6:-0.500142 7:-0.431512 8:-0.277424 9:0.142857 
1 1:-1 2:0.166667 3:1 4:-0.956386 5:-0.852123 6:-0.150229 7:-0.572447 8:-0.299265 9:-0.542857 
1 1:-1 2:0.166667 3:1 4:-0.817005 5:-0.770809 6:-0.228314 7:-0.578781 8:-0.363283 9:-0.771429 
1 1:-1 2:0.333333 3:1 4:-0.933121 5:-0.850492 6:-0.219523 7:-0.391924 8:-0.214234 9:0.183673 
-1 1:-1 2:0.166667 3:1 4:-0.832138 5:-0.707577 6:-0.318813 7:-0.434679 8:-0.519142 9:-0.102041 
1 1:-1 2:-1 3:1 4:-0.939254 5:-0.841967 6:-0.285251 7:-0.832146 8:-0.535098 9:-0.714286 
0.8918577077038554 1:-1 2:-1 3:1 4:-0.957684 5:-0.944027 6:-0.624437 7:-0.125891 8:0.068736 9:-0.346939 
1 1:-1 2:-1 3:1 4:-0.807677 5:-0.772861 6:-0.224879 7:-0.30483 8:-0.247118 9:-0.061225 
-1 1:-1 2:-0.666667 3:1 4:0.053178 5:1 6:0.105986 7:-1 8:-1 9:-0.885714 
-1 1:-1 2:0.333333 3:1 4:-0.881376 5:-0.816895 6:-0.201087 7:-0.444181 8:-0.248237 9:0.061225 
-1 1:-1 2:-1 3:1 4:-0.937233 5:-0.954734 6:-0.729894 7:-0.700713 8:-0.171474 9:-0.265306 
-0.1005099304037272 1:-1 2:0.833333 3:1 4:-0.966757 5:-0.922993 6:-0.708908 7:-0.637371 8:-0.373741 9:-1 
-1 1:-1 2:-1 3:-1 4:-0.729103 5:-0.84854 6:-0.500142 7:-0.431512 8:-0.277424 9:0.142857 
-0.9752162642676609 1:-1 2:-0.666667 3:1 4:-0.848144 5:-0.767471 6:-0.146762 7:-0.529691 8:-0.420538 9:0.020408 
1 1:-1 2:0.666667 3:1 4:-0.761987 5:-0.729993 6:0.147663 7:-0.124307 8:-0.064649 9:1 
0.1432938738453111 1:-1 2:0.666667 3:1 4:-0.922927 5:-0.861599 6:-0.18513 7:-0.315914 8:0.07253 9:0.428571 
-1 1:-1 2:0.666667 3:1 4:-0.711404 5:-0.39852 6:-0.358906 7:-0.863816 8:-0.869631 9:-1 
-0.7030838617784081 1:-1 2:0.666667 3:-1 4:-0.965421 5:-0.953775 6:-0.902952 7:-0.727633 8:-0.439704 9:-1 
-1 1:-1 2:-0.333333 3:-1 4:-0.876791 5:-0.798862 6:-0.090263 7:-0.311164 8:-0.161405 9:-0.142857 
1 1:-1 2:-0.333333 3:-1 4:-0.928249 5:-0.886076 6:-0.256483 7:-0.403009 8:-0.055261 9:0.510204 
-1 1:-1 2:-0.666667 3:1 4:-0.681721 5:-0.61764 6:0.151769 7:-0.273159 8:-0.387313 9:-0.22449 
0.9400449947791603 1:-1 2:-0.666667 3:-1 4:-0.859541 5:-0.782552 6:0.08501 7:-0.290578 8:-0.196916 9:-0.061225 
-1 1:-1 2:-0.333333 3:1 4:0.406689 5:-0.193184 6:-0.911733 7:0.233571 8:0.024323 9:-0.55102 
-1 1:-1 2:-1 3:1 4:-0.866507 5:-0.791922 6:0.460325 7:0.353919 8:0.776135 9:-0.314286 
0.6432506353405972 1:-1 2:0.5 3:1 4:-0.767319 5:-0.665781 6:-0.174643 7:-0.714964 8:-0.635355 9:0.053061 
0.9412085886489205 1:-1 2:-0.666667 3:1 4:0.205108 5:-0.268055 6:0.258035 7:0.053048 8:0.004719 9:-0.338776 
-1 1:-1 2:1 3:1 4:-0.906343 5:-0.846524 6:-0.080001 7:0.106888 8:0.429294 9:-0.020408 
-0.2136318056375609 1:1 2:0.166667 3:1 4:-0.792999 5:-0.811905 6:-0.321951 7:-0.140143 8:-0.048353 9:0.183673 
0.4929049019542528 1:1 2:-0.5 3:1 4:-0.770592 5:-0.785889 6:-0.412775 7:0.051465 8:-0.055164 9:-0.469388 
-1 1:1 2:-0.166667 3:1 4:-0.85762 5:-0.830395 6:-0.356546 7:0.14331 8:0.020771 9:-0.142857 
1 1:1 2:-0.166667 3:1 4:-0.871561 5:-0.882199 6:-0.511139 7:-0.022961 8:0.139806 9:0.183673 
-1 1:1 2:-0.166667 3:1 4:-0.770401 5:-0.752452 6:-0.301141 7:-0.087886 8:-0.179452 9:-0.714286 
-0.9518777093148634 1:1 2:-1 3:1 4:-0.983226 5:-0.96409 6:-0.728532 7:-0.357086 8:0.005254 9:0.591837 
1 1:1 2:0.333333 3:1 4:-0.878709 5:-0.821822 6:-0.501218 7:-0.016627 8:-0.182809 9:-0.22449 
-1 1:1 2:-1 3:1 4:-0.803147 5:-0.913952 6:-0.7544 7:-0.2019 8:0.170356 9:0.020408 
1 1:1 2:-1 3:1 4:-0.80325 5:-0.860695 6:-0.455716 7:0.125891 8:0.34003 9:0.102041 
0.522345207396979 1:1 2:-0.166667 3:-1 4:-0.436699 5:-0.698702 6:-0.742215 7:-0.162312 8:-0.032884 9:-0.020408 
1 1:1 2:-0.166667 3:1 4:-0.855848 5:-0.874837 6:-0.473108 7:-0.043547 8:0.330204 9:-0.061225 
0.1871863797016634 1:1 2:-1 3:1 4:0.88062 5:0.865713 6:-0.274831 7:1 8:0.362018 9:0.142857 
-1 1:1 2:-1 3:1 4:-0.834994 5:-0.821023 6:-0.458311 7:0.045131 8:-0.108722 9:-0.22449 
-1 1:1 2:0.333333 3:1 4:-0.853014 5:-0.861216 6:-0.542637 7:-0.097387 8:-0.013037 9:0.102041 
-1 1:1 2:-0.666667 3:-1 4:-0.896052 5:-0.847255 6:-0.462484 7:-0.098971 8:-0.106679 9:-0.306122 
-1 1:1 2:-1 3:1 4:-0.193826 5:-0.642731 6:-0.455762 7:0.350752 8:0.347084 9:-0.55102 
1 1:1 2:-0.166667 3:1 4:-0.030539 5:-0.41563 6:-0.452333 7:-0.494854 8:-0.574257 9:-0.755102 
1 1:1 2:-1 3:1 4:-0.20107 5:-0.617232 6:-0.408574 7:-0.141726 8:-0.166707 9:-0.632653 
1 1:1 2:-0.666667 3:-1 4:-0.8452 5:-0.702955 6:-0.256881 7:-0.092637 8:-0.38133 9:-0.591837 
1 1:1 2:-0.166667 3:1 4:-1 5:-1 6:-0.846686 7:-0.461599 8:0.650727 9:0.346939 
1 1:1 2:0.166667 3:1 4:-0.359559 5:-0.606428 6:-0.436269 7:-0.339667 8:-0.412074 9:-0.387755 
-1 1:1 2:0.333333 3:1 4:-0.52775 5:-0.670729 6:-0.379345 7:-0.195566 8:-0.316729 9:-0.55102 
1 1:1 2:0.666667 3:1 4:-0.86635 5:-0.826784 6:-0.470865 7:-0.35867 8:-0.32135 9:-0.22449 
0.2362600748322786 1:1 2:0.333333 3:1 4:1 5:0.773103 6:-0.382943 7:0.14331 8:-0.172399 9:0.265306 
1 1:1 2:0.666667 3:1 4:-0.848168 5:-0.836817 6:-0.503926 7:-0.239905 8:-0.170745 9:0.020408 
-1 1:1 2:-0.5 3:1 4:-0.759482 5:-0.643086 6:-0.317626 7:-0.577197 8:-0.587294 9:-0.093878 
-1 1:1 2:-0.166667 3:1 4:-0.815739 5:-0.880197 6:-0.681675 7:-0.312747 8:0.011626 9:0.020408 
-1 1:1 2:0.666667 3:1 4:-0.954627 5:-0.918695 6:-0.34509 7:-0.046714 8:0.562631 9:0.102041 
1 1:1 2:-0.333333 3:1 4:-0.82818 5:-0.698566 6:-0.273992 7:-0.049881 8:-0.276889 9:-0.142857 
-1 1:1 2:0.166667 3:1 4:-0.053296 5:-0.522741 6:-0.534191 7:-0.702296 8:-0.562242 9:-0.061225 
-1 1:1 2:-0.5 3:1 4:-0.833631 5:-0.90445 6:-0.46764 7:0.002375 8:0.077638 9:-0.387755 
1 1:1 2:-1 3:1 4:-0.705844 5:-0.788972 6:-0.494245 7:0.065716 8:0.140439 9:-0.183673 
0.001647635796981724 1:1 2:-0.166667 3:1 4:-0.509602 5:-0.730449 6:-0.506916 7:-0.319082 8:-0.253247 9:-0.387755 
-1 1:1 2:-0.5 3:1 4:-0.883112 5:-0.955463 6:-0.793579 7:-0.502771 8:-0.17989 9:-0.265306 
1 1:1 2:-0.5 3:1 4:-0.813018 5:-0.812321 6:-0.40729 7:0.149644 8:0.14939 9:0.428571 
