svm_type nu_svr
kernel_type rbf
gamma 0.111111
nr_class 2
total_sv 63
rho 0.360312
SV
1 1:-1 2:1 3:-0.625535 4:-0.723575 5:0.285467 6:-0.685075 7:-0.398258 8:-0.246048 9:0.183673 
1 1:-1 2:1 3:-0.724138 4:-0.678864 5:0.318339 6:-0.352737 7:-0.605701 8:-0.514521 9:-0.22449 
1 1:0.166667 2:1 3:-0.956386 4:-0.852123 5:0.785467 6:-0.440985 7:-0.572447 8:-0.299265 9:-0.542857 
1 1:0.166667 2:1 3:-0.817005 4:-0.770809 5:0.190311 6:-0.724984 7:-0.578781 8:-0.363283 9:-0.771429 
1 1:0.333333 2:1 3:-0.933121 4:-0.850492 5:0.010381 6:-0.231998 7:-0.391924 8:-0.214234 9:0.183673 
-1 1:0.166667 2:1 3:-0.832138 4:-0.707577 5:0.095156 6:-0.737549 7:-0.434679 8:-0.519142 9:-0.102041 
1 1:-1 2:1 3:-0.939254 4:-0.841967 5:0.435986 6:-0.563308 7:-0.832146 8:-0.535098 9:-0.714286 
0.9943133047201126 1:-1 2:1 3:-0.724138 4:-0.678864 5:0.318339 6:-0.352737 7:-0.605701 8:-0.514521 9:-0.22449 
1 1:-1 2:1 3:-0.957684 4:-0.944027 5:0.655709 6:-0.674198 7:-0.125891 8:0.068736 9:-0.346939 
1 1:-1 2:1 3:-0.807677 4:-0.772861 5:0.525952 6:-0.442876 7:-0.30483 8:-0.247118 9:-0.061225 
-0.9094421650393966 1:-0.666667 2:1 3:0.053178 4:1 5:-1 6:-0.573139 7:-1 8:-1 9:-0.885714 
1 1:-0.166667 2:1 3:-0.964053 4:-0.909095 5:0.269896 6:-0.627577 7:0.113222 8:0.530671 9:-0.159184 
-1 1:-1 2:1 3:-0.937233 4:-0.954734 5:0.344291 6:-0.702391 7:-0.700713 8:-0.171474 9:-0.265306 
-1 1:-1 2:-1 3:-0.729103 4:-0.84854 5:0.183391 6:-0.414079 7:-0.431512 8:-0.277424 9:0.142857 
1 1:0.666667 2:1 3:-0.761987 4:-0.729993 5:-0.152249 6:-0.348415 7:-0.124307 8:-0.064649 9:1 
-1 1:0.666667 2:1 3:-0.711404 4:-0.39852 5:-0.404844 6:-0.686475 7:-0.863816 8:-0.869631 9:-1 
-0.8542115825276364 1:0.666667 2:-1 3:-0.965421 4:-0.953775 5:0.553633 6:-0.991567 7:-0.727633 8:-0.439704 9:-1 
-0.9217573359901243 1:-0.333333 2:-1 3:-0.876791 4:-0.798862 5:0.096886 6:-0.405977 7:-0.311164 8:-0.161405 9:-0.142857 
0.6663002666553868 1:-0.333333 2:-1 3:-0.928249 4:-0.886076 5:0.524221 6:-0.054008 7:-0.403009 8:-0.055261 9:0.510204 
-1 1:-0.666667 2:1 3:-0.681721 4:-0.61764 5:0.197232 6:-0.627403 7:-0.273159 8:-0.387313 9:-0.22449 
1 1:-0.666667 2:-1 3:-0.859541 4:-0.782552 5:0.709343 6:-0.493746 7:-0.290578 8:-0.196916 9:-0.061225 
1 1:-0.666667 2:1 3:-0.920273 4:-0.759542 5:0.351211 6:-0.650517 7:-0.444181 8:-0.247556 9:0.673469 
-1 1:-0.333333 2:1 3:0.406689 4:-0.193184 5:0.380623 6:-0.978478 7:0.233571 8:0.024323 9:-0.55102 
-1 1:-1 2:1 3:-0.866507 4:-0.791922 5:0.816609 6:1 7:0.353919 8:0.776135 9:-0.314286 
1 1:0.5 2:1 3:-0.767319 4:-0.665781 5:0.228374 6:-0.725396 7:-0.714964 8:-0.635355 9:0.053061 
1 1:-0.666667 2:1 3:0.205108 4:-0.268055 5:0.121107 6:-0.514096 7:0.053048 8:0.004719 9:-0.338776 
-0.6011289569838054 1:1 2:1 3:-0.906343 4:-0.846524 5:0.813149 6:-0.352926 7:0.106888 8:0.429294 9:-0.020408 
-1 1:0.166667 2:1 3:-0.792999 4:-0.811905 5:0.264706 6:-0.797906 7:-0.140143 8:-0.048353 9:0.183673 
-1 1:-0.166667 2:1 3:-0.85762 4:-0.830395 5:0.581315 6:-0.588211 7:0.14331 8:0.020771 9:-0.142857 
1 1:-0.166667 2:1 3:-0.871561 4:-0.882199 5:-0.202422 6:-0.6256 7:-0.022961 8:0.139806 9:0.183673 
-1 1:-0.166667 2:1 3:-0.770401 4:-0.752452 5:0.141869 6:-0.638231 7:-0.087886 8:-0.179452 9:-0.714286 
-1 1:-1 2:1 3:-0.983226 4:-0.96409 5:0.631488 6:-0.86243 7:-0.357086 8:0.005254 9:0.591837 
1 1:0.333333 2:1 3:-0.878709 4:-0.821822 5:0.576125 6:-0.870802 7:-0.016627 8:-0.182809 9:-0.22449 
-1 1:-1 2:1 3:-0.803147 4:-0.913952 5:-0.029412 6:-0.693321 7:-0.2019 8:0.170356 9:0.020408 
1 1:-1 2:1 3:-0.80325 4:-0.860695 5:0.480969 6:-0.747894 7:0.125891 8:0.34003 9:0.102041 
1 1:-0.166667 2:-1 3:-0.436699 4:-0.698702 5:0.128028 6:-0.885588 7:-0.162312 8:-0.032884 9:-0.020408 
1 1:-0.166667 2:1 3:-0.855848 4:-0.874837 5:0.408304 6:-0.802744 7:-0.043547 8:0.330204 9:-0.061225 
0.1615438665161607 1:-1 2:1 3:0.88062 4:0.865713 5:-0.463668 6:-0.218426 7:1 8:0.362018 9:0.142857 
0.0884932160089722 1:-0.666667 2:-1 3:-0.29808 4:-0.447273 5:0.00692 6:-0.785454 7:-0.252573 8:-0.495841 9:-0.632653 
-1 1:-1 2:1 3:-0.834994 4:-0.821023 5:0.318339 6:-0.810245 7:0.045131 8:-0.108722 9:-0.22449 
-1 1:0.333333 2:1 3:-0.853014 4:-0.861216 5:0.430796 6:-0.778015 7:-0.097387 8:-0.013037 9:0.102041 
-1 1:-0.666667 2:-1 3:-0.896052 4:-0.847255 5:0.256055 6:-0.771454 7:-0.098971 8:-0.106679 9:-0.306122 
-1 1:-1 2:1 3:-0.193826 4:-0.642731 5:0.102076 6:-0.659505 7:0.350752 8:0.347084 9:-0.55102 
1 1:-0.166667 2:1 3:-0.030539 4:-0.41563 5:-0.070934 6:-0.689745 7:-0.494854 8:-0.574257 9:-0.755102 
-0.3419372820138506 1:-0.5 2:1 3:-0.8862 4:-0.891427 5:0.565744 6:-0.82826 7:-0.333333 8:0.036143 9:0.020408 
0.4960628739369773 1:-1 2:1 3:-0.20107 4:-0.617232 5:0.655709 6:-0.835969 7:-0.141726 8:-0.166707 9:-0.632653 
-0.3676764277449955 1:-1 2:-1 3:-0.94202 4:-0.948213 5:0.32699 6:-0.892958 7:-0.545527 8:-0.185241 9:0.102041 
1 1:-0.666667 2:-1 3:-0.8452 4:-0.702955 5:0.520761 6:-0.726962 7:-0.092637 8:-0.38133 9:-0.591837 
-1 1:-0.166667 2:1 3:-0.894677 4:-0.883378 5:0.359862 6:-0.798953 7:-0.555028 8:-0.34256 9:-0.265306 
-1 1:-0.166667 2:1 3:-0.704392 4:-0.83618 5:0.49654 6:-0.739317 7:-0.295329 8:-0.039986 9:-0.22449 
1 1:0.166667 2:1 3:-0.359559 4:-0.606428 5:0.096886 6:-0.852637 7:-0.339667 8:-0.412074 9:-0.387755 
-1 1:0.333333 2:1 3:-0.52775 4:-0.670729 5:0.403114 6:-0.727626 7:-0.195566 8:-0.316729 9:-0.55102 
1 1:0.666667 2:1 3:-0.86635 4:-0.826784 5:0.214533 6:-0.772226 7:-0.35867 8:-0.32135 9:-0.22449 
0.2800187265772029 1:0.333333 2:1 3:1 4:0.773103 5:0.107266 6:-0.767455 7:0.14331 8:-0.172399 9:0.265306 
-1 1:-0.5 2:1 3:-0.759482 4:-0.643086 5:-0.024222 6:-0.788365 7:-0.577197 8:-0.587294 9:-0.093878 
-1 1:-0.166667 2:1 3:-0.815739 4:-0.880197 5:0.356401 6:-0.891488 7:-0.312747 8:0.011626 9:0.020408 
-0.003846249700191076 1:0.666667 2:1 3:-0.954627 4:-0.918695 5:0.610727 6:-0.796179 7:-0.046714 8:0.562631 9:0.102041 
1 1:-0.333333 2:1 3:-0.82818 4:-0.698566 5:0.17128 6:-0.839894 7:-0.049881 8:-0.276889 9:-0.142857 
-1 1:0.166667 2:1 3:-0.053296 4:-0.522741 5:-0.102076 6:-0.674094 7:-0.702296 8:-0.562242 9:-0.061225 
-1 1:-0.5 2:1 3:-0.833631 4:-0.90445 5:0.33564 6:-0.775561 7:0.002375 8:0.077638 9:-0.387755 
1 1:-1 2:1 3:-0.705844 4:-0.788972 5:0.233564 6:-0.76648 7:0.065716 8:0.140439 9:-0.183673 
-1 1:-0.5 2:1 3:-0.883112 4:-0.955463 5:0.811419 6:-0.941977 7:-0.502771 8:-0.17989 9:-0.265306 
0.3132677455851879 1:-0.5 2:1 3:-0.813018 4:-0.812321 5:0.373702 6:-0.790394 7:0.149644 8:0.14939 9:0.428571 
