svm_type nu_svr
kernel_type rbf
gamma 1
nr_class 2
total_sv 58
rho -0.19975
SV
1 1:-0.209721 
1 1:-0.500142 
-1 1:-0.104703 
1 1:0.034352 
-1 1:-0.228314 
-1 1:-0.318813 
-1 1:-0.285251 
1 1:-0.186169 
1 1:-0.624437 
1 1:-0.224879 
-1 1:0.105986 
-1 1:-0.201087 
1 1:-0.500142 
1 1:-0.18513 
-1 1:-0.358906 
1 1:-0.004284 
-1 1:-0.902952 
1 1:-0.256483 
-1 1:0.151769 
0.5070958393309227 1:0.460325 
1 1:-0.080001 
1 1:-0.199182 
-1 1:-0.414106 
-1 1:-0.356546 
1 1:-0.511139 
-1 1:-0.301141 
1 1:-0.728532 
1 1:-0.7544 
-1 1:-0.565221 
1 1:-0.455716 
1 1:-0.354358 
1 1:-0.473108 
0.4929041606690772 1:-0.274831 
-1 1:-0.17816 
-1 1:-0.462484 
-1 1:-0.452333 
1 1:-0.408574 
-1 1:-0.388956 
1 1:-0.83002 
-1 1:-0.571569 
1 1:-1 
-1 1:-0.417013 
-1 1:-0.379345 
-0.7571262165644086 1:-0.777654 
-1 1:-0.656764 
1 1:-0.382943 
1 1:-0.503926 
-0.2428737834355916 1:-0.913952 
-1 1:-0.317626 
-1 1:-0.681675 
1 1:-0.273992 
-1 1:-0.331441 
1 1:-0.339848 
-1 1:-0.534191 
-1 1:-0.46764 
1 1:-0.506916 
-1 1:-0.793579 
1 1:-0.40729 
