svm_type nu_svr
kernel_type rbf
gamma 0.5
nr_class 2
total_sv 58
rho -0.0716879
SV
1 1:-1 2:-0.685075 
-0.6415874540773765 1:-1 2:-0.454166 
1 1:-1 2:-0.414079 
-1 1:-1 2:-0.488633 
1 1:-1 2:-0.470295 
-1 1:-1 2:-0.724984 
-1 1:-1 2:-0.737549 
-1 1:-1 2:-0.563308 
1 1:-1 2:-0.639346 
1 1:-1 2:-0.442876 
-1 1:-1 2:-0.573139 
-1 1:-1 2:-0.729312 
1 1:-1 2:-0.414079 
1 1:-1 2:-0.348415 
-1 1:-1 2:-0.5121 
-1 1:-1 2:-0.686475 
-1 1:-1 2:-0.991567 
-1 1:-1 2:-0.405977 
1 1:-1 2:-0.650517 
1 1:-1 2:-0.526912 
0.7346272247949588 1:-1 2:-0.978478 
1 1:-1 2:-0.352926 
-1 1:1 2:-0.801512 
-1 1:1 2:-0.588211 
1 1:1 2:-0.6256 
-1 1:1 2:-0.638231 
1 1:1 2:-0.86243 
1 1:1 2:-0.693321 
-1 1:1 2:-0.826757 
1 1:1 2:-0.747894 
1 1:1 2:-0.903694 
1 1:1 2:-0.584429 
1 1:1 2:-0.802744 
0.5491949999278281 1:1 2:-0.218426 
-1 1:1 2:-0.771454 
-0.3584125459226232 1:1 2:-0.659505 
-1 1:1 2:-0.689745 
1 1:1 2:-0.835969 
1 1:1 2:-0.892958 
-1 1:1 2:-0.798953 
1 1:1 2:-0.964458 
1 1:1 2:-0.852637 
-1 1:1 2:-0.727626 
-1 1:1 2:-0.929719 
-1 1:1 2:-1 
1 1:1 2:-0.767455 
1 1:1 2:-0.833465 
-1 1:1 2:-0.847999 
-1 1:1 2:-0.788365 
-1 1:1 2:-0.891488 
1 1:1 2:-0.839894 
-1 1:1 2:-0.645361 
1 1:1 2:-0.659248 
-1 1:1 2:-0.674094 
-1 1:1 2:-0.775561 
0.7161777752772134 1:1 2:-0.812061 
-1 1:1 2:-0.941977 
1 1:1 2:-0.790394 
