svm_type nu_svr
kernel_type rbf
gamma 0.5
nr_class 2
total_sv 59
rho 0.120898
SV
1 1:-0.209721 2:-0.398258 
1 1:-0.500142 2:-0.431512 
1 1:-0.150229 2:-0.572447 
-1 1:-0.104703 2:-0.771971 
1 1:0.034352 2:-0.230404 
-0.6741533978689028 1:-0.228314 2:-0.578781 
1 1:-0.219523 2:-0.391924 
-1 1:-0.318813 2:-0.434679 
1 1:-0.186169 2:-0.2019 
1 1:-0.224879 2:-0.30483 
-1 1:0.105986 2:-1 
-1 1:-0.201087 2:-0.444181 
1 1:-0.500142 2:-0.431512 
1 1:0.146305 2:-0.564529 
1 1:-0.146762 2:-0.529691 
1 1:-0.18513 2:-0.315914 
-1 1:-0.358906 2:-0.863816 
1 1:-0.004284 2:-0.528108 
-1 1:-0.902952 2:-0.727633 
1 1:-0.256483 2:-0.403009 
-1 1:0.151769 2:-0.273159 
1 1:-0.080001 2:0.106888 
1 1:-0.199182 2:0.646873 
-1 1:-0.414106 2:-0.235154 
-1 1:-0.356546 2:0.14331 
1 1:-0.511139 2:-0.022961 
-1 1:-0.301141 2:-0.087886 
1 1:-0.728532 2:-0.357086 
-1 1:-0.222825 2:-0.018211 
1 1:-0.7544 2:-0.2019 
-1 1:-0.565221 2:-0.311164 
1 1:-0.455716 2:0.125891 
1 1:-0.354358 2:0.441013 
1 1:-0.473108 2:-0.043547 
0.2087643138949855 1:-0.274831 2:1 
-1 1:-0.17816 2:-0.029295 
-1 1:-0.458311 2:0.045131 
-1 1:-0.462484 2:-0.098971 
-1 1:-0.455762 2:0.350752 
-1 1:-0.452333 2:-0.494854 
0.3755456136223909 1:-0.408574 2:-0.141726 
-1 1:-0.388956 2:0.830562 
1 1:-0.83002 2:-0.545527 
-0.3258466021310972 1:-0.571569 2:-0.555028 
1 1:-0.846686 2:-0.461599 
1 1:-1 2:-0.515439 
-1 1:-0.417013 2:-0.295329 
-1 1:-0.379345 2:-0.195566 
0.4156900724826234 1:-0.615633 2:-0.509105 
-1 1:-0.656764 2:-0.431512 
1 1:-0.503926 2:-0.239905 
-1 1:-0.317626 2:-0.577197 
-1 1:-0.681675 2:-0.312747 
1 1:-0.273992 2:-0.049881 
-1 1:-0.331441 2:-0.059382 
1 1:-0.339848 2:-0.5962 
-1 1:-0.534191 2:-0.702296 
-1 1:-0.46764 2:0.002375 
-1 1:-0.793579 2:-0.502771 
