svm_type nu_svr
kernel_type rbf
gamma 0.5
nr_class 2
total_sv 58
rho -0.129892
SV
1 1:-0.723575 2:-0.685075 
1 1:-0.84854 2:-0.414079 
-1 1:-0.567191 2:-0.488633 
1 1:-0.866467 2:-0.470295 
-1 1:-0.707577 2:-0.737549 
-1 1:-0.841967 2:-0.563308 
1 1:-0.888515 2:-0.639346 
1 1:-0.772861 2:-0.442876 
-1 1:1 2:-0.573139 
-1 1:-0.816895 2:-0.729312 
1 1:-0.84854 2:-0.414079 
1 1:-0.729993 2:-0.348415 
-1 1:-0.629473 2:-0.5121 
-1 1:-0.39852 2:-0.686475 
-1 1:-0.953775 2:-0.991567 
-1 1:-0.798862 2:-0.405977 
1 1:-0.759542 2:-0.650517 
1 1:-0.895037 2:-0.526912 
0.3504406478315872 1:-0.193184 2:-0.978478 
0.8800207794761192 1:-0.268055 2:-0.514096 
0.6660621598330365 1:-0.846524 2:-0.352926 
-1 1:-0.499382 2:-0.801512 
-1 1:-0.830395 2:-0.588211 
1 1:-0.882199 2:-0.6256 
-1 1:-0.752452 2:-0.638231 
0.9812753889712623 1:-0.96409 2:-0.86243 
1 1:-0.913952 2:-0.693321 
-1 1:-0.893648 2:-0.826757 
1 1:-0.860695 2:-0.747894 
1 1:-0.871849 2:-0.903694 
1 1:-0.596929 2:-0.584429 
1 1:-0.874837 2:-0.802744 
0.1222010238879944 1:0.865713 2:-0.218426 
-1 1:-0.791973 2:-0.686792 
-1 1:-0.847255 2:-0.771454 
-1 1:-0.642731 2:-0.659505 
-1 1:-0.41563 2:-0.689745 
1 1:-0.617232 2:-0.835969 
-1 1:-0.921264 2:-0.73218 
1 1:-0.948213 2:-0.892958 
-1 1:-0.883378 2:-0.798953 
1 1:-0.932148 2:-0.964458 
1 1:-0.606428 2:-0.852637 
-1 1:-0.670729 2:-0.727626 
-1 1:-0.964915 2:-0.929719 
1 1:0.773103 2:-0.767455 
1 1:-0.836817 2:-0.833465 
-1 1:-0.958179 2:-0.847999 
-1 1:-0.643086 2:-0.788365 
-1 1:-0.880197 2:-0.891488 
1 1:-0.698566 2:-0.839894 
-1 1:-0.851482 2:-0.645361 
1 1:-0.507266 2:-0.659248 
-1 1:-0.522741 2:-0.674094 
-1 1:-0.90445 2:-0.775561 
1 1:-0.730449 2:-0.812061 
-1 1:-0.955463 2:-0.941977 
1 1:-0.812321 2:-0.790394 
