svm_type nu_svr
kernel_type rbf
gamma 0.5
nr_class 2
total_sv 58
rho 0.0858804
SV
1 1:1 2:-0.398258 
1 1:-1 2:-0.431512 
1 1:1 2:-0.572447 
1 1:1 2:-0.230404 
1 1:1 2:-0.391924 
-1 1:1 2:-0.434679 
1 1:1 2:-0.2019 
1 1:1 2:-0.605701 
1 1:1 2:-0.30483 
-0.3834642156911471 1:1 2:-1 
1 1:-1 2:-0.431512 
1 1:1 2:-0.564529 
1 1:1 2:-0.529691 
1 1:1 2:-0.124307 
1 1:1 2:-0.315914 
-1 1:-1 2:-0.626287 
-1 1:1 2:-0.863816 
1 1:-1 2:-0.528108 
-1 1:-1 2:-0.727633 
0.9214293247307391 1:-1 2:-0.403009 
1 1:1 2:-0.444181 
0.6512761993505479 1:1 2:0.106888 
1 1:1 2:0.353919 
1 1:1 2:0.106888 
1 1:1 2:0.646873 
-1 1:1 2:-0.235154 
-1 1:1 2:0.14331 
1 1:1 2:-0.022961 
-1 1:1 2:-0.087886 
-1 1:1 2:-0.374505 
1 1:1 2:-0.2019 
-1 1:-1 2:-0.311164 
0.427294475918713 1:-1 2:0.441013 
1 1:1 2:-0.043547 
-1 1:1 2:-0.029295 
-1 1:1 2:0.045131 
-1 1:-1 2:-0.098971 
-1 1:1 2:0.350752 
-1 1:1 2:-0.494854 
-1 1:1 2:0.830562 
1 1:-1 2:-0.545527 
-1 1:1 2:-0.555028 
1 1:1 2:-0.515439 
-1 1:1 2:-0.295329 
-1 1:1 2:-0.195566 
-1 1:1 2:-0.499604 
-1 1:1 2:-0.431512 
1 1:1 2:-0.239905 
-1 1:1 2:-0.562945 
-0.6165357843088529 1:1 2:-0.577197 
-1 1:1 2:-0.312747 
1 1:1 2:-0.049881 
-1 1:-1 2:-0.379256 
-1 1:1 2:-0.059382 
1 1:1 2:-0.5962 
-1 1:1 2:-0.702296 
-1 1:1 2:0.002375 
-1 1:1 2:-0.502771 
