svm_type nu_svr
kernel_type rbf
gamma 0.333333
nr_class 2
total_sv 60
rho -0.135838
SV
1 1:-1 2:-0.625535 3:-0.209721 
1 1:-1 2:-0.729103 3:-0.500142 
-1 1:-1 2:-0.716794 3:-0.104703 
1 1:-1 2:-0.965184 3:0.034352 
-1 1:-1 2:-0.817005 3:-0.228314 
-1 1:-1 2:-0.832138 3:-0.318813 
-1 1:-1 2:-0.939254 3:-0.285251 
1 1:-1 2:-0.956936 3:-0.186169 
1 1:-1 2:-0.807677 3:-0.224879 
-1 1:-1 2:0.053178 3:0.105986 
-1 1:-1 2:-0.881376 3:-0.201087 
1 1:-1 2:-0.729103 3:-0.500142 
0.822211001161673 1:-1 2:-0.761987 3:0.147663 
-1 1:-1 2:-0.711404 3:-0.358906 
1 1:-1 2:-0.971129 3:-0.004284 
-1 1:-1 2:-0.965421 3:-0.902952 
-1 1:-1 2:-0.876791 3:-0.090263 
-1 1:-1 2:-0.681721 3:0.151769 
-1 1:-1 2:-0.859541 3:0.08501 
0.8841521361998415 1:-1 2:-0.866507 3:0.460325 
0.4421867087021997 1:-1 2:0.205108 3:0.258035 
1 1:-1 2:-0.906343 3:-0.080001 
1 1:-1 2:-0.967825 3:-0.199182 
-1 1:1 2:-0.091627 3:-0.414106 
1 1:1 2:-0.871561 3:-0.511139 
-1 1:1 2:-0.770401 3:-0.301141 
1 1:1 2:-0.983226 3:-0.728532 
1 1:1 2:-0.803147 3:-0.7544 
-1 1:1 2:-0.900937 3:-0.565221 
1 1:1 2:-0.80325 3:-0.455716 
1 1:1 2:-0.866667 3:-0.354358 
1 1:1 2:-0.30396 3:0.04585 
1 1:1 2:-0.855848 3:-0.473108 
0.09421638228354681 1:1 2:0.88062 3:-0.274831 
-1 1:1 2:-0.793693 3:-0.17816 
-1 1:1 2:-0.896052 3:-0.462484 
-4.440892098500626e-16 1:1 2:-0.193826 3:-0.455762 
-1 1:1 2:-0.030539 3:-0.452333 
1 1:1 2:-0.20107 3:-0.408574 
1 1:1 2:-0.94202 3:-0.83002 
-1 1:1 2:-0.894677 3:-0.571569 
0.525846128578295 1:1 2:-1 3:-0.846686 
1 1:1 2:-0.764964 3:-1 
1 1:1 2:-0.359559 3:-0.436269 
-1 1:1 2:-0.52775 3:-0.379345 
-1 1:1 2:-0.945255 3:-0.777654 
-1 1:1 2:-0.928728 3:-0.656764 
0.2313876430744439 1:1 2:1 3:-0.382943 
1 1:1 2:-0.848168 3:-0.503926 
-1 1:1 2:-0.887492 3:-0.913952 
-1 1:1 2:-0.759482 3:-0.317626 
-1 1:1 2:-0.815739 3:-0.681675 
1 1:1 2:-0.82818 3:-0.273992 
-1 1:1 2:-0.687797 3:-0.331441 
1 1:1 2:-0.193455 3:-0.339848 
-1 1:1 2:-0.053296 3:-0.534191 
-1 1:1 2:-0.833631 3:-0.46764 
1 1:1 2:-0.509602 3:-0.506916 
-1 1:1 2:-0.883112 3:-0.793579 
1 1:1 2:-0.813018 3:-0.40729 
