svm_type nu_svr
kernel_type rbf
gamma 0.333333
nr_class 2
total_sv 61
rho 0.156936
SV
1 1:-1 2:-0.723575 3:-0.398258 
-1 1:-1 2:-0.667368 3:-0.152811 
1 1:-1 2:-0.84854 3:-0.431512 
-1 1:-1 2:-0.567191 3:-0.771971 
1 1:-1 2:-0.866467 3:-0.230404 
-1 1:-1 2:-0.770809 3:-0.578781 
-1 1:-1 2:-0.707577 3:-0.434679 
0.593193743044974 1:-1 2:-0.888515 3:-0.2019 
1 1:-1 2:-0.772861 3:-0.30483 
-0.06235419797706952 1:-1 2:1 3:-1 
-1 1:-1 2:-0.816895 3:-0.444181 
-1 1:-1 2:-0.922993 3:-0.637371 
1 1:-1 2:-0.84854 3:-0.431512 
1 1:-1 2:-0.780339 3:-0.564529 
0.8889523177905212 1:-1 2:-0.767471 3:-0.529691 
1 1:-1 2:-0.729993 3:-0.124307 
-1 1:-1 2:-0.39852 3:-0.863816 
1 1:-1 2:-0.893907 3:-0.528108 
-1 1:-1 2:-0.953775 3:-0.727633 
-1 1:-1 2:-0.798862 3:-0.311164 
-1 1:-1 2:-0.61764 3:-0.273159 
1 1:-1 2:-0.759542 3:-0.444181 
-0.2588303713490739 1:-1 2:-0.683175 3:-0.323832 
-1 1:1 2:-0.499382 3:-0.235154 
-1 1:1 2:-0.830395 3:0.14331 
1 1:1 2:-0.882199 3:-0.022961 
-1 1:1 2:-0.752452 3:-0.087886 
1 1:1 2:-0.96409 3:-0.357086 
1 1:1 2:-0.913952 3:-0.2019 
-1 1:1 2:-0.893648 3:-0.311164 
1 1:1 2:-0.860695 3:0.125891 
1 1:1 2:-0.871849 3:0.441013 
1 1:1 2:-0.596929 3:-0.059382 
1 1:1 2:-0.874837 3:-0.043547 
0.03855213506843207 1:1 2:0.865713 3:1 
-0.7397838890096253 1:1 2:-0.791973 3:-0.029295 
-1 1:1 2:-0.847255 3:-0.098971 
-1 1:1 2:-0.642731 3:0.350752 
-1 1:1 2:-0.41563 3:-0.494854 
1 1:1 2:-0.617232 3:-0.141726 
-0.9262238788397531 1:1 2:-0.921264 3:0.830562 
1 1:1 2:-0.948213 3:-0.545527 
-0.01280766282447817 1:1 2:-0.883378 3:-0.555028 
1 1:1 2:-0.932148 3:-0.515439 
1 1:1 2:-0.606428 3:-0.339667 
-1 1:1 2:-0.670729 3:-0.195566 
-1 1:1 2:-0.964915 3:-0.499604 
1 1:1 2:-0.910797 3:-0.509105 
-1 1:1 2:-0.916987 3:-0.431512 
0.4793018040960727 1:1 2:0.773103 3:0.14331 
1 1:1 2:-0.836817 3:-0.239905 
-1 1:1 2:-0.958179 3:-0.562945 
-1 1:1 2:-0.880197 3:-0.312747 
1 1:1 2:-0.698566 3:-0.049881 
-1 1:1 2:-0.851482 3:-0.059382 
1 1:1 2:-0.507266 3:-0.5962 
-1 1:1 2:-0.522741 3:-0.702296 
-1 1:1 2:-0.90445 3:0.002375 
1 1:1 2:-0.730449 3:-0.319082 
-1 1:1 2:-0.955463 3:-0.502771 
1 1:1 2:-0.812321 3:0.149644 
