svm_type nu_svr
kernel_type rbf
gamma 0.333333
nr_class 2
total_sv 60
rho 0.151937
SV
0.5658020286149769 1:-1 2:-0.723575 3:0.183673 
-1 1:-1 2:-0.667368 3:0.020408 
1 1:-1 2:-0.84854 3:0.142857 
1 1:-1 2:-0.852123 3:-0.542857 
0.7465467899183668 1:-1 2:-0.866467 3:0.795918 
-1 1:-1 2:-0.878479 3:0.428571 
-1 1:-1 2:-0.707577 3:-0.102041 
1 1:-1 2:-0.772861 3:-0.061225 
-0.5782639400190825 1:-1 2:1 3:-0.885714 
-1 1:-1 2:-0.816895 3:0.061225 
-1 1:-1 2:-0.954734 3:-0.265306 
0.8474831356826306 1:-1 2:-0.84854 3:0.142857 
-0.2108896806252465 1:-1 2:-0.629473 3:-0.387755 
-1 1:-1 2:-0.39852 3:-1 
1 1:-1 2:-0.893907 3:-0.142857 
-1 1:-1 2:-0.953775 3:-1 
-1 1:-1 2:-0.798862 3:-0.142857 
-1 1:-1 2:-0.61764 3:-0.22449 
-1 1:-1 2:-0.683175 3:-0.020408 
0.5379313868626548 1:-1 2:-0.193184 3:-0.55102 
1 1:-1 2:-0.791922 3:-0.314286 
1 1:-1 2:-0.268055 3:-0.338776 
1 1:-1 2:-0.846524 3:-0.020408 
1 1:-1 2:-0.903218 3:-0.322449 
-1 1:1 2:-0.499382 3:-0.387755 
-0.5782451585696167 1:1 2:-0.830395 3:-0.142857 
1 1:1 2:-0.882199 3:0.183673 
-1 1:1 2:-0.752452 3:-0.714286 
1 1:1 2:-0.913952 3:0.020408 
-1 1:1 2:-0.893648 3:-0.387755 
1 1:1 2:-0.860695 3:0.102041 
1 1:1 2:-0.871849 3:-0.061225 
1 1:1 2:-0.596929 3:0.102041 
1 1:1 2:-0.874837 3:-0.061225 
0.3022366589213705 1:1 2:0.865713 3:0.142857 
-1 1:1 2:-0.791973 3:0.265306 
-1 1:1 2:-0.847255 3:-0.306122 
-0.6326012207860543 1:1 2:-0.41563 3:-0.755102 
1 1:1 2:-0.617232 3:-0.632653 
-1 1:1 2:-0.921264 3:0.102041 
1 1:1 2:-0.948213 3:0.102041 
1 1:1 2:-0.702955 3:-0.591837 
-1 1:1 2:-0.883378 3:-0.265306 
1 1:1 2:-0.932148 3:-0.714286 
1 1:1 2:-0.606428 3:-0.387755 
-1 1:1 2:-0.670729 3:-0.55102 
-1 1:1 2:-0.964915 3:0.020408 
1 1:1 2:-0.906396 3:-0.387755 
-1 1:1 2:-0.916987 3:-0.387755 
1 1:1 2:-0.836817 3:0.020408 
-1 1:1 2:-0.643086 3:-0.093878 
-1 1:1 2:-0.880197 3:0.020408 
1 1:1 2:-0.698566 3:-0.142857 
-1 1:1 2:-0.851482 3:0.591837 
1 1:1 2:-0.507266 3:-0.673469 
-1 1:1 2:-0.522741 3:-0.061225 
-1 1:1 2:-0.90445 3:-0.387755 
1 1:1 2:-0.730449 3:-0.387755 
-1 1:1 2:-0.955463 3:-0.265306 
1 1:1 2:-0.812321 3:0.428571 
