svm_type nu_svr
kernel_type rbf
gamma 0.333333
nr_class 2
total_sv 61
rho 0.110461
SV
1 1:-0.723575 2:-0.246048 3:0.183673 
-0.983104434993441 1:-0.667368 2:-0.321107 3:0.020408 
1 1:-0.84854 2:-0.277424 3:0.142857 
1 1:-0.852123 2:-0.299265 3:-0.542857 
1 1:-0.866467 2:0.082356 3:0.795918 
-1 1:-0.707577 2:-0.519142 3:-0.102041 
0.07079437893357046 1:-0.888515 2:0.105803 3:0.877551 
1 1:-0.678864 2:-0.514521 3:-0.22449 
0.6095438028780649 1:-0.944027 2:0.068736 3:-0.346939 
1 1:-0.772861 2:-0.247118 3:-0.061225 
-0.7618773100278142 1:1 2:-1 3:-0.885714 
-1 1:-0.816895 2:-0.248237 3:0.061225 
1 1:-0.84854 2:-0.277424 3:0.142857 
1 1:-0.780339 2:-0.34003 3:0.265306 
1 1:-0.767471 2:-0.420538 3:0.020408 
-1 1:-0.39852 2:-0.869631 3:-1 
1 1:-0.893907 2:0.196673 3:-0.142857 
-1 1:-0.953775 2:-0.439704 3:-1 
1 1:-0.791922 2:0.776135 3:-0.314286 
1 1:-0.268055 2:0.004719 3:-0.338776 
1 1:-0.846524 2:0.429294 3:-0.020408 
1 1:-0.903218 2:1 3:-0.322449 
-1 1:-0.811905 2:-0.048353 3:0.183673 
-1 1:-0.499382 2:-0.27397 3:-0.387755 
-1 1:-0.830395 2:0.020771 3:-0.142857 
-1 1:-0.752452 2:-0.179452 3:-0.714286 
1 1:-0.518477 2:-0.454298 3:-0.755102 
1 1:-0.913952 2:0.170356 3:0.020408 
-1 1:-0.893648 2:-0.201343 3:-0.387755 
1 1:-0.871849 2:0.301552 3:-0.061225 
0.1467135827653255 1:-0.596929 2:-0.000146 3:0.102041 
1 1:-0.874837 2:0.330204 3:-0.061225 
-1 1:-0.791973 2:-0.023642 3:0.265306 
-1 1:-0.821023 2:-0.108722 3:-0.22449 
-1 1:-0.847255 2:-0.106679 3:-0.306122 
-1 1:-0.642731 2:0.347084 3:-0.55102 
-1 1:-0.891427 2:0.036143 3:0.020408 
1 1:-0.617232 2:-0.166707 3:-0.632653 
-1 1:-0.921264 2:0.823466 3:0.102041 
1 1:-0.948213 2:-0.185241 3:0.102041 
1 1:-0.702955 2:-0.38133 3:-0.591837 
-1 1:-0.883378 2:-0.34256 3:-0.265306 
-0.1822634248088382 1:-1 2:0.650727 3:0.346939 
1 1:-0.932148 2:-0.255777 3:-0.714286 
-1 1:-0.83618 2:-0.039986 3:-0.22449 
1 1:-0.606428 2:-0.412074 3:-0.387755 
-1 1:-0.670729 2:-0.316729 3:-0.55102 
-1 1:-0.964915 2:0.042565 3:0.020408 
-1 1:-0.916987 2:-0.053996 3:-0.387755 
0.1729482354230391 1:0.773103 2:-0.172399 3:0.265306 
1 1:-0.836817 2:-0.170745 3:0.020408 
-0.07275483016990675 1:-0.958179 2:-0.252031 3:-0.673469 
-1 1:-0.643086 2:-0.587294 3:-0.093878 
-1 1:-0.880197 2:0.011626 3:0.020408 
1 1:-0.698566 2:-0.276889 3:-0.142857 
-1 1:-0.851482 2:0.493117 3:0.591837 
1 1:-0.507266 2:-0.599601 3:-0.673469 
-1 1:-0.522741 2:-0.562242 3:-0.061225 
-1 1:-0.90445 2:0.077638 3:-0.387755 
1 1:-0.730449 2:-0.253247 3:-0.387755 
-1 1:-0.955463 2:-0.17989 3:-0.265306 
