svm_type nu_svr
kernel_type rbf
gamma 0.333333
nr_class 2
total_sv 58
rho -0.11189
SV
1 1:-0.723575 2:-0.209721 3:0.183673 
-1 1:-0.667368 2:-0.21464 3:0.020408 
1 1:-0.84854 2:-0.500142 3:0.142857 
1 1:-0.852123 2:-0.150229 3:-0.542857 
-0.2597263200026482 1:-0.567191 2:-0.104703 3:-0.942857 
0.9510931656665647 1:-0.866467 2:0.034352 3:0.795918 
-1 1:-0.707577 2:-0.318813 3:-0.102041 
1 1:-0.944027 2:-0.624437 3:-0.346939 
1 1:-0.772861 2:-0.224879 3:-0.061225 
-1 1:1 2:0.105986 3:-0.885714 
0.9393735215188419 1:-0.909095 2:-0.216148 3:-0.159184 
-1 1:-0.816895 2:-0.201087 3:0.061225 
1 1:-0.84854 2:-0.500142 3:0.142857 
-1 1:-0.39852 2:-0.358906 3:-1 
1 1:-0.893907 2:-0.004284 3:-0.142857 
-1 1:-0.953775 2:-0.902952 3:-1 
-1 1:-0.798862 2:-0.090263 3:-0.142857 
-1 1:-0.61764 2:0.151769 3:-0.22449 
-0.7402736799973517 1:-0.683175 2:-0.2759 3:-0.020408 
1 1:-0.193184 2:-0.911733 3:-0.55102 
1 1:-0.791922 2:0.460325 3:-0.314286 
0.6335840134117928 1:-0.268055 2:0.258035 3:-0.338776 
1 1:-0.846524 2:-0.080001 3:-0.020408 
1 1:-0.903218 2:-0.199182 3:-0.322449 
-1 1:-0.811905 2:-0.321951 3:0.183673 
-1 1:-0.499382 2:-0.414106 3:-0.387755 
-1 1:-0.830395 2:-0.356546 3:-0.142857 
1 1:-0.882199 2:-0.511139 3:0.183673 
-1 1:-0.752452 2:-0.301141 3:-0.714286 
1 1:-0.913952 2:-0.7544 3:0.020408 
-1 1:-0.893648 2:-0.565221 3:-0.387755 
1 1:-0.860695 2:-0.455716 3:0.102041 
1 1:-0.871849 2:-0.354358 3:-0.061225 
1 1:-0.874837 2:-0.473108 3:-0.061225 
0.6329582506350629 1:0.865713 2:-0.274831 3:0.142857 
-1 1:-0.791973 2:-0.17816 3:0.265306 
-1 1:-0.847255 2:-0.462484 3:-0.306122 
0.8429910487677377 1:-0.540797 2:-0.560157 3:-0.714286 
1 1:-0.617232 2:-0.408574 3:-0.632653 
-1 1:-0.921264 2:-0.388956 3:0.102041 
1 1:-0.948213 2:-0.83002 3:0.102041 
-1 1:-0.883378 2:-0.571569 3:-0.265306 
1 1:-0.932148 2:-1 3:-0.714286 
-1 1:-0.83618 2:-0.417013 3:-0.22449 
1 1:-0.606428 2:-0.436269 3:-0.387755 
-1 1:-0.670729 2:-0.379345 3:-0.55102 
-1 1:-0.964915 2:-0.777654 3:0.020408 
-1 1:-0.916987 2:-0.656764 3:-0.387755 
1 1:-0.836817 2:-0.503926 3:0.020408 
-1 1:-0.643086 2:-0.317626 3:-0.093878 
-1 1:-0.880197 2:-0.681675 3:0.020408 
1 1:-0.698566 2:-0.273992 3:-0.142857 
-1 1:-0.851482 2:-0.331441 3:0.591837 
1 1:-0.507266 2:-0.339848 3:-0.673469 
-1 1:-0.522741 2:-0.534191 3:-0.061225 
-1 1:-0.90445 2:-0.46764 3:-0.387755 
1 1:-0.730449 2:-0.506916 3:-0.387755 
-1 1:-0.955463 2:-0.793579 3:-0.265306 
