svm_type nu_svr
kernel_type rbf
gamma 0.333333
nr_class 2
total_sv 57
rho 0.0383847
SV
1 1:-0.723575 2:0.285467 3:-0.685075 
1 1:-0.84854 2:0.183391 3:-0.414079 
-1 1:-0.567191 2:-0.126298 3:-0.488633 
1 1:-0.866467 2:0.456747 3:-0.470295 
-1 1:-0.707577 2:0.095156 3:-0.737549 
-1 1:-0.841967 2:0.435986 3:-0.563308 
1 1:-0.888515 2:0.316609 3:-0.639346 
1 1:-0.772861 2:0.525952 3:-0.442876 
-1 1:1 2:-1 3:-0.573139 
1 1:-0.909095 2:0.269896 3:-0.627577 
-1 1:-0.816895 2:0.50173 3:-0.729312 
1 1:-0.84854 2:0.183391 3:-0.414079 
1 1:-0.729993 2:-0.152249 3:-0.348415 
-1 1:-0.39852 2:-0.404844 3:-0.686475 
-1 1:-0.953775 2:0.553633 3:-0.991567 
1 1:-0.759542 2:0.351211 3:-0.650517 
0.8753620917885123 1:-0.895037 2:0.790657 3:-0.526912 
-1 1:-0.499382 2:-0.034602 3:-0.801512 
-1 1:-0.830395 2:0.581315 3:-0.588211 
1 1:-0.882199 2:-0.202422 3:-0.6256 
-1 1:-0.752452 2:0.141869 3:-0.638231 
1 1:-0.96409 2:0.631488 3:-0.86243 
1 1:-0.913952 2:-0.029412 3:-0.693321 
-1 1:-0.893648 2:0.254325 3:-0.826757 
1 1:-0.860695 2:0.480969 3:-0.747894 
1 1:-0.871849 2:0.638408 3:-0.903694 
0.5370498710779196 1:-0.698702 2:0.128028 3:-0.885588 
1 1:-0.596929 2:0.641869 3:-0.584429 
1 1:-0.874837 2:0.408304 3:-0.802744 
1 1:0.865713 2:-0.463668 3:-0.218426 
-1 1:-0.791973 2:0.288927 3:-0.686792 
-1 1:-0.847255 2:0.256055 3:-0.771454 
-1 1:-0.642731 2:0.102076 3:-0.659505 
-1 1:-0.41563 2:-0.070934 3:-0.689745 
1 1:-0.617232 2:0.655709 3:-0.835969 
-1 1:-0.921264 2:0.543253 3:-0.73218 
1 1:-0.948213 2:0.32699 3:-0.892958 
-1 1:-0.883378 2:0.359862 3:-0.798953 
1 1:-0.932148 2:0.576125 3:-0.964458 
-1 1:-0.83618 2:0.49654 3:-0.739317 
1 1:-0.606428 2:0.096886 3:-0.852637 
-1 1:-0.670729 2:0.403114 3:-0.727626 
-1 1:-0.964915 2:0.776817 3:-0.929719 
-1 1:-0.916987 2:0.711073 3:-1 
0.587588037133568 1:0.773103 2:0.107266 3:-0.767455 
1 1:-0.836817 2:0.273356 3:-0.833465 
-1 1:-0.958179 2:0.131488 3:-0.847999 
-1 1:-0.643086 2:-0.024222 3:-0.788365 
-1 1:-0.880197 2:0.356401 3:-0.891488 
1 1:-0.698566 2:0.17128 3:-0.839894 
-1 1:-0.851482 2:0.586505 3:-0.645361 
1 1:-0.507266 2:0.019031 3:-0.659248 
-1 1:-0.522741 2:-0.102076 3:-0.674094 
-1 1:-0.90445 2:0.33564 3:-0.775561 
1 1:-0.730449 2:0.083045 3:-0.812061 
-1 1:-0.955463 2:0.811419 3:-0.941977 
1 1:-0.812321 2:0.373702 3:-0.790394 
