svm_type nu_svr
kernel_type rbf
gamma 0.333333
nr_class 2
total_sv 58
rho 0.0167817
SV
1 1:1 2:-0.209721 3:-0.398258 
1 1:-1 2:-0.500142 3:-0.431512 
1 1:1 2:-0.150229 3:-0.572447 
-1 1:1 2:-0.104703 3:-0.771971 
1 1:1 2:0.034352 3:-0.230404 
1 1:1 2:-0.219523 3:-0.391924 
-1 1:1 2:-0.318813 3:-0.434679 
1 1:1 2:-0.186169 3:-0.2019 
1 1:1 2:-0.224879 3:-0.30483 
-1 1:1 2:0.105986 3:-1 
-1 1:1 2:-0.201087 3:-0.444181 
1 1:-1 2:-0.500142 3:-0.431512 
1 1:1 2:0.146305 3:-0.564529 
1 1:1 2:-0.146762 3:-0.529691 
0.8199864435368569 1:1 2:0.147663 3:-0.124307 
1 1:1 2:-0.18513 3:-0.315914 
-0.2079465470895819 1:-1 2:-0.453851 3:-0.626287 
-1 1:1 2:-0.358906 3:-0.863816 
1 1:-1 2:-0.004284 3:-0.528108 
-1 1:-1 2:-0.902952 3:-0.727633 
-1 1:-1 2:-0.090263 3:-0.311164 
0.8687533763606808 1:-1 2:-0.256483 3:-0.403009 
-1 1:1 2:0.151769 3:-0.273159 
1 1:1 2:-0.080001 3:0.106888 
1 1:1 2:-0.199182 3:0.646873 
-1 1:1 2:-0.414106 3:-0.235154 
-1 1:1 2:-0.356546 3:0.14331 
1 1:1 2:-0.511139 3:-0.022961 
-1 1:1 2:-0.301141 3:-0.087886 
1 1:1 2:-0.728532 3:-0.357086 
1 1:1 2:-0.7544 3:-0.2019 
-1 1:-1 2:-0.565221 3:-0.311164 
1 1:1 2:-0.455716 3:0.125891 
0.6243871058664386 1:-1 2:-0.354358 3:0.441013 
1 1:1 2:-0.473108 3:-0.043547 
-1 1:1 2:-0.17816 3:-0.029295 
-0.7920534529104182 1:1 2:-0.458311 3:0.045131 
-1 1:-1 2:-0.462484 3:-0.098971 
-1 1:1 2:-0.455762 3:0.350752 
-1 1:1 2:-0.452333 3:-0.494854 
0.6868730742360236 1:1 2:-0.408574 3:-0.141726 
-1 1:1 2:-0.388956 3:0.830562 
1 1:-1 2:-0.83002 3:-0.545527 
1 1:1 2:-0.846686 3:-0.461599 
1 1:1 2:-1 3:-0.515439 
-1 1:1 2:-0.417013 3:-0.295329 
-1 1:1 2:-0.379345 3:-0.195566 
-1 1:1 2:-0.656764 3:-0.431512 
1 1:1 2:-0.503926 3:-0.239905 
-1 1:1 2:-0.317626 3:-0.577197 
-1 1:1 2:-0.681675 3:-0.312747 
1 1:1 2:-0.273992 3:-0.049881 
-1 1:-1 2:-0.531536 3:-0.379256 
-1 1:1 2:-0.331441 3:-0.059382 
1 1:1 2:-0.339848 3:-0.5962 
-1 1:1 2:-0.534191 3:-0.702296 
-1 1:1 2:-0.46764 3:0.002375 
-1 1:1 2:-0.793579 3:-0.502771 
