svm_type nu_svr
kernel_type rbf
gamma 0.333333
nr_class 2
total_sv 58
rho 0.120692
SV
1 1:1 2:-0.209721 3:-0.246048 
1 1:-1 2:-0.500142 3:-0.277424 
1 1:1 2:-0.150229 3:-0.299265 
1 1:1 2:0.034352 3:0.082356 
-1 1:1 2:-0.228314 3:-0.363283 
1 1:1 2:-0.219523 3:-0.214234 
-1 1:1 2:-0.318813 3:-0.519142 
1 1:1 2:-0.186169 3:0.105803 
1 1:1 2:-0.224879 3:-0.247118 
-1 1:1 2:0.105986 3:-1 
-1 1:1 2:-0.201087 3:-0.248237 
1 1:-1 2:-0.500142 3:-0.277424 
1 1:1 2:0.146305 3:-0.34003 
1 1:1 2:-0.146762 3:-0.420538 
0.8461659569959146 1:1 2:0.147663 3:-0.064649 
-1 1:1 2:-0.358906 3:-0.869631 
1 1:-1 2:-0.004284 3:0.196673 
-1 1:-1 2:-0.902952 3:-0.439704 
-1 1:-1 2:-0.090263 3:-0.161405 
1 1:-1 2:-0.256483 3:-0.055261 
-1 1:1 2:0.151769 3:-0.387313 
0.5970289116547779 1:1 2:-0.199182 3:1 
-1 1:1 2:-0.414106 3:-0.27397 
-1 1:1 2:-0.356546 3:0.020771 
1 1:1 2:-0.511139 3:0.139806 
-1 1:1 2:-0.301141 3:-0.179452 
1 1:1 2:-0.728532 3:0.005254 
1 1:1 2:-0.7544 3:0.170356 
-1 1:-1 2:-0.565221 3:-0.201343 
1 1:1 2:-0.455716 3:0.34003 
1 1:1 2:-0.473108 3:0.330204 
-1 1:1 2:-0.17816 3:-0.023642 
-0.7061075698662187 1:1 2:-0.458311 3:-0.108722 
-1 1:-1 2:-0.462484 3:-0.106679 
-1 1:1 2:-0.455762 3:0.347084 
1 1:1 2:-0.408574 3:-0.166707 
-1 1:1 2:-0.388956 3:0.823466 
1 1:-1 2:-0.83002 3:-0.185241 
-1 1:1 2:-0.571569 3:-0.34256 
1 1:1 2:-1 3:-0.255777 
-1 1:1 2:-0.417013 3:-0.039986 
1 1:1 2:-0.436269 3:-0.412074 
-1 1:1 2:-0.379345 3:-0.316729 
-1 1:1 2:-0.777654 3:0.042565 
0.5568051313493075 1:1 2:-0.615633 3:-0.260009 
-1 1:1 2:-0.656764 3:-0.053996 
1 1:1 2:-0.382943 3:-0.172399 
1 1:1 2:-0.503926 3:-0.170745 
-0.4892205429337207 1:1 2:-0.317626 3:-0.587294 
-1 1:1 2:-0.681675 3:0.011626 
1 1:1 2:-0.273992 3:-0.276889 
-0.8046718872000607 1:-1 2:-0.531536 3:-0.452255 
-1 1:1 2:-0.331441 3:0.493117 
1 1:1 2:-0.339848 3:-0.599601 
-1 1:1 2:-0.534191 3:-0.562242 
-1 1:1 2:-0.46764 3:0.077638 
1 1:1 2:-0.506916 3:-0.253247 
-1 1:1 2:-0.793579 3:-0.17989 
