svm_type nu_svr
kernel_type rbf
gamma 0.333333
nr_class 2
total_sv 60
rho 0.0251018
SV
1 1:-1 2:-0.723575 3:-0.246048 
1 1:-1 2:-0.84854 3:-0.277424 
1 1:0.166667 2:-0.852123 3:-0.299265 
1 1:-0.5 2:-0.866467 3:0.082356 
1 1:0.333333 2:-0.850492 3:-0.214234 
-1 1:0.166667 2:-0.707577 3:-0.519142 
-1 1:-1 2:-0.841967 3:-0.535098 
1 1:0.166667 2:-0.888515 3:0.105803 
0.1104707452210675 1:-1 2:-0.678864 3:-0.514521 
1 1:-1 2:-0.772861 3:-0.247118 
-0.9279912978420199 1:-0.666667 2:1 3:-1 
-0.5748004985231643 1:0.333333 2:-0.816895 3:-0.248237 
-0.4972082036348156 1:-1 2:-0.954734 3:-0.171474 
1 1:-1 2:-0.84854 3:-0.277424 
1 1:-0.666667 2:-0.780339 3:-0.34003 
1 1:-0.666667 2:-0.767471 3:-0.420538 
1 1:0.666667 2:-0.729993 3:-0.064649 
0.1466070981608207 1:0.666667 2:-0.861599 3:0.07253 
-1 1:0.666667 2:-0.39852 3:-0.869631 
0.9673162796835687 1:1 2:-0.893907 3:0.196673 
-1 1:0.666667 2:-0.953775 3:-0.439704 
1 1:-0.333333 2:-0.886076 3:-0.055261 
1 1:-0.666667 2:-0.759542 3:-0.247556 
1 1:-1 2:-0.791922 3:0.776135 
0.2670350237306939 1:0.5 2:-0.665781 3:-0.635355 
0.6759071121406631 1:-1 2:-0.903218 3:1 
-1 1:0.166667 2:-0.499382 3:-0.27397 
-1 1:-0.166667 2:-0.830395 3:0.020771 
1 1:-0.166667 2:-0.882199 3:0.139806 
-1 1:-0.166667 2:-0.752452 3:-0.179452 
-1 1:-1 2:-0.767577 3:-0.402053 
1 1:-1 2:-0.913952 3:0.170356 
-1 1:-1 2:-0.893648 3:-0.201343 
1 1:-1 2:-0.596929 3:-0.000146 
1 1:-0.166667 2:-0.874837 3:0.330204 
-1 1:-1 2:-0.791973 3:-0.023642 
-1 1:-1 2:-0.821023 3:-0.108722 
-1 1:-0.666667 2:-0.847255 3:-0.106679 
-1 1:-1 2:-0.642731 3:0.347084 
-1 1:-1 2:-0.921264 3:0.823466 
1 1:-1 2:-0.948213 3:-0.185241 
-1 1:-0.166667 2:-0.883378 3:-0.34256 
1 1:-0.833333 2:-0.932148 3:-0.255777 
-1 1:-0.166667 2:-0.83618 3:-0.039986 
1 1:0.166667 2:-0.606428 3:-0.412074 
-1 1:0.333333 2:-0.670729 3:-0.316729 
-1 1:-0.666667 2:-0.964915 3:0.042565 
-1 1:-1 2:-0.916987 3:-0.053996 
0.8326637410631861 1:0.333333 2:0.773103 3:-0.172399 
1 1:0.666667 2:-0.836817 3:-0.170745 
-1 1:0.166667 2:-0.958179 3:-0.252031 
-1 1:-0.166667 2:-0.880197 3:0.011626 
1 1:-0.333333 2:-0.698566 3:-0.276889 
-1 1:-1 2:-0.587619 3:-0.452255 
-1 1:0.333333 2:-0.851482 3:0.493117 
1 1:-0.166667 2:-0.507266 3:-0.599601 
-1 1:0.166667 2:-0.522741 3:-0.562242 
-1 1:-0.5 2:-0.90445 3:0.077638 
1 1:-0.166667 2:-0.730449 3:-0.253247 
-1 1:-0.5 2:-0.955463 3:-0.17989 
