svm_type nu_svr
kernel_type rbf
gamma 0.333333
nr_class 2
total_sv 59
rho -0.314771
SV
1 1:-1 2:1 3:-0.625535 
1 1:-1 2:-1 3:-0.729103 
-1 1:0.166667 2:1 3:-0.716794 
1 1:-0.5 2:1 3:-0.965184 
-1 1:0.166667 2:1 3:-0.832138 
-1 1:-1 2:1 3:-0.939254 
1 1:0.166667 2:1 3:-0.956936 
1 1:-1 2:1 3:-0.807677 
-1 1:-0.666667 2:1 3:0.053178 
0.7261380047431603 1:-0.166667 2:1 3:-0.922482 
-1 1:-1 2:1 3:-0.937233 
-0.1177313694160051 1:0.833333 2:1 3:-0.966757 
1 1:-1 2:-1 3:-0.729103 
1 1:-0.666667 2:1 3:-0.894918 
1 1:0.666667 2:1 3:-0.761987 
1 1:0.666667 2:1 3:-0.922927 
-0.8389506814769411 1:-1 2:-1 3:-0.539699 
-1 1:0.666667 2:1 3:-0.711404 
0.8060371268606289 1:1 2:-1 3:-0.971129 
-1 1:0.666667 2:-1 3:-0.965421 
1 1:-0.333333 2:-1 3:-0.928249 
1 1:-0.666667 2:1 3:-0.920273 
1 1:-0.166667 2:1 3:-0.974102 
1 1:-1 2:1 3:-0.866507 
1 1:-0.666667 2:1 3:0.205108 
1 1:1 2:1 3:-0.906343 
1 1:-1 2:1 3:-0.967825 
-1 1:0.166667 2:1 3:-0.091627 
1 1:-0.166667 2:1 3:-0.871561 
-1 1:-0.166667 2:1 3:-0.770401 
-1 1:-1 2:1 3:-0.826473 
1 1:-1 2:1 3:-0.803147 
-1 1:-1 2:-1 3:-0.900937 
1 1:-1 2:1 3:-0.80325 
1 1:-1 2:-1 3:-0.30396 
1 1:-0.166667 2:1 3:-0.855848 
-1 1:-1 2:1 3:-0.793693 
-0.09806915663008289 1:-1 2:1 3:-0.834994 
-1 1:-0.666667 2:-1 3:-0.896052 
-1 1:-1 2:1 3:-0.193826 
-1 1:-1 2:1 3:-0.93417 
-1 1:-0.166667 2:1 3:-0.894677 
1 1:-0.833333 2:1 3:-0.764964 
1 1:0.166667 2:1 3:-0.359559 
-1 1:0.333333 2:1 3:-0.52775 
-1 1:-0.666667 2:1 3:-0.945255 
-1 1:-1 2:1 3:-0.928728 
0.4678248683962105 1:0.333333 2:1 3:1 
-1 1:0.166667 2:1 3:-0.887492 
-1 1:-0.5 2:1 3:-0.759482 
-1 1:-0.166667 2:1 3:-0.815739 
1 1:-0.333333 2:1 3:-0.82818 
-1 1:-1 2:-1 3:-0.295346 
-1 1:0.333333 2:1 3:-0.687797 
1 1:-0.166667 2:1 3:-0.193455 
-0.9452487924769709 1:0.166667 2:1 3:-0.053296 
-1 1:-0.5 2:1 3:-0.833631 
1 1:-0.166667 2:1 3:-0.509602 
-1 1:-0.5 2:1 3:-0.883112 
