svm_type nu_svr
kernel_type rbf
gamma 0.333333
nr_class 2
total_sv 62
rho -0.0804527
SV
1 1:-1 2:-0.625535 3:-0.246048 
1 1:-1 2:-0.729103 3:-0.277424 
1 1:0.166667 2:-0.956386 3:-0.299265 
1 1:-0.5 2:-0.965184 3:0.082356 
1 1:0.333333 2:-0.933121 3:-0.214234 
-1 1:0.166667 2:-0.832138 3:-0.519142 
-0.8735860125263041 1:-1 2:-0.939254 3:-0.535098 
1 1:0.166667 2:-0.956936 3:0.105803 
0.07867387529413818 1:-1 2:-0.724138 3:-0.514521 
1 1:-1 2:-0.807677 3:-0.247118 
-1 1:-0.666667 2:0.053178 3:-1 
-0.5877639057896044 1:0.333333 2:-0.881376 3:-0.248237 
-1 1:-1 2:-0.937233 3:-0.171474 
1 1:-1 2:-0.729103 3:-0.277424 
1 1:-0.666667 2:-0.894918 3:-0.34003 
1 1:-0.666667 2:-0.848144 3:-0.420538 
1 1:0.666667 2:-0.761987 3:-0.064649 
0.05329040461640128 1:0.666667 2:-0.922927 3:0.07253 
-1 1:0.666667 2:-0.711404 3:-0.869631 
0.7984698781194323 1:1 2:-0.971129 3:0.196673 
-1 1:0.666667 2:-0.965421 3:-0.439704 
1 1:-0.333333 2:-0.928249 3:-0.055261 
1 1:-0.666667 2:-0.920273 3:-0.247556 
1 1:-1 2:-0.866507 3:0.776135 
0.2926569389690823 1:0.5 2:-0.767319 3:-0.635355 
0.05488129839196826 1:-0.666667 2:0.205108 3:0.004719 
0.4669680627193177 1:-1 2:-0.967825 3:1 
-1 1:0.166667 2:-0.091627 3:-0.27397 
-1 1:-0.166667 2:-0.85762 3:0.020771 
1 1:-0.166667 2:-0.871561 3:0.139806 
-1 1:-0.166667 2:-0.770401 3:-0.179452 
-1 1:-1 2:-0.826473 3:-0.402053 
1 1:-1 2:-0.803147 3:0.170356 
-1 1:-1 2:-0.900937 3:-0.201343 
1 1:-1 2:-0.30396 3:-0.000146 
1 1:-0.166667 2:-0.855848 3:0.330204 
-1 1:-1 2:-0.793693 3:-0.023642 
-1 1:-1 2:-0.834994 3:-0.108722 
-1 1:-0.666667 2:-0.896052 3:-0.106679 
-1 1:-1 2:-0.193826 3:0.347084 
0.6576466809558369 1:-1 2:-0.20107 3:-0.166707 
-1 1:-1 2:-0.93417 3:0.823466 
1 1:-1 2:-0.94202 3:-0.185241 
-1 1:-0.166667 2:-0.894677 3:-0.34256 
1 1:-0.833333 2:-0.764964 3:-0.255777 
-1 1:-0.166667 2:-0.704392 3:-0.039986 
1 1:0.166667 2:-0.359559 3:-0.412074 
-1 1:0.333333 2:-0.52775 3:-0.316729 
-1 1:-0.666667 2:-0.945255 3:0.042565 
-1 1:-1 2:-0.928728 3:-0.053996 
0.5974128609338233 1:0.333333 2:1 3:-0.172399 
1 1:0.666667 2:-0.848168 3:-0.170745 
-1 1:0.166667 2:-0.887492 3:-0.252031 
-1 1:-0.166667 2:-0.815739 3:0.011626 
1 1:-0.333333 2:-0.82818 3:-0.276889 
-1 1:-1 2:-0.295346 3:-0.452255 
-1 1:0.333333 2:-0.687797 3:0.493117 
1 1:-0.166667 2:-0.193455 3:-0.599601 
-0.5386500816840916 1:0.166667 2:-0.053296 3:-0.562242 
-1 1:-0.5 2:-0.833631 3:0.077638 
1 1:-0.166667 2:-0.509602 3:-0.253247 
-1 1:-0.5 2:-0.883112 3:-0.17989 
