svm_type nu_svr
kernel_type rbf
gamma 0.25
nr_class 2
total_sv 60
rho 0.125426
SV
1 1:-1 2:1 3:-0.723575 4:-0.246048 
1 1:-1 2:-1 3:-0.84854 4:-0.277424 
-0.5435898621675226 1:-1 2:1 3:-0.567191 4:-0.740478 
1 1:-1 2:1 3:-0.866467 4:0.082356 
-1 1:-1 2:1 3:-0.770809 4:-0.363283 
-1 1:-1 2:1 3:-0.707577 4:-0.519142 
-1 1:-1 2:1 3:-0.841967 4:-0.535098 
0.8894940093534891 1:-1 2:1 3:-0.678864 4:-0.514521 
1 1:-1 2:1 3:-0.772861 4:-0.247118 
-0.5001923724320688 1:-1 2:1 3:1 4:-1 
-1 1:-1 2:1 3:-0.816895 4:-0.248237 
-1 1:-1 2:1 3:-0.954734 4:-0.171474 
-1 1:-1 2:1 3:-0.922993 4:-0.373741 
1 1:-1 2:-1 3:-0.84854 4:-0.277424 
1 1:-1 2:1 3:-0.780339 4:-0.34003 
1 1:-1 2:1 3:-0.767471 4:-0.420538 
1 1:-1 2:1 3:-0.729993 4:-0.064649 
-0.09814676307605111 1:-1 2:-1 3:-0.629473 4:-0.552756 
-1 1:-1 2:1 3:-0.39852 4:-0.869631 
0.3563200263621606 1:-1 2:-1 3:-0.893907 4:0.196673 
-1 1:-1 2:-1 3:-0.953775 4:-0.439704 
-1 1:-1 2:-1 3:-0.798862 4:-0.161405 
1 1:-1 2:1 3:-0.759542 4:-0.247556 
-1 1:1 2:1 3:-0.499382 4:-0.27397 
1 1:1 2:1 3:-0.882199 4:0.139806 
-1 1:1 2:1 3:-0.752452 4:-0.179452 
1 1:1 2:1 3:-0.96409 4:0.005254 
1 1:1 2:1 3:-0.913952 4:0.170356 
-1 1:1 2:-1 3:-0.893648 4:-0.201343 
1 1:1 2:1 3:-0.860695 4:0.34003 
1 1:1 2:-1 3:-0.871849 4:0.301552 
1 1:1 2:-1 3:-0.596929 4:-0.000146 
1 1:1 2:1 3:-0.874837 4:0.330204 
-1 1:1 2:-1 3:-0.847255 4:-0.106679 
-1 1:1 2:1 3:-0.642731 4:0.347084 
-1 1:1 2:1 3:-0.41563 4:-0.574257 
1 1:1 2:1 3:-0.617232 4:-0.166707 
-1 1:1 2:1 3:-0.921264 4:0.823466 
1 1:1 2:-1 3:-0.948213 4:-0.185241 
-1 1:1 2:1 3:-0.883378 4:-0.34256 
1 1:1 2:1 3:-0.932148 4:-0.255777 
1 1:1 2:1 3:-0.606428 4:-0.412074 
-1 1:1 2:1 3:-0.670729 4:-0.316729 
-1 1:1 2:1 3:-0.964915 4:0.042565 
0.07523731056121831 1:1 2:1 3:-0.910797 4:-0.260009 
1 1:1 2:1 3:-0.826784 4:-0.32135 
-1 1:1 2:1 3:-0.916987 4:-0.053996 
0.678948653723132 1:1 2:1 3:0.773103 4:-0.172399 
1 1:1 2:1 3:-0.836817 4:-0.170745 
-1 1:1 2:1 3:-0.958179 4:-0.252031 
-1 1:1 2:1 3:-0.880197 4:0.011626 
1 1:1 2:1 3:-0.698566 4:-0.276889 
-0.858071002324357 1:1 2:-1 3:-0.587619 4:-0.452255 
-1 1:1 2:1 3:-0.851482 4:0.493117 
1 1:1 2:1 3:-0.507266 4:-0.599601 
-1 1:1 2:1 3:-0.522741 4:-0.562242 
-1 1:1 2:1 3:-0.90445 4:0.077638 
1 1:1 2:1 3:-0.730449 4:-0.253247 
-1 1:1 2:1 3:-0.955463 4:-0.17989 
1 1:1 2:1 3:-0.812321 4:0.14939 
