svm_type nu_svr
kernel_type rbf
gamma 0.25
nr_class 2
total_sv 60
rho 0.124192
SV
1 1:-1 2:-0.398258 3:-0.246048 4:0.183673 
-1 1:-1 2:-0.152811 3:-0.321107 4:0.020408 
1 1:-1 2:-0.431512 3:-0.277424 4:0.142857 
1 1:-1 2:-0.572447 3:-0.299265 4:-0.542857 
0.03958680161501139 1:-1 2:-0.230404 3:0.082356 4:0.795918 
-0.9991970606653648 1:-1 2:-0.353919 3:-0.17201 4:0.428571 
-1 1:-1 2:-0.434679 3:-0.519142 4:-0.102041 
1 1:-1 2:-0.605701 3:-0.514521 4:-0.22449 
1 1:-1 2:-0.30483 3:-0.247118 4:-0.061225 
-0.5805841333862898 1:-1 2:-1 3:-1 4:-0.885714 
-1 1:-1 2:-0.444181 3:-0.248237 4:0.061225 
-1 1:-1 2:-0.700713 3:-0.171474 4:-0.265306 
1 1:-1 2:-0.431512 3:-0.277424 4:0.142857 
1 1:-1 2:-0.564529 3:-0.34003 4:0.265306 
0.9846226164988198 1:-1 2:-0.529691 3:-0.420538 4:0.020408 
1 1:-1 2:-0.528108 3:0.196673 4:-0.142857 
-1 1:-1 2:-0.727633 3:-0.439704 4:-1 
-1 1:-1 2:-0.311164 3:-0.161405 4:-0.142857 
-1 1:-1 2:-0.273159 3:-0.387313 4:-0.22449 
-1 1:-1 2:-0.323832 3:-0.368682 4:-0.020408 
1 1:-1 2:0.353919 3:0.776135 4:-0.314286 
-1 1:1 2:-0.235154 3:-0.27397 4:-0.387755 
-1 1:1 2:0.14331 3:0.020771 4:-0.142857 
1 1:1 2:-0.022961 3:0.139806 4:0.183673 
-1 1:1 2:-0.087886 3:-0.179452 4:-0.714286 
0.3103039525529883 1:1 2:-0.371338 3:-0.454298 4:-0.755102 
1 1:1 2:-0.2019 3:0.170356 4:0.020408 
-1 1:1 2:-0.311164 3:-0.201343 4:-0.387755 
1 1:1 2:0.125891 3:0.34003 4:0.102041 
1 1:1 2:0.441013 3:0.301552 4:-0.061225 
1 1:1 2:-0.059382 3:-0.000146 4:0.102041 
1 1:1 2:-0.043547 3:0.330204 4:-0.061225 
0.2153561377802989 1:1 2:1 3:0.362018 4:0.142857 
-1 1:1 2:-0.029295 3:-0.023642 4:0.265306 
-1 1:1 2:-0.098971 3:-0.106679 4:-0.306122 
-1 1:1 2:0.350752 3:0.347084 4:-0.55102 
1 1:1 2:-0.141726 3:-0.166707 4:-0.632653 
-1 1:1 2:0.830562 3:0.823466 4:0.102041 
1 1:1 2:-0.545527 3:-0.185241 4:0.102041 
1 1:1 2:-0.092637 3:-0.38133 4:-0.591837 
-1 1:1 2:-0.555028 3:-0.34256 4:-0.265306 
1 1:1 2:-0.515439 3:-0.255777 4:-0.714286 
-0.4202188059483455 1:1 2:-0.295329 3:-0.039986 4:-0.22449 
1 1:1 2:-0.339667 3:-0.412074 4:-0.387755 
-1 1:1 2:-0.195566 3:-0.316729 4:-0.55102 
-1 1:1 2:-0.499604 3:0.042565 4:0.020408 
0.4548848302544234 1:1 2:-0.157561 3:0.153184 4:-0.387755 
1 1:1 2:-0.35867 3:-0.32135 4:-0.22449 
-1 1:1 2:-0.431512 3:-0.053996 4:-0.387755 
0.9952456612984582 1:1 2:0.14331 3:-0.172399 4:0.265306 
1 1:1 2:-0.239905 3:-0.170745 4:0.020408 
-1 1:1 2:-0.577197 3:-0.587294 4:-0.093878 
-1 1:1 2:-0.312747 3:0.011626 4:0.020408 
1 1:1 2:-0.049881 3:-0.276889 4:-0.142857 
-1 1:1 2:-0.059382 3:0.493117 4:0.591837 
1 1:1 2:-0.5962 3:-0.599601 4:-0.673469 
-1 1:1 2:-0.702296 3:-0.562242 4:-0.061225 
-1 1:1 2:0.002375 3:0.077638 4:-0.387755 
1 1:1 2:-0.319082 3:-0.253247 4:-0.387755 
-1 1:1 2:-0.502771 3:-0.17989 4:-0.265306 
