svm_type nu_svr
kernel_type rbf
gamma 0.25
nr_class 2
total_sv 61
rho 0.0540287
SV
1 1:-1 2:1 3:0.285467 4:-0.209721 
1 1:-1 2:-1 3:0.183391 4:-0.500142 
-1 1:-1 2:1 3:-0.126298 4:-0.104703 
1 1:-1 2:1 3:0.456747 4:0.034352 
-1 1:-1 2:1 3:0.190311 4:-0.228314 
0.2243327761590566 1:-1 2:1 3:0.010381 4:-0.219523 
-1 1:-1 2:1 3:0.095156 4:-0.318813 
-1 1:-1 2:1 3:0.435986 4:-0.285251 
1 1:-1 2:1 3:0.316609 4:-0.186169 
1 1:-1 2:1 3:-0.299308 4:-0.368041 
1 1:-1 2:1 3:0.525952 4:-0.224879 
-1 1:-1 2:1 3:-1 4:0.105986 
-1 1:-1 2:1 3:0.50173 4:-0.201087 
-0.7120641874011729 1:-1 2:1 3:0.709343 4:-0.708908 
1 1:-1 2:-1 3:0.183391 4:-0.500142 
1 1:-1 2:1 3:-0.152249 4:0.147663 
1 1:-1 2:1 3:0.143599 4:-0.18513 
-0.7851002516956878 1:-1 2:-1 3:-0.186851 4:-0.453851 
-1 1:-1 2:1 3:-0.404844 4:-0.358906 
1 1:-1 2:-1 3:0.088235 4:-0.004284 
-1 1:-1 2:-1 3:0.553633 4:-0.902952 
-1 1:-1 2:-1 3:0.096886 4:-0.090263 
-1 1:-1 2:1 3:0.197232 4:0.151769 
-0.06605167400379701 1:-1 2:-1 3:0.709343 4:0.08501 
0.2826023670685737 1:-1 2:1 3:0.816609 4:0.460325 
1 1:-1 2:1 3:0.401384 4:-0.199182 
-1 1:1 2:1 3:-0.034602 4:-0.414106 
1 1:1 2:1 3:-0.202422 4:-0.511139 
-1 1:1 2:1 3:0.141869 4:-0.301141 
1 1:1 2:1 3:0.631488 4:-0.728532 
1 1:1 2:1 3:-0.029412 4:-0.7544 
-1 1:1 2:-1 3:0.254325 4:-0.565221 
1 1:1 2:1 3:0.480969 4:-0.455716 
1 1:1 2:-1 3:0.638408 4:-0.354358 
0.4930648567723699 1:1 2:-1 3:0.641869 4:0.04585 
1 1:1 2:1 3:0.408304 4:-0.473108 
1 1:1 2:1 3:-0.463668 4:-0.274831 
-0.8278044740085921 1:1 2:1 3:0.288927 4:-0.17816 
-1 1:1 2:-1 3:0.256055 4:-0.462484 
-1 1:1 2:1 3:-0.070934 4:-0.452333 
1 1:1 2:1 3:0.655709 4:-0.408574 
1 1:1 2:-1 3:0.32699 4:-0.83002 
-1 1:1 2:1 3:0.359862 4:-0.571569 
1 1:1 2:1 3:0.576125 4:-1 
-1 1:1 2:1 3:0.403114 4:-0.379345 
-0.2753892426167486 1:1 2:1 3:0.776817 4:-0.777654 
-1 1:1 2:1 3:0.711073 4:-0.656764 
1 1:1 2:1 3:0.107266 4:-0.382943 
1 1:1 2:1 3:0.273356 4:-0.503926 
-1 1:1 2:1 3:0.131488 4:-0.913952 
-1 1:1 2:1 3:-0.024222 4:-0.317626 
-1 1:1 2:1 3:0.356401 4:-0.681675 
1 1:1 2:1 3:0.17128 4:-0.273992 
-0.3335901702740018 1:1 2:-1 3:-0.100346 4:-0.531536 
-1 1:1 2:1 3:0.586505 4:-0.331441 
1 1:1 2:1 3:0.019031 4:-0.339848 
-1 1:1 2:1 3:-0.102076 4:-0.534191 
-1 1:1 2:1 3:0.33564 4:-0.46764 
1 1:1 2:1 3:0.083045 4:-0.506916 
-1 1:1 2:1 3:0.811419 4:-0.793579 
1 1:1 2:1 3:0.373702 4:-0.40729 
