svm_type nu_svr
kernel_type rbf
gamma 0.25
nr_class 2
total_sv 60
rho 0.247471
SV
1 1:-1 2:0.285467 3:-0.209721 4:-0.246048 
1 1:-1 2:0.183391 3:-0.500142 4:-0.277424 
1 1:-1 2:0.456747 3:0.034352 4:0.082356 
-1 1:-1 2:0.190311 3:-0.228314 4:-0.363283 
0.06842309846638495 1:-1 2:0.010381 3:-0.219523 4:-0.214234 
-1 1:-1 2:0.095156 3:-0.318813 4:-0.519142 
-1 1:-1 2:0.435986 3:-0.285251 4:-0.535098 
0.5306705406894341 1:-1 2:0.316609 3:-0.186169 4:0.105803 
1 1:-1 2:0.525952 3:-0.224879 4:-0.247118 
-1 1:-1 2:0.50173 3:-0.201087 4:-0.248237 
1 1:-1 2:0.183391 3:-0.500142 4:-0.277424 
1 1:-1 2:0.583045 3:0.146305 4:-0.34003 
1 1:-1 2:0.416955 3:-0.146762 4:-0.420538 
1 1:-1 2:-0.152249 3:0.147663 4:-0.064649 
-1 1:-1 2:-0.404844 3:-0.358906 4:-0.869631 
-1 1:-1 2:0.553633 3:-0.902952 4:-0.439704 
-1 1:-1 2:0.096886 3:-0.090263 4:-0.161405 
-1 1:-1 2:0.197232 3:0.151769 4:-0.387313 
-0.3827497389536816 1:-1 2:0.709343 3:0.08501 4:-0.196916 
-1 1:1 2:-0.034602 3:-0.414106 4:-0.27397 
-1 1:1 2:0.581315 3:-0.356546 4:0.020771 
1 1:1 2:-0.202422 3:-0.511139 4:0.139806 
-1 1:1 2:0.141869 3:-0.301141 4:-0.179452 
1 1:1 2:0.631488 3:-0.728532 4:0.005254 
1 1:1 2:-0.029412 3:-0.7544 4:0.170356 
-1 1:1 2:0.254325 3:-0.565221 4:-0.201343 
1 1:1 2:0.480969 3:-0.455716 4:0.34003 
1 1:1 2:0.638408 3:-0.354358 4:0.301552 
1 1:1 2:0.641869 3:0.04585 4:-0.000146 
1 1:1 2:0.408304 3:-0.473108 4:0.330204 
0.2731254113477586 1:1 2:-0.463668 3:-0.274831 4:0.362018 
-1 1:1 2:0.288927 3:-0.17816 4:-0.023642 
-1 1:1 2:0.256055 3:-0.462484 4:-0.106679 
-1 1:1 2:0.102076 3:-0.455762 4:0.347084 
-0.6172502610463183 1:1 2:-0.070934 3:-0.452333 4:-0.574257 
1 1:1 2:0.655709 3:-0.408574 4:-0.166707 
-1 1:1 2:0.543253 3:-0.388956 4:0.823466 
1 1:1 2:0.32699 3:-0.83002 4:-0.185241 
0.2427784492439731 1:1 2:0.520761 3:-0.256881 4:-0.38133 
-1 1:1 2:0.359862 3:-0.571569 4:-0.34256 
1 1:1 2:0.576125 3:-1 4:-0.255777 
1 1:1 2:0.096886 3:-0.436269 4:-0.412074 
-1 1:1 2:0.403114 3:-0.379345 4:-0.316729 
-1 1:1 2:0.776817 3:-0.777654 4:0.042565 
1 1:1 2:0.33218 3:-0.615633 4:-0.260009 
0.8850025002524495 1:1 2:0.214533 3:-0.470865 4:-0.32135 
-1 1:1 2:0.711073 3:-0.656764 4:-0.053996 
1 1:1 2:0.107266 3:-0.382943 4:-0.172399 
1 1:1 2:0.273356 3:-0.503926 4:-0.170745 
-1 1:1 2:0.131488 3:-0.913952 4:-0.252031 
-1 1:1 2:-0.024222 3:-0.317626 4:-0.587294 
-1 1:1 2:0.356401 3:-0.681675 4:0.011626 
1 1:1 2:0.17128 3:-0.273992 4:-0.276889 
-1 1:1 2:0.586505 3:-0.331441 4:0.493117 
1 1:1 2:0.019031 3:-0.339848 4:-0.599601 
-1 1:1 2:-0.102076 3:-0.534191 4:-0.562242 
-1 1:1 2:0.33564 3:-0.46764 4:0.077638 
1 1:1 2:0.083045 3:-0.506916 4:-0.253247 
-1 1:1 2:0.811419 3:-0.793579 4:-0.17989 
1 1:1 2:0.373702 3:-0.40729 4:0.14939 
