svm_type nu_svr
kernel_type rbf
gamma 0.25
nr_class 2
total_sv 59
rho 0.129896
SV
1 1:-0.723575 2:-0.209721 3:-0.398258 4:-0.246048 
1 1:-0.84854 2:-0.500142 3:-0.431512 4:-0.277424 
1 1:-0.852123 2:-0.150229 3:-0.572447 4:-0.299265 
1 1:-0.866467 2:0.034352 3:-0.230404 4:0.082356 
-1 1:-0.770809 2:-0.228314 3:-0.578781 4:-0.363283 
1 1:-0.850492 2:-0.219523 3:-0.391924 4:-0.214234 
-1 1:-0.707577 2:-0.318813 3:-0.434679 4:-0.519142 
1 1:-0.888515 2:-0.186169 3:-0.2019 4:0.105803 
0.05936751510374394 1:-0.678864 2:0.081089 3:-0.605701 4:-0.514521 
1 1:-0.772861 2:-0.224879 3:-0.30483 4:-0.247118 
-0.6889326499117189 1:1 2:0.105986 3:-1 4:-1 
-1 1:-0.816895 2:-0.201087 3:-0.444181 4:-0.248237 
1 1:-0.84854 2:-0.500142 3:-0.431512 4:-0.277424 
1 1:-0.780339 2:0.146305 3:-0.564529 4:-0.34003 
1 1:-0.767471 2:-0.146762 3:-0.529691 4:-0.420538 
1 1:-0.729993 2:0.147663 3:-0.124307 4:-0.064649 
-0.8446786000028386 1:-0.39852 2:-0.358906 3:-0.863816 4:-0.869631 
-1 1:-0.953775 2:-0.902952 3:-0.727633 4:-0.439704 
-1 1:-0.798862 2:-0.090263 3:-0.311164 4:-0.161405 
1 1:-0.886076 2:-0.256483 3:-0.403009 4:-0.055261 
-1 1:-0.61764 2:0.151769 3:-0.273159 4:-0.387313 
1 1:-0.903218 2:-0.199182 3:0.646873 4:1 
-1 1:-0.499382 2:-0.414106 3:-0.235154 4:-0.27397 
-1 1:-0.830395 2:-0.356546 3:0.14331 4:0.020771 
1 1:-0.882199 2:-0.511139 3:-0.022961 4:0.139806 
-1 1:-0.752452 2:-0.301141 3:-0.087886 4:-0.179452 
1 1:-0.96409 2:-0.728532 3:-0.357086 4:0.005254 
-0.4663887500854425 1:-0.736975 2:-0.222825 3:-0.018211 4:-0.127061 
1 1:-0.913952 2:-0.7544 3:-0.2019 4:0.170356 
-1 1:-0.893648 2:-0.565221 3:-0.311164 4:-0.201343 
0.6962297515334367 1:-0.860695 2:-0.455716 3:0.125891 4:0.34003 
1 1:-0.871849 2:-0.354358 3:0.441013 4:0.301552 
1 1:-0.874837 2:-0.473108 3:-0.043547 4:0.330204 
-1 1:-0.791973 2:-0.17816 3:-0.029295 4:-0.023642 
-1 1:-0.821023 2:-0.458311 3:0.045131 4:-0.108722 
-1 1:-0.847255 2:-0.462484 3:-0.098971 4:-0.106679 
-1 1:-0.642731 2:-0.455762 3:0.350752 4:0.347084 
1 1:-0.617232 2:-0.408574 3:-0.141726 4:-0.166707 
-1 1:-0.921264 2:-0.388956 3:0.830562 4:0.823466 
1 1:-0.948213 2:-0.83002 3:-0.545527 4:-0.185241 
-1 1:-0.883378 2:-0.571569 3:-0.555028 4:-0.34256 
1 1:-0.932148 2:-1 3:-0.515439 4:-0.255777 
-1 1:-0.83618 2:-0.417013 3:-0.295329 4:-0.039986 
1 1:-0.606428 2:-0.436269 3:-0.339667 4:-0.412074 
-1 1:-0.670729 2:-0.379345 3:-0.195566 4:-0.316729 
-1 1:-0.964915 2:-0.777654 3:-0.499604 4:0.042565 
0.2444027333628193 1:-0.910797 2:-0.615633 3:-0.509105 4:-0.260009 
-1 1:-0.916987 2:-0.656764 3:-0.431512 4:-0.053996 
1 1:0.773103 2:-0.382943 3:0.14331 4:-0.172399 
1 1:-0.836817 2:-0.503926 3:-0.239905 4:-0.170745 
-1 1:-0.643086 2:-0.317626 3:-0.577197 4:-0.587294 
-1 1:-0.880197 2:-0.681675 3:-0.312747 4:0.011626 
1 1:-0.698566 2:-0.273992 3:-0.049881 4:-0.276889 
-1 1:-0.851482 2:-0.331441 3:-0.059382 4:0.493117 
1 1:-0.507266 2:-0.339848 3:-0.5962 4:-0.599601 
-1 1:-0.522741 2:-0.534191 3:-0.702296 4:-0.562242 
-1 1:-0.90445 2:-0.46764 3:0.002375 4:0.077638 
1 1:-0.730449 2:-0.506916 3:-0.319082 4:-0.253247 
-1 1:-0.955463 2:-0.793579 3:-0.502771 4:-0.17989 
