svm_type nu_svr
kernel_type rbf
gamma 0.25
nr_class 2
total_sv 62
rho 0.110039
SV
1 1:-0.723575 2:-0.685075 3:-0.398258 4:0.183673 
-1 1:-0.667368 2:-0.454166 3:-0.152811 4:0.020408 
1 1:-0.84854 2:-0.414079 3:-0.431512 4:0.142857 
1 1:-0.852123 2:-0.440985 3:-0.572447 4:-0.542857 
1 1:-0.866467 2:-0.470295 3:-0.230404 4:0.795918 
-1 1:-0.878479 2:-0.225448 3:-0.353919 4:0.428571 
-1 1:-0.707577 2:-0.737549 3:-0.434679 4:-0.102041 
0.04307266528298882 1:-0.888515 2:-0.639346 3:-0.2019 4:0.877551 
1 1:-0.944027 2:-0.674198 3:-0.125891 4:-0.346939 
-0.6739654261310226 1:-0.845556 2:0.043854 3:-0.110055 4:0.061225 
1 1:-0.772861 2:-0.442876 3:-0.30483 4:-0.061225 
-0.9827124929794443 1:1 2:-0.573139 3:-1 4:-0.885714 
-1 1:-0.816895 2:-0.729312 3:-0.444181 4:0.061225 
1 1:0.144317 2:-0.791651 3:-0.593032 4:-0.795918 
1 1:-0.84854 2:-0.414079 3:-0.431512 4:0.142857 
0.8705743270580596 1:-0.780339 2:-0.122828 3:-0.564529 4:0.265306 
-1 1:-0.39852 2:-0.686475 3:-0.863816 4:-1 
1 1:-0.893907 2:-0.20182 3:-0.528108 4:-0.142857 
-0.1989435204239714 1:-0.953775 2:-0.991567 3:-0.727633 4:-1 
-1 1:-0.798862 2:-0.405977 3:-0.311164 4:-0.142857 
-1 1:-0.61764 2:-0.627403 3:-0.273159 4:-0.22449 
0.07171158129384347 1:-0.791922 2:1 3:0.353919 4:-0.314286 
1 1:-0.268055 2:-0.514096 3:0.053048 4:-0.338776 
1 1:-0.846524 2:-0.352926 3:0.106888 4:-0.020408 
1 1:-0.903218 2:-0.222144 3:0.646873 4:-0.322449 
-0.1443785604655617 1:-0.811905 2:-0.797906 3:-0.140143 4:0.183673 
-1 1:-0.499382 2:-0.801512 3:-0.235154 4:-0.387755 
-1 1:-0.830395 2:-0.588211 3:0.14331 4:-0.142857 
1 1:-0.882199 2:-0.6256 3:-0.022961 4:0.183673 
-1 1:-0.752452 2:-0.638231 3:-0.087886 4:-0.714286 
1 1:-0.913952 2:-0.693321 3:-0.2019 4:0.020408 
-1 1:-0.893648 2:-0.826757 3:-0.311164 4:-0.387755 
1 1:-0.860695 2:-0.747894 3:0.125891 4:0.102041 
1 1:-0.871849 2:-0.903694 3:0.441013 4:-0.061225 
1 1:-0.596929 2:-0.584429 3:-0.059382 4:0.102041 
1 1:-0.874837 2:-0.802744 3:-0.043547 4:-0.061225 
-1 1:-0.791973 2:-0.686792 3:-0.029295 4:0.265306 
-1 1:-0.821023 2:-0.810245 3:0.045131 4:-0.22449 
-1 1:-0.847255 2:-0.771454 3:-0.098971 4:-0.306122 
-1 1:-0.642731 2:-0.659505 3:0.350752 4:-0.55102 
1 1:-0.617232 2:-0.835969 3:-0.141726 4:-0.632653 
-1 1:-0.921264 2:-0.73218 3:0.830562 4:0.102041 
1 1:-0.948213 2:-0.892958 3:-0.545527 4:0.102041 
0.4279268869927768 1:-0.702955 2:-0.726962 3:-0.092637 4:-0.591837 
-1 1:-0.883378 2:-0.798953 3:-0.555028 4:-0.265306 
1 1:-0.932148 2:-0.964458 3:-0.515439 4:-0.714286 
-1 1:-0.83618 2:-0.739317 3:-0.295329 4:-0.22449 
1 1:-0.606428 2:-0.852637 3:-0.339667 4:-0.387755 
-1 1:-0.670729 2:-0.727626 3:-0.195566 4:-0.55102 
-1 1:-0.964915 2:-0.929719 3:-0.499604 4:0.020408 
0.3292857142571372 1:-0.906396 2:-0.837528 3:-0.157561 4:-0.387755 
0.2574288251151942 1:0.773103 2:-0.767455 3:0.14331 4:0.265306 
1 1:-0.836817 2:-0.833465 3:-0.239905 4:0.020408 
-1 1:-0.643086 2:-0.788365 3:-0.577197 4:-0.093878 
-1 1:-0.880197 2:-0.891488 3:-0.312747 4:0.020408 
1 1:-0.698566 2:-0.839894 3:-0.049881 4:-0.142857 
-1 1:-0.851482 2:-0.645361 3:-0.059382 4:0.591837 
1 1:-0.507266 2:-0.659248 3:-0.5962 4:-0.673469 
-1 1:-0.522741 2:-0.674094 3:-0.702296 4:-0.061225 
-1 1:-0.90445 2:-0.775561 3:0.002375 4:-0.387755 
1 1:-0.730449 2:-0.812061 3:-0.319082 4:-0.387755 
-1 1:-0.955463 2:-0.941977 3:-0.502771 4:-0.265306 
