svm_type nu_svr
kernel_type rbf
gamma 0.25
nr_class 2
total_sv 61
rho 0.171039
SV
1 1:-0.625535 2:-0.685075 3:-0.398258 4:-0.246048 
-0.01663376792256275 1:-0.661029 2:-0.454166 3:-0.152811 4:-0.321107 
1 1:-0.729103 2:-0.414079 3:-0.431512 4:-0.277424 
1 1:-0.956386 2:-0.440985 3:-0.572447 4:-0.299265 
-0.266884164281142 1:-0.716794 2:-0.488633 3:-0.771971 4:-0.740478 
1 1:-0.965184 2:-0.470295 3:-0.230404 4:0.082356 
-1 1:-0.832138 2:-0.737549 3:-0.434679 4:-0.519142 
1 1:-0.956936 2:-0.639346 3:-0.2019 4:0.105803 
0.1119386328170564 1:-0.724138 2:-0.352737 3:-0.605701 4:-0.514521 
-1 1:-0.868644 2:0.043854 3:-0.110055 4:-0.056137 
1 1:-0.807677 2:-0.442876 3:-0.30483 4:-0.247118 
-0.7164820677962954 1:0.053178 2:-0.573139 3:-1 4:-1 
-1 1:-0.881376 2:-0.729312 3:-0.444181 4:-0.248237 
1 1:-0.729103 2:-0.414079 3:-0.431512 4:-0.277424 
1 1:-0.894918 2:-0.122828 3:-0.564529 4:-0.34003 
1 1:-0.761987 2:-0.348415 3:-0.124307 4:-0.064649 
-1 1:-0.711404 2:-0.686475 3:-0.863816 4:-0.869631 
-1 1:-0.965421 2:-0.991567 3:-0.727633 4:-0.439704 
-1 1:-0.876791 2:-0.405977 3:-0.311164 4:-0.161405 
1 1:-0.920273 2:-0.650517 3:-0.444181 4:-0.247556 
0.05362259354486276 1:-0.866507 2:1 3:0.353919 4:0.776135 
1 1:-0.767319 2:-0.725396 3:-0.714964 4:-0.635355 
0.7031829233973239 1:-0.967825 2:-0.222144 3:0.646873 4:1 
-1 1:-0.091627 2:-0.801512 3:-0.235154 4:-0.27397 
-1 1:-0.85762 2:-0.588211 3:0.14331 4:0.020771 
1 1:-0.871561 2:-0.6256 3:-0.022961 4:0.139806 
-1 1:-0.770401 2:-0.638231 3:-0.087886 4:-0.179452 
1 1:-0.983226 2:-0.86243 3:-0.357086 4:0.005254 
1 1:-0.803147 2:-0.693321 3:-0.2019 4:0.170356 
-1 1:-0.900937 2:-0.826757 3:-0.311164 4:-0.201343 
1 1:-0.80325 2:-0.747894 3:0.125891 4:0.34003 
1 1:-0.866667 2:-0.903694 3:0.441013 4:0.301552 
1 1:-0.30396 2:-0.584429 3:-0.059382 4:-0.000146 
1 1:-0.855848 2:-0.802744 3:-0.043547 4:0.330204 
-1 1:-0.793693 2:-0.686792 3:-0.029295 4:-0.023642 
-1 1:-0.834994 2:-0.810245 3:0.045131 4:-0.108722 
-1 1:-0.896052 2:-0.771454 3:-0.098971 4:-0.106679 
-1 1:-0.193826 2:-0.659505 3:0.350752 4:0.347084 
-1 1:-0.030539 2:-0.689745 3:-0.494854 4:-0.574257 
1 1:-0.20107 2:-0.835969 3:-0.141726 4:-0.166707 
-1 1:-0.93417 2:-0.73218 3:0.830562 4:0.823466 
1 1:-0.94202 2:-0.892958 3:-0.545527 4:-0.185241 
-1 1:-0.894677 2:-0.798953 3:-0.555028 4:-0.34256 
1 1:-0.764964 2:-0.964458 3:-0.515439 4:-0.255777 
-1 1:-0.704392 2:-0.739317 3:-0.295329 4:-0.039986 
1 1:-0.359559 2:-0.852637 3:-0.339667 4:-0.412074 
-1 1:-0.52775 2:-0.727626 3:-0.195566 4:-0.316729 
-1 1:-0.945255 2:-0.929719 3:-0.499604 4:0.042565 
0.2865279099243128 1:-0.91916 2:-0.776934 3:-0.509105 4:-0.260009 
-1 1:-0.928728 2:-1 3:-0.431512 4:-0.053996 
0.8447279403164446 1:1 2:-0.767455 3:0.14331 4:-0.172399 
1 1:-0.848168 2:-0.833465 3:-0.239905 4:-0.170745 
-1 1:-0.887492 2:-0.847999 3:-0.562945 4:-0.252031 
-1 1:-0.815739 2:-0.891488 3:-0.312747 4:0.011626 
1 1:-0.82818 2:-0.839894 3:-0.049881 4:-0.276889 
-1 1:-0.687797 2:-0.645361 3:-0.059382 4:0.493117 
1 1:-0.193455 2:-0.659248 3:-0.5962 4:-0.599601 
-1 1:-0.053296 2:-0.674094 3:-0.702296 4:-0.562242 
-1 1:-0.833631 2:-0.775561 3:0.002375 4:0.077638 
1 1:-0.509602 2:-0.812061 3:-0.319082 4:-0.253247 
-1 1:-0.883112 2:-0.941977 3:-0.502771 4:-0.17989 
