svm_type nu_svr
kernel_type rbf
gamma 0.25
nr_class 2
total_sv 60
rho -0.0442045
SV
1 1:1 2:-0.625535 3:-0.209721 4:-0.398258 
1 1:-1 2:-0.729103 3:-0.500142 4:-0.431512 
0.9831386778295165 1:1 2:-0.956386 3:-0.150229 4:-0.572447 
-1 1:1 2:-0.716794 3:-0.104703 4:-0.771971 
1 1:1 2:-0.965184 3:0.034352 4:-0.230404 
-1 1:1 2:-0.817005 3:-0.228314 4:-0.578781 
-1 1:1 2:-0.832138 3:-0.318813 4:-0.434679 
1 1:1 2:-0.956936 3:-0.186169 4:-0.2019 
1 1:1 2:-0.807677 3:-0.224879 4:-0.30483 
-1 1:1 2:0.053178 3:0.105986 4:-1 
-1 1:1 2:-0.881376 3:-0.201087 4:-0.444181 
1 1:-1 2:-0.729103 3:-0.500142 4:-0.431512 
1 1:1 2:-0.894918 3:0.146305 4:-0.564529 
1 1:1 2:-0.848144 3:-0.146762 4:-0.529691 
1 1:1 2:-0.761987 3:0.147663 4:-0.124307 
1 1:1 2:-0.922927 3:-0.18513 4:-0.315914 
-1 1:1 2:-0.711404 3:-0.358906 4:-0.863816 
1 1:-1 2:-0.971129 3:-0.004284 4:-0.528108 
-1 1:-1 2:-0.965421 3:-0.902952 4:-0.727633 
-0.5831399871568145 1:-1 2:-0.876791 3:-0.090263 4:-0.311164 
0.1183158134233379 1:-1 2:-0.928249 3:-0.256483 4:-0.403009 
-1 1:1 2:-0.681721 3:0.151769 4:-0.273159 
1 1:1 2:-0.906343 3:-0.080001 4:0.106888 
0.6874625762350559 1:1 2:-0.967825 3:-0.199182 4:0.646873 
-1 1:1 2:-0.091627 3:-0.414106 4:-0.235154 
-1 1:1 2:-0.85762 3:-0.356546 4:0.14331 
1 1:1 2:-0.871561 3:-0.511139 4:-0.022961 
-1 1:1 2:-0.770401 3:-0.301141 4:-0.087886 
1 1:1 2:-0.983226 3:-0.728532 4:-0.357086 
1 1:1 2:-0.803147 3:-0.7544 4:-0.2019 
-1 1:-1 2:-0.900937 3:-0.565221 4:-0.311164 
1 1:1 2:-0.80325 3:-0.455716 4:0.125891 
0.4504144862473038 1:-1 2:-0.866667 3:-0.354358 4:0.441013 
0.1492065437326072 1:-1 2:-0.30396 3:0.04585 4:-0.059382 
1 1:1 2:-0.855848 3:-0.473108 4:-0.043547 
-1 1:1 2:-0.793693 3:-0.17816 4:-0.029295 
-1 1:1 2:-0.834994 3:-0.458311 4:0.045131 
-1 1:-1 2:-0.896052 3:-0.462484 4:-0.098971 
-1 1:1 2:-0.193826 3:-0.455762 4:0.350752 
1 1:1 2:-0.20107 3:-0.408574 4:-0.141726 
-1 1:1 2:-0.93417 3:-0.388956 4:0.830562 
1 1:-1 2:-0.94202 3:-0.83002 4:-0.545527 
-1 1:1 2:-0.894677 3:-0.571569 4:-0.555028 
1 1:1 2:-0.764964 3:-1 4:-0.515439 
-1 1:1 2:-0.704392 3:-0.417013 4:-0.295329 
1 1:1 2:-0.359559 3:-0.436269 4:-0.339667 
-1 1:1 2:-0.52775 3:-0.379345 4:-0.195566 
-0.4168600128431855 1:1 2:-0.945255 3:-0.777654 4:-0.499604 
-1 1:1 2:-0.928728 3:-0.656764 4:-0.431512 
0.611461902532179 1:1 2:1 3:-0.382943 4:0.14331 
1 1:1 2:-0.848168 3:-0.503926 4:-0.239905 
-1 1:1 2:-0.759482 3:-0.317626 4:-0.577197 
-1 1:1 2:-0.815739 3:-0.681675 4:-0.312747 
1 1:1 2:-0.82818 3:-0.273992 4:-0.049881 
-1 1:-1 2:-0.295346 3:-0.531536 4:-0.379256 
-1 1:1 2:-0.687797 3:-0.331441 4:-0.059382 
1 1:1 2:-0.193455 3:-0.339848 4:-0.5962 
-1 1:1 2:-0.833631 3:-0.46764 4:0.002375 
1 1:1 2:-0.509602 3:-0.506916 4:-0.319082 
-1 1:1 2:-0.883112 3:-0.793579 4:-0.502771 
