svm_type nu_svr
kernel_type rbf
gamma 0.25
nr_class 2
total_sv 59
rho -0.191559
SV
1 1:-1 2:-0.723575 3:0.285467 4:-0.685075 
1 1:-1 2:-0.84854 3:0.183391 4:-0.414079 
-1 1:0.166667 2:-0.567191 3:-0.126298 4:-0.488633 
1 1:-0.5 2:-0.866467 3:0.456747 4:-0.470295 
-1 1:0.166667 2:-0.707577 3:0.095156 4:-0.737549 
-1 1:-1 2:-0.841967 3:0.435986 4:-0.563308 
1 1:0.166667 2:-0.888515 3:0.316609 4:-0.639346 
1 1:-1 2:-0.772861 3:0.525952 4:-0.442876 
-1 1:-0.666667 2:1 3:-1 4:-0.573139 
1 1:-0.166667 2:-0.909095 3:0.269896 4:-0.627577 
-0.4990779348661841 1:0.333333 2:-0.816895 3:0.50173 4:-0.729312 
-0.9900117240428398 1:-1 2:-0.954734 3:0.344291 4:-0.702391 
1 1:-1 2:-0.84854 3:0.183391 4:-0.414079 
1 1:0.666667 2:-0.729993 3:-0.152249 4:-0.348415 
-0.5746063430112621 1:-1 2:-0.629473 3:-0.186851 4:-0.5121 
-1 1:0.666667 2:-0.39852 3:-0.404844 4:-0.686475 
1 1:1 2:-0.893907 3:0.088235 4:-0.20182 
-1 1:0.666667 2:-0.953775 3:0.553633 4:-0.991567 
1 1:-0.666667 2:-0.759542 3:0.351211 4:-0.650517 
1 1:-0.166667 2:-0.895037 3:0.790657 4:-0.526912 
0.5571980069559226 1:1 2:-0.846524 3:0.813149 4:-0.352926 
-1 1:0.166667 2:-0.499382 3:-0.034602 4:-0.801512 
-1 1:-0.166667 2:-0.830395 3:0.581315 4:-0.588211 
1 1:-0.166667 2:-0.882199 3:-0.202422 4:-0.6256 
-1 1:-0.166667 2:-0.752452 3:0.141869 4:-0.638231 
1 1:-1 2:-0.913952 3:-0.029412 4:-0.693321 
-1 1:-1 2:-0.893648 3:0.254325 4:-0.826757 
1 1:-1 2:-0.860695 3:0.480969 4:-0.747894 
1 1:0.166667 2:-0.871849 3:0.638408 4:-0.903694 
0.9507489321118454 1:-0.166667 2:-0.698702 3:0.128028 4:-0.885588 
1 1:-0.166667 2:-0.874837 3:0.408304 4:-0.802744 
0.6240703649310497 1:-1 2:0.865713 3:-0.463668 4:-0.218426 
-1 1:-1 2:-0.791973 3:0.288927 4:-0.686792 
-1 1:-0.666667 2:-0.847255 3:0.256055 4:-0.771454 
-1 1:-1 2:-0.642731 3:0.102076 4:-0.659505 
-1 1:-0.166667 2:-0.41563 3:-0.070934 4:-0.689745 
0.8679826960011823 1:-1 2:-0.617232 3:0.655709 4:-0.835969 
-1 1:-1 2:-0.921264 3:0.543253 4:-0.73218 
1 1:-1 2:-0.948213 3:0.32699 4:-0.892958 
-1 1:-0.166667 2:-0.883378 3:0.359862 4:-0.798953 
1 1:-0.833333 2:-0.932148 3:0.576125 4:-0.964458 
1 1:0.166667 2:-0.606428 3:0.096886 4:-0.852637 
-1 1:0.333333 2:-0.670729 3:0.403114 4:-0.727626 
-1 1:-0.666667 2:-0.964915 3:0.776817 4:-0.929719 
-1 1:-1 2:-0.916987 3:0.711073 4:-1 
1 1:0.333333 2:0.773103 3:0.107266 4:-0.767455 
1 1:0.666667 2:-0.836817 3:0.273356 4:-0.833465 
-0.6564155680739976 1:0.166667 2:-0.958179 3:0.131488 4:-0.847999 
-1 1:-0.5 2:-0.643086 3:-0.024222 4:-0.788365 
-1 1:-0.166667 2:-0.880197 3:0.356401 4:-0.891488 
1 1:-0.333333 2:-0.698566 3:0.17128 4:-0.839894 
-0.2798884300057162 1:-1 2:-0.587619 3:-0.100346 4:-0.787466 
-1 1:0.333333 2:-0.851482 3:0.586505 4:-0.645361 
1 1:-0.166667 2:-0.507266 3:0.019031 4:-0.659248 
-1 1:0.166667 2:-0.522741 3:-0.102076 4:-0.674094 
-1 1:-0.5 2:-0.90445 3:0.33564 4:-0.775561 
1 1:-0.166667 2:-0.730449 3:0.083045 4:-0.812061 
-1 1:-0.5 2:-0.955463 3:0.811419 4:-0.941977 
1 1:-0.5 2:-0.812321 3:0.373702 4:-0.790394 
