svm_type nu_svr
kernel_type rbf
gamma 0.25
nr_class 2
total_sv 63
rho -0.116733
SV
1 1:-1 2:1 3:-0.209721 4:-0.246048 
1 1:-1 2:-1 3:-0.500142 4:-0.277424 
1 1:0.166667 2:1 3:-0.150229 4:-0.299265 
1 1:-0.5 2:1 3:0.034352 4:0.082356 
-1 1:0.166667 2:1 3:-0.228314 4:-0.363283 
1 1:0.333333 2:1 3:-0.219523 4:-0.214234 
-1 1:0.166667 2:1 3:-0.318813 4:-0.519142 
-1 1:-1 2:1 3:-0.285251 4:-0.535098 
1 1:0.166667 2:1 3:-0.186169 4:0.105803 
1 1:-1 2:1 3:-0.224879 4:-0.247118 
-1 1:-0.666667 2:1 3:0.105986 4:-1 
-1 1:0.333333 2:1 3:-0.201087 4:-0.248237 
1 1:-1 2:-1 3:-0.500142 4:-0.277424 
1 1:-0.666667 2:1 3:0.146305 4:-0.34003 
1 1:-0.666667 2:1 3:-0.146762 4:-0.420538 
1 1:0.666667 2:1 3:0.147663 4:-0.064649 
0.2291910766830887 1:0.666667 2:1 3:-0.18513 4:0.07253 
-0.1542631517717499 1:-1 2:-1 3:-0.453851 4:-0.552756 
-1 1:0.666667 2:1 3:-0.358906 4:-0.869631 
0.8527206508019605 1:1 2:-1 3:-0.004284 4:0.196673 
-1 1:0.666667 2:-1 3:-0.902952 4:-0.439704 
-0.5228466573207501 1:-0.333333 2:-1 3:-0.090263 4:-0.161405 
1 1:-0.333333 2:-1 3:-0.256483 4:-0.055261 
-1 1:-0.666667 2:1 3:0.151769 4:-0.387313 
0.1620663643895086 1:-0.666667 2:1 3:0.379997 4:-0.247556 
0.7771984030638159 1:-0.333333 2:1 3:-0.911733 4:0.024323 
0.6982082482616242 1:-1 2:1 3:-0.199182 4:1 
-1 1:0.166667 2:1 3:-0.414106 4:-0.27397 
-1 1:-0.166667 2:1 3:-0.356546 4:0.020771 
1 1:-0.166667 2:1 3:-0.511139 4:0.139806 
-1 1:-0.166667 2:1 3:-0.301141 4:-0.179452 
1 1:-1 2:1 3:-0.7544 4:0.170356 
-1 1:-1 2:-1 3:-0.565221 4:-0.201343 
1 1:-1 2:1 3:-0.455716 4:0.34003 
1 1:-0.166667 2:1 3:-0.473108 4:0.330204 
-1 1:-1 2:1 3:-0.17816 4:-0.023642 
-0.7712685880327209 1:-1 2:1 3:-0.458311 4:-0.108722 
-1 1:-0.666667 2:-1 3:-0.462484 4:-0.106679 
-1 1:-1 2:1 3:-0.455762 4:0.347084 
1 1:-1 2:1 3:-0.408574 4:-0.166707 
-1 1:-1 2:1 3:-0.388956 4:0.823466 
1 1:-1 2:-1 3:-0.83002 4:-0.185241 
-0.5478820419807662 1:-0.166667 2:1 3:-0.571569 4:-0.34256 
1 1:-0.833333 2:1 3:-1 4:-0.255777 
-1 1:-0.166667 2:1 3:-0.417013 4:-0.039986 
1 1:0.166667 2:1 3:-0.436269 4:-0.412074 
-1 1:0.333333 2:1 3:-0.379345 4:-0.316729 
-1 1:-0.666667 2:1 3:-0.777654 4:0.042565 
0.1114608644528843 1:0.666667 2:1 3:-0.615633 4:-0.260009 
-1 1:-1 2:1 3:-0.656764 4:-0.053996 
1 1:0.333333 2:1 3:-0.382943 4:-0.172399 
1 1:0.666667 2:1 3:-0.503926 4:-0.170745 
-0.003739560894013 1:-0.5 2:1 3:-0.317626 4:-0.587294 
-1 1:-0.166667 2:1 3:-0.681675 4:0.011626 
1 1:-0.333333 2:1 3:-0.273992 4:-0.276889 
-1 1:-1 2:-1 3:-0.531536 4:-0.452255 
-1 1:0.333333 2:1 3:-0.331441 4:0.493117 
1 1:-0.166667 2:1 3:-0.339848 4:-0.599601 
-1 1:0.166667 2:1 3:-0.534191 4:-0.562242 
-1 1:-0.5 2:1 3:-0.46764 4:0.077638 
1 1:-0.166667 2:1 3:-0.506916 4:-0.253247 
-1 1:-0.5 2:1 3:-0.793579 4:-0.17989 
0.1691543923471179 1:-0.5 2:1 3:-0.40729 4:0.14939 
