svm_type nu_svr
kernel_type rbf
gamma 0.25
nr_class 2
total_sv 62
rho -0.112923
SV
1 1:-1 2:1 3:-0.723575 4:-0.398258 
1 1:-1 2:-1 3:-0.84854 4:-0.431512 
1 1:0.166667 2:1 3:-0.852123 4:-0.572447 
1 1:-0.5 2:1 3:-0.866467 4:-0.230404 
1 1:0.333333 2:1 3:-0.850492 4:-0.391924 
-1 1:0.166667 2:1 3:-0.707577 4:-0.434679 
-0.1453108209607414 1:-1 2:1 3:-0.841967 4:-0.832146 
1 1:0.166667 2:1 3:-0.888515 4:-0.2019 
1 1:-1 2:1 3:-0.772861 4:-0.30483 
-0.7653844251181831 1:-0.666667 2:1 3:1 4:-1 
0.9574705719154895 1:-0.166667 2:1 3:-0.855892 4:-0.179731 
1 1:-1 2:-1 3:-0.84854 4:-0.431512 
1 1:-0.666667 2:1 3:-0.780339 4:-0.564529 
1 1:-0.666667 2:1 3:-0.767471 4:-0.529691 
1 1:0.666667 2:1 3:-0.729993 4:-0.124307 
1 1:0.666667 2:1 3:-0.861599 4:-0.315914 
-1 1:-1 2:-1 3:-0.629473 4:-0.626287 
-1 1:0.666667 2:1 3:-0.39852 4:-0.863816 
1 1:1 2:-1 3:-0.893907 4:-0.528108 
-1 1:0.666667 2:-1 3:-0.953775 4:-0.727633 
0.8527199373250952 1:-0.333333 2:-1 3:-0.886076 4:-0.403009 
1 1:-0.666667 2:1 3:-0.759542 4:-0.444181 
1 1:-0.166667 2:1 3:-0.895037 4:0.106888 
1 1:-1 2:1 3:-0.791922 4:0.353919 
0.3593984642874449 1:-0.666667 2:1 3:-0.268055 4:0.053048 
0.4777019491380357 1:1 2:1 3:-0.846524 4:0.106888 
1 1:-1 2:1 3:-0.903218 4:0.646873 
-1 1:0.166667 2:1 3:-0.499382 4:-0.235154 
-1 1:-0.166667 2:1 3:-0.830395 4:0.14331 
1 1:-0.166667 2:1 3:-0.882199 4:-0.022961 
-1 1:-0.166667 2:1 3:-0.752452 4:-0.087886 
-1 1:-1 2:1 3:-0.767577 4:-0.374505 
1 1:-1 2:1 3:-0.913952 4:-0.2019 
-1 1:-1 2:-1 3:-0.893648 4:-0.311164 
0.0723588355210846 1:-1 2:1 3:-0.860695 4:0.125891 
0.8614783227907662 1:-1 2:-1 3:-0.596929 4:-0.059382 
1 1:-0.166667 2:1 3:-0.874837 4:-0.043547 
-1 1:-1 2:1 3:-0.791973 4:-0.029295 
-1 1:-1 2:1 3:-0.821023 4:0.045131 
-1 1:-0.666667 2:-1 3:-0.847255 4:-0.098971 
-1 1:-1 2:1 3:-0.642731 4:0.350752 
-0.08930475392107537 1:-0.166667 2:1 3:-0.41563 4:-0.494854 
-1 1:-1 2:1 3:-0.921264 4:0.830562 
0.617877590080655 1:-1 2:-1 3:-0.948213 4:-0.545527 
-1 1:-0.166667 2:1 3:-0.883378 4:-0.555028 
1 1:-0.833333 2:1 3:-0.932148 4:-0.515439 
-1 1:-0.166667 2:1 3:-0.83618 4:-0.295329 
0.105620031733821 1:0.166667 2:1 3:-0.606428 4:-0.339667 
-1 1:0.333333 2:1 3:-0.670729 4:-0.195566 
-1 1:-0.666667 2:1 3:-0.964915 4:-0.499604 
-1 1:-1 2:1 3:-0.916987 4:-0.431512 
0.6953742972076078 1:0.333333 2:1 3:0.773103 4:0.14331 
-1 1:0.166667 2:1 3:-0.958179 4:-0.562945 
-1 1:-0.5 2:1 3:-0.643086 4:-0.577197 
-1 1:-0.166667 2:1 3:-0.880197 4:-0.312747 
1 1:-0.333333 2:1 3:-0.698566 4:-0.049881 
-1 1:-1 2:-1 3:-0.587619 4:-0.379256 
-1 1:0.333333 2:1 3:-0.851482 4:-0.059382 
1 1:-0.166667 2:1 3:-0.507266 4:-0.5962 
-1 1:0.166667 2:1 3:-0.522741 4:-0.702296 
-1 1:-0.5 2:1 3:-0.90445 4:0.002375 
-1 1:-0.5 2:1 3:-0.955463 4:-0.502771 
