svm_type nu_svr
kernel_type rbf
gamma 0.2
nr_class 2
total_sv 62
rho 0.11759
SV
1 1:-1 2:-0.723575 3:-0.209721 4:-0.246048 5:0.183673 
-1 1:-1 2:-0.667368 3:-0.21464 4:-0.321107 5:0.020408 
1 1:-1 2:-0.84854 3:-0.500142 4:-0.277424 5:0.142857 
1 1:-1 2:-0.852123 3:-0.150229 4:-0.299265 5:-0.542857 
-1 1:-1 2:-0.707577 3:-0.318813 4:-0.519142 5:-0.102041 
1 1:-1 2:-0.772861 3:-0.224879 4:-0.247118 5:-0.061225 
-0.9495280445054765 1:-1 2:1 3:0.105986 4:-1 5:-0.885714 
-1 1:-1 2:-0.816895 3:-0.201087 4:-0.248237 5:0.061225 
-0.6768307011346728 1:-1 2:-0.954734 3:-0.729894 4:-0.171474 5:-0.265306 
1 1:-1 2:0.144317 3:-0.324231 4:-0.642847 5:-0.795918 
1 1:-1 2:-0.84854 3:-0.500142 4:-0.277424 5:0.142857 
1 1:-1 2:-0.780339 3:0.146305 4:-0.34003 5:0.265306 
0.4702612860903561 1:-1 2:-0.767471 3:-0.146762 4:-0.420538 5:0.020408 
-0.5437113311125714 1:-1 2:-0.39852 3:-0.358906 4:-0.869631 5:-1 
1 1:-1 2:-0.893907 3:-0.004284 4:0.196673 5:-0.142857 
-1 1:-1 2:-0.953775 3:-0.902952 4:-0.439704 5:-1 
-1 1:-1 2:-0.798862 3:-0.090263 4:-0.161405 5:-0.142857 
-1 1:-1 2:-0.61764 3:0.151769 4:-0.387313 5:-0.22449 
-1 1:-1 2:-0.782552 3:0.08501 4:-0.196916 5:-0.061225 
-0.1402938123912349 1:-1 2:-0.683175 3:-0.2759 4:-0.368682 5:-0.020408 
0.003203345466474068 1:-1 2:-0.193184 3:-0.911733 4:0.024323 5:-0.55102 
0.8820189435975307 1:-1 2:-0.791922 3:0.460325 4:0.776135 5:-0.314286 
-1 1:1 2:-0.499382 3:-0.414106 4:-0.27397 5:-0.387755 
-1 1:1 2:-0.830395 3:-0.356546 4:0.020771 5:-0.142857 
1 1:1 2:-0.882199 3:-0.511139 4:0.139806 5:0.183673 
-1 1:1 2:-0.752452 3:-0.301141 4:-0.179452 5:-0.714286 
0.2780103487820852 1:1 2:-0.518477 3:-0.273413 4:-0.454298 5:-0.755102 
1 1:1 2:-0.913952 3:-0.7544 4:0.170356 5:0.020408 
-1 1:1 2:-0.893648 3:-0.565221 4:-0.201343 5:-0.387755 
1 1:1 2:-0.860695 3:-0.455716 4:0.34003 5:0.102041 
1 1:1 2:-0.871849 3:-0.354358 4:0.301552 5:-0.061225 
1 1:1 2:-0.596929 3:0.04585 4:-0.000146 5:0.102041 
1 1:1 2:-0.874837 3:-0.473108 4:0.330204 5:-0.061225 
-1 1:1 2:-0.791973 3:-0.17816 4:-0.023642 5:0.265306 
-1 1:1 2:-0.847255 3:-0.462484 4:-0.106679 5:-0.306122 
-0.6267083478155302 1:1 2:-0.642731 3:-0.455762 4:0.347084 5:-0.55102 
-0.06292776304051405 1:1 2:-0.41563 3:-0.452333 4:-0.574257 5:-0.755102 
1 1:1 2:-0.617232 3:-0.408574 4:-0.166707 5:-0.632653 
-1 1:1 2:-0.921264 3:-0.388956 4:0.823466 5:0.102041 
1 1:1 2:-0.948213 3:-0.83002 4:-0.185241 5:0.102041 
1 1:1 2:-0.702955 3:-0.256881 4:-0.38133 5:-0.591837 
-1 1:1 2:-0.883378 3:-0.571569 4:-0.34256 5:-0.265306 
1 1:1 2:-0.932148 3:-1 4:-0.255777 5:-0.714286 
-1 1:1 2:-0.83618 3:-0.417013 4:-0.039986 5:-0.22449 
1 1:1 2:-0.606428 3:-0.436269 4:-0.412074 5:-0.387755 
-1 1:1 2:-0.670729 3:-0.379345 4:-0.316729 5:-0.55102 
-1 1:1 2:-0.964915 3:-0.777654 4:0.042565 5:0.020408 
1 1:1 2:-0.906396 3:-0.577106 4:0.153184 5:-0.387755 
1 1:1 2:-0.826784 3:-0.470865 4:-0.32135 5:-0.22449 
-1 1:1 2:-0.916987 3:-0.656764 4:-0.053996 5:-0.387755 
0.3665060760635543 1:1 2:0.773103 3:-0.382943 4:-0.172399 5:0.265306 
1 1:1 2:-0.836817 3:-0.503926 4:-0.170745 5:0.020408 
-1 1:1 2:-0.643086 3:-0.317626 4:-0.587294 5:-0.093878 
-1 1:1 2:-0.880197 3:-0.681675 4:0.011626 5:0.020408 
1 1:1 2:-0.698566 3:-0.273992 4:-0.276889 5:-0.142857 
-1 1:1 2:-0.851482 3:-0.331441 4:0.493117 5:0.591837 
1 1:1 2:-0.507266 3:-0.339848 4:-0.599601 5:-0.673469 
-1 1:1 2:-0.522741 3:-0.534191 4:-0.562242 5:-0.061225 
-1 1:1 2:-0.90445 3:-0.46764 4:0.077638 5:-0.387755 
1 1:1 2:-0.730449 3:-0.506916 4:-0.253247 5:-0.387755 
-1 1:1 2:-0.955463 3:-0.793579 4:-0.17989 5:-0.265306 
1 1:1 2:-0.812321 3:-0.40729 4:0.14939 5:0.428571 
