svm_type nu_svr
kernel_type rbf
gamma 0.2
nr_class 2
total_sv 59
rho -0.0946029
SV
1 1:-1 2:-1 3:1 4:-0.625535 5:-0.246048 
1 1:-1 2:-1 3:-1 4:-0.729103 5:-0.277424 
1 1:-1 2:0.166667 3:1 4:-0.956386 5:-0.299265 
1 1:-1 2:-0.5 3:1 4:-0.965184 5:0.082356 
-1 1:-1 2:0.166667 3:1 4:-0.817005 5:-0.363283 
0.4829909105721795 1:-1 2:0.333333 3:1 4:-0.933121 5:-0.214234 
-1 1:-1 2:0.166667 3:1 4:-0.832138 5:-0.519142 
-1 1:-1 2:-1 3:1 4:-0.939254 5:-0.535098 
1 1:-1 2:0.166667 3:1 4:-0.956936 5:0.105803 
1 1:-1 2:-1 3:1 4:-0.807677 5:-0.247118 
-1 1:-1 2:-0.666667 3:1 4:0.053178 5:-1 
-1 1:-1 2:0.333333 3:1 4:-0.881376 5:-0.248237 
-1 1:-1 2:-1 3:1 4:-0.937233 5:-0.171474 
1 1:-1 2:-1 3:-1 4:-0.729103 5:-0.277424 
1 1:-1 2:-0.666667 3:1 4:-0.894918 5:-0.34003 
0.4506781767617598 1:-1 2:-0.666667 3:1 4:-0.848144 5:-0.420538 
1 1:-1 2:0.666667 3:1 4:-0.761987 5:-0.064649 
-1 1:-1 2:-1 3:-1 4:-0.539699 5:-0.552756 
-1 1:-1 2:0.666667 3:1 4:-0.711404 5:-0.869631 
1 1:-1 2:1 3:-1 4:-0.971129 5:0.196673 
-1 1:-1 2:0.666667 3:-1 4:-0.965421 5:-0.439704 
-0.7532499831108332 1:-1 2:-0.333333 3:-1 4:-0.876791 5:-0.161405 
-1 1:-1 2:-0.666667 3:1 4:-0.681721 5:-0.387313 
-1 1:1 2:0.166667 3:1 4:-0.091627 5:-0.27397 
1 1:1 2:-0.166667 3:1 4:-0.871561 5:0.139806 
-1 1:1 2:-0.166667 3:1 4:-0.770401 5:-0.179452 
0.8152826992528162 1:1 2:-1 3:1 4:-0.983226 5:0.005254 
1 1:1 2:-1 3:1 4:-0.803147 5:0.170356 
-1 1:1 2:-1 3:-1 4:-0.900937 5:-0.201343 
1 1:1 2:-1 3:1 4:-0.80325 5:0.34003 
0.9340133558448962 1:1 2:0.166667 3:-1 4:-0.866667 5:0.301552 
1 1:1 2:-1 3:-1 4:-0.30396 5:-0.000146 
1 1:1 2:-0.166667 3:1 4:-0.855848 5:0.330204 
-1 1:1 2:-1 3:1 4:-0.793693 5:-0.023642 
-1 1:1 2:-0.666667 3:-1 4:-0.896052 5:-0.106679 
-1 1:1 2:-1 3:1 4:-0.193826 5:0.347084 
-0.4088273458822447 1:1 2:-0.166667 3:1 4:-0.030539 5:-0.574257 
1 1:1 2:-1 3:1 4:-0.20107 5:-0.166707 
-1 1:1 2:-1 3:1 4:-0.93417 5:0.823466 
1 1:1 2:-1 3:-1 4:-0.94202 5:-0.185241 
1 1:1 2:-0.833333 3:1 4:-0.764964 5:-0.255777 
1 1:1 2:0.166667 3:1 4:-0.359559 5:-0.412074 
-1 1:1 2:0.333333 3:1 4:-0.52775 5:-0.316729 
-1 1:1 2:-0.666667 3:1 4:-0.945255 5:0.042565 
0.4292515178752043 1:1 2:0.666667 3:1 4:-0.86635 5:-0.32135 
-1 1:1 2:-1 3:1 4:-0.928728 5:-0.053996 
0.8877833396931436 1:1 2:0.333333 3:1 4:1 5:-0.172399 
1 1:1 2:0.666667 3:1 4:-0.848168 5:-0.170745 
-1 1:1 2:0.166667 3:1 4:-0.887492 5:-0.252031 
-1 1:1 2:-0.166667 3:1 4:-0.815739 5:0.011626 
1 1:1 2:-0.333333 3:1 4:-0.82818 5:-0.276889 
-0.8379226710069219 1:1 2:-1 3:-1 4:-0.295346 5:-0.452255 
-1 1:1 2:0.333333 3:1 4:-0.687797 5:0.493117 
1 1:1 2:-0.166667 3:1 4:-0.193455 5:-0.599601 
-1 1:1 2:0.166667 3:1 4:-0.053296 5:-0.562242 
-1 1:1 2:-0.5 3:1 4:-0.833631 5:0.077638 
1 1:1 2:-0.166667 3:1 4:-0.509602 5:-0.253247 
-1 1:1 2:-0.5 3:1 4:-0.883112 5:-0.17989 
1 1:1 2:-0.5 3:1 4:-0.813018 5:0.14939 
