svm_type nu_svr
kernel_type rbf
gamma 0.2
nr_class 2
total_sv 62
rho 0.173357
SV
1 1:-1 2:-0.625535 3:-0.685075 4:-0.398258 5:-0.246048 
-1 1:-1 2:-0.661029 3:-0.454166 4:-0.152811 5:-0.321107 
1 1:-1 2:-0.729103 3:-0.414079 4:-0.431512 5:-0.277424 
0.9397114476729344 1:-1 2:-0.956386 3:-0.440985 4:-0.572447 5:-0.299265 
-0.05887833918191402 1:-1 2:-0.716794 3:-0.488633 4:-0.771971 5:-0.740478 
1 1:-1 2:-0.965184 3:-0.470295 4:-0.230404 5:0.082356 
-1 1:-1 2:-0.817005 3:-0.724984 4:-0.578781 5:-0.363283 
-1 1:-1 2:-0.832138 3:-0.737549 4:-0.434679 5:-0.519142 
1 1:-1 2:-0.956936 3:-0.639346 4:-0.2019 5:0.105803 
1 1:-1 2:-0.807677 3:-0.442876 4:-0.30483 5:-0.247118 
-0.3235922958603805 1:-1 2:0.053178 3:-0.573139 4:-1 5:-1 
-1 1:-1 2:-0.881376 3:-0.729312 4:-0.444181 5:-0.248237 
-0.5155389696399584 1:-1 2:-0.937233 3:-0.702391 4:-0.700713 5:-0.171474 
1 1:-1 2:-0.729103 3:-0.414079 4:-0.431512 5:-0.277424 
1 1:-1 2:-0.894918 3:-0.122828 4:-0.564529 5:-0.34003 
0.05565309637307061 1:-1 2:-0.761987 3:-0.348415 4:-0.124307 5:-0.064649 
-1 1:-1 2:-0.711404 3:-0.686475 4:-0.863816 5:-0.869631 
-1 1:-1 2:-0.965421 3:-0.991567 4:-0.727633 5:-0.439704 
-1 1:-1 2:-0.876791 3:-0.405977 4:-0.311164 5:-0.161405 
-1 1:-1 2:-0.681721 3:-0.627403 4:-0.273159 5:-0.387313 
1 1:-1 2:-0.920273 3:-0.650517 4:-0.444181 5:-0.247556 
0.1267341039038585 1:-1 2:-0.767319 3:-0.725396 4:-0.714964 5:-0.635355 
-1 1:1 2:-0.091627 3:-0.801512 4:-0.235154 5:-0.27397 
-1 1:1 2:-0.85762 3:-0.588211 4:0.14331 5:0.020771 
1 1:1 2:-0.871561 3:-0.6256 4:-0.022961 5:0.139806 
-1 1:1 2:-0.770401 3:-0.638231 4:-0.087886 5:-0.179452 
1 1:1 2:-0.983226 3:-0.86243 4:-0.357086 5:0.005254 
1 1:1 2:-0.803147 3:-0.693321 4:-0.2019 5:0.170356 
-1 1:1 2:-0.900937 3:-0.826757 4:-0.311164 5:-0.201343 
1 1:1 2:-0.80325 3:-0.747894 4:0.125891 5:0.34003 
1 1:1 2:-0.866667 3:-0.903694 4:0.441013 5:0.301552 
1 1:1 2:-0.30396 3:-0.584429 4:-0.059382 5:-0.000146 
1 1:1 2:-0.855848 3:-0.802744 4:-0.043547 5:0.330204 
0.03898763777369128 1:1 2:0.88062 3:-0.218426 4:1 5:0.362018 
-1 1:1 2:-0.793693 3:-0.686792 4:-0.029295 5:-0.023642 
-1 1:1 2:-0.896052 3:-0.771454 4:-0.098971 5:-0.106679 
-1 1:1 2:-0.193826 3:-0.659505 4:0.350752 5:0.347084 
-1 1:1 2:-0.030539 3:-0.689745 4:-0.494854 5:-0.574257 
1 1:1 2:-0.20107 3:-0.835969 4:-0.141726 5:-0.166707 
-1 1:1 2:-0.93417 3:-0.73218 4:0.830562 5:0.823466 
1 1:1 2:-0.94202 3:-0.892958 4:-0.545527 5:-0.185241 
-0.6859170818458987 1:1 2:-0.894677 3:-0.798953 4:-0.555028 5:-0.34256 
1 1:1 2:-0.764964 3:-0.964458 4:-0.515439 5:-0.255777 
-0.4160733134718481 1:1 2:-0.704392 3:-0.739317 4:-0.295329 5:-0.039986 
1 1:1 2:-0.359559 3:-0.852637 4:-0.339667 5:-0.412074 
-1 1:1 2:-0.52775 3:-0.727626 4:-0.195566 5:-0.316729 
-1 1:1 2:-0.945255 3:-0.929719 4:-0.499604 5:0.042565 
1 1:1 2:-0.91916 3:-0.776934 4:-0.509105 5:-0.260009 
1 1:1 2:-0.86635 3:-0.772226 4:-0.35867 5:-0.32135 
-1 1:1 2:-0.928728 3:-1 4:-0.431512 5:-0.053996 
0.8389137142764455 1:1 2:1 3:-0.767455 4:0.14331 5:-0.172399 
1 1:1 2:-0.848168 3:-0.833465 4:-0.239905 5:-0.170745 
-1 1:1 2:-0.887492 3:-0.847999 4:-0.562945 5:-0.252031 
-1 1:1 2:-0.815739 3:-0.891488 4:-0.312747 5:0.011626 
1 1:1 2:-0.82818 3:-0.839894 4:-0.049881 5:-0.276889 
-1 1:1 2:-0.687797 3:-0.645361 4:-0.059382 5:0.493117 
1 1:1 2:-0.193455 3:-0.659248 4:-0.5962 5:-0.599601 
-1 1:1 2:-0.053296 3:-0.674094 4:-0.702296 5:-0.562242 
-1 1:1 2:-0.833631 3:-0.775561 4:0.002375 5:0.077638 
1 1:1 2:-0.509602 3:-0.812061 4:-0.319082 5:-0.253247 
-1 1:1 2:-0.883112 3:-0.941977 4:-0.502771 5:-0.17989 
1 1:1 2:-0.813018 3:-0.790394 4:0.149644 5:0.14939 
