svm_type nu_svr
kernel_type rbf
gamma 0.2
nr_class 2
total_sv 60
rho -0.0128419
SV
1 1:-1 2:1 3:-0.723575 4:-0.209721 5:-0.398258 
-0.8870360108397757 1:-1 2:1 3:-0.667368 4:-0.21464 5:-0.152811 
1 1:-1 2:-1 3:-0.84854 4:-0.500142 5:-0.431512 
-1 1:-1 2:1 3:-0.567191 4:-0.104703 5:-0.771971 
1 1:-1 2:1 3:-0.866467 4:0.034352 5:-0.230404 
-1 1:-1 2:1 3:-0.770809 4:-0.228314 5:-0.578781 
-1 1:-1 2:1 3:-0.707577 4:-0.318813 5:-0.434679 
1 1:-1 2:1 3:-0.888515 4:-0.186169 5:-0.2019 
1 1:-1 2:1 3:-0.772861 4:-0.224879 5:-0.30483 
-0.3384449373715714 1:-1 2:1 3:1 4:0.105986 5:-1 
-1 1:-1 2:1 3:-0.816895 4:-0.201087 5:-0.444181 
1 1:-1 2:-1 3:-0.84854 4:-0.500142 5:-0.431512 
1 1:-1 2:1 3:-0.780339 4:0.146305 5:-0.564529 
0.1471741635209318 1:-1 2:1 3:-0.767471 4:-0.146762 5:-0.529691 
1 1:-1 2:1 3:-0.729993 4:0.147663 5:-0.124307 
1 1:-1 2:1 3:-0.861599 4:-0.18513 5:-0.315914 
-0.7298593279995734 1:-1 2:-1 3:-0.629473 4:-0.453851 5:-0.626287 
-1 1:-1 2:1 3:-0.39852 4:-0.358906 5:-0.863816 
1 1:-1 2:-1 3:-0.893907 4:-0.004284 5:-0.528108 
-1 1:-1 2:-1 3:-0.953775 4:-0.902952 5:-0.727633 
-1 1:-1 2:-1 3:-0.798862 4:-0.090263 5:-0.311164 
-1 1:-1 2:1 3:-0.61764 4:0.151769 5:-0.273159 
-0.07495468734675959 1:-1 2:-1 3:-0.782552 4:0.08501 5:-0.290578 
-1 1:1 2:1 3:-0.499382 4:-0.414106 5:-0.235154 
-1 1:1 2:1 3:-0.830395 4:-0.356546 5:0.14331 
1 1:1 2:1 3:-0.882199 4:-0.511139 5:-0.022961 
-1 1:1 2:1 3:-0.752452 4:-0.301141 5:-0.087886 
1 1:1 2:1 3:-0.96409 4:-0.728532 5:-0.357086 
1 1:1 2:1 3:-0.913952 4:-0.7544 5:-0.2019 
-1 1:1 2:-1 3:-0.893648 4:-0.565221 5:-0.311164 
1 1:1 2:1 3:-0.860695 4:-0.455716 5:0.125891 
1 1:1 2:-1 3:-0.871849 4:-0.354358 5:0.441013 
1 1:1 2:-1 3:-0.596929 4:0.04585 5:-0.059382 
1 1:1 2:1 3:-0.874837 4:-0.473108 5:-0.043547 
-0.2993425167920264 1:1 2:1 3:-0.791973 4:-0.17816 5:-0.029295 
-1 1:1 2:-1 3:-0.847255 4:-0.462484 5:-0.098971 
-1 1:1 2:1 3:-0.642731 4:-0.455762 5:0.350752 
-1 1:1 2:1 3:-0.41563 4:-0.452333 5:-0.494854 
1 1:1 2:1 3:-0.617232 4:-0.408574 5:-0.141726 
-1 1:1 2:1 3:-0.921264 4:-0.388956 5:0.830562 
1 1:1 2:-1 3:-0.948213 4:-0.83002 5:-0.545527 
-0.7998595315581953 1:1 2:1 3:-0.883378 4:-0.571569 5:-0.555028 
1 1:1 2:1 3:-0.932148 4:-1 5:-0.515439 
1 1:1 2:1 3:-0.606428 4:-0.436269 5:-0.339667 
-1 1:1 2:1 3:-0.670729 4:-0.379345 5:-0.195566 
-1 1:1 2:1 3:-0.964915 4:-0.777654 5:-0.499604 
0.9873119838631712 1:1 2:1 3:-0.910797 4:-0.615633 5:-0.509105 
-1 1:1 2:1 3:-0.916987 4:-0.656764 5:-0.431512 
0.8655138526158973 1:1 2:1 3:0.773103 4:-0.382943 5:0.14331 
1 1:1 2:1 3:-0.836817 4:-0.503926 5:-0.239905 
-1 1:1 2:1 3:-0.880197 4:-0.681675 5:-0.312747 
1 1:1 2:1 3:-0.698566 4:-0.273992 5:-0.049881 
-0.8705029880920981 1:1 2:-1 3:-0.587619 4:-0.531536 5:-0.379256 
-1 1:1 2:1 3:-0.851482 4:-0.331441 5:-0.059382 
1 1:1 2:1 3:-0.507266 4:-0.339848 5:-0.5962 
-1 1:1 2:1 3:-0.522741 4:-0.534191 5:-0.702296 
-1 1:1 2:1 3:-0.90445 4:-0.46764 5:0.002375 
1 1:1 2:1 3:-0.730449 4:-0.506916 5:-0.319082 
-1 1:1 2:1 3:-0.955463 4:-0.793579 5:-0.502771 
1 1:1 2:1 3:-0.812321 4:-0.40729 5:0.149644 
