svm_type nu_svr
kernel_type rbf
gamma 0.2
nr_class 2
total_sv 61
rho 0.295769
SV
1 1:-1 2:0.285467 3:-0.209721 4:-0.398258 5:-0.246048 
-0.3109639709293388 1:-1 2:-0.181661 3:-0.21464 4:-0.152811 5:-0.321107 
1 1:-1 2:0.183391 3:-0.500142 4:-0.431512 5:-0.277424 
1 1:-1 2:0.456747 3:0.034352 4:-0.230404 5:0.082356 
-1 1:-1 2:0.190311 3:-0.228314 4:-0.578781 5:-0.363283 
-1 1:-1 2:0.095156 3:-0.318813 4:-0.434679 5:-0.519142 
-0.1350197798125072 1:-1 2:0.435986 3:-0.285251 4:-0.832146 5:-0.535098 
1 1:-1 2:0.525952 3:-0.224879 4:-0.30483 5:-0.247118 
-0.1178198855490313 1:-1 2:-1 3:0.105986 4:-1 5:-1 
-1 1:-1 2:0.50173 3:-0.201087 4:-0.444181 5:-0.248237 
1 1:-1 2:0.183391 3:-0.500142 4:-0.431512 5:-0.277424 
1 1:-1 2:0.583045 3:0.146305 4:-0.564529 5:-0.34003 
1 1:-1 2:0.416955 3:-0.146762 4:-0.529691 5:-0.420538 
1 1:-1 2:-0.152249 3:0.147663 4:-0.124307 5:-0.064649 
-1 1:-1 2:-0.404844 3:-0.358906 4:-0.863816 5:-0.869631 
0.8904698607907511 1:-1 2:0.088235 3:-0.004284 4:-0.528108 5:0.196673 
-1 1:-1 2:0.553633 3:-0.902952 4:-0.727633 5:-0.439704 
-1 1:-1 2:0.096886 3:-0.090263 4:-0.311164 5:-0.161405 
-1 1:-1 2:0.197232 3:0.151769 4:-0.273159 5:-0.387313 
-1 1:-1 2:0.709343 3:0.08501 4:-0.290578 5:-0.196916 
-1 1:1 2:-0.034602 3:-0.414106 4:-0.235154 5:-0.27397 
-1 1:1 2:0.581315 3:-0.356546 4:0.14331 5:0.020771 
1 1:1 2:-0.202422 3:-0.511139 4:-0.022961 5:0.139806 
-1 1:1 2:0.141869 3:-0.301141 4:-0.087886 5:-0.179452 
1 1:1 2:0.631488 3:-0.728532 4:-0.357086 5:0.005254 
1 1:1 2:-0.029412 3:-0.7544 4:-0.2019 5:0.170356 
-1 1:1 2:0.254325 3:-0.565221 4:-0.311164 5:-0.201343 
1 1:1 2:0.480969 3:-0.455716 4:0.125891 5:0.34003 
1 1:1 2:0.638408 3:-0.354358 4:0.441013 5:0.301552 
1 1:1 2:0.641869 3:0.04585 4:-0.059382 5:-0.000146 
1 1:1 2:0.408304 3:-0.473108 4:-0.043547 5:0.330204 
0.109530139209249 1:1 2:-0.463668 3:-0.274831 4:1 5:0.362018 
-1 1:1 2:0.288927 3:-0.17816 4:-0.029295 5:-0.023642 
-1 1:1 2:0.256055 3:-0.462484 4:-0.098971 5:-0.106679 
-1 1:1 2:0.102076 3:-0.455762 4:0.350752 5:0.347084 
-1 1:1 2:-0.070934 3:-0.452333 4:-0.494854 5:-0.574257 
1 1:1 2:0.655709 3:-0.408574 4:-0.141726 5:-0.166707 
-1 1:1 2:0.543253 3:-0.388956 4:0.830562 5:0.823466 
1 1:1 2:0.32699 3:-0.83002 4:-0.545527 5:-0.185241 
-0.876829070458743 1:1 2:0.359862 3:-0.571569 4:-0.555028 5:-0.34256 
1 1:1 2:0.576125 3:-1 4:-0.515439 5:-0.255777 
-0.9232072759657897 1:1 2:0.49654 3:-0.417013 4:-0.295329 5:-0.039986 
1 1:1 2:0.096886 3:-0.436269 4:-0.339667 5:-0.412074 
-1 1:1 2:0.403114 3:-0.379345 4:-0.195566 5:-0.316729 
-0.6084271172892451 1:1 2:0.776817 3:-0.777654 4:-0.499604 5:0.042565 
1 1:1 2:0.33218 3:-0.615633 4:-0.509105 5:-0.260009 
1 1:1 2:0.214533 3:-0.470865 4:-0.35867 5:-0.32135 
-1 1:1 2:0.711073 3:-0.656764 4:-0.431512 5:-0.053996 
1 1:1 2:0.107266 3:-0.382943 4:0.14331 5:-0.172399 
1 1:1 2:0.273356 3:-0.503926 4:-0.239905 5:-0.170745 
-1 1:1 2:0.131488 3:-0.913952 4:-0.562945 5:-0.252031 
-0.02773289999534503 1:1 2:-0.024222 3:-0.317626 4:-0.577197 5:-0.587294 
-1 1:1 2:0.356401 3:-0.681675 4:-0.312747 5:0.011626 
1 1:1 2:0.17128 3:-0.273992 4:-0.049881 5:-0.276889 
-1 1:1 2:0.586505 3:-0.331441 4:-0.059382 5:0.493117 
1 1:1 2:0.019031 3:-0.339848 4:-0.5962 5:-0.599601 
-1 1:1 2:-0.102076 3:-0.534191 4:-0.702296 5:-0.562242 
-1 1:1 2:0.33564 3:-0.46764 4:0.002375 5:0.077638 
1 1:1 2:0.083045 3:-0.506916 4:-0.319082 5:-0.253247 
-1 1:1 2:0.811419 3:-0.793579 4:-0.502771 5:-0.17989 
1 1:1 2:0.373702 3:-0.40729 4:0.149644 5:0.14939 
