svm_type nu_svr
kernel_type rbf
gamma 0.2
nr_class 2
total_sv 60
rho 0.0257377
SV
1 1:-1 2:-0.625535 3:-0.685075 4:-0.209721 5:-0.398258 
-1 1:-1 2:-0.661029 3:-0.454166 4:-0.21464 5:-0.152811 
1 1:-1 2:-0.729103 3:-0.414079 4:-0.500142 5:-0.431512 
-1 1:-1 2:-0.716794 3:-0.488633 4:-0.104703 5:-0.771971 
1 1:-1 2:-0.965184 3:-0.470295 4:0.034352 5:-0.230404 
-0.215348003839165 1:-1 2:-0.817005 3:-0.724984 4:-0.228314 5:-0.578781 
-1 1:-1 2:-0.832138 3:-0.737549 4:-0.318813 5:-0.434679 
1 1:-1 2:-0.956936 3:-0.639346 4:-0.186169 5:-0.2019 
1 1:-1 2:-0.807677 3:-0.442876 4:-0.224879 5:-0.30483 
-1 1:-1 2:0.053178 3:-0.573139 4:0.105986 5:-1 
-1 1:-1 2:-0.881376 3:-0.729312 4:-0.201087 5:-0.444181 
1 1:-1 2:-0.729103 3:-0.414079 4:-0.500142 5:-0.431512 
1 1:-1 2:-0.894918 3:-0.122828 4:0.146305 5:-0.564529 
0.138684586162777 1:-1 2:-0.761987 3:-0.348415 4:0.147663 5:-0.124307 
-1 1:-1 2:-0.711404 3:-0.686475 4:-0.358906 5:-0.863816 
1 1:-1 2:-0.971129 3:-0.20182 4:-0.004284 5:-0.528108 
-1 1:-1 2:-0.965421 3:-0.991567 4:-0.902952 5:-0.727633 
-1 1:-1 2:-0.876791 3:-0.405977 4:-0.090263 5:-0.311164 
-1 1:-1 2:-0.681721 3:-0.627403 4:0.151769 5:-0.273159 
1 1:-1 2:-0.920273 3:-0.650517 4:0.379997 5:-0.444181 
0.09971602898222776 1:-1 2:0.205108 3:-0.514096 4:0.258035 5:0.053048 
-1 1:1 2:-0.091627 3:-0.801512 4:-0.414106 5:-0.235154 
-1 1:1 2:-0.85762 3:-0.588211 4:-0.356546 5:0.14331 
1 1:1 2:-0.871561 3:-0.6256 4:-0.511139 5:-0.022961 
-1 1:1 2:-0.770401 3:-0.638231 4:-0.301141 5:-0.087886 
1 1:1 2:-0.983226 3:-0.86243 4:-0.728532 5:-0.357086 
1 1:1 2:-0.803147 3:-0.693321 4:-0.7544 5:-0.2019 
-1 1:1 2:-0.900937 3:-0.826757 4:-0.565221 5:-0.311164 
1 1:1 2:-0.80325 3:-0.747894 4:-0.455716 5:0.125891 
1 1:1 2:-0.866667 3:-0.903694 4:-0.354358 5:0.441013 
1 1:1 2:-0.30396 3:-0.584429 4:0.04585 5:-0.059382 
1 1:1 2:-0.855848 3:-0.802744 4:-0.473108 5:-0.043547 
-1 1:1 2:-0.793693 3:-0.686792 4:-0.17816 5:-0.029295 
-1 1:1 2:-0.896052 3:-0.771454 4:-0.462484 5:-0.098971 
-1 1:1 2:-0.193826 3:-0.659505 4:-0.455762 5:0.350752 
-1 1:1 2:-0.030539 3:-0.689745 4:-0.452333 5:-0.494854 
1 1:1 2:-0.20107 3:-0.835969 4:-0.408574 5:-0.141726 
-1 1:1 2:-0.93417 3:-0.73218 4:-0.388956 5:0.830562 
1 1:1 2:-0.94202 3:-0.892958 4:-0.83002 5:-0.545527 
-1 1:1 2:-0.894677 3:-0.798953 4:-0.571569 5:-0.555028 
0.875936050192794 1:1 2:-1 3:-0.896561 4:-0.846686 5:-0.461599 
1 1:1 2:-0.764964 3:-0.964458 4:-1 5:-0.515439 
1 1:1 2:-0.359559 3:-0.852637 4:-0.436269 5:-0.339667 
-1 1:1 2:-0.52775 3:-0.727626 4:-0.379345 5:-0.195566 
-1 1:1 2:-0.945255 3:-0.929719 4:-0.777654 5:-0.499604 
1 1:1 2:-0.91916 3:-0.776934 4:-0.615633 5:-0.509105 
-1 1:1 2:-0.928728 3:-1 4:-0.656764 5:-0.431512 
0.885663334662201 1:1 2:1 3:-0.767455 4:-0.382943 5:0.14331 
1 1:1 2:-0.848168 3:-0.833465 4:-0.503926 5:-0.239905 
-0.7117983908956089 1:1 2:-0.887492 3:-0.847999 4:-0.913952 5:-0.562945 
-0.0728536052652262 1:1 2:-0.759482 3:-0.788365 4:-0.317626 5:-0.577197 
-1 1:1 2:-0.815739 3:-0.891488 4:-0.681675 5:-0.312747 
1 1:1 2:-0.82818 3:-0.839894 4:-0.273992 5:-0.049881 
-1 1:1 2:-0.687797 3:-0.645361 4:-0.331441 5:-0.059382 
1 1:1 2:-0.193455 3:-0.659248 4:-0.339848 5:-0.5962 
-1 1:1 2:-0.053296 3:-0.674094 4:-0.534191 5:-0.702296 
-1 1:1 2:-0.833631 3:-0.775561 4:-0.46764 5:0.002375 
1 1:1 2:-0.509602 3:-0.812061 4:-0.506916 5:-0.319082 
-1 1:1 2:-0.883112 3:-0.941977 4:-0.793579 5:-0.502771 
1 1:1 2:-0.813018 3:-0.790394 4:-0.40729 5:0.149644 
