svm_type nu_svr
kernel_type rbf
gamma 0.2
nr_class 2
total_sv 61
rho -0.0502349
SV
1 1:-1 2:-1 3:1 4:-0.685075 5:-0.246048 
-1 1:-1 2:-1 3:1 4:-0.454166 5:-0.321107 
1 1:-1 2:-1 3:-1 4:-0.414079 5:-0.277424 
0.302071012778966 1:-1 2:0.166667 3:1 4:-0.440985 5:-0.299265 
1 1:-1 2:-0.5 3:1 4:-0.470295 5:0.082356 
-0.06157467735058489 1:-1 2:0.166667 3:1 4:-0.724984 5:-0.363283 
-1 1:-1 2:0.166667 3:1 4:-0.737549 5:-0.519142 
-1 1:-1 2:-1 3:1 4:-0.563308 5:-0.535098 
1 1:-1 2:0.166667 3:1 4:-0.639346 5:0.105803 
1 1:-1 2:-1 3:1 4:-0.442876 5:-0.247118 
-1 1:-1 2:-0.666667 3:1 4:-0.573139 5:-1 
-1 1:-1 2:0.333333 3:1 4:-0.729312 5:-0.248237 
-1 1:-1 2:-1 3:1 4:-0.702391 5:-0.171474 
1 1:-1 2:-1 3:-1 4:-0.414079 5:-0.277424 
1 1:-1 2:-0.666667 3:1 4:-0.122828 5:-0.34003 
1 1:-1 2:0.666667 3:1 4:-0.348415 5:-0.064649 
-0.8706778961140278 1:-1 2:-1 3:-1 4:-0.5121 5:-0.552756 
-1 1:-1 2:0.666667 3:1 4:-0.686475 5:-0.869631 
1 1:-1 2:1 3:-1 4:-0.20182 5:0.196673 
-1 1:-1 2:0.666667 3:-1 4:-0.991567 5:-0.439704 
-0.9858221914712141 1:-1 2:-0.333333 3:-1 4:-0.405977 5:-0.161405 
-0.3516774799183879 1:-1 2:-0.666667 3:1 4:-0.627403 5:-0.387313 
1 1:-1 2:-0.666667 3:1 4:-0.650517 5:-0.247556 
0.199723134380396 1:-1 2:0.5 3:1 4:-0.725396 5:-0.635355 
-1 1:1 2:0.166667 3:1 4:-0.801512 5:-0.27397 
1 1:1 2:-0.166667 3:1 4:-0.6256 5:0.139806 
-1 1:1 2:-0.166667 3:1 4:-0.638231 5:-0.179452 
1 1:1 2:-1 3:1 4:-0.86243 5:0.005254 
1 1:1 2:-1 3:1 4:-0.693321 5:0.170356 
-1 1:1 2:-1 3:-1 4:-0.826757 5:-0.201343 
1 1:1 2:-1 3:1 4:-0.747894 5:0.34003 
1 1:1 2:0.166667 3:-1 4:-0.903694 5:0.301552 
1 1:1 2:-1 3:-1 4:-0.584429 5:-0.000146 
1 1:1 2:-0.166667 3:1 4:-0.802744 5:0.330204 
0.08036341933365979 1:1 2:-1 3:1 4:-0.218426 5:0.362018 
-1 1:1 2:-1 3:1 4:-0.686792 5:-0.023642 
-1 1:1 2:-0.666667 3:-1 4:-0.771454 5:-0.106679 
-1 1:1 2:-1 3:1 4:-0.659505 5:0.347084 
1 1:1 2:-1 3:1 4:-0.835969 5:-0.166707 
-1 1:1 2:-1 3:1 4:-0.73218 5:0.823466 
1 1:1 2:-1 3:-1 4:-0.892958 5:-0.185241 
-0.9779082037915588 1:1 2:-0.166667 3:1 4:-0.798953 5:-0.34256 
1 1:1 2:-0.833333 3:1 4:-0.964458 5:-0.255777 
1 1:1 2:0.166667 3:1 4:-0.852637 5:-0.412074 
-1 1:1 2:0.333333 3:1 4:-0.727626 5:-0.316729 
-1 1:1 2:-0.666667 3:1 4:-0.929719 5:0.042565 
0.417842433506978 1:1 2:0.666667 3:1 4:-0.772226 5:-0.32135 
-1 1:1 2:-1 3:1 4:-1 5:-0.053996 
1 1:1 2:0.333333 3:1 4:-0.767455 5:-0.172399 
1 1:1 2:0.666667 3:1 4:-0.833465 5:-0.170745 
-1 1:1 2:0.166667 3:1 4:-0.847999 5:-0.252031 
-1 1:1 2:-0.166667 3:1 4:-0.891488 5:0.011626 
1 1:1 2:-0.333333 3:1 4:-0.839894 5:-0.276889 
-0.752339551354226 1:1 2:-1 3:-1 4:-0.787466 5:-0.452255 
-1 1:1 2:0.333333 3:1 4:-0.645361 5:0.493117 
1 1:1 2:-0.166667 3:1 4:-0.659248 5:-0.599601 
-1 1:1 2:0.166667 3:1 4:-0.674094 5:-0.562242 
-1 1:1 2:-0.5 3:1 4:-0.775561 5:0.077638 
1 1:1 2:-0.166667 3:1 4:-0.812061 5:-0.253247 
-1 1:1 2:-0.5 3:1 4:-0.941977 5:-0.17989 
1 1:1 2:-0.5 3:1 4:-0.790394 5:0.14939 
