svm_type nu_svr
kernel_type rbf
gamma 0.2
nr_class 2
total_sv 62
rho -0.127281
SV
1 1:-1 2:-1 3:-0.625535 4:-0.723575 5:0.285467 
1 1:-1 2:-1 3:-0.729103 4:-0.84854 5:0.183391 
-1 1:-1 2:0.166667 3:-0.716794 4:-0.567191 5:-0.126298 
1 1:-1 2:-0.5 3:-0.965184 4:-0.866467 5:0.456747 
-1 1:-1 2:0.166667 3:-0.817005 4:-0.770809 5:0.190311 
0.9664685396906492 1:-1 2:0.333333 3:-0.933121 4:-0.850492 5:0.010381 
-1 1:-1 2:0.166667 3:-0.832138 4:-0.707577 5:0.095156 
-1 1:-1 2:-1 3:-0.939254 4:-0.841967 5:0.435986 
1 1:-1 2:0.166667 3:-0.956936 4:-0.888515 5:0.316609 
-0.5872852274112043 1:-1 2:-0.666667 3:0.053178 4:1 5:-1 
-1 1:-1 2:0.333333 3:-0.881376 4:-0.816895 5:0.50173 
-1 1:-1 2:-1 3:-0.937233 4:-0.954734 5:0.344291 
-1 1:-1 2:0.833333 3:-0.966757 4:-0.922993 5:0.709343 
1 1:-1 2:-1 3:-0.729103 4:-0.84854 5:0.183391 
1 1:-1 2:-0.666667 3:-0.894918 4:-0.780339 5:0.583045 
1 1:-1 2:0.666667 3:-0.761987 4:-0.729993 5:-0.152249 
1 1:-1 2:0.666667 3:-0.922927 4:-0.861599 5:0.143599 
-1 1:-1 2:-1 3:-0.539699 4:-0.629473 5:-0.186851 
-1 1:-1 2:0.666667 3:-0.711404 4:-0.39852 5:-0.404844 
1 1:-1 2:1 3:-0.971129 4:-0.893907 5:0.088235 
-1 1:-1 2:0.666667 3:-0.965421 4:-0.953775 5:0.553633 
-1 1:-1 2:-0.666667 3:-0.681721 4:-0.61764 5:0.197232 
-0.6385571830402702 1:-1 2:-0.666667 3:-0.859541 4:-0.782552 5:0.709343 
1 1:-1 2:-1 3:-0.866507 4:-0.791922 5:0.816609 
0.5131023034306502 1:-1 2:-0.666667 3:0.205108 4:-0.268055 5:0.121107 
1 1:-1 2:1 3:-0.906343 4:-0.846524 5:0.813149 
-1 1:1 2:0.166667 3:-0.091627 4:-0.499382 5:-0.034602 
1 1:1 2:-0.166667 3:-0.871561 4:-0.882199 5:-0.202422 
-1 1:1 2:-0.166667 3:-0.770401 4:-0.752452 5:0.141869 
1 1:1 2:-1 3:-0.803147 4:-0.913952 5:-0.029412 
-1 1:1 2:-1 3:-0.900937 4:-0.893648 5:0.254325 
1 1:1 2:-1 3:-0.80325 4:-0.860695 5:0.480969 
1 1:1 2:0.166667 3:-0.866667 4:-0.871849 5:0.638408 
0.06074033240921696 1:1 2:-0.166667 3:-0.436699 4:-0.698702 5:0.128028 
1 1:1 2:-1 3:-0.30396 4:-0.596929 5:0.641869 
1 1:1 2:-0.166667 3:-0.855848 4:-0.874837 5:0.408304 
0.1270426413497466 1:1 2:-1 3:0.88062 4:0.865713 5:-0.463668 
-1 1:1 2:-0.666667 3:-0.896052 4:-0.847255 5:0.256055 
-1 1:1 2:-1 3:-0.193826 4:-0.642731 5:0.102076 
-0.1905862016756433 1:1 2:-0.166667 3:-0.030539 4:-0.41563 5:-0.070934 
0.9282156074216167 1:1 2:-1 3:-0.20107 4:-0.617232 5:0.655709 
-0.5707946526411531 1:1 2:-1 3:-0.93417 4:-0.921264 5:0.543253 
1 1:1 2:-1 3:-0.94202 4:-0.948213 5:0.32699 
1 1:1 2:-0.833333 3:-0.764964 4:-0.932148 5:0.576125 
1 1:1 2:0.166667 3:-0.359559 4:-0.606428 5:0.096886 
-1 1:1 2:0.333333 3:-0.52775 4:-0.670729 5:0.403114 
-1 1:1 2:-0.666667 3:-0.945255 4:-0.964915 5:0.776817 
-1 1:1 2:-1 3:-0.928728 4:-0.916987 5:0.711073 
0.4044305756981206 1:1 2:0.333333 3:1 4:0.773103 5:0.107266 
1 1:1 2:0.666667 3:-0.848168 4:-0.836817 5:0.273356 
-0.5490698459497797 1:1 2:0.166667 3:-0.887492 4:-0.958179 5:0.131488 
-1 1:1 2:-0.5 3:-0.759482 4:-0.643086 5:-0.024222 
-0.8320755796789532 1:1 2:-0.166667 3:-0.815739 4:-0.880197 5:0.356401 
1 1:1 2:-0.333333 3:-0.82818 4:-0.698566 5:0.17128 
-0.6316313096029963 1:1 2:-1 3:-0.295346 4:-0.587619 5:-0.100346 
-1 1:1 2:0.333333 3:-0.687797 4:-0.851482 5:0.586505 
1 1:1 2:-0.166667 3:-0.193455 4:-0.507266 5:0.019031 
-1 1:1 2:0.166667 3:-0.053296 4:-0.522741 5:-0.102076 
-1 1:1 2:-0.5 3:-0.833631 4:-0.90445 5:0.33564 
1 1:1 2:-0.166667 3:-0.509602 4:-0.730449 5:0.083045 
-1 1:1 2:-0.5 3:-0.883112 4:-0.955463 5:0.811419 
1 1:1 2:-0.5 3:-0.813018 4:-0.812321 5:0.373702 
