svm_type nu_svr
kernel_type rbf
gamma 0.2
nr_class 2
total_sv 64
rho 0.00914549
SV
1 1:-1 2:-1 3:-0.723575 4:0.285467 5:-0.398258 
-1 1:-1 2:-1 3:-0.667368 4:-0.181661 5:-0.152811 
1 1:-1 2:-1 3:-0.84854 4:0.183391 5:-0.431512 
0.3181587354665373 1:-1 2:0.166667 3:-0.852123 4:0.785467 5:-0.572447 
-0.3260454743117512 1:-1 2:0.166667 3:-0.567191 4:-0.126298 5:-0.771971 
1 1:-1 2:-0.5 3:-0.866467 4:0.456747 5:-0.230404 
-1 1:-1 2:0.166667 3:-0.770809 4:0.190311 5:-0.578781 
-1 1:-1 2:0.166667 3:-0.707577 4:0.095156 5:-0.434679 
-1 1:-1 2:-1 3:-0.841967 4:0.435986 5:-0.832146 
1 1:-1 2:0.166667 3:-0.888515 4:0.316609 5:-0.2019 
0.3433778441280195 1:-1 2:-1 3:-0.772861 4:0.525952 5:-0.30483 
-0.34687101651979 1:-1 2:-0.666667 3:1 4:-1 5:-1 
-1 1:-1 2:0.333333 3:-0.816895 4:0.50173 5:-0.444181 
-1 1:-1 2:-1 3:-0.954734 4:0.344291 5:-0.700713 
1 1:-1 2:-1 3:-0.84854 4:0.183391 5:-0.431512 
1 1:-1 2:-0.666667 3:-0.780339 4:0.583045 5:-0.564529 
1 1:-1 2:0.666667 3:-0.729993 4:-0.152249 5:-0.124307 
1 1:-1 2:0.666667 3:-0.861599 4:0.143599 5:-0.315914 
-1 1:-1 2:0.666667 3:-0.39852 4:-0.404844 5:-0.863816 
1 1:-1 2:1 3:-0.893907 4:0.088235 5:-0.528108 
-1 1:-1 2:0.666667 3:-0.953775 4:0.553633 5:-0.727633 
-0.004109944932184416 1:-1 2:-0.333333 3:-0.798862 4:0.096886 5:-0.311164 
-1 1:-1 2:-0.666667 3:-0.61764 4:0.197232 5:-0.273159 
-0.8145651028529008 1:-1 2:-0.666667 3:-0.782552 4:0.709343 5:-0.290578 
0.9126495548707929 1:-1 2:-0.666667 3:-0.759542 4:0.351211 5:-0.444181 
0.09056264255043521 1:-1 2:1 3:-0.846524 4:0.813149 5:0.106888 
-1 1:1 2:0.166667 3:-0.499382 4:-0.034602 5:-0.235154 
-1 1:1 2:-0.166667 3:-0.830395 4:0.581315 5:0.14331 
1 1:1 2:-0.166667 3:-0.882199 4:-0.202422 5:-0.022961 
-1 1:1 2:-0.166667 3:-0.752452 4:0.141869 5:-0.087886 
-0.001477660477046638 1:1 2:-1 3:-0.767577 4:-0.088235 5:-0.374505 
0.7415148458738001 1:1 2:-1 3:-0.96409 4:0.631488 5:-0.357086 
1 1:1 2:-1 3:-0.913952 4:-0.029412 5:-0.2019 
-1 1:1 2:-1 3:-0.893648 4:0.254325 5:-0.311164 
1 1:1 2:-1 3:-0.860695 4:0.480969 5:0.125891 
1 1:1 2:0.166667 3:-0.871849 4:0.638408 5:0.441013 
1 1:1 2:-1 3:-0.596929 4:0.641869 5:-0.059382 
1 1:1 2:-0.166667 3:-0.874837 4:0.408304 5:-0.043547 
0.1155119388467891 1:1 2:-1 3:0.865713 4:-0.463668 5:1 
-1 1:1 2:-1 3:-0.791973 4:0.288927 5:-0.029295 
-1 1:1 2:-0.666667 3:-0.847255 4:0.256055 5:-0.098971 
-1 1:1 2:-1 3:-0.642731 4:0.102076 5:0.350752 
-0.5069308009063267 1:1 2:-0.166667 3:-0.41563 4:-0.070934 5:-0.494854 
1 1:1 2:-1 3:-0.617232 4:0.655709 5:-0.141726 
-1 1:1 2:-1 3:-0.921264 4:0.543253 5:0.830562 
1 1:1 2:-1 3:-0.948213 4:0.32699 5:-0.545527 
0.8841277094278488 1:1 2:-0.166667 3:-1 4:0.598616 5:-0.461599 
1 1:1 2:-0.833333 3:-0.932148 4:0.576125 5:-0.515439 
1 1:1 2:0.166667 3:-0.606428 4:0.096886 5:-0.339667 
-1 1:1 2:0.333333 3:-0.670729 4:0.403114 5:-0.195566 
-1 1:1 2:-0.666667 3:-0.964915 4:0.776817 5:-0.499604 
-1 1:1 2:-1 3:-0.916987 4:0.711073 5:-0.431512 
0.5940967288357776 1:1 2:0.333333 3:0.773103 4:0.107266 5:0.14331 
1 1:1 2:0.666667 3:-0.836817 4:0.273356 5:-0.239905 
-1 1:1 2:-0.5 3:-0.643086 4:-0.024222 5:-0.577197 
-1 1:1 2:-0.166667 3:-0.880197 4:0.356401 5:-0.312747 
1 1:1 2:-0.333333 3:-0.698566 4:0.17128 5:-0.049881 
-1 1:1 2:0.333333 3:-0.851482 4:0.586505 5:-0.059382 
1 1:1 2:-0.166667 3:-0.507266 4:0.019031 5:-0.5962 
-1 1:1 2:0.166667 3:-0.522741 4:-0.102076 5:-0.702296 
-1 1:1 2:-0.5 3:-0.90445 4:0.33564 5:0.002375 
1 1:1 2:-0.166667 3:-0.730449 4:0.083045 5:-0.319082 
-1 1:1 2:-0.5 3:-0.955463 4:0.811419 5:-0.502771 
1 1:1 2:-0.5 3:-0.812321 4:0.373702 5:0.149644 
