svm_type nu_svr
kernel_type rbf
gamma 0.2
nr_class 2
total_sv 61
rho 0.0267466
SV
1 1:1 2:-0.625535 3:-0.723575 4:-0.246048 5:0.183673 
1 1:-1 2:-0.729103 3:-0.84854 4:-0.277424 5:0.142857 
1 1:1 2:-0.956386 3:-0.852123 4:-0.299265 5:-0.542857 
1 1:1 2:-0.965184 3:-0.866467 4:0.082356 5:0.795918 
-0.7234368506063883 1:-1 2:-0.934617 3:-0.878479 4:-0.17201 5:0.428571 
0.4966830460087543 1:1 2:-0.933121 3:-0.850492 4:-0.214234 5:0.183673 
-1 1:1 2:-0.832138 3:-0.707577 4:-0.519142 5:-0.102041 
1 1:1 2:-0.724138 3:-0.678864 4:-0.514521 5:-0.22449 
0.9941997693910509 1:1 2:-0.957684 3:-0.944027 4:0.068736 5:-0.346939 
1 1:1 2:-0.807677 3:-0.772861 4:-0.247118 5:-0.061225 
-1 1:1 2:0.053178 3:1 4:-1 5:-0.885714 
-1 1:1 2:-0.881376 3:-0.816895 4:-0.248237 5:0.061225 
1 1:-1 2:-0.729103 3:-0.84854 4:-0.277424 5:0.142857 
1 1:1 2:-0.894918 3:-0.780339 4:-0.34003 5:0.265306 
1 1:1 2:-0.848144 3:-0.767471 4:-0.420538 5:0.020408 
-0.3233877954281192 1:1 2:-0.711404 3:-0.39852 4:-0.869631 5:-1 
1 1:-1 2:-0.971129 3:-0.893907 4:0.196673 5:-0.142857 
-1 1:-1 2:-0.965421 3:-0.953775 4:-0.439704 5:-1 
-0.3260906335355022 1:-1 2:-0.876791 3:-0.798862 4:-0.161405 5:-0.142857 
1 1:1 2:-0.866507 3:-0.791922 4:0.776135 5:-0.314286 
1 1:1 2:0.205108 3:-0.268055 4:0.004719 5:-0.338776 
1 1:1 2:-0.906343 3:-0.846524 4:0.429294 5:-0.020408 
1 1:1 2:-0.967825 3:-0.903218 4:1 5:-0.322449 
-1 1:1 2:-0.792999 3:-0.811905 4:-0.048353 5:0.183673 
-1 1:1 2:-0.091627 3:-0.499382 4:-0.27397 5:-0.387755 
-1 1:1 2:-0.85762 3:-0.830395 4:0.020771 5:-0.142857 
1 1:1 2:-0.871561 3:-0.882199 4:0.139806 5:0.183673 
-1 1:1 2:-0.770401 3:-0.752452 4:-0.179452 5:-0.714286 
0.08228948435123777 1:-1 2:-0.408685 3:-0.518477 4:-0.454298 5:-0.755102 
1 1:1 2:-0.803147 3:-0.913952 4:0.170356 5:0.020408 
-1 1:-1 2:-0.900937 3:-0.893648 4:-0.201343 5:-0.387755 
0.02642226139967037 1:-1 2:-0.30396 3:-0.596929 4:-0.000146 5:0.102041 
1 1:1 2:-0.855848 3:-0.874837 4:0.330204 5:-0.061225 
-1 1:1 2:-0.793693 3:-0.791973 4:-0.023642 5:0.265306 
-1 1:-1 2:-0.896052 3:-0.847255 4:-0.106679 5:-0.306122 
-1 1:1 2:-0.193826 3:-0.642731 4:0.347084 5:-0.55102 
-0.6270847204299904 1:1 2:-0.8862 3:-0.891427 4:0.036143 5:0.020408 
1 1:1 2:-0.20107 3:-0.617232 4:-0.166707 5:-0.632653 
-1 1:1 2:-0.93417 3:-0.921264 4:0.823466 5:0.102041 
1 1:-1 2:-0.94202 3:-0.948213 4:-0.185241 5:0.102041 
1 1:-1 2:-0.8452 3:-0.702955 4:-0.38133 5:-0.591837 
-1 1:1 2:-0.894677 3:-0.883378 4:-0.34256 5:-0.265306 
1 1:1 2:-0.764964 3:-0.932148 4:-0.255777 5:-0.714286 
-1 1:1 2:-0.704392 3:-0.83618 4:-0.039986 5:-0.22449 
1 1:1 2:-0.359559 3:-0.606428 4:-0.412074 5:-0.387755 
-1 1:1 2:-0.52775 3:-0.670729 4:-0.316729 5:-0.55102 
-1 1:1 2:-0.945255 3:-0.964915 4:0.042565 5:0.020408 
-1 1:1 2:-0.928728 3:-0.916987 4:-0.053996 5:-0.387755 
0.4004054388492868 1:1 2:1 3:0.773103 4:-0.172399 5:0.265306 
1 1:1 2:-0.848168 3:-0.836817 4:-0.170745 5:0.020408 
-1 1:1 2:-0.887492 3:-0.958179 4:-0.252031 5:-0.673469 
-1 1:1 2:-0.759482 3:-0.643086 4:-0.587294 5:-0.093878 
-1 1:1 2:-0.815739 3:-0.880197 4:0.011626 5:0.020408 
1 1:1 2:-0.82818 3:-0.698566 4:-0.276889 5:-0.142857 
-1 1:-1 2:-0.295346 3:-0.587619 4:-0.452255 5:-0.428571 
-1 1:1 2:-0.687797 3:-0.851482 4:0.493117 5:0.591837 
1 1:1 2:-0.193455 3:-0.507266 4:-0.599601 5:-0.673469 
-1 1:1 2:-0.053296 3:-0.522741 4:-0.562242 5:-0.061225 
-1 1:1 2:-0.833631 3:-0.90445 4:0.077638 5:-0.387755 
1 1:1 2:-0.509602 3:-0.730449 4:-0.253247 5:-0.387755 
-1 1:1 2:-0.883112 3:-0.955463 4:-0.17989 5:-0.265306 
