svm_type nu_svr
kernel_type rbf
gamma 0.2
nr_class 2
total_sv 58
rho 0.0399427
SV
1 1:-1 2:-0.723575 3:-0.209721 4:-0.398258 5:-0.246048 
1 1:-1 2:-0.84854 3:-0.500142 4:-0.431512 5:-0.277424 
1 1:0.166667 2:-0.852123 3:-0.150229 4:-0.572447 5:-0.299265 
1 1:-0.5 2:-0.866467 3:0.034352 4:-0.230404 5:0.082356 
-1 1:0.166667 2:-0.770809 3:-0.228314 4:-0.578781 5:-0.363283 
1 1:0.333333 2:-0.850492 3:-0.219523 4:-0.391924 5:-0.214234 
-1 1:0.166667 2:-0.707577 3:-0.318813 4:-0.434679 5:-0.519142 
-1 1:-1 2:-0.841967 3:-0.285251 4:-0.832146 5:-0.535098 
1 1:0.166667 2:-0.888515 3:-0.186169 4:-0.2019 5:0.105803 
1 1:-1 2:-0.772861 3:-0.224879 4:-0.30483 5:-0.247118 
-0.929778259961216 1:-0.666667 2:1 3:0.105986 4:-1 5:-1 
-1 1:0.333333 2:-0.816895 3:-0.201087 4:-0.444181 5:-0.248237 
1 1:-1 2:-0.84854 3:-0.500142 4:-0.431512 5:-0.277424 
1 1:-0.666667 2:-0.780339 3:0.146305 4:-0.564529 5:-0.34003 
1 1:-0.666667 2:-0.767471 3:-0.146762 4:-0.529691 5:-0.420538 
1 1:0.666667 2:-0.729993 3:0.147663 4:-0.124307 5:-0.064649 
-1 1:0.666667 2:-0.39852 3:-0.358906 4:-0.863816 5:-0.869631 
0.6440390162003529 1:1 2:-0.893907 3:-0.004284 4:-0.528108 5:0.196673 
-1 1:0.666667 2:-0.953775 3:-0.902952 4:-0.727633 5:-0.439704 
1 1:-0.333333 2:-0.886076 3:-0.256483 4:-0.403009 5:-0.055261 
-1 1:-0.666667 2:-0.61764 3:0.151769 4:-0.273159 5:-0.387313 
1 1:-1 2:-0.903218 3:-0.199182 4:0.646873 5:1 
-1 1:0.166667 2:-0.499382 3:-0.414106 4:-0.235154 5:-0.27397 
-1 1:-0.166667 2:-0.830395 3:-0.356546 4:0.14331 5:0.020771 
1 1:-0.166667 2:-0.882199 3:-0.511139 4:-0.022961 5:0.139806 
-1 1:-0.166667 2:-0.752452 3:-0.301141 4:-0.087886 5:-0.179452 
-0.999929088043531 1:-1 2:-0.767577 3:-0.511794 4:-0.374505 5:-0.402053 
-0.419993883160949 1:0.666667 2:-0.736975 3:-0.222825 4:-0.018211 5:-0.127061 
1 1:-1 2:-0.913952 3:-0.7544 4:-0.2019 5:0.170356 
-1 1:-1 2:-0.893648 3:-0.565221 4:-0.311164 5:-0.201343 
1 1:-1 2:-0.860695 3:-0.455716 4:0.125891 5:0.34003 
0.3594550679878105 1:0.166667 2:-0.871849 3:-0.354358 4:0.441013 5:0.301552 
1 1:-0.166667 2:-0.874837 3:-0.473108 4:-0.043547 5:0.330204 
-1 1:-1 2:-0.791973 3:-0.17816 4:-0.029295 5:-0.023642 
-0.6502987688343042 1:-1 2:-0.821023 3:-0.458311 4:0.045131 5:-0.108722 
-1 1:-0.666667 2:-0.847255 3:-0.462484 4:-0.098971 5:-0.106679 
-1 1:-1 2:-0.642731 3:-0.455762 4:0.350752 5:0.347084 
1 1:-1 2:-0.617232 3:-0.408574 4:-0.141726 5:-0.166707 
-1 1:-1 2:-0.921264 3:-0.388956 4:0.830562 5:0.823466 
1 1:-1 2:-0.948213 3:-0.83002 4:-0.545527 5:-0.185241 
-1 1:-0.166667 2:-0.883378 3:-0.571569 4:-0.555028 5:-0.34256 
1 1:-0.833333 2:-0.932148 3:-1 4:-0.515439 5:-0.255777 
-1 1:-0.166667 2:-0.83618 3:-0.417013 4:-0.295329 5:-0.039986 
1 1:0.166667 2:-0.606428 3:-0.436269 4:-0.339667 5:-0.412074 
-1 1:0.333333 2:-0.670729 3:-0.379345 4:-0.195566 5:-0.316729 
-1 1:-0.666667 2:-0.964915 3:-0.777654 4:-0.499604 5:0.042565 
1 1:0.666667 2:-0.910797 3:-0.615633 4:-0.509105 5:-0.260009 
-1 1:-1 2:-0.916987 3:-0.656764 4:-0.431512 5:-0.053996 
0.9965059158118366 1:0.333333 2:0.773103 3:-0.382943 4:0.14331 5:-0.172399 
1 1:0.666667 2:-0.836817 3:-0.503926 4:-0.239905 5:-0.170745 
-1 1:-0.5 2:-0.643086 3:-0.317626 4:-0.577197 5:-0.587294 
-1 1:-0.166667 2:-0.880197 3:-0.681675 4:-0.312747 5:0.011626 
1 1:-0.333333 2:-0.698566 3:-0.273992 4:-0.049881 5:-0.276889 
-1 1:0.333333 2:-0.851482 3:-0.331441 4:-0.059382 5:0.493117 
1 1:-0.166667 2:-0.507266 3:-0.339848 4:-0.5962 5:-0.599601 
-1 1:-0.5 2:-0.90445 3:-0.46764 4:0.002375 5:0.077638 
1 1:-0.166667 2:-0.730449 3:-0.506916 4:-0.319082 5:-0.253247 
-1 1:-0.5 2:-0.955463 3:-0.793579 4:-0.502771 5:-0.17989 
