svm_type nu_svr
kernel_type rbf
gamma 0.2
nr_class 2
total_sv 61
rho -0.0596526
SV
1 1:-1 2:1 3:0.285467 4:-0.398258 5:-0.246048 
1 1:-1 2:-1 3:0.183391 4:-0.431512 5:-0.277424 
1 1:0.166667 2:1 3:0.785467 4:-0.572447 5:-0.299265 
1 1:-0.5 2:1 3:0.456747 4:-0.230404 5:0.082356 
1 1:0.333333 2:1 3:0.010381 4:-0.391924 5:-0.214234 
-1 1:0.166667 2:1 3:0.095156 4:-0.434679 5:-0.519142 
-1 1:-1 2:1 3:0.435986 4:-0.832146 5:-0.535098 
1 1:0.166667 2:1 3:0.316609 4:-0.2019 5:0.105803 
0.9143933673018991 1:-1 2:1 3:0.318339 4:-0.605701 5:-0.514521 
1 1:-1 2:1 3:0.525952 4:-0.30483 5:-0.247118 
-0.5935733999110625 1:-0.666667 2:1 3:-1 4:-1 5:-1 
-1 1:0.333333 2:1 3:0.50173 4:-0.444181 5:-0.248237 
-0.4008528135389061 1:-1 2:1 3:0.344291 4:-0.700713 5:-0.171474 
1 1:-1 2:-1 3:0.183391 4:-0.431512 5:-0.277424 
1 1:-0.666667 2:1 3:0.583045 4:-0.564529 5:-0.34003 
1 1:-0.666667 2:1 3:0.416955 4:-0.529691 5:-0.420538 
1 1:0.666667 2:1 3:-0.152249 4:-0.124307 5:-0.064649 
1 1:0.666667 2:1 3:0.143599 4:-0.315914 5:0.07253 
-0.005573786550031663 1:-1 2:-1 3:-0.186851 4:-0.626287 5:-0.552756 
-1 1:0.666667 2:1 3:-0.404844 4:-0.863816 5:-0.869631 
0.8967786594130525 1:1 2:-1 3:0.088235 4:-0.528108 5:0.196673 
-1 1:0.666667 2:-1 3:0.553633 4:-0.727633 5:-0.439704 
0.8540879195919798 1:-0.333333 2:-1 3:0.524221 4:-0.403009 5:-0.055261 
1 1:-0.666667 2:1 3:0.351211 4:-0.444181 5:-0.247556 
1 1:-1 2:1 3:0.816609 4:0.353919 5:0.776135 
0.4005111560954533 1:1 2:1 3:0.813149 4:0.106888 5:0.429294 
1 1:-1 2:1 3:0.401384 4:0.646873 5:1 
-1 1:0.166667 2:1 3:-0.034602 4:-0.235154 5:-0.27397 
-1 1:-0.166667 2:1 3:0.581315 4:0.14331 5:0.020771 
1 1:-0.166667 2:1 3:-0.202422 4:-0.022961 5:0.139806 
-1 1:-0.166667 2:1 3:0.141869 4:-0.087886 5:-0.179452 
-1 1:-1 2:1 3:-0.088235 4:-0.374505 5:-0.402053 
1 1:-1 2:1 3:-0.029412 4:-0.2019 5:0.170356 
-1 1:-1 2:-1 3:0.254325 4:-0.311164 5:-0.201343 
0.1598319247663415 1:-1 2:1 3:0.480969 4:0.125891 5:0.34003 
1 1:-0.166667 2:1 3:0.408304 4:-0.043547 5:0.330204 
-1 1:-1 2:1 3:0.288927 4:-0.029295 5:-0.023642 
-1 1:-1 2:1 3:0.318339 4:0.045131 5:-0.108722 
-1 1:-0.666667 2:-1 3:0.256055 4:-0.098971 5:-0.106679 
-1 1:-1 2:1 3:0.102076 4:0.350752 5:0.347084 
0.6437934250309556 1:-1 2:1 3:0.655709 4:-0.141726 5:-0.166707 
-1 1:-1 2:1 3:0.543253 4:0.830562 5:0.823466 
0.5423297309695418 1:-1 2:-1 3:0.32699 4:-0.545527 5:-0.185241 
-1 1:-0.166667 2:1 3:0.359862 4:-0.555028 5:-0.34256 
1 1:-0.833333 2:1 3:0.576125 4:-0.515439 5:-0.255777 
-1 1:-0.166667 2:1 3:0.49654 4:-0.295329 5:-0.039986 
1 1:0.166667 2:1 3:0.096886 4:-0.339667 5:-0.412074 
-1 1:0.333333 2:1 3:0.403114 4:-0.195566 5:-0.316729 
-1 1:-0.666667 2:1 3:0.776817 4:-0.499604 5:0.042565 
-1 1:-1 2:1 3:0.711073 4:-0.431512 5:-0.053996 
1 1:0.666667 2:1 3:0.273356 4:-0.239905 5:-0.170745 
-1 1:0.166667 2:1 3:0.131488 4:-0.562945 5:-0.252031 
-1 1:-0.166667 2:1 3:0.356401 4:-0.312747 5:0.011626 
1 1:-0.333333 2:1 3:0.17128 4:-0.049881 5:-0.276889 
-1 1:-1 2:-1 3:-0.100346 4:-0.379256 5:-0.452255 
-1 1:0.333333 2:1 3:0.586505 4:-0.059382 5:0.493117 
1 1:-0.166667 2:1 3:0.019031 4:-0.5962 5:-0.599601 
-1 1:0.166667 2:1 3:-0.102076 4:-0.702296 5:-0.562242 
-1 1:-0.5 2:1 3:0.33564 4:0.002375 5:0.077638 
0.5882738168307762 1:-0.166667 2:1 3:0.083045 4:-0.319082 5:-0.253247 
-1 1:-0.5 2:1 3:0.811419 4:-0.502771 5:-0.17989 
