svm_type nu_svr
kernel_type rbf
gamma 0.2
nr_class 2
total_sv 62
rho -0.250145
SV
1 1:-1 2:-0.625535 3:-0.685075 4:-0.246048 5:0.183673 
-1 1:-1 2:-0.661029 3:-0.454166 4:-0.321107 5:0.020408 
1 1:-1 2:-0.729103 3:-0.414079 4:-0.277424 5:0.142857 
1 1:0.166667 2:-0.956386 3:-0.440985 4:-0.299265 5:-0.542857 
1 1:-0.5 2:-0.965184 3:-0.470295 4:0.082356 5:0.795918 
-0.6705804827772186 1:1 2:-0.934617 3:-0.225448 4:-0.17201 5:0.428571 
-1 1:-1 2:-0.958853 3:-0.174405 4:0.031133 5:0.714286 
-1 1:0.166667 2:-0.832138 3:-0.737549 4:-0.519142 5:-0.102041 
0.5624012306306612 1:0.166667 2:-0.956936 3:-0.639346 4:0.105803 5:0.877551 
0.8373692219016792 1:-1 2:-0.957684 3:-0.674198 4:0.068736 5:-0.346939 
1 1:-1 2:-0.807677 3:-0.442876 4:-0.247118 5:-0.061225 
-1 1:-0.666667 2:0.053178 3:-0.573139 4:-1 5:-0.885714 
-1 1:0.333333 2:-0.881376 3:-0.729312 4:-0.248237 5:0.061225 
-1 1:-1 2:-0.937233 3:-0.702391 4:-0.171474 5:-0.265306 
1 1:-1 2:-0.729103 3:-0.414079 4:-0.277424 5:0.142857 
1 1:-0.666667 2:-0.894918 3:-0.122828 4:-0.34003 5:0.265306 
-0.1302266544996925 1:-1 2:-0.539699 3:-0.5121 4:-0.552756 5:-0.387755 
-0.1991928627230888 1:0.666667 2:-0.711404 3:-0.686475 4:-0.869631 5:-1 
1 1:1 2:-0.971129 3:-0.20182 4:0.196673 5:-0.142857 
-1 1:0.666667 2:-0.965421 3:-0.991567 4:-0.439704 5:-1 
0.2313177343530211 1:-0.333333 2:0.406689 3:-0.978478 4:0.024323 5:-0.55102 
0.7925383685990145 1:-0.666667 2:0.205108 3:-0.514096 4:0.004719 5:-0.338776 
0.5325421797529699 1:1 2:-0.906343 3:-0.352926 4:0.429294 5:-0.020408 
0.5206303973041168 1:-1 2:-0.967825 3:-0.222144 4:1 5:-0.322449 
-1 1:0.166667 2:-0.091627 3:-0.801512 4:-0.27397 5:-0.387755 
-1 1:-0.166667 2:-0.85762 3:-0.588211 4:0.020771 5:-0.142857 
1 1:-0.166667 2:-0.871561 3:-0.6256 4:0.139806 5:0.183673 
-1 1:-0.166667 2:-0.770401 3:-0.638231 4:-0.179452 5:-0.714286 
0.2284843301285039 1:0.333333 2:-0.878709 3:-0.870802 4:-0.182809 5:-0.22449 
1 1:-0.666667 2:-0.408685 3:-0.580446 4:-0.454298 5:-0.755102 
1 1:-1 2:-0.803147 3:-0.693321 4:0.170356 5:0.020408 
-1 1:-1 2:-0.900937 3:-0.826757 4:-0.201343 5:-0.387755 
1 1:-1 2:-0.80325 3:-0.747894 4:0.34003 5:0.102041 
1 1:0.166667 2:-0.866667 3:-0.903694 4:0.301552 5:-0.061225 
1 1:-0.166667 2:-0.855848 3:-0.802744 4:0.330204 5:-0.061225 
-1 1:-1 2:-0.793693 3:-0.686792 4:-0.023642 5:0.265306 
-1 1:-0.666667 2:-0.896052 3:-0.771454 4:-0.106679 5:-0.306122 
-1 1:-1 2:-0.193826 3:-0.659505 4:0.347084 5:-0.55102 
1 1:-1 2:-0.20107 3:-0.835969 4:-0.166707 5:-0.632653 
-1 1:-1 2:-0.93417 3:-0.73218 4:0.823466 5:0.102041 
1 1:-1 2:-0.94202 3:-0.892958 4:-0.185241 5:0.102041 
1 1:-0.666667 2:-0.8452 3:-0.726962 4:-0.38133 5:-0.591837 
-1 1:-0.166667 2:-0.894677 3:-0.798953 4:-0.34256 5:-0.265306 
1 1:-0.833333 2:-0.764964 3:-0.964458 4:-0.255777 5:-0.714286 
-1 1:-0.166667 2:-0.704392 3:-0.739317 4:-0.039986 5:-0.22449 
1 1:0.166667 2:-0.359559 3:-0.852637 4:-0.412074 5:-0.387755 
-1 1:0.333333 2:-0.52775 3:-0.727626 4:-0.316729 5:-0.55102 
-1 1:-0.666667 2:-0.945255 3:-0.929719 4:0.042565 5:0.020408 
1 1:0.666667 2:-0.86635 3:-0.772226 4:-0.32135 5:-0.22449 
-1 1:-1 2:-0.928728 3:-1 4:-0.053996 5:-0.387755 
0.2947165373300332 1:0.333333 2:1 3:-0.767455 4:-0.172399 5:0.265306 
1 1:0.666667 2:-0.848168 3:-0.833465 4:-0.170745 5:0.020408 
-1 1:-0.5 2:-0.759482 3:-0.788365 4:-0.587294 5:-0.093878 
-1 1:-0.166667 2:-0.815739 3:-0.891488 4:0.011626 5:0.020408 
1 1:-0.333333 2:-0.82818 3:-0.839894 4:-0.276889 5:-0.142857 
-1 1:-1 2:-0.295346 3:-0.787466 4:-0.452255 5:-0.428571 
-1 1:0.333333 2:-0.687797 3:-0.645361 4:0.493117 5:0.591837 
1 1:-0.166667 2:-0.193455 3:-0.659248 4:-0.599601 5:-0.673469 
-1 1:0.166667 2:-0.053296 3:-0.674094 4:-0.562242 5:-0.061225 
-1 1:-0.5 2:-0.833631 3:-0.775561 4:0.077638 5:-0.387755 
1 1:-0.166667 2:-0.509602 3:-0.812061 4:-0.253247 5:-0.387755 
-1 1:-0.5 2:-0.883112 3:-0.941977 4:-0.17989 5:-0.265306 
