svm_type nu_svr
kernel_type rbf
gamma 0.166667
nr_class 2
total_sv 64
rho -0.17308
SV
1 1:-1 2:-1 3:0.285467 4:-0.209721 5:-0.246048 6:0.183673 
-1 1:-1 2:-1 3:-0.181661 4:-0.21464 5:-0.321107 6:0.020408 
1 1:-1 2:-1 3:0.183391 4:-0.500142 5:-0.277424 6:0.142857 
1 1:-1 2:0.166667 3:0.785467 4:-0.150229 5:-0.299265 6:-0.542857 
0.1656450820895053 1:-1 2:0.333333 3:0.010381 4:-0.219523 5:-0.214234 6:0.183673 
-1 1:-1 2:0.166667 3:0.095156 4:-0.318813 5:-0.519142 6:-0.102041 
-0.8160904356764035 1:-1 2:-1 3:0.435986 4:-0.285251 5:-0.535098 6:-0.714286 
1 1:-1 2:-1 3:0.525952 4:-0.224879 5:-0.247118 6:-0.061225 
-0.5423211275715617 1:-1 2:-0.666667 3:-1 4:0.105986 5:-1 6:-0.885714 
-1 1:-1 2:0.333333 3:0.50173 4:-0.201087 5:-0.248237 6:0.061225 
-1 1:-1 2:-1 3:0.344291 4:-0.729894 5:-0.171474 6:-0.265306 
1 1:-1 2:-1 3:0.183391 4:-0.500142 5:-0.277424 6:0.142857 
1 1:-1 2:-0.666667 3:0.583045 4:0.146305 5:-0.34003 6:0.265306 
-0.1207281967636382 1:-1 2:0.666667 3:-0.404844 4:-0.358906 5:-0.869631 6:-1 
1 1:-1 2:1 3:0.088235 4:-0.004284 5:0.196673 6:-0.142857 
-1 1:-1 2:0.666667 3:0.553633 4:-0.902952 5:-0.439704 6:-1 
-1 1:-1 2:-0.666667 3:0.197232 4:0.151769 5:-0.387313 6:-0.22449 
-1 1:-1 2:-0.666667 3:0.709343 4:0.08501 5:-0.196916 6:-0.061225 
-0.04902655346576115 1:-1 2:-0.166667 3:0.790657 4:-0.006591 5:0.810527 6:0.918367 
0.4780318349405349 1:-1 2:-0.333333 3:0.380623 4:-0.911733 5:0.024323 6:-0.55102 
0.5191467171614962 1:-1 2:-1 3:0.816609 4:0.460325 5:0.776135 6:-0.314286 
0.06765395051131848 1:-1 2:-0.666667 3:0.121107 4:0.258035 5:0.004719 6:-0.338776 
0.4469215271542721 1:-1 2:1 3:0.813149 4:-0.080001 5:0.429294 6:-0.020408 
-1 1:1 2:0.166667 3:-0.034602 4:-0.414106 5:-0.27397 6:-0.387755 
-1 1:1 2:-0.166667 3:0.581315 4:-0.356546 5:0.020771 6:-0.142857 
1 1:1 2:-0.166667 3:-0.202422 4:-0.511139 5:0.139806 6:0.183673 
-1 1:1 2:-0.166667 3:0.141869 4:-0.301141 5:-0.179452 6:-0.714286 
1 1:1 2:-0.666667 3:-0.133218 4:-0.273413 5:-0.454298 6:-0.755102 
1 1:1 2:-1 3:-0.029412 4:-0.7544 5:0.170356 6:0.020408 
-1 1:1 2:-1 3:0.254325 4:-0.565221 5:-0.201343 6:-0.387755 
1 1:1 2:-1 3:0.480969 4:-0.455716 5:0.34003 6:0.102041 
1 1:1 2:0.166667 3:0.638408 4:-0.354358 5:0.301552 6:-0.061225 
1 1:1 2:-1 3:0.641869 4:0.04585 5:-0.000146 6:0.102041 
1 1:1 2:-0.166667 3:0.408304 4:-0.473108 5:0.330204 6:-0.061225 
0.003956818051573037 1:1 2:-1 3:-0.463668 4:-0.274831 5:0.362018 6:0.142857 
-1 1:1 2:-1 3:0.288927 4:-0.17816 5:-0.023642 6:0.265306 
-1 1:1 2:-0.666667 3:0.256055 4:-0.462484 5:-0.106679 6:-0.306122 
-1 1:1 2:-1 3:0.102076 4:-0.455762 5:0.347084 6:-0.55102 
1 1:1 2:-1 3:0.655709 4:-0.408574 5:-0.166707 6:-0.632653 
-1 1:1 2:-1 3:0.543253 4:-0.388956 5:0.823466 6:0.102041 
1 1:1 2:-1 3:0.32699 4:-0.83002 5:-0.185241 6:0.102041 
1 1:1 2:-0.666667 3:0.520761 4:-0.256881 5:-0.38133 6:-0.591837 
-1 1:1 2:-0.166667 3:0.359862 4:-0.571569 5:-0.34256 6:-0.265306 
1 1:1 2:-0.833333 3:0.576125 4:-1 5:-0.255777 6:-0.714286 
-1 1:1 2:-0.166667 3:0.49654 4:-0.417013 5:-0.039986 6:-0.22449 
1 1:1 2:0.166667 3:0.096886 4:-0.436269 5:-0.412074 6:-0.387755 
-1 1:1 2:0.333333 3:0.403114 4:-0.379345 5:-0.316729 6:-0.55102 
-1 1:1 2:-0.666667 3:0.776817 4:-0.777654 5:0.042565 6:0.020408 
1 1:1 2:-0.833333 3:0.750865 4:-0.577106 5:0.153184 6:-0.387755 
0.3186440700913001 1:1 2:0.666667 3:0.214533 4:-0.470865 5:-0.32135 6:-0.22449 
-1 1:1 2:-1 3:0.711073 4:-0.656764 5:-0.053996 6:-0.387755 
1 1:1 2:0.333333 3:0.107266 4:-0.382943 5:-0.172399 6:0.265306 
1 1:1 2:0.666667 3:0.273356 4:-0.503926 5:-0.170745 6:0.020408 
-1 1:1 2:-0.5 3:-0.024222 4:-0.317626 5:-0.587294 6:-0.093878 
-1 1:1 2:-0.166667 3:0.356401 4:-0.681675 5:0.011626 6:0.020408 
1 1:1 2:-0.333333 3:0.17128 4:-0.273992 5:-0.276889 6:-0.142857 
-0.4718336865226352 1:1 2:-1 3:-0.100346 4:-0.531536 5:-0.452255 6:-0.428571 
-1 1:1 2:0.333333 3:0.586505 4:-0.331441 5:0.493117 6:0.591837 
1 1:1 2:-0.166667 3:0.019031 4:-0.339848 5:-0.599601 6:-0.673469 
-1 1:1 2:0.166667 3:-0.102076 4:-0.534191 5:-0.562242 6:-0.061225 
-1 1:1 2:-0.5 3:0.33564 4:-0.46764 5:0.077638 6:-0.387755 
1 1:1 2:-0.166667 3:0.083045 4:-0.506916 5:-0.253247 6:-0.387755 
-1 1:1 2:-0.5 3:0.811419 4:-0.793579 5:-0.17989 6:-0.265306 
1 1:1 2:-0.5 3:0.373702 4:-0.40729 5:0.14939 6:0.428571 
