svm_type nu_svr
kernel_type rbf
gamma 0.166667
nr_class 2
total_sv 62
rho 0.0266183
SV
1 1:-1 2:-1 3:-0.723575 4:0.285467 5:-0.209721 6:-0.398258 
-1 1:-1 2:-1 3:-0.667368 4:-0.181661 5:-0.21464 6:-0.152811 
1 1:-1 2:-1 3:-0.84854 4:0.183391 5:-0.500142 6:-0.431512 
-0.5915986369209907 1:-1 2:0.166667 3:-0.567191 4:-0.126298 5:-0.104703 6:-0.771971 
1 1:-1 2:-0.5 3:-0.866467 4:0.456747 5:0.034352 6:-0.230404 
-1 1:-1 2:0.166667 3:-0.770809 4:0.190311 5:-0.228314 6:-0.578781 
0.07554694829151506 1:-1 2:0.333333 3:-0.850492 4:0.010381 5:-0.219523 6:-0.391924 
-1 1:-1 2:0.166667 3:-0.707577 4:0.095156 5:-0.318813 6:-0.434679 
-1 1:-1 2:-1 3:-0.841967 4:0.435986 5:-0.285251 6:-0.832146 
1 1:-1 2:0.166667 3:-0.888515 4:0.316609 5:-0.186169 6:-0.2019 
0.9921892013438294 1:-1 2:-1 3:-0.772861 4:0.525952 5:-0.224879 6:-0.30483 
-0.3369653396841935 1:-1 2:-0.666667 3:1 4:-1 5:0.105986 6:-1 
-1 1:-1 2:0.333333 3:-0.816895 4:0.50173 5:-0.201087 6:-0.444181 
-1 1:-1 2:-1 3:-0.954734 4:0.344291 5:-0.729894 6:-0.700713 
1 1:-1 2:-1 3:-0.84854 4:0.183391 5:-0.500142 6:-0.431512 
1 1:-1 2:-0.666667 3:-0.780339 4:0.583045 5:0.146305 6:-0.564529 
1 1:-1 2:0.666667 3:-0.729993 4:-0.152249 5:0.147663 6:-0.124307 
1 1:-1 2:0.666667 3:-0.861599 4:0.143599 5:-0.18513 6:-0.315914 
-1 1:-1 2:0.666667 3:-0.39852 4:-0.404844 5:-0.358906 6:-0.863816 
1 1:-1 2:1 3:-0.893907 4:0.088235 5:-0.004284 6:-0.528108 
-1 1:-1 2:0.666667 3:-0.953775 4:0.553633 5:-0.902952 6:-0.727633 
0.9136349161049203 1:-1 2:-0.333333 3:-0.886076 4:0.524221 5:-0.256483 6:-0.403009 
-1 1:-1 2:-0.666667 3:-0.61764 4:0.197232 5:0.151769 6:-0.273159 
-1 1:-1 2:-0.666667 3:-0.782552 4:0.709343 5:0.08501 6:-0.290578 
0.07014615444524504 1:-1 2:1 3:-0.846524 4:0.813149 5:-0.080001 6:0.106888 
-1 1:1 2:0.166667 3:-0.499382 4:-0.034602 5:-0.414106 6:-0.235154 
-1 1:1 2:-0.166667 3:-0.830395 4:0.581315 5:-0.356546 6:0.14331 
1 1:1 2:-0.166667 3:-0.882199 4:-0.202422 5:-0.511139 6:-0.022961 
-1 1:1 2:-0.166667 3:-0.752452 4:0.141869 5:-0.301141 6:-0.087886 
0.6992078984907645 1:1 2:-1 3:-0.96409 4:0.631488 5:-0.728532 6:-0.357086 
1 1:1 2:-1 3:-0.913952 4:-0.029412 5:-0.7544 6:-0.2019 
-1 1:1 2:-1 3:-0.893648 4:0.254325 5:-0.565221 6:-0.311164 
1 1:1 2:-1 3:-0.860695 4:0.480969 5:-0.455716 6:0.125891 
1 1:1 2:0.166667 3:-0.871849 4:0.638408 5:-0.354358 6:0.441013 
1 1:1 2:-1 3:-0.596929 4:0.641869 5:0.04585 6:-0.059382 
1 1:1 2:-0.166667 3:-0.874837 4:0.408304 5:-0.473108 6:-0.043547 
0.03534632054377822 1:1 2:-1 3:0.865713 4:-0.463668 5:-0.274831 6:1 
-1 1:1 2:-1 3:-0.791973 4:0.288927 5:-0.17816 6:-0.029295 
-1 1:1 2:-0.666667 3:-0.847255 4:0.256055 5:-0.462484 6:-0.098971 
-1 1:1 2:-1 3:-0.642731 4:0.102076 5:-0.455762 6:0.350752 
-0.07143602339481581 1:1 2:-0.166667 3:-0.41563 4:-0.070934 5:-0.452333 6:-0.494854 
1 1:1 2:-1 3:-0.617232 4:0.655709 5:-0.408574 6:-0.141726 
-1 1:1 2:-1 3:-0.921264 4:0.543253 5:-0.388956 6:0.830562 
1 1:1 2:-1 3:-0.948213 4:0.32699 5:-0.83002 6:-0.545527 
0.6345603260055945 1:1 2:-0.166667 3:-1 4:0.598616 5:-0.846686 6:-0.461599 
1 1:1 2:-0.833333 3:-0.932148 4:0.576125 5:-1 6:-0.515439 
1 1:1 2:0.166667 3:-0.606428 4:0.096886 5:-0.436269 6:-0.339667 
-1 1:1 2:0.333333 3:-0.670729 4:0.403114 5:-0.379345 6:-0.195566 
-1 1:1 2:-0.666667 3:-0.964915 4:0.776817 5:-0.777654 6:-0.499604 
-1 1:1 2:-1 3:-0.916987 4:0.711073 5:-0.656764 6:-0.431512 
0.579368234774353 1:1 2:0.333333 3:0.773103 4:0.107266 5:-0.382943 6:0.14331 
1 1:1 2:0.666667 3:-0.836817 4:0.273356 5:-0.503926 6:-0.239905 
-1 1:1 2:-0.5 3:-0.643086 4:-0.024222 5:-0.317626 6:-0.577197 
-1 1:1 2:-0.166667 3:-0.880197 4:0.356401 5:-0.681675 6:-0.312747 
1 1:1 2:-0.333333 3:-0.698566 4:0.17128 5:-0.273992 6:-0.049881 
-1 1:1 2:0.333333 3:-0.851482 4:0.586505 5:-0.331441 6:-0.059382 
1 1:1 2:-0.166667 3:-0.507266 4:0.019031 5:-0.339848 6:-0.5962 
-1 1:1 2:0.166667 3:-0.522741 4:-0.102076 5:-0.534191 6:-0.702296 
-1 1:1 2:-0.5 3:-0.90445 4:0.33564 5:-0.46764 6:0.002375 
1 1:1 2:-0.166667 3:-0.730449 4:0.083045 5:-0.506916 6:-0.319082 
-1 1:1 2:-0.5 3:-0.955463 4:0.811419 5:-0.793579 6:-0.502771 
1 1:1 2:-0.5 3:-0.812321 4:0.373702 5:-0.40729 6:0.149644 
