svm_type nu_svr
kernel_type rbf
gamma 0.166667
nr_class 2
total_sv 63
rho -0.0895733
SV
-1 1:-1 2:-1 3:-0.661029 4:-0.667368 5:-0.181661 6:0.020408 
1 1:-1 2:-1 3:-0.729103 4:-0.84854 5:0.183391 6:0.142857 
1 1:-1 2:0.166667 3:-0.956386 4:-0.852123 5:0.785467 6:-0.542857 
-1 1:-1 2:0.166667 3:-0.832138 4:-0.707577 5:0.095156 6:-0.102041 
-1 1:-1 2:-1 3:-0.939254 4:-0.841967 5:0.435986 6:-0.714286 
1 1:-1 2:-1 3:-0.807677 4:-0.772861 5:0.525952 6:-0.061225 
-0.7140734515940494 1:-1 2:-0.666667 3:0.053178 4:1 5:-1 6:-0.885714 
0.6240961381238173 1:-1 2:-0.166667 3:-0.964053 4:-0.909095 5:0.269896 6:-0.159184 
-1 1:-1 2:0.333333 3:-0.881376 4:-0.816895 5:0.50173 6:0.061225 
-1 1:-1 2:-1 3:-0.937233 4:-0.954734 5:0.344291 6:-0.265306 
1 1:-1 2:-1 3:-0.729103 4:-0.84854 5:0.183391 6:0.142857 
0.2279232702033892 1:-1 2:0.666667 3:-0.761987 4:-0.729993 5:-0.152249 6:1 
-0.038703581062609 1:-1 2:-1 3:-0.539699 4:-0.629473 5:-0.186851 6:-0.387755 
-0.8686462288853275 1:-1 2:0.666667 3:-0.711404 4:-0.39852 5:-0.404844 6:-1 
1 1:-1 2:1 3:-0.971129 4:-0.893907 5:0.088235 6:-0.142857 
-1 1:-1 2:0.666667 3:-0.965421 4:-0.953775 5:0.553633 6:-1 
-1 1:-1 2:-0.666667 3:-0.681721 4:-0.61764 5:0.197232 6:-0.22449 
-1 1:-1 2:-0.666667 3:-0.859541 4:-0.782552 5:0.709343 6:-0.061225 
1 1:-1 2:-1 3:-0.866507 4:-0.791922 5:0.816609 6:-0.314286 
0.9989851597876883 1:-1 2:-0.666667 3:0.205108 4:-0.268055 5:0.121107 6:-0.338776 
1 1:-1 2:1 3:-0.906343 4:-0.846524 5:0.813149 6:-0.020408 
1 1:-1 2:-1 3:-0.967825 4:-0.903218 5:0.401384 6:-0.322449 
-1 1:1 2:0.166667 3:-0.091627 4:-0.499382 5:-0.034602 6:-0.387755 
-0.1937962979388038 1:1 2:-0.166667 3:-0.85762 4:-0.830395 5:0.581315 6:-0.142857 
1 1:1 2:-0.166667 3:-0.871561 4:-0.882199 5:-0.202422 6:0.183673 
-1 1:1 2:-0.166667 3:-0.770401 4:-0.752452 5:0.141869 6:-0.714286 
1 1:1 2:-0.666667 3:-0.408685 4:-0.518477 5:-0.133218 6:-0.755102 
1 1:1 2:-1 3:-0.803147 4:-0.913952 5:-0.029412 6:0.020408 
-1 1:1 2:-1 3:-0.900937 4:-0.893648 5:0.254325 6:-0.387755 
1 1:1 2:-1 3:-0.80325 4:-0.860695 5:0.480969 6:0.102041 
1 1:1 2:0.166667 3:-0.866667 4:-0.871849 5:0.638408 6:-0.061225 
1 1:1 2:-1 3:-0.30396 4:-0.596929 5:0.641869 6:0.102041 
1 1:1 2:-0.166667 3:-0.855848 4:-0.874837 5:0.408304 6:-0.061225 
0.1343740895477406 1:1 2:-1 3:0.88062 4:0.865713 5:-0.463668 6:0.142857 
-1 1:1 2:-1 3:-0.793693 4:-0.791973 5:0.288927 6:0.265306 
-1 1:1 2:-0.666667 3:-0.896052 4:-0.847255 5:0.256055 6:-0.306122 
-1 1:1 2:-1 3:-0.193826 4:-0.642731 5:0.102076 6:-0.55102 
-0.3637248271788595 1:1 2:-0.166667 3:-0.030539 4:-0.41563 5:-0.070934 6:-0.755102 
1 1:1 2:-1 3:-0.20107 4:-0.617232 5:0.655709 6:-0.632653 
-1 1:1 2:-1 3:-0.93417 4:-0.921264 5:0.543253 6:0.102041 
1 1:1 2:-1 3:-0.94202 4:-0.948213 5:0.32699 6:0.102041 
1 1:1 2:-0.666667 3:-0.8452 4:-0.702955 5:0.520761 6:-0.591837 
-1 1:1 2:-0.166667 3:-0.894677 4:-0.883378 5:0.359862 6:-0.265306 
1 1:1 2:-0.833333 3:-0.764964 4:-0.932148 5:0.576125 6:-0.714286 
1 1:1 2:0.166667 3:-0.359559 4:-0.606428 5:0.096886 6:-0.387755 
-1 1:1 2:0.333333 3:-0.52775 4:-0.670729 5:0.403114 6:-0.55102 
-1 1:1 2:-0.666667 3:-0.945255 4:-0.964915 5:0.776817 6:0.020408 
0.6126665666447259 1:1 2:-0.833333 3:-0.905818 4:-0.906396 5:0.750865 6:-0.387755 
0.1467640869884884 1:1 2:0.666667 3:-0.86635 4:-0.826784 5:0.214533 6:-0.22449 
-1 1:1 2:-1 3:-0.928728 4:-0.916987 5:0.711073 6:-0.387755 
0.2551906887041504 1:1 2:0.333333 3:1 4:0.773103 5:0.107266 6:0.265306 
1 1:1 2:0.666667 3:-0.848168 4:-0.836817 5:0.273356 6:0.020408 
-1 1:1 2:-0.5 3:-0.759482 4:-0.643086 5:-0.024222 6:-0.093878 
-1 1:1 2:-0.166667 3:-0.815739 4:-0.880197 5:0.356401 6:0.020408 
1 1:1 2:-0.333333 3:-0.82818 4:-0.698566 5:0.17128 6:-0.142857 
-0.8210556133403505 1:1 2:-1 3:-0.295346 4:-0.587619 5:-0.100346 6:-0.428571 
-1 1:1 2:0.333333 3:-0.687797 4:-0.851482 5:0.586505 6:0.591837 
1 1:1 2:-0.166667 3:-0.193455 4:-0.507266 5:0.019031 6:-0.673469 
-1 1:1 2:0.166667 3:-0.053296 4:-0.522741 5:-0.102076 6:-0.061225 
-1 1:1 2:-0.5 3:-0.833631 4:-0.90445 5:0.33564 6:-0.387755 
1 1:1 2:-0.166667 3:-0.509602 4:-0.730449 5:0.083045 6:-0.387755 
-1 1:1 2:-0.5 3:-0.883112 4:-0.955463 5:0.811419 6:-0.265306 
1 1:1 2:-0.5 3:-0.813018 4:-0.812321 5:0.373702 6:0.428571 
