svm_type nu_svr
kernel_type rbf
gamma 0.166667
nr_class 2
total_sv 60
rho -0.0106359
SV
1 1:-1 2:-1 3:-0.625535 4:-0.723575 5:-0.209721 6:-0.398258 
-1 1:-1 2:-1 3:-0.661029 4:-0.667368 5:-0.21464 6:-0.152811 
1 1:-1 2:-1 3:-0.729103 4:-0.84854 5:-0.500142 6:-0.431512 
1 1:-1 2:0.166667 3:-0.956386 4:-0.852123 5:-0.150229 6:-0.572447 
-1 1:-1 2:0.166667 3:-0.716794 4:-0.567191 5:-0.104703 6:-0.771971 
1 1:-1 2:-0.5 3:-0.965184 4:-0.866467 5:0.034352 6:-0.230404 
-1 1:-1 2:0.166667 3:-0.817005 4:-0.770809 5:-0.228314 6:-0.578781 
-1 1:-1 2:0.166667 3:-0.832138 4:-0.707577 5:-0.318813 6:-0.434679 
-1 1:-1 2:-1 3:-0.939254 4:-0.841967 5:-0.285251 6:-0.832146 
1 1:-1 2:0.166667 3:-0.956936 4:-0.888515 5:-0.186169 6:-0.2019 
1 1:-1 2:-1 3:-0.807677 4:-0.772861 5:-0.224879 6:-0.30483 
-0.5416546449352051 1:-1 2:-0.666667 3:0.053178 4:1 5:0.105986 6:-1 
-1 1:-1 2:0.333333 3:-0.881376 4:-0.816895 5:-0.201087 6:-0.444181 
-1 1:-1 2:-1 3:-0.937233 4:-0.954734 5:-0.729894 6:-0.700713 
1 1:-1 2:-1 3:-0.729103 4:-0.84854 5:-0.500142 6:-0.431512 
1 1:-1 2:-0.666667 3:-0.894918 4:-0.780339 5:0.146305 6:-0.564529 
1 1:-1 2:0.666667 3:-0.761987 4:-0.729993 5:0.147663 6:-0.124307 
1 1:-1 2:0.666667 3:-0.922927 4:-0.861599 5:-0.18513 6:-0.315914 
-1 1:-1 2:0.666667 3:-0.711404 4:-0.39852 5:-0.358906 6:-0.863816 
1 1:-1 2:1 3:-0.971129 4:-0.893907 5:-0.004284 6:-0.528108 
-1 1:-1 2:0.666667 3:-0.965421 4:-0.953775 5:-0.902952 6:-0.727633 
-1 1:-1 2:-0.333333 3:-0.876791 4:-0.798862 5:-0.090263 6:-0.311164 
0.6703468765079322 1:-1 2:-0.333333 3:-0.928249 4:-0.886076 5:-0.256483 6:-0.403009 
-1 1:-1 2:-0.666667 3:-0.681721 4:-0.61764 5:0.151769 6:-0.273159 
-1 1:1 2:0.166667 3:-0.091627 4:-0.499382 5:-0.414106 6:-0.235154 
-0.9834804726823818 1:1 2:-0.166667 3:-0.85762 4:-0.830395 5:-0.356546 6:0.14331 
1 1:1 2:-0.166667 3:-0.871561 4:-0.882199 5:-0.511139 6:-0.022961 
-1 1:1 2:-0.166667 3:-0.770401 4:-0.752452 5:-0.301141 6:-0.087886 
0.8140739803115867 1:1 2:-1 3:-0.983226 4:-0.96409 5:-0.728532 6:-0.357086 
1 1:1 2:-1 3:-0.803147 4:-0.913952 5:-0.7544 6:-0.2019 
-1 1:1 2:-1 3:-0.900937 4:-0.893648 5:-0.565221 6:-0.311164 
1 1:1 2:-1 3:-0.80325 4:-0.860695 5:-0.455716 6:0.125891 
1 1:1 2:0.166667 3:-0.866667 4:-0.871849 5:-0.354358 6:0.441013 
1 1:1 2:-1 3:-0.30396 4:-0.596929 5:0.04585 6:-0.059382 
1 1:1 2:-0.166667 3:-0.855848 4:-0.874837 5:-0.473108 6:-0.043547 
-1 1:1 2:-1 3:-0.793693 4:-0.791973 5:-0.17816 6:-0.029295 
-1 1:1 2:-0.666667 3:-0.896052 4:-0.847255 5:-0.462484 6:-0.098971 
-1 1:1 2:-1 3:-0.193826 4:-0.642731 5:-0.455762 6:0.350752 
1 1:1 2:-1 3:-0.20107 4:-0.617232 5:-0.408574 6:-0.141726 
-1 1:1 2:-1 3:-0.93417 4:-0.921264 5:-0.388956 6:0.830562 
1 1:1 2:-1 3:-0.94202 4:-0.948213 5:-0.83002 6:-0.545527 
1 1:1 2:-0.833333 3:-0.764964 4:-0.932148 5:-1 6:-0.515439 
1 1:1 2:0.166667 3:-0.359559 4:-0.606428 5:-0.436269 6:-0.339667 
-1 1:1 2:0.333333 3:-0.52775 4:-0.670729 5:-0.379345 6:-0.195566 
-1 1:1 2:-0.666667 3:-0.945255 4:-0.964915 5:-0.777654 6:-0.499604 
0.03270488058393463 1:1 2:0.666667 3:-0.91916 4:-0.910797 5:-0.615633 6:-0.509105 
-1 1:1 2:-1 3:-0.928728 4:-0.916987 5:-0.656764 6:-0.431512 
0.4828742625965463 1:1 2:0.333333 3:1 4:0.773103 5:-0.382943 6:0.14331 
1 1:1 2:0.666667 3:-0.848168 4:-0.836817 5:-0.503926 6:-0.239905 
-0.4205153151154626 1:1 2:-0.5 3:-0.759482 4:-0.643086 5:-0.317626 6:-0.577197 
-0.6908586817964497 1:1 2:-0.166667 3:-0.815739 4:-0.880197 5:-0.681675 6:-0.312747 
1 1:1 2:-0.333333 3:-0.82818 4:-0.698566 5:-0.273992 6:-0.049881 
-0.3634908854705005 1:1 2:-1 3:-0.295346 4:-0.587619 5:-0.531536 6:-0.379256 
-1 1:1 2:0.333333 3:-0.687797 4:-0.851482 5:-0.331441 6:-0.059382 
1 1:1 2:-0.166667 3:-0.193455 4:-0.507266 5:-0.339848 6:-0.5962 
-1 1:1 2:0.166667 3:-0.053296 4:-0.522741 5:-0.534191 6:-0.702296 
-1 1:1 2:-0.5 3:-0.833631 4:-0.90445 5:-0.46764 6:0.002375 
1 1:1 2:-0.166667 3:-0.509602 4:-0.730449 5:-0.506916 6:-0.319082 
-1 1:1 2:-0.5 3:-0.883112 4:-0.955463 5:-0.793579 6:-0.502771 
1 1:1 2:-0.5 3:-0.813018 4:-0.812321 5:-0.40729 6:0.149644 
