svm_type nu_svr
kernel_type rbf
gamma 0.166667
nr_class 2
total_sv 64
rho -0.0468474
SV
1 1:-1 2:1 3:-0.625535 4:-0.685075 5:-0.209721 6:0.183673 
-1 1:-1 2:1 3:-0.661029 4:-0.454166 5:-0.21464 6:0.020408 
1 1:-1 2:-1 3:-0.729103 4:-0.414079 5:-0.500142 6:0.142857 
1 1:-1 2:1 3:-0.956386 4:-0.440985 5:-0.150229 6:-0.542857 
-0.9764960804996957 1:-1 2:1 3:-0.716794 4:-0.488633 5:-0.104703 6:-0.942857 
0.01090172221887211 1:-1 2:1 3:-0.965184 4:-0.470295 5:0.034352 6:0.795918 
-1 1:-1 2:-1 3:-0.934617 4:-0.225448 5:-0.354214 6:0.428571 
-1 1:-1 2:1 3:-0.832138 4:-0.737549 5:-0.318813 6:-0.102041 
0.06859776868850254 1:-1 2:1 3:-0.957684 4:-0.674198 5:-0.624437 6:-0.346939 
1 1:-1 2:1 3:-0.807677 4:-0.442876 5:-0.224879 6:-0.061225 
-1 1:-1 2:1 3:0.053178 4:-0.573139 5:0.105986 6:-0.885714 
0.7426675843026271 1:-1 2:1 3:-0.964053 4:-0.627577 5:-0.216148 6:-0.159184 
-1 1:-1 2:1 3:-0.881376 4:-0.729312 5:-0.201087 6:0.061225 
1 1:-1 2:-1 3:-0.729103 4:-0.414079 5:-0.500142 6:0.142857 
-0.2076542247650016 1:-1 2:-1 3:-0.539699 4:-0.5121 5:-0.453851 6:-0.387755 
-1 1:-1 2:1 3:-0.711404 4:-0.686475 5:-0.358906 6:-1 
1 1:-1 2:-1 3:-0.971129 4:-0.20182 5:-0.004284 6:-0.142857 
-1 1:-1 2:-1 3:-0.965421 4:-0.991567 5:-0.902952 6:-1 
-1 1:-1 2:-1 3:-0.876791 4:-0.405977 5:-0.090263 6:-0.142857 
-1 1:-1 2:1 3:-0.681721 4:-0.627403 5:0.151769 6:-0.22449 
-0.10121345789083 1:-1 2:1 3:-0.667368 4:-0.700132 5:-0.2759 6:-0.020408 
0.2724466561536059 1:-1 2:1 3:0.406689 4:-0.978478 5:-0.911733 6:-0.55102 
0.3249205112519445 1:-1 2:1 3:-0.866507 4:1 5:0.460325 6:-0.314286 
1 1:-1 2:1 3:0.205108 4:-0.514096 5:0.258035 6:-0.338776 
1 1:-1 2:1 3:-0.906343 4:-0.352926 5:-0.080001 6:-0.020408 
1 1:-1 2:1 3:-0.967825 4:-0.222144 5:-0.199182 6:-0.322449 
-1 1:1 2:1 3:-0.091627 4:-0.801512 5:-0.414106 6:-0.387755 
-0.4611931905303441 1:1 2:1 3:-0.85762 4:-0.588211 5:-0.356546 6:-0.142857 
1 1:1 2:1 3:-0.871561 4:-0.6256 5:-0.511139 6:0.183673 
-1 1:1 2:1 3:-0.770401 4:-0.638231 5:-0.301141 6:-0.714286 
1 1:1 2:1 3:-0.803147 4:-0.693321 5:-0.7544 6:0.020408 
-1 1:1 2:-1 3:-0.900937 4:-0.826757 5:-0.565221 6:-0.387755 
1 1:1 2:1 3:-0.80325 4:-0.747894 5:-0.455716 6:0.102041 
1 1:1 2:-1 3:-0.866667 4:-0.903694 5:-0.354358 6:-0.061225 
1 1:1 2:-1 3:-0.30396 4:-0.584429 5:0.04585 6:0.102041 
1 1:1 2:1 3:-0.855848 4:-0.802744 5:-0.473108 6:-0.061225 
-1 1:1 2:1 3:-0.793693 4:-0.686792 5:-0.17816 6:0.265306 
-1 1:1 2:-1 3:-0.896052 4:-0.771454 5:-0.462484 6:-0.306122 
-0.5261052232752306 1:1 2:1 3:-0.030539 4:-0.689745 5:-0.452333 6:-0.755102 
1 1:1 2:1 3:-0.20107 4:-0.835969 5:-0.408574 6:-0.632653 
-1 1:1 2:1 3:-0.93417 4:-0.73218 5:-0.388956 6:0.102041 
1 1:1 2:-1 3:-0.94202 4:-0.892958 5:-0.83002 6:0.102041 
0.2459824460858109 1:1 2:-1 3:-0.8452 4:-0.726962 5:-0.256881 6:-0.591837 
-1 1:1 2:1 3:-0.894677 4:-0.798953 5:-0.571569 6:-0.265306 
1 1:1 2:1 3:-0.764964 4:-0.964458 5:-1 6:-0.714286 
1 1:1 2:1 3:-0.359559 4:-0.852637 5:-0.436269 6:-0.387755 
-1 1:1 2:1 3:-0.52775 4:-0.727626 5:-0.379345 6:-0.55102 
-1 1:1 2:1 3:-0.945255 4:-0.929719 5:-0.777654 6:0.020408 
1 1:1 2:1 3:-0.905818 4:-0.837528 5:-0.577106 6:-0.387755 
1 1:1 2:1 3:-0.86635 4:-0.772226 5:-0.470865 6:-0.22449 
-0.727337823038898 1:1 2:1 3:-0.928728 4:-1 5:-0.656764 6:-0.387755 
0.3344833112986365 1:1 2:1 3:1 4:-0.767455 5:-0.382943 6:0.265306 
1 1:1 2:1 3:-0.848168 4:-0.833465 5:-0.503926 6:0.020408 
-1 1:1 2:1 3:-0.759482 4:-0.788365 5:-0.317626 6:-0.093878 
-1 1:1 2:1 3:-0.815739 4:-0.891488 5:-0.681675 6:0.020408 
1 1:1 2:1 3:-0.82818 4:-0.839894 5:-0.273992 6:-0.142857 
-1 1:1 2:-1 3:-0.295346 4:-0.787466 5:-0.531536 6:-0.428571 
-1 1:1 2:1 3:-0.687797 4:-0.645361 5:-0.331441 6:0.591837 
1 1:1 2:1 3:-0.193455 4:-0.659248 5:-0.339848 6:-0.673469 
-1 1:1 2:1 3:-0.053296 4:-0.674094 5:-0.534191 6:-0.061225 
-1 1:1 2:1 3:-0.833631 4:-0.775561 5:-0.46764 6:-0.387755 
1 1:1 2:1 3:-0.509602 4:-0.812061 5:-0.506916 6:-0.387755 
-1 1:1 2:1 3:-0.883112 4:-0.941977 5:-0.793579 6:-0.265306 
1 1:1 2:1 3:-0.813018 4:-0.790394 5:-0.40729 6:0.428571 
