svm_type nu_svr
kernel_type rbf
gamma 0.166667
nr_class 2
total_sv 60
rho -0.212975
SV
1 1:-1 2:-1 3:1 4:-0.625535 5:-0.723575 6:-0.685075 
-0.8432562216620958 1:-1 2:-1 3:1 4:-0.661029 5:-0.667368 6:-0.454166 
1 1:-1 2:-1 3:-1 4:-0.729103 5:-0.84854 6:-0.414079 
-1 1:-1 2:0.166667 3:1 4:-0.716794 5:-0.567191 6:-0.488633 
1 1:-1 2:-0.5 3:1 4:-0.965184 5:-0.866467 6:-0.470295 
-1 1:-1 2:0.166667 3:1 4:-0.817005 5:-0.770809 6:-0.724984 
-1 1:-1 2:0.166667 3:1 4:-0.832138 5:-0.707577 6:-0.737549 
-1 1:-1 2:-1 3:1 4:-0.939254 5:-0.841967 6:-0.563308 
1 1:-1 2:0.166667 3:1 4:-0.956936 5:-0.888515 6:-0.639346 
1 1:-1 2:-1 3:1 4:-0.807677 5:-0.772861 6:-0.442876 
-1 1:-1 2:-0.666667 3:1 4:0.053178 5:1 6:-0.573139 
-1 1:-1 2:0.333333 3:1 4:-0.881376 5:-0.816895 6:-0.729312 
-1 1:-1 2:-1 3:1 4:-0.937233 5:-0.954734 6:-0.702391 
1 1:-1 2:-1 3:-1 4:-0.729103 5:-0.84854 6:-0.414079 
0.1448231241171561 1:-1 2:-0.666667 3:1 4:-0.894918 5:-0.780339 6:-0.122828 
1 1:-1 2:0.666667 3:1 4:-0.761987 5:-0.729993 6:-0.348415 
0.187378726795618 1:-1 2:0.666667 3:1 4:-0.922927 5:-0.861599 6:-0.321028 
-1 1:-1 2:-1 3:-1 4:-0.539699 5:-0.629473 6:-0.5121 
-1 1:-1 2:0.666667 3:1 4:-0.711404 5:-0.39852 6:-0.686475 
0.9903572962991439 1:-1 2:1 3:-1 4:-0.971129 5:-0.893907 6:-0.20182 
-1 1:-1 2:0.666667 3:-1 4:-0.965421 5:-0.953775 6:-0.991567 
-0.7829909813082894 1:-1 2:-0.333333 3:-1 4:-0.876791 5:-0.798862 6:-0.405977 
-0.5555499807075538 1:-1 2:-0.666667 3:1 4:-0.681721 5:-0.61764 6:-0.627403 
1 1:-1 2:-0.666667 3:1 4:-0.920273 5:-0.759542 6:-0.650517 
1 1:-1 2:-0.166667 3:1 4:-0.974102 5:-0.895037 6:-0.526912 
1 1:-1 2:-0.666667 3:1 4:0.205108 5:-0.268055 6:-0.514096 
1 1:-1 2:1 3:1 4:-0.906343 5:-0.846524 6:-0.352926 
-1 1:1 2:0.166667 3:1 4:-0.091627 5:-0.499382 6:-0.801512 
1 1:1 2:-0.166667 3:1 4:-0.871561 5:-0.882199 6:-0.6256 
-1 1:1 2:-0.166667 3:1 4:-0.770401 5:-0.752452 6:-0.638231 
1 1:1 2:-1 3:1 4:-0.803147 5:-0.913952 6:-0.693321 
-1 1:1 2:-1 3:-1 4:-0.900937 5:-0.893648 6:-0.826757 
1 1:1 2:-1 3:1 4:-0.80325 5:-0.860695 6:-0.747894 
1 1:1 2:0.166667 3:-1 4:-0.866667 5:-0.871849 6:-0.903694 
1 1:1 2:-1 3:-1 4:-0.30396 5:-0.596929 6:-0.584429 
1 1:1 2:-0.166667 3:1 4:-0.855848 5:-0.874837 6:-0.802744 
-1 1:1 2:-0.666667 3:-1 4:-0.896052 5:-0.847255 6:-0.771454 
-1 1:1 2:-1 3:1 4:-0.193826 5:-0.642731 6:-0.659505 
-0.4550211930243573 1:1 2:-0.166667 3:1 4:-0.030539 5:-0.41563 6:-0.689745 
1 1:1 2:-1 3:1 4:-0.20107 5:-0.617232 6:-0.835969 
-0.3631816232977038 1:1 2:-1 3:1 4:-0.93417 5:-0.921264 6:-0.73218 
1 1:1 2:-1 3:-1 4:-0.94202 5:-0.948213 6:-0.892958 
-1 1:1 2:-0.166667 3:1 4:-0.894677 5:-0.883378 6:-0.798953 
1 1:1 2:-0.833333 3:1 4:-0.764964 5:-0.932148 6:-0.964458 
1 1:1 2:0.166667 3:1 4:-0.359559 5:-0.606428 6:-0.852637 
-1 1:1 2:0.333333 3:1 4:-0.52775 5:-0.670729 6:-0.727626 
-1 1:1 2:-0.666667 3:1 4:-0.945255 5:-0.964915 6:-0.929719 
-1 1:1 2:-1 3:1 4:-0.928728 5:-0.916987 6:-1 
0.6774408527880822 1:1 2:0.333333 3:1 4:1 5:0.773103 6:-0.767455 
1 1:1 2:0.666667 3:1 4:-0.848168 5:-0.836817 6:-0.833465 
-1 1:1 2:-0.5 3:1 4:-0.759482 5:-0.643086 6:-0.788365 
1 1:1 2:-0.333333 3:1 4:-0.82818 5:-0.698566 6:-0.839894 
-1 1:1 2:-1 3:-1 4:-0.295346 5:-0.587619 6:-0.787466 
-1 1:1 2:0.333333 3:1 4:-0.687797 5:-0.851482 6:-0.645361 
1 1:1 2:-0.166667 3:1 4:-0.193455 5:-0.507266 6:-0.659248 
-1 1:1 2:0.166667 3:1 4:-0.053296 5:-0.522741 6:-0.674094 
-1 1:1 2:-0.5 3:1 4:-0.833631 5:-0.90445 6:-0.775561 
1 1:1 2:-0.166667 3:1 4:-0.509602 5:-0.730449 6:-0.812061 
-1 1:1 2:-0.5 3:1 4:-0.883112 5:-0.955463 6:-0.941977 
1 1:1 2:-0.5 3:1 4:-0.813018 5:-0.812321 6:-0.790394 
