svm_type nu_svr
kernel_type rbf
gamma 0.166667
nr_class 2
total_sv 64
rho 0.0179252
SV
1 1:-1 2:-0.625535 3:0.285467 4:-0.209721 5:-0.246048 6:0.183673 
-0.3623359329370797 1:-1 2:-0.661029 3:-0.181661 4:-0.21464 5:-0.321107 6:0.020408 
1 1:-1 2:-0.729103 3:0.183391 4:-0.500142 5:-0.277424 6:0.142857 
1 1:-1 2:-0.956386 3:0.785467 4:-0.150229 5:-0.299265 6:-0.542857 
-1 1:-1 2:-0.832138 3:0.095156 4:-0.318813 5:-0.519142 6:-0.102041 
1 1:-1 2:-0.807677 3:0.525952 4:-0.224879 5:-0.247118 6:-0.061225 
-0.62623924788215 1:-1 2:0.053178 3:-1 4:0.105986 5:-1 6:-0.885714 
-1 1:-1 2:-0.881376 3:0.50173 4:-0.201087 5:-0.248237 6:0.061225 
-1 1:-1 2:-0.937233 3:0.344291 4:-0.729894 5:-0.171474 6:-0.265306 
1 1:-1 2:-0.729103 3:0.183391 4:-0.500142 5:-0.277424 6:0.142857 
1 1:-1 2:-0.894918 3:0.583045 4:0.146305 5:-0.34003 6:0.265306 
0.1833669845275905 1:-1 2:-0.848144 3:0.416955 4:-0.146762 5:-0.420538 6:0.020408 
1 1:-1 2:-0.971129 3:0.088235 4:-0.004284 5:0.196673 6:-0.142857 
-1 1:-1 2:-0.965421 3:0.553633 4:-0.902952 5:-0.439704 6:-1 
-1 1:-1 2:-0.876791 3:0.096886 4:-0.090263 5:-0.161405 6:-0.142857 
-1 1:-1 2:-0.681721 3:0.197232 4:0.151769 5:-0.387313 6:-0.22449 
-1 1:-1 2:-0.859541 3:0.709343 4:0.08501 5:-0.196916 6:-0.061225 
-0.01142481918077024 1:-1 2:-0.974102 3:0.790657 4:-0.006591 5:0.810527 6:0.918367 
0.7508327267080275 1:-1 2:-0.866507 3:0.816609 4:0.460325 5:0.776135 6:-0.314286 
0.03926974474617817 1:-1 2:0.205108 3:0.121107 4:0.258035 5:0.004719 6:-0.338776 
0.2013195561835945 1:-1 2:-0.967825 3:0.401384 4:-0.199182 5:1 6:-0.322449 
-1 1:1 2:-0.091627 3:-0.034602 4:-0.414106 5:-0.27397 6:-0.387755 
0.1533191869455744 1:1 2:-0.770592 3:0.429066 4:-0.412775 5:-0.055164 6:-0.469388 
-1 1:1 2:-0.85762 3:0.581315 4:-0.356546 5:0.020771 6:-0.142857 
1 1:1 2:-0.871561 3:-0.202422 4:-0.511139 5:0.139806 6:0.183673 
-1 1:1 2:-0.770401 3:0.141869 4:-0.301141 5:-0.179452 6:-0.714286 
0.07288910857603061 1:1 2:-0.983226 3:0.631488 4:-0.728532 5:0.005254 6:0.591837 
1 1:1 2:-0.408685 3:-0.133218 4:-0.273413 5:-0.454298 6:-0.755102 
1 1:1 2:-0.803147 3:-0.029412 4:-0.7544 5:0.170356 6:0.020408 
-1 1:1 2:-0.900937 3:0.254325 4:-0.565221 5:-0.201343 6:-0.387755 
1 1:1 2:-0.80325 3:0.480969 4:-0.455716 5:0.34003 6:0.102041 
1 1:1 2:-0.866667 3:0.638408 4:-0.354358 5:0.301552 6:-0.061225 
1 1:1 2:-0.30396 3:0.641869 4:0.04585 5:-0.000146 6:0.102041 
1 1:1 2:-0.855848 3:0.408304 4:-0.473108 5:0.330204 6:-0.061225 
0.1762970105270428 1:1 2:0.88062 3:-0.463668 4:-0.274831 5:0.362018 6:0.142857 
-1 1:1 2:-0.793693 3:0.288927 4:-0.17816 5:-0.023642 6:0.265306 
-1 1:1 2:-0.896052 3:0.256055 4:-0.462484 5:-0.106679 6:-0.306122 
-1 1:1 2:-0.193826 3:0.102076 4:-0.455762 5:0.347084 6:-0.55102 
-1 1:1 2:-0.030539 3:-0.070934 4:-0.452333 5:-0.574257 6:-0.755102 
1 1:1 2:-0.20107 3:0.655709 4:-0.408574 5:-0.166707 6:-0.632653 
-1 1:1 2:-0.93417 3:0.543253 4:-0.388956 5:0.823466 6:0.102041 
1 1:1 2:-0.94202 3:0.32699 4:-0.83002 5:-0.185241 6:0.102041 
1 1:1 2:-0.8452 3:0.520761 4:-0.256881 5:-0.38133 6:-0.591837 
-1 1:1 2:-0.894677 3:0.359862 4:-0.571569 5:-0.34256 6:-0.265306 
1 1:1 2:-0.764964 3:0.576125 4:-1 5:-0.255777 6:-0.714286 
-1 1:1 2:-0.704392 3:0.49654 4:-0.417013 5:-0.039986 6:-0.22449 
1 1:1 2:-0.359559 3:0.096886 4:-0.436269 5:-0.412074 6:-0.387755 
-1 1:1 2:-0.52775 3:0.403114 4:-0.379345 5:-0.316729 6:-0.55102 
-1 1:1 2:-0.945255 3:0.776817 4:-0.777654 5:0.042565 6:0.020408 
1 1:1 2:-0.905818 3:0.750865 4:-0.577106 5:0.153184 6:-0.387755 
1 1:1 2:-0.86635 3:0.214533 4:-0.470865 5:-0.32135 6:-0.22449 
-1 1:1 2:-0.928728 3:0.711073 4:-0.656764 5:-0.053996 6:-0.387755 
0.4227056817859615 1:1 2:1 3:0.107266 4:-0.382943 5:-0.172399 6:0.265306 
1 1:1 2:-0.848168 3:0.273356 4:-0.503926 5:-0.170745 6:0.020408 
-1 1:1 2:-0.759482 3:-0.024222 4:-0.317626 5:-0.587294 6:-0.093878 
-1 1:1 2:-0.815739 3:0.356401 4:-0.681675 5:0.011626 6:0.020408 
1 1:1 2:-0.82818 3:0.17128 4:-0.273992 5:-0.276889 6:-0.142857 
-1 1:1 2:-0.687797 3:0.586505 4:-0.331441 5:0.493117 6:0.591837 
1 1:1 2:-0.193455 3:0.019031 4:-0.339848 5:-0.599601 6:-0.673469 
-1 1:1 2:-0.053296 3:-0.102076 4:-0.534191 5:-0.562242 6:-0.061225 
-1 1:1 2:-0.833631 3:0.33564 4:-0.46764 5:0.077638 6:-0.387755 
1 1:1 2:-0.509602 3:0.083045 4:-0.506916 5:-0.253247 6:-0.387755 
-1 1:1 2:-0.883112 3:0.811419 4:-0.793579 5:-0.17989 6:-0.265306 
1 1:1 2:-0.813018 3:0.373702 4:-0.40729 5:0.14939 6:0.428571 
