svm_type nu_svr
kernel_type rbf
gamma 0.166667
nr_class 2
total_sv 64
rho -0.124459
SV
1 1:-1 2:-1 3:1 4:-0.398258 5:-0.246048 6:0.183673 
-1 1:-1 2:-1 3:1 4:-0.152811 5:-0.321107 6:0.020408 
1 1:-1 2:-1 3:-1 4:-0.431512 5:-0.277424 6:0.142857 
1 1:-1 2:0.166667 3:1 4:-0.572447 5:-0.299265 6:-0.542857 
-0.3183237119089195 1:-1 2:-1 3:1 4:-0.179731 5:0.031133 6:0.714286 
-1 1:-1 2:0.166667 3:1 4:-0.434679 5:-0.519142 6:-0.102041 
0.4546161397000494 1:-1 2:-1 3:1 4:-0.605701 5:-0.514521 6:-0.22449 
1 1:-1 2:-1 3:1 4:-0.30483 5:-0.247118 6:-0.061225 
-1 1:-1 2:-0.666667 3:1 4:-1 5:-1 6:-0.885714 
-1 1:-1 2:0.333333 3:1 4:-0.444181 5:-0.248237 6:0.061225 
-1 1:-1 2:-1 3:1 4:-0.700713 5:-0.171474 6:-0.265306 
1 1:-1 2:-1 3:-1 4:-0.431512 5:-0.277424 6:0.142857 
1 1:-1 2:-0.666667 3:1 4:-0.564529 5:-0.34003 6:0.265306 
1 1:-1 2:-0.666667 3:1 4:-0.529691 5:-0.420538 6:0.020408 
-0.6663958965897475 1:-1 2:-1 3:-1 4:-0.626287 5:-0.552756 6:-0.387755 
-0.2107629868402966 1:-1 2:0.666667 3:1 4:-0.863816 5:-0.869631 6:-1 
1 1:-1 2:1 3:-1 4:-0.528108 5:0.196673 6:-0.142857 
-1 1:-1 2:0.666667 3:-1 4:-0.727633 5:-0.439704 6:-1 
-1 1:-1 2:-0.333333 3:-1 4:-0.311164 5:-0.161405 6:-0.142857 
-1 1:-1 2:-0.666667 3:1 4:-0.273159 5:-0.387313 6:-0.22449 
-0.3183971670196698 1:-1 2:-0.666667 3:-1 4:-0.290578 5:-0.196916 6:-0.061225 
0.7450694222901698 1:-1 2:-1 3:1 4:0.353919 5:0.776135 6:-0.314286 
0.7604830241692699 1:-1 2:1 3:1 4:0.106888 5:0.429294 6:-0.020408 
-1 1:1 2:0.166667 3:1 4:-0.235154 5:-0.27397 6:-0.387755 
-1 1:1 2:-0.166667 3:1 4:0.14331 5:0.020771 6:-0.142857 
1 1:1 2:-0.166667 3:1 4:-0.022961 5:0.139806 6:0.183673 
-1 1:1 2:-0.166667 3:1 4:-0.087886 5:-0.179452 6:-0.714286 
0.006682389199580901 1:1 2:-0.666667 3:-1 4:-0.371338 5:-0.454298 6:-0.755102 
1 1:1 2:-1 3:1 4:-0.2019 5:0.170356 6:0.020408 
-1 1:1 2:-1 3:-1 4:-0.311164 5:-0.201343 6:-0.387755 
1 1:1 2:-1 3:1 4:0.125891 5:0.34003 6:0.102041 
0.2794923063214588 1:1 2:0.166667 3:-1 4:0.441013 5:0.301552 6:-0.061225 
1 1:1 2:-1 3:-1 4:-0.059382 5:-0.000146 6:0.102041 
1 1:1 2:-0.166667 3:1 4:-0.043547 5:0.330204 6:-0.061225 
0.2211946139049519 1:1 2:-1 3:1 4:1 5:0.362018 6:0.142857 
-1 1:1 2:-1 3:1 4:-0.029295 5:-0.023642 6:0.265306 
-1 1:1 2:-0.666667 3:-1 4:-0.098971 5:-0.106679 6:-0.306122 
-1 1:1 2:-1 3:1 4:0.350752 5:0.347084 6:-0.55102 
1 1:1 2:-1 3:1 4:-0.141726 5:-0.166707 6:-0.632653 
-1 1:1 2:-1 3:1 4:0.830562 5:0.823466 6:0.102041 
1 1:1 2:-1 3:-1 4:-0.545527 5:-0.185241 6:0.102041 
1 1:1 2:-0.666667 3:-1 4:-0.092637 5:-0.38133 6:-0.591837 
-0.4248533708694768 1:1 2:-0.166667 3:1 4:-0.555028 5:-0.34256 6:-0.265306 
1 1:1 2:-0.833333 3:1 4:-0.515439 5:-0.255777 6:-0.714286 
-0.06126686677188969 1:1 2:-0.166667 3:1 4:-0.295329 5:-0.039986 6:-0.22449 
1 1:1 2:0.166667 3:1 4:-0.339667 5:-0.412074 6:-0.387755 
-1 1:1 2:0.333333 3:1 4:-0.195566 5:-0.316729 6:-0.55102 
-1 1:1 2:-0.666667 3:1 4:-0.499604 5:0.042565 6:0.020408 
1 1:1 2:-0.833333 3:1 4:-0.157561 5:0.153184 6:-0.387755 
0.5982888884994367 1:1 2:0.666667 3:1 4:-0.35867 5:-0.32135 6:-0.22449 
-1 1:1 2:-1 3:1 4:-0.431512 5:-0.053996 6:-0.387755 
1 1:1 2:0.333333 3:1 4:0.14331 5:-0.172399 6:0.265306 
1 1:1 2:0.666667 3:1 4:-0.239905 5:-0.170745 6:0.020408 
-1 1:1 2:-0.5 3:1 4:-0.577197 5:-0.587294 6:-0.093878 
-1 1:1 2:-0.166667 3:1 4:-0.312747 5:0.011626 6:0.020408 
1 1:1 2:-0.333333 3:1 4:-0.049881 5:-0.276889 6:-0.142857 
-1 1:1 2:-1 3:-1 4:-0.379256 5:-0.452255 6:-0.428571 
-1 1:1 2:0.333333 3:1 4:-0.059382 5:0.493117 6:0.591837 
1 1:1 2:-0.166667 3:1 4:-0.5962 5:-0.599601 6:-0.673469 
-1 1:1 2:0.166667 3:1 4:-0.702296 5:-0.562242 6:-0.061225 
-1 1:1 2:-0.5 3:1 4:0.002375 5:0.077638 6:-0.387755 
1 1:1 2:-0.166667 3:1 4:-0.319082 5:-0.253247 6:-0.387755 
-1 1:1 2:-0.5 3:1 4:-0.502771 5:-0.17989 6:-0.265306 
0.9341732159150823 1:1 2:-0.5 3:1 4:0.149644 5:0.14939 6:0.428571 
