svm_type nu_svr
kernel_type rbf
gamma 0.166667
nr_class 2
total_sv 64
rho -0.328889
SV
1 1:-1 2:1 3:-0.625535 4:-0.209721 5:-0.398258 6:0.183673 
-1 1:-1 2:1 3:-0.661029 4:-0.21464 5:-0.152811 6:0.020408 
1 1:-1 2:-1 3:-0.729103 4:-0.500142 5:-0.431512 6:0.142857 
1 1:0.166667 2:1 3:-0.956386 4:-0.150229 5:-0.572447 6:-0.542857 
0.1778260324279171 1:-0.5 2:1 3:-0.965184 4:0.034352 5:-0.230404 6:0.795918 
-0.2682123058974196 1:1 2:-1 3:-0.934617 4:-0.354214 5:-0.353919 6:0.428571 
1 1:0.333333 2:1 3:-0.933121 4:-0.219523 5:-0.391924 6:0.183673 
-1 1:0.166667 2:1 3:-0.832138 4:-0.318813 5:-0.434679 6:-0.102041 
1 1:-1 2:1 3:-0.957684 4:-0.624437 5:-0.125891 6:-0.346939 
1 1:-1 2:1 3:-0.807677 4:-0.224879 5:-0.30483 6:-0.061225 
-1 1:-0.666667 2:1 3:0.053178 4:0.105986 5:-1 6:-0.885714 
0.3499505135575078 1:-0.166667 2:1 3:-0.964053 4:-0.216148 5:0.113222 6:-0.159184 
-1 1:0.333333 2:1 3:-0.881376 4:-0.201087 5:-0.444181 6:0.061225 
1 1:-1 2:-1 3:-0.729103 4:-0.500142 5:-0.431512 6:0.142857 
1 1:-0.666667 2:1 3:-0.894918 4:0.146305 5:-0.564529 6:0.265306 
1 1:-0.666667 2:1 3:-0.848144 4:-0.146762 5:-0.529691 6:0.020408 
0.3626077483053333 1:0.666667 2:1 3:-0.922927 4:-0.18513 5:-0.315914 6:0.428571 
-0.5861439935438993 1:0.666667 2:1 3:-0.711404 4:-0.358906 5:-0.863816 6:-1 
1 1:1 2:-1 3:-0.971129 4:-0.004284 5:-0.528108 6:-0.142857 
-1 1:0.666667 2:-1 3:-0.965421 4:-0.902952 5:-0.727633 6:-1 
-0.7440639048664892 1:-0.333333 2:-1 3:-0.876791 4:-0.090263 5:-0.311164 6:-0.142857 
-1 1:-0.666667 2:1 3:-0.681721 4:0.151769 5:-0.273159 6:-0.22449 
0.7294715502134763 1:-0.333333 2:1 3:0.406689 4:-0.911733 5:0.233571 6:-0.55102 
1 1:-1 2:1 3:-0.866507 4:0.460325 5:0.353919 6:-0.314286 
0.3054569991507921 1:-0.666667 2:1 3:0.205108 4:0.258035 5:0.053048 6:-0.338776 
1 1:1 2:1 3:-0.906343 4:-0.080001 5:0.106888 6:-0.020408 
1 1:-1 2:1 3:-0.967825 4:-0.199182 5:0.646873 6:-0.322449 
-0.1798232049258217 1:0.166667 2:1 3:-0.792999 4:-0.321951 5:-0.140143 6:0.183673 
-1 1:0.166667 2:1 3:-0.091627 4:-0.414106 5:-0.235154 6:-0.387755 
-1 1:-0.166667 2:1 3:-0.85762 4:-0.356546 5:0.14331 6:-0.142857 
1 1:-0.166667 2:1 3:-0.871561 4:-0.511139 5:-0.022961 6:0.183673 
-1 1:-0.166667 2:1 3:-0.770401 4:-0.301141 5:-0.087886 6:-0.714286 
-0.4152635916961679 1:-1 2:1 3:-0.826473 4:-0.511794 5:-0.374505 6:-0.55102 
0.2046037508796451 1:-0.666667 2:-1 3:-0.408685 4:-0.273413 5:-0.371338 6:-0.755102 
1 1:-1 2:1 3:-0.803147 4:-0.7544 5:-0.2019 6:0.020408 
-1 1:-1 2:-1 3:-0.900937 4:-0.565221 5:-0.311164 6:-0.387755 
0.9134163398831308 1:-1 2:1 3:-0.80325 4:-0.455716 5:0.125891 6:0.102041 
0.8037535655053928 1:0.166667 2:-1 3:-0.866667 4:-0.354358 5:0.441013 6:-0.061225 
1 1:-0.166667 2:1 3:-0.855848 4:-0.473108 5:-0.043547 6:-0.061225 
-1 1:-1 2:1 3:-0.793693 4:-0.17816 5:-0.029295 6:0.265306 
-1 1:-1 2:1 3:-0.834994 4:-0.458311 5:0.045131 6:-0.22449 
-1 1:-0.666667 2:-1 3:-0.896052 4:-0.462484 5:-0.098971 6:-0.306122 
-1 1:-1 2:1 3:-0.193826 4:-0.455762 5:0.350752 6:-0.55102 
1 1:-1 2:1 3:-0.20107 4:-0.408574 5:-0.141726 6:-0.632653 
-1 1:-1 2:1 3:-0.93417 4:-0.388956 5:0.830562 6:0.102041 
1 1:-1 2:-1 3:-0.94202 4:-0.83002 5:-0.545527 6:0.102041 
-0.8064929990702021 1:-0.166667 2:1 3:-0.894677 4:-0.571569 5:-0.555028 6:-0.265306 
1 1:-0.833333 2:1 3:-0.764964 4:-1 5:-0.515439 6:-0.714286 
1 1:0.166667 2:1 3:-0.359559 4:-0.436269 5:-0.339667 6:-0.387755 
-1 1:0.333333 2:1 3:-0.52775 4:-0.379345 5:-0.195566 6:-0.55102 
-1 1:-0.666667 2:1 3:-0.945255 4:-0.777654 5:-0.499604 6:0.020408 
-1 1:-1 2:1 3:-0.928728 4:-0.656764 5:-0.431512 6:-0.387755 
0.1529135000768047 1:0.333333 2:1 3:1 4:-0.382943 5:0.14331 6:0.265306 
1 1:0.666667 2:1 3:-0.848168 4:-0.503926 5:-0.239905 6:0.020408 
-1 1:-0.5 2:1 3:-0.759482 4:-0.317626 5:-0.577197 6:-0.093878 
-1 1:-0.166667 2:1 3:-0.815739 4:-0.681675 5:-0.312747 6:0.020408 
1 1:-0.333333 2:1 3:-0.82818 4:-0.273992 5:-0.049881 6:-0.142857 
-1 1:-1 2:-1 3:-0.295346 4:-0.531536 5:-0.379256 6:-0.428571 
-1 1:0.333333 2:1 3:-0.687797 4:-0.331441 5:-0.059382 6:0.591837 
1 1:-0.166667 2:1 3:-0.193455 4:-0.339848 5:-0.5962 6:-0.673469 
-1 1:0.166667 2:1 3:-0.053296 4:-0.534191 5:-0.702296 6:-0.061225 
-1 1:-0.5 2:1 3:-0.833631 4:-0.46764 5:0.002375 6:-0.387755 
1 1:-0.166667 2:1 3:-0.509602 4:-0.506916 5:-0.319082 6:-0.387755 
-1 1:-0.5 2:1 3:-0.883112 4:-0.793579 5:-0.502771 6:-0.265306 
