svm_type nu_svr
kernel_type rbf
gamma 0.166667
nr_class 2
total_sv 63
rho -0.0930474
SV
1 1:-1 2:-0.723575 3:0.285467 4:-0.685075 5:-0.398258 6:0.183673 
-1 1:-1 2:-0.667368 3:-0.181661 4:-0.454166 5:-0.152811 6:0.020408 
1 1:-1 2:-0.84854 3:0.183391 4:-0.414079 5:-0.431512 6:0.142857 
1 1:0.166667 2:-0.852123 3:0.785467 4:-0.440985 5:-0.572447 6:-0.542857 
1 1:-0.5 2:-0.866467 3:0.456747 4:-0.470295 5:-0.230404 6:0.795918 
-0.4558727369421842 1:1 2:-0.878479 3:-0.089965 4:-0.225448 5:-0.353919 6:0.428571 
-0.1861217324204543 1:-1 2:-0.838917 3:-0.015571 4:-0.174405 5:-0.179731 6:0.714286 
-1 1:0.166667 2:-0.707577 3:0.095156 4:-0.737549 5:-0.434679 6:-0.102041 
0.5806919076209908 1:0.166667 2:-0.888515 3:0.316609 4:-0.639346 5:-0.2019 6:0.877551 
1 1:-1 2:-0.772861 3:0.525952 4:-0.442876 5:-0.30483 6:-0.061225 
-0.8520535751815911 1:-0.666667 2:1 3:-1 4:-0.573139 5:-1 6:-0.885714 
1 1:-0.166667 2:-0.909095 3:0.269896 4:-0.627577 5:0.113222 6:-0.159184 
-1 1:0.333333 2:-0.816895 3:0.50173 4:-0.729312 5:-0.444181 6:0.061225 
1 1:-1 2:-0.84854 3:0.183391 4:-0.414079 5:-0.431512 6:0.142857 
0.3972976926789282 1:-0.666667 2:-0.780339 3:0.583045 4:-0.122828 5:-0.564529 6:0.265306 
-0.4110430646041032 1:0.666667 2:-0.39852 3:-0.404844 4:-0.686475 5:-0.863816 6:-1 
1 1:1 2:-0.893907 3:0.088235 4:-0.20182 5:-0.528108 6:-0.142857 
-1 1:0.666667 2:-0.953775 3:0.553633 4:-0.991567 5:-0.727633 6:-1 
-0.6255014844504653 1:-0.333333 2:-0.798862 3:0.096886 4:-0.405977 5:-0.311164 6:-0.142857 
-1 1:-0.666667 2:-0.61764 3:0.197232 4:-0.627403 5:-0.273159 6:-0.22449 
0.7466950058324253 1:-0.333333 2:-0.193184 3:0.380623 4:-0.978478 5:0.233571 6:-0.55102 
1 1:-0.666667 2:-0.268055 3:0.121107 4:-0.514096 5:0.053048 6:-0.338776 
0.9638824531439064 1:1 2:-0.846524 3:0.813149 4:-0.352926 5:0.106888 6:-0.020408 
1 1:-1 2:-0.903218 3:0.401384 4:-0.222144 5:0.646873 6:-0.322449 
-0.05768773089812342 1:0.166667 2:-0.811905 3:0.264706 4:-0.797906 5:-0.140143 6:0.183673 
-1 1:0.166667 2:-0.499382 3:-0.034602 4:-0.801512 5:-0.235154 6:-0.387755 
-1 1:-0.166667 2:-0.830395 3:0.581315 4:-0.588211 5:0.14331 6:-0.142857 
1 1:-0.166667 2:-0.882199 3:-0.202422 4:-0.6256 5:-0.022961 6:0.183673 
-1 1:-0.166667 2:-0.752452 3:0.141869 4:-0.638231 5:-0.087886 6:-0.714286 
1 1:-0.666667 2:-0.518477 3:-0.133218 4:-0.580446 5:-0.371338 6:-0.755102 
1 1:-1 2:-0.913952 3:-0.029412 4:-0.693321 5:-0.2019 6:0.020408 
-1 1:-1 2:-0.893648 3:0.254325 4:-0.826757 5:-0.311164 6:-0.387755 
1 1:-1 2:-0.860695 3:0.480969 4:-0.747894 5:0.125891 6:0.102041 
1 1:0.166667 2:-0.871849 3:0.638408 4:-0.903694 5:0.441013 6:-0.061225 
1 1:-0.166667 2:-0.874837 3:0.408304 4:-0.802744 5:-0.043547 6:-0.061225 
-1 1:-1 2:-0.791973 3:0.288927 4:-0.686792 5:-0.029295 6:0.265306 
-1 1:-1 2:-0.821023 3:0.318339 4:-0.810245 5:0.045131 6:-0.22449 
-1 1:-0.666667 2:-0.847255 3:0.256055 4:-0.771454 5:-0.098971 6:-0.306122 
-1 1:-1 2:-0.642731 3:0.102076 4:-0.659505 5:0.350752 6:-0.55102 
1 1:-1 2:-0.617232 3:0.655709 4:-0.835969 5:-0.141726 6:-0.632653 
-1 1:-1 2:-0.921264 3:0.543253 4:-0.73218 5:0.830562 6:0.102041 
1 1:-1 2:-0.948213 3:0.32699 4:-0.892958 5:-0.545527 6:0.102041 
0.3091880402108481 1:-0.666667 2:-0.702955 3:0.520761 4:-0.726962 5:-0.092637 6:-0.591837 
-1 1:-0.166667 2:-0.883378 3:0.359862 4:-0.798953 5:-0.555028 6:-0.265306 
1 1:-0.833333 2:-0.932148 3:0.576125 4:-0.964458 5:-0.515439 6:-0.714286 
-1 1:-0.166667 2:-0.83618 3:0.49654 4:-0.739317 5:-0.295329 6:-0.22449 
1 1:0.166667 2:-0.606428 3:0.096886 4:-0.852637 5:-0.339667 6:-0.387755 
-1 1:0.333333 2:-0.670729 3:0.403114 4:-0.727626 5:-0.195566 6:-0.55102 
-1 1:-0.666667 2:-0.964915 3:0.776817 4:-0.929719 5:-0.499604 6:0.020408 
0.8921451819727243 1:0.666667 2:-0.826784 3:0.214533 4:-0.772226 5:-0.35867 6:-0.22449 
-1 1:-1 2:-0.916987 3:0.711073 4:-1 5:-0.431512 6:-0.387755 
0.1100997185401768 1:0.333333 2:0.773103 3:0.107266 4:-0.767455 5:0.14331 6:0.265306 
1 1:0.666667 2:-0.836817 3:0.273356 4:-0.833465 5:-0.239905 6:0.020408 
-1 1:-0.5 2:-0.643086 3:-0.024222 4:-0.788365 5:-0.577197 6:-0.093878 
-1 1:-0.166667 2:-0.880197 3:0.356401 4:-0.891488 5:-0.312747 6:0.020408 
1 1:-0.333333 2:-0.698566 3:0.17128 4:-0.839894 5:-0.049881 6:-0.142857 
-0.4117196755030786 1:-1 2:-0.587619 3:-0.100346 4:-0.787466 5:-0.379256 6:-0.428571 
-1 1:0.333333 2:-0.851482 3:0.586505 4:-0.645361 5:-0.059382 6:0.591837 
1 1:-0.166667 2:-0.507266 3:0.019031 4:-0.659248 5:-0.5962 6:-0.673469 
-1 1:0.166667 2:-0.522741 3:-0.102076 4:-0.674094 5:-0.702296 6:-0.061225 
-1 1:-0.5 2:-0.90445 3:0.33564 4:-0.775561 5:0.002375 6:-0.387755 
1 1:-0.166667 2:-0.730449 3:0.083045 4:-0.812061 5:-0.319082 6:-0.387755 
-1 1:-0.5 2:-0.955463 3:0.811419 4:-0.941977 5:-0.502771 6:-0.265306 
