svm_type nu_svr
kernel_type rbf
gamma 0.166667
nr_class 2
total_sv 62
rho -0.173311
SV
1 1:-1 2:0.285467 3:-0.685075 4:-0.209721 5:-0.246048 6:0.183673 
-1 1:-1 2:-0.181661 3:-0.454166 4:-0.21464 5:-0.321107 6:0.020408 
1 1:-1 2:0.183391 3:-0.414079 4:-0.500142 5:-0.277424 6:0.142857 
1 1:0.166667 2:0.785467 3:-0.440985 4:-0.150229 5:-0.299265 6:-0.542857 
1 1:-0.5 2:0.456747 3:-0.470295 4:0.034352 5:0.082356 6:0.795918 
-0.1383489098353684 1:1 2:-0.089965 3:-0.225448 4:-0.354214 5:-0.17201 6:0.428571 
-1 1:0.166667 2:0.095156 3:-0.737549 4:-0.318813 5:-0.519142 6:-0.102041 
-0.3756566033137807 1:-1 2:0.435986 3:-0.563308 4:-0.285251 5:-0.535098 6:-0.714286 
0.5154891103418673 1:-1 2:0.655709 3:-0.674198 4:-0.624437 5:0.068736 6:-0.346939 
1 1:-1 2:0.525952 3:-0.442876 4:-0.224879 5:-0.247118 6:-0.061225 
-1 1:-0.666667 2:-1 3:-0.573139 4:0.105986 5:-1 6:-0.885714 
-1 1:0.333333 2:0.50173 3:-0.729312 4:-0.201087 5:-0.248237 6:0.061225 
-0.5205244973364989 1:-1 2:0.344291 3:-0.702391 4:-0.729894 5:-0.171474 6:-0.265306 
0.1959574325294295 1:-1 2:-0.062284 3:-0.791651 4:-0.324231 5:-0.642847 6:-0.795918 
1 1:-1 2:0.183391 3:-0.414079 4:-0.500142 5:-0.277424 6:0.142857 
0.3417076209660468 1:-0.666667 2:0.583045 3:-0.122828 4:0.146305 5:-0.34003 6:0.265306 
-0.4543456553601842 1:0.666667 2:-0.404844 3:-0.686475 4:-0.358906 5:-0.869631 6:-1 
1 1:1 2:0.088235 3:-0.20182 4:-0.004284 5:0.196673 6:-0.142857 
-1 1:0.666667 2:0.553633 3:-0.991567 4:-0.902952 5:-0.439704 6:-1 
-0.5111243341541677 1:-0.333333 2:0.096886 3:-0.405977 4:-0.090263 5:-0.161405 6:-0.142857 
-1 1:-0.666667 2:0.197232 3:-0.627403 4:0.151769 5:-0.387313 6:-0.22449 
1 1:-0.333333 2:0.380623 3:-0.978478 4:-0.911733 5:0.024323 6:-0.55102 
1 1:-0.666667 2:0.121107 3:-0.514096 4:0.258035 5:0.004719 6:-0.338776 
0.3482918333442284 1:1 2:0.813149 3:-0.352926 4:-0.080001 5:0.429294 6:-0.020408 
0.598554002818428 1:-1 2:0.401384 3:-0.222144 4:-0.199182 5:1 6:-0.322449 
-1 1:0.166667 2:-0.034602 3:-0.801512 4:-0.414106 5:-0.27397 6:-0.387755 
-1 1:-0.166667 2:0.581315 3:-0.588211 4:-0.356546 5:0.020771 6:-0.142857 
1 1:-0.166667 2:-0.202422 3:-0.6256 4:-0.511139 5:0.139806 6:0.183673 
-1 1:-0.166667 2:0.141869 3:-0.638231 4:-0.301141 5:-0.179452 6:-0.714286 
1 1:-0.666667 2:-0.133218 3:-0.580446 4:-0.273413 5:-0.454298 6:-0.755102 
1 1:-1 2:-0.029412 3:-0.693321 4:-0.7544 5:0.170356 6:0.020408 
-1 1:-1 2:0.254325 3:-0.826757 4:-0.565221 5:-0.201343 6:-0.387755 
1 1:-1 2:0.480969 3:-0.747894 4:-0.455716 5:0.34003 6:0.102041 
1 1:0.166667 2:0.638408 3:-0.903694 4:-0.354358 5:0.301552 6:-0.061225 
1 1:-0.166667 2:0.408304 3:-0.802744 4:-0.473108 5:0.330204 6:-0.061225 
-1 1:-1 2:0.288927 3:-0.686792 4:-0.17816 5:-0.023642 6:0.265306 
-1 1:-1 2:0.318339 3:-0.810245 4:-0.458311 5:-0.108722 6:-0.22449 
-1 1:-0.666667 2:0.256055 3:-0.771454 4:-0.462484 5:-0.106679 6:-0.306122 
-1 1:-1 2:0.102076 3:-0.659505 4:-0.455762 5:0.347084 6:-0.55102 
1 1:-1 2:0.655709 3:-0.835969 4:-0.408574 5:-0.166707 6:-0.632653 
-1 1:-1 2:0.543253 3:-0.73218 4:-0.388956 5:0.823466 6:0.102041 
1 1:-1 2:0.32699 3:-0.892958 4:-0.83002 5:-0.185241 6:0.102041 
1 1:-0.666667 2:0.520761 3:-0.726962 4:-0.256881 5:-0.38133 6:-0.591837 
-1 1:-0.166667 2:0.359862 3:-0.798953 4:-0.571569 5:-0.34256 6:-0.265306 
1 1:-0.833333 2:0.576125 3:-0.964458 4:-1 5:-0.255777 6:-0.714286 
-1 1:-0.166667 2:0.49654 3:-0.739317 4:-0.417013 5:-0.039986 6:-0.22449 
1 1:0.166667 2:0.096886 3:-0.852637 4:-0.436269 5:-0.412074 6:-0.387755 
-1 1:0.333333 2:0.403114 3:-0.727626 4:-0.379345 5:-0.316729 6:-0.55102 
-1 1:-0.666667 2:0.776817 3:-0.929719 4:-0.777654 5:0.042565 6:0.020408 
1 1:0.666667 2:0.214533 3:-0.772226 4:-0.470865 5:-0.32135 6:-0.22449 
-1 1:-1 2:0.711073 3:-1 4:-0.656764 5:-0.053996 6:-0.387755 
1 1:0.333333 2:0.107266 3:-0.767455 4:-0.382943 5:-0.172399 6:0.265306 
1 1:0.666667 2:0.273356 3:-0.833465 4:-0.503926 5:-0.170745 6:0.020408 
-1 1:-0.5 2:-0.024222 3:-0.788365 4:-0.317626 5:-0.587294 6:-0.093878 
-1 1:-0.166667 2:0.356401 3:-0.891488 4:-0.681675 5:0.011626 6:0.020408 
1 1:-0.333333 2:0.17128 3:-0.839894 4:-0.273992 5:-0.276889 6:-0.142857 
-1 1:0.333333 2:0.586505 3:-0.645361 4:-0.331441 5:0.493117 6:0.591837 
1 1:-0.166667 2:0.019031 3:-0.659248 4:-0.339848 5:-0.599601 6:-0.673469 
-1 1:0.166667 2:-0.102076 3:-0.674094 4:-0.534191 5:-0.562242 6:-0.061225 
-1 1:-0.5 2:0.33564 3:-0.775561 4:-0.46764 5:0.077638 6:-0.387755 
1 1:-0.166667 2:0.083045 3:-0.812061 4:-0.506916 5:-0.253247 6:-0.387755 
-1 1:-0.5 2:0.811419 3:-0.941977 4:-0.793579 5:-0.17989 6:-0.265306 
