svm_type nu_svr
kernel_type rbf
gamma 0.166667
nr_class 2
total_sv 63
rho -0.202917
SV
1 1:-1 2:1 3:-0.625535 4:0.285467 5:-0.685075 6:0.183673 
-0.7960591934894937 1:-1 2:1 3:-0.661029 4:-0.181661 5:-0.454166 6:0.020408 
1 1:-1 2:-1 3:-0.729103 4:0.183391 5:-0.414079 6:0.142857 
1 1:0.166667 2:1 3:-0.956386 4:0.785467 5:-0.440985 6:-0.542857 
1 1:-0.5 2:1 3:-0.965184 4:0.456747 5:-0.470295 6:0.795918 
-0.4910062983170332 1:1 2:-1 3:-0.934617 4:-0.089965 5:-0.225448 6:0.428571 
-1 1:0.166667 2:1 3:-0.832138 4:0.095156 5:-0.737549 6:-0.102041 
-0.7877203384434266 1:-1 2:1 3:-0.939254 4:0.435986 5:-0.563308 6:-0.714286 
0.4916891766591897 1:0.166667 2:1 3:-0.956936 4:0.316609 5:-0.639346 6:0.877551 
0.6508159029946115 1:-1 2:1 3:-0.957684 4:0.655709 5:-0.674198 6:-0.346939 
1 1:-1 2:1 3:-0.807677 4:0.525952 5:-0.442876 6:-0.061225 
-1 1:-0.666667 2:1 3:0.053178 4:-1 5:-0.573139 6:-0.885714 
1 1:-0.166667 2:1 3:-0.964053 4:0.269896 5:-0.627577 6:-0.159184 
0.3135901419152238 1:-0.166667 2:1 3:-0.922482 4:0.66436 5:-0.507869 6:0.020408 
-1 1:0.333333 2:1 3:-0.881376 4:0.50173 5:-0.729312 6:0.061225 
1 1:-1 2:-1 3:-0.729103 4:0.183391 5:-0.414079 6:0.142857 
-0.7094742654676757 1:0.666667 2:1 3:-0.711404 4:-0.404844 5:-0.686475 6:-1 
1 1:1 2:-1 3:-0.971129 4:0.088235 5:-0.20182 6:-0.142857 
-1 1:0.666667 2:-1 3:-0.965421 4:0.553633 5:-0.991567 6:-1 
-0.6340998693584283 1:-0.333333 2:-1 3:-0.876791 4:0.096886 5:-0.405977 6:-0.142857 
-0.5816400349239426 1:-0.666667 2:-1 3:-0.859541 4:0.709343 5:-0.493746 6:-0.061225 
0.5963908339401837 1:-0.333333 2:1 3:0.406689 4:0.380623 5:-0.978478 6:-0.55102 
1 1:-0.666667 2:1 3:0.205108 4:0.121107 5:-0.514096 6:-0.338776 
1 1:1 2:1 3:-0.906343 4:0.813149 5:-0.352926 6:-0.020408 
1 1:-1 2:1 3:-0.967825 4:0.401384 5:-0.222144 6:-0.322449 
-1 1:0.166667 2:1 3:-0.091627 4:-0.034602 5:-0.801512 6:-0.387755 
-1 1:-0.166667 2:1 3:-0.85762 4:0.581315 5:-0.588211 6:-0.142857 
1 1:-0.166667 2:1 3:-0.871561 4:-0.202422 5:-0.6256 6:0.183673 
-1 1:-0.166667 2:1 3:-0.770401 4:0.141869 5:-0.638231 6:-0.714286 
0.2838934353076175 1:-0.666667 2:-1 3:-0.408685 4:-0.133218 5:-0.580446 6:-0.755102 
1 1:-1 2:1 3:-0.803147 4:-0.029412 5:-0.693321 6:0.020408 
-1 1:-1 2:-1 3:-0.900937 4:0.254325 5:-0.826757 6:-0.387755 
1 1:-1 2:1 3:-0.80325 4:0.480969 5:-0.747894 6:0.102041 
1 1:0.166667 2:-1 3:-0.866667 4:0.638408 5:-0.903694 6:-0.061225 
1 1:-0.166667 2:1 3:-0.855848 4:0.408304 5:-0.802744 6:-0.061225 
-1 1:-1 2:1 3:-0.793693 4:0.288927 5:-0.686792 6:0.265306 
-1 1:-0.666667 2:-1 3:-0.896052 4:0.256055 5:-0.771454 6:-0.306122 
-1 1:-1 2:1 3:-0.193826 4:0.102076 5:-0.659505 6:-0.55102 
1 1:-1 2:1 3:-0.20107 4:0.655709 5:-0.835969 6:-0.632653 
-1 1:-1 2:1 3:-0.93417 4:0.543253 5:-0.73218 6:0.102041 
1 1:-1 2:-1 3:-0.94202 4:0.32699 5:-0.892958 6:0.102041 
0.4267777486470749 1:-0.666667 2:-1 3:-0.8452 4:0.520761 5:-0.726962 6:-0.591837 
-1 1:-0.166667 2:1 3:-0.894677 4:0.359862 5:-0.798953 6:-0.265306 
1 1:-0.833333 2:1 3:-0.764964 4:0.576125 5:-0.964458 6:-0.714286 
-1 1:-0.166667 2:1 3:-0.704392 4:0.49654 5:-0.739317 6:-0.22449 
1 1:0.166667 2:1 3:-0.359559 4:0.096886 5:-0.852637 6:-0.387755 
-1 1:0.333333 2:1 3:-0.52775 4:0.403114 5:-0.727626 6:-0.55102 
-1 1:-0.666667 2:1 3:-0.945255 4:0.776817 5:-0.929719 6:0.020408 
1 1:0.666667 2:1 3:-0.86635 4:0.214533 5:-0.772226 6:-0.22449 
-1 1:-1 2:1 3:-0.928728 4:0.711073 5:-1 6:-0.387755 
0.1598414722206442 1:0.333333 2:1 3:1 4:0.107266 5:-0.767455 6:0.265306 
1 1:0.666667 2:1 3:-0.848168 4:0.273356 5:-0.833465 6:0.020408 
-1 1:-0.5 2:1 3:-0.759482 4:-0.024222 5:-0.788365 6:-0.093878 
-1 1:-0.166667 2:1 3:-0.815739 4:0.356401 5:-0.891488 6:0.020408 
1 1:-0.333333 2:1 3:-0.82818 4:0.17128 5:-0.839894 6:-0.142857 
-1 1:-1 2:-1 3:-0.295346 4:-0.100346 5:-0.787466 6:-0.428571 
-1 1:0.333333 2:1 3:-0.687797 4:0.586505 5:-0.645361 6:0.591837 
1 1:-0.166667 2:1 3:-0.193455 4:0.019031 5:-0.659248 6:-0.673469 
-1 1:0.166667 2:1 3:-0.053296 4:-0.102076 5:-0.674094 6:-0.061225 
-1 1:-0.5 2:1 3:-0.833631 4:0.33564 5:-0.775561 6:-0.387755 
1 1:-0.166667 2:1 3:-0.509602 4:0.083045 5:-0.812061 6:-0.387755 
0.07700128831545504 1:-1 2:1 3:-0.876371 4:-0.190311 5:-0.860939 6:-0.714286 
-1 1:-0.5 2:1 3:-0.883112 4:0.811419 5:-0.941977 6:-0.265306 
