svm_type nu_svr
kernel_type rbf
gamma 0.142857
nr_class 2
total_sv 63
rho -0.159448
SV
1 1:-1 2:-1 3:1 4:0.285467 5:-0.685075 6:-0.398258 7:0.183673 
-1 1:-1 2:-1 3:1 4:-0.181661 5:-0.454166 6:-0.152811 7:0.020408 
1 1:-1 2:-1 3:-1 4:0.183391 5:-0.414079 6:-0.431512 7:0.142857 
1 1:-1 2:0.166667 3:1 4:0.785467 5:-0.440985 6:-0.572447 7:-0.542857 
0.4501427125190897 1:-1 2:-0.5 3:1 4:0.456747 5:-0.470295 6:-0.230404 7:0.795918 
-1 1:-1 2:0.166667 3:1 4:0.095156 5:-0.737549 6:-0.434679 7:-0.102041 
-0.2481544534045976 1:-1 2:-1 3:1 4:0.435986 5:-0.563308 6:-0.832146 7:-0.714286 
1 1:-1 2:-1 3:1 4:0.525952 5:-0.442876 6:-0.30483 7:-0.061225 
-0.266608823282288 1:-1 2:-0.666667 3:1 4:-1 5:-0.573139 6:-1 7:-0.885714 
-1 1:-1 2:0.333333 3:1 4:0.50173 5:-0.729312 6:-0.444181 7:0.061225 
-1 1:-1 2:-1 3:1 4:0.344291 5:-0.702391 6:-0.700713 7:-0.265306 
1 1:-1 2:-1 3:-1 4:0.183391 5:-0.414079 6:-0.431512 7:0.142857 
0.8636395710086862 1:-1 2:-0.666667 3:1 4:0.583045 5:-0.122828 6:-0.564529 7:0.265306 
-0.08162913403912192 1:-1 2:-1 3:-1 4:-0.186851 5:-0.5121 6:-0.626287 7:-0.387755 
-0.5951108277965786 1:-1 2:0.666667 3:1 4:-0.404844 5:-0.686475 6:-0.863816 7:-1 
1 1:-1 2:1 3:-1 4:0.088235 5:-0.20182 6:-0.528108 7:-0.142857 
-1 1:-1 2:0.666667 3:-1 4:0.553633 5:-0.991567 6:-0.727633 7:-1 
-1 1:-1 2:-0.333333 3:-1 4:0.096886 5:-0.405977 6:-0.311164 7:-0.142857 
-1 1:-1 2:-0.666667 3:1 4:0.197232 5:-0.627403 6:-0.273159 7:-0.22449 
-1 1:-1 2:-0.666667 3:-1 4:0.709343 5:-0.493746 6:-0.290578 7:-0.061225 
1 1:-1 2:-0.666667 3:1 4:0.121107 5:-0.514096 6:0.053048 7:-0.338776 
0.9606410177233985 1:-1 2:1 3:1 4:0.813149 5:-0.352926 6:0.106888 7:-0.020408 
0.2633824580484594 1:-1 2:-1 3:1 4:0.401384 5:-0.222144 6:0.646873 7:-0.322449 
-1 1:1 2:0.166667 3:1 4:-0.034602 5:-0.801512 6:-0.235154 7:-0.387755 
-1 1:1 2:-0.166667 3:1 4:0.581315 5:-0.588211 6:0.14331 7:-0.142857 
1 1:1 2:-0.166667 3:1 4:-0.202422 5:-0.6256 6:-0.022961 7:0.183673 
-1 1:1 2:-0.166667 3:1 4:0.141869 5:-0.638231 6:-0.087886 7:-0.714286 
0.04170286980818507 1:1 2:-1 3:1 4:0.631488 5:-0.86243 6:-0.357086 7:0.591837 
0.4664149289062751 1:1 2:-0.666667 3:-1 4:-0.133218 5:-0.580446 6:-0.371338 7:-0.755102 
1 1:1 2:-1 3:1 4:-0.029412 5:-0.693321 6:-0.2019 7:0.020408 
-1 1:1 2:-1 3:-1 4:0.254325 5:-0.826757 6:-0.311164 7:-0.387755 
0.5392312522284387 1:1 2:-0.5 3:1 4:0.240484 5:-0.763711 6:-0.192399 7:-0.346939 
1 1:1 2:-1 3:1 4:0.480969 5:-0.747894 6:0.125891 7:0.102041 
0.9758298400248413 1:1 2:0.166667 3:-1 4:0.638408 5:-0.903694 6:0.441013 7:-0.061225 
1 1:1 2:-1 3:-1 4:0.641869 5:-0.584429 6:-0.059382 7:0.102041 
1 1:1 2:-0.166667 3:1 4:0.408304 5:-0.802744 6:-0.043547 7:-0.061225 
-1 1:1 2:-1 3:1 4:0.288927 5:-0.686792 6:-0.029295 7:0.265306 
-1 1:1 2:-0.666667 3:-1 4:0.256055 5:-0.771454 6:-0.098971 7:-0.306122 
-1 1:1 2:-1 3:1 4:0.102076 5:-0.659505 6:0.350752 7:-0.55102 
1 1:1 2:-1 3:1 4:0.655709 5:-0.835969 6:-0.141726 7:-0.632653 
-1 1:1 2:-1 3:1 4:0.543253 5:-0.73218 6:0.830562 7:0.102041 
1 1:1 2:-1 3:-1 4:0.32699 5:-0.892958 6:-0.545527 7:0.102041 
-0.8183898309715925 1:1 2:-0.166667 3:1 4:0.359862 5:-0.798953 6:-0.555028 7:-0.265306 
1 1:1 2:-0.833333 3:1 4:0.576125 5:-0.964458 6:-0.515439 7:-0.714286 
1 1:1 2:0.166667 3:1 4:0.096886 5:-0.852637 6:-0.339667 7:-0.387755 
-1 1:1 2:0.333333 3:1 4:0.403114 5:-0.727626 6:-0.195566 7:-0.55102 
-1 1:1 2:-0.666667 3:1 4:0.776817 5:-0.929719 6:-0.499604 7:0.020408 
1 1:1 2:-0.833333 3:1 4:0.750865 5:-0.837528 6:-0.157561 7:-0.387755 
0.4390153497326261 1:1 2:0.666667 3:1 4:0.214533 5:-0.772226 6:-0.35867 7:-0.22449 
-0.9901069305058208 1:1 2:-1 3:1 4:0.711073 5:-1 6:-0.431512 7:-0.387755 
1 1:1 2:0.333333 3:1 4:0.107266 5:-0.767455 6:0.14331 7:0.265306 
1 1:1 2:0.666667 3:1 4:0.273356 5:-0.833465 6:-0.239905 7:0.020408 
-1 1:1 2:-0.5 3:1 4:-0.024222 5:-0.788365 6:-0.577197 7:-0.093878 
-1 1:1 2:-0.166667 3:1 4:0.356401 5:-0.891488 6:-0.312747 7:0.020408 
1 1:1 2:-0.333333 3:1 4:0.17128 5:-0.839894 6:-0.049881 7:-0.142857 
-1 1:1 2:-1 3:-1 4:-0.100346 5:-0.787466 6:-0.379256 7:-0.428571 
-1 1:1 2:0.333333 3:1 4:0.586505 5:-0.645361 6:-0.059382 7:0.591837 
1 1:1 2:-0.166667 3:1 4:0.019031 5:-0.659248 6:-0.5962 7:-0.673469 
-1 1:1 2:0.166667 3:1 4:-0.102076 5:-0.674094 6:-0.702296 7:-0.061225 
-1 1:1 2:-0.5 3:1 4:0.33564 5:-0.775561 6:0.002375 7:-0.387755 
1 1:1 2:-0.166667 3:1 4:0.083045 5:-0.812061 6:-0.319082 7:-0.387755 
-1 1:1 2:-0.5 3:1 4:0.811419 5:-0.941977 6:-0.502771 7:-0.265306 
1 1:1 2:-0.5 3:1 4:0.373702 5:-0.790394 6:0.149644 7:0.428571 
