svm_type nu_svr
kernel_type rbf
gamma 0.142857
nr_class 2
total_sv 61
rho 0.0836616
SV
1 1:-1 2:1 3:-0.625535 4:-0.723575 5:-0.398258 6:-0.246048 7:0.183673 
-1 1:-1 2:1 3:-0.661029 4:-0.667368 5:-0.152811 6:-0.321107 7:0.020408 
1 1:-1 2:-1 3:-0.729103 4:-0.84854 5:-0.431512 6:-0.277424 7:0.142857 
1 1:-1 2:1 3:-0.956386 4:-0.852123 5:-0.572447 6:-0.299265 7:-0.542857 
0.1430247622339322 1:-1 2:1 3:-0.965184 4:-0.866467 5:-0.230404 6:0.082356 7:0.795918 
-1 1:-1 2:-1 3:-0.934617 4:-0.878479 5:-0.353919 6:-0.17201 7:0.428571 
-1 1:-1 2:1 3:-0.832138 4:-0.707577 5:-0.434679 6:-0.519142 7:-0.102041 
1 1:-1 2:1 3:-0.724138 4:-0.678864 5:-0.605701 6:-0.514521 7:-0.22449 
1 1:-1 2:1 3:-0.807677 4:-0.772861 5:-0.30483 6:-0.247118 7:-0.061225 
-0.3955419190505868 1:-1 2:1 3:0.053178 4:1 5:-1 6:-1 7:-0.885714 
-1 1:-1 2:1 3:-0.881376 4:-0.816895 5:-0.444181 6:-0.248237 7:0.061225 
-1 1:-1 2:1 3:-0.937233 4:-0.954734 5:-0.700713 6:-0.171474 7:-0.265306 
1 1:-1 2:-1 3:-0.729103 4:-0.84854 5:-0.431512 6:-0.277424 7:0.142857 
1 1:-1 2:1 3:-0.894918 4:-0.780339 5:-0.564529 6:-0.34003 7:0.265306 
0.839050856909477 1:-1 2:1 3:-0.848144 4:-0.767471 5:-0.529691 6:-0.420538 7:0.020408 
-1 1:-1 2:1 3:-0.711404 4:-0.39852 5:-0.863816 6:-0.869631 7:-1 
1 1:-1 2:-1 3:-0.971129 4:-0.893907 5:-0.528108 6:0.196673 7:-0.142857 
-1 1:-1 2:-1 3:-0.965421 4:-0.953775 5:-0.727633 6:-0.439704 7:-1 
-1 1:-1 2:-1 3:-0.876791 4:-0.798862 5:-0.311164 6:-0.161405 7:-0.142857 
-1 1:-1 2:1 3:-0.681721 4:-0.61764 5:-0.273159 6:-0.387313 7:-0.22449 
-0.3431753766603158 1:-1 2:1 3:-0.667368 4:-0.683175 5:-0.323832 6:-0.368682 7:-0.020408 
1 1:-1 2:1 3:-0.866507 4:-0.791922 5:0.353919 6:0.776135 7:-0.314286 
0.08138465033958042 1:-1 2:1 3:0.205108 4:-0.268055 5:0.053048 6:0.004719 7:-0.338776 
-1 1:1 2:1 3:-0.091627 4:-0.499382 5:-0.235154 6:-0.27397 7:-0.387755 
-1 1:1 2:1 3:-0.85762 4:-0.830395 5:0.14331 6:0.020771 7:-0.142857 
1 1:1 2:1 3:-0.871561 4:-0.882199 5:-0.022961 6:0.139806 7:0.183673 
-1 1:1 2:1 3:-0.770401 4:-0.752452 5:-0.087886 6:-0.179452 7:-0.714286 
1 1:1 2:1 3:-0.803147 4:-0.913952 5:-0.2019 6:0.170356 7:0.020408 
-1 1:1 2:-1 3:-0.900937 4:-0.893648 5:-0.311164 6:-0.201343 7:-0.387755 
1 1:1 2:1 3:-0.80325 4:-0.860695 5:0.125891 6:0.34003 7:0.102041 
0.9792890356115896 1:1 2:-1 3:-0.866667 4:-0.871849 5:0.441013 6:0.301552 7:-0.061225 
1 1:1 2:-1 3:-0.30396 4:-0.596929 5:-0.059382 6:-0.000146 7:0.102041 
1 1:1 2:1 3:-0.855848 4:-0.874837 5:-0.043547 6:0.330204 7:-0.061225 
-1 1:1 2:1 3:-0.793693 4:-0.791973 5:-0.029295 6:-0.023642 7:0.265306 
-1 1:1 2:-1 3:-0.896052 4:-0.847255 5:-0.098971 6:-0.106679 7:-0.306122 
-0.9985620323355611 1:1 2:1 3:-0.193826 4:-0.642731 5:0.350752 6:0.347084 7:-0.55102 
1 1:1 2:1 3:-0.20107 4:-0.617232 5:-0.141726 6:-0.166707 7:-0.632653 
-1 1:1 2:1 3:-0.93417 4:-0.921264 5:0.830562 6:0.823466 7:0.102041 
1 1:1 2:-1 3:-0.94202 4:-0.948213 5:-0.545527 6:-0.185241 7:0.102041 
0.3846888770955731 1:1 2:-1 3:-0.8452 4:-0.702955 5:-0.092637 6:-0.38133 7:-0.591837 
-0.2627206719535364 1:1 2:1 3:-0.894677 4:-0.883378 5:-0.555028 6:-0.34256 7:-0.265306 
1 1:1 2:1 3:-0.764964 4:-0.932148 5:-0.515439 6:-0.255777 7:-0.714286 
1 1:1 2:1 3:-0.359559 4:-0.606428 5:-0.339667 6:-0.412074 7:-0.387755 
-1 1:1 2:1 3:-0.52775 4:-0.670729 5:-0.195566 6:-0.316729 7:-0.55102 
-1 1:1 2:1 3:-0.945255 4:-0.964915 5:-0.499604 6:0.042565 7:0.020408 
1 1:1 2:1 3:-0.905818 4:-0.906396 5:-0.157561 6:0.153184 7:-0.387755 
1 1:1 2:1 3:-0.86635 4:-0.826784 5:-0.35867 6:-0.32135 7:-0.22449 
-1 1:1 2:1 3:-0.928728 4:-0.916987 5:-0.431512 6:-0.053996 7:-0.387755 
0.5725618178098479 1:1 2:1 3:1 4:0.773103 5:0.14331 6:-0.172399 7:0.265306 
1 1:1 2:1 3:-0.848168 4:-0.836817 5:-0.239905 6:-0.170745 7:0.020408 
-1 1:1 2:1 3:-0.759482 4:-0.643086 5:-0.577197 6:-0.587294 7:-0.093878 
-1 1:1 2:1 3:-0.815739 4:-0.880197 5:-0.312747 6:0.011626 7:0.020408 
1 1:1 2:1 3:-0.82818 4:-0.698566 5:-0.049881 6:-0.276889 7:-0.142857 
-1 1:1 2:-1 3:-0.295346 4:-0.587619 5:-0.379256 6:-0.452255 7:-0.428571 
-1 1:1 2:1 3:-0.687797 4:-0.851482 5:-0.059382 6:0.493117 7:0.591837 
1 1:1 2:1 3:-0.193455 4:-0.507266 5:-0.5962 6:-0.599601 7:-0.673469 
-1 1:1 2:1 3:-0.053296 4:-0.522741 5:-0.702296 6:-0.562242 7:-0.061225 
-1 1:1 2:1 3:-0.833631 4:-0.90445 5:0.002375 6:0.077638 7:-0.387755 
1 1:1 2:1 3:-0.509602 4:-0.730449 5:-0.319082 6:-0.253247 7:-0.387755 
-1 1:1 2:1 3:-0.883112 4:-0.955463 5:-0.502771 6:-0.17989 7:-0.265306 
1 1:1 2:1 3:-0.813018 4:-0.812321 5:0.149644 6:0.14939 7:0.428571 
