svm_type nu_svr
kernel_type rbf
gamma 0.142857
nr_class 2
total_sv 63
rho 0.0893994
SV
1 1:-1 2:-0.625535 3:-0.685075 4:-0.209721 5:-0.398258 6:-0.246048 7:0.183673 
-1 1:-1 2:-0.661029 3:-0.454166 4:-0.21464 5:-0.152811 6:-0.321107 7:0.020408 
1 1:-1 2:-0.729103 3:-0.414079 4:-0.500142 5:-0.431512 6:-0.277424 7:0.142857 
1 1:-1 2:-0.956386 3:-0.440985 4:-0.150229 5:-0.572447 6:-0.299265 7:-0.542857 
0.4823485572530123 1:-1 2:-0.965184 3:-0.470295 4:0.034352 5:-0.230404 6:0.082356 7:0.795918 
-1 1:-1 2:-0.934617 3:-0.225448 4:-0.354214 5:-0.353919 6:-0.17201 7:0.428571 
-1 1:-1 2:-0.832138 3:-0.737549 4:-0.318813 5:-0.434679 6:-0.519142 7:-0.102041 
0.2793813820439953 1:-1 2:-0.724138 3:-0.352737 4:0.081089 5:-0.605701 6:-0.514521 7:-0.22449 
1 1:-1 2:-0.807677 3:-0.442876 4:-0.224879 5:-0.30483 6:-0.247118 7:-0.061225 
-1 1:-1 2:0.053178 3:-0.573139 4:0.105986 5:-1 6:-1 7:-0.885714 
-1 1:-1 2:-0.881376 3:-0.729312 4:-0.201087 5:-0.444181 6:-0.248237 7:0.061225 
0.2799801677994632 1:-1 2:0.654557 3:-0.791651 4:-0.324231 5:-0.593032 6:-0.642847 7:-0.795918 
1 1:-1 2:-0.729103 3:-0.414079 4:-0.500142 5:-0.431512 6:-0.277424 7:0.142857 
1 1:-1 2:-0.894918 3:-0.122828 4:0.146305 5:-0.564529 6:-0.34003 7:0.265306 
-0.2541274052949758 1:-1 2:-0.711404 3:-0.686475 4:-0.358906 5:-0.863816 6:-0.869631 7:-1 
1 1:-1 2:-0.971129 3:-0.20182 4:-0.004284 5:-0.528108 6:0.196673 7:-0.142857 
-1 1:-1 2:-0.965421 3:-0.991567 4:-0.902952 5:-0.727633 6:-0.439704 7:-1 
-1 1:-1 2:-0.876791 3:-0.405977 4:-0.090263 5:-0.311164 6:-0.161405 7:-0.142857 
-1 1:-1 2:-0.681721 3:-0.627403 4:0.151769 5:-0.273159 6:-0.387313 7:-0.22449 
0.1329870963383457 1:-1 2:-0.866507 3:1 4:0.460325 5:0.353919 6:0.776135 7:-0.314286 
0.009970089048422196 1:-1 2:0.205108 3:-0.514096 4:0.258035 5:0.053048 6:0.004719 7:-0.338776 
0.3104695142972954 1:-1 2:-0.967825 3:-0.222144 4:-0.199182 5:0.646873 6:1 7:-0.322449 
-1 1:1 2:-0.091627 3:-0.801512 4:-0.414106 5:-0.235154 6:-0.27397 7:-0.387755 
-1 1:1 2:-0.85762 3:-0.588211 4:-0.356546 5:0.14331 6:0.020771 7:-0.142857 
1 1:1 2:-0.871561 3:-0.6256 4:-0.511139 5:-0.022961 6:0.139806 7:0.183673 
-1 1:1 2:-0.770401 3:-0.638231 4:-0.301141 5:-0.087886 6:-0.179452 7:-0.714286 
0.04316742837834574 1:1 2:-0.983226 3:-0.86243 4:-0.728532 5:-0.357086 6:0.005254 7:0.591837 
1 1:1 2:-0.408685 3:-0.580446 4:-0.273413 5:-0.371338 6:-0.454298 7:-0.755102 
1 1:1 2:-0.803147 3:-0.693321 4:-0.7544 5:-0.2019 6:0.170356 7:0.020408 
-1 1:1 2:-0.900937 3:-0.826757 4:-0.565221 5:-0.311164 6:-0.201343 7:-0.387755 
1 1:1 2:-0.80325 3:-0.747894 4:-0.455716 5:0.125891 6:0.34003 7:0.102041 
1 1:1 2:-0.866667 3:-0.903694 4:-0.354358 5:0.441013 6:0.301552 7:-0.061225 
1 1:1 2:-0.30396 3:-0.584429 4:0.04585 5:-0.059382 6:-0.000146 7:0.102041 
1 1:1 2:-0.855848 3:-0.802744 4:-0.473108 5:-0.043547 6:0.330204 7:-0.061225 
-1 1:1 2:-0.793693 3:-0.686792 4:-0.17816 5:-0.029295 6:-0.023642 7:0.265306 
-1 1:1 2:-0.896052 3:-0.771454 4:-0.462484 5:-0.098971 6:-0.106679 7:-0.306122 
-1 1:1 2:-0.193826 3:-0.659505 4:-0.455762 5:0.350752 6:0.347084 7:-0.55102 
-0.7458725947050245 1:1 2:-0.030539 3:-0.689745 4:-0.452333 5:-0.494854 6:-0.574257 7:-0.755102 
1 1:1 2:-0.20107 3:-0.835969 4:-0.408574 5:-0.141726 6:-0.166707 7:-0.632653 
-1 1:1 2:-0.93417 3:-0.73218 4:-0.388956 5:0.830562 6:0.823466 7:0.102041 
1 1:1 2:-0.94202 3:-0.892958 4:-0.83002 5:-0.545527 6:-0.185241 7:0.102041 
1 1:1 2:-0.8452 3:-0.726962 4:-0.256881 5:-0.092637 6:-0.38133 7:-0.591837 
-1 1:1 2:-0.894677 3:-0.798953 4:-0.571569 5:-0.555028 6:-0.34256 7:-0.265306 
1 1:1 2:-0.764964 3:-0.964458 4:-1 5:-0.515439 6:-0.255777 7:-0.714286 
-1 1:1 2:-0.704392 3:-0.739317 4:-0.417013 5:-0.295329 6:-0.039986 7:-0.22449 
1 1:1 2:-0.359559 3:-0.852637 4:-0.436269 5:-0.339667 6:-0.412074 7:-0.387755 
-1 1:1 2:-0.52775 3:-0.727626 4:-0.379345 5:-0.195566 6:-0.316729 7:-0.55102 
-1 1:1 2:-0.945255 3:-0.929719 4:-0.777654 5:-0.499604 6:0.042565 7:0.020408 
1 1:1 2:-0.905818 3:-0.837528 4:-0.577106 5:-0.157561 6:0.153184 7:-0.387755 
1 1:1 2:-0.86635 3:-0.772226 4:-0.470865 5:-0.35867 6:-0.32135 7:-0.22449 
-1 1:1 2:-0.928728 3:-1 4:-0.656764 5:-0.431512 6:-0.053996 7:-0.387755 
0.4616957648411198 1:1 2:1 3:-0.767455 4:-0.382943 5:0.14331 6:-0.172399 7:0.265306 
1 1:1 2:-0.848168 3:-0.833465 4:-0.503926 5:-0.239905 6:-0.170745 7:0.020408 
-1 1:1 2:-0.759482 3:-0.788365 4:-0.317626 5:-0.577197 6:-0.587294 7:-0.093878 
-1 1:1 2:-0.815739 3:-0.891488 4:-0.681675 5:-0.312747 6:0.011626 7:0.020408 
1 1:1 2:-0.82818 3:-0.839894 4:-0.273992 5:-0.049881 6:-0.276889 7:-0.142857 
-1 1:1 2:-0.687797 3:-0.645361 4:-0.331441 5:-0.059382 6:0.493117 7:0.591837 
1 1:1 2:-0.193455 3:-0.659248 4:-0.339848 5:-0.5962 6:-0.599601 7:-0.673469 
-1 1:1 2:-0.053296 3:-0.674094 4:-0.534191 5:-0.702296 6:-0.562242 7:-0.061225 
-1 1:1 2:-0.833631 3:-0.775561 4:-0.46764 5:0.002375 6:0.077638 7:-0.387755 
1 1:1 2:-0.509602 3:-0.812061 4:-0.506916 5:-0.319082 6:-0.253247 7:-0.387755 
-1 1:1 2:-0.883112 3:-0.941977 4:-0.793579 5:-0.502771 6:-0.17989 7:-0.265306 
1 1:1 2:-0.813018 3:-0.790394 4:-0.40729 5:0.149644 6:0.14939 7:0.428571 
