svm_type nu_svr
kernel_type rbf
gamma 0.142857
nr_class 2
total_sv 63
rho -0.176033
SV
1 1:-1 2:-1 3:1 4:-0.685075 5:-0.209721 6:-0.246048 7:0.183673 
-1 1:-1 2:-1 3:1 4:-0.454166 5:-0.21464 6:-0.321107 7:0.020408 
1 1:-1 2:-1 3:-1 4:-0.414079 5:-0.500142 6:-0.277424 7:0.142857 
1 1:-1 2:0.166667 3:1 4:-0.440985 5:-0.150229 6:-0.299265 7:-0.542857 
-0.1170110739099178 1:-1 2:1 3:-1 4:-0.225448 5:-0.354214 6:-0.17201 7:0.428571 
-1 1:-1 2:0.166667 3:1 4:-0.737549 5:-0.318813 6:-0.519142 7:-0.102041 
1 1:-1 2:-1 3:1 4:-0.442876 5:-0.224879 6:-0.247118 7:-0.061225 
-1 1:-1 2:-0.666667 3:1 4:-0.573139 5:0.105986 6:-1 7:-0.885714 
-1 1:-1 2:0.333333 3:1 4:-0.729312 5:-0.201087 6:-0.248237 7:0.061225 
-1 1:-1 2:-1 3:1 4:-0.702391 5:-0.729894 6:-0.171474 7:-0.265306 
1 1:-1 2:-1 3:-1 4:-0.414079 5:-0.500142 6:-0.277424 7:0.142857 
1 1:-1 2:-0.666667 3:1 4:-0.122828 5:0.146305 6:-0.34003 7:0.265306 
0.08674078670818458 1:-1 2:-0.666667 3:1 4:-0.270968 5:-0.146762 6:-0.420538 7:0.020408 
-0.6473389505720777 1:-1 2:-1 3:-1 4:-0.5121 5:-0.453851 6:-0.552756 7:-0.387755 
-0.5745946942276074 1:-1 2:0.666667 3:1 4:-0.686475 5:-0.358906 6:-0.869631 7:-1 
1 1:-1 2:1 3:-1 4:-0.20182 5:-0.004284 6:0.196673 7:-0.142857 
-1 1:-1 2:0.666667 3:-1 4:-0.991567 5:-0.902952 6:-0.439704 7:-1 
-1 1:-1 2:-0.333333 3:-1 4:-0.405977 5:-0.090263 6:-0.161405 7:-0.142857 
-0.4170561051605398 1:-1 2:-0.666667 3:1 4:-0.627403 5:0.151769 6:-0.387313 7:-0.22449 
-0.2969221064570272 1:-1 2:-0.666667 3:-1 4:-0.493746 5:0.08501 6:-0.196916 7:-0.061225 
1 1:-1 2:-0.333333 3:1 4:-0.978478 5:-0.911733 6:0.024323 7:-0.55102 
0.3163534027507808 1:-1 2:-0.666667 3:1 4:-0.514096 5:0.258035 6:0.004719 7:-0.338776 
0.7645940355371528 1:-1 2:1 3:1 4:-0.352926 5:-0.080001 6:0.429294 7:-0.020408 
-1 1:1 2:0.166667 3:1 4:-0.801512 5:-0.414106 6:-0.27397 7:-0.387755 
-1 1:1 2:-0.166667 3:1 4:-0.588211 5:-0.356546 6:0.020771 7:-0.142857 
1 1:1 2:-0.166667 3:1 4:-0.6256 5:-0.511139 6:0.139806 7:0.183673 
-1 1:1 2:-0.166667 3:1 4:-0.638231 5:-0.301141 6:-0.179452 7:-0.714286 
1 1:1 2:-1 3:1 4:-0.693321 5:-0.7544 6:0.170356 7:0.020408 
-1 1:1 2:-1 3:-1 4:-0.826757 5:-0.565221 6:-0.201343 7:-0.387755 
1 1:1 2:-1 3:1 4:-0.747894 5:-0.455716 6:0.34003 7:0.102041 
0.7617240364290452 1:1 2:0.166667 3:-1 4:-0.903694 5:-0.354358 6:0.301552 7:-0.061225 
0.7480751474455991 1:1 2:-1 3:-1 4:-0.584429 5:0.04585 6:-0.000146 7:0.102041 
1 1:1 2:-0.166667 3:1 4:-0.802744 5:-0.473108 6:0.330204 7:-0.061225 
0.5937496185277595 1:1 2:-1 3:1 4:-0.218426 5:-0.274831 6:0.362018 7:0.142857 
-1 1:1 2:-1 3:1 4:-0.686792 5:-0.17816 6:-0.023642 7:0.265306 
-1 1:1 2:-0.666667 3:-1 4:-0.771454 5:-0.462484 6:-0.106679 7:-0.306122 
-0.9470770696728307 1:1 2:-1 3:1 4:-0.659505 5:-0.455762 6:0.347084 7:-0.55102 
1 1:1 2:-1 3:1 4:-0.835969 5:-0.408574 6:-0.166707 7:-0.632653 
-1 1:1 2:-1 3:1 4:-0.73218 5:-0.388956 6:0.823466 7:0.102041 
1 1:1 2:-1 3:-1 4:-0.892958 5:-0.83002 6:-0.185241 7:0.102041 
0.9070156703845703 1:1 2:-0.666667 3:-1 4:-0.726962 5:-0.256881 6:-0.38133 7:-0.591837 
-1 1:1 2:-0.166667 3:1 4:-0.798953 5:-0.571569 6:-0.34256 7:-0.265306 
1 1:1 2:-0.833333 3:1 4:-0.964458 5:-1 6:-0.255777 7:-0.714286 
1 1:1 2:0.166667 3:1 4:-0.852637 5:-0.436269 6:-0.412074 7:-0.387755 
-1 1:1 2:0.333333 3:1 4:-0.727626 5:-0.379345 6:-0.316729 7:-0.55102 
-1 1:1 2:-0.666667 3:1 4:-0.929719 5:-0.777654 6:0.042565 7:0.020408 
1 1:1 2:-0.833333 3:1 4:-0.837528 5:-0.577106 6:0.153184 7:-0.387755 
0.6692438455264355 1:1 2:0.666667 3:1 4:-0.772226 5:-0.470865 6:-0.32135 7:-0.22449 
-1 1:1 2:-1 3:1 4:-1 5:-0.656764 6:-0.053996 7:-0.387755 
1 1:1 2:0.333333 3:1 4:-0.767455 5:-0.382943 6:-0.172399 7:0.265306 
1 1:1 2:0.666667 3:1 4:-0.833465 5:-0.503926 6:-0.170745 7:0.020408 
-1 1:1 2:-0.5 3:1 4:-0.788365 5:-0.317626 6:-0.587294 7:-0.093878 
-1 1:1 2:-0.166667 3:1 4:-0.891488 5:-0.681675 6:0.011626 7:0.020408 
1 1:1 2:-0.333333 3:1 4:-0.839894 5:-0.273992 6:-0.276889 7:-0.142857 
-1 1:1 2:-1 3:-1 4:-0.787466 5:-0.531536 6:-0.452255 7:-0.428571 
-1 1:1 2:0.333333 3:1 4:-0.645361 5:-0.331441 6:0.493117 7:0.591837 
1 1:1 2:-0.166667 3:1 4:-0.659248 5:-0.339848 6:-0.599601 7:-0.673469 
-1 1:1 2:0.166667 3:1 4:-0.674094 5:-0.534191 6:-0.562242 7:-0.061225 
-1 1:1 2:-0.5 3:1 4:-0.775561 5:-0.46764 6:0.077638 7:-0.387755 
1 1:1 2:-0.166667 3:1 4:-0.812061 5:-0.506916 6:-0.253247 7:-0.387755 
0.1525034566904724 1:1 2:-1 3:1 4:-0.860939 5:-0.361489 6:-0.471761 7:-0.714286 
-1 1:1 2:-0.5 3:1 4:-0.941977 5:-0.793579 6:-0.17989 7:-0.265306 
1 1:1 2:-0.5 3:1 4:-0.790394 5:-0.40729 6:0.14939 7:0.428571 
