svm_type nu_svr
kernel_type rbf
gamma 0.142857
nr_class 2
total_sv 61
rho -0.169338
SV
1 1:-1 2:-0.625535 3:-0.723575 4:0.285467 5:-0.685075 6:-0.209721 7:0.183673 
-1 1:-1 2:-0.661029 3:-0.667368 4:-0.181661 5:-0.454166 6:-0.21464 7:0.020408 
1 1:-1 2:-0.729103 3:-0.84854 4:0.183391 5:-0.414079 6:-0.500142 7:0.142857 
1 1:0.166667 2:-0.956386 3:-0.852123 4:0.785467 5:-0.440985 6:-0.150229 7:-0.542857 
0.7537082258542784 1:-0.5 2:-0.965184 3:-0.866467 4:0.456747 5:-0.470295 6:0.034352 7:0.795918 
-1 1:0.166667 2:-0.832138 3:-0.707577 4:0.095156 5:-0.737549 6:-0.318813 7:-0.102041 
-1 1:-1 2:-0.939254 3:-0.841967 4:0.435986 5:-0.563308 6:-0.285251 7:-0.714286 
0.6245916938900459 1:-1 2:-0.957684 3:-0.944027 4:0.655709 5:-0.674198 6:-0.624437 7:-0.346939 
1 1:-1 2:-0.807677 3:-0.772861 4:0.525952 5:-0.442876 6:-0.224879 7:-0.061225 
-1 1:-0.666667 2:0.053178 3:1 4:-1 5:-0.573139 6:0.105986 7:-0.885714 
1 1:-0.166667 2:-0.964053 3:-0.909095 4:0.269896 5:-0.627577 6:-0.216148 7:-0.159184 
-1 1:0.333333 2:-0.881376 3:-0.816895 4:0.50173 5:-0.729312 6:-0.201087 7:0.061225 
1 1:-1 2:-0.729103 3:-0.84854 4:0.183391 5:-0.414079 6:-0.500142 7:0.142857 
-0.9314101751823505 1:0.666667 2:-0.711404 3:-0.39852 4:-0.404844 5:-0.686475 6:-0.358906 7:-1 
1 1:1 2:-0.971129 3:-0.893907 4:0.088235 5:-0.20182 6:-0.004284 7:-0.142857 
-1 1:0.666667 2:-0.965421 3:-0.953775 4:0.553633 5:-0.991567 6:-0.902952 7:-1 
-1 1:-0.666667 2:-0.681721 3:-0.61764 4:0.197232 5:-0.627403 6:0.151769 7:-0.22449 
-0.06858982481764973 1:-0.666667 2:-0.859541 3:-0.782552 4:0.709343 5:-0.493746 6:0.08501 7:-0.061225 
0.7557829120681422 1:-0.333333 2:0.406689 3:-0.193184 4:0.380623 5:-0.978478 6:-0.911733 7:-0.55102 
0.9046241527011004 1:-0.666667 2:0.205108 3:-0.268055 4:0.121107 5:-0.514096 6:0.258035 7:-0.338776 
1 1:1 2:-0.906343 3:-0.846524 4:0.813149 5:-0.352926 6:-0.080001 7:-0.020408 
1 1:-1 2:-0.967825 3:-0.903218 4:0.401384 5:-0.222144 6:-0.199182 7:-0.322449 
-1 1:0.166667 2:-0.091627 3:-0.499382 4:-0.034602 5:-0.801512 6:-0.414106 7:-0.387755 
-1 1:-0.166667 2:-0.85762 3:-0.830395 4:0.581315 5:-0.588211 6:-0.356546 7:-0.142857 
1 1:-0.166667 2:-0.871561 3:-0.882199 4:-0.202422 5:-0.6256 6:-0.511139 7:0.183673 
-1 1:-0.166667 2:-0.770401 3:-0.752452 4:0.141869 5:-0.638231 6:-0.301141 7:-0.714286 
0.7272673366880966 1:-0.666667 2:-0.408685 3:-0.518477 4:-0.133218 5:-0.580446 6:-0.273413 7:-0.755102 
1 1:-1 2:-0.803147 3:-0.913952 4:-0.029412 5:-0.693321 6:-0.7544 7:0.020408 
-1 1:-1 2:-0.900937 3:-0.893648 4:0.254325 5:-0.826757 6:-0.565221 7:-0.387755 
1 1:-1 2:-0.80325 3:-0.860695 4:0.480969 5:-0.747894 6:-0.455716 7:0.102041 
1 1:0.166667 2:-0.866667 3:-0.871849 4:0.638408 5:-0.903694 6:-0.354358 7:-0.061225 
0.1686982964396813 1:-0.166667 2:-0.436699 3:-0.698702 4:0.128028 5:-0.885588 6:-0.742215 7:-0.020408 
1 1:-0.166667 2:-0.855848 3:-0.874837 4:0.408304 5:-0.802744 6:-0.473108 7:-0.061225 
0.143300192321813 1:-1 2:0.88062 3:0.865713 4:-0.463668 5:-0.218426 6:-0.274831 7:0.142857 
-1 1:-1 2:-0.793693 3:-0.791973 4:0.288927 5:-0.686792 6:-0.17816 7:0.265306 
-1 1:-0.666667 2:-0.896052 3:-0.847255 4:0.256055 5:-0.771454 6:-0.462484 7:-0.306122 
-1 1:-1 2:-0.193826 3:-0.642731 4:0.102076 5:-0.659505 6:-0.455762 7:-0.55102 
1 1:-1 2:-0.20107 3:-0.617232 4:0.655709 5:-0.835969 6:-0.408574 7:-0.632653 
-1 1:-1 2:-0.93417 3:-0.921264 4:0.543253 5:-0.73218 6:-0.388956 7:0.102041 
1 1:-1 2:-0.94202 3:-0.948213 4:0.32699 5:-0.892958 6:-0.83002 7:0.102041 
1 1:-0.666667 2:-0.8452 3:-0.702955 4:0.520761 5:-0.726962 6:-0.256881 7:-0.591837 
-1 1:-0.166667 2:-0.894677 3:-0.883378 4:0.359862 5:-0.798953 6:-0.571569 7:-0.265306 
1 1:-0.833333 2:-0.764964 3:-0.932148 4:0.576125 5:-0.964458 6:-1 7:-0.714286 
-1 1:-0.166667 2:-0.704392 3:-0.83618 4:0.49654 5:-0.739317 6:-0.417013 7:-0.22449 
1 1:0.166667 2:-0.359559 3:-0.606428 4:0.096886 5:-0.852637 6:-0.436269 7:-0.387755 
-1 1:0.333333 2:-0.52775 3:-0.670729 4:0.403114 5:-0.727626 6:-0.379345 7:-0.55102 
-1 1:-0.666667 2:-0.945255 3:-0.964915 4:0.776817 5:-0.929719 6:-0.777654 7:0.020408 
0.7116157558949208 1:0.666667 2:-0.86635 3:-0.826784 4:0.214533 5:-0.772226 6:-0.470865 7:-0.22449 
-1 1:-1 2:-0.928728 3:-0.916987 4:0.711073 5:-1 6:-0.656764 7:-0.387755 
0.2104114341419214 1:0.333333 2:1 3:0.773103 4:0.107266 5:-0.767455 6:-0.382943 7:0.265306 
1 1:0.666667 2:-0.848168 3:-0.836817 4:0.273356 5:-0.833465 6:-0.503926 7:0.020408 
-1 1:-0.5 2:-0.759482 3:-0.643086 4:-0.024222 5:-0.788365 6:-0.317626 7:-0.093878 
-1 1:-0.166667 2:-0.815739 3:-0.880197 4:0.356401 5:-0.891488 6:-0.681675 7:0.020408 
1 1:-0.333333 2:-0.82818 3:-0.698566 4:0.17128 5:-0.839894 6:-0.273992 7:-0.142857 
-1 1:-1 2:-0.295346 3:-0.587619 4:-0.100346 5:-0.787466 6:-0.531536 7:-0.428571 
-1 1:0.333333 2:-0.687797 3:-0.851482 4:0.586505 5:-0.645361 6:-0.331441 7:0.591837 
1 1:-0.166667 2:-0.193455 3:-0.507266 4:0.019031 5:-0.659248 6:-0.339848 7:-0.673469 
-1 1:0.166667 2:-0.053296 3:-0.522741 4:-0.102076 5:-0.674094 6:-0.534191 7:-0.061225 
-1 1:-0.5 2:-0.833631 3:-0.90445 4:0.33564 5:-0.775561 6:-0.46764 7:-0.387755 
1 1:-0.166667 2:-0.509602 3:-0.730449 4:0.083045 5:-0.812061 6:-0.506916 7:-0.387755 
-1 1:-0.5 2:-0.883112 3:-0.955463 4:0.811419 5:-0.941977 6:-0.793579 7:-0.265306 
