svm_type nu_svr
kernel_type rbf
gamma 0.142857
nr_class 2
total_sv 64
rho -0.211288
SV
1 1:-1 2:-0.625535 3:0.285467 4:-0.685075 5:-0.398258 6:-0.246048 7:0.183673 
-1 1:-1 2:-0.661029 3:-0.181661 4:-0.454166 5:-0.152811 6:-0.321107 7:0.020408 
1 1:-1 2:-0.729103 3:0.183391 4:-0.414079 5:-0.431512 6:-0.277424 7:0.142857 
1 1:0.166667 2:-0.956386 3:0.785467 4:-0.440985 5:-0.572447 6:-0.299265 7:-0.542857 
1 1:-0.5 2:-0.965184 3:0.456747 4:-0.470295 5:-0.230404 6:0.082356 7:0.795918 
-0.4576805950755304 1:1 2:-0.934617 3:-0.089965 4:-0.225448 5:-0.353919 6:-0.17201 7:0.428571 
-0.5488663732515709 1:-1 2:-0.958853 3:-0.015571 4:-0.174405 5:-0.179731 6:0.031133 7:0.714286 
-1 1:0.166667 2:-0.832138 3:0.095156 4:-0.737549 5:-0.434679 6:-0.519142 7:-0.102041 
0.7682781609415642 1:0.166667 2:-0.956936 3:0.316609 4:-0.639346 5:-0.2019 6:0.105803 7:0.877551 
1 1:-1 2:-0.807677 3:0.525952 4:-0.442876 5:-0.30483 6:-0.247118 7:-0.061225 
-1 1:-0.666667 2:0.053178 3:-1 4:-0.573139 5:-1 6:-1 7:-0.885714 
-1 1:0.333333 2:-0.881376 3:0.50173 4:-0.729312 5:-0.444181 6:-0.248237 7:0.061225 
-0.4554299077925689 1:-1 2:-0.937233 3:0.344291 4:-0.702391 5:-0.700713 6:-0.171474 7:-0.265306 
1 1:-1 2:-0.729103 3:0.183391 4:-0.414079 5:-0.431512 6:-0.277424 7:0.142857 
1 1:-0.666667 2:-0.894918 3:0.583045 4:-0.122828 5:-0.564529 6:-0.34003 7:0.265306 
-0.04718382404173864 1:0.666667 2:-0.711404 3:-0.404844 4:-0.686475 5:-0.863816 6:-0.869631 7:-1 
1 1:1 2:-0.971129 3:0.088235 4:-0.20182 5:-0.528108 6:0.196673 7:-0.142857 
-1 1:0.666667 2:-0.965421 3:0.553633 4:-0.991567 5:-0.727633 6:-0.439704 7:-1 
-0.4556915600662699 1:-0.333333 2:-0.876791 3:0.096886 4:-0.405977 5:-0.311164 6:-0.161405 7:-0.142857 
0.07114029119634974 1:-0.666667 2:-0.920273 3:0.351211 4:-0.650517 5:-0.444181 6:-0.247556 7:0.673469 
0.0103209065713056 1:0.5 2:-0.767319 3:0.228374 4:-0.725396 5:-0.714964 6:-0.635355 7:0.053061 
1 1:-0.666667 2:0.205108 3:0.121107 4:-0.514096 5:0.053048 6:0.004719 7:-0.338776 
0.6885168524481495 1:1 2:-0.906343 3:0.813149 4:-0.352926 5:0.106888 6:0.429294 7:-0.020408 
1 1:-1 2:-0.967825 3:0.401384 4:-0.222144 5:0.646873 6:1 7:-0.322449 
-0.2333145081547523 1:0.166667 2:-0.792999 3:0.264706 4:-0.797906 5:-0.140143 6:-0.048353 7:0.183673 
-1 1:0.166667 2:-0.091627 3:-0.034602 4:-0.801512 5:-0.235154 6:-0.27397 7:-0.387755 
-1 1:-0.166667 2:-0.85762 3:0.581315 4:-0.588211 5:0.14331 6:0.020771 7:-0.142857 
1 1:-0.166667 2:-0.871561 3:-0.202422 4:-0.6256 5:-0.022961 6:0.139806 7:0.183673 
-1 1:-0.166667 2:-0.770401 3:0.141869 4:-0.638231 5:-0.087886 6:-0.179452 7:-0.714286 
1 1:-0.666667 2:-0.408685 3:-0.133218 4:-0.580446 5:-0.371338 6:-0.454298 7:-0.755102 
1 1:-1 2:-0.803147 3:-0.029412 4:-0.693321 5:-0.2019 6:0.170356 7:0.020408 
-1 1:-1 2:-0.900937 3:0.254325 4:-0.826757 5:-0.311164 6:-0.201343 7:-0.387755 
1 1:-1 2:-0.80325 3:0.480969 4:-0.747894 5:0.125891 6:0.34003 7:0.102041 
1 1:0.166667 2:-0.866667 3:0.638408 4:-0.903694 5:0.441013 6:0.301552 7:-0.061225 
1 1:-0.166667 2:-0.855848 3:0.408304 4:-0.802744 5:-0.043547 6:0.330204 7:-0.061225 
-1 1:-1 2:-0.793693 3:0.288927 4:-0.686792 5:-0.029295 6:-0.023642 7:0.265306 
-1 1:-1 2:-0.834994 3:0.318339 4:-0.810245 5:0.045131 6:-0.108722 7:-0.22449 
-1 1:-0.666667 2:-0.896052 3:0.256055 4:-0.771454 5:-0.098971 6:-0.106679 7:-0.306122 
-1 1:-1 2:-0.193826 3:0.102076 4:-0.659505 5:0.350752 6:0.347084 7:-0.55102 
1 1:-1 2:-0.20107 3:0.655709 4:-0.835969 5:-0.141726 6:-0.166707 7:-0.632653 
-1 1:-1 2:-0.93417 3:0.543253 4:-0.73218 5:0.830562 6:0.823466 7:0.102041 
1 1:-1 2:-0.94202 3:0.32699 4:-0.892958 5:-0.545527 6:-0.185241 7:0.102041 
1 1:-0.666667 2:-0.8452 3:0.520761 4:-0.726962 5:-0.092637 6:-0.38133 7:-0.591837 
-1 1:-0.166667 2:-0.894677 3:0.359862 4:-0.798953 5:-0.555028 6:-0.34256 7:-0.265306 
1 1:-0.833333 2:-0.764964 3:0.576125 4:-0.964458 5:-0.515439 6:-0.255777 7:-0.714286 
-1 1:-0.166667 2:-0.704392 3:0.49654 4:-0.739317 5:-0.295329 6:-0.039986 7:-0.22449 
1 1:0.166667 2:-0.359559 3:0.096886 4:-0.852637 5:-0.339667 6:-0.412074 7:-0.387755 
-1 1:0.333333 2:-0.52775 3:0.403114 4:-0.727626 5:-0.195566 6:-0.316729 7:-0.55102 
-1 1:-0.666667 2:-0.945255 3:0.776817 4:-0.929719 5:-0.499604 6:0.042565 7:0.020408 
1 1:0.666667 2:-0.86635 3:0.214533 4:-0.772226 5:-0.35867 6:-0.32135 7:-0.22449 
-1 1:-1 2:-0.928728 3:0.711073 4:-1 5:-0.431512 6:-0.053996 7:-0.387755 
0.1959630674431182 1:0.333333 2:1 3:0.107266 4:-0.767455 5:0.14331 6:-0.172399 7:0.265306 
1 1:0.666667 2:-0.848168 3:0.273356 4:-0.833465 5:-0.239905 6:-0.170745 7:0.020408 
-1 1:-0.5 2:-0.759482 3:-0.024222 4:-0.788365 5:-0.577197 6:-0.587294 7:-0.093878 
-1 1:-0.166667 2:-0.815739 3:0.356401 4:-0.891488 5:-0.312747 6:0.011626 7:0.020408 
1 1:-0.333333 2:-0.82818 3:0.17128 4:-0.839894 5:-0.049881 6:-0.276889 7:-0.142857 
-0.8018332316175687 1:-1 2:-0.295346 3:-0.100346 4:-0.787466 5:-0.379256 6:-0.452255 7:-0.428571 
-1 1:0.333333 2:-0.687797 3:0.586505 4:-0.645361 5:-0.059382 6:0.493117 7:0.591837 
1 1:-0.166667 2:-0.193455 3:0.019031 4:-0.659248 5:-0.5962 6:-0.599601 7:-0.673469 
-1 1:0.166667 2:-0.053296 3:-0.102076 4:-0.674094 5:-0.702296 6:-0.562242 7:-0.061225 
-1 1:-0.5 2:-0.833631 3:0.33564 4:-0.775561 5:0.002375 6:0.077638 7:-0.387755 
1 1:-0.166667 2:-0.509602 3:0.083045 4:-0.812061 5:-0.319082 6:-0.253247 7:-0.387755 
0.2657807213995125 1:-1 2:-0.876371 3:-0.190311 4:-0.860939 5:-0.19715 6:-0.471761 7:-0.714286 
-1 1:-0.5 2:-0.883112 3:0.811419 4:-0.941977 5:-0.502771 6:-0.17989 7:-0.265306 
