svm_type nu_svr
kernel_type rbf
gamma 0.142857
nr_class 2
total_sv 63
rho -0.270527
SV
1 1:-1 2:1 3:-0.625535 4:-0.723575 5:0.285467 6:-0.209721 7:0.183673 
1 1:-1 2:-1 3:-0.729103 4:-0.84854 5:0.183391 6:-0.500142 7:0.142857 
1 1:0.166667 2:1 3:-0.956386 4:-0.852123 5:0.785467 6:-0.150229 7:-0.542857 
0.7710913616347139 1:-0.5 2:1 3:-0.965184 4:-0.866467 5:0.456747 6:0.034352 7:0.795918 
-0.3446115298190668 1:1 2:-1 3:-0.934617 4:-0.878479 5:-0.089965 6:-0.354214 7:0.428571 
1 1:0.333333 2:1 3:-0.933121 4:-0.850492 5:0.010381 6:-0.219523 7:0.183673 
-1 1:0.166667 2:1 3:-0.832138 4:-0.707577 5:0.095156 6:-0.318813 7:-0.102041 
-0.5683068232395417 1:-1 2:1 3:-0.939254 4:-0.841967 5:0.435986 6:-0.285251 7:-0.714286 
0.9775026515692649 1:-1 2:1 3:-0.957684 4:-0.944027 5:0.655709 6:-0.624437 7:-0.346939 
1 1:-1 2:1 3:-0.807677 4:-0.772861 5:0.525952 6:-0.224879 7:-0.061225 
-1 1:-0.666667 2:1 3:0.053178 4:1 5:-1 6:0.105986 7:-0.885714 
1 1:-0.166667 2:1 3:-0.964053 4:-0.909095 5:0.269896 6:-0.216148 7:-0.159184 
-1 1:0.333333 2:1 3:-0.881376 4:-0.816895 5:0.50173 6:-0.201087 7:0.061225 
1 1:-1 2:-1 3:-0.729103 4:-0.84854 5:0.183391 6:-0.500142 7:0.142857 
0.05137804788184848 1:-0.666667 2:1 3:-0.894918 4:-0.780339 5:0.583045 6:0.146305 7:0.265306 
0.4312445629972187 1:0.666667 2:1 3:-0.922927 4:-0.861599 5:0.143599 6:-0.18513 7:0.428571 
-0.5877127325179512 1:0.666667 2:1 3:-0.711404 4:-0.39852 5:-0.404844 6:-0.358906 7:-1 
1 1:1 2:-1 3:-0.971129 4:-0.893907 5:0.088235 6:-0.004284 7:-0.142857 
-1 1:0.666667 2:-1 3:-0.965421 4:-0.953775 5:0.553633 6:-0.902952 7:-1 
-0.008206665057117511 1:-0.333333 2:-1 3:-0.876791 4:-0.798862 5:0.096886 6:-0.090263 7:-0.142857 
-1 1:-0.666667 2:1 3:-0.681721 4:-0.61764 5:0.197232 6:0.151769 7:-0.22449 
-0.5501644303626724 1:-0.666667 2:-1 3:-0.859541 4:-0.782552 5:0.709343 6:0.08501 7:-0.061225 
0.8361326462800341 1:-0.333333 2:1 3:0.406689 4:-0.193184 5:0.380623 6:-0.911733 7:-0.55102 
1 1:-1 2:1 3:-0.866507 4:-0.791922 5:0.816609 6:0.460325 7:-0.314286 
0.6569236442297395 1:-0.666667 2:1 3:0.205108 4:-0.268055 5:0.121107 6:0.258035 7:-0.338776 
1 1:1 2:1 3:-0.906343 4:-0.846524 5:0.813149 6:-0.080001 7:-0.020408 
1 1:-1 2:1 3:-0.967825 4:-0.903218 5:0.401384 6:-0.199182 7:-0.322449 
-1 1:0.166667 2:1 3:-0.091627 4:-0.499382 5:-0.034602 6:-0.414106 7:-0.387755 
-1 1:-0.166667 2:1 3:-0.85762 4:-0.830395 5:0.581315 6:-0.356546 7:-0.142857 
1 1:-0.166667 2:1 3:-0.871561 4:-0.882199 5:-0.202422 6:-0.511139 7:0.183673 
-1 1:-0.166667 2:1 3:-0.770401 4:-0.752452 5:0.141869 6:-0.301141 7:-0.714286 
1 1:-1 2:1 3:-0.803147 4:-0.913952 5:-0.029412 6:-0.7544 7:0.020408 
-1 1:-1 2:-1 3:-0.900937 4:-0.893648 5:0.254325 6:-0.565221 7:-0.387755 
1 1:-1 2:1 3:-0.80325 4:-0.860695 5:0.480969 6:-0.455716 7:0.102041 
1 1:0.166667 2:-1 3:-0.866667 4:-0.871849 5:0.638408 6:-0.354358 7:-0.061225 
1 1:-0.166667 2:1 3:-0.855848 4:-0.874837 5:0.408304 6:-0.473108 7:-0.061225 
0.2522705872214037 1:-1 2:1 3:0.88062 4:0.865713 5:-0.463668 6:-0.274831 7:0.142857 
-1 1:-1 2:1 3:-0.793693 4:-0.791973 5:0.288927 6:-0.17816 7:0.265306 
-0.9409978190036501 1:-1 2:1 3:-0.834994 4:-0.821023 5:0.318339 6:-0.458311 7:-0.22449 
-1 1:-0.666667 2:-1 3:-0.896052 4:-0.847255 5:0.256055 6:-0.462484 7:-0.306122 
-1 1:-1 2:1 3:-0.193826 4:-0.642731 5:0.102076 6:-0.455762 7:-0.55102 
1 1:-1 2:1 3:-0.20107 4:-0.617232 5:0.655709 6:-0.408574 7:-0.632653 
-1 1:-1 2:1 3:-0.93417 4:-0.921264 5:0.543253 6:-0.388956 7:0.102041 
0.913342508110522 1:-1 2:-1 3:-0.94202 4:-0.948213 5:0.32699 6:-0.83002 7:0.102041 
-1 1:-0.166667 2:1 3:-0.894677 4:-0.883378 5:0.359862 6:-0.571569 7:-0.265306 
1 1:-0.833333 2:1 3:-0.764964 4:-0.932148 5:0.576125 6:-1 7:-0.714286 
-1 1:-0.166667 2:1 3:-0.704392 4:-0.83618 5:0.49654 6:-0.417013 7:-0.22449 
1 1:0.166667 2:1 3:-0.359559 4:-0.606428 5:0.096886 6:-0.436269 7:-0.387755 
-1 1:0.333333 2:1 3:-0.52775 4:-0.670729 5:0.403114 6:-0.379345 7:-0.55102 
-1 1:-0.666667 2:1 3:-0.945255 4:-0.964915 5:0.776817 6:-0.777654 7:0.020408 
-1 1:-1 2:1 3:-0.928728 4:-0.916987 5:0.711073 6:-0.656764 7:-0.387755 
0.1101139900752546 1:0.333333 2:1 3:1 4:0.773103 5:0.107266 6:-0.382943 7:0.265306 
1 1:0.666667 2:1 3:-0.848168 4:-0.836817 5:0.273356 6:-0.503926 7:0.020408 
-1 1:-0.5 2:1 3:-0.759482 4:-0.643086 5:-0.024222 6:-0.317626 7:-0.093878 
-1 1:-0.166667 2:1 3:-0.815739 4:-0.880197 5:0.356401 6:-0.681675 7:0.020408 
1 1:-0.333333 2:1 3:-0.82818 4:-0.698566 5:0.17128 6:-0.273992 7:-0.142857 
-1 1:-1 2:-1 3:-0.295346 4:-0.587619 5:-0.100346 6:-0.531536 7:-0.428571 
-1 1:0.333333 2:1 3:-0.687797 4:-0.851482 5:0.586505 6:-0.331441 7:0.591837 
1 1:-0.166667 2:1 3:-0.193455 4:-0.507266 5:0.019031 6:-0.339848 7:-0.673469 
-1 1:0.166667 2:1 3:-0.053296 4:-0.522741 5:-0.102076 6:-0.534191 7:-0.061225 
-1 1:-0.5 2:1 3:-0.833631 4:-0.90445 5:0.33564 6:-0.46764 7:-0.387755 
1 1:-0.166667 2:1 3:-0.509602 4:-0.730449 5:0.083045 6:-0.506916 7:-0.387755 
-1 1:-0.5 2:1 3:-0.883112 4:-0.955463 5:0.811419 6:-0.793579 7:-0.265306 
