svm_type nu_svr
kernel_type rbf
gamma 0.125
nr_class 2
total_sv 63
rho -0.0977313
SV
1 1:-1 2:-1 3:1 4:-0.625535 5:-0.723575 6:-0.685075 7:-0.209721 8:-0.246048 
1 1:-1 2:-1 3:-1 4:-0.729103 5:-0.84854 6:-0.414079 7:-0.500142 8:-0.277424 
1 1:-1 2:0.166667 3:1 4:-0.956386 5:-0.852123 6:-0.440985 7:-0.150229 8:-0.299265 
-0.2939933247148097 1:-1 2:0.166667 3:1 4:-0.716794 5:-0.567191 6:-0.488633 7:-0.104703 8:-0.740478 
1 1:-1 2:-0.5 3:1 4:-0.965184 5:-0.866467 6:-0.470295 7:0.034352 8:0.082356 
-0.46615346407671 1:-1 2:0.166667 3:1 4:-0.817005 5:-0.770809 6:-0.724984 7:-0.228314 8:-0.363283 
-1 1:-1 2:0.166667 3:1 4:-0.832138 5:-0.707577 6:-0.737549 7:-0.318813 8:-0.519142 
-1 1:-1 2:-1 3:1 4:-0.939254 5:-0.841967 6:-0.563308 7:-0.285251 8:-0.535098 
1 1:-1 2:0.166667 3:1 4:-0.956936 5:-0.888515 6:-0.639346 7:-0.186169 8:0.105803 
1 1:-1 2:-1 3:1 4:-0.807677 5:-0.772861 6:-0.442876 7:-0.224879 8:-0.247118 
-0.992034118937425 1:-1 2:-0.666667 3:1 4:0.053178 5:1 6:-0.573139 7:0.105986 8:-1 
-1 1:-1 2:0.333333 3:1 4:-0.881376 5:-0.816895 6:-0.729312 7:-0.201087 8:-0.248237 
-1 1:-1 2:-1 3:1 4:-0.937233 5:-0.954734 6:-0.702391 7:-0.729894 8:-0.171474 
1 1:-1 2:-1 3:-1 4:-0.729103 5:-0.84854 6:-0.414079 7:-0.500142 8:-0.277424 
1 1:-1 2:-0.666667 3:1 4:-0.894918 5:-0.780339 6:-0.122828 7:0.146305 8:-0.34003 
1 1:-1 2:0.666667 3:1 4:-0.761987 5:-0.729993 6:-0.348415 7:0.147663 8:-0.064649 
-0.7465602669742241 1:-1 2:-1 3:-1 4:-0.539699 5:-0.629473 6:-0.5121 7:-0.453851 8:-0.552756 
-1 1:-1 2:0.666667 3:1 4:-0.711404 5:-0.39852 6:-0.686475 7:-0.358906 8:-0.869631 
0.8831988139221114 1:-1 2:1 3:-1 4:-0.971129 5:-0.893907 6:-0.20182 7:-0.004284 8:0.196673 
-1 1:-1 2:0.666667 3:-1 4:-0.965421 5:-0.953775 6:-0.991567 7:-0.902952 8:-0.439704 
-1 1:-1 2:-0.333333 3:-1 4:-0.876791 5:-0.798862 6:-0.405977 7:-0.090263 8:-0.161405 
-1 1:-1 2:-0.666667 3:1 4:-0.681721 5:-0.61764 6:-0.627403 7:0.151769 8:-0.387313 
0.2926791293280165 1:-1 2:-0.666667 3:1 4:-0.920273 5:-0.759542 6:-0.650517 7:0.379997 8:-0.247556 
0.1693669584416689 1:-1 2:-0.333333 3:1 4:0.406689 5:-0.193184 6:-0.978478 7:-0.911733 8:0.024323 
0.04214061634795878 1:-1 2:1 3:1 4:-0.906343 5:-0.846524 6:-0.352926 7:-0.080001 8:0.429294 
-1 1:1 2:0.166667 3:1 4:-0.091627 5:-0.499382 6:-0.801512 7:-0.414106 8:-0.27397 
-0.9470000873703082 1:1 2:-0.166667 3:1 4:-0.85762 5:-0.830395 6:-0.588211 7:-0.356546 8:0.020771 
1 1:1 2:-0.166667 3:1 4:-0.871561 5:-0.882199 6:-0.6256 7:-0.511139 8:0.139806 
-1 1:1 2:-0.166667 3:1 4:-0.770401 5:-0.752452 6:-0.638231 7:-0.301141 8:-0.179452 
1 1:1 2:-1 3:1 4:-0.983226 5:-0.96409 6:-0.86243 7:-0.728532 8:0.005254 
1 1:1 2:-1 3:1 4:-0.803147 5:-0.913952 6:-0.693321 7:-0.7544 8:0.170356 
-1 1:1 2:-1 3:-1 4:-0.900937 5:-0.893648 6:-0.826757 7:-0.565221 8:-0.201343 
1 1:1 2:-1 3:1 4:-0.80325 5:-0.860695 6:-0.747894 7:-0.455716 8:0.34003 
1 1:1 2:0.166667 3:-1 4:-0.866667 5:-0.871849 6:-0.903694 7:-0.354358 8:0.301552 
1 1:1 2:-1 3:-1 4:-0.30396 5:-0.596929 6:-0.584429 7:0.04585 8:-0.000146 
1 1:1 2:-0.166667 3:1 4:-0.855848 5:-0.874837 6:-0.802744 7:-0.473108 8:0.330204 
-1 1:1 2:-1 3:1 4:-0.793693 5:-0.791973 6:-0.686792 7:-0.17816 8:-0.023642 
-1 1:1 2:-0.666667 3:-1 4:-0.896052 5:-0.847255 6:-0.771454 7:-0.462484 8:-0.106679 
-1 1:1 2:-1 3:1 4:-0.193826 5:-0.642731 6:-0.659505 7:-0.455762 8:0.347084 
-0.4520706155404453 1:1 2:-0.166667 3:1 4:-0.030539 5:-0.41563 6:-0.689745 7:-0.452333 8:-0.574257 
1 1:1 2:-1 3:1 4:-0.20107 5:-0.617232 6:-0.835969 7:-0.408574 8:-0.166707 
-1 1:1 2:-1 3:1 4:-0.93417 5:-0.921264 6:-0.73218 7:-0.388956 8:0.823466 
1 1:1 2:-1 3:-1 4:-0.94202 5:-0.948213 6:-0.892958 7:-0.83002 8:-0.185241 
-0.2896774894878872 1:1 2:-0.166667 3:1 4:-0.894677 5:-0.883378 6:-0.798953 7:-0.571569 8:-0.34256 
1 1:1 2:-0.833333 3:1 4:-0.764964 5:-0.932148 6:-0.964458 7:-1 8:-0.255777 
1 1:1 2:0.166667 3:1 4:-0.359559 5:-0.606428 6:-0.852637 7:-0.436269 8:-0.412074 
-1 1:1 2:0.333333 3:1 4:-0.52775 5:-0.670729 6:-0.727626 7:-0.379345 8:-0.316729 
-1 1:1 2:-0.666667 3:1 4:-0.945255 5:-0.964915 6:-0.929719 7:-0.777654 8:0.042565 
0.2941657677436697 1:1 2:0.666667 3:1 4:-0.91916 5:-0.910797 6:-0.776934 7:-0.615633 8:-0.260009 
0.3427902040781189 1:1 2:0.666667 3:1 4:-0.86635 5:-0.826784 6:-0.772226 7:-0.470865 8:-0.32135 
-1 1:1 2:-1 3:1 4:-0.928728 5:-0.916987 6:-1 7:-0.656764 8:-0.053996 
0.9756585101384558 1:1 2:0.333333 3:1 4:1 5:0.773103 6:-0.767455 7:-0.382943 8:-0.172399 
1 1:1 2:0.666667 3:1 4:-0.848168 5:-0.836817 6:-0.833465 7:-0.503926 8:-0.170745 
-1 1:1 2:-0.166667 3:1 4:-0.815739 5:-0.880197 6:-0.891488 7:-0.681675 8:0.011626 
1 1:1 2:-0.333333 3:1 4:-0.82818 5:-0.698566 6:-0.839894 7:-0.273992 8:-0.276889 
-0.8125106328981908 1:1 2:-1 3:-1 4:-0.295346 5:-0.587619 6:-0.787466 7:-0.531536 8:-0.452255 
-1 1:1 2:0.333333 3:1 4:-0.687797 5:-0.851482 6:-0.645361 7:-0.331441 8:0.493117 
1 1:1 2:-0.166667 3:1 4:-0.193455 5:-0.507266 6:-0.659248 7:-0.339848 8:-0.599601 
-1 1:1 2:0.166667 3:1 4:-0.053296 5:-0.522741 6:-0.674094 7:-0.534191 8:-0.562242 
-1 1:1 2:-0.5 3:1 4:-0.833631 5:-0.90445 6:-0.775561 7:-0.46764 8:0.077638 
1 1:1 2:-0.166667 3:1 4:-0.509602 5:-0.730449 6:-0.812061 7:-0.506916 8:-0.253247 
-1 1:1 2:-0.5 3:1 4:-0.883112 5:-0.955463 6:-0.941977 7:-0.793579 8:-0.17989 
1 1:1 2:-0.5 3:1 4:-0.813018 5:-0.812321 6:-0.790394 7:-0.40729 8:0.14939 
